function [y1] = myNeuralNetworkFunction_sai_allcolors3(x1)
%MYNEURALNETWORKFUNCTION neural network simulation function.
%
% Generated by Neural Network Toolbox function genFunction, 24-Nov-2015 01:37:30.
% 
% [y1] = myNeuralNetworkFunction(x1) takes these arguments:
%   x = 64xQ matrix, input #1
% and returns:
%   y = 11xQ matrix, output #1
% where Q is the number of samples.

%#ok<*RPMT0>

  % ===== NEURAL NETWORK CONSTANTS =====
  
  % Input 1
  x1_step1_xoffset = [9.82802513371268e-06;2.55621218795009e-05;1.20137661873645e-05;4.05709584849886e-05;5.63163177176424e-06;1.2450823732265e-05;1.31189084133076e-05;2.40495398310045e-05;1.21001658119507e-05;1.90244237145928e-05;1.01904632313061e-05;1.14984413803954e-05;1.34073472637692e-05;1.9088027049233e-05;1.65559785872251e-05;8.70193170808251e-06;6.1612434593233e-06;1.11217019711591e-05;1.82238881840122e-05;1.13440813093538e-05;1.05912392122613e-05;1.7747038343534e-05;1.34768186216427e-05;2.69440113829917e-05;9.8014511212908e-06;2.50882527430845e-06;7.16222204132565e-06;1.59433262394555e-05;8.04982154701494e-06;1.67570472794596e-05;8.39652737180383e-06;4.69032881047239e-07;0.00044928972021305;0.00234930514124845;0.00377060648168395;0.00128481438509703;0.00050589458682787;0.000787242372706315;0.000202977077752684;0.000434616251557144;0.000636557327939047;0.000195519132033205;0.000151553212851822;0.000230556140182706;0.000144645337591042;0.000117918446630909;2.8188744098288e-05;0.000125223232661395;0.000144715128013976;8.51496079428836e-05;7.76361469789333e-05;3.7767074282475e-05;6.2332696839424e-05;8.67024847521331e-06;2.57896087752831e-05;3.38440329100345e-05;1.97625079760266e-05;1.9604342997038e-05;2.07450200183778e-05;5.21615447319331e-05;2.16518453929826e-05;2.38486309856211e-05;3.34109462942768e-05;3.82930816762488e-05];
  x1_step1_gain = [216.645769083766;192.437124849582;260.564667422863;244.29737304042;241.060748357943;166.58434852192;315.862327000923;404.868347945442;439.855310317126;353.546237842893;339.655961956529;367.928589226913;440.446269142546;390.678465880696;404.468816708557;462.148672392001;541.804799430982;455.867537592965;606.633342175623;662.451280769916;436.280883589528;511.100001826991;428.519268522822;597.482620941663;514.65656969003;523.743224215175;461.537594300617;571.062577355861;643.336683589446;497.10467445834;503.487288220062;459.571025565025;11.1697006761834;5.77141184719286;8.3656709943879;8.12629273402039;11.9198976953977;10.7688974788802;13.8990241566094;10.4280656558671;17.1226820593386;13.3610968971866;15.8115304113411;13.5294015723546;24.0408240338051;26.2929535668166;54.4842386954499;57.8534699227338;73.5118708516629;107.973180072143;98.7682982389236;92.3665489118597;158.514778190687;104.585949420557;92.5206175000854;94.5034952865066;136.16662465883;108.64668700716;180.806801679717;96.7215466957531;171.982775716226;137.950301893456;240.574752868418;153.111029949215];
  x1_step1_ymin = -1;
  
  % Layer 1
  b1 = [-1.6966964187098838579;1.6251008484107467567;-1.3737895152555672507;1.3780362575965561245;1.1402024821776570729;-1.1698680057544377231;-1.1013297562707338173;0.85552886870205135939;-0.93480107812516377574;-0.98881285479007530181;-0.79622263320029207367;-0.65439685226953381303;0.75318195484160155306;0.73322961819231557978;0.66317383983441957618;0.62465074621707983304;0.29676340091012087807;0.2698792670892990464;0.45944849752646754748;-0.36342033453689825961;0.31187373961992809202;0.037753078448102703191;-0.22665208638339273683;0.0032031812728510757581;-0.071902021594350357114;0.056896859135689620279;0.040248561163989914069;-0.24447146001771921653;0.29873621890338475371;-0.44616566328381218609;0.33588674585877842382;-0.5419093950412099403;0.56187434308366501767;0.68079821658043093713;0.57052259921508341467;0.63972539227160585273;-0.8305523642195956624;0.71268765460885707963;-1.0319944809764782789;1.0967159442709280004;0.86992835011487534835;-1.0653604861476251298;1.2147957298605085441;1.0249623048122029623;-1.2855465071700196145;-1.3587450956234030652;-1.5562666956283235375;1.3805545443048037324];
  IW1_1 = [0.042119399276134783516 0.10885427444328102387 -0.26880897285272675745 -0.26986108331590435983 -0.29667955112277460961 -0.18276837436581361285 -0.28719278437738898768 -0.3117816113527767663 -0.15829536096717139459 -0.27347520498982635928 -0.30516187259546101451 -0.15985123924469857304 0.08122048907197479406 -0.37746359268287960065 0.11893897133649268538 0.13656536721474829554 -0.019311275722172151215 0.44287637860861334138 -0.088751981092888829195 -0.14040937074314058242 0.31568330400632071964 0.018255215904494040413 0.082174625766684550321 -0.095199307005892491729 0.1774124638682465227 0.066877478950265134561 -0.050042181877893797404 0.12748322554340379975 -0.12845851281795131471 -0.13348200019302514097 0.048858157563888567065 0.46817930222549425379 -0.86243060009304295388 -0.30370963344659640537 0.29901945200595669849 -0.87317208935282453197 -0.36407197585049927424 -0.54792180690376679486 -0.058837685478520078408 -0.36034748304503122496 0.36070689154700474877 -0.32523266020988916836 0.070497808257437094559 -0.25431081577101877222 -0.4705914217196953131 0.31071608606942208164 -0.38397842199383902528 -0.03135924335014764891 0.29910053326875768454 -0.0095884881331844036556 -0.20867736982571233328 -0.22816035730556466499 -0.080522403674569101306 -0.028205935300583451913 -0.36386470121186303972 0.34170844193628618912 -0.024603306651191522714 -0.18024987967192576677 -0.45471284827403590789 0.07320689473024787064 0.076906819189597672159 0.2765707020903905855 0.082484861239405002364 -0.046211399534263779276;-0.13957830242434873802 -0.049519849081361200227 -0.11288167906432113041 0.023511557809994813179 -0.17005579008765578375 -0.091935760583025744053 -0.067433120344534011603 0.35824073418813418002 0.45606380235897397979 -0.16516309868520714921 0.24349154811206832894 0.16376198528787649922 0.023725663976688977225 0.21364404789095109427 -0.060213515321325163099 0.13924319578176000411 0.044616668656731160725 -0.08917285806336659737 -0.12916945516057151688 -0.11740133546394790343 0.026860234763416618309 -0.33846203317106926534 -0.23576421028017927051 0.20973826622740324166 0.0096422699212147331554 -0.19721904595346029243 0.23114619762759600063 -0.1372623145120583088 -0.33246974664302597624 0.11754943867084861886 -0.25083078074246878408 0.034302950147980362794 1.0051426067906892303 0.97209692794048940812 0.64096123138819116605 1.6281818547462434399 -0.010936881360508668784 0.48353392059202077169 0.21454422244620385829 0.40429357001292376417 0.076544257680801489063 0.31663422405811725291 -0.0032948347586029868087 -0.29564220789775252918 0.36624427839163692378 -0.48512982714441704735 -0.14364756059445413228 -0.12861030196895037458 -0.011539040590487449275 0.16089791957772420217 -0.062076982041389068556 -0.4803434328170179124 0.2550698393983866219 0.25336734466663968224 0.28345537466839215712 -0.093507852192875620667 -0.33237166414657143276 0.32128190383906080063 0.02543415629757158139 -0.19821080456909248579 -0.020274841436797742117 0.060074642429528528342 0.24258081496730896087 0.11561983421722366039;-0.0043980428598875982021 -0.053666248387446484347 -0.32192290299136971932 -0.0062311125005791940037 0.15409336442721296989 0.33406257683993856311 0.2174907183410910716 0.13414606480394772325 -0.0025888097091589542913 0.18307554043199791849 -0.14252719939816557715 -0.12655508337631848903 0.077807868655385095669 0.18071025702630685861 -0.11658699417761771155 -0.33588113903678140648 -0.039752982041360844512 -0.3351793544172966266 -0.03053035182119462343 -0.28068182020984344671 -0.12029439526152715945 -0.19307440556660707132 -0.25210342828486254074 -0.016391490770675962163 0.12898118816076800663 0.2729139611510492669 0.17971473822795197561 -0.11566922010902992712 0.085983496595819372543 0.12316723208807775491 -0.065833270471380558875 -0.21494163429513790664 -0.35144744775708247619 -0.22722725026803566872 -0.028995491531818729652 0.0085998191803273033029 0.22157881125197295691 0.26916858514591751605 -0.3984352117624636036 0.039442352674411262914 0.19664911496520218193 0.15155678713145392944 0.18341919489211552796 0.27310663264515233628 0.042363302175432222818 -0.25265269276831653356 0.042246607416692248671 0.1748145680846040495 -0.21895688375454325225 -0.042862243742980643546 -0.37707221739170970753 -0.093078238614391753392 0.15936061027226447462 0.13921163852585094478 -0.24189250486387992023 -0.0495671362080163172 -0.080741053213505789565 -0.25794620706105925168 -0.026047788435536206597 0.16956953815746386716 -0.041317004316572626677 -0.17819759910492030675 -0.13490710757648655127 0.23929736038437535162;-0.30559031416386406299 0.26588660103326777762 -0.077232432056403177434 -0.097924779814104925824 0.17472881906813705899 -0.15663300620263695406 -0.19871443165695143462 -0.33183662858740181623 -0.062119471655944585864 -0.022911186110698839036 -0.26949511924106983596 -0.20665820465607864787 0.18773441668887697054 0.15989792818229592308 -0.22568167775144909459 0.23755532534279788504 0.077638754558814679352 -0.24001598550079672467 -0.18784253170947262657 0.039194885044244259786 0.10378903537745111374 -0.18482147169450713342 0.17823146207264153884 0.1868610290257311235 -0.18908642364589062224 -0.34420443363154867855 -0.060550708107591701135 -0.24916713030125928197 0.11678341255200762328 -0.27834934908525260644 -0.15404277674164659762 -0.24708397033493881279 -0.32907630238450619187 0.096159929563904275596 0.26200259425237992783 -0.027570869892506691401 -0.2231926803468999021 0.0087114850394471674694 -0.10586852376571906365 -0.035437718289553603312 -0.14651104624861038817 -0.24455719795063715627 0.090465753679920338226 -0.22952332860172514062 0.17249731401878803938 0.099781586995241533522 -0.062711276871193155635 -0.30109053791592221838 -0.09815841111159825938 0.11883472045045370691 -0.2168130902433215712 0.050725446476419279451 0.25063972514837518091 -0.15570526737492904057 0.11593793590795714588 -0.25392940787365003708 0.27369028940213285805 0.014411602884609232139 0.11057921723585982521 0.0019323554991240057647 -0.028288060923051801948 0.031617041218160030214 -0.25008326310631051603 -0.1105251393758632239;0.025356586752769357668 -0.1592350724127073458 0.36011584854372646891 -0.083906082564062997586 -0.11880194426794915552 0.12183115900675751953 -0.024935568025678263304 0.17638442662968184527 -0.18613650946805682107 0.042739343307021879226 -0.034153320004924665743 0.18271485414639615508 0.22152261615525709049 -0.19971520622152202917 -0.18597683602344641796 0.29325839563944722244 -0.29187378326112184412 0.19837462660286331317 -0.12450783730730247134 0.30761274434727420291 0.053734489176354337248 -0.031215065204249093506 0.15710655533650674798 0.15350285202847802069 0.046040514689070909105 0.22230712095385962712 -0.14833783315751081222 0.0056130802528658483783 0.21940662997033427706 0.12549917303449686923 -0.13100451161584317217 0.2013110321901927513 0.19658011196092470274 0.70238112880953085249 -0.50246933656437886562 -0.51721606535785114023 0.011309057443372237325 0.23604083811307652319 0.097216351953779769901 -0.13113408345198701577 -0.10547491521092672295 -0.23202426679627735639 0.5372477955429841856 0.053581622031509380799 -0.04814353338812375066 0.19503834262799424337 0.36286047188343889536 -0.055011211977535952322 0.236783604538349568 0.23695669875037342345 0.13621493255173411363 -0.046751932444946027456 0.1841355504583874203 0.27909129454844860962 -0.25559242740770460323 -0.088336110537906575857 -0.27736919045979502307 -0.44930028152807122144 -0.06102157217167276243 -0.17527477835984778265 -0.020707112644879673707 -0.15522947201973130715 0.45938994267723032294 0.3303981684931250884;0.26102444684666525898 -0.066754063228240900774 0.21880806309910028062 0.0047440404262974640581 0.28540147095471579686 -0.16740583222236235517 0.20794213628331403854 -0.20530934968835107268 0.05926839461392916647 0.076128434414042753242 -0.16603638649692725737 -0.051590074826349016646 0.27448586913005162957 -0.030458324955993976851 -0.13016232467108149184 -0.22213897898353421323 -0.095521347878756254768 0.058958895753152003316 0.013520330520220212936 0.0084443903112538711703 0.03532371983747194244 -0.078111214319147401208 -0.26652118618899167668 0.023785251275875309018 0.14890809348292233238 -0.17915761025225662717 0.21290024386818409696 0.12813079890935977212 -0.30899103567155639105 0.2706199460093028919 -0.24258093993548204836 0.028668521750851567315 0.18176156362383588672 0.23109040357150265055 0.3218269995656325988 -0.24060241142941504733 0.22053141947638527087 -0.021688075994478542285 -0.031537984127201712514 0.22475426078564139654 0.085401949176234656647 -0.080969543185638453986 -0.15145757209617100036 0.15698290754258628632 0.31715867462256186471 0.19882767435347953322 0.26618616627763480587 0.24383106859715406034 0.2115998302194521119 0.15387631902467951983 -0.16019007831033185707 0.04217676030715958313 -0.080988783448989951075 0.12197887920942990236 0.065505040394706517959 -0.16810087146095931132 0.20094432140470783188 0.33252156496914458961 -0.24378296339789010116 0.20648535844820717355 -0.21952959386220621818 0.25759096423525251751 -0.30075541360525664958 0.14013623220446258522;0.23890291639789015821 -0.30670932611388895817 0.3057520738527791937 0.029679359465552519054 0.17378208140323342379 0.14317824072436077798 0.089418007331644358548 -0.063687852086946022956 -0.27864957948672125498 0.21272169273990995664 0.22578714120103357543 0.12224896410699886973 0.14150803997405239643 -0.20222826704949192766 0.15580367763339555975 -0.026439577602145498958 0.03275388179991833848 -0.23274501225215654676 0.24924429787424112748 -0.22398527506770668505 0.13842699062783700437 0.12261518505361168607 -0.21623503805442415016 -0.11403256766611105655 -0.23253085870357573239 -0.22422864053475793922 -0.15905040837159842293 -0.24506577577340896146 0.036612744409849851124 0.16219786845459682745 -0.16840013449173174553 0.29385887845752162173 -0.065477061056873897549 0.033342420018884849631 -0.046166489382408040787 0.28228211358195182124 0.061236691287758063251 0.23855131422285155707 0.0011012567712245795344 0.004023730328658919192 -0.27166500068838633775 0.11459807320244305706 0.14369975489240185973 0.00065641517870775132476 0.20524086440702971057 0.20655864662929537823 -0.020154105442521448588 0.2300419104429445305 0.29519251566826648636 0.13974342100439249292 -0.028416441474074283918 -0.19588770291954224478 -0.076697753932221182649 0.23531846162976496895 -0.22306536677976229743 -0.24469639715887187004 0.12866930028914205786 -0.12025249354909033073 0.10858839868159361752 0.19273849773783233164 -0.065468712474749168884 0.25398302365445857287 0.14732783532627866108 0.23586536192707061033;-0.11146724043696031037 0.3262125997837369562 -0.12249987744376064636 0.37398140063459989202 0.087958509074916771397 0.024717209972420425834 0.15263205269482602033 0.28823958592673359913 -0.16829402317032721159 0.10042253740201330381 0.35847001742602047081 0.24956584395781256092 0.35417059312872561927 0.20493676772791594165 0.12373689997753373193 0.33133676179090987279 -0.037137433022122225135 0.1484179541048428197 0.071661370667172694104 0.14565820645951496615 0.056696667497468336561 0.56485300483911027314 0.30958070951258703785 0.13961528338570766694 0.3041595629416871116 0.29423206261918838367 -0.23632357919599583651 0.44647727451572249979 0.19100779363295125601 0.26389335334803448729 -0.097133410887041041204 0.10344567438043107688 -0.24419952793111598943 0.058691508494126833073 0.001293342255817887549 0.064659639119192854895 0.0099614783918491409814 -0.064978617215799075457 0.02601040834624143705 0.47492889427938256297 -0.091692523576490547743 0.11397083466291002551 -0.0057613685298095072482 -0.079993876763634869098 -0.072527626868285316464 -0.007931869601334256073 0.33208354034218368067 -0.036802493944046915653 0.39893338568720604354 0.33017415611056311064 -0.11578817283741330013 -0.061128647876238763337 -0.068101230201379800433 0.015541377097732098772 0.26113844449461026676 0.29687467161006658722 -0.34740289545963581874 0.38915145486821089982 -0.17900757801792516188 0.14587028667695953188 0.14802763477522054569 -0.12758767350921385031 0.38169338191370794089 0.23719403292322310817;0.25670965646642707192 0.13846506311686432311 0.12686178314623325347 -0.30024221218651414578 0.25500771396411536784 0.24498585485713714194 0.11754991007000298309 0.066913755132122415548 -0.17269873949870825913 0.025538339525099564703 -0.12817377801247323288 -0.29767405904224564228 -0.26390462255140811898 -0.28370863577975419245 0.23875710099287228427 -0.015614878063631704511 0.14775480599730536624 -0.021363388238371968514 0.01412228804728722989 -0.080664913922205969121 0.13124708083438244022 0.12147583835885343573 0.24086158916328284652 0.036495452645353636256 0.024246003387947221569 0.19607932978019665393 0.14678472440166159818 0.003575326920851392299 0.25205742205301784331 0.090601169035462378321 0.082023152275653987697 0.22430589983838022938 -0.19561418652615855662 0.074232350353055462366 0.26032398734516654093 0.025104777818296862557 -0.079227795724099034369 0.082321457391739003007 -0.1651797949805337562 0.17038169032685318571 -0.080215968871946013996 0.42466586302405567865 -0.20468834642810040947 0.014509434611652476804 -0.44208076126777806625 -0.22740698412536913819 -0.34392554278353915098 -0.16730207179036846177 -0.098137518981390156614 0.45433939681832119506 -0.082378571260400407228 0.054420695402322707968 0.37036590082281201086 -0.087213565642215148954 -0.19255965295727817121 -0.22539552740737431313 -0.15810221848239533471 0.13219748659261551516 -0.3903760872331119014 -0.40176176620963166553 0.11084098590721790101 -0.31010576989770066714 0.21514083633382513616 -0.16275353011516369151;0.097145394347801602986 0.17842534443834670577 -0.22390069516748070666 -0.18211508990920882711 0.077494394727384910415 0.062549442802773094763 0.3077855692115165076 0.21562431911192092571 0.29833949622858474404 0.34374089202170460267 -0.048957018555850932706 0.13117952925462436631 0.036808002917202577164 -0.1785685430741420221 0.19776300611687269715 0.12916371037471513494 -0.076036073648894558774 -0.18322305381319534123 0.17870097658370673321 -0.082699821502008469265 -0.092227898761566062813 -0.0079221025398496895675 0.24447380090743806025 0.078715678908674008296 0.3001378438830646922 0.24373509768833737099 0.20870783473100093519 -0.18512055662129478506 -0.15626784968267501408 0.064600321727178056097 0.28094365406209259595 0.15119043308641072487 -0.096498123435867513842 0.23311699215215839209 -0.11256394811998889083 -0.20547776172719070531 0.3165020442815548174 -0.25684146669489060777 -0.13008107298265261798 -0.11049219549865618717 0.1727038311280924554 -0.11045996493526713533 -0.10656015772646797168 -0.12382911410274759223 -0.25109668178991606524 0.12722592866536922007 0.34070239217420900113 -0.19600721600961340529 -0.04609379780309497826 0.39360808558221382913 -0.25549682060217548951 0.00073265763859505308748 0.027434259600434045268 0.16954365481619576572 0.025362843343529419687 -0.073196263753347964864 -0.13166394267171968591 0.33610100715248764081 -0.072859302132934997132 0.20998381183969208608 0.24545016355995671886 -0.034030345421011562457 -0.018940013100408343433 0.20320421405263827674;-0.060691820028025783573 -0.27870418929189078039 -0.060251279485526762492 -0.32046297086319142089 -0.35285042742553990314 0.0096115076053237998022 -0.22635237404647107207 0.068806556566055485091 0.4320935541773138211 0.0052641485295875228845 0.38851426108463565923 -0.022936583548628979023 -0.098001434255330796552 -0.0052897943179041999329 -0.090836231350126958595 0.063000552273368121137 -0.1619125865748130555 -0.29226773638877173722 -0.23151272220415869407 -0.021627449019662996904 0.15017497111874550386 -0.02911702026814362923 -0.0083309568629821341423 -0.42320133017106220663 -0.097617922416495542248 -0.34619111098577037833 -0.27443695793665762173 -0.20231228241578583238 0.15279708762725199844 -0.19244012450253611402 -0.015614064123013474822 -0.20220545276754853248 0.85212127259781689226 -0.78069573227780764135 0.51123916549299042167 1.1553246809702399922 1.0128181686642456771 -0.98590951417975880577 -0.084902120706002698336 0.14131796289700482294 0.019799175492254066089 0.24491464877646548781 0.31831094702455703382 0.19414143245652637493 0.66917536291719614816 0.20407939963169480224 -0.17161832123683132267 -0.39216840145046405475 -0.7975452251277717064 -0.31889538464907668525 -0.33879788190951976024 -0.28923299579060979259 0.07636058471757431465 -0.13086030101111270629 0.35928254530391373622 0.17951723660768831303 0.37008306308083488423 0.41591906629112113114 0.5050298940775969081 0.33335258810446466438 0.30537219939950616121 -0.26004971949966604328 0.30361518794141445499 0.0029780463579050240122;0.051329326289799900862 -0.11216861039141493017 -0.18493719886245618689 -0.28406848450521171578 0.028988813729042918477 0.015406953633314620505 -0.30674597684233279038 0.1333467217832816909 -0.0069307845763699645059 -0.15910449355028152829 -0.010133419703430325554 -0.026637532137680868666 -0.099499897341263215944 0.15563241403320698941 -0.13260865641793978531 0.062777173537244879142 0.01526781600924142189 -0.23142486913953150274 0.15303602854142295264 -0.30902649141771010299 -0.15080369134621862681 -0.11883906871392696525 0.13744466525444407057 0.031430222513011141228 -0.1444841943061219991 0.081111885177065870534 -0.32010975198112640028 0.12254766014425269582 -0.27650414762263386681 -0.0031690601599596922126 -0.39370664536980837234 -0.3348310564735460515 0.84967538800654229814 0.0076947138721972681286 -0.70545957777057155536 0.54786017079331528201 0.80018750425509477253 0.042349550201753904943 -0.08800324793505417964 0.37655896568129298974 0.55014030380146405896 -0.090273358007932791303 -0.089374234750886627499 -0.38761160431980629104 0.27956910027135922769 0.14025325537969471346 -0.18684591392224311757 -0.28036446464165176717 -0.27979487586214124573 0.0059348987253581668433 -0.11341228513791686006 -0.1234505928855136464 -0.077139264245896607686 0.0017621094532705942198 0.25312452122566347912 0.1286963993026666031 -0.15267588239812854289 0.034988645325946823861 -0.13778691064170042746 -0.010438332141039239134 0.37414072908152384844 -0.13419437409707210551 0.4436874101594860953 0.20940990076349777493;0.012267188075464124583 0.023813403637503643973 0.18352356872262712284 -0.13498061968349975293 0.014927639134282622707 -0.18023728878396524933 0.17244095996986352759 0.044723386783248643417 -0.13702906051741103877 -0.28343782478329088148 0.16327365050258940693 -0.29418852832138031594 -0.064958125158351115447 -0.30095184712070516264 0.27355102892138055681 0.22797369741130762977 0.10765546446457274765 -0.25262126080905122905 -0.15882934703864276527 -0.024331707215025564356 -0.32705927168709231223 -0.022221417663550912386 -0.14698236278740159366 0.051633968778453422088 0.20020520099558164473 -0.12798319240075220482 0.19532863186387455778 0.16543351053736993217 -0.19696144078145780276 -0.13385736678355289464 -0.1602090299023877229 -0.029342337433132498203 -0.08417200240753902607 0.21293826778088295604 0.093669367716219420483 -0.18511199573469264146 0.15500991236502076331 -0.27609548457312965697 -0.0022082296584391685607 -0.28945037313565991077 -0.22278988029165477935 -0.37113804697137398048 -0.037746949180198774432 0.29243801396396557069 -0.405122310067302982 -0.030902307875459868181 0.11037330867543164448 -0.19838980309830397952 -0.080006519790862234975 -0.097013383542612116606 0.24850414231841733148 0.29642650059196296031 -0.12830797761913378952 0.26929787903187041298 0.14827697238223280785 0.24031648637680752545 -0.23803341400548433393 0.14827841740145955574 -0.39494663537557800348 -0.22178979248874844399 0.068282463023232653487 -0.23050398277494818511 0.13464876984106036173 0.086257807395979116394;-0.48494427725071548307 0.043448912415325169345 -0.39116290446093765487 -0.26591767991833958895 -0.24055117652043189747 -0.16318063222080000929 -0.055646845766550011303 -0.04938980203207071068 0.16759738876760355009 -0.3130588556347034257 0.015908271357765291221 -0.27818627122909811433 -0.29112548364741991369 -0.069089784915437282842 -0.3275118712310818303 -0.089057609248609170827 -0.36839206636503174508 0.038021880681672358404 0.036086639952786152274 0.048874038922479635938 -0.35678802197214570802 -0.14637413215667935407 -0.18433640484973620732 -0.35562279888054532107 -0.20867521020894214123 -0.30792235065938372562 -0.31924639568449897364 -0.317632251517814157 -0.037546531510108782648 0.20190627463458157842 0.10656874291306883684 0.14159452377917239319 -0.22117655126666663223 0.17065446437333983698 -0.19748226785390340932 -0.59648314997172224849 -0.58214064316652525122 -0.063350969307714513623 0.4540274357314499909 0.17320601720800926637 -0.25032548768884943513 -0.23727993487928031313 -0.18103979826417540555 0.091162726458082266046 -0.14663143684993032445 0.07956068759698212145 0.11740489947445577334 -0.080534720751486460477 -0.1964207472618478556 0.18755159243318544893 0.13376584618310535801 -0.031840183799283987287 0.092298090215103087419 -0.0121573177714361675 -0.07001059026414428732 -0.27275373212111980736 0.085919560787080379027 0.032217487081420109751 -0.092018527284161752422 -0.3519077005044666806 0.005815312372394040516 -0.15023272918498351003 -0.11215997410708417048 0.082471926347283411318;-0.050023275556378483941 0.47156151125858558615 0.32806197059785568992 0.1337238751815785498 -0.26200054140673689762 -0.26095543681211441633 0.27687762941466415034 0.026452098449555188492 0.2665142034151413708 -0.25762225703324620474 0.27206800063434094517 -0.033801793139597600957 0.22315873478216893822 0.06490823631125423876 0.02829848044781239913 -0.14023888679237223043 0.066603176685020915038 0.11323063554206221071 -0.25786508371595967537 0.091767759173614057988 -0.016045533561800700423 -0.076774427202240855261 0.21170866627837453544 -0.1381574100153718232 0.17538014950254754432 -0.084366760023978124017 0.10825659731011344489 -0.17081206948232227627 -0.16102393970476294727 0.30863273168083588116 -0.3871739255491937759 -0.26293916688502166901 0.31543872059615568615 0.24462328026636293021 -1.2906697973392420309 0.58520123870823759216 -0.95171391399613713968 0.57960814649811664978 0.32289051416122693805 -0.35414550586147791611 -0.2484955910145669189 -0.23552880215286536858 0.57269510276822410688 0.22366161076763779736 0.077161488525885169043 0.026778989264519617586 -0.096269337038129496054 0.11123950381396159603 0.27280488520189455359 -0.29064854615659896364 -0.049762433473023101604 0.21481249178015493495 0.035646831343537153935 0.00056378632309756577731 0.26745329406060885935 0.14974189724466230311 -0.44459889375564881631 -0.17559419739938827987 0.17877808629368571736 -0.089877340577510178576 -0.33809583863092868006 -0.02602174473849269698 0.15644652722137666889 0.11804448117411892039;-0.22160661096022399308 0.21107480827748376084 0.27410577984810058361 0.033885701425478330362 0.31238943437787641821 -0.18116964858082401646 -0.13441385500413280396 -0.019654975436331677263 0.050194949363684668309 -0.043134935430521346988 -0.34275327814096856471 -0.025986977403854704533 0.13360705351608206937 -0.21042885979672415475 -0.0095287868311378885744 0.035440911109448587635 0.063585326124244043178 -0.072538126476685740873 -0.34291655775242951831 -0.14186782490683819136 -0.23572013131441413303 -0.015582724696711940798 0.026227941674947859163 0.027155483845396649611 -0.24268556189100259912 0.062009349626360461827 0.20548252420672435958 0.054600300465808992989 0.17243087844795962349 0.10206766593399943521 0.078745228628422925254 -0.10777774426639452621 -0.26692706138439686869 0.56852926115026425347 0.37203749042735967389 -1.3553497936212739461 -0.76264681400064426864 1.2212727631163808883 0.77392008296311054494 0.092518525263963174998 -0.10508859450209633024 -0.26204862041832466257 0.064485284729625017008 -0.099510845945533998869 -0.29651989253753574527 0.37276465662013946734 0.2469561098033745683 0.42859885497863542403 -0.061209840861337440343 -0.08589824951379392004 0.055258767715073237037 -0.076123665190862346841 -0.10814544728487135439 -0.051751205594353942574 -0.26339891319905434086 -0.16471067244482379133 0.22122078603163344845 0.14176472059954847715 0.24369981559732292742 -0.41265522548065464159 0.18046921054452869093 0.027683188759583577526 -0.17667471638533141509 -0.28829928078549366122;-0.16458767507623897619 -0.22161882847842015454 -0.0020785070771403599092 0.29036676000591016278 0.29910648212660667644 -0.093015103329325443671 -0.047130683704314529914 0.15792011262899438573 -0.015130651552010728964 0.2619222127480921869 -0.079487051124996876972 0.16951016740499985636 -0.23170575926354641805 -0.28414237805864955844 0.042871892881215276083 0.10921369610284485663 0.14770659322313658968 0.060278594437059948574 -0.19165939925639022268 0.017999167658174882595 0.40679210061568171763 -0.18217126922681553536 0.3059714191222771551 -0.094487654272327761817 -0.34382337481045083249 0.05936903425639440679 0.32300759024178982148 -0.042586158047263074355 -0.066358187727816084212 0.21159680441349690283 0.042483628467293407804 0.16595212278918494708 -0.45456132018162603847 -0.17221470862881291253 -0.22202896014623188514 0.0045894271919690978259 -1.040987775501075463 -0.090024344422551777489 0.040383275995392028945 0.17017740498149261374 0.26675324243191006479 -0.480573359162720537 0.65085192480618747624 0.40912620206739891415 -0.12231619691787873339 0.15120196923750844897 -0.16384843391963488379 0.021269401010263869894 0.082930243928778027418 -0.57780774838255999359 0.058980817276110715508 0.15226498751387129715 -0.11299363394004974248 0.17642170171532950418 0.14785063353786381812 0.44503640870884014769 0.14077779802580553392 -0.027089245307832778009 0.1401402634193055774 0.054148003053778842597 0.11820567190058871299 -0.085347674391129502158 -0.32790367601880737736 -0.21597830046359142719;-0.24784146786954672215 -0.25138359616593841661 0.071989496862013724332 -0.24615511394312941662 -0.064122042664802383904 -0.056413293693049426647 0.061007636288243530243 -0.25206484653686656028 -0.018957108347638234463 -0.20924339234847164071 -0.07784906098757279902 0.041806210916861305527 -0.087911958987450550262 -0.23818885597029329504 0.28535312492780529059 -0.092344946504047550895 -0.29496340511880081436 0.25338866760519340726 -0.27029997064366645398 0.20921435004890395759 0.22101197577921682935 -0.22861851079751099869 -0.11724846889042482567 -0.0050384236891822080373 -0.12065780649487946319 0.2816159711048872305 -0.13860971269905456027 0.21771629005377249322 -0.017854778537750807393 -0.0096926139617201072934 -0.15154406250156893243 0.16388029817324545334 -0.25499440225888092559 0.013287126878647441061 -0.10312535251325184726 -0.35333723486148665982 0.00041428046898842225965 0.10940059767835205728 0.019806571488791953339 0.25468685655799772061 -0.11027403749263806065 -0.21334602612898395657 -0.24862770318284690974 -0.28276942517717296166 0.32470587337908124459 0.18921261455132301621 -0.16914638352354402495 0.10664345684995418795 -0.16794516479010884735 -0.35671462544876347822 -0.063690550744507620773 -0.23232489277880080669 -0.20038166420514788579 0.095811241554978651691 -0.22275687580577788194 0.26489877795048055731 0.084150061049401800317 0.21735874455531786764 0.22678578875030361295 0.085922941536132280138 0.18380518183359115247 -0.15833089918543555297 0.32305883586719702505 0.25148557377791724843;-0.090920209905229892877 0.048322792326421150355 -0.098728933923181549925 -0.26107510617449058987 -0.12566245180224192013 0.022630511537016850115 -0.00065538709121506870652 -0.18154232076795784323 0.14547478239318628601 0.18568922048368136091 0.22779628134611734636 0.11423666536119347903 -0.048691045849467061435 0.016800567226353525091 0.084023861687615955529 -0.30596664176240551125 0.12263940108542206731 0.26758190186645447461 -0.24335623101367231946 -0.27233963189434678975 0.070305155187427054164 0.3268358911536936029 0.20687789582689228296 -0.16198363677714891495 -0.17974365315720883252 -0.20656842199748631783 -0.13939244174785611619 -0.28479437470667723353 -0.1138611619399061553 0.15582506808796456332 -0.23728515205972294799 0.17221043013806641708 0.59708162083794891206 -1.2364511556560902061 0.76345590873115720676 0.17094125818830918639 0.68591642541002306732 -0.59962564873855994652 0.054964984992012938525 0.13540979752112294876 0.15147221832497034799 -0.15459350905601398907 -0.050270959889855630631 -0.03167332166952939454 -0.13848472886117979552 -0.4706825606936899109 -0.01723475899743660486 -0.4584409511564756512 0.062733254326503992693 -0.03062927375684740619 0.18777297532020803539 -0.47529226790510598066 0.27100818158078876507 -0.032541036181983992726 0.1340530989244497484 -0.17916949549976435296 -0.11118539941141479532 -0.020446602245097877243 -0.20149374267238473468 -0.16271590472680164119 -0.18494295353014283956 -0.37758152301386777028 0.035746543695353683034 -0.15482487370616729305;0.1641084858202074559 -0.14858460432261563766 -0.082908410345997787805 0.29309096310587506862 0.17669451175320499692 0.049849083079616808567 -0.15304882491310387027 -0.30041954873547316307 0.01891161448275953047 -0.22070337314735857803 -0.0018323017694153683789 0.27426192887120354191 -0.0087566523082058325689 0.045082182479166121869 0.14792203726817945708 0.22146185278456537171 0.23812441251341334714 -0.016287083159777480251 0.22070709365029855809 -0.14634109130742212201 -0.28941964327851937844 -0.23061758336217003107 -0.33210951462483651042 -0.14522341784260758835 -0.30134292962829078988 0.045029614145717926366 -0.019491310984810189533 -0.13826008565600766964 0.13781670108115115503 -0.18560728224669234554 -0.42780002759454893724 0.19799583202339793297 -0.34253788946942331783 -0.046646061497033659837 -0.71615541600072041284 0.057484116011266683799 -0.51653321473746449666 -0.42974262174034805195 0.11625385299410091744 0.23182211119915727138 -0.13785522874509403835 -0.13575450753208925803 -0.035979322744834847658 -0.33421897238605691172 0.21242378679003282027 -0.037116380982213641182 -0.15246561328640040323 0.25422012574418684228 0.26226576843086829571 0.051604769885048619449 0.11699367733175550232 0.08320084552818850232 0.21084204273903150995 -0.16323398206051478732 -0.18182158821041652375 0.01922831813020792896 -0.11051545933180613457 0.14016804833755391879 0.31519671466439064256 0.06246588276463550804 -0.23361058350669877681 0.15505282450226717805 0.087250414563730407935 -0.3001930011376815477;-0.32387430852129484027 -0.30779299744526228411 -0.37183400615708134263 -0.29324858515851420782 -0.087054376206128450399 -0.20378162267356922377 0.11446383663455600432 -0.16561880438317549968 -0.14352830983556122413 0.029838544023950978185 0.1561704340287338455 -0.2264363515443003072 -0.25092379775245221563 -0.15287009653533861764 -0.17927118596618885071 0.17599662465169471637 0.19793761620974223425 -0.056124303805332315109 -0.041452835306658775139 -0.23969020402458651731 -0.082255332933347635738 -0.16231501357515090711 0.0017424294382946139102 0.1563835555974704139 -0.11135439801475377486 0.058469492436609135644 0.13977160761999762872 0.046135788600052130004 -0.15878999797948464834 -0.34257362748784025985 0.29940645860032155667 -0.077614138451982145339 0.17595016617542572068 -0.16433781320091492284 0.26956243228154253 0.15700547506928652641 0.28726132330939485593 -0.28157659791791178616 0.34753425338442667236 -0.14722908456683225786 -0.25721705933308930403 -0.024147812032216213474 0.030365389665030113886 -0.15176504859858305774 -0.30525348982125038999 0.063207626404476663362 -0.34574343237735744028 -0.50876243130876019904 -0.015574022315431014507 0.22873413617106297391 -0.077445369947458320148 -0.060921002808194693601 -0.26259201391973147066 0.041758447008954403812 -0.044992134903364004728 -0.074242689490157748322 -0.12289361550651127508 -0.017645444992715843269 -0.16831429209582698947 0.070898242921023507668 0.053240116133977805069 -0.2205492592859377432 0.010090025344443106711 0.11297764867823983925;-0.093737678125283302455 0.26391920970736282293 0.21328460244452690509 -0.18230370963656103434 0.33092335373473208415 -0.20091903890561729762 0.012636243314919602676 0.046716370353795673431 -0.095020024910301467691 -0.17836390973510082847 0.054569415535705399767 -0.1730205783734853342 0.26572488231584195928 0.39031838525017531483 -0.012175489806576044946 0.07427726152388353098 -0.049282495840520607056 0.044565542332661883806 -0.11170133119253848608 0.30230570107550991388 -0.01649741288522415042 -0.065141148076824292867 -0.15510900829719179161 0.14589609329614908195 0.33792237543048853077 -0.16211912721782098523 0.38245065649489756732 0.18622751670454515405 -0.028290414415985148944 -0.084460065593345734491 0.22383795081978932751 0.30186692881412419132 0.24622860314048988783 0.25005234473395920869 0.038735266190078755655 -0.10340810281045118013 0.29679775575536726517 0.17119919374690009684 0.21357881392964547795 0.11246968633213827449 0.29673474019383555556 0.157240269740939409 0.36862366006261754192 0.33006547548786419055 0.15188524166357125766 0.088789588504646771439 0.21911209828040409398 0.11521450096704538568 -0.014152655274333948016 0.11252855426772311043 0.25914721582249056198 0.10826395965638468954 0.15938634136463905588 0.15567564914721029878 0.30157281143685421565 0.2798696195359554606 0.24192953105907152866 0.34001790861217728867 -0.14524629416536993798 -0.014055544337709807712 -0.033634172893343201871 -0.21270995813992518708 0.28074590014423372875 -0.15721100910772670134;0.059529756102589606592 -0.28723298704024541328 -0.31605690241513484384 0.038102555360043345589 0.38734138605453638515 -0.078361163589585558498 -0.17181758354601001093 0.059748944609108178838 -0.017413607805162451686 -0.077236430561167579434 -0.28164003893846922821 -0.06012580634610147079 -0.16966501807047909556 -0.39185850681280881558 0.044005659167829391798 0.15043188310005103925 0.0051890851421199854498 -0.10877935376559338954 -0.20071985270219844244 -0.16804351828506072786 0.34138734986285007578 0.143688344016449282 0.027879524472065386059 0.1892844545898552111 0.30868272638717669798 -0.074096853873755488817 0.30383619456625154953 -0.15135396703024606158 -0.13436659243496010263 -0.00055873875395644786827 -0.048287273290958609984 0.050688763581928128477 -0.27598132243952783194 0.7166196861430621512 2.6395196848387212363 0.15567384628803501712 0.1255582355508882697 0.024069089505207180019 -0.21942509177053065583 -0.25173936279532954652 0.0080837695914846696005 0.31605844749016148709 0.094550554981499237983 -0.3285297970272607615 -0.56874359951564990023 0.065717239172592964436 0.21764000180900919257 -0.0026772581903877234501 -0.11483031839876486901 0.18031174890110021614 0.54042418600674513307 0.25277706006726019528 -0.25168878860724397395 0.060099785994863305638 -0.091219346558458563878 -0.18961390027194699459 -0.12551650713465295484 -0.40675610898576985974 0.14595966293040751882 -0.23093089596420030007 -0.42027373172554638447 0.32068637441458597293 -0.1406295841863743068 0.036788711492463606334;-0.17792744240518823529 0.061691534731676038461 -0.0035941337565239296625 -0.27813626314777339932 -0.26948480000103997023 -0.13004593191590113621 -0.35210113039829615822 0.2403629791593373255 -0.14339615943051645108 -0.22789252116001265658 -0.24625926744174939098 -0.087503705136128318021 -0.25260764806250768366 -0.21947233586602918343 -0.089872028549069948866 -0.026522691433187278731 -0.33068292075168059796 -0.10211036561882592955 -0.1132004898355108008 0.082154875585946668393 -0.14779680595547814437 -0.27219609688730006525 0.30435495110914539962 -0.041159489386522377097 -0.11419747250665984728 -0.016197566684753986199 -0.08595434064755368142 0.11196765926437805827 0.26800020367227733731 -0.14648610435108883054 0.19166082388058339192 0.040905438982439999707 0.22642306954399321617 0.10104673593864450798 0.18925876419401924111 -0.24105352421377487793 0.23617626135264938037 -0.012818262210646757387 -0.16725560059594310469 -0.38779150832313080688 0.12016888243994931773 -0.47005267542036593964 -0.10745170826958067023 0.17980883322640284216 -0.23255681091382401915 -0.34337530312976372038 0.28719123938927682005 -0.093867347989610397385 -0.10085781606056465343 0.1750364170501148009 -0.29600761352450360997 0.025877697778046399729 0.1284300389552664734 0.3673440229735348006 0.30227335716761710716 0.2567721964977103255 0.07834126984539684091 -0.27434274970287408912 -0.33988570103476956064 -0.21657009533568966075 -0.023851205227662673758 -0.00014783474537610708996 -0.27769109329886654258 -0.17299251451738384411;0.25856651276084996471 -0.022269955600972762139 -0.22639666377345338266 0.03905001442488342106 0.239248350309401836 -0.15500575281639855652 -0.14581864182205545033 0.075756103983210559827 0.057330836376778243624 -0.0083765781562906704849 -0.30220560949676350537 0.14751607705443348095 0.082472847443505928333 -0.22888475628768209513 -0.082699580066874306405 0.16363051744631515461 0.038926625853642045361 -0.11196041464304455626 -0.18339590632732363784 -0.042023976822883925275 0.03601203615377950723 -0.25052755637330648142 -0.22370061847523989296 -0.023244839845971115855 -0.31208406168961549954 -0.34361705476198461939 -0.16609132749892366321 0.26754445842693341806 0.053896477325405617309 -0.00066978169207438991925 -0.22561136919594210193 0.021628914548081450836 0.10710327248109721698 -0.27729571740749009434 0.11002247871569169335 -0.35047990272541940104 0.079862505677489356581 0.096902973982983170442 -0.21648536646907770575 0.14376347187664287319 0.14881303867003087271 -0.074162190049516518719 0.12411283953318530404 -0.053525633288779524144 0.10327175070412740465 0.172230112475923125 0.087629828131409515102 0.18931136735963599582 -0.19394864199237837887 0.13517372260772847481 -0.010624413483100570918 -0.0048747559409748515702 -0.39353394702356470081 -0.053821290034222528387 -0.21856478043836108371 0.34445805579141441921 0.21456695652358068194 -0.28581859936577791448 -0.25620635115890116884 -0.37464677226819942391 -0.34103998275587737998 0.037912245239908166916 -0.20729068478541265441 -0.095073402390655009642;0.093048449421846771146 -0.39100202206697692864 -0.0062924987461618455201 -0.25631103278982270144 -0.18004658525743069686 0.1414220183300299305 0.3053106650640702302 -0.13754073784582301898 -0.15915848256423786866 0.020977043625957043915 -0.15873610907345156451 -0.1730578884559906272 -0.24724916686722081538 0.04573800268380161238 0.20658530705555624984 -0.17010327968621780093 0.26937334867620604806 -0.35785458000792275124 -0.35237621558600196181 0.34254796209913646043 -0.14315150474578053341 0.0017050614818102383108 -0.2015223071025042112 0.21033436542642369727 0.19909938498849993893 -0.29550466473949199564 -0.26238427367270772406 0.073640778248011434792 0.1260823941432973605 -0.20887699378720656074 0.18298746251615119474 -0.12639732136277190278 -0.042376044503293817944 0.18940620641053201867 0.077846680402375759145 -0.16431982363753316889 0.035861073290723952112 0.036787581554429509001 -0.31248731689128061983 0.319543477109535623 0.23352940753859127709 0.093234313304247029563 -0.057645169840842155895 -0.21691515350876747203 0.0021434854850396036288 0.095888303267498906091 -0.19197677592971990057 0.15561743212366502265 -0.093403566840411872407 -0.20069533112375542716 -0.38902392904602856039 -0.32607828663216359422 -0.080531140987819410659 -0.075037624301986100006 -0.086451425647165736077 -0.023746888179147735559 0.068050148634821380766 0.22415262279333950102 -0.038018708604721410116 0.098708814760148297363 0.28511973791944122958 -0.20082424979879068272 0.20748116537966393436 -0.15143121483260058024;0.089098522360807258513 0.036460287449178743757 0.093593049739385258956 0.24382937192512602054 -0.043504005555492601676 0.28614392162445978496 0.17987390224883015311 0.088892033783473073383 0.081270705876859153372 0.10570118505345216242 0.13016026511720799053 0.12039124280198686134 0.18498838455708713213 0.31877697929982501401 -0.14490587176951200132 0.17393958636812043017 -0.25557668319225407272 0.10443890618431019013 0.2895978670618380435 0.23017646678287714823 0.34778277664017348547 -0.073651914407541638208 0.1342579427005578252 -0.027539679691086435542 -0.12930659541542238733 -0.087610767415235532574 -0.16251858644783348518 0.30513570124581568255 -0.2430133555819596336 0.16611817878378143387 0.16225922449703389372 0.17843276630243121161 0.1742483662768198327 0.11822458284602659073 0.084995970624851854835 -0.16802696884300999391 0.2283410499263163751 -0.05618426665520308283 -0.092972268169273841742 0.33112788910668172759 0.051299213813832088282 0.437510842301611802 0.044457054665830962603 -0.23462004510716796823 -0.17542050906119108222 0.26291705828447647919 0.1380743076699703642 -0.098493046832970457261 -0.1287211544908023475 -0.11809456682769323144 0.15287854907740322519 0.15673515729865616919 -0.16435578654112542596 -0.059329858532366379353 -0.29146997517609413153 -0.22619206255538287786 0.27721788188098855921 -0.24876044520614876143 0.40425602263636900568 0.32503184051671230037 -0.026553337209525806201 0.26829237929393245921 0.052370291922753102465 0.048705295758041798615;-0.13452528724597748178 -0.30430154113376617353 -0.20722601753952996084 -0.22373805294986706671 0.03019927863199581286 0.55793841463193827312 0.12064889557227834183 0.028199338605631386195 0.38271765194727797033 0.23499500273035731079 0.072232433304162402266 0.018796720898843252701 -0.31850730795819259811 -0.087789651344455987836 0.50256811228298936545 -0.042947550035619098951 -0.18500306108746569778 -0.054540424294707103015 0.31602062988604340266 -0.070731121099466970348 0.26412176720465990742 0.076204585594579626884 -0.0087065532948860345497 -0.20782413484756034894 0.19228304737236898148 0.17695322307746377821 -0.015443339927859225588 0.13372376498826124558 -0.0081267521390938814857 0.14343362634133058342 0.3139621272702265431 0.26167052559251913202 -1.1225727920522852177 -0.87124677683054674304 -0.27513474758479794513 0.41786971653525656345 -0.34109762585609526564 -1.6737162657503190655 -1.021756395254783456 0.00056786368882710499574 -0.43863367125256852441 -0.55494087578953299467 -0.11145836050337083745 0.23764562023802085489 -0.14724336640259888531 -0.48119107202104355325 -0.51408109247347355542 0.3346353207909357752 -0.37654630521079102135 0.3472780708457045562 -0.11813517251788319129 0.16943178231117489441 0.27834714358646261978 0.16370174511313523302 0.17326592440028704134 0.3890242687855593462 0.24613119030928834463 0.40384923882276296814 -0.039884256922647888521 0.20467436679013881196 -0.028329588095316337454 0.12086813367894226612 -0.25230130474865264389 -0.056552680971496169238;-0.075808262999617403999 -0.13970134052673238712 0.11623402600761147119 0.24983424832226255874 0.15697976929925944178 0.052564756178986267454 0.12432123552185533888 0.11402781583254420483 0.399767888041573205 0.11710205707958212806 0.22676947006550682295 -0.018879617378696551128 0.15642471989557416023 -0.14471557837746529263 0.11788054986028717597 0.12865139901285921331 0.17433970608775903322 0.11536037118042570537 -0.023901471657995315007 0.12786817898887153921 0.27900981405515473677 0.017956078586788114942 0.014496683029230326284 0.25996005385732634529 0.13986910047447270733 0.079981630956056981585 -0.13434652528931659288 -0.11012072287503284207 -0.2332334575940827881 -0.32575118130278657436 -0.36439283430324814761 -0.017959553446216657002 -1.3747570499047669923 1.8336077687315153195 -0.65419879420373250323 -0.2637000741896139977 0.53081325942571988552 -0.26428161110702697023 -0.12060098036212778261 0.46367758566022337918 -0.11988471076132002635 -0.24007224288297368542 0.28464156759428510535 -0.49074739152859980784 0.018225857021266902991 -0.047801257310109847298 -0.049428239959313793883 0.27644868659827176449 -0.089618625057184847504 -0.17697541577178380057 0.071492168592828433948 -0.3992811425654642643 -0.53329674629515966267 -0.0906715644423783107 0.09050133068270869996 0.23008528320424961877 0.19247011133963293217 -0.19374430658087443691 -0.072159447986537936237 -0.19488750828381087854 0.15042709759006875347 0.28202759438083285781 -0.23084911778408601091 -0.4123093775195069699;-0.27606258755521095871 -0.25388893416310154283 -0.16291798879619415197 -0.0095018791739149722347 -0.25374011721769218486 -0.31835197475051491001 -0.10121927180282139225 -0.12340068016351286861 0.19768857607257053766 0.27160397848657241715 -0.15043925914780501008 0.034079234367481198165 0.1374554956911544501 0.34111207620975358967 0.024979801581684765721 -0.41039358691160132686 -0.093967011614998458002 -0.056097952019697736037 -0.24520834826933035622 -0.41634143776064613807 0.0037548680061874296562 0.20163718930673668606 -0.10060195748213830724 0.13189510154563252597 0.03125842229361620872 -0.22898211321306918831 0.097505995906297576736 -0.2306055966575288052 -0.17073590130025037559 -0.074241525928688129055 -0.39285631628890510525 0.1786182942941618168 0.2741781160571186704 -0.21271410489589337445 0.44644197450215195033 0.087134585616070528435 0.44115946872427730385 0.0048806044688791206179 -0.15892819507796951406 0.21231521547151172014 -0.14290133007551039657 -0.47117701119358801343 0.19128324483866249173 -0.55034073420929485732 -0.30801168888143437563 -0.37179041540512958175 -0.071961019716523688672 -0.18632550896883484648 -0.12991562121654132156 0.39748798537076135418 0.18433553881165329336 -0.018815830289166508849 0.20866802028949471559 0.37000410052855170484 -0.078032705959483222857 0.033149266931457484209 0.2165858292986601874 0.1112854566712358495 0.092805382382908599426 -0.082599353014826751296 0.088433039526582143952 0.31714913444906550621 -0.36282676911699207611 -0.11534122193428227032;0.11377473859620497454 0.10017707662969403681 0.038114871552327726778 0.061720853831592745187 0.24101304593900199635 0.23713387629395152323 -0.1849856496055742594 -0.019646424047880695074 0.35735360560091666837 0.34216214866322103294 0.33345981480339870195 0.18814161797701672851 0.28500129983746796958 0.35108652405940232732 0.018665164181753301359 -0.060833676633521883981 0.20220779923596438055 0.21740470775649306523 0.12304100362817080305 -0.039320895075115200323 -0.02639414425551315016 0.21996200270248725261 -0.1202866152913641129 -0.26060482332995354993 -0.05328272758067699455 0.059632629431112388341 -0.18072449622555669668 0.085813196316560855226 -0.19043757409750017295 0.11055978627204089693 0.09948432047286130675 -0.25222141506281814394 0.074767841829831205303 -0.15799148411651309232 0.33905767690691518412 -0.088806382571489983491 0.091492931896354268151 -0.27988573754667345206 -0.33797423646167173983 0.32379966851175995268 0.33172542533381477181 0.15618723328441116993 0.2073800083624594004 -0.39964725844409076938 -0.0039043458524600999429 -0.31340148025704561707 0.18971943558715559375 -0.13885289210632847934 -0.043657716274758763542 -0.12840285646353410964 0.30012322937467711403 0.053628991044957843859 -0.11760633597927142024 -0.13076676350821145323 0.1171549672681719001 0.36493351767098236582 -0.056380705372789226282 0.059500588050481688362 0.29216856501771687471 0.18289707372075528213 0.39371276884731720713 -0.10375457266785026444 0.36886168673518987537 0.20446265974285682265;0.0096440011616103441666 0.17499879737675733127 0.22125788923387607054 0.12496923096956984167 -0.2150042960043226925 -0.061991234566273992201 -0.069964552704547364192 -0.34211634521978367962 0.084502352900630170462 -0.10544370922204553132 -0.26533774918540470322 -0.25680443310794615064 0.12459037378869866619 0.076941949188877700738 0.14177256793247189348 0.18973137644249007949 0.037148606592485082512 0.33163299115794231398 -0.17429042296502830767 -0.2093025632873700137 0.39585152410034718518 -0.23778199091559434897 0.013180397224690961963 0.20004968759557836822 0.40048180285350604146 -0.10727055138024321757 0.00041382149093992378567 -0.16536243812709652823 0.021778914450877602527 -0.012270464739762933226 0.12724458351416459423 -0.042182605383164373247 -0.33917979001552145402 -0.51869976625005353998 -0.70937092547550795185 -0.55482159982330758741 -1.1926757029788463971 0.36209761901798720451 0.99026185138011801889 -0.31036119784388094267 -0.23737014293393149389 -0.4600263079600314664 -0.25900364008775761393 0.40363501760100828353 -0.4583549638127625836 0.15158500608310546132 0.22410083603392097484 0.48128037802669260126 0.2730347055940213763 -0.14782463467377784938 0.10207421884497555609 0.19323209139587485539 -0.08666798552427852631 -0.27526408731159979215 -0.091416288104224044386 -0.29381403682190365689 0.25669505231120853805 -0.30174715503536636563 0.19321767467846012734 -0.11535575244559266583 -0.57319690420539004538 -0.31276462285238254557 -0.056626502149797225405 0.21695585955247587151;-0.038315577235659960265 0.19748779136967634096 -0.45079480340773980807 0.052293962374379068803 0.19881957268998773358 -0.14734814501170978573 0.20448564264614341179 -0.12515601180222768463 -0.10532038606882791754 -0.21450115954373483174 -0.0080387750127546425682 0.1774598934356806379 0.2183356168961809729 -0.51624642706743661957 0.19173138031409805992 -0.34088172105119252109 0.19423793797250679671 -0.053991780276278156236 0.0083138061760018727719 0.054804653693763062672 -0.1029673497344693045 0.086608002146892432149 -0.26652285760697386197 -0.045315710962808342099 -0.063522862725675324769 -0.12598230549002964462 -0.19255834264253987587 -0.16384248491580391538 -0.20410439675301828011 -0.33448120105923928591 0.10357192121930958173 -0.073568454074532926845 -0.042296592164114556189 0.5931932867374402063 -0.084780003389074806708 0.18058438193741921385 0.20939952042146178779 -0.072081785775920642623 1.0028434174241978027 0.029318837422514617413 0.10488059164731811101 -0.10044710604268126952 0.038247985569822132157 0.29294148599158287283 -0.20553185566932555273 0.16929650599179643655 -0.091351216973276888611 0.83223669864146465613 -0.05670542981670943089 -0.11266753325442745159 0.21283322180228178566 0.061574818627204971899 0.13956223072594348134 -0.24000475391601563957 -0.52989756747339933352 0.089254770400440219813 0.30473520541027093733 -0.35953388857720647298 0.16694982412192732601 -0.041582841423608025988 0.27338003631358237522 -0.17214768758594142795 -0.08476978254472425367 0.20826276704168045217;0.36677674254437081514 0.20665021233278224599 -0.10245591854188088043 -0.021677419768142636158 0.028686966391384266517 0.14662276796681669722 0.076340188714261236758 0.075755691121518850539 0.0079870110729090074142 -0.20252710987357278039 -0.23510448557097160527 -0.23985604614622524355 -0.30404809668790899746 -0.44396336939241803909 -0.069576957579720113967 -0.13751257412987399897 0.1656990067407390077 0.056064791357571239216 0.036701859689203218673 0.10083139635079096941 0.084366967780461502024 -0.22777296122383319799 0.29492871503882572837 0.14185491234101238467 -0.23209558425312901142 -0.098105666419096501651 -0.096147064499404244486 0.026852311055274382529 0.18601920198983440402 0.051253593554745083272 0.13877670310843573387 -0.004001248935397992354 0.73875153981535002234 -0.67035819189196954593 0.71125205668036717288 -0.47534030864578419306 0.42438374650016302825 -0.09768196500903754409 0.65426496962885449804 0.047960025558213069397 0.099794040798749025778 -0.3460571560339930075 0.41811710360232917649 0.050919346447023811075 -0.46082930936116078824 -0.16515472630300359613 0.16349513221276729125 0.47484000125221431654 0.17063796912015272156 -0.053039633613324851935 0.22379473164668733931 -0.29048376143393178639 0.39867906426616722682 0.29559500041047526153 -0.25266936257628641593 0.40089753902017233322 0.32994552613780808725 -0.31034485391497673712 0.29416469864812111457 -0.10162149223851531243 0.15906858065692811022 0.10942165043799756408 -0.066171614864606459472 -0.012381546971750426872;0.12132283437552829342 -0.15949956768027037657 -0.36615046172878268349 -0.077023355097378204404 0.090168091836113906101 -0.25690985743784205964 -0.16760043989157602518 -0.14554879297218389911 -0.22006471641142036355 0.12549990465585786348 -0.023032667007918967289 -0.065963162975280889566 -0.15231985541937273498 0.18298043086088219833 -0.10920027796201660364 -0.34974534302466703251 0.2131435316280528014 -0.27700519873167028795 0.058652420089919839186 0.13365929517123734116 0.0012642307860374162303 -0.29436960373161547011 0.22325668418536309678 0.057335965711037620296 0.019602176035300011847 0.2961904136357448869 -0.28254773684542938694 -0.32424716982955936739 -0.10995978931186406458 0.025268188895496517671 -0.082200332154743385726 -0.05363037438254562167 -0.010696758622253402238 0.11180700089515502316 1.1539705870237193519 0.52243658113550428546 0.21922338614311231986 0.0055826542606148233869 -0.54847586432274564316 -0.079706526628439536286 -0.11960779536266223644 0.36981633748386849581 -0.30280955447160734506 0.19945944420932945618 0.04057464866890221622 -0.26654235979806606416 0.29550630680299078135 -0.1996992562085206091 0.076110867344328508866 0.47863007881474683991 0.34331012697348850526 0.42699631008348504224 0.07882833762818662604 0.20368537684673188037 -0.26377279538587788954 -0.0062232107531011715551 -0.18993631146699696544 -0.11019686970435729756 0.091713354340299702017 0.20543571565973747783 -0.16380200747039547204 -0.1887724609608385784 0.23021703808224885934 0.29985875675498452342;0.16187341171812263951 -0.17198781334491622386 -0.1732632938307239745 -0.11341211712664091282 0.22242725540392976891 0.27339000718173495086 0.12042201602452487497 -0.31319360678418695088 0.20673419499490619522 -0.20121632475635353732 0.022601064916052730769 0.15478369304557285102 -0.1846476108769195823 0.39102804821139652836 0.088104159344974897206 0.12131787676236048534 0.07282860524739510899 -0.10632275192488042925 0.10587708946288959533 0.14895836123375386095 -0.077602618059344860568 0.19931532257578704614 0.08981385154362540868 -0.28770285053792826746 0.14385965248560389496 0.13735914010709676658 -0.23208509120610268384 0.032320968232831447098 0.24617223465009402394 0.0199910447657228596 0.094049772631265932121 0.048835384857156133309 0.36348520784102561487 -1.3531622579388782324 -0.73862113136007279124 -0.76028814880933093256 0.94189700115527941193 -0.14201528043412334212 -0.1609756009639916885 0.30218195923982421602 -0.19882809125076517098 -0.30210432957138938503 -0.23331621962093399003 -0.15090371274452857309 0.18114339422382191858 -0.10469453035139922314 -0.22312534883019802256 0.24584481191446011517 -0.19925384078913380148 0.2704096659082968479 -0.038033139097275701912 -0.076977134181013429082 -0.047735562725037525289 0.18343059089290386643 0.099696991641269855355 0.08672930244593947402 0.1993049152974565863 -0.097718062258467242032 0.016211514684609320408 0.096400518686364303211 -0.093688521762976484375 0.19491369940861100196 -0.34083200783465522621 0.19910773888359550865;-0.093728245087735001517 0.018145702486370915429 -0.18297791935838514377 0.18977950453726349922 0.13650784573632596119 0.077000585362469162187 0.036728983876079916715 -0.11778276067742438071 0.3450741944450803067 0.18212884352696140366 0.0708643600652993505 -0.032173133116468986825 -0.28834290595119349554 -0.28460431168735095264 -0.0094694309729698514233 -0.029581380600365331235 -0.097174992590064734888 -0.12850721681377730299 0.17292665916383384572 0.093021603903220187459 0.24317423008483241009 0.26154872064708989399 0.51680934735523076373 0.15239526947492770814 -0.0029708894731024404652 0.28583829911354485809 0.11766791782049007553 -0.0024481803079262160969 -0.15277434649863314009 -0.017704091992523700305 0.16696707055473491987 -0.32927484988111876962 -0.62736920880212565521 0.30894114957106133534 -0.85488156407728077557 -0.70555090259573949307 -0.25314124345937222271 0.014672827877036397765 -0.2249133963578519857 0.14665100430050304059 -0.015108736160862832817 -0.41030290999094004567 0.10405277299349330322 0.20551341290621158442 -0.19507493417082941156 -0.13564791025295777627 -0.31684248258401298548 -0.21211965502966115271 0.2309026336393560086 -0.11273650350622831107 0.12437201019052974982 -0.1120228103609764575 -0.34360982129812467356 0.16512370361397474272 0.2285691573959607592 0.5440297293248097521 -0.20386189421317538195 -0.27838620666423657957 -0.019942488194146970604 -0.071801435310407862866 -0.39365629697564186174 0.054631651894190294549 -0.174471100003642271 -0.074334347314851612065;0.24272721117495626997 0.048512302547405676545 -0.24141650882633111652 -0.065623109556527794983 -0.11365948927944817537 0.34362326270736209821 -0.19761099526384712233 0.15695753737028969588 -0.20101203754807045465 0.24060128012444881307 0.28887530624478496843 -0.14680460006675410956 0.12674609867942324137 -0.1691263686711552694 0.040193557428260924536 0.034277897355666137047 0.21186367660871185947 -0.1929510963245268107 0.11215900569849741875 0.20347928835824571903 0.15137169741444336801 -0.071566251216175560956 -0.082947905573398303392 -0.089275232316311153857 0.11860953126415040015 -0.25974550189987705151 0.11449076789082926475 0.019347794419508904801 -0.069588283657261010284 -0.029013464423211114684 -0.0072899672128169945573 0.08407761283394379892 0.061094077820712681948 -0.33319741710132028123 -0.42944136506145147436 -0.39607110533697059696 -0.43351911147220145715 0.23318500975366263095 0.24366566368861256042 -0.029492730271656039664 -0.0057574475776951770239 0.058649744911692877625 -0.1241828603910676565 -0.037281444302815797132 -0.21931252569778481032 0.3377588407245764035 0.4045161820141235931 0.040285427457761188719 -0.18968211169354864953 0.30031820234089706689 -0.20773619103426871346 -0.051056984583201285577 -0.20156057743146560401 -0.016594340850775161217 0.3973927853221668749 -0.15903184307585424562 0.20046884215622368108 -0.06652066603797898714 -0.0027095378170196521631 0.10658844883102856771 0.22589409196487642006 -0.099981959248229904103 -0.34090007405474442859 -0.20391001230131694522;-0.32814280393379041678 0.12570741252211725669 -0.2246384369480716181 -0.1694715509503914308 -0.17452972971980137973 0.21312405934584718881 -0.22569265312897246467 0.40028585086363915879 0.062585441073127578981 0.063019455578729191569 -0.081649763451193513308 0.15071803664021288238 0.13305162696674444067 0.31073230782553357132 -0.006698394234598633798 0.19482038209509083826 -0.2441666858181812394 -0.020582109884769227842 -0.012404995563115566587 0.11403015641676395031 0.25872190668452416107 0.22481925807242644777 0.58206113949674309627 0.24046977807016212125 0.033211141172573593883 0.063984175075214644313 0.068780956445330693194 0.061095334829805988952 -0.17384710367375172391 0.25780328473859431826 -0.24675422572512253905 0.35080152114084500736 -1.1228337791091880238 -1.5652634920303629684 0.3709180085788792991 0.42381118157371983068 -0.80540224150258188374 -0.45167073367754950741 -1.0011607959922783628 -0.25408396652352382983 0.13337970584764485826 -0.12494577615102328561 0.45749495549511870474 -0.27927932862514437407 -0.19131669894832581402 -0.29240721618798520831 -0.27349085851374232981 -0.82231732213870023518 -0.23120513702256667576 -0.15803673667512921353 -0.57419832498181444524 0.063185092207193344072 -0.35249677998402073609 0.060781993149324510528 0.75291298724055899516 -0.062425079003952013701 -0.023110473928199665866 -0.0098041194190264663311 0.0043831225828679237777 -0.031956969328123314977 0.056773655251468796434 -0.034579722792774061912 -0.04160107560975682961 -0.28693517811637642145;0.14627050934887175782 0.24779473093283196916 0.085971310174826301442 0.04263467002680490503 0.17958813900980910572 -0.25445513969562971734 -0.061248119059934685859 -0.01422032359186490777 0.074305004725736520377 -0.070742600067278518794 -0.091219772508990132343 0.25538356796127287263 0.086350486234474332914 -0.31144676827868444935 -0.27488792741105422257 -0.14827854733001535892 0.28256601498024197516 -0.34550669377643100644 0.079728694975316274918 -0.084217919401878602037 -0.11044116148535935984 -0.10948184591021281609 -0.33199269378467061165 -0.24766413809193782436 0.19617855124107660969 0.1492854134915199138 -0.25060527109807517743 0.15133523286376143746 -0.044870681766331119156 0.011887767356070997812 0.18780614819355015421 -0.050138336506946303006 0.34633259453294312769 0.34303597388297873971 -0.93941783012748103499 -0.2859068134749961354 0.41524850483603081841 0.29770920704964759507 -0.24031522947869182749 -0.0055851176636900982247 0.33023307744254526419 -0.22572031218865379332 0.43153949845575667599 0.13556310404831917182 0.66052344842322330276 0.035104838498361351506 0.043443771836657332774 -0.46722239734108667042 -0.20871167296319423357 0.1159404738639213811 -0.2687889059007873005 0.36364834105217463955 0.27518923103030190624 0.00521219158575885258 0.34788108489043989557 -0.17292934147535996003 -0.16686032152849222809 -0.087968096052456104528 0.095851311445934547772 0.19021865927421838238 0.2882938441926561346 0.21092127823237166728 0.59272694246616430824 0.020738344029902378018;0.19174005571301450113 -0.27594984442231745847 -0.27529184901254560858 0.3267250930905216677 -0.3537931884757353207 0.17481357818267753701 -0.14973646698353032525 -0.32814241473958960515 0.022720734548432073435 0.31724353558450263391 0.048412101014661909626 0.14391979461166198861 0.15382860913720419749 0.058066956777367374765 -0.18448654274837741895 -0.13627974884757446117 0.26734503416417115806 -0.13626014805881708769 -0.10991693040151384597 -0.21459938375597040205 0.16218581313647095765 -0.049185233913285900109 -0.18800601940580460858 -0.19218004431925705955 0.025405965166443160441 0.020617762675896416508 0.29143258081270262405 0.038552043143928405033 0.11667964441236974849 -0.183087471275081487 0.1627205154746527993 0.20713770894029590042 -0.18263125746291125617 -1.1795745098325149947 -0.25921289099171396231 -0.93115279556216001833 1.0740671868866227268 -0.71966020319409118589 -0.29927394849672878108 0.16990706999885699102 0.056202869607626264326 -0.047071321265059508365 -0.28237602366429320755 -0.38484565620172062061 0.21670574984977336586 0.41120772698923530042 0.37447013877051615882 -0.015144829561657725814 0.15331749132237432187 0.097969405155286126696 -0.14326179092983404306 -0.10710814688289835295 0.22732172803358588475 -0.20612850166025398213 -0.34308130596332514495 -0.11961237505394725633 0.54099715887959498595 -0.062619116913333383589 0.021601735277474706787 0.41154377044470147329 -0.012055266114032389679 0.51598677924596714206 -0.0023810465639895390423 0.05104495945909504756;-0.35091316540848543903 -0.17128364559133266165 0.09504758587991724017 -0.34605440202339443623 -0.20937123033223145607 -0.14721249370104949605 -0.12323359316574532263 0.18328188932947797607 -0.18012491114213563526 0.11687153056788129879 0.19980006276184117397 0.30947418078340344083 0.30677871202693957065 -0.095341576630293911609 0.36158520185050174733 0.037817493651832963242 -0.23316650410919298464 -0.051473574080993740598 0.039279214961324381006 -0.10923868484154652947 -0.15109494232107190115 0.19860769392364316377 0.090128374837258287688 0.38439613471690409208 -0.046198117268075350461 0.21408999028834455047 0.15591665235395435474 0.25021270604275114291 0.22198108243748532198 -0.25313234625928937582 -0.21956763764133457872 0.14383691690317582101 0.24863479440465738324 -0.17556643130476221049 0.15870968362368739757 0.063089334317559850329 0.53700749644552903117 -0.13475231974615367592 0.079751770756666798268 -0.15290192035953412142 -0.057943747992683189429 0.25331656743108904584 -0.053930873717785578203 -0.080419102945331333299 0.0049098398687479364796 -0.29230210437187914563 -0.30716321907799437607 -0.018017737610300614548 -0.049444406423138763385 -0.14264284364274751327 -0.034489579758258823161 0.30990282413102626657 0.44048442676155596942 0.1961655529223727823 -0.23901886934115842975 -0.021755746675089279035 -0.15784175076068590604 0.059975669965417394147 0.16304488983735357377 0.24044273355218886978 0.26377950998020671669 0.21102128236986855692 0.099231205356499888048 0.28195043932891783456;0.26575325672990257608 0.089675792935731066247 -0.40602714692654945372 -0.23740319487177824476 -0.29485549070750360912 -0.26699357483586000361 -0.13486405238958201758 -0.34689944666319560973 -0.17505364722924388055 -0.27497540890774113675 0.059525707770353500359 -0.21891351239713216503 0.22768608475276555514 -0.16313060011455901566 0.043217503566565632078 -0.31985785624736712274 -0.035646394813910117771 0.27775979912455939225 0.01802849685718127537 0.15026186297178650841 0.15554034966892713032 -0.35283242819297594428 0.0080792520276349259062 -0.33424289478155128075 -0.018019033423582471454 -0.012967630789417429818 -0.27247049583019572472 0.034944640445915990667 0.062155670756062014748 0.23417002364662695135 0.067436762137787931159 0.10113376136925093796 1.2553949107731596779 -0.79326033067711754221 -0.34490693754838025464 -1.1078572316262926822 0.75599318678258120574 0.49994821895617869156 0.34012920877631969141 -0.56910430438772163786 0.71272541575943593184 0.19084381406268743908 -0.43066644592381075896 0.090813637740491809369 0.011949971795845192035 0.6568230956383478425 0.5410916759270489873 0.39274445016569631273 0.031462820137117035457 -0.079653525288282372996 0.36573421424512431166 0.68316261655586152379 0.38674429622955663888 -0.6477790091480878365 -0.38756116257390971214 -0.092225998301758399522 0.34088647804271343666 0.08490286325301171777 -0.10603460648923715426 0.03535219454059700811 0.17789273769903510281 0.47394941230649373365 0.093692585916213766417 0.23479338888169537514;0.17566939761939573406 0.070569572187107507122 0.023324222545611242308 -0.016813413945397634452 -0.31569623663329221541 0.026260821506684683957 -0.19656598290017462949 0.092243710755502236753 -0.20216646693459655593 0.10701082743280214415 -0.27063245992230861026 0.30466365137545686759 -0.11047775959416264446 -0.066069340218060434999 -0.19101793195578090079 -0.33085109347290436732 -0.039788902853439014895 0.19050500066453104897 -0.1291305418607233968 0.27935352134561886039 -0.30850249489566139438 0.19548640844726949961 -0.16279173463501517283 0.12945128260144561638 -0.26183916874688156762 -0.043044203029181847542 -0.071179351039181215643 -0.05807838025229781348 -0.17305957125966561772 -0.0078103464024025185536 0.15114576199509091592 -0.11877293324868883062 0.71248652899978082154 -0.34939955011616119496 0.28752916585820348372 -0.24906434609000357994 0.47777169028101029724 -0.55104341624404162836 0.20024689854745514328 -0.019260787614010739521 -0.21637298482165270852 -0.38047226760280278279 0.3195441004759070891 -0.21399925312970261015 0.03650026223760928501 -0.062504148138416953939 0.2325527316051403115 0.55850219883338780846 0.43506767378664729096 0.03988051011632866294 0.50889675439764303633 0.087449019881246439767 -0.040189566857704382696 0.11167054680300933511 0.18208483890373841629 0.071302462479659822758 -0.26323835252383070982 0.1240364056730726694 0.22089919743978414512 0.089580178874346924611 0.37892077234034760025 -0.012620316785067215576 -0.41815245397636702229 0.2535321633387107032;0.079009017030635550483 0.44009964316098743042 -0.20703448663345189185 -0.25734421103667265429 0.10667244987063412287 -0.081834892917350646191 -0.015664239307438605764 -0.29507881121435580729 -0.18680386043688110287 -0.34083208820398308569 -0.041931603446224971488 -0.064293367060442432881 -0.20125253717228933081 -0.079290711407132244415 0.16634077921059545191 0.064930942546081935052 0.30465781112056450342 0.024588587706617884288 0.28666658752547125033 0.061900465705431548247 -0.039903693506721037154 0.11356901519608843254 0.09571477827152843898 0.16924631439229792518 -0.053904451544467726909 -0.066228777290529589061 0.019416917660591569844 0.20369504674751875983 -0.13704465451752503857 -0.24966652557245042066 -0.17842094669288122155 -0.16607057440666242454 0.29993236444609011615 -0.51324992042447348251 -0.50546267351594442729 -0.33900118484475527669 0.059600235731394529681 -0.077057985330921327516 -0.55229500034290868182 -0.37163784451826953337 0.7285761880865382345 0.0070234338957340840606 -0.12703018359061352127 0.0074341610641220669253 0.039461329975771126943 0.35199712287572054725 -0.3460822027232939857 -0.32364371414919529402 -0.092616312789762220148 0.2012051100603549636 -0.28086675914983716407 -0.21183229628127267508 0.34407976361522368824 -0.19456270471363057428 0.13702511872432951434 -0.0089435162650409027324 -0.22540516996376311343 0.19468509674790235309 0.21844206204183799769 -0.045662299079027635074 -0.17139616308333072148 -0.32676759587875697788 0.46720216815353599049 -0.014424697848997272004;-0.22312626143361810604 0.10146631518113760628 0.31386455255097622796 -0.11152873980177208102 0.20548081790155769966 0.18373370842676906012 0.10135083372121980738 0.32335597323725773222 0.10396215858556537293 0.013381160807584498856 0.14024021533096153735 0.20963387238528904954 -0.2364527215949951966 -0.18138743596820858239 -0.15468660615267523784 -0.17177639401019534349 -0.18320573349055968571 -0.10206233272314615967 0.0070423527884046141501 -0.14705733506257726018 0.22393645962459712839 0.10300097646065756174 -0.10238541940442007216 0.22754795484183071297 -0.17972722195922774535 -0.04682672217204639914 -0.32788815953896277566 -0.013952527455703103015 0.20170980878678121395 0.017295653460860919981 0.12733900373924705862 0.10161110086268169972 0.048979907521879618992 -0.21803450115064187953 0.16794448637324865814 0.31823724584119034153 0.015228381884389359524 0.11616664126893259945 0.33822893063760955945 0.19780086137839614224 0.23440565212677297313 -0.16800491447152654523 0.12119778568940807462 -0.12303549100184729692 -0.1983617956965416651 0.13230219405980622738 -0.3137269772132852963 0.26858384358219933308 -0.316743235576949278 -0.043040619180811992561 -0.1623562352228133665 0.097495318639833225549 0.12495018518878758806 -0.096086903116111552214 -0.21086807129963983098 0.003888363260565732768 0.28387333039828871462 0.16378861606647346361 -0.17144478447784511355 -0.23443458831089286631 -0.010554462176973434737 0.14632672616271141797 -0.18931673934281090244 0.25977876018668871749;-0.016556572513813084396 -0.086335272736375534564 0.10226145191814631219 0.10439675690689018128 0.13688272148149849272 -0.055842796499542123045 -0.14956316030243332893 -0.11501088723231187028 0.061773968050389878315 0.036835742039403519821 0.038128576002483677287 -0.17678209973510211617 0.14381510735003030788 -0.34151913149202023368 0.084924788601598091842 0.19669085515084946958 -0.30301555753985293107 0.35908733081476246207 -0.20636069143616159183 0.18233742995122512176 -0.13749069475629613346 0.039936875463254167817 -0.1582399502211245812 0.0015711551330420915271 0.14703105254130954815 0.044780249571592427305 0.28982658909595560015 0.33117280097054591081 0.30001613597065890371 -0.074167962204447754337 0.3517137121373693498 0.15476219509465558022 0.25765500201392366186 0.18339343099125240966 0.13469786182090492943 -0.11675164474064347875 -0.24807326803650345259 0.086352907121619970621 -0.18839060433973367492 0.27610252130546625304 0.19762204779878686511 0.030161972151506011297 -0.13470336323871467954 -0.20611910383585188566 0.020628024997237860011 -0.092714164068985416289 0.31210665754142913331 -0.041008468246242046895 0.00039028088661132755155 0.11449575454736027336 -0.16038144149648642101 -0.14189465737901729714 0.10604332762388997413 0.092795757961626423871 0.037036133366833964842 0.1412374088147225204 -0.1443346070134297332 0.25986682803969318734 0.2316790604106765683 0.33267507866733203592 -0.13124606264249605303 0.18600824690268058514 -0.052127829886916547675 0.25903180169294170998;0.10998386697281684055 -0.055046358061942191053 -0.25750250963751625255 -0.3397370091672069492 -0.12259513640461430772 0.21820382367314850036 -0.068511750342215113618 -0.32192137280502264307 0.064931442647643389243 0.28761463194112962816 0.18960988904197328964 0.02323438891094812761 0.11083264417836452553 -0.30039289321906276209 0.14395806777124128817 -0.14294669614929114698 -0.20526930634215911908 0.023869564397656379412 -0.26507512648251491116 -0.35450439134185335321 -0.15686911062063135791 0.28456656218084241949 -0.32006108000081057163 -0.27391901861814405006 -0.35245785172291166365 0.080385206974477513286 0.072118380136288018356 0.19208538707782393806 0.30523418980701855219 0.041924230343198851112 0.20674367062772097681 0.26030212668110669361 -0.1811339360102771634 -0.0061195352535541851918 -0.14206580754859932103 0.31083412958467032672 -0.37273023046675879399 -0.43792880728850991368 -0.14600617653727762657 -0.083901190360371316612 -0.15504462771777310914 0.10317094781688258831 0.057010656820882736617 0.065497930414258526133 0.11521807530404594433 -0.027156930962379303984 0.35857419238471760492 0.35229598711572540637 -0.25915007296429698469 -0.0013095140276179481967 0.069082981564606155134 0.22664809281992562284 0.00017624768706466648061 -0.24893364444912829958 0.33850477104753562418 0.30290699578373703194 0.15696845095966865946 -0.066254264849605670751 -0.30063225879923949346 0.0021953137867709833844 0.2378406847516014444 -0.28170099010515137206 -0.011521796240646930282 0.17781198488274863045];
  
  % Layer 2
  b2 = [0.4427662192286990761;0.20140766608698704165;-0.28121922632146090226;1.0752572383485898833;0.11110165641620604882;-0.51570140342951509282;0.815150673248073665;0.51493999613616048272;-0.052961583190578656599;0.26883332960079103779;-0.77180187425631896492];
  LW2_1 = [0.92885253619062657648 -1.0445819865156011907 0.28216705555369714364 -0.77452672804107347559 0.45347142661587014345 0.86073295465323440556 -0.70326508811060917115 0.049387718483955553306 -0.48122915076381012067 -0.017255534030281193675 -0.783440873864713061 0.71655472358085792184 -0.76723191322774164647 -0.46094117443268145529 0.36692321546143980004 -0.054426132912485221393 0.8783346772263723734 -0.051328006662858673137 0.50256600618470992359 0.3374966684486973012 0.31575747659464659112 0.25138883667721284576 -1.3647862675614854666 0.53689839047442289299 0.62883792320580556012 0.1066681569323994494 0.75497473312589624683 0.12477384358998472313 1.1123231972756135733 -0.31641674598445207467 -0.15387186865223240195 0.089277456079520631227 -0.93745464907947007038 -0.49235167044458749697 -1.0048561103632671632 0.37113504265922575565 0.94312773137321403993 0.6528220788169675215 0.92783187971412095507 -0.7733029392885415465 0.61720430144359639257 -0.63760058853037937521 -0.9252327937691616766 -0.7875655992182269971 0.15028453027450122681 0.61423760817070605089 -0.47701317823007588492 -0.27374383663419632473;1.0474329996252131902 -0.57765071638420739664 -0.56423791674869838708 -1.1601258929603910364 -0.011085567103929015731 0.97762277607647740663 -0.69510197514690197362 -0.68171762447215444869 0.36750266041918749904 -0.67948300166138442258 -1.2066803026098749108 -0.3185664597422026012 0.27017321209620348554 0.44249757066421097074 0.89800846143996881921 -0.38257325070524417221 0.54702403656874787341 0.55270078216808771199 -1.6297955896381652874 0.24815841082052295108 0.27135966357451524189 -0.36325557151170784209 0.48134439589284799821 0.68109065331426787981 0.34582733477218280393 0.065413697628135980544 -0.42236113814470188643 1.2403000854891113036 1.0901671889854578357 -0.61332712434504388366 0.74471819122671589763 1.2583822514717297736 0.13556230491388798765 -1.0573999681425532149 0.12912052941868790157 -0.457489467023247387 0.66859791676008706318 -0.45631490630936127895 0.10625644493727429141 -0.028139602187946460149 -1.3275387477657034641 1.1493630477362768438 -1.1386626305388056757 -1.2695291252522309389 0.16196329050845190145 0.61082008301188095434 0.33765116385776205998 0.057105728689075471727;0.10772815310136375777 0.86922977868591533301 0.11300193125768775992 0.43351539399403699049 0.97020493298862564568 0.50243950914044555045 -0.43832689477477032591 0.027264553463678987966 0.21060761126653315678 -0.67549561668766799905 -0.26412133902655576811 0.26366672285118331054 0.66933189895813438586 -0.33978708177503685883 -0.035619904493707464643 0.024337405503145073671 0.72771320659317351165 -0.064901872264480672814 0.70620911864371105349 -0.61410696448272161785 -0.23144693240603744777 0.22734585484158964519 1.411217128804119314 -0.091564676295227423464 1.1309096571983507928 0.32341047458291982686 -0.95641183159228859711 -0.60426889190802046681 0.46150722173287106465 1.0656547392431234833 0.15467022395303375859 -0.86149843014589211343 -0.5677346312203479517 0.52740409654568121134 0.18802983935079770061 -1.1924706797442603534 0.83193961924064863123 -0.32449759811743850157 0.6551880620058397886 -0.18480497657403424649 -1.1965125086311254599 -0.67861924351968438973 -1.7410637172811671558 -0.58100119309205766616 -0.98541442650541766213 0.81418934992728664302 0.40109561563279461094 -0.5636303020365365235;-0.9349349722868530721 1.3594193043790792075 -0.26364653173425212085 -0.67643881081302692504 -0.7805485783001298028 0.69221717023907447519 -0.74515160816286363232 -0.70509681215945885224 0.2539541203670315217 -0.45088647161533079721 1.5075915505088137714 1.0657988373368620927 0.17172676488958504848 -0.94374248721244624605 1.1292410745342182921 -1.215130789890975338 0.4469721817814931164 -0.15259580843337397504 0.37132731834980764463 0.2158831745357810139 -0.22757987303833401849 0.20774967599240817817 -1.0828938198623707656 -0.21313613307855952539 0.37767115747788138069 0.34106578089510702911 -0.84577660479718486108 -0.048448757733635307299 -0.80600767527481909092 0.011767111892104418353 0.14247068284863065313 -0.30912634353369505824 -0.75911993315347803257 -0.65545050416202121912 -0.14359199498595803801 0.3447151330487339127 0.17333613242055342929 0.10223343862042739982 0.54188098006575047272 0.97822700532850304089 -0.55807773528419846176 0.84567244532558749626 -0.32725624755946919331 -0.83064061634731278794 0.058664174344487271529 -0.25793166963321856322 -0.89332289795197084015 0.54474183804117026764;-0.028209250853849822394 0.95606281509139778851 -0.75525415233783277369 0.3868331434232791799 0.67816979636407592746 0.32126390527488557503 -0.12532498570960479145 -0.3483555058187561837 0.24214462566922231868 -0.041337846844054303153 -0.93654685823212635576 0.35039669220954600126 0.53394611337755015779 -0.08351007886104201694 1.0280988669525477075 0.26080125395478032102 -0.42576481534893967362 -0.8738183413512042863 0.036454403805232231395 -0.5896671187178267326 0.51941372118252115975 -0.67585995702122936279 0.22925084292154512822 0.36926748373568740735 -0.2289321597980973344 -0.88139355297118793242 -0.49204543862423372191 -1.9947150875962769145 -1.6270394314559899485 -1.0625036847996307543 -0.32657937788339003182 0.72907138053183995208 -0.18491658033989841203 0.21184697180018111085 0.25767960915286380885 -0.12658515506674544726 -0.73829958887284441449 0.15355102461419165016 -1.2659961125106902191 0.28267738605102221694 -0.86089871145435326039 -0.61924858565371065922 1.1085359650031003653 -0.72953932946977517737 0.12467339707350554023 0.70172598968742683212 0.14453645604439049888 -0.44135369215241415652;-0.36819283278201453413 -1.1166861006210220264 0.5495476243604181521 -0.13347630491592632485 0.70615476553581546515 -0.39031910326806490419 -0.16229259949221214177 -0.51754350372803126223 -0.66942419518303120096 0.79062994834623800955 -0.83552087590555756957 0.81634208136901431629 0.033618192187446889474 0.79389960381855351201 0.98230434747743744506 0.90119743929201368005 0.64582900620025029959 -0.46331147706707181966 -0.85596903873122631712 1.0387607536978897826 -0.78603312830331073524 -0.77357481956405815815 -1.2451977248162235945 -0.78328841841878860119 -0.14858299187342907666 0.049271585514879791268 -0.70989485331408175295 -0.91870876171665893928 0.46339552336771305807 -0.43275670682957473323 0.76558199604107357583 1.3001027426099822648 1.4454726788549636662 0.76832041308154819248 -1.1256230036455112664 0.82092543653603589071 0.89859531864711761351 0.88107016066848464764 -1.4465792126644632098 1.0099634320599499837 -0.10583626288560597783 -0.78156141981150739628 0.66336555604433666833 0.96313229397643607133 -0.14943536732436227266 0.40649491279845295644 0.53333132349574174924 0.64641195785475680236;-0.67797948406136998578 0.13770905238559516537 -0.24213302707772377254 0.62658555348393318862 -0.6948646009715752081 0.43833426302623751392 0.18243296014707688357 -0.62958740019677628119 -0.70525757726004967285 0.45255734855504975434 0.13925071870812943953 -0.41895652684799028487 -0.40021175171340372945 0.3598694550340250653 -0.28744094171067374743 1.0644633143853052815 0.14538592211504169915 0.74079050743264129864 -0.87753481983031256242 -0.34016248070264232251 0.61174101183168339002 -0.70092625516422701892 1.0610500865935938997 -1.0279872691078326685 -0.44323321004431598391 0.52722981722563422302 0.38066279040935380173 -1.1694632101952482373 0.029213635653173062462 -0.69744805284028155157 -1.009527126450370238 0.47808111691582455549 0.53558736247660576613 -0.36175366955993298879 0.018100561478138234989 0.21551972955734005621 -0.76594496591347649428 0.99998223763650995188 -0.56926448369116344761 0.12657441907083361032 0.18272073730126403568 -0.44675938765347017467 0.65576624654704984696 -0.50285041350387438275 -1.1363778998990161639 0.73477788702371493734 0.2808404925068134772 0.7771973268678593616;-0.73480488823724754432 0.46994372496066211253 -0.33679928815895748828 0.011867644404585231746 -0.16113073699123892091 -0.34651751223340016006 0.29332216772871988475 0.45863171151549675386 0.59425385513306527852 0.469683325657167694 0.15591811617560927261 0.13639054104281672641 0.6924449944830128878 -0.35095067378408689729 -0.04713516813529462085 -0.56437574223332309664 -0.41058947331997341923 -0.2049665526637013957 0.57605304745448493442 0.83256920227759401154 -0.14039813142894175257 -0.36009308468969941641 -0.4341917880483031067 -0.18728027535711563867 -0.78445838430740766345 -0.43934094145505014906 0.37152884375717981635 0.67140851380079158428 0.24159289224477542568 1.0822532096589616568 0.38861200946931251377 -0.16798520700338395728 -0.11613144441206704749 -0.28755400957097010384 0.25008340354345215406 0.73679856445320979219 -0.16318677272475057283 -0.32878806798358356511 -0.99166742059410195598 -0.36153857256299004597 0.55063764989686170281 -0.44772097260942744779 -0.43152513276136517106 0.56743593335908470987 -0.91666068584875637359 -1.187396370261477152 -0.58045781785978889378 0.55013053886647522717;1.139964070212915237 -0.7039321236438718099 -0.54610789423201278048 -0.33594323814415644192 -1.0906414421610906018 -0.14153539768596598569 -0.42346124381176886153 0.053412772746623919662 -0.88989474973083881881 0.43336088105436182394 1.1906586230891103018 0.4801634071531055703 -1.0157422537819753572 -0.68441854095423992899 -0.18537542011893040628 -1.146248871386718271 0.63010314576105297402 -0.72533848420588031836 0.88123184477781635326 -0.057183061851358664429 -0.72428715624511408322 0.1229387846943874596 0.99803613742413632703 -0.096958029368104922674 0.62074435621821644204 -0.22316160538328178031 -0.39640398573229135293 0.28948525682338382969 -1.187900093515991351 -0.29281029558306259641 -0.041091485913260054896 0.36221130431814269057 0.58775916563136809678 1.1622760571158778919 0.058184866549117419954 0.62662363479054661308 -1.1820876096699639568 0.13592129898680430089 -0.23414763946616470869 -1.2713139488682216882 0.14170952482368501246 0.078969608310058170275 1.0822659928365567783 0.7684331667126146348 0.12001317910052117233 0.14822173277299036109 0.63485697126527429468 0.061286918221187695888;0.70767091140544091665 -0.49358998234469053656 -0.31398143697796432328 -0.5215763384311346007 0.46517644129774243789 0.047733841593827631977 -0.60377869870072364833 -0.68811256150723465463 -0.52039396020395123355 0.4145818799044376779 0.46934892510031567259 1.0714521808891188659 -0.24652251403047895084 -0.83359557099373160494 -0.61430067203071236914 -1.3200343436274635245 -0.96565420336231044818 0.59861792956757053918 -0.092393004147056381758 -0.78629047470746649129 0.38822606454039709778 -0.40741731708107165044 0.62056167047194765729 -1.0733207706981890972 -0.61452099611798527423 0.72027370303366033966 0.36163676763461416463 -0.97320725815005026949 -0.10220302255635044242 0.021511737578648298941 1.1579466497104147216 -1.3440323402528899788 -0.16503784248189795614 0.25320477583639194874 0.61132499390907624193 0.22275504557453645882 -0.045460582866168774974 -1.1443558683712908852 -1.4928189781840990324 1.2262007009689606107 0.34836525588590538938 0.8024712676735122896 1.3648853814490957692 -0.11486340392092006524 0.85523762760455945831 -0.80245849038575756129 -0.43014301746715832842 -0.8436697367764692812;0.90268432489406535968 -1.3180165420375331564 0.55674171887705703465 -0.78616197465628401275 -0.04580890536363901866 0.096037693872553425711 -0.67543307963646581626 0.38823076342001777705 0.64866594948978950619 0.94533924227885779423 -0.86052807879456505447 -0.79238614524572115183 0.64659446299612488573 -0.28704935703356904142 -0.42764678172685821611 -0.80402223657189897388 0.20775658236271615786 0.23780816769320684001 0.31216497314730856649 -0.50814318829875615435 -0.39735048626990571163 0.37826191492446636921 0.12895736236891161552 -0.74970366442372926574 0.015542323606224922941 -0.42339418183778504412 0.39109877406501158958 1.8031733883653102701 -1.213718990178640933 0.68821120483493081199 0.013065231500710717746 0.6869611145473879521 -1.2780253140210116047 0.059687544826745146664 0.57161955409551357121 1.1063212829942499216 0.69761075593090382529 0.72996553223691751366 1.7845458377585703413 0.10123603938385733469 0.82596156331408387974 -0.25439099268766363071 0.00067660368497433811402 0.72688323685545541686 0.72067037032922698359 -0.70845395619974216306 -0.71614200836615482526 0.54039801765868855643];
  
  % ===== SIMULATION ========
  
  % Dimensions
  Q = size(x1,2); % samples
  
  % Input 1
  xp1 = mapminmax_apply(x1,x1_step1_gain,x1_step1_xoffset,x1_step1_ymin);
  
  % Layer 1
  a1 = tansig_apply(repmat(b1,1,Q) + IW1_1*xp1);
  
  % Layer 2
  a2 = softmax_apply(repmat(b2,1,Q) + LW2_1*a1);
  
  % Output 1
  y1 = a2;
end

% ===== MODULE FUNCTIONS ========

% Map Minimum and Maximum Input Processing Function
function y = mapminmax_apply(x,settings_gain,settings_xoffset,settings_ymin)
  y = bsxfun(@minus,x,settings_xoffset);
  y = bsxfun(@times,y,settings_gain);
  y = bsxfun(@plus,y,settings_ymin);
end

% Competitive Soft Transfer Function
function a = softmax_apply(n)
  nmax = max(n,[],1);
  n = bsxfun(@minus,n,nmax);
  numer = exp(n);
  denom = sum(numer,1); 
  denom(denom == 0) = 1;
  a = bsxfun(@rdivide,numer,denom);
end

% Sigmoid Symmetric Transfer Function
function a = tansig_apply(n)
  a = 2 ./ (1 + exp(-2*n)) - 1;
end
