function [y1] = myNeuralNetworkFunction(x1)
%MYNEURALNETWORKFUNCTION neural network simulation function.
%
% Generated by Neural Network Toolbox function genFunction, 05-Nov-2015 03:31:32.
% 
% [y1] = myNeuralNetworkFunction(x1) takes these arguments:
%   x = 64xQ matrix, input #1
% and returns:
%   y = 11xQ matrix, output #1
% where Q is the number of samples.

%#ok<*RPMT0>

  % ===== NEURAL NETWORK CONSTANTS =====
  
  % Input 1
  x1_step1_xoffset = [5.42778001021948e-05;0.000110495482225747;3.51091211615852e-05;7.88335451410956e-05;6.53889037459344e-05;2.15287972548081e-05;2.98462884818605e-05;4.10385504686924e-05;4.84404789161498e-05;1.90244237145928e-05;3.76863874077532e-05;2.00004880128468e-05;4.1120556875909e-05;3.01770439489775e-05;4.77153792524447e-05;4.09943302169981e-05;2.56685955275835e-05;2.685897654185e-05;7.2035440050877e-05;2.56542035610617e-05;4.63294125633011e-05;1.81874512388272e-05;2.87824823737569e-05;6.56673304509626e-05;3.4346830621276e-05;2.50882527430845e-06;4.19093893052544e-05;3.15006477125275e-05;6.25102574600152e-05;6.38063219997041e-05;2.25206710826011e-05;1.6463135936812e-06;0.00637153673241608;0.0627568927516737;0.0115993586406282;0.00194095753252284;0.00402379556546623;0.00207286455824157;0.000342370746546737;0.00133424236170266;0.000663899149409923;0.000195519132033205;0.000357302960123395;0.000501270879336208;0.000493006006967623;0.000295152222267968;0.000244889586328412;0.000335505972846729;0.000203215659571869;0.000215723096970764;0.000177671415402594;7.71785332685864e-05;9.23414093481755e-05;0.000147312369237763;2.57896087752831e-05;0.000101647057842483;8.10141156319933e-05;4.81802045131589e-05;9.32058725534655e-05;5.69958246001502e-05;8.25948984504295e-05;5.80973458029612e-05;8.62224811030453e-05;6.14813798362718e-05];
  x1_step1_gain = [949.929040141992;1084.43075803843;958.470377082539;1104.22306743538;996.787095671723;973.18051216911;969.181135909136;998.317025345436;1041.46034155313;1241.95736124018;1363.41886378903;949.662213913112;1125.23226656793;1325.09024033648;1165.48079656917;1192.80524196706;1183.24168241276;1216.56687416119;1219.14796699643;1125.51339064949;1216.45000045671;1272.72747054271;1212.56382129224;1359.1177843851;1136.38518898696;1139.21871672518;1448.14600114526;1321.78460515463;1235.99124675136;1138.54992893633;1376.50197571524;973.816057982089;13.6474613905573;12.3867802924233;17.8632618994842;14.3698429039961;15.9716083196849;18.8539759499703;26.2231067206954;39.6526826383476;93.4805985714734;143.251658726202;174.114721306902;208.505697267214;121.91748844493;174.517134695599;147.024190948521;256.11538916789;220.580820286317;249.016715276623;249.481250890482;286.908155531243;242.927757471802;336.530589662696;425.108786883357;479.956783007066;533.31086124932;653.606888622533;512.794900643765;583.235698477587;623.308355300058;709.535586047734;781.046138728502;905.32203764854];
  x1_step1_ymin = -1;
  
  % Layer 1
  b1 = [-1.4882164930962851201;1.4605210835452464568;-1.215938896667559499;1.2521908687591289944;-1.1603857205223688798;0.9687911053573575737;-1.1175030782524686401;-1.0295373346622733735;-1.0668551359596105677;-0.86429789088360930993;0.80981804666624934708;0.7934906397930676647;-0.59255896523901907536;0.52147547301611174575;0.53800513424789719874;-0.48241857345374977717;0.43732851236098108094;0.50166379455540777155;0.24629272079095113068;-0.35732701307981695749;0.10364693649160552913;0.17496685346988929965;-0.057357822426046048414;-0.096350564635340932296;-0.051381919700209152668;-0.056479649261190950638;0.047435113356265150297;0.27191491616647656127;-0.21704440993801726867;-0.18120848927179780685;0.46789947791629998841;-0.32171968168129450039;0.5450987418153994124;-0.63445906029699028483;0.67624892989112217467;-0.55511623823540190426;0.75144006654253814315;0.88086464869575709091;-0.91513361697654971305;1.0656409874260737158;1.0549976386593362676;-1.0615004600178390426;1.069858854117437863;1.1341384259823317215;1.1826406367896691307;-1.3049137398069745597;1.4377254667856709247;-1.549821183491328247];
  IW1_1 = [0.30124860354468230295 0.30529655457084103887 0.030583212718933470292 0.025894888019426805237 -0.079593865684035841612 -0.19018540721739143895 -0.033628194459473188804 -0.12782446170048319956 -0.033883820618663199054 0.19460881097614735058 -0.21842450936798973871 -0.31031399462713560311 -0.11486347794724614813 0.0054192772020626913537 -0.24610148602592130107 -0.14072091496410349398 -0.094214180596447608118 -0.20413767329537119144 -0.068190893666296117925 -0.074169090377373986245 0.17008337250063368384 -0.21971128360891387099 0.15696264884984528765 0.37033096674971049955 -0.31751803445469833909 0.26839156885234005667 0.15441312822546260364 0.27128346581359996659 -0.14675228927984632077 -0.18825779790759242238 -0.10780814734103624786 0.14185301867670424558 0.2841580428476723208 0.13579866655285524613 0.10458493461512052836 0.31990791818396624446 0.28409483854064282449 -0.14619208159449942341 0.050233703450554549608 -0.16011151706837276065 -0.29629458062189717449 0.22963715766079542679 -0.0025937467361745345992 0.099183059143455223894 -0.23063781807083233444 -0.31381067252203248552 0.23242262866186544357 0.17795417161930285332 0.18979072897253623786 -0.059041588394951986796 -0.014015547909453085484 0.18325927279082696031 0.20306701454718567579 0.078550967723212614113 0.28213396725961004119 -0.24648224249007957831 -0.17844616504825680514 -0.12495111451054873031 -0.3637938801068613115 -0.043735503181445443965 0.10372365123156949973 0.15016591531171913365 -0.1314350298473535017 -0.29969642578759109197;-0.050306176429863437571 -0.23713504352514097606 -0.12203676804735097416 0.40555903588963337913 -0.026864096618038429964 -0.24371714503753710845 0.15382985639753934959 0.2590808760364441965 -0.082091222264152718946 0.12609913876674475053 -0.12188656308220247038 0.20001220840620084762 0.15926313614941411956 -0.11977230532975702282 -0.068299012616664711572 0.072887085997026021533 -0.012587824528293080351 0.2745854727663829542 0.11622385277111856039 -0.09880013553877552146 -0.18567721158336294995 0.019330466841450337501 -0.39245168034448302263 -0.080021821984079810619 0.0067930152456112027209 0.061258680641773442799 0.20324736614516084043 -0.298707919751010742 0.35802465842578529154 -0.10404715884094244138 -0.20094704183982087242 0.033746588685436014476 0.21043277738137944333 0.099247170337478013424 0.190801572633005595 -0.05418980778403441334 0.036045766198185461016 0.15897796283677678719 -0.14921695790098260526 0.26417017966568129284 0.078803736678921029735 -0.12477135528287075505 0.17443494614998830694 0.26146790372604622466 0.066065560259144839872 -0.38669588440288948927 -0.22763297637720469879 -0.38885325643605128665 -0.069260019427114558055 0.26070610168917057736 -0.25930112728866222538 0.13363193776744286545 0.32931770875260107934 0.13755841256098144676 0.29153051203249724654 0.2744960091559538462 0.045006098040925708592 -0.014836153702497623802 -0.096314356823321345402 -0.29064070838881789216 0.037995682716515120914 0.050365168546994992793 0.16203788010505629225 -0.016409205253120708046;0.27409709453916514255 -0.31808066023866166105 -0.047234142618918388556 -0.2223485090812221121 -0.39596774528683059691 0.11096019632333491145 -0.16176615633960680918 0.10040392482922359807 0.17209213243103038682 -0.16742881853750926635 0.040713060224181737978 0.04854840603540467453 -0.23946242247725599284 -0.15273403262567272765 0.14355688796751514547 0.1907837508645429947 0.0060200019481704350466 0.056499461857084855299 -0.12583875541277658727 0.0350628773224071974 -0.38116314440094706262 0.13948636375241901808 -0.11691312036569748156 0.10311731421586327329 0.21400685626407200957 0.15512901926740721437 0.22942275293138100767 -0.053932241728593857677 -0.21342677555007175116 0.11486350193104384598 0.050280586766858981207 -0.082050220429147668888 0.32482529547518168567 -0.42935838358469180509 -0.11795698190223406765 0.2356453806535112605 0.12723056465587748165 -0.33192499756463572647 -0.009964932821888133202 -0.34387175943617315221 0.023598504887243996336 -0.51164003740258434672 0.16702746918129174336 0.011070395608469318569 -0.13843594506702644464 0.15329685579268287343 0.26967408652085406162 -0.17521059615997608416 0.37481950723941281911 0.13881317250830277343 -0.058482579722236721631 -0.29520656815730983435 -0.35746906474067158266 -0.12709397177777861931 0.2866040893424091629 0.013576813837920365113 0.1772987815116495447 0.38510055265751441667 0.250346286949994834 0.053896052286091747363 0.0091540827461209298144 -0.29606225293388743758 -0.16312227042378921182 -0.057537569783885522678;-0.054886159684331761732 -0.40725295663355071119 -0.090614743871281641652 0.05127389637489426083 -0.20832775306510645241 0.025427301043695452881 -0.2248719125045392786 0.027917195070889959385 0.31760218394932970831 -0.11300347165108513836 0.13597129165382867977 0.35781064699915315908 0.32663098486978731083 -0.24084811525409000055 0.11939940924412033307 -0.051668109730598280049 0.30259819230240614374 -0.096248268457932203979 0.19393561363293909672 0.13680188283460431586 -0.12159389069767161107 -0.23933254923913521717 0.30421528270894965251 -0.031034893203635342124 -0.10275124933565853158 -0.13112836387689560946 -0.18192317556330914186 0.026269511896136361895 -0.0052004927426474844426 -0.26824210888593980062 0.12846855945870014337 0.13671276202996907045 -0.20691649203960554848 -0.15922129584840702399 0.27834133942802752326 0.30992701748069390044 -0.29420359085773611918 -0.38543784000516490007 0.009969541049309579156 -0.23572166749714629219 0.19556949422275496375 -0.12065474766782853522 -0.25893694316714938042 0.055344751340095921233 0.27917628124198018424 0.19881752788458958991 -0.093323022422198975701 0.26270506068042992487 0.10674146685239663257 0.19495544981714441057 0.054745600394021085022 -0.16588511506660214012 -0.19939720903976079769 0.16985745186430653564 0.21284825189002296031 -0.21967256758324468779 -0.091336187057987544557 -0.13038620004280107589 0.26574494621237898517 0.22719539769752813974 -0.12380562691498707417 -0.03777768890062820073 0.13359556702151367813 -0.2229031155867546854;0.28305332696908064305 0.17350610684494402469 -0.28516229815692079042 0.10100843380125851256 -0.15034499982618027003 -0.25666088018815724769 -0.23273442652318004908 0.17631040016164950535 -0.243698959303077195 -0.0024327581642689163205 -0.021203609967276701442 -0.36118693025442139 -0.039951573426948369661 0.32036422058208807728 -0.09129767367431775027 -0.32481225899637489185 -0.29569210502392867523 0.048237041116406219332 0.11464798190328807925 -0.10566436930289083151 -0.19221277247303936164 -0.057204753505387444246 -0.26699835283133410702 -0.23617707660176373574 -0.097969700671440534956 0.10606283736943859786 -0.19910308201055826327 -0.10626339812643063876 0.02996583360742465299 -0.25381747124373954527 0.018246965891285094746 -0.28315652122992085449 0.1034766857088078168 -0.057572095529260111646 0.10968751531216343331 -0.02280745831734817472 -0.23089299737583135474 0.1580696821288085363 0.31466853042512038519 0.021485356718510796592 0.17039708460299349269 -0.31717625251824099752 0.16133544841345026644 -0.36425881156830469676 0.14189867459285174234 0.1356026864644742369 0.055683887452848329636 -0.041088822839121921793 -0.38165985236210653309 0.38222412973666364255 -0.31034662597245338267 0.34498574536355464115 -0.031917861295539855238 -0.34987656036420461403 0.20650747022089555038 -0.076449416895720753717 -0.17482203588834857588 -0.12777511829757359774 -0.013509468076432482042 0.19912842288366205956 0.03392321501414432422 0.099221983815558786879 0.25278391028567281928 -0.044638894956148672533;0.13314683722308914837 -0.24321215237901699924 0.0099953263388785212884 0.28913357193028776937 0.12629576255527283357 0.033097070174988342528 0.28464578198622175753 0.019853297109632270928 -0.17478268405866714819 0.093372331786729753644 0.21461538939727667352 0.16761773328759224655 -0.052189991001973655427 0.2860074033418587014 0.28559886259303357559 -0.1402156026716312176 0.018437070630511118857 -0.12791506924103424048 -0.012763878242530651147 0.062916299963183514032 0.22742618095886057983 0.058247924462163820636 -0.12506545926559614612 0.033987874245737195733 0.38354048878601249006 -0.081430503933953291007 0.33767451990005542539 -0.056402509412171508707 -0.11091982655019347326 0.15002808334262918155 0.25635617030061436106 0.30144611285352312935 -0.5379750811940817723 0.15869416046762033212 -0.29168009521783994087 -0.2907367249368807971 -0.29150885444458130014 -0.2701991835258369945 -0.48962166177826338398 0.16217207130364630352 0.38742459714787830238 -0.2163487059854697081 -0.28096460347049856399 -0.19106414495144527499 -0.16577770047786594132 -0.42413471521353685034 -0.26149261537865203797 0.22877572229500692247 -0.58166090768910472253 -0.007648967763984621665 0.3444945708223949854 -0.13212656069048547836 0.05583959450041389716 -0.42330043238168391095 0.045287794292482363989 -0.12371287046657335196 0.08037832318126228448 -0.11739011528506401727 0.32257888421992536587 -0.14454593657622838432 0.13993783232266229777 0.19933155227942211951 0.29759201872648977094 -0.28175022668419597016;-0.020189553200659009213 -0.18051702519547735415 0.22688977996886491861 -0.21820384072233764416 -0.26083571764721996677 0.28119324780612581227 0.27418977037655278828 -0.17444266643345140988 0.16807178999981367551 0.13863002850215103146 -0.24986130567259895452 -0.19365800965112270338 -0.17375003384544382423 -0.35748822769365695695 -0.1382044439205618036 0.090971017864297828992 0.1377459441814807839 -0.21438475673797632859 -0.055099121487957446186 -0.21683867767401998616 -0.079913182679014579946 0.20827201338990422586 -0.021104578587970612008 0.14834987621383771694 0.06476673133139715377 -0.18242062535535474854 0.27795824648629102738 0.15944730182802552276 0.053000506513386204388 -0.24404768333776996614 -0.039410270318640902576 -0.086131266741913556362 -0.39249167117072142341 0.37545059782194717402 0.28095815054118106202 0.19523195772014897975 0.2046676365899330885 0.11658646543506114013 0.032895184050109660401 -0.24371016879832715918 -0.43220630623046757401 0.50569576219439671405 0.16708203279355438031 0.2127291334152446034 -0.33052765779397158541 0.22228197691597534336 0.068680242380255204782 0.063415252539779046193 0.20409587780374321975 -0.2226050453111525218 -0.27792479081029375365 -0.090267128682764555259 -0.20264497437979608896 -0.23912912336282657333 0.0063742326245699284029 0.061874559486202372616 -0.17318504474325879805 0.013308504309972360793 -0.38579010497987403783 -0.033001181197099861697 0.038296462551507169658 -0.17569594236649682673 -0.19305984129864794951 -0.1042182706986333196;0.20291068465296099865 0.037871405356656791252 -0.090741298407515227908 -0.19673218161953234806 0.016886541749938307339 0.28892315637328230826 0.023190753675140455409 -0.15461710239025011626 0.24938513757204688881 0.098801554823535614469 0.12971489473112088331 -0.20616490804521017677 -0.10305015800351130517 -0.045773419543277821253 -0.088570555331947214972 -0.10856988081390356315 0.29942222504450954901 0.23078573440027644326 0.0067485755478506733937 0.0024136059921127891482 0.0010286376829189594444 -0.30434671188436129841 0.10780234591781855114 -0.094991026396397754139 -0.18201798842409303014 -0.038735370815113724652 0.064007884447599167066 0.052375853599582751496 0.25518356686503268493 0.29942709929890670706 0.0040731051748650231106 0.17008841664768392654 -0.23261720880151878776 0.061763445181404183493 0.31996969451620405067 0.187611695738622547 0.10945059985323143947 0.30733420353871249153 0.35840311671079005951 -0.078080518949709923349 0.15033618394822678699 0.11481175619468247939 0.39029145398782599807 0.090296835724170229631 -0.19990295283446987695 -0.3529547508770097819 0.20421922226534872102 0.26861153224558387276 -0.22142063974296383178 0.35368228941102486385 0.15248403944964833423 0.3553839763886191272 0.26808737407531385566 -0.3345743750460401511 0.084993780661121898223 0.14469410623345718703 0.044218387993263663649 -0.022392042407033681956 -0.091033714719646899316 -0.21283218736979528374 -0.14467338736537393995 -0.19675472578969552262 0.17110339948434069579 0.01006267362909236962;0.18223563457387259579 -0.13481907155480563065 0.030344367740313377135 -0.15852687999088022064 0.26653430995495119848 -0.033324896778876247905 -0.10779315362235088183 -0.013179930365817292548 0.17511890180621328406 0.05170840270956962581 -0.25454796287886222173 -0.16393863273940600944 0.2239632472680878339 0.14729322555464441358 -0.31435376555784372288 0.26077390759836172052 -0.052381432984410301879 0.11283219406938416185 0.059834038485993321088 0.079124923865341673102 -0.035988822576301926492 -0.16856246165301380646 0.063778177881279249362 -0.28317769873489967436 -0.31210943050096928708 -0.17339367277970563208 0.21208208645250753444 -0.13023049590838300937 0.20451267370422984704 -0.09698318808539224678 0.10738892157906053393 0.2735307112268993146 0.096297029847622894749 0.28023701450177801453 0.37746928582461136692 0.10605771210951728256 -0.47387082578540024036 0.068841439074918381325 0.12240421390097497301 -0.28771740626672026586 -0.28722915358137057762 -0.22335663270104211264 0.52740591436234907086 -0.17875664742912394933 -0.30000435760536092733 -0.0071619807966686590758 -0.27650067987963894423 0.16237173662370518734 0.10277044788501589478 0.13428280166438461007 0.23497107224601015973 -0.19410156643898560103 -0.28803827388733477255 -0.054860045126506405688 -0.10972378818612070484 0.11375800873090625986 0.25635097439916332274 -0.16235203018927810148 0.14827236221609751965 -0.28792128533411487368 -0.28233971000838126164 -0.25844256750964833547 0.12850243699987845547 0.11082169958444627877;0.14151040883784407609 0.10613820183534183883 0.00020827346111359362757 -0.11044488521628437194 0.0069671075908725619771 0.055340422734148381201 0.14748221952285975322 -0.15229848916885482812 0.043944370641832035396 0.20199417279539855219 0.36121463503968381792 -0.030708521799751701403 -0.19496250608769932766 0.35998155119004682234 -0.10481350477810628952 0.0014936311486934850806 -0.12256425026233805364 -0.16915278331974831216 0.046477854966251633262 -0.34832683638787986791 0.2060472545264783184 0.16072116443408598907 -0.19875537547658128634 -0.13875328039871881458 -0.18218990094597822815 -0.14762725962724021489 0.22756052449374306046 -0.37105686554402739219 0.10501775694520083804 0.069065808687629820506 -0.30268567869158258254 0.28923670459316158654 -0.25391345996372827187 -0.73601069898612536679 -0.15979870969228993083 0.37900177197840800858 -0.044525732119195075842 -0.2433207884841149804 -0.11553143643987805189 -0.14617196767556975279 -0.08891615269546532252 0.075068607799529174507 -0.69534542783532848897 -0.42322350073356612699 0.12619167248009607873 -0.015544890467997393019 0.050373090465430619966 -0.34063325415586831468 -0.46488184459339448873 -0.072989417209073759185 -0.37984805421424755467 0.07211862491770097694 -0.40557855810969706267 -0.23301573102399614212 0.083749704962620991067 -0.013788835245819428335 0.24444199673621827551 0.25527880478698966593 0.11847808719922048315 0.034836470870791488852 0.14778109094565239356 0.35666672567606222399 -0.27259610309546444817 0.074484170760151444113;-0.057734020990382786676 -0.30020197754674737833 -0.031968195334162161081 -0.11050371735770977977 0.10432903009849077425 -0.18542322996162310944 -0.012934033369439726369 0.16311817230301633996 -0.18895873994261458417 -0.039048724554342190141 -0.042464064288091754595 0.2155836732508646103 -0.1630794161426620259 -0.28012628617288604094 0.17713390244754334546 -0.24862789639935214958 0.054772346108330961789 -0.1290758519657236314 -0.092992953454294272064 -0.25105676238369856179 0.042969245801367170201 -0.30108934490201766376 0.22969865946548023716 -0.055210325181966904418 0.16973491958994518791 -0.18793500452497910458 0.26141365006391231729 -0.2507826138099443769 -0.16091658037639181011 -0.23404006385069758833 -0.084315696098907780276 0.20626977574165628049 0.17561061963375015904 0.25306710687984124153 0.065925956731441415215 0.024613137507475676274 -0.13418513744860502412 0.17158543268885084743 0.27109849347158554433 -0.31915629434709424928 -0.0021061203218958168132 0.061258896268003362739 0.27410220335891549714 -0.053675549649057720247 0.13456158975131626843 -0.23203049333993355785 0.10322733572216134801 -0.040188757648801642919 -0.26659709460362523981 0.24143659343554726981 -0.0064414899904133363084 0.21427426041182648375 0.1362866766960248166 0.18930617711419178706 -0.15965170445205603689 0.14995159113420714059 0.077244540960139149166 0.18677833150130110362 -0.26222602379664400329 0.013082270391738280713 0.21516178504908459179 -0.32111224682988542822 -0.1110962756056899231 0.061737338797416579927;-0.20559326298090735419 -0.031513677010141537271 -0.20644674718157959847 -0.20609308008966104042 -0.15456187307417607046 -0.11565216660961365192 -0.23643549974351335541 -0.2684543040699992611 -0.17079383705099870916 -0.17416346983795050196 0.20428941486657153925 -0.090528379312070583751 0.0047222403801359851341 0.092458659600019768576 0.28583583249969080065 0.061384307190775720675 0.0065096321763358205165 -0.27265149542997829668 0.14641009399923760048 0.15172999322253000187 -0.26117102202105302311 -0.026911672451633988218 -0.048359874654451101561 -0.057744725211675888843 -0.13569289631635092497 0.35156091658541799294 -0.25826140967168548235 -0.017000823231700584043 0.25994280139262992968 0.012123828991935637484 -0.30499215891248254717 0.12086160525863118287 -0.03447985301734421415 -0.079757124072086335587 0.11541001660184621591 0.037508085374982472193 0.12006722758572738186 0.1238889866288987035 -0.29118836974486161928 -0.30895841947808494465 -0.16206607732811317835 -0.23498498276405338503 0.10114525224492200428 -0.33045384587524079256 -0.041784629761335054243 0.26466824757448753624 -0.24418074135875750263 0.14022187311401870802 -0.20120257931889629077 -0.14657472445355881896 0.23119358006459911348 -0.0044725393872704841125 0.2170067946328087527 0.18181840761326520384 -0.041967462566145259661 0.22189206690417911938 -0.37387164854781057555 -0.19909192129199163035 -0.074546194660248629726 -0.23799430673599711317 -0.021769820597905373272 0.17600145624731033944 -0.25350901192529989858 0.055232199417233958372;0.27649664714546023925 -0.053234264857796587123 0.21477073134803029153 0.09700218218872776188 0.057325144696940069644 -0.15560393926009544185 -0.36131463861243079405 -0.20961840530829453644 -0.13176917406937604937 -0.17764870177316335886 0.1672867366094822339 0.097077657465196309783 0.053398222084753282912 0.18350168773128106015 -0.36770521158178315346 -0.42396769872891787445 0.18671170312332091568 -0.28741458788533191804 0.0046298110204870054907 0.15320007512905317593 -0.30516135285132156563 -0.14004859289080009987 -0.21568578120112574803 -0.13315674787925302347 -0.11736348499504677123 -0.15658727484888151915 -0.2075399001730329207 -0.066772398678103722647 0.056168987651507254477 -0.010682033067968504589 0.35129670439206484023 -0.16161484127605213468 0.2433861587878343169 -0.39961528913274768637 0.12912737231835275109 -0.22684109049751535747 -0.27952683803323352674 -0.14793205910079720855 -0.0081479235124692836467 0.21847640618046637595 0.2144701958576087919 -0.043695757824293877947 -0.27003319358743610445 -0.085790848085452245386 -0.28126698507599423582 -0.0724380644374385263 -0.051699122143349054981 -0.13199577340484805466 0.033333278444158238873 0.30295340436891060598 -0.4120762977900654378 0.37752998721645519842 -0.041784102377912912818 -0.022030441542410472006 0.016401133003981271941 0.085126878557959154148 0.26907837411808294137 0.19931471839100470267 0.24655336637611666162 0.17738912272739093545 -0.15607256132476640675 0.25190499508726199585 -0.11290105037989556225 0.30162295968014085634;-0.016471981229468576208 0.29276732886981837733 0.041480669869348042733 0.20049589149444693725 -0.159264287333386656 -0.02547837831657372501 -0.11229400431839486885 0.30292516176599909583 0.41146223939602838415 -0.11221611408221246475 -0.13659428471776541292 0.1698189745412383711 -0.030488142629998424282 0.015029048735861071442 -0.18022004624814619289 0.1023382775897473812 0.31116650984073290775 -0.037631411118988558617 -0.19605537151028659681 -0.032321147810603474693 -0.044968308649436780633 -0.085979808097312995785 0.17817268764679602966 -0.18878441066068690768 0.32089734142007309003 0.041602696071438273473 -0.26427435989769137992 0.0097150570177050379894 0.039304203738098036913 -0.23180979285193220596 -0.25540492299050404634 0.071414362541375259186 -0.54106586868642758681 -0.19375335716932845509 -0.16462140814011816392 -0.10538570858841118938 -0.059536257304304805726 -0.26459057291723053762 0.22788604181217531064 0.17712231662307217905 -0.16668722811575104048 0.12160310441712281204 0.078596187644515327908 0.071673131776923887371 0.09817805355424040481 0.2583380214403217523 -0.016259571241560164673 -0.29505154853541604165 0.29574975277593812395 -0.14427674557107503239 0.28993541634562197684 0.1161433925261940725 0.29177644307159222858 -0.1863067841899272159 -0.35795017138617940544 -0.14238004496122966258 0.16774758876784054418 -0.21406324047240340991 0.00030013460004156729266 -0.10476977621708963295 -0.10754814767519231544 -0.15529964311996358184 0.084482309557661547372 -0.24249363937510878819;-0.2738986407715455762 0.12741330475557910429 0.21080991125988909896 0.15094600722788942271 -0.24834232244823109537 0.133216744286863642 0.27209999748149604759 -0.053447854224281929336 0.2528719496579880377 0.12812401204818246736 -0.21349958611401526065 0.19135478845970427253 -0.12111582742823760739 0.006099234604725752365 -0.31478544680780240483 0.16021540692332261746 0.23843027986009721064 -0.28588265929492406858 -0.29982658623940749987 -0.2220202140580514738 -0.0027990830779715154819 -0.030572637903941688592 0.019399889976223640142 -0.14960088867278270586 0.29047103800443063726 -0.08289958595210208947 0.24484790124810995593 0.065369231048159781583 0.2537825922526741329 -0.036210189664473799165 0.32106217234159217799 0.11808012459642387715 -0.20738338824947066819 -0.090964637302539966268 -0.35788302841204283622 -0.30358442743565822175 -0.23835210574792803362 -0.22858976740984990328 0.14247543986940255922 -0.0021077484673507691955 0.29274039603416368571 -0.3328789213864160601 0.24020574977132741479 -0.066050160695337256644 0.42601611082515850049 0.077028115839221089622 -0.092534446247878418546 -0.24722433239052385434 0.065722841993736097477 0.23370600242801742308 -0.43940623635771103306 -0.24457502260620428425 0.23499465581702666528 0.16896885069180325734 -0.038109512871287103131 -0.0010266569471774344979 0.19210650060719669519 0.029495881772391072811 -0.20512647966106248298 0.16140822687873690455 -0.20507465299752539178 -0.062032670523139481211 -0.17817273854093185204 -0.022299248156030397616;0.031780130430588561519 -0.33056945127092246528 -0.15518657680523598175 -0.26734610050682372506 0.24280245841879910529 0.099653914751542713168 -0.26062930029141834209 0.27966227632028300976 -0.1493402688246294463 0.069720348655369010493 -0.32122970082696733485 0.2183471254361432079 -0.20126409845487988615 0.091350710054356049072 -0.14962604996748918307 0.11245966794168056613 -0.23440912875508265745 0.24253672941764053972 0.23922883616218890146 -0.13354656196445632843 0.18123173611789203385 -0.40017116941036218192 -0.024322994732456526545 0.14998204481988036685 0.075709666642584258489 -0.0041631165409894387019 0.076663561822691711489 -0.15494932014890519523 0.089350957352390861232 -0.14549399886609751253 0.10451816986098791395 -0.28514274219879554018 -0.1439596405819640601 0.28393901081526784491 -0.0066973929608231605459 -0.15747849389758075689 0.031929972042855178649 0.18636079082385259564 -0.13584017105716095219 -0.03430198870761889951 -0.41412537357309930908 -0.34068732647602600894 0.0057982666991664598075 0.088074854664846852215 0.32600631156922932341 0.27802326544243199935 -0.47932151030239111833 -0.017314074773615864555 0.4396558471052906536 -0.18916451205834400318 0.40668824134039949225 0.14818014860020989332 -0.11469367162068952459 0.1486054724578939612 -0.02214948594714107738 0.1074472948559565405 -0.03172582881366001889 0.11635943292003225746 0.097381434985628095857 -0.047101085905188563863 0.10291089083798860004 -0.081506853146763730278 0.083793263527693839787 -0.21245211286453133392;-0.053158293000823600427 -0.099428695156051030701 -0.21260913604555678469 0.35434737935767357531 -0.15680907454417192248 -0.24431479481385007246 0.047373390968946119117 0.24681438496671681548 -0.15946217067421245006 0.12150144120559111527 -0.25107836506810110588 0.23341586904579592066 -0.064642483633901834383 0.044916134926346398815 0.3502202622357301065 -0.082014898363654803459 -0.0033994706331042937389 -0.01554203549650281721 -0.31662590051388983525 -0.015214183216003981242 -0.15178317191206971981 0.063411485591384722516 0.31271799640193448377 -0.11519819248389774613 0.11789109833763465607 0.14557001424239809917 -0.066373679779725136552 -0.09525813165376713354 -0.27251546379968166756 0.066063245433594833256 0.23834782190392439505 -0.16046146311451031652 -0.38024498883039103969 -0.20846356241820784838 -0.10877714448643117928 -0.018449653637285109986 -0.022672136484972012921 0.27055259724382529907 0.12465119567628292485 -0.15677692609671384227 0.0030748624649603057551 0.047472662332263958207 0.15895463140639107258 -0.13521355446773375419 -0.075415456636683267377 -0.20903060889723812377 -0.23390688788830840683 0.21687041392647860016 0.24318564668873388079 -0.062899539351586541969 -0.31016979372705566487 -0.037768714405121417421 0.14996460444088077768 -0.13331916083154010666 -0.13103209183429143092 -0.23306856101589601415 -0.14636424187767169136 0.18012046083935978613 -0.19677629904738391797 0.23641324841189387262 0.081071579374972280174 -0.32288352829985861314 -0.36922572709287321269 0.011649297783158108974;-0.091390879903809188467 0.22364047120530833324 0.14041023283896028606 -0.0082062059109480854635 -0.07363813459475679335 -0.010085662694354626326 0.10429440640763658343 0.22495558762723871782 0.26387151910871969873 -0.26321515531860822934 0.090370339832007637315 -0.066923652792837740044 0.18788691455903155925 -0.2142418919682750611 -0.0069601428007986659852 -0.13058987693885101833 0.22808392438197927499 0.0034791086438455348998 -0.21830621392493917976 0.011663533614287808354 0.1180196032446553106 -0.13996580379125289628 0.23090295271043456693 -0.21275545819868721398 0.1810496780449751264 0.15258036712488978748 -0.075185498868352892976 0.17943608716082948273 -0.35597412836173841777 0.15661845218456985074 0.14847886825212366912 0.071073112061842275144 0.27434371672114127305 0.12560879514917214217 0.072467275896788585499 -0.016036988617298856413 0.14146655208960676187 0.30431961856076605866 0.20350689742420624562 0.23287731063028829781 0.1053336364641736661 -0.14189421721348077776 -0.0011774446793501348874 0.090347399910811559964 0.3026321124283750108 0.39512684714175438927 -0.31371866027628231288 0.39623074526980128773 0.62407643919962407786 0.068658346262083669309 -0.22323392990396537239 0.031494753048984636123 -0.13644414405185364969 -0.27487543864526226001 -0.089513379644652474321 -0.022050038482276955454 -0.061599348974264431233 0.30328601502134050483 0.41632510046506610024 -0.1502524700588441231 -0.10139968704334131888 0.0046503019996769080074 -0.35989988833982189398 -0.38333638929121710559;-0.19019125175717463416 -0.13968230324428790312 -0.045332283415885854527 0.19483460084849374416 0.02934017535549349881 0.070461625320721046895 0.32120921489273213112 0.022016549460866424726 -0.2014435560398877556 0.17917959629114019182 0.027440465467900979069 -0.13085862493105343551 0.055807446912415389906 0.16518293114369339558 0.1279337360524970546 -0.20457822520783239262 -0.25203815959688197212 0.33328923838028773341 -0.232170719013558291 -0.34669810948362794756 -0.25864467257482742779 -0.11922478814712972328 -0.092058940866722435703 -0.24415147926847718951 0.050128851241859062604 0.11377916213855875094 -0.066329495791450546194 -0.03688139291680937043 0.066959239021784425216 0.23306676381599969461 0.23206439599391467943 0.1874245745038104205 -0.1311002370266182715 -0.11644575152436674459 0.054595237340676665283 -0.031022471858551767254 -0.27151047542409700863 -0.14222697332602610154 0.074123840210496852454 0.24807872854459189771 -0.21949847646899595111 0.066187442712879004936 -0.24590069968391212174 -0.026816039355038370079 -0.18908963603532397135 0.065310726960642689898 0.27251007170538055213 -0.088705605430504763653 0.15833071690643288343 0.016135607089440097417 0.10834716242708099243 -0.21115044633257448736 -0.092166588951753447567 0.13567223842223508079 0.31519268634871855372 -0.097949435901833886708 0.056334617661342734074 0.34021023125147648036 0.04834531893273064096 -0.21185537482481850424 -0.20493189964117866642 0.32200519791739878883 0.32544326091153186198 -0.28385592994571284819;0.015358215988947487851 -0.061048585482740808095 0.22670328522415647554 0.30024518426999469156 0.019333082602363101804 -0.16792939464180375864 -0.029505262263405385159 -0.20811552365417168575 0.11945291009201400301 0.33509078245797924156 0.081147403909987453341 -0.02875829305567554825 0.34381834184623022432 -0.13300340119777731562 -0.015471029358888535934 -0.16824712744546616028 0.064838958043126171393 0.21227360944697090672 -0.22104094173604291185 -0.026374595975217872412 -0.16303466656324849815 0.015603962625858855059 0.092342563730143184531 -0.21179985617755997529 0.37497520767194825186 -0.030260795988147664443 0.11117159788413011334 -0.33275515331386495976 -0.094877084795326929734 -0.08081564811919365876 -0.21737605819303376653 -0.05107695378514313933 -0.32346835285021396933 -0.0044698044390629569633 -0.17377441463156284573 0.53761965875797423919 -0.41799616772265602016 -0.40801131503151832902 -0.09631184992305888426 -0.19680463151242999498 -0.36714835079652541339 -0.42272570255263508532 -0.14676921003023143952 -0.12224386279741823735 -0.27649107990742949337 0.26491211431358197004 0.066957555568367618792 -0.18671632028012227766 -0.025495071853312428756 0.086403567326272148752 0.4028807629555840597 0.251485611803405118 -0.14738557259785162179 -0.60103021348296015169 -0.37253473070686266011 -0.077673136353241287178 0.22605614756865596848 -0.032260806936457955829 0.1461161980688237827 0.18506547527855984892 0.22200538820928100714 -0.1498992239171199059 -0.026385567663900062058 -0.017151961384061557153;-0.10632750470486762584 0.24412549020411536405 0.19297170151754303169 -0.10066582556063052856 0.16460781277399980094 0.25949638329282026517 0.31789478921713443249 0.31596037223912420977 0.063834417813205535097 -0.0031743851017139515513 -0.25498102318135484889 -0.021405690768188961881 -0.29821532830859243113 -0.20582537009940363171 -0.013428590774934943269 -0.16060057525243842669 -0.08376890127714883838 -0.14990714765955909238 -0.12303841928777052572 0.14464328928685718512 0.18072316087435605358 0.29984774868317332075 0.30209305453986956547 -0.11700154401741647003 0.20163178694702554861 0.23172375124162802873 -0.11180553195647124909 0.34503892890249698855 0.029724279570357496627 0.17322956723574553517 0.14301167479809895333 -0.046337857463698478577 -0.56165367833347634718 0.2039909839018030635 0.28387314730697776888 -0.44035286680658286551 -0.4148109213503162751 -0.25314795286901825566 0.1347915566907226248 -0.12753158377972059756 0.0071267496705485081435 0.27491199070014982198 0.0059595492651361037933 -0.028838231745203671968 -0.39943662020455283912 0.048934568417700240184 -0.21742062075079504613 -0.23542283477088274402 -0.068527239397587313974 -0.033714962244481665177 0.15039909979153090469 0.24364296986410693968 -0.26992779758648061117 -0.19951167534475655607 -0.33836708039496249389 -0.41540530422845106662 -0.10482397017465650002 0.25300301751721498977 0.062850958147486077343 -0.080817813721172498953 -0.11870434349816358366 0.11699944840282652803 -0.46972586743453753622 -0.067396205294566621791;-0.26622398498366478536 -0.11390167365216649631 -0.067410566666639429312 0.096806419898180826045 0.15719786500893559444 -0.2696065817439718959 -0.072360102183933863729 0.21723481747321288227 -0.019666224333995056817 -0.071835738255958500598 0.33767952099113518472 0.27095356106866619328 0.043708173083445753249 -0.12383068786262599326 -0.013252009422118318088 0.055566195984777001782 -0.25266248469359753326 -0.15337512998533911479 0.038902368818078576773 0.13280134146495634062 -0.28745246320098155612 -0.21701697628481805835 -0.039281361430967068338 0.099452224721319981704 -0.10294203689770356491 -0.29342256458569437871 -0.13386653271349291394 0.20904415445946128438 0.36350214741479391911 0.099393067371822046985 0.081051624250976159192 0.18565355477195769063 -0.15438645915662377317 -0.0027731670702432955483 -0.040106929131808931321 0.23327971080713844065 0.29271932031708242095 -0.13619919207176678366 0.11574889318698297624 0.27396261945240313329 -0.17333756652195672632 0.165553755178082046 0.011456094340090212935 -0.30290218617222869346 0.27690437999466871455 0.25856229149982301596 0.13973964068518113235 0.04465277527686232345 -0.02428409526002756752 -0.16980720805306137589 -0.24070066031331949219 -0.075904052290970330796 0.15753810738993798135 -0.19137851542882938771 -0.31707478268350713924 0.018239894532877998223 0.35938351968255921598 -0.012010262489585643575 0.35129534374937160246 -0.13288605123088922944 0.39703322172035959703 0.2079614447768816099 -0.14690492105153868385 0.15701317862291758187;0.3123830234541534745 -0.05387932434964390338 -0.18675922112812831655 0.19042260690984708082 0.25283079434677341313 -0.15375915840370163457 0.17887309775797288758 -0.24004460573592778516 -0.30265844085011839315 0.23553163648301575495 0.11921920751428152774 0.085848372422358487643 0.083267844955095593473 0.074522875817570499724 0.13993410807574768739 0.060097793324501949663 -0.11996831120723897013 0.078584731816418423866 -0.18164243478366776108 0.20649230493802400721 0.16162694185947792946 0.23581537326752310957 -0.16940083341933087624 0.12173555146281168915 -0.10423810754648392407 -0.052211625717126106117 0.030219629249019858142 -0.15441510934924013165 0.12155813166715159768 -0.12194395150550643714 0.22663391544206268335 -0.082389151092024479062 -0.3324028529177827096 0.11643860028511586469 -0.14825068239658631408 -0.76712069953366734953 -0.2058091873642939329 0.04699752505863934865 0.18289092974281292991 0.00074165159081604741659 0.04971578267145035368 0.0074592674819078681053 0.29398342627125784166 -0.063337022061090486602 -0.37218310776638413584 -0.15916431105491835041 -0.23537631333270736533 -0.26824818523030402595 -0.34997255575413149797 -0.24221217433522115869 -0.14863487059261518142 -0.090574275043361157644 0.31787064113945279198 0.17941871007055537612 0.096521012740481706982 -0.21618032304425618961 -0.29988795647944910261 -0.1479309464272413055 0.060453103511716906049 -0.14367615830081795214 0.14315260138947419333 0.014228597545309525779 0.16113939167689239618 0.28403336043405669198;0.02423285800174192553 -0.097754870827378534393 0.27407696184821728203 0.045914166356444803541 0.19842057548065275552 0.011448026889281240695 -0.36246797688820797667 0.012479700320719443879 0.048186401036625685357 0.066341321187261118042 -0.18338131952642430789 -0.12312386260491962886 -0.18800204591007091404 0.11511009475030402338 -0.12241043976943993821 0.33815579446749471915 -0.24751355374642644569 0.27088733992628921676 0.34691586303141525027 0.16755695454235192132 -0.29443723270157273753 -0.21765382125064916541 0.075968147631449101098 0.12301581707438991042 0.12245362972806564383 0.094041603340426216384 -0.18407179343648019665 0.10732838365141200709 0.081866106458493903553 0.28969205089366134587 -0.11118587114492844981 0.14368846758009978792 -0.25835282337918269446 -0.33975982261424969577 0.37910200857150727627 -0.070652054781499842862 -0.24246165825562809859 -0.16651050584451693171 -0.07998300202027573691 0.14580464716607444142 0.24090604178682267777 0.32846902029709956761 -0.017630773760529683258 0.06375444048823529497 -0.38004428444914567509 0.11834635194218638687 0.28292738704044245734 -0.37293325802245907985 0.056474682857393924962 0.19638125680714535459 -0.50266050688099173094 -0.07256182925417117846 -0.1986874121114327596 0.14246668443427118467 -0.17187180108017455216 0.019580348689278652408 -0.33065289335093134282 0.28742922172062895791 -0.33151515288214561394 -0.23873167058397790075 -0.17439240023816815484 0.17467177725315249925 0.080757263471315690606 0.32753103610555989178;-0.035971779479467391738 -0.032174892471040536512 0.22475802709118195 0.19894337218793392563 -0.086313393985157027544 0.18519162357231405691 -0.13723141036936137294 -0.05814505867160496555 0.070248981911484750795 -0.27453807545184966132 -0.014557284739527267745 0.06552126046788796232 0.010177321753429408729 0.15719608855294928129 -0.10287985603042185123 -0.36686992872990437098 -0.25527794062868935931 0.066950626565480300667 -0.18709145423592993263 0.31039957467267820235 0.074536793843668763815 -0.075859914342796985753 -0.10106528607021411648 0.11664545806829920704 0.25045877066825816826 0.21258953854351900215 -0.04555040365052624024 -0.18275814023198222458 -0.00064318550890109227585 -0.25929147390498563652 0.15468460696569796831 -0.43992537266191905632 0.17711641718668152956 0.0072558353983763045764 0.82868859640918457465 -0.26340392920282390543 0.39751376638590463219 0.18104400417780008858 -0.32039090085786786632 -0.35244433568830652037 0.39878998830704615042 0.52576560365787006202 -0.32366598449435840523 -0.030860027809625642514 -0.13494859328103409046 -0.31392259775110087361 0.28341699850681062456 0.26744660097491684825 -0.33291797530364497515 -0.084397538468642327447 0.10816684724994118927 -0.18844754525822232649 0.11857025877198490438 0.34521148675790114257 -0.26157498555667330065 0.11758345574805627309 -0.058029876574912063469 -0.19841468588732288914 0.079022453177675380798 -0.07951718852995172393 -0.056662772700527823388 0.54600734754344293354 -0.2765955882528966514 0.038693082661459793359;0.098149836273581592128 0.39196654885767145959 -0.18754485924739369707 -0.3323768761422019602 -0.062322827334402863819 -0.09901741667765805166 0.079874335839188709274 -0.04916967913844824678 -0.22300974341344043106 0.26370511786396472198 0.042074394175280076247 0.27202892007220119686 -0.08125859758598098781 -0.11171394708512118188 0.24334522051832507827 -0.21091716454325459829 0.22034363787633862164 -0.18960463144316613837 -0.010600298462906993305 -0.24953237515181581063 0.044094651042143613584 0.35533376684234097009 -0.052599650377704081083 -0.10145301116860158674 -0.1689980815964236549 -0.0013915914449259452271 0.19981377483859105726 0.2952210403045357201 0.21522786413198605193 0.065086554203654736761 0.031771675782485547801 0.19594362664923228867 -0.081634703490232080059 -0.32691998019879164872 -0.36052714152123099822 0.034066079211171142183 0.38492278120057626944 0.076211237762108113847 -0.38577692406274549652 -0.30373244766070861544 -0.032488532616618652493 -0.1295661536761961441 -0.20334297197595674334 -0.3803274313382705718 -0.084328659948806089508 -0.20548717761056023434 0.72222206745619199619 -0.26967604254961508037 -0.35817251798345772773 -0.30258883623185955924 -0.045285658716755328168 0.15098283602598613906 0.1636632283103826857 -0.38368458790885401344 -0.085127215022317251347 0.4782075578525724624 -0.15518305547335867201 -0.32276405613132708172 0.13563446377256963005 -0.20878350914533366778 0.20006138455171293411 0.38178027149817822528 0.40247048420632464127 -0.13341612693173876547;0.021047960179124927671 -0.33736565683507047098 0.1401486435371715189 0.33912927765495221033 -0.12349121983324937157 0.08210659175990706049 -0.34470580285055685277 0.20117147907990542977 0.21442407377755054454 0.11560728647439476313 -0.26654476787081893274 0.17881558033191202739 -0.033467442631596587554 0.09235133095956676863 0.077409663167275183371 -0.070936546508708134273 0.3307462768510024409 -0.19550650434119809518 0.18444119093775845908 0.34621666471599921167 0.10391293630515924251 -0.20505684759152326135 0.14787895613383778004 0.0097773018116458897814 -0.0052090086944767159324 -0.030087670319683786774 -0.14971607155364682895 0.42427161461482915117 0.05249441858057181387 0.15329694445248262524 0.026574954897297355799 -0.095585487963514070842 -0.15776441787406944584 0.082228966747941736881 0.067915144166826507677 -0.047274470111560606966 0.12170517883328310638 -0.39527340632223406658 -0.34973897346427773591 -0.17709297844877294748 -0.43968155023225324873 -0.073837418939445925714 0.19062715019832732199 0.17440577358169095934 0.0072053479582514096125 -0.04777181169177045772 0.31516511862066604044 -0.46719572628518091228 -0.26474056044400151588 -0.090379200384925834078 0.48508819125896884827 0.43522322752792907963 0.086417393189297531109 -0.16181276118691456656 0.21730447717812081954 -0.17794856131398464894 -0.011740880596471639855 -0.21526533342620532419 0.0058194027536185733568 -0.51430055561572496359 0.11343911610165346993 -0.20558307974042761002 0.09754844267350384901 0.098107793506315529863;0.2624275007926354375 0.21132014629861226029 0.20442904263520039754 0.25350062463093248066 -0.28577756828901307307 0.054107342911105714423 -0.19524999172839963002 -0.32367924906562095533 0.18172288402684713682 -0.14205244978131323363 0.17308137903012274506 -0.2755259560463982349 0.20125187592930188218 0.23873161844570767176 0.10659523434069284598 0.048330604336521906794 0.11686165557576431995 0.078631876501196504292 0.04269414631608634686 -0.21488076827290372717 0.23449874804161194297 -0.098467090577471258483 -0.23055064107483064229 -0.025176086940670128894 -0.10080007141856341113 0.15038219319227563719 -0.12478294021145745762 0.097066386622690001285 -0.29269132572189110464 0.04119943399380801563 -0.022911973994405955557 0.0033695386636391987632 -0.26450410708005495097 0.07012078874680256757 0.23407122007607908398 0.25306711178333402001 -0.11578786860196205177 0.33289086910122633878 0.021450067138097560909 0.16323156093822574486 0.22567212004580852747 0.21463363965182499782 -0.031761976471359879004 -0.48406243926802366984 -0.019042463459543409326 -0.18307521706594281907 0.09460217818930377609 -0.069530992169357042076 -0.0080148806371415637351 0.035316571593266538054 0.14021464544124714879 0.13797410617043501246 0.11953532911827030594 -0.17019331955742744711 0.038502374250956344914 -0.40402593627344629557 -0.018319304428969090948 0.30602094801897933296 0.075758925708305877023 -0.018431112778204836872 0.20989244051522054635 0.0067347058223619984951 0.10441869906930036083 -0.18778477270967255941;-0.14361135472107575128 -0.23392512716298302644 0.34891737642775594308 0.080577313402260597464 0.20405346198157875426 0.20693231454425387028 0.19869940952307832416 0.23112607413032176806 -0.30531183483453605554 -0.10831185227751002897 -0.035265335759687030381 -0.23585005842281717148 0.027497149092370196805 0.1416060066280334373 -0.17392354490033840042 -0.2031972077898115403 0.21585594410444258751 0.08842596325509653743 -0.23196407405797597745 -0.26584413295552650203 0.2364102984540016883 0.23359819673862888822 -0.073190744583472619467 -0.037597598903621888555 -0.11395231105320628717 -0.15495922383040588999 -0.11084400087234554111 0.065960985731678425936 0.069331383819747141595 -0.17761705601009233901 0.18071003203986030217 -0.047860300854536415305 0.36158929219847313341 -0.20198615164700717273 0.025745082625655203723 0.24258599780814257829 0.026882559073753194839 -0.20371532885813628533 0.12125728364389865011 0.011621856081657883433 -0.13075722624759789081 0.17266230005622268395 0.49672276762434425246 -0.1456189193429009987 -0.095846305859427410878 0.25494618080378711467 -0.093513107697913794292 -0.11949989170973006336 0.1844698978277581336 -0.29211923084572410936 0.028568906320309485347 0.19158842140796350506 0.16547076042616920555 0.40520921653291219755 0.069525955084479229562 -0.23720345155607416854 0.15504485273086299202 0.24496423401406500209 -0.25531909466073410275 -0.31681132522357985382 0.19371116275091382342 0.10639277345258943419 -0.095874095533628869714 -0.27471602121090871185;-0.053502031691910915956 -0.20270464915866684419 -0.22721652729399094417 0.1987836844036824091 -0.36535956040635314546 -0.050048855422962307271 -0.12910189531685720143 -0.018562844124372326893 0.087233909136766082937 0.20595653509715280971 -0.28897892972351496566 0.07833450752606622991 0.065230263108357056101 -0.075063648853382833326 0.34130298032550121512 -0.11377718460568576886 -0.35359057778896468838 -0.16768671510736496422 0.040485343031918696877 0.12027469588679635948 0.061045608980877789917 -0.12634591443552278811 -0.12840469450483821268 0.17470115262922172872 0.31590839595122988115 -0.23249661515209327223 -0.044605735174575472657 0.036641781617044795472 -0.24009262819956461721 -0.15163874477778679917 -0.2054342469530205384 -0.087011798742233706361 0.21733342655536710963 -0.0099045904230909385946 0.30633819567585751642 -0.06723831831565239836 0.19648964515249989216 0.54512062308635544916 -0.21096294111402644211 -0.10419427304093484277 -0.036268573095821911301 0.45228516569548965487 -0.41572150081746395145 -0.20451460096271520395 -0.26871721037763501849 -0.044085094501344068707 -0.37311870286024650945 0.1870285677576474237 0.13696336980072848499 0.27164563155598642208 0.16990728979712291236 0.17883637597741630643 0.0020506494378615350987 -0.14471997219068657992 0.23692726830791005499 0.29106319865924618062 -0.071736486055870005152 -0.34270859655570479196 -0.093709816256443423388 0.31364540028534704241 -0.28750885207647264297 -0.037278892671549275495 -0.033470191497532032765 -0.10989443859241640467;0.076330481493988883157 -0.10926501738675925557 -0.20825552323267210175 -0.031167204792633865229 -0.12161086542877834471 0.18142953033627420845 -0.21127698193494695578 -0.22934893086056884481 -0.027652372493690614147 -0.17823245713134538981 -0.11158608417945312108 -0.281217830242614375 -0.26601023347204938441 -0.070151921761637051067 -0.07609987096122385053 -0.13302577479611776834 0.1024664722266565714 0.04237408643062885033 -0.078025540261310033507 0.10623913650630226191 0.070197080634710293245 0.16700742156646303238 0.22627121124199525704 0.082570239529272115853 0.20241336833734277501 -0.23407232708109826369 0.12837445240432601712 -0.24148937490426719554 -0.069826142004019292608 0.26417368719030970281 0.18140384463181691288 -0.0046209996059175511424 -0.38143651397413758097 -0.20596848737900436133 0.3667250758000007993 0.15006431688290794435 -0.39378084035692978437 0.014890206074339554926 -0.19544694258728884106 -0.25743747620529910947 0.20325832042908967279 -0.38365559212687933011 0.32275508445444794914 0.11540103942827061034 -0.060053047905661335881 -0.28816757081480587344 -0.044160471837391079841 -0.11371403708380646569 -0.11550214489651178251 -0.20558380297009024029 0.18809888374882405282 0.010533247295689694006 0.019772992756882479953 0.0535753470088993905 0.039996471433411680263 0.014105011058274215946 -0.28943804331979172684 0.34360121042204871955 -0.26352377013919087156 0.087576358951660104868 -0.20208133769441141703 0.21198142908768372039 0.13764118771897695948 -0.11567213949296135944;-0.030198898989746241622 0.10392029559664944793 -0.23882980816850274408 0.21325061282780691241 0.19762422756011582825 -0.3131340781791220329 -8.3347563070656181805e-05 -0.079116331141580786834 0.14252194817759622492 0.0019123534313653933747 -0.1160998224886512914 0.11570603072256507859 0.10341314324317173179 0.12316365906216264481 0.029486559924138323885 -0.0083857895511542327599 -0.23217359714773286306 0.14467556666129841036 -0.225409584682164571 -0.29174641770909415239 -0.075825837259165598803 0.27133333967925216124 0.16701873235287045816 0.025414722023848326793 0.045469815601545407469 -0.31398949053779245943 0.38132734768742054809 0.12345587142128061631 0.18305042945870073079 0.11217131516141219671 -0.031490820809355779542 0.070005788063006571531 0.0099561033298757248278 -0.25141460308942337187 -0.42744176673819300749 -0.075876067613041317528 -0.28993240145997445367 0.049612973813831527659 0.34559504555098863321 -0.30898414811367314048 0.10381673795926245341 -0.58020721896804960949 0.48788670122350685787 -0.2600387962233174366 0.20147482936359439876 -0.261368760799096711 0.3671871983300187825 0.019361455665315625146 -0.026461667857946107735 -0.099699144396034930504 0.092935752372969887558 -0.28682210340071090382 -0.19430747056734992695 -0.36450120444031380851 0.33281692252473826787 0.094123228359250576958 -0.15855750486499520235 0.28854151285539186844 0.16512410239620345376 -0.14390565157638793292 -0.19779056270412279095 0.22881095056258507481 0.37446989256327589679 -0.20960527861286229467;0.26974204700336351648 -0.29183044399995522467 0.15061782409122567716 0.16934797640708451616 -0.07553529584656898388 -0.31911592744641353869 0.24120924829798290334 -0.2555123963052353675 -0.04865294388871051201 -0.11801788017316183765 0.077679109216105907132 -0.22892327941218224008 -0.19547429020262319099 -0.027389755597597081199 0.20855512458326200265 0.15819065251661434957 0.030957121595355456545 -0.16824683488229569273 0.043930115601717452389 0.23861561076690826488 -0.1090431056260473125 -0.12465927926808388626 0.095415572586123334475 0.10052291045472944164 -0.036032230797951959878 -0.26951152846122322648 0.18784592101757474625 0.23861157710138827803 -0.21022495656722298141 -0.12067657826883643191 -0.015738475945636667963 -0.36190763489460497926 0.080181624910381499305 -0.066747243983008658352 -0.31581585894644603751 -0.17388655288860915826 0.17895591621565451468 0.11112576665889738192 -0.025481946880194224908 0.15411828887326819992 -0.29634575227825366017 -0.073028913649969676158 0.20188374024400748685 -0.03022204890578665884 -0.37605175644184635209 0.31125935498070828045 -0.092822129244029258355 -0.1344148681374555121 0.09735968101859876489 -0.15586579600159825021 -0.17623080633796703309 0.064488722317632599101 0.081838311027096335981 -0.34932752615319367928 0.15143016422457325487 0.17528280398357054537 -0.22011730820131328312 0.16866938451668148091 -0.22316719130786774605 -0.1199974101630030543 -0.021012225435555809128 0.034584828623319539831 -0.22557771779367113973 0.26464244908917933241;-0.050434253652476092322 0.075002824356257422056 -0.24312855705844757526 0.044282642724263868161 0.21038357337621194088 -0.22684822531767129261 0.34308183886288345921 -0.30858897425842529705 -0.27329690513811383257 0.19458073910962039865 -0.10188246901042413706 0.34185984634752281108 0.047169722798983772238 -0.18532416115274855106 -0.26285510412748225306 0.31609648617062557907 0.064664571659509020862 0.024447891807248173929 0.39191999124099802243 0.05111277098283486392 -0.11101281776358488951 -0.06665168648577361743 -0.12707312203550363838 0.12779331172951480244 -0.2006886640190036486 -0.20627780752277458109 -0.11074647744717759645 -0.044936497863890617621 -0.33186749876370907897 -0.17899811483746960739 -0.16671335039680976187 0.12412631076981830991 -0.23768895193273270605 0.35130809593911738187 0.085897285372781573276 -0.27628237704412167419 -0.20739117410941673714 0.17827547659402914748 0.45916995234710966667 -0.2219099079255423268 -0.19288100179856890182 0.050545967872995589687 0.35992932903070434802 0.13517677549483694821 -0.36965530242520611148 -0.21148182049965930096 0.14021988985039124387 0.30128903974385806697 -0.030403292510394655523 -0.21651790495012729343 0.44292244918064127557 -0.11777966568184299045 -0.042549974307085153269 -0.070607904655261080618 -0.086537719192922524236 -0.20109089536094790218 -0.1731657977130524606 0.1571429450733664579 -0.17704351286825706357 0.37133455413181032378 -0.032484389429940536964 -0.073987773813422322289 -0.095119243475698986301 -0.21047784808046365868;-0.018073220271762301115 -0.028377222561055501227 -0.17323983214923968643 -0.07970722723122439235 -0.27527563918438108237 0.25898934410327728584 0.044177037256486084704 0.18483901707432603967 0.17987099374096948701 0.1234013525813354023 0.094477479953113438493 -0.23529440743575263939 -0.11256604225298189048 0.047994059406538808199 -0.3242783544536657625 0.20845735623086988908 -0.1729010594306388815 0.15983470684494685554 -0.33473698300751936197 0.025972141407106658084 -0.029850897487925253521 -0.19387611035354043731 0.29760430038996477098 0.070682137964622027138 -0.19948544915507557262 0.11660488389434688072 0.28877247154288393505 0.19553765392893943109 -0.18441842418191542463 -0.073793864896647687335 0.26664856859677255052 0.32580124967939488867 0.11557351249399495929 -0.12852171517679722434 0.03284658408952506603 -0.14421797050017079456 -0.13937696259352583272 -0.037566837091817580074 0.11168705778760179559 -0.28330419143767221479 0.13217906758680741941 -0.049029112956307331628 0.31858078746081797128 0.013017837800931603143 -0.14609425922148036592 0.19577026925592380668 0.35068350450971019772 0.026958081618839911664 0.13624160853477879085 0.25421222490680328576 -0.24418245663190077388 0.024661894592821705097 -0.12545277239919611079 0.33957168148183730638 -0.16542315161229598219 -0.20913437303412837909 -0.026252561416044789544 -0.0094430210225499855436 -0.0080139777181612963097 -0.041283616558186818357 -0.30309470018015610693 -0.099723478019436734288 -0.26289570497927899906 -0.25964921301767551753;-0.30131595546553230358 -0.045731148530034709809 -0.25087524815131900802 -0.17300152628210513361 0.35456940777164208667 -0.012953789278789849121 -0.21904911830022491537 -0.047235511332880522617 0.32098013928518015492 0.061028670432261691858 0.15900004361555863941 -0.17862488133611426067 0.13802089173567685942 -0.032986842190653467566 0.080252043747901263826 -0.0046986796552070369398 -0.08640868650048923183 0.1157942090537718155 0.12766822803664870656 -0.04051238885406562712 0.25168934226061301374 -0.068182868961601222901 -0.19361540091887161075 0.21164965102813010356 -0.30651071396661289103 -0.34790164027693076809 -0.13034751949879305744 -0.15077741211464121274 -0.30694744881716284901 -0.14616961631891717266 0.035275377970592353138 0.046789504009467429435 0.22171179915703653762 0.30964855664647106259 -0.0017192954505731523809 0.49334569318333948429 0.094537809341502923588 -0.44858177197698073657 0.23898125187179206086 -0.25834407697028494155 -0.12655130319352425605 0.037334879021705645596 0.75368140479590439718 0.17955366002243186574 0.10686262517608179079 0.22882241920967241744 -0.25681537123837921976 -0.40265911216631206093 0.18859599112026934065 0.2699843240766862662 0.53738895584253465465 0.37754135491385742984 -0.05487435648666098148 0.030033375226520220291 -0.28291595793542517745 -0.089578096641368606945 -0.048167163285643306569 0.11230803789735122056 -0.18301402121841364723 0.071067203576800366815 -0.26052678306630405736 -0.59297964975598493886 -0.035126266694715004013 -0.25692189382881197579;0.27973622183524604612 0.086948156625838574074 -0.31145705202526513533 -0.058885378114601066857 0.16031178754054689617 0.11767901001268313288 0.18936234982662197845 -0.11727136635397324149 -0.036888740780024811827 0.25740114329227498091 -0.27518369634786948863 -0.020574874778287295662 -0.15362143308623474325 0.025119299901487798787 -0.26733588294461130275 -0.00739319087134614715 0.30469202296317676737 0.16137809177564629848 0.093878004028863648589 -0.0045023333533856044891 0.14983877854661359352 0.1263225101176840004 0.23303418631846919973 -0.13286493342189326095 0.0032953718824733709176 -0.2552564370077936573 -0.099950296801613103259 -0.26180405927436062319 -0.27776194400770093385 0.11270426282159946851 0.074702353116523914633 -0.20406712891734210547 -0.11978342868619422379 -0.17223358091215837384 -0.12261784230993939826 0.1788039146284767511 -0.24182565821945353757 0.17587931371837339789 -0.0086693928965902705003 0.37180624151775126807 -0.32895192827147423653 0.1145805214601644112 0.032210036977616270104 -0.26329015185236687158 0.017873587885743280612 0.14471849654468926794 -0.39106680571520113787 0.3228406957653283671 -0.11683899990464134688 0.013272417207151792143 0.050055129082672317198 -0.30367281523003902821 0.22430150241908769493 -0.31251804409759065262 -0.14423587454938158192 -0.17198728316278305561 -0.069916069315280826579 0.26856544594565467943 -0.13086075799360336047 -0.070253431596982135465 0.039151362246128515454 -0.11511137900492776631 0.11743752291659965981 -0.05788579542031015851;0.17562175593373796634 -0.088678969499995013992 0.16300125036859111627 0.15464403444703406221 0.071777420418182899531 0.12887689408284591641 0.21829786880244717029 -0.35719840902129085247 -0.18812866261363200837 0.14901377099324641939 -0.23318056662030162141 -0.22767048132532211047 -0.29906806165016797117 -0.17834271753144786965 -0.051733805050894865474 0.050822979952797366077 0.0051543537167978359034 0.26312413824740871204 -0.20880690190430609143 -0.26956234199030243426 0.23255830406150937439 -0.16548178396847085248 0.24940190430659422982 0.048764368377820825617 0.068686925871404597155 -0.1558051539552044451 -0.28823048686498159432 0.043012174314330513247 -0.10282986321514667183 -0.15712111269737547015 -0.1796592770068467515 -0.080985098650857220703 0.0054862674402438469864 -0.24608913281374603099 0.0885113141594293662 0.012287597147207861281 -0.016206178902594604863 -0.40649551148739598849 -0.27734876146730347291 0.017270631882953982328 0.12725938961822413908 0.12723640462384591676 0.16267813992033003379 -0.28197232727993482015 -0.073569135404921076615 -0.23990876116235870796 0.24744960824550724099 0.032654986139091617126 -0.056824104491355893753 0.15917503899562918113 -0.21733289284760903826 -0.019018825288379313104 -0.11491885081686913084 -0.084740073051938480386 -0.23865678755989541693 -0.20982688444204827816 0.0852784011969421607 0.19331178383326369508 -0.35657956264486911913 -0.2357664903072614615 0.2540982809570559442 -0.2383607749946742016 0.12571240793953999959 0.14673941669544215971;-0.16730367360705661328 0.1943178961325444376 0.22082416597693579896 0.14876816472120771295 0.10934292371142984024 -0.11711831627958474433 -0.3143891064782031175 0.20084836069916695012 -0.1756781037705278381 -0.1539890045552948783 0.23160152410099088538 0.11823427073451060754 -0.15962208322894813617 -0.35056858163304105425 -0.2270420267720101859 -0.063466433634927238439 -0.21459192193545931215 -0.059896921395403444899 -0.0070211393224986276551 -0.13721275738909513575 0.12958236067972186967 -0.13738862782553598607 -0.046286363020239876254 0.10218746942077273909 0.13435936338137358104 -0.13762282055734378905 -0.18454410211760757798 -0.038772828559530250758 0.0314640057159810832 0.1848318509496780504 -0.2290835907129988025 -0.046216901377119701255 -0.27779078574296739435 0.087777229221421185223 -0.20770807615040209892 -0.2148852279395650211 -0.036877664474581461906 -0.24907166548221432167 -0.29554714602368475918 0.1255683324660541722 -0.3067074247800722353 -0.45422422201318141122 -0.2949531155795120374 -0.31295956887619602593 0.099544683015410917459 -0.070561640950667220418 0.33227459993303615216 0.18219824116402280612 -0.15612095642192391765 -0.20003442438040466844 -0.15749894808906036991 -0.29438708869021684711 0.10348826152954285207 0.17833531204905836431 0.17399362808697985128 0.3749513487485515717 0.061324096694892651915 -0.21390492454105122788 -0.19202652731591673962 0.12553542298661748977 0.24560927094436690865 0.11853381588017984638 -0.1038809503843101667 -0.27347149145925736535;0.083297959287775114046 0.1900215480119383793 0.2787738557260274197 -0.26143637438628736236 0.039704720570183968387 -0.17659503892375352785 -0.31642206202509481905 -0.10168596569954430064 0.14120355458706029816 -0.41225442596102884751 -0.1103402462953578661 0.10745855953720062637 0.014740482949968821552 -0.10520744622863635598 0.19455145076456545339 -0.086518429727917373073 -0.11693403928887882715 -0.19047561677135896319 0.29926606691874418908 -0.13015124062376884351 0.047271590902234400522 -0.26090066088137048306 -0.1999069767895816363 0.035105370529693584458 0.15788714543645768207 -0.32181977171297088125 -0.30422955111399796468 -0.32039126407641826955 -0.046747364774210244109 0.014149646308543345485 0.049950381888920689089 0.10038413426985358379 0.12573783743865407647 1.1311513792060721162 -0.12584209270529539415 0.056709402990929962118 -0.1382473627891324941 0.073346210402424935615 0.42661377817801621193 0.12393435858779786041 -0.32594368262400991165 -0.20747128378530102499 -0.018781004435230230776 0.010672630819922169013 -0.22265718087225372379 0.17344493146739142775 -0.12103744697591603541 0.4414377603970109365 0.26427124472089524865 0.12917601171698295248 0.09109738747965352712 -0.04124860381149913352 0.13929409130049505428 -0.1648248319888910296 -0.15196944528858877255 0.29572289340501678456 0.10510105582005746516 0.099408070298297790401 0.19742774582224711932 0.27603846815443111584 -0.036544880606029422898 0.086712712100727729059 0.08063139263412315294 0.16854293286865423829;0.38707613814568392341 0.061825885235829873554 0.27563646592717311323 0.23359594931546770469 -0.21037471696132992172 0.25132024421341842002 0.035692214214038703313 0.15851718328206867992 0.094410916252454624154 0.14142637786649434051 0.1762276543078920843 0.11339272886988607802 -0.30671779424155476423 -0.11716165327519564854 0.17407015465828037937 -0.11764340385775524933 0.2410559503177054641 -0.32268225627274010892 -0.034080452198208682768 -0.24504765562429747794 -0.0015239687376300669469 0.16438325645095205885 0.063084245917354661581 -0.096471306163463832473 0.093800378545180251866 -0.051221487427355383293 0.23348034150108920581 -0.27784266708908983423 0.19760623682660855005 0.074016425172043501246 0.088050609636753762732 0.073315765825075637774 0.47210581974288823304 -0.10230194808719429711 -0.0023800341807589525667 -0.19273201011064594601 -0.065030012729565656038 0.44261548043637344296 -0.22168639659862757196 0.035647054889428334001 -0.024935037601735560858 -0.5504390069672029373 -0.18754228090558067166 -0.33074446883350017146 -0.19732353130707161459 -0.22217975953586671656 0.19735668560672370297 0.054657616806881165195 -0.18135980833478759777 -0.011848444343962264563 -0.034417770459961680163 0.18443327947540755218 -0.024709474132342916508 0.21386257093703683885 0.43876249655170862507 -0.083072424764184721324 0.33285948856287161934 0.10016574091040296446 -0.2578652409934589218 -0.081274351978095848992 0.42472099131359403179 -0.00019815686248279276369 0.36354133453240194962 0.068016128590657989883;-0.077904403028526345021 0.0065937296631669167768 0.033430235998128186858 -0.13257210539121064286 0.23115889551986976147 -0.08826710962583232678 0.28769046616359383872 -0.063159916373456401195 0.043268813671474330718 0.34342477235745344499 -0.1169767607113426644 0.12230022820509935111 0.26572129214006179332 0.34220394218086547244 0.059693165789570346025 0.21250527578443861865 0.2854638951603943875 -0.26066692862780643791 0.027356361001879089812 -0.12839825353964970378 0.13605219202725440941 0.17218475317040740635 -0.15716743171743610685 0.31186383454322835762 -0.14622798768331621289 0.096387655207262362689 0.17876281041706135189 0.29705306886645865827 -0.052187745732315500569 -0.032943681744078620599 -0.18268635988664372327 0.12274604889239401628 0.15656173301401885012 -0.011227436242629829782 -0.26266840404867614067 0.25641467282979363285 -0.046020121040049745409 -0.26989697721555594434 0.039252129347255616809 -0.14184203779797097122 0.074631292612180669122 0.099777867655154839355 -0.24470720572826656913 -0.02839053660141827376 -0.3605151054327033755 -0.14273930132069137522 0.23240625983409946009 0.23962717883467196667 0.15926167707925503736 0.14630088328520002294 0.27877693112584689406 -0.23666613553325041575 -0.15721694241678219051 0.026749837404233752641 0.12964725450061848067 0.29773545824817515548 -0.089564572177952508913 0.0018702866712688227292 0.19960037111822986899 0.36337536538194736835 0.22665221455224393576 -0.13372225894641875943 -0.21453543277801750966 -0.010389737581475618974;0.054116406767718526483 0.33040610938582481992 0.28984236105351945945 0.24206172681945353764 0.027502701304231623458 -0.016954733143357412356 0.034587798598863420119 -0.29034690137274449251 0.12836813712784178598 -0.19706608319519419714 0.14693184069242679057 0.16447457747655452875 0.10749154727019974431 -0.30060176394721804805 -0.21212082423466951941 0.008942341044922270249 0.2353302443178999781 -0.23964127408856003565 0.24734748928074751229 -0.080397280315007174645 0.073931660343913643829 0.048016476131070774669 0.15813328409801719054 0.25604320272469793807 -0.019481774274041508549 0.18019353695313583552 0.14454205522768268088 0.038961627363359556397 -0.21902193169709069376 0.14313682521489765054 -0.19390499606563879609 0.22837364499450502064 0.29269268245514090676 -0.61643600811188137278 -0.10525407007493212119 0.10333263071225630425 0.19311626296116857215 -0.19390118788084559354 0.02234082524723392249 0.22273094298779724798 0.152245044302805832 0.35620696002153573456 -0.11891547953824853356 0.20526384094088162557 0.12500914195094489645 0.1699984400948485741 0.23804306369950417599 0.33528860158328643859 -0.082483986400345737922 -0.36045293285106755343 0.18809130360735429321 0.28210172735886157591 0.26741521723620681472 -0.10712017002314698499 -0.016911011694712336367 -0.088049824201240231569 0.0071708141463714888952 -0.23861435492629143318 0.26219421968972184134 0.20509828623627773814 0.10062019194612829842 -0.032856325865508913264 -0.12038425325321724935 -0.21468149393387536694;0.091349367403831607803 -0.097265137475968127534 -0.16030313108932081612 -0.20884874229016556213 -0.19306212593687629986 -0.14516319794285131861 0.27266004023595658001 -0.17603186326697656261 0.22454679202920860281 -0.19122391283560075115 -0.27873238026840202464 -0.1652030310687834791 0.24501714038108418636 -0.040597361020212829885 -0.22031961390843679549 0.16731692508400056174 -0.24889749311701686585 -0.18342200040721695631 0.09402791719388159386 0.20663306669111974889 -0.11039506998846210228 0.040987069776598314408 0.03678563461946205565 0.24717066734924303395 0.27767579686552784635 -0.0073552115253390122629 -0.21801664260063563505 0.13226847848370254512 -0.13320544152376376235 0.050147239202432275507 -0.066393025107730124779 0.22232791618675962209 0.17365843623835944265 0.36776387280253836076 0.20929357094495673608 -0.15709683854865952313 -0.29664400621274283898 -0.098704804246361924069 0.11763046507083883829 -0.21403555280144470618 0.027155864714311098163 -0.37561452262284877879 0.26252260095844370813 -0.090378164184705206408 0.2494384556678771736 0.024901575253052327802 -0.082637742397099436809 0.10138479055704832654 -0.042446382379353539416 -0.047856457521205236771 -0.060762820761349242704 -0.26344604259228526777 0.094647758450322555523 -0.012930286477377619242 0.24729651773777749924 -0.075199095264620638424 -0.21065358732927283447 0.15465817433903200628 -0.243830119216217861 -0.30754683815947359005 0.16470710630958140808 0.29234429636944164743 0.36671160300918986819 0.14116523364090929893;0.096823770021170443845 -0.091408634039707017949 0.23155189118338304066 -0.23423845420185612776 0.3176884287692051112 0.15209355432932880614 -0.12448311415678806058 -0.14599595161310724434 0.2753919488387200909 0.036812903228675031286 -0.020210552911568247653 0.25777212219056594433 0.20953482929361985643 -0.26459585798336293649 -0.1889721295467553519 0.21995694115189540208 -0.081526700643676772162 -0.063993812215781140096 0.24473369652867368873 -0.16659151763685900449 -0.36573228978681210366 -0.081920733633123313244 0.09596394565417516731 0.23379385526280727081 -0.19718659594098794652 -0.068781563543580476194 0.044517803202852451738 -0.14517368012440196035 0.057451698729507859331 0.37878030833596704197 -0.0017362329611137865271 0.17329014849435667167 -0.14817033466513354623 0.16291247192430552415 -0.51587951421032995913 -0.26989586100976897809 0.11336246964424954997 -0.3923953684861371527 0.61860214969786619932 0.072618596088047215886 -0.18714465106229963287 -0.24993616318913197683 0.14895607740110181072 -0.21216842627572762847 -0.24987891921239971382 -0.063447048032109348847 0.13434725645461120802 0.32175046861406270127 0.35359969589895839936 -0.11629775159028940545 0.51860747808424623173 0.086709240358574052321 0.28829335534475752922 -0.083920595409652742891 -0.001569507579269054532 0.2867798870969406333 0.25545002857436827082 0.25664135396971254899 -0.20218181217459707533 -0.11822390556351349 -0.1372658011114884502 0.019236687016594318511 0.15476802619652557658 0.31153378697177575019;-0.05235333100603185158 0.19196244454997513085 -0.18710125037805080961 -0.28899600743877718045 0.010126029007787341885 0.19330213536309417965 0.23662312155960890658 0.054970873002489963055 -0.32072888433491220095 -0.080867126878712627946 -0.19524548784093426201 0.104020415214909831 -0.23175301197159037248 -0.2939953823734831051 0.1028471259094653617 0.21099656077335970927 0.30276839387137077786 0.28793934304977192307 -0.10375283317744202205 0.1657479892366946761 0.17523195386724177425 -0.29772759780699620258 0.23629683110748761488 0.1747062905336535521 -0.04297797667202735844 0.18599040269868813424 -0.0094385546369753423046 0.14435140196533374768 0.25876870757915904075 0.24478903064527793298 0.077160753674777440847 0.016706681717474667487 0.26523322317296499362 0.21675544001898963686 0.081767162959390279897 -0.1377092571894422135 -0.043826681762312018342 0.24326546857093564458 -0.17031515116009593447 0.22132234257751623452 0.060824963850462626658 -0.23837820262299427854 0.2656347794224163672 0.11933324292699616642 -0.30177633159659922324 -0.19372194085015151388 -0.23811085327312891957 0.2758098804988216024 -0.098539335035280617436 0.070720397741224322319 0.10965881982779961124 0.063849696065246458465 0.10754364493197013375 -0.28980371722990111438 0.12465375370491203755 -0.088296636291000846208 0.27861086628009090749 0.22178121271306291962 -0.0035700607919881806665 0.12083809063874484391 -0.050820526605752563976 0.15226164384701063037 -0.0023478650239466157187 -0.06787279321318738512;0.076137720279318019112 -0.1182704565172244815 -0.16573175815169050029 -0.29562131056269519425 0.17601886399065530542 -0.10412419938554598464 -0.12653697060322582901 0.26294090246448181825 0.019681112548148971264 0.21902318202742906972 -0.25457501242490437887 -0.10611788263224847251 -0.22094077483147472885 -0.24130157168186619487 0.036177175040313175325 -0.27785163360063847016 0.19328993055145068936 -0.22256634218509621648 -0.055553959932223853646 0.21677474629755646984 -0.018092396433930200972 0.10307016611515663895 0.039571890175488892705 0.041193343857278463815 0.2927986522408724257 -0.22332502073493065708 -0.027517795479425434524 -0.27280698241934658865 -0.14191900874838231372 -0.099971091837507644606 -0.32911680947366950267 0.10682838550732146055 -0.046819447970987401741 -0.031697474297056639492 -0.14053012748382537334 -0.00028188753481513719725 -0.26853541641829398179 -0.04135689410419746137 -0.2974808149572669147 -0.14086989008521488831 0.28656168333573028839 -0.026151040005587589815 0.27682149331264377379 0.12747643575244960168 -0.25118510360794804592 -0.15073730064174997723 0.034681675466032763078 -0.058258582092754307435 -0.29638188961841549496 -0.14196283734059728099 -0.12657497468341002977 0.26821913748528142252 -0.20491605544283367224 0.25677043557300804899 0.20186841566563148986 0.1048917221094313873 0.20535734911932426727 0.087299620431443403223 -0.21577942110259631936 -0.19358389262305691902 0.09326307493798990933 -0.21366317763300354815 -0.1839627787708240092 0.093609588552987857413;-0.058159040130308273242 -0.24215885770736172988 -0.13080327024270574365 -0.30408668533416721713 -0.11445846419665886562 0.19832473431636318817 0.23588521776849122324 0.020070923587895930784 -0.027236782439866633748 -0.18544815869230993344 -0.19043602506281370745 0.0044479414941123148267 -0.095266573555951764019 -0.16531720141848943451 0.12823593089438298231 0.033915784007981147896 0.044752996229512079229 -0.03301497977945008766 0.12253421216513155079 0.32626436296889249622 0.25791691987053522173 0.037256324234982818311 -0.23356185333313453367 -0.068911133503812380119 -0.21449306134949444602 0.3314977985216472911 0.035766624108433349438 0.25067121258033786546 0.017300208057127702821 -0.015071693949471385784 -0.16553868479618208398 0.09138695081855226221 -0.22505793338675053605 0.24847945355593456518 -0.096820990189804320702 -0.31277293278869428006 -0.012448105999163606994 -0.17101450501823012296 0.16647764721015048672 0.16217606562268299664 -0.38919350133843910733 -0.18204954865711364675 0.32422504798908485801 -0.20468146841893394838 -0.23672453587001432429 -0.066639664445885288258 -0.20214056332311786113 0.26038476250535075307 0.11890988249375397667 0.14577021513368232375 0.064660313191283097511 -0.062616206936912513492 -0.099914160765713230794 -0.31562922339764620805 -0.20106481100983528143 -0.18311225491752358696 -0.13202883393483219598 0.19660187742518728249 0.28668836280848247755 0.022960299240061179255 -0.2245922673940662917 -0.33687544580954847939 -0.2582659561786623259 0.0018370440837764089037];
  
  % Layer 2
  b2 = [-0.38746129108784366224;0.49768003663174731344;0.13339837568787854538;0.82375129954239778574;0.95971839366074263022;0.35260810077936100004;0.051336153814074240997;0.59374244573163470484;0.38362769577996930215;-0.48191678048328673301];
  LW2_1 = [0.16642123425060156849 -0.3064831333750084319 0.15716154983032748493 -0.90421052893540987405 -0.3784312224186271445 0.39166356788992157112 0.28590689775104433101 -0.1490638275644783628 0.0081005500168534159966 0.61905032760453437835 0.53763820626695080218 0.61604839501505703758 0.84883972839915711184 0.70511669471694804479 0.65224967088849250541 -0.42127681010543294171 -0.051478870145981056594 -0.14819457087341864066 0.56808900875238610428 0.82151792818516100603 0.13541985036074769 0.26657656787952926924 0.95205871338778380597 0.60082811850489714622 -0.82110254307343499836 0.90426846362988455574 0.55768622735560768877 -0.46376117236491465334 -0.48301135027817465595 -1.0853425887320007348 -0.0036209566853613009592 0.74711985675372438731 -0.44173123414349713123 0.48217216496993814401 0.40211554426074730406 -0.78493402691136959781 -0.20943093253671293819 0.30459937521971375274 1.148237820849248525 -0.79564234777410458577 0.24694932905363214948 0.54913535745023989154 -0.25894171520296899169 0.0064378674243503672403 0.86546670617520848889 -0.69173690796687536952 0.77538975752217997872 0.4559644728854890805;0.25641496152466602965 0.91582337463232199593 -0.89667885063753094421 0.73540313235106946621 0.059960619649223681482 0.48160900432330189247 0.91109243631458625146 -0.37479491187137831121 0.47519381219303963304 -1.0721687207653345375 0.76839931195652200202 -0.92562141943400744193 -0.94956757033015082303 0.2807970825261589809 -0.31878903283154907955 0.85527586919323361769 0.55807248765317807315 0.098218500173321524049 -0.11009127585215409961 0.84948980777871352377 1.0120565015426521427 0.40198724931583773579 0.28745840893728752397 0.038266089877940188957 -0.96252823527395214853 -1.1683357037236081766 1.1749558879796384581 -0.35597777930607671371 0.0091943913647532342359 -0.30721088179714156619 0.93383225906634603763 -0.53017419808481935917 0.41359654300915088543 0.77412665893282484042 -0.72839994542495278829 1.0451379724084151057 0.68162985186762015122 0.51032026025506305178 0.27010900216569189158 0.7151683357386495743 -0.91529245040506723718 -0.48087277680157930471 -0.82886272466818466942 -0.40418371792542734378 -0.15305640105009357677 1.0169601307640676602 -0.62595626442678520274 0.89534502570609941774;-0.68007843917462418304 0.41452718023824125515 1.0301439125029461241 -0.7697421585072440342 0.14727249477619791529 -0.52664813846556790544 -0.67228684732314436534 0.039563334849920465952 -0.59013342046957728559 0.91395119982360539801 -0.055408635508413822679 0.035488479633876440777 -0.055433323958879655857 -0.44372527977898784668 1.0173254118471291019 0.34679904361002872326 0.55892078539017953087 1.0905013964372616275 -0.13311310455302571842 0.47461927103540890727 -0.84540599854689657544 0.29601573233082811853 -0.65196050445140152352 -0.30969889463330813051 -0.71748252306857496219 -0.2009649211027890181 -0.048002015899342484473 0.48795456583428759023 0.75121322174292048945 -0.64736148001933091489 1.0014013365608116501 0.7513225691922038596 -0.58904699269341176393 -0.38571598960690356428 0.17128992597921732788 0.071542354084199288877 0.71177486021817981676 0.74824851943270820342 -0.16684307462820255341 -0.98995406776194139198 0.78890611608022931378 -0.1148738223938222669 -0.093118088856837158418 -0.60182636112238507842 -0.62887330507915129019 -0.15697977407901655966 -0.7005877613612742083 -0.19980614799289503347;-0.63953351186429718833 0.90459697701497232547 0.067772676351033928066 -0.7393598175683732121 0.88816177658732620159 0.28815781306162974174 -0.76174882253470688198 0.44189934859488616548 1.0338595864460438101 -0.41093431071107849872 0.38292031761164563308 0.13012376264214806088 0.58950681987626707414 -0.67447277544675299232 -0.41942930328382305172 0.66288548912073996799 -0.88070095121913438696 0.59076929421747526039 0.22617522838502182592 0.22131237042932075387 0.2651950562960155855 -0.98941029259705404186 0.16389935386857554245 -0.74403500334879102418 0.28481164256140389934 -0.13079422786508820842 0.23557021791246940401 0.1081143572218261073 -0.22230336931232785869 0.18650114513279902884 -0.32835787681819827988 0.91727577765489853867 0.12761157014914348284 0.40196445992206703002 -0.1238728180228765019 0.466891738739154738 0.34145115038798179441 0.45562707892602033466 -0.13484597667642780894 -0.045452085103383721432 0.2631763281238224117 0.49739786287297865774 -0.92840256478214666647 0.84440348679383048225 0.13252927599800262692 0.48378042906818069513 0.24394270092067982247 -0.41436255937424781859;-0.77682487913616993236 -0.17278653561274867623 -0.92525837093543294998 -0.65427801032710708462 0.71667260929858200846 -0.49419766940346848694 -0.61771816911007260131 -0.11117923361117414138 -0.97132866179124888184 0.0068097004750655477923 -0.82978013857613908133 -0.18808638158015730801 0.55986707544759184429 0.83552970879839816298 0.60088763947009093958 0.14902786942009627058 0.68451927778618737452 0.9193309169389115576 -0.14321014360369388463 -0.80843325272417343452 0.085760483801766082546 0.35792560642347015509 1.0699837973320911466 -0.32780571254984264273 -1.1652057549880510123 -0.73431504807274605717 -1.0688181592868506442 0.17568501958502200089 -0.22134457017055805816 0.04644790453773607608 -0.25730546308058749316 0.36684842644207721341 0.89694196515219093424 0.0014594700760292350292 -0.04442198896602026631 0.016963112027762430184 0.61656075053887704485 -0.86327608964647883916 -0.03486066119230270266 0.87795680160792965996 0.73789131268656038554 0.92476788685711708293 -0.3509120689109817004 -0.55164789791695290067 0.83625302451535654669 0.13183734495792232 -0.42596502404885200344 -0.1913137332163031834;-0.52622510053035809197 -0.73500230282614620325 0.10506897149144479864 0.035852632457416287737 -0.39266354019565974376 -0.29338471496711282516 0.82937991587441450836 0.090497137547010220171 0.78270086314360198809 -0.44602204534637662769 0.62143959549815219745 0.85180062385118249235 0.13168871734120435324 -0.30646322636117212523 -0.82519297325964191536 0.52828875726462876106 0.96253122554481718165 0.95344535524937457094 0.6287474076755698027 -1.0939490614930540424 0.94140325137818792189 -0.98367357253539122741 0.63961313778174488931 0.51997850400262957127 0.88188543237502348138 -1.0703328510928933337 -0.96550233354227565918 0.30477250941258327011 0.210589647115651174 0.87363296099719045529 0.62464466189845513355 -0.3780254804590961748 -0.96369825752201998537 0.99447417527825454631 -0.69779678594752136966 -0.82833693251828410808 -0.64781332116649659181 -0.7093053198302959883 -0.0077546912911366002591 0.88954478222326460735 0.47970978775330630484 -0.18763911341985056724 -0.25383169915152925533 0.095046129909686707937 -0.4124412245147233147 -0.5867232540844757871 -0.72738870449307579946 -0.025896631670878307585;-0.030795326087904157514 0.16148783252299767077 -0.16487743598867832251 -0.61976839692289520389 0.97286934108783051922 0.95651540108270172169 0.17724351135573093718 -0.8121611012098354232 -0.41792931370683500392 1.0221776068036474427 -0.075796947240978115867 0.3229232062559713734 -0.61540052285269264409 0.45291538840410905387 -0.17623315861155655626 0.77609521555191096631 0.050872467136548589484 -0.011067090679009895099 -0.23291947965872242254 0.1504935674920786226 -0.24501507268339087209 0.8456696937117277324 -0.68229582981954428611 -0.87383596122581752574 0.27777773304326897064 0.70575834390183012079 -0.80645730039864271799 0.56665365327476180379 -0.83050162042038833121 0.41084162835072035591 -0.66846811013715468075 -0.10240541369736023969 0.71285869820801106567 -0.42309092934137076947 -0.48705520571093746662 -0.74672859159711990618 0.95148804386940566413 0.54834226487905757264 0.53482077085515600245 0.40886030999366140826 0.38517196000137171596 -0.8455706021853733878 -0.038324005261521965071 -0.20018238438856847394 -0.026914479959427251021 0.91276311926882236492 0.338555538613859619 0.45255984471118670953;0.14338030322218286994 -0.42802614391228277491 0.60022741018464420559 0.94552416214486467716 0.10061325545149216176 -0.95192736829952107058 1.0908563559680579669 -0.58820562987745939054 0.73198168750135961247 0.54421948506611128593 0.42947543027558016115 -0.32325860681393214779 0.80258441995715579242 1.0467952058049687647 -0.88202208460190545392 0.24329148824262453177 1.0023641814143979811 1.0007589608910889556 0.18254843230970174695 1.1020482589035001109 1.0686613783104688125 0.952459487798216764 -0.78967767195020621696 -0.57324435033410003903 -0.22810096137900967572 -0.016523846819089582638 -0.3466327735878353411 0.27224984976922361746 0.00062563936826917718875 0.56491630450091512294 0.081887369828997760846 -0.71081495768890479159 0.59131117571643276865 0.83700514907977607848 -0.11534727044289132258 0.76226098769853400938 0.47027253756037840082 0.43330014484888401682 -0.45833548003191798559 0.83581943594833418842 -0.75917639040999962408 1.013307845174971078 0.81452877722572980534 -1.0061842070476600952 0.50157679827062351396 -0.12105544482908237036 -0.45987163167609618197 -0.15278892979236904925;0.28115519335636413034 -0.092090893714157628924 0.25752391192188311964 -0.10030790040734270663 -0.35045064957347049628 -1.0626748662359863928 0.60478543539823281794 -0.80104988849813119067 -0.49154617184979537692 -0.24841295262278351164 0.5154121912282116913 -0.63298402726319358269 0.30829158447503141049 -0.58206384928407317592 -0.67900290269417407085 -0.58250287251258414667 0.002306119752472449505 -0.99288838839378934509 -0.05455944977505370469 -0.65215656303284375017 -0.78938867285066682822 -0.30858005211484662578 0.38811986719780394717 0.95181525630380636738 -0.091491936272719814882 1.1220061095290199127 1.0330783690194536018 -0.70750431075677810977 0.38330126427401223221 0.078397701022520208114 -0.031708540718723178531 0.43574441527649004913 0.46769535865939992902 0.042882646059821616369 0.06578831419174516193 0.075031826557841907466 -0.7662010975195915341 -0.82988567315287420367 0.60661849970989289993 -0.41045732402468576572 0.5004235016534533953 -0.59987829316398266766 0.12189147259178234606 -0.15792195640534448242 0.26177674924183286231 0.72424226064714469775 0.89557962616139830114 -0.39950969419754134293;-1.0261635691378203639 0.68082304200068211042 -0.94302912974611075025 0.41204943127715981666 0.72944043549017378858 1.1555013302999261882 0.43995951998976440267 0.69195817570513507011 -0.90747732951045811944 0.58133520094739532524 0.39684626822478863417 0.65441075913780544226 0.3629888779851296321 0.15968224841633948952 0.25433789488536295842 -0.51607555997223986122 0.21484303115794325945 -0.66679457959389654143 -0.31318653066214879876 0.20047224356104167975 1.2027760268587228687 -0.63281087656681778153 0.55518892792688756543 0.84854112809325321631 0.89485557401781667952 -0.16074029059384367657 0.54002899426229888924 -0.022841837846644778842 -0.33212556648297492101 0.17373224041169241239 0.83494431213144504333 -1.0573431364840337743 0.13132271532504394274 -0.55207440088346926288 -0.77166463360271153604 -0.33581611392595517307 -0.76936562394771401685 -0.17739934533327136879 -0.0065803040121610797963 -1.2690668604178574341 -0.47110393950163842458 0.82099980642781023032 -0.4501807040730346765 -0.43687940435123728822 -1.1480925706325919577 -0.68087388588635966435 -0.5673395824622511352 -0.37315002021664123166];
  
  % Output 1
  y1_step1_xrows = 11;
  y1_step1_remove = 3;
  y1_step1_value = 0;
  y1_step1_keep = [1 2 4 5 6 7 8 9 10 11];
  
  % ===== SIMULATION ========
  
  % Dimensions
  Q = size(x1,2); % samples
  
  % Input 1
  xp1 = mapminmax_apply(x1,x1_step1_gain,x1_step1_xoffset,x1_step1_ymin);
  
  % Layer 1
  a1 = tansig_apply(repmat(b1,1,Q) + IW1_1*xp1);
  
  % Layer 2
  a2 = softmax_apply(repmat(b2,1,Q) + LW2_1*a1);
  
  % Output 1
  y1 = removeconstantrows_reverse(a2,y1_step1_keep,y1_step1_remove,y1_step1_value,y1_step1_xrows);
end

% ===== MODULE FUNCTIONS ========

% Map Minimum and Maximum Input Processing Function
function y = mapminmax_apply(x,settings_gain,settings_xoffset,settings_ymin)
  y = bsxfun(@minus,x,settings_xoffset);
  y = bsxfun(@times,y,settings_gain);
  y = bsxfun(@plus,y,settings_ymin);
end

% Competitive Soft Transfer Function
function a = softmax_apply(n)
  nmax = max(n,[],1);
  n = bsxfun(@minus,n,nmax);
  numer = exp(n);
  denom = sum(numer,1); 
  denom(denom == 0) = 1;
  a = bsxfun(@rdivide,numer,denom);
end

% Sigmoid Symmetric Transfer Function
function a = tansig_apply(n)
  a = 2 ./ (1 + exp(-2*n)) - 1;
end

% Remove Constants Output Reverse-Processing Function
function x = removeconstantrows_reverse(y,settings_keep,settings_remove,settings_value,settings_xrows)
  Q = size(y,2);
  x = zeros(settings_xrows,Q);
  x(settings_remove,:) = settings_value(:,ones(1,Q));
  x(settings_keep,:) = y;
end
