function [y1] = myNeuralNetworkFunction_sai_allcolors4(x1)
%MYNEURALNETWORKFUNCTION neural network simulation function.
%
% Generated by Neural Network Toolbox function genFunction, 01-Dec-2015 16:36:41.
% 
% [y1] = myNeuralNetworkFunction(x1) takes these arguments:
%   x = 64xQ matrix, input #1
% and returns:
%   y = 11xQ matrix, output #1
% where Q is the number of samples.

%#ok<*RPMT0>

  % ===== NEURAL NETWORK CONSTANTS =====
  
  % Input 1
  x1_step1_xoffset = [9.83272654116128e-06;2.55621218795009e-05;4.3309659142604e-05;1.16712344732692e-05;5.63163177176424e-06;1.2450823732265e-05;1.31189084133076e-05;2.40495398310045e-05;2.97239906635758e-05;2.7658487248948e-05;2.67317532966106e-05;2.45963894928191e-05;2.9017417562404e-05;1.9088027049233e-05;2.1478839032696e-05;8.70193170808251e-06;6.1612434593233e-06;1.11217019711591e-05;2.24635113269103e-05;1.13440813093538e-05;2.14707347387831e-05;1.7747038343534e-05;1.99461359910459e-05;3.98279632239607e-05;1.60841035081333e-05;1.02809613539682e-05;7.16222204132565e-06;2.76362330943126e-05;8.04982154701494e-06;1.67570472794596e-05;1.43789183557243e-05;4.69032881047239e-07;0.00442215936172826;0.00234930514124845;0.00128414722176131;0.00520802862577765;0.00392444156650946;0.00133357443898647;0.000554182339743798;0.000458377534121345;0.000636557327939047;0.000436095722689073;0.000151553212851822;0.000230556140182706;0.000175118747760167;0.00021221478484283;7.0104950191602e-05;0.000125223232661395;0.000144715128013976;8.51496079428836e-05;0.000145541400539643;3.7767074282475e-05;8.11363090835989e-05;8.67024847521331e-06;3.12973716019786e-05;6.48378027685565e-05;3.0811317903128e-05;2.6346533306329e-05;2.66953040667369e-05;7.6664600708483e-05;2.16518453929826e-05;2.38486309856211e-05;2.60636071874938e-05;3.43104951923067e-05];
  x1_step1_gain = [272.185550950247;210.528808465616;261.631417717682;370.15431927987;410.04315079162;352.555260391418;420.075646785194;365.278564887842;364.740487913394;495.7718173782;573.851493313636;758.464644858337;410.976234147163;432.785798366241;596.843696426577;515.731616632975;600.099299136512;517.888948954856;650.125881033227;662.451280769916;663.726303167554;626.42241841245;690.624470770868;694.795424659785;734.299138935532;568.268864429936;822.963425079373;913.160937892885;940.408714948218;648.433188546604;904.38557825497;500.564283957276;11.4607439125824;6.93002382118073;8.2838474385925;10.627033493364;12.2600929530715;9.11375213040748;13.1862933783317;13.0609843038943;22.4458804748329;15.3914891331393;24.2952535647401;29.4303476079643;24.0496334853961;50.8341527415086;53.2339527488692;79.8837876193355;82.4766601464408;117.232669392696;136.903356698242;92.3665489118597;141.895290682589;104.585949420557;92.5441969108739;94.642099568047;116.033077520556;150.488852756008;180.904114690947;230.057368961268;171.982775716226;266.591160199268;253.42950240579;339.133082810746];
  x1_step1_ymin = -1;
  
  % Layer 1
  b1 = [1.3438345323073523918;-1.4964449117709446302;-1.4040336857722941488;1.4161206402565342799;-1.1571667239702603247;1.2308183335169204931;1.2138660031342320966;1.0133249826427634943;-0.98022719115381418131;0.86679392333456650732;0.89017067885121348159;0.70870447492143973101;-0.52889924652915742964;0.57082773722595347987;0.4804951378935537476;0.51245017827239669472;0.54912969642079256793;0.38455611992492622075;0.4865131620753777586;-0.4262714826916236821;-0.36614056248741444488;-0.20600024808975372914;-0.1046422188909463119;-0.15804610214453035377;-0.026193738879954117649;0.27720771134388172419;-0.090955962260910266926;-0.30044649495666964079;0.38716960296042607359;-0.29834885685042555892;-0.31283078526152907628;-0.37072637351484488688;-0.48972966575052806482;-0.56269700321225235573;-0.76701312864414838977;0.76642108614769921537;0.87411491650950423615;-0.97707700218965753969;0.90176651020361753286;0.9614815427682291693;-0.84540986440524756862;-0.9514182060974611943;1.1625250134237585797;1.2323809251771427054;-1.2762512516041959465;1.1533099985140051746;-1.5082191255682495523;-1.4808452323349221569];
  IW1_1 = [0.048808170659147998016 0.056087493095965751388 0.058732637666393645859 -0.41158066106467416922 -0.2533413470630158093 -0.18091471823474400415 -0.24038464739888418253 -0.04747150685772603268 -0.19381067543011665233 0.10789721937970409016 0.064189013777489936641 -0.10396951031169679447 0.030830706725046754663 0.092137229623892619168 -0.26747484378825853168 -0.18407695799329837349 0.23993539524731111179 0.033028599360019637865 -0.020276438850817271597 -0.31065345732318433436 0.041739673149316675049 -0.095326296566242321728 0.21844882363295869965 -0.30357213274859606855 -0.20578060015710925024 -0.075526424620799378906 -0.049732053067695507209 0.12256071757640570052 0.19281789656777326147 0.22770780125647771541 0.33303828601538681964 0.35654213675160012498 0.28379678011796510839 -0.076180845837391431008 0.18263652570318877899 0.17197937477688138297 -0.30088801245962848441 0.0085288686018312048764 0.028511338557448098752 0.080326355891467360326 -0.38110179186966502973 -0.10766666129929068629 0.028818499639070238594 -0.022045352984970664756 -0.11639394943414269057 0.037893534045985555192 0.26428277970402430652 0.069017159750490747472 0.21460338797558034529 -0.22900712196123151898 0.068903442421005253737 0.3837870324141917644 -0.2089131388151194979 -0.066157379845592390044 0.20826315066461012493 -0.079881473723819457211 0.40250295551199793964 -0.073688799485577480275 -0.21530894278940512776 -0.12407806373841011316 0.27152213612463749204 -0.15299479664294104997 0.055283248286761399459 -0.10549721714402723882;0.072293991551445793697 0.23179280039430111282 0.30172315901839158458 0.20747874174441996442 -0.26048209544245792824 0.050982561815293828134 0.041874328305889142732 -0.068759203596948037518 0.1263977811295781406 0.20797196694561084773 -0.095422088562444898341 -0.016380402356743782588 -0.056902073512463464955 -0.017693605253799430527 0.26881223401896747749 0.27562586243669312536 -0.31111335224950270595 -0.059898109622048653633 0.20254943210394221742 0.2209165101420890176 -0.043101121064280052686 -0.22043381008601659055 0.30249194336966600538 -0.084536732754502588727 0.29549736739208992686 0.35969798738432556817 0.22451640301873285188 -0.058385646914124220141 -0.14948955186387935523 -0.15882720382525494784 0.15524009213782372085 0.22534499630917614876 0.020136868327908355458 -0.10963265771148550387 -0.035231536972737557967 0.16218096246390090176 -0.24589722550800668932 0.25680028613513317115 0.28961442322162561647 -0.1729296550680614053 0.24632798471787012429 0.12945440012280637343 0.047635820694872939296 -0.01415224224576452916 0.25265354605024753498 -0.15196609868857793857 0.12079692071429945499 0.025676959603803308635 -0.092985951032853828013 -0.038486891777722097296 -0.090967322038962419861 0.24931441424545672247 0.017647668577404507922 -0.29672276477992259869 -0.10621582531599897681 -0.23369693665367616275 0.021257794845721676713 0.14347052765309659117 -0.16414325311692237741 -0.25542050132029109344 -0.25634870533734255282 0.13946897736281757552 -0.094466014043739693351 -0.28946049732444895097;0.25742631335502175194 0.12321586804261835946 -0.24159857634914058688 -0.15625875948401515836 -0.27466725306212524949 -0.21720395895334976277 -0.04101663362634148241 -0.23375514864027707729 0.073285340401871471028 -0.17017465611529491998 -0.15536784810932471879 -0.13545874128705298611 -0.12541119595200433956 0.10614319879061970275 -0.19453463124771874782 -0.36992963624896479935 0.00044281999494718367241 -0.33292183170964961825 -0.080070748806081268323 -0.26759818491996995027 -0.44548796503886367582 0.13989710484485623487 0.19520598308740674809 0.019793425909594104806 -0.19320883720915305037 0.12863279077362613223 0.067657471166168908772 0.039454257718831584056 -0.029563268823839340682 0.036381631941255855589 -0.012496096830635204655 0.23075170011791609759 -0.043468135949112814143 -0.33634514520471781029 -0.017227702434884813176 -1.1450689890638920954 0.79708052133687667951 -0.33579656731566787098 -0.069948506275987296088 0.4320181604107520279 0.28427906615052223049 -0.1391652170933387056 0.16343150844098391916 -0.023995591933951253283 0.063230645129498552759 -0.2458746041244748437 -0.14655269725076841558 -0.21941319907138484568 -0.27986295572232866569 -0.22186237026352093049 0.14512443857015286386 0.086053192963372063251 -0.023798572753334204521 0.37203016344276251814 0.025159689583586161005 0.35925291459825481333 0.46609948752063123933 0.27227098717453324106 -0.43398589646240320894 -0.3323205802427602884 0.46286808561454939603 -0.17002877910287994556 -0.13380680548120998941 -0.12821720077461198906;-0.19805671905278440792 0.030290864874729438866 0.032498037494129675129 0.30181862247938140431 -0.32889047158199558041 0.37648930363276145172 -0.38622738502445397302 0.51542857441226930248 0.068609036831561220904 0.018258498731839531426 0.32196292562330269815 0.086414780968760332436 -0.069007129519907492443 0.308142068510222078 0.53136653115398624347 0.23777740490560816955 0.11795524342937464823 -0.21207978725892231986 0.077556281438692059593 0.060557112476048870209 0.050232315784677558645 -0.004872339678640478719 -0.14413040108047942001 0.16141859756920057256 0.15615906542541838076 0.2340121676213649804 0.092768860602305464047 0.2451590431521424307 0.20623802643304450788 0.21870591740232031563 -0.19434787077815673939 -0.51425011840950529685 0.5170168378808145393 0.56431516226523525948 -0.62687841618732453863 0.33892194287706794986 -0.29454326253582496786 0.77789121922819559618 0.082424205840362196884 -0.35387701485772904419 -0.33427071009592429496 0.37325048991152343092 -0.43413341360356316745 -0.35399583437764875482 0.42804581457565193947 0.24981626929141148574 -0.057508075751708347123 0.21957895627952986328 -0.076219962105966307386 -0.1483364815797755254 -0.25165030523755566039 0.10679681927086133453 0.074930132355189721372 -0.061130483640135048484 0.17283499782212946583 -0.25230507527001594381 -0.22845420701214730341 -0.048471189155258165293 -0.15662168788452296431 -0.1289389379518627865 -0.2060989557793500293 0.073650759118791236935 0.28619047145535536636 0.33699612262406469787;0.16621528559541381975 -0.056419477802217135598 -0.34041676023687955643 0.18907969262579160663 0.17767166908470455322 0.18734323962118712426 0.3240933907003210046 -0.0014899504189957715403 -0.23747374659155481846 -0.046507428757912666617 -0.3326899047038909818 -0.047354471560418137654 -0.04491122808426745161 -0.12402795841380499786 0.0023400595878490452854 -0.052358400947846335527 0.092566044111584797061 -0.24064868903549854751 -0.25225237520561888394 0.042665692818030287459 0.0087493202362900791835 -0.048568109345285430389 0.22801179640570470863 0.44473973929273913352 -0.00069906509497591885587 0.021316662922825392601 0.45838378417109215679 -0.0095690463193183559337 -0.010631575382104338501 0.019830484402862294524 -0.3921151564082937524 0.081733623069457680965 -0.83203463561013824012 1.6250906248036651736 -0.094364341185124517297 -0.057773096485734865002 1.0977545284725587216 -0.65380560940065646225 -0.25785785670807898073 0.20478080381480875949 -0.36444414039985406628 -0.57049662594765404577 -0.65799491210258409524 0.34406226027175024207 -0.42899169487040750282 0.012819139406661806888 -0.23153813578200774237 0.079115369834635601576 0.35964613399685030348 -0.015595814376494878187 0.34265822397135703437 0.3516635080245694156 0.10544220753223354503 -0.012582001958125657581 -0.30588632750530536653 -0.062147222894645255675 -0.050087081757708908081 0.35217377273165961782 -0.092842706679194864083 -0.11906093460862772482 0.071107863641575438929 0.27688376289034694056 0.11494122316046236076 -0.45895034181787675021;-0.06897375590289553382 0.25761229565464377478 -0.26538760088439428131 0.26638035099510304349 -0.049009671366584676988 0.19230981641335270771 -0.30634016306730799117 -0.36534184220256749054 -0.14260777019309325842 -0.15034347054748875561 0.18351187699248058816 0.15486807769234350873 -0.36912706139021755902 0.13476417713944935373 0.12775542679735843454 0.022978684383765567156 0.24503770579406522478 0.078038829309352089614 0.17314644407222654077 -0.21819478446116755133 -0.18545456060886691962 0.14919195035420212969 0.12409716066223709652 0.13573291390818240099 0.12490392160669658295 -0.31331633241707734783 0.006252912317459861577 -0.052964723375361372204 -0.2607762078592316124 0.18725748640009320933 0.077947079410699462998 0.17444346222569775962 -0.20825533318009784023 0.059502101601607501613 0.019860315089670798477 0.18651499487384326503 0.18144846986242210707 -0.15859653012349317347 0.13583878628452533688 0.22352463272203623723 -0.15546892411203819262 0.045638776373149739229 -0.16007665626479331 0.035355530362623004137 -0.088650428402643643988 0.042239433065679433954 -0.059900259939080373328 0.1248236102581426199 0.092086468011466970918 -0.23541888966587160015 0.04953268408655220334 0.040250236029315301922 0.21498334116167250318 -0.038086769919483537405 -0.19247914344926184138 0.029770445047824025536 -0.33625037507330757247 -0.1406741002224443926 -0.26963947357568335272 -0.27233936673374548043 -0.32211053058357119738 -0.19836915393151377529 -0.08397613958154646896 0.27671475306152187867;-0.29002038964156640066 -0.095520614996192076962 -0.086386372411844811192 0.14602030905382054615 -0.23704640629849380029 -0.06346747690764449612 -0.19016259635796348149 0.10766861270176934784 -0.058070520996499293276 -0.22927588628324568898 -0.2053453722849648555 0.015592066725228427571 -0.094575910896368409198 0.011147344148050616908 -0.2522208807982246892 -0.14351846876240526019 0.043073262814149249067 0.015011972045088342945 -0.12382138197942207936 0.14669886534836781844 -0.16016175778059429935 -0.0085421018842459298104 -0.012219126172032745981 0.18721811856033135357 -0.26972365391650920952 -0.0069648678441745458245 -0.20472621954747069473 -0.073627957766227214442 -0.29037274110551547501 -0.15754356967289037672 0.24153713974124846331 -0.3705271498917830364 0.052789294578461390395 0.033502307106681269988 0.11791914775461832809 0.1814568348730896119 0.054673820639729718562 0.29024278181296198076 -0.013579361781287125135 -0.21435437754309985547 -0.23793376128962814842 -0.31541989949210746946 -0.14392310349380382783 -0.1489253636241821277 0.043897156590927771669 0.24412205694183206073 0.11702860930196756772 -0.28763599392828104184 -0.20352782832841062599 0.048882325757201555705 0.14602323899390168283 0.036894432161412908655 -0.31742734440769732052 0.098078119407483899117 0.18917294507614546006 0.20622685885282548979 0.2263709388588582283 -0.15423557322274261683 0.27608605397419033745 -0.39804007930745766153 0.16382885620753342981 -0.082054628367899049013 -0.15555099843628167333 -0.0077261954146074516073;-0.17205112103847214344 -0.20011365568766414924 -0.19917343465019932136 0.043754706215255761981 -0.11106724060630684958 0.1740059633872514111 0.32137877497011591021 0.060290476709048426707 -0.23891279097665135689 -0.093037855315072762186 -0.32280921877645091245 -0.40368647044225053344 -0.0026249974970760357219 0.20232637078145848664 0.11126696932240694171 -0.060903513251305482767 -0.11289074813625828153 -0.31403788484663180958 -0.25596103943880321729 -0.20258763183674813324 -0.25506118317486442537 -0.096123682955596034816 0.16556304875375335572 0.17477538418673388421 -0.023948129777186525496 0.25554332836834320331 -0.09769167183005258992 0.17834385483897877145 -0.1324961144088760423 0.24943139940095465645 0.14046397812037883512 -0.038728697158880151519 0.082985243370524569562 0.14317168707358068902 -0.088334688247883999535 0.075200935034250293576 0.13549181010499367073 -0.032878583751814211 -0.25911364334850323088 -0.053642883490520314183 0.086123170514402130893 -0.31357692418858579275 -0.32987050282620516972 -0.22887071659485275221 0.025135151056616237414 -0.034695572958764749061 0.23734527738578062306 0.20585946215101574852 -0.18695878006304780805 0.12182869665468602782 0.22796359123699358462 -0.25196038615674648531 0.19875486364086142332 -0.10043403070310677472 -0.079443873202021966784 0.17214106815813659535 0.0036621371934240139895 0.20099200288784807578 -0.22226381491310567839 -0.30142255380704080503 0.29572962716876410871 -0.062856056141127797376 -0.25917081455482854357 0.12314523408947825045;0.031916158005607472847 0.2665808349371903696 0.047927276373830512979 0.34558982592336406903 0.28852374781148099059 0.28688262854689811077 0.056937253698466139262 -0.039556779146067783115 0.16907047094023436307 -0.10891134738812985328 -0.27446809404751670858 0.0020159498975312749487 0.074976267148829087161 0.25750269903083883305 -0.021791003593450951337 0.18288393043244663416 0.30166449970846709316 -0.22733902501648139971 0.22932575068509625238 -0.20731383141908485412 -0.024461904936325083032 0.2611799931977393241 -0.066572211175285694873 0.22596262052868376635 0.33103194259236939923 -0.0028194353798825580459 -0.17592789018560059389 0.10202193813077405082 0.26068801338224023567 0.0053110104116443858022 0.1495987237479405596 -0.15268771358412175365 0.13122403194463302945 -0.1827459912064268166 -0.20768944240595463291 0.14158578919046060918 0.23138863654692354288 0.33744030643958144999 0.09347834555261205769 -0.076375402322202634586 -0.26612348956848769221 -0.18611465540749530523 0.14951686221357007867 -0.12300685720526950695 0.0065205448790821348565 -0.3193661407372164196 0.085928642519989009707 -0.17408568964228682274 0.12868832438692393016 -0.20770075446080416004 0.31018964283196454046 0.032243034661885786041 0.010175315366150388535 -0.19284267798557544471 0.01979777913086695762 -0.060160552171695490242 -0.12829854773681517721 0.26330457287722414117 -0.21829863054850276449 0.18490040058835291448 0.17317931223693963649 -0.085257079702725405146 -0.13833078675239091071 0.044745230756595977262;-0.25704139249458585192 0.021934781495515032201 -0.15566068011792841275 -0.01304977820826902675 -0.0074621227574769846344 -0.082570370091610750807 -0.017074608405474516609 -0.062311192947271887288 -0.25547502666746041422 -0.1803287842498484117 -0.32189563249347286078 -0.10577173841323893322 -0.36004550028531634442 -0.11605924065329104033 -0.32861497534860723002 0.34727723828230977476 0.20828063418755132785 -0.30062498491979122717 0.12328836311707318252 0.07013198029687513213 -0.13543582927964475937 -0.324938364630026566 0.05161376337493334826 -0.16349970964020837938 0.14399843488180730233 -0.11484919740568981517 0.27509563085608584876 -0.34397558696551988611 0.096533534026057798982 -0.24445534848926633864 -0.27267142879414646428 -0.037582109095997358328 0.20782948988961680303 -0.15434905095404855002 -0.0048833952315306371206 -0.025115182944735449377 -0.046326619624437216649 -0.0908689204231439146 0.12726050223586571342 -0.071361161696092717532 -0.075750614032454477442 -0.069725292520819187603 -0.36469149992038840669 -0.29494329550245629301 0.046111080867289884477 -0.026145280780031712742 0.2833688866548412788 0.018397326649301808804 -0.0019135579405232657976 0.28373534265717098579 0.20942899124950045686 0.062538770924118178285 -0.081139439701487542367 0.14034515418254336905 0.098827908647972639855 0.032579808835237956954 0.25184105853479360482 0.24586245523025704318 0.15169959785242431716 0.10450812810057252822 0.21228309878540951861 -0.25422091067041846513 0.24263262832840440386 -0.3983588500208013472;-0.21345669263624580947 0.20169509802840890345 0.1069679575701164842 -0.14491922437262358403 0.0685523463131237909 -0.31761307938932403783 0.19806092439898573265 -0.17961802961414374824 0.094562311166121723605 0.040366686641773820432 0.29419817787150881472 0.029348990030754699282 -0.046737094162063806679 0.26210776534844848484 0.19368983848123424996 0.17094540612559747106 -0.12498308518869034878 0.12490612140674857422 0.022256058979386626057 0.21278245649613036772 -0.38288645640346791188 -0.0020958890549780027045 -0.14462955272616359603 0.16724086210499530814 -0.23194835471689248529 -0.27298784369653217308 -0.12068452703945944937 -0.15823242569002721192 0.075055613037095805784 -0.25985243326431622934 -0.090727942500782296498 -0.037074009187706369328 1.158211575903867363 -1.0838401244405524437 -0.38748010124375958929 0.1043309440438616037 0.64683808194079361886 -0.30804623639881556496 0.36518241507896642695 -0.11931048223650471407 -0.0056130374635615706141 -0.22332863630292715262 -0.020098714487864210998 -0.34120347955844981813 0.12680105420518075765 -0.23797940380651594339 0.023728971841266925658 0.33700356060735836561 0.35882042215004250618 -0.23632565668812413606 -0.05962600109252737951 0.10898105613381084411 0.28957290170491917225 0.082664822556382355767 0.077766962103554326813 -0.22723107429906816424 0.03475898319720004126 -0.035074871043848224184 0.090798792903554331746 -0.32037452282931927483 -0.25829436838878477856 0.20237143946992106058 0.20973712443597763988 -0.01469396429546888927;-0.044585515644499126853 0.014165082078525195741 0.093035703095220467773 -0.087286053016225162438 0.27951853386567676596 -0.049630440497165001501 -0.038837301712548302768 -0.014084894703973076593 -0.33926607171300476873 0.092107497868331930646 0.18897218470470619756 -0.079145340397767910412 -0.2245277997887115129 -0.39064910632308380567 -0.28542864004551721235 -0.16758991695853303616 0.039680154678398374402 -0.085069738942439188101 0.39589139534613621008 0.13329886498732060329 -0.053997239765974321124 0.0036235303742643259345 -0.0012216363353625679135 0.11395634426141360018 -0.47712899096099431473 -0.19733104577670071422 -0.013886323786354983628 -0.45029031695943239066 -0.13372541963070613824 0.058395915305928927652 0.055809600081890189949 0.44185877673776963181 0.40604154172593354133 -0.059328943490054644738 0.38940384800500421614 -0.3682443168314783466 0.066377212735203861005 0.26689084322262618398 0.23408937771382826165 -0.05809045097603479646 0.22703185096761410722 -0.24389062615557965952 0.57298065455831681536 0.3326102913151009477 0.44669816392881184219 -0.053513501440190645864 0.36381025481810452815 0.31556969383613198143 -0.30661802978269453446 -0.61040814162790446584 -0.0027243894899431119264 -0.47609837885846806316 0.18866297947149263114 0.33408043319239194568 -0.0082543141942456720733 0.097104240836390853797 0.10891444894588767078 0.36504713572086383566 -0.32925748225739603914 0.055397423664755605921 0.13598684156636375864 -0.39731633838299068584 0.38012737656631279126 0.12289416296573875409;-0.10354784759995937227 -0.21044841537305514212 -0.29526584939146571784 -0.26665505962343311053 -0.10194856869340142291 -0.11104687191389565892 0.054917013516120875838 -0.28889203044708416934 0.2955718788800418273 -0.19561261238073776592 -0.18776741148259301628 -0.048081005229854770211 0.18132298147075370798 -0.10077752831245646858 0.1124667918430034691 0.13560386691526102321 0.23235414820488406451 0.17760333819324233828 -0.01217543987971769423 -0.14061840471968964361 -0.06516531648892705253 -0.0053346849899779278867 -0.50692318169480388157 -0.43917716520907951194 -0.014884245424251657183 0.27720178103622333809 -0.16759531363871094101 -0.097621960799015458643 0.034356917618433478745 0.25227525379419202256 -0.14622773704887881419 -0.55321975106106413556 1.2148733861289793268 -0.089120981611895633279 0.11908972630495560929 0.054194661088796232395 0.5410738151790571715 0.2684824604955231564 0.32363931061094264319 -0.070537204690839752641 0.23257928814348197144 0.4850327795175503609 -0.094732497388864536636 -0.071514835295558243367 0.0074082751600714948775 0.61524786630490857497 -0.017158520629083531817 0.28551529798061220378 0.084115716375566168539 0.023721321007041617362 0.14846712449949348023 -0.01499559574181009991 0.40450367543880655363 0.038788961389833120919 -0.21900787181641268031 -0.45580279421075159396 -0.048779048848413150696 0.12783364718909204227 0.0084437355819211388358 -0.070600996719767369902 -0.31695751002264582752 -0.024101918703693981511 -0.42643479533927974856 0.057004805706363730067;-0.012523527387156754148 -0.32406236677303690286 -0.22571569550665351866 -0.19143114977873612603 0.12477551858947727448 0.26787892584255540429 0.18408676806232149303 0.39830350209896048241 0.31704997976422449879 0.10338655457571077623 -0.015923060682840238511 -0.12122552226725580304 0.12658774823715626678 0.17032694437403442245 0.050886140367878918145 0.41692171549347101234 0.1356829390682806058 -0.040791255938256089364 0.27595082122234820821 0.0051125525713235000363 0.45705254012508284012 0.14514459836247425861 -0.10931981419711364611 -0.25515069365575071547 0.11016129528513424196 0.22792786193506714421 0.19650377022307075059 -0.047963178839965675548 0.1841492245726888688 0.30195915153370089801 0.094867536872297347772 0.064524761685308407166 -0.50791515528789943357 0.21819213909523621497 1.6183084556780429342 -0.66745318689947508162 -0.55230301883819410413 -0.055632302130178785948 -0.0070897887368511014819 -0.81461091801029850146 -0.44502179470136915551 0.061679752286207284451 -0.21140315253704558551 -1.0690198016495024991 -0.28169577887362784452 -0.18264270461043952132 0.35168497190621378357 0.072779350625465435987 -0.28679408072923101569 0.62781008174127717059 -0.20251068682932013565 0.19293010819263931022 0.24208944496598366891 -0.11216872234560869293 0.23646907879552986342 -0.20971166312542469101 -0.3353039451601305676 -0.26843349566125468408 0.36869330665352773035 -0.14079010425670929196 -0.25546581928405331929 0.0041351037472306551718 0.1620678837639491221 0.19737126486081080223;0.069990591044087668848 0.00017786673546514759903 -0.30592382215129548806 -0.064411798468211184376 0.083913555157856714595 -0.20000867916390438483 -0.17501323942256247213 -0.43123978513383670608 -0.32299158344320982872 -0.10287610167729493993 0.22442075939814667973 0.33981577088504022477 -0.062619696793345364094 -0.24694850635701889874 0.10962167844751261048 0.26413176037613450564 -0.093328534830238729647 -0.013974928866376561815 -0.15328858744240864143 -0.26773685966816718196 -0.10243040196158320621 -0.21837084493471506375 0.053968663081470545639 0.29785881784019152541 -0.073246649214779011028 0.019600453972737665043 0.0057578535843405909481 0.17449775240599246784 -0.26144835541377875465 0.082482029833514922124 0.25799666858983655304 0.15375859741558975391 -0.18044286666602094016 -0.040158434497698014543 -0.031132778133441212781 -1.4120837568986503996 -0.10943955421154302754 0.3087825852162569551 -0.093217481282867567516 0.041649595292031375837 0.267983291684905367 0.19510321951267037277 -0.30071249555145196375 0.11655043154308730724 -0.010725664761060635724 -0.37584533678773340837 -0.34549290617394767811 0.074052721662547837944 0.14561321951387609652 0.30413991306640425494 0.48059866027528458376 0.572393593585601268 0.42487146627158772771 0.045568826770622579414 0.18790010669531323484 0.23283715041361954801 -0.13047200613078283049 -0.18583373229817801153 0.09324449378515445308 0.3019150978576733424 -0.44812315402479879767 0.1629381796318275788 -0.35104888557247670988 -0.15117402090302400897;-0.11193979001575753152 0.091274368833024477343 -0.08765988537084719312 0.49472951154691535702 0.030732253204710860417 -0.066214196349992288093 -0.20707649237617514748 -0.29598730735119666013 0.11503283133139442784 0.10300929052974325262 -0.11084563461099336545 0.47375261982493521717 0.28909576738492354098 0.18297579057411403336 9.4668049962547996812e-05 0.30722284288632140115 0.34000585387607445975 -0.2564719049758121816 0.31782802356401673727 -0.013619490756962100361 0.12239300469459130083 0.3626891635172908579 -0.03887023949003182155 -0.025580056726747898294 0.030746317296351074327 0.25586011391022317474 0.26139111716317420253 0.20696365692232407407 0.25852676873764635079 0.42094825699876620151 0.27729958891919304076 0.1456730142063929756 0.23694892850638840653 -0.88225978240910385431 -1.3820259314353553481 0.02773042106728263595 0.0051854431988919980068 -0.1356766260645211053 -0.42106645010860543898 -0.08553902676783924075 -0.36565646911121574281 -0.13019306847580577879 -0.078832924690395017597 -0.28372405233757191922 0.20088337843662804061 -0.059961594330692688515 0.30993850416555046579 -0.11660300808545202844 -0.17232297881819103047 -0.12332176401668652754 -0.17303701758926876009 -0.11970967791266165503 -0.28176702282386723031 -0.17101001617960154277 0.014692911228626977932 0.23715022073873637254 -0.14848335096249931642 -0.14306329146964869015 -0.30627593470070052506 -0.26324357980568230397 -0.084140048057785923885 -0.11933702531280282466 -0.040633545877104396138 0.21936547794587898941;-0.44401689198133736936 -0.17788363012727342882 -0.040127527314977068373 -0.17620638288412651673 0.16911375023846889065 0.0065219734693687178573 0.070700179690842565594 -0.007542197430543857127 -0.19399240739914566656 0.12163917738905753729 -0.38538448363635974259 -0.17488790024830541681 0.038665295476670004382 -0.11958518695925178521 -0.3676644587609255721 -0.20774494505288765289 0.17939569958851378506 0.0024787122918174010755 -0.0088752989775315715287 -0.26161854214210950031 -0.082121357170977377082 0.28165904420714943379 -0.36525314410753090266 0.072413072199313949229 -0.15493188166201107836 0.025805917271730316465 0.06060361813866763786 0.1517098864319398055 -0.028919706713648771906 -0.094208222970493513126 -0.10052270770791707499 -0.1193131665148538384 0.11798446138381052384 0.15582464028779016707 -0.018504790453225755664 0.00038482734294798849606 0.11200140830871427311 0.29379325915602805264 0.050395740380631437461 -0.19868432363379501249 0.036363188959729113303 -0.14058536215993841512 -0.49519606715458963642 -0.088741806017123031625 -0.041307100154935272318 0.19141457841444056709 -0.037765485750604115001 0.22909000586153049905 0.11477397011453897846 -0.14013997628594207501 0.043917637944067916544 -0.0021750646328754499534 -0.10045076616996519159 -0.49248340392155637302 -0.019672691283312063876 0.15411089230716115694 0.021865222833740424052 0.13781742177691089224 -0.14552603773183711566 -0.39304501192756058359 -0.24693350064428723489 0.3644032076207569526 0.062005150722053509194 -0.24898000094604821886;-0.096183871612410140606 0.16509315884754793835 0.070293978709306037533 -0.19985211667124133661 0.043471295765139812695 -0.31712699820666490069 -0.30318184941708342661 0.048898415454051595563 0.13447247993054281534 0.037796144989053752361 -0.096109451253382410796 -0.35468095485290968005 0.22573689515389352978 0.031400511656187929388 -0.020283658680397588514 -0.19261255207876867845 -0.11855907710222890472 -0.10547387110245838582 0.076284463976650312977 0.22720997089188971207 0.22141202514966987214 -0.053816048885890324649 0.18906951575789085473 -0.18812441214999578443 0.25631410013812583326 0.14848623295055227156 -0.31127717632935547609 -0.2548178225712346423 -0.20196616221829555293 -0.23343330670522877135 0.10629864056925016069 -0.11020380127295842376 0.20048621807299984998 0.3097258707771722297 -0.047235568808532343854 -0.081324842030507660251 0.27610697995981348107 -0.16606685338571586241 0.17723868579584939331 -0.093016723337888421175 -0.19204437028560439327 -0.19655785408668371983 0.097039101949636094591 -0.30720646685846669799 0.24254106594855059931 0.11112692911125755801 -0.048061326007897121892 0.05124299070449851029 -0.16572048551218249157 -0.37424094988486217295 -0.18511963916607665492 0.18988091210307206369 0.16328042630418362902 0.019012241413519939681 0.27510288848629610436 -0.15151583458650688674 0.22335699152000068612 -0.29084195327152817523 -0.20989361228093711409 -0.2709966387235181462 -0.218922425937877696 0.037711147448899348666 0.32596119502836540249 -0.21607538673062903767;-0.25303709587990436125 -0.13446977178112509699 -0.25923833599818491003 0.013912717741168265442 0.11737201427800691977 -0.22948247719660103128 -0.25465428107348031528 0.19786111212070423004 0.050073072536810467326 -0.069743733886630188135 0.16946391918443709512 0.27805292041976198414 0.18092105278075204522 0.15587476921185708378 -0.20055341100870194282 0.16558127668594199711 0.25279066060738281108 0.071195295476191619577 0.31188034777304135536 0.27124861739711264574 0.11141785867671805121 0.024673278922877298763 0.097334195688494731802 0.25741777472285481965 0.16969241808880899947 0.12492226111082950502 -0.08547618371831573747 0.079154472800277889122 0.20480391480877088717 -0.1176482874797095679 0.10593302251387445856 0.070954027206197284317 -0.10472419224715467934 0.23857750443558456421 0.11018123127248501125 0.25965340996035302101 0.094684052502237367466 0.24327526021434861536 0.16793408493368747192 0.19894958907957185912 -0.0027536743815215185965 0.46539505927884311509 -0.12659240963680146175 0.29050352681288693635 0.12444261466507243463 0.38437430648041459591 0.1656242446962577497 -0.360893737677257187 -0.091798934604300538864 0.15854500443888358552 -0.049818796601589443451 -0.24082864809264384331 -0.081766756698679804449 -0.32861418124149838205 -0.095279490477675810034 -0.31420885497846751111 0.10885362898921428776 -0.24612076063353344191 0.19326407760666328151 -0.26407971903348526066 -0.15743764117475514408 0.060422158878856511988 0.18686273482687576486 -0.10424135509264437216;0.23817769178254299955 0.18541072718894643923 -0.22905118301836491224 -0.26087951883751481219 -0.091828917922599867518 0.1087898138387112662 -0.085480655826469700842 -0.22088998143770274818 0.12203955364085598834 -0.024152264035460644515 0.098746305874264431179 -0.17125229134627786842 -0.25421883489131258393 -0.066948093981764184024 0.33337105171832082107 -0.098115008889897672995 0.29945975382556921929 -0.38024014663202637676 0.14190034294472217424 0.16686624832916402417 0.011873160416197726247 -0.24514514241769480574 -0.16319902109614833896 -0.17856728095527227285 -0.04736563106072885776 0.066218158930215112457 0.14953727470816230438 0.29686001523114013967 -0.19569078078705254287 -0.23902375186218866032 -0.23530112552648593804 0.22604641956673326986 0.15511911680524737012 -0.049252621237321644876 -0.13072079808338055162 -0.28268729236402978522 -0.19938181781792774228 0.26898465384583891691 0.17762112846010236211 -0.248061162328288759 -0.3234345878331213453 -0.1389785854003299792 0.33054425859074021421 -0.048471702274551206613 -0.34451093202809329741 -0.15403439418894981916 -0.20025590437991999671 -0.0041579780875556707209 -0.096119578990351034475 -0.23574131856848468125 -0.30653106042451355728 0.018167970809320543174 -0.088599561692873612939 -0.11948963038855268948 0.17513521669452891683 0.24410742272050348078 -0.22823723241259044614 0.124967679458657277 0.075282380979730098569 -0.22762375677474092073 0.03892865936085884021 -0.41275725599603751981 0.1919449986462800628 -0.046492428212106459706;0.12442891968042001094 0.1728059258260371267 -0.12200973034078166357 -0.10803730815712631053 0.08486105517767149331 -0.29553878368866010051 0.018303782231557850363 0.10544999372173775865 0.077245332863642407473 -0.40617726171155521531 -0.18377008042822456924 0.0076475906141196085819 -0.2477710881176749258 0.082139677415162246077 -0.012120876616522741759 0.064614282057929114944 0.21251235718673591735 0.046846789821254460062 0.17816701244099211743 -0.050206308293295025258 0.09717494515304210545 0.24002404371915980752 0.32740052958257287452 -0.23610538509681117114 0.1348512333010849773 0.15265328697836863525 0.11588905280053073132 -0.34637743582784413787 -0.28977904280863481246 0.14024467588169181598 -0.25587688257939128489 0.30486064782458355271 -0.026785374759326713301 -0.11111652671598924724 0.85987813183927430671 0.00041404246741347065786 -0.48872044441527218162 -0.2802343115461898293 -0.2433789801110468054 0.39267225502076574806 0.056998843790826127231 0.16702032367692432047 0.15026852005422833281 0.023242484758074947321 -0.18644380689269288154 -0.17672305345337993576 -0.32536645266811131672 0.1748284853317916554 -0.054656360740048703928 0.37578590571914771701 0.045883340917450644858 -0.18456950709517264131 -0.15484019591390210668 -0.15301730222953693894 -0.10909547843780892373 0.36071104204451831521 -0.12668693785623505454 0.12277235461588525967 -0.24368033322178253575 -0.18412400339063256238 -0.15574809391691440963 -0.38012598240524564375 -0.29426346477065645768 0.080166743647902924397;0.069229939299988496604 0.23125823075571966259 -0.21726920614913838858 -0.11547020183545510241 -0.16431906260912343409 0.098989790469260124928 -0.27020245568802386815 0.19244202256389764116 0.011502723093584518027 -0.22120185389431942791 0.26432468908267575669 0.18897314695491290726 -0.16287883814403067428 0.28106759031395572856 0.41099587359176620316 0.2574000815710944523 -0.24234919107911648273 -0.19195237798710484967 -0.18964378142051019349 -0.2498389065164549061 2.8905690778668717555e-05 -0.28727858305540754369 -0.22482534748708993266 0.036958138071159482574 -0.15856847702129078792 0.11103730605354350525 0.06571819974932080477 0.12609181566234112237 -0.29768860979677791434 0.02457383099962228909 -0.18860415528572951893 0.20697209035239994002 0.12936791660404650672 -0.13420000858131309052 0.013157952866345237405 0.12087926483510968989 0.034095470111270266556 0.1660019695027081521 0.0034640846277028021494 0.08937837694018249679 -0.11077557392870324149 0.19744585273486861543 -0.094518908872808143906 0.23860852759856301941 -0.18967095936185313088 -0.068613456791325064255 0.1800081014000506352 0.07167456980772388131 -0.11029721692771998764 0.3079063203068809762 -0.060695419493899095686 0.18600087686464056302 0.068601071054616769018 0.035418283733038548322 -0.20351534963684025925 -0.14809336357271568607 -0.29017342251760608329 -0.065484859017385252389 0.046167129804230738754 -0.22699537052069795884 -0.29271767145585714243 0.015534435506283748515 -0.098231499714967196457 -0.15746433693592598591;0.026710985970833021202 -0.35511302206291406325 -0.036580527328317749558 0.44216056928760011369 0.084748338591037988832 0.080452881369624265617 0.21700831331291414728 0.09427612081087743956 0.4719761831439925337 0.26375569537864734793 -0.27768484597750475729 -0.061519556102591334279 -0.17111772108983275276 0.21450642205890033121 0.19522318428947907365 -0.30874820218739146283 -0.16160782481187871418 -0.39285039803935439817 0.25074769649802397531 -0.12421223037710724113 -0.017863599307185184378 -0.089552091073021283796 -0.35684616810335634263 -0.279052226046513141 -0.15677733407124924692 -0.0030123238181215543537 -0.19340059724792679763 -0.2679203974110218045 -0.10767827174393637679 -0.24220144957603031988 -0.29836638977587104371 -0.13305050464440376645 0.20995129822093497318 0.79644879977286064943 0.40594230201472270014 0.56038046701084653911 0.38378228649583445709 -0.085924123148227421476 0.22997447606639667694 0.19872327555090424367 0.32653651832664098986 0.037496697093914399534 0.16683880304565315567 0.29177448425026530909 0.026909160611602537388 0.14728682127590578266 -0.043229331238540939786 0.13986883954581180722 -0.15184635177214916846 0.15083149720777500047 0.22558956381323108653 -0.07057321718692959045 0.20078864912725363778 -0.18278289173319292593 -0.19382911689851844983 -0.086414967994805649831 0.29024421525464638716 0.074964893750838021425 -0.18777642184866666364 -0.0084534299144083079047 0.13612658736167260187 -0.19245081785440543154 0.017087701038673023396 -0.35241447909455525522;-0.030682321251119446665 0.36682297083434933782 -0.070314032762803804766 0.063519745095326804463 -0.16762228024748623834 0.03798014209140763292 0.12567953808977533336 0.28226309106941821492 0.083688892850357604614 -0.23425424432055200197 0.11612149691553921849 0.042296339057503927472 0.078111763124237301725 0.32922450854147439214 0.1538547500490583253 -0.097265852941747402149 0.11107319785172073412 -0.098080297444964145703 -0.13636851859652718288 -0.13423377822534557358 0.2594851305565382682 -0.020647979471384931421 0.164200562990546306 0.29597300293022438256 0.37460372723835833053 0.22389128219399573316 -0.24641197332480585525 -0.06277682417846697227 0.026408674673194194871 -0.18097006466556003756 -0.0030653823595007349129 0.074024410044117069929 -0.14060111943686667835 0.13431980360234810346 -0.26859024055297880951 0.0036609066018584383168 -0.10088085100256893867 -0.16959688368279388082 -0.30156929432735701813 -0.038280323465807369887 0.29641062337950341288 0.13820787434251421977 -0.15801982832847305538 0.2081968301786764064 0.23861870670895043989 -0.15289220414999235564 0.097348338490770083831 0.16935819679273486638 0.3746697730906800583 0.059166923896402254246 -0.045426071453791017074 0.21179881356536134351 -0.046540655119135014572 0.014581107246730458382 -0.22606436675784072343 0.49171080922523274781 0.23920781096703369606 0.034846892175121962909 0.33990242166519901712 0.1047043995282237322 0.014839796107964396688 0.30186726480718573118 0.36302758091161957399 -0.11264004031370407344;-0.16971245418635844127 0.33403534941625345756 -0.0030348251800568814066 0.22009024609666480443 -0.11297978385550659641 -0.1084415874913418204 0.21860202193780151059 0.33020517222206680064 0.17604572847832586358 0.15650957711106372461 -0.15049437319087707876 -0.18735914797914174357 -0.22714631747026692299 0.28257485087399308865 0.095898316992152829452 -0.029303652202431050566 -0.24602086715309373632 0.14602726626825138223 0.14252341883198310635 0.28270175271269293304 -0.059364851381554666065 -0.36730558135341184745 0.18417471551055761281 0.09929116689077693847 -0.036131346504552824817 0.220163210264067849 -0.14252203058984222461 -0.10499810373972710831 0.34762702674713286122 -0.14730460395123567974 0.044048371383769727161 -0.070894094014897365841 0.40227584767703461477 -1.2213408592053698332 0.89960959977477661376 0.68336215068157279973 -0.40019433056440373297 0.26638708267020461129 0.6075326539482260868 -0.4015090849318821431 -0.2450017563216196903 0.017770667344777762303 0.36431629932662534799 -0.20588349448000187181 -0.29698585461279014552 -0.43683143148132302924 0.30432716525831060572 -0.18024177347282901995 -0.18156692886981390389 -0.30576524030308838142 -0.29733949145871158004 -0.2515387442982008892 0.063060390748744810097 -0.40411196296904489111 0.13665349410608662595 0.3122320767661861951 -0.50953272946085603756 -0.064437593611734497734 0.12627872971419154546 0.18375118807610152372 -0.11001333742592282749 -0.26922399598447993574 -0.15705263258592597198 0.12443502211241949662;0.038098824607094933237 -0.079796907169430025819 -0.13895258594227830051 0.16717705618558170721 -0.19591792456030238112 0.26008827236439091557 -0.2141983377026024371 0.18658386114888453333 0.32303214101805494129 0.32687075002194748707 -0.035386492279637346559 0.14272357510404512504 0.001346506459552081203 -0.18846007167673059501 0.43682731964016374704 0.059270574626546071451 0.12321573394465928919 0.13206517125248856681 0.098653776443265908669 0.12316022657795309969 0.098293224096473744145 -0.015639350994531210637 -0.24160362472392368782 -0.015922915356726012603 0.078681776877886883126 0.063390941197715669486 -0.071197093722809953742 0.13735404803926015704 0.1393667156000323315 -0.079511552857703643449 0.38900433074488249829 -0.073688064933873809181 -0.20957626249831309839 -0.16857613463928780573 0.10194951694840317935 -0.60169982144070355279 1.0402286196670307294 -0.6959910919811945762 -0.23556898434862116876 -0.068194892524502823128 -0.17003019983927694647 -0.29833147471106091775 -0.71523718018934634433 -0.25273832171028137727 0.42019935344984560288 0.35933217864588135049 -0.31938322474850855404 -0.34595918252418217387 0.015084850846047399148 -0.25284034814770511845 -0.47441938024452545708 0.47756373983441779973 0.075336971812930406123 -0.011025588349384968234 0.30088988072167249799 -0.32968085539613445345 0.27109502239131227919 -0.30548026858304105913 0.027503828935807727446 0.27089484807092617524 -0.0003217427549888031077 0.49505927046044884143 -0.11920883346207247766 -0.00059650272858974111301;-0.35418370803999260632 -0.54811935983112358706 0.12269235120003807449 0.22832914534480369673 0.18255683285447682485 0.24767171271345636563 0.13864065606006881204 0.2058260228724900498 0.34302260046134680493 0.24501117269013050759 0.08300767205822189021 -0.065723231307090471121 0.091189509608771715521 0.19191864250457121854 -0.021735944277668617364 -0.048609944417239800418 -0.057098987208894218248 -0.14406382916360049862 0.097328846740394020509 0.12271669056023808142 0.044273437041594566888 0.16405568892423794125 -0.25482685718953146381 -0.018391459831458126933 -0.048910725105365607246 0.076714487345392490258 -0.12814467457336739531 0.27727734863286851441 -0.1304886246371037839 0.20441679281791103051 0.24209776161850390941 0.28661007036919644575 -0.24245227342237182788 -0.83722766853446428659 0.41565490563821638759 0.46547437546102549133 1.1691604649074791578 -1.3823999889947591324 -0.81622437712696149781 0.20951263616367035714 -0.20056238776434001658 0.10823176271071062449 -0.30286475518875455304 0.02176328064937047696 -0.23053547225900011819 0.12984428231910005724 -0.41708423424410301372 -0.23656213667353404029 -0.58996113329454513696 -0.15545234754334241734 -0.066722187915933206526 0.25204429663943789253 0.1970743693204295155 -0.22806605016701059219 0.090267229115405661632 0.43339843290602686476 -0.1451697802967852613 -0.073715254811991412498 0.071975721086310215369 -0.053695048092677770402 0.29636984023640761121 0.14259167308574213773 -0.11991025425884098421 -0.55966927185368720021;-0.27691332203434843029 0.22559472151742113177 -0.27330915396480576218 -0.0079078999264267854641 -0.11390472974151991115 0.0034515623681358569008 0.16030630544689153383 -0.14438046270273791061 -0.10901951050339919735 0.080105175563140451622 0.13387593467844735584 0.029448299538332441821 0.26209209836443980723 0.23614724774321746437 -0.33343726384101868288 -0.001684185193582832642 -0.029626350562852839937 0.0079292487343720751553 -0.51591981833916122913 -0.20528790364411675373 0.22896884424510313694 -0.12747514883518423767 -0.062565306830667535842 -0.34692138751351320192 -0.4314966015903969887 -0.088044773767634629258 0.22838709200353135564 -0.077115203009387206512 -0.13746634762711065769 0.020769799759709151737 -0.051374336841854328917 0.1473136723789168212 -0.61699848131255974337 1.2389150501299597273 0.46424647225673881801 1.2530412701988400404 -0.36163233615123296927 -0.28680381544955707573 0.47056639502550856591 0.69008080062086996076 -0.033244345277041245645 0.39861288349785439777 0.47526154872228859594 0.12315704094756946274 -0.35755378511034069389 -0.48385608410379932209 -0.11538711513286487031 -0.40787927284624925228 0.55619033833767239638 -0.11131933931378179548 0.3260040546027951347 -0.07587947052783818036 0.029340821231716426865 0.11128563439148986269 0.16187792275623996696 0.0012843909565995008382 0.10799180146752931919 0.12162082301848171906 0.25729750751028529487 -0.33821514000780134035 0.1625505615018011385 -0.31758249574022695549 -0.30243041546593907309 -0.14708199946960798243;0.053601955773659878957 -0.13741027707384981249 -0.30762123104042521371 -0.064209266892542721239 -0.26798822290945090163 -0.02943660841368264322 0.12140655142239399622 0.26841356893652834614 0.14596901793121574986 0.28522976673146105409 -0.18365437041079993308 -0.021904907904890819764 -0.23231772455975202574 0.17769971073000495609 0.047735716107889854254 -0.24144261764642127588 -0.25054634252567598018 0.087735626786040576963 -0.19962974410448219853 -0.14065217278488070796 -0.23741472359461696096 -0.14399784671335449926 -0.20660427070202241895 -0.019256543818322185285 -0.21221945592903418421 -0.10679280623575096443 -0.07908093376669753094 0.22431335026795970466 -0.017677548488243991637 -0.11283573807297180014 -0.29381698663446703668 -0.36836172635526720498 0.11901931919563216167 0.17188274446506146553 -0.0060844683791127724196 -0.029101902296862970643 0.16808148121617980109 0.043332393186598518187 -0.10362352690702432423 -0.16635738792914842032 -0.31428309735534448732 0.23168543501629507153 0.066034718102064030032 0.22848818510142968052 -0.24574134158326518818 -0.30692696995438595309 -0.26784753244837006259 -0.27956915899906864542 0.084012071966073284535 -0.17136041722032788193 0.16035756807293680137 0.026871556991744229709 -0.30047317620983138298 0.14875498133545633772 -0.34963296657241282883 -0.23582251571621171138 -0.15937144432055788679 0.074835356654520110431 0.03624108842709442696 0.18742271839165752789 0.096642082678971535925 -0.29938742242918570113 -0.20381829508182464084 0.20226096727156217536;-0.23815208859189379575 -0.081183230514830853619 0.31031147574857281812 0.11620726137218787 0.064095647688674303732 -0.097759634549369742174 -0.086738291316053345303 -0.25499979932601585242 -0.04863851696758587223 -0.1099048755681746592 -0.12431257631337401526 -0.11136394000415539285 -0.10367905983022519811 0.059528064461899510285 0.19916133109132760914 -0.11769968793483183422 0.35916393381734357249 -0.14008220873016119512 -0.35169175090478532741 -0.034324532301722353311 -0.19968560730011000737 -0.15976474526035286394 -0.097085611239429547847 0.40419630171487586079 -0.025492625436851296117 -0.020482015280929171536 0.24629087612437339239 0.13567023629097849091 -0.062268792067959405356 -0.024380940321619998246 0.16766577533357499008 -0.43403539104346872124 0.10438535698548433162 0.107276959221998619 -0.055858901971927943375 0.10788221987747771691 -0.080362229441030330612 0.18442704259589032256 0.056265206691747109147 0.31028245035405610519 -0.044564219037173086191 0.45110907166340163954 0.16836942047966599323 0.034721999865324051915 -0.19014716425954986123 0.091748384961627668654 -0.042088264370021763461 -0.20847329045696863514 0.35011878146655739386 0.11860014489761244727 0.13229059528679651403 0.15080116134864776645 0.00039026967133100505525 -0.34843238593881559195 -0.1780298958147290278 -0.39200816857752790456 -0.13415365660422265415 0.18001836046333202779 0.49221288258932771598 0.27861522176716563282 -0.23485295837190564572 -0.022359885790732936944 -0.051610527694495644813 0.054602511776259833598;-0.3225700332491022726 -0.078506209154086348256 -0.035746298363165535106 -0.31637629998694577482 -0.32443189017908408145 -0.23816958334194085478 -0.060264468344926880317 0.14221163660299451781 0.22445515823615400097 0.24507124425331575091 -0.11702971885022787901 -0.21899589324445056793 -0.3351787755506413502 -0.19336266464059437276 0.10704142292595686392 -0.16512286235219200692 0.074681746137618923442 0.087667856416311112921 0.030644987979709374659 -0.26407165806205473713 -0.12411234071214556629 -0.13021274214113320866 -0.16410849785473421991 0.11877393949601446066 -0.17742096694321210504 0.082511448394509537274 -0.16168427995724241053 -0.11291606528946425414 -0.37082713802414601911 -0.018452419641425247404 0.2308223176091943607 0.23988908730674998737 0.25282316536453725009 -0.25676448823061515103 0.28809354942222459295 -0.088861675905673342957 -0.038737258553403527972 0.051336721379729680081 -0.22761367716928446181 -0.064303399603858960032 -0.41540911510003591944 0.036111661873579295468 -0.045256591071791828218 0.010284508352550424115 -0.22343641056843513426 0.12572878746918828008 -0.093327004574169619699 0.0084797597650294789101 -0.039724532293820162543 -0.27606359392774676431 -0.32235950209365038521 -0.12413359436877469122 0.015117184571159930639 -0.24902729979199633714 0.23141415902724082887 -0.1968102139647130433 -0.4020825534125775369 -0.0041806795601086535474 0.10549269638719838138 -0.34461512950285694279 0.04530429180323319871 -0.14273599224454330825 -0.17376718899758647474 -0.37099064838965140067;-0.13939834001228840199 0.0096483586412517974296 -0.080987854154903171633 -0.20867080488367886759 -0.15528183254246613609 -0.051079668026380239954 -0.2416803198201959435 0.1094194135283372421 -0.35063283195121713876 0.078588180234597501683 -0.0068435604856872736534 -0.18826799637247521035 -0.16989486426959157783 -0.38178744507414391629 0.1798398604902309017 -0.32669198271426586055 0.2229435148105976261 -0.18787605705138968326 -0.14651249321107095991 0.064854721390203595721 -0.17090990802738284526 -0.22135649750432045968 0.24502004492892942578 -0.14434776871055013392 0.097013924657027392207 -0.1913802858217561742 0.15433760922957431849 0.17757347041214899264 0.10296521571088559921 0.046151077745197999214 -0.13739685270295431962 -0.27997827010007841908 -0.13912365730206729952 0.11991336271201259722 -0.12701495684709093736 0.15941991513476358455 -0.17753897070910679146 0.19776319212285878302 0.085271670963450743597 -0.36937541689951325363 -0.26922328776462128852 0.28422635072481494678 0.24104997217749196681 -0.028639822316492515031 -0.03428006499674699642 -0.096413101635910922194 8.3042018084424767954e-05 0.33679781132416258815 -0.23489817738887830423 -0.31447720527905603793 0.08561081669570573538 -0.094764050831932233887 -0.051341625725351586196 -0.22253361959432221839 -0.42279957379807375784 -0.090452002885071935978 -0.15812401379406865187 -0.2409733293030301704 0.082069910581916691306 -0.060304037619249434288 -0.37529392485308188387 -0.25056178732267536668 -0.23733667370454439305 0.012614058576065680442;-0.19442209381240252442 0.24041968582336595284 -0.29006541973458571659 -0.011422921698195011297 0.0044627316786838471321 -0.045219967884399837887 0.24246032853105758953 -0.29641122839520406274 0.22114160351202954979 0.01827987720006193223 -0.10778141241310137954 0.073318322976022129445 0.11690071046656183573 -0.41013425641490647289 0.23617833155436027126 -0.23372489938197515968 -0.052384641159405533062 -0.23240844546403147119 -0.11047735747025884401 0.012030490210047402669 0.0036436881366136509089 -0.1216548304936673347 -0.36440638549268999924 0.0018503933542995613503 -0.31981505921446795604 0.25525360543955538661 -0.16961484176268723512 0.029022195448609428015 -0.028084048287037213787 -0.13915027219338912956 0.18539440701414985901 0.15218516460590822414 -0.15604739188177915721 0.24925103537861736935 0.28028964792531724237 0.1754046236346319676 -0.088176694361394955535 -0.36121336997964903492 -0.24403987261145129728 -0.42632601503853045921 0.11499771196895183789 0.059900937004246465611 -0.11101588374938163584 -0.15545430651250261023 -0.25382633094925965977 0.023196327193839121061 -0.0038333376589368408846 -0.16383899590337860919 -0.036447069504640099147 -0.0077733055452741724872 -0.15652934264866030789 -0.22400730798148027478 -0.36441802911878318216 -0.18732414254844229062 -0.30706948659643523714 -0.42017523532094208649 -0.23040120296915944653 -0.37073884269520068768 -0.3207924506532938147 -0.27630184046493788674 0.050050776654745172956 0.20564899443259551659 0.16172152817699270155 0.062043597323014586242;-0.32077011370416258496 0.24185296058660199492 0.021380546790884746855 0.040129565239835407464 0.18957432611084926166 0.17009014521042711832 -0.028691905608185144794 0.15645382931940887694 0.054522628449163612618 0.20990666219805340087 0.05814322135267336461 0.34892369573702936014 -0.22545700763839870984 -0.24849837934570026543 -0.18715291596616401293 0.26968311325058591521 -0.1688675026507923671 0.033779630722799561249 -0.14472435598934024759 0.10653886620173780297 0.22297133219311268681 -0.17840585537814818151 0.23370618227693404356 0.16261366164858848116 0.10687267303320187317 0.20243036701608790873 -0.12408773020606336801 -0.34484096966832655795 -0.059972925371743465717 0.26191466736623680855 0.29056126404132376351 -0.025681305724328067769 0.13575894521430387218 -0.79144604453372258135 -0.029690774699867056308 -0.36714206781956582049 -0.19108362606220655189 -0.0083816451409289803587 0.050063950663442387257 0.11420162979187609142 0.37332045242971467758 -0.48950563452571488332 0.091721002638250337391 0.027409606262750383504 -0.080300076233499065315 -0.35294557068507015352 0.065761723623761966784 -0.079331781393426767379 0.028423840264757596619 -0.18970106032468253554 0.0079082030433812004755 -0.48148272719133905495 -0.21480846148260432371 0.036763643515213668966 0.19645185544975224401 0.17282784389487745869 -0.073787391050274542259 -0.25927031274737233346 -0.0076551640953576079868 -0.21929353783663832478 -0.10485515641590489877 -0.44861666438053393602 -0.09434355893055565434 -0.0020038568797949101417;-0.085742823736911499832 0.01976981400192037025 -0.27974525519317189337 0.1334221635825464658 0.22823016167578930036 0.027039908982405328614 0.10322845272454873877 0.2084922865921074453 -0.051002523624268096547 -0.18070846708206661502 -0.27176729551586026323 -0.039423617553545856063 -0.030193646881706115437 0.33363948476036980884 0.089379330381059343691 0.21612168984065349697 -0.0016643082180413746457 0.27916484837539284891 0.30037506049317058698 -0.11005885766905584844 -0.28867722233460191283 0.20615474494895938418 0.030565742268746452087 -0.22265340930316973589 -0.14051051779298126543 -0.15925958265486694909 -0.020041798727752833248 -0.035486009333731728665 -0.042782053881414171259 -0.17092553542651178766 -0.07453335674674133049 0.1275475980044321056 0.25964043212605253386 -0.2787432495130150456 0.60480163062680569741 0.45761866265943734744 -0.16581290566330531 0.021830020248181074977 -0.078520319787758460772 0.29315963240510317656 0.20242977761502420342 -0.073042494170960522992 0.24025598591158836559 0.24008573101149577322 -0.22443853691525836314 -0.22552759044164233382 -0.10492031367813049736 0.23468297349169314758 -0.067605535302807481801 0.11533688992476234803 0.20098393848793677519 -0.011553274794224124497 0.29824230740083362834 -0.24867208718671643397 0.14540645549109756929 -0.1638298704826200991 0.3731646360521542749 -0.12421831319115810011 -0.15550891616280840268 -0.06710710046262015338 -0.2313843973621030059 -0.31234152303606410594 0.06708116094722771372 0.26039697073455542187;-0.22515457224788740231 0.1811569211090963416 -0.18022411461924051079 0.37463807997231218794 -0.10350999498011659306 -0.035254486715234213678 0.055288411029134412744 -0.25380218100336537912 0.0742897929868004403 0.43724254665154821398 0.11350768970332908436 -0.19935248198292793154 0.014291482678053794853 0.23643745041072181112 0.053008425636680019111 0.11235455550813337744 0.319861964730647097 0.036764005597726495678 -0.26242461348661799692 0.40962860961190022957 -0.046597970208775423007 0.29051924480124041716 -0.3342330737049319378 -0.046274424538199999957 -0.10836493700039048771 0.083300332701147589143 0.11962478105821838792 0.25318561773882231059 -0.11391436796752085758 0.31532208561745384001 -0.091917489087922327196 -0.17077379149031010619 -1.2077989303783787101 0.39071184384644758181 0.039954990317605736105 0.65039126764915722312 -0.69603120787146133264 -0.23885390005787954237 0.64830285074876159435 0.2737145493813768482 0.23449147864286717935 0.18619097485343680254 0.34975399059426703907 -0.0089041123728759077188 -0.39909626890255439635 0.045773701629951306369 0.33036664038997420878 -0.46970861703867283765 -0.1940894270469460392 0.23207980665315686153 -0.20787547463655481339 -0.33670832950211943002 0.1245959131594812086 -0.17036003877414282459 0.19948407977937640534 -0.1608272410879634795 -0.57650470447231150217 -0.16774933508581352237 0.0076711895023461049506 0.040713772610066978341 -0.42059819530639247498 -0.28339122602542038409 -0.14431322755971975891 -0.24163085171567189047;0.3221046704581069231 -0.062414309345329897771 -0.24112599538929724297 0.034094083967435122318 0.29236518196300792516 -0.20226998817830649235 -0.21309474508591336184 -0.041818567055633200369 0.3021535669494457288 -0.11261387942491279945 0.28301410022578277204 0.22072775083886092551 0.19980816696786726783 -0.0045465787491229927089 0.25181333551582685271 -0.17639971320960662338 0.22856945566608652398 0.14117011105300319995 -0.04196310227434989909 -0.13407552982929576979 -0.22167356348819211576 -0.1460744923730028233 0.035956952744803309663 0.18208473392558799375 0.10462176774011686109 0.31011684325031108056 0.032574895097657770304 -0.052490982358233212457 -0.09868601484102693111 -0.0053231826270805897988 -0.17601676569060087374 0.2057533007477388709 -0.26358233638966110934 0.26866767006647201965 -0.11117584709377692498 0.55866901637168553396 0.06337266025509534495 0.32478807998835523829 -0.091345847911756289372 -0.074973207930730506598 -0.030736642676879036978 -0.1787022139173424784 0.05907086404715405914 0.23824913987934534521 0.020987858483119539027 -0.15535159349384472516 0.26477723134067410182 0.16320116604902948354 -0.33544980359272080772 0.092205967441756617187 -0.33007676231232113695 -0.068313367935205843162 0.29748060791972064099 0.071721664548536082084 0.10106650282207696456 -0.081803449038846967611 0.12067521088012710118 0.098736910360091342809 -0.13512273061676444152 0.21212730137543087117 -0.36938175119125382651 0.14649119902394538983 0.10005751435357050638 0.39482774738818859905;-0.16495007935683467237 -0.43770329187022555262 -0.17060907316868759165 -0.25226107319549989638 0.27162196633889923447 -0.21666944258875645013 -0.11010326536228372263 -0.37125327277920439073 -0.021787343686612330174 0.30417581091379841673 -0.10635950744758849995 0.15063026900551354514 -0.19924580658216731188 0.43527778360502933364 0.49866379037881547465 0.36477677343827547007 0.11158276334001369923 -0.07771466788635635059 -0.043219698535328442135 0.11552417296262297575 0.12414214872921014443 0.16958395025834860359 0.34587624384823978385 0.19917230371908598019 0.093071983780586342583 0.2967968926678501429 0.42559956749420807531 0.091581780588413583266 0.25190866531581618259 0.13968500419311596916 -0.26682617673302566619 0.042121770679717930597 -0.52670680396761671016 -0.50625665907878225624 -0.44001226510610907949 0.66780312768139027391 -0.20041993437587565796 -0.984289025837500553 -0.16635658187804294728 0.30760381478409909439 -0.69344009535956774304 0.016714327096481601531 -0.21652183398327895514 0.12815220916004602114 -0.34946975601716362414 -0.1274274784019609752 -0.34721091844744894628 -0.45787469803615249431 0.51458006084098917299 0.26301181960846509167 0.11945567155709657658 0.24743743075229626682 -0.22581597620785609504 0.0058216016689007048235 0.18156968480373669728 0.25352001165667120697 -0.03030882183395780527 -0.14512178259291047544 0.33074331359063474656 -0.35435232238649716496 0.16835552731806405213 -0.47425314507561261435 -0.56196557454615236882 -0.888869652330023019;0.07189497785729255519 -0.11091950585498402959 -0.12165270063941087397 -0.28821747779681050616 0.17507978648640909469 0.046491750670202114382 -0.11249679038388897545 0.054826558345203148248 -0.051756357581640009824 0.28180289707100919516 -0.065046273984097013887 0.081378621368547635062 -0.18090315282490032622 -0.29453862422962057144 -0.20837818877439540088 -0.29597394713668817579 0.20568378557602651213 0.29999216344634088705 -0.32915930097282697364 -0.08946772425241919513 -0.28085261915267983879 -0.16294646664809644965 0.25474894787379748218 -0.17691380929274977407 -0.031688808486565939182 0.17604446344577129313 -0.19107682974573036994 0.031800564781584821084 -0.29403764355017009136 -0.16288504052052710236 -0.1371260934533301834 -0.13666090955320447931 0.024584776154693076949 0.1887276827961542891 0.10550433067017087052 -0.21258750703580833741 -0.28331068944809451038 -0.28337122481615745206 -0.14802946961960869454 0.21633460414151825524 -0.32731618655292565867 -0.07929912068084489507 -0.052182814709672523112 -0.34778495122300812081 -0.074595664610849057863 -0.11021698790840010751 0.31066086277096638391 0.23742609968153954858 -0.0084388114307511145201 0.029872809727504133492 -0.16636139483430625874 -0.20811806486746384226 -0.18082293245315311792 -0.061659327249923907843 0.18057130290494330382 -0.10651241713828098201 0.098149568094805489382 0.22512928057958372929 0.16559585401464435583 -0.32226593910932982423 0.0018922597310651141297 -0.079014124110306199755 -0.02473032220185820973 0.18833982302751761662;0.35478593441684902476 -0.12085359201442417987 0.23823900005795697887 -0.30315154196008065046 0.072560245300108544564 0.018881760670424376641 0.30401338324080029452 0.19192795434761628082 -0.17321447458581148982 -0.25110402735133002805 0.13251974789219000961 -0.10793840882081665034 -0.15665650275474873876 0.25542652676262439515 0.2347425583084413736 0.0085408794247582714432 -0.057926004511900185123 0.10030823413669819055 -0.38605592805017741043 0.19772757698193133002 -0.12541938501895580349 -0.20284408251786259503 0.29231113320617235773 -0.061565769219002884627 0.27435188083888367716 0.03947355779718012686 -0.16333289949209006675 -0.082450718705689859944 -0.31302028274332960311 -0.43992413180766071212 -0.080826959150391494702 -0.17721857104716123854 -0.029380096459850787299 0.4134996326832406921 -0.10352631360148754902 0.17674895366076848191 0.026967071064081554743 -0.14717851502181469869 0.026095607350593477691 -0.37554245249007056628 0.22778540340373343298 -0.19826321218476269936 -0.39867623289002485087 0.37090436968892825931 0.016143405754573954963 0.10201921959433761511 -0.058536839470059026658 0.047855446434304636794 0.39472839538596227182 0.23373335661440350353 0.27134492857173736491 0.40557607372637982657 0.060391323780162924073 0.16569670659799820567 8.4340968457916748457e-07 0.030363276322527141954 0.43114283823768645432 0.13277811775626566226 0.2557409203766505823 -0.15424065563196015516 0.20936756290897193256 0.17531082759228705514 -0.25445987949950688023 -0.2124067239614531033;0.08339775432977461489 0.11965908763296750905 0.1261801087342824812 0.024848400030065147942 -0.2406485632922759077 -0.021294030489712997833 -0.295051611484857923 -0.31922261679532448753 -0.54124812121682652766 -0.35797635280154332937 -0.015728224721841585487 0.049551389007555880772 -0.32440265739192708505 -0.10527046287269015146 -0.16282979359244595385 -0.00014468287101467199041 -0.15950972373960783934 -0.14297139005848813476 -0.053690185853397784377 -0.1226341970814812804 -0.46112524830822221311 -0.45031719998549191164 -0.092296183411970184052 -0.046834566815135168782 -0.24504061955440439857 -0.042163677761359395768 -0.12929432709576735294 -0.047793852457105955034 0.21970690767354983386 0.094689867015308543108 0.003554213069388190583 -0.3148009674212626785 1.8307292674207069627 -0.62890640429344402129 -1.243389127023085905 0.19819906041896551141 0.99077544693008934296 0.34744200009315118205 0.12802074811986810521 0.36240256450867308624 0.40373338691115973065 -0.369178305773334825 -0.056079806522483455211 0.38025714318874409559 0.19839138435778649883 0.058850310823947864225 -0.3649540383101997354 0.19059169084445426456 -0.14947968844294581836 0.15470839758299223532 0.3641167172800054419 0.24797956161201359371 -0.068979243495233252825 0.32003309031923821149 0.084783046113890175866 0.075052685186437262388 -0.061453033509265730938 -0.18527329096729933111 -0.023569659787788199007 0.024769305629995894136 0.10518327492024190373 0.29517060549466861419 0.089630750728176111775 0.14173933906874994215;0.0017930761830325511394 -0.051967353666055392247 0.091036800498345907262 -0.25681479570587317784 -0.119858989709206748 -0.26896170243281364298 0.2305711247615317705 0.053178600072622379813 -0.12338226533515499195 -0.17219291864519054025 0.22836584339597745807 -0.11562316414038627255 -0.40899657585049209452 0.23747850364625799902 -0.024686475281611872101 0.23223745266095377482 -0.39160068297799671688 0.15605374129974722286 0.23981438813568664581 -0.038282220630087508695 0.035597057197332152012 -0.0066627468371874823058 -0.16308821346464183466 -0.29381834632294140386 -0.18589972349273961583 -0.076834659352339532146 0.17262396445235822506 -0.24424199453692163608 -0.10273894712900465132 -0.13657354312587186018 -0.16659094936300106182 -0.11378791291001613684 1.0657365046196147773 0.55691863167388111489 0.01605566417494324119 0.084634731144835967376 0.00093047923592250517122 0.37944495837917630032 -0.16226789300306163066 -0.53035138306650553286 -0.039709029220474395538 0.12804162573987218354 -0.40694638860521742396 -0.15539458192650745794 -0.14581580860470985672 0.089261460478435791788 0.12552586612595306725 0.44080599349981541835 0.28010182338583100581 0.27161084276231700629 0.14314084640186400255 0.023305681809438757307 -0.054544774816543711848 -0.37916261659797856343 0.097661994717312072822 -0.14445830617496230319 -0.047625303630497509144 0.026600355155621119296 -0.32276181473128839894 0.25089479170803169472 -0.0096632576779937182088 0.12952954211933231932 0.25081636426542014418 0.34271118881468171091;0.12817322900943795005 0.17071636651521995831 -0.32899362053043745835 -0.28137372519094505652 -0.020627152911687672565 0.014852611361866953008 0.22291760271840355134 0.30601931672367588266 0.10762337477892344739 0.028564095962150950342 -0.24944435482677410065 0.35211741084176528815 -0.28344916721550950101 0.36747329748769569369 0.078402997032844104486 -0.2803594284281178961 -0.17676376082447764482 0.086433554874722887118 0.084103770642851877204 -0.10062134036499487122 0.08628160300430501306 -0.09864742007239066246 0.37814466581064670736 -0.026758673153175711878 -0.16681487098083983001 0.26876122140735303478 -0.28546671428892994582 0.14084550556271913102 -0.15076630697536402836 0.050719114771593722113 -0.12779708520552834905 0.2176522622193663159 0.0047819327828792380225 0.16053882378295189493 -0.40621244919991217337 0.22251034331624497398 0.24849604649627624053 -0.09459277959558699822 -0.09633150733873907523 -0.049889055265708914799 0.18121819371813308042 -0.13063940939341511793 0.40503134523019074242 -0.1380546644136826373 -0.20695234565808720562 -0.30217783545909959741 -0.12243040026145791954 0.1273290800278628343 0.091156820203625643639 -0.1960113589017948299 -0.23393380006052374998 -0.083839719968854919951 0.21184165754067840748 0.0020224731547900881914 0.33447025720015022276 -0.1939679241682873978 -0.040875569446311092736 -0.23138919379971389922 0.032831031017486113355 -0.29891475039871823194 -0.063829134958369782016 0.076081486436552686614 -0.036027915736716063788 0.1077237454260412397;-0.049988907091781900616 0.082331230621484577381 -0.10181711903755862048 0.18725083180240428837 0.04352606374941004469 0.13460228218557349078 -0.27780308454902691295 -0.1799174048182164698 0.19990170656466085819 0.19648413217727223046 0.14811207580591220778 0.10116449002957929315 0.28538223165298498563 -0.18213352202053070816 0.32850953885723216397 -0.1410575142704729168 0.034716920292506822654 -0.25984531005166300321 -0.27857639994418481599 0.21707903301217873482 -0.051867769304855107504 -0.26857389377246398965 -0.25814818233533903813 -0.28610644887992092711 0.23918300253615140671 -0.065062281728239135248 -0.15467152625911853581 -0.2279990877451933684 0.0022061746313023732069 0.04392946078779380592 -0.11632262754926600556 -0.18528706169330275144 0.12534998846144704276 1.0682609875593982451 -0.52938126018151077101 0.53954336384653722725 -0.68133210998337112585 0.36105221296309025769 0.39846174623673180637 0.021852998777675741726 -0.087739679007071996741 0.65619313182154881403 0.21288256552509027264 0.40082029243559252896 -0.22174368477575193137 0.03232568544768636698 0.22677916015988897058 -0.33815484175948823387 0.57999729446817438472 0.35703186720433494061 0.27589360567335879937 0.28222836437949277988 0.16996739059638907299 0.2850150172195582976 0.30877303178818987783 -0.45109734393179928835 -0.3777531729454355891 -0.21980767225804870302 0.22449785886316225847 0.022480164325159934097 -0.098169958167085125122 -0.25793526040448105929 -0.031996059733353135468 -0.088956420956271417544;-0.20975586696726308822 0.12979144423703320443 -0.16491025511043982954 -0.34775559866301536394 -0.089588909182187759228 -0.12391128413206062286 0.13221232561546089612 -0.10920748170041122416 -0.18953988505058858016 0.085597413992968593432 -0.20529365807351490636 -0.28563562180622942277 0.13941838291623673274 0.0022544303182597969643 0.058559116696291331483 0.1042193166568768925 -0.21510591025069314419 -0.32815409784218246836 -0.10502011002588644561 0.11663263096887069303 -0.22206812905395897917 -0.2674904069462920031 0.012450881791507099894 -0.048119451930425778674 -0.096162624999021006911 0.050475563519958084602 -0.37772081479704067153 -0.29282683614870202993 -0.022752699846748672408 -0.080671951729057278513 -0.1389246540953961162 -0.10052861142601594857 0.51365985267218250421 1.4074590009793053191 0.22291088084257776325 1.249889375641263678 0.69890030666865232689 -0.13125523688300363978 0.55616733433041842805 0.78818539237528628671 -0.030738849957360002418 0.3556784880659412118 0.29756815302589462169 -0.20567327097879056774 -0.41516689511776211363 -0.023435914787880610111 0.03525696959506476047 0.11279675465256193412 -0.038370554065866542548 0.53568763395315732723 0.22626054089786701295 -0.025284095122175980624 -0.030087370349395702041 -0.016695752645976388168 0.23700328166363346383 -0.17777734469113634641 -0.16036644940846939145 -0.14013878361795537031 0.054023898570280719234 -0.24215298746979202482 -0.23147592377250189588 -0.26435761091934734113 0.12799258486064116203 -0.20279546942280546329;-0.054234515396732532744 -0.26864018401899114608 -0.022789458383415346632 -0.43757393212815254291 0.050943030621860917184 -0.17329817778690639885 0.10653471294053577789 0.38810216158738908288 0.086112423044075514511 -0.10002298374795388913 -0.15479169728997912991 -0.018198495695826152202 0.14326930788344355294 -0.063593259954327491235 0.37007071842715333343 0.00469823821734447096 -0.084299481254087607618 0.3555820891685148033 0.37024069783768437381 -0.029807568814659294448 0.12380053452297590244 -0.10444244060316477951 0.15081823559875881524 0.19837003565720617848 0.060385870766283905597 0.24753799819310798314 0.10914870550959630824 0.11379713955156511851 -0.40469438864332801797 0.37438941973478645497 -0.18467506789069743078 -0.094761328812725587056 0.18540322855288154935 -0.30805126767788804099 0.88645988148846821542 0.71799852207757242084 0.025891427665724518759 -0.36805104424361079207 -0.87869925908634960443 -0.22469266910974242113 -0.063236530225735193556 0.02744604203114699853 -0.35201029945124168163 -0.10459307636237290262 0.13651037884536240674 0.33028076035970616031 -0.56404088213883096792 -0.25675401446992823784 -0.39138884483457275776 0.28553481543303882439 0.15116756592908492385 0.044499256272392498368 0.22118461390355034779 -0.036401241838940889828 -0.12478624163758178511 0.34358420624725377612 0.0073112666652413050433 0.24466465545144416849 0.18038479614084565461 0.18527090432748372084 -0.32196825577424548204 0.36662000862968985304 -0.11859134730273548919 0.160795146115121107;-0.19976663905999178517 0.24086399483024797941 0.39396437729713357223 0.10625117133269847136 0.11703638369835042687 0.24223936898445050381 0.19266964688190227339 0.32171571702677737026 0.011881339113558913451 0.0063402691450407640608 -0.070864547884372519615 0.099855945080498192956 0.30772692568212905995 0.028494771650617155972 0.054610089488435265004 0.095724147643791349105 -0.12715470115548410668 -0.068982550541484222162 -0.15476602233802375097 -0.020684390503755360757 0.1682586435986103135 0.013803430142557270022 -0.19207964401385127506 -0.042560738605864081863 -0.13043409511889614283 -0.11777900000486912768 0.039617995689174928531 -0.13099238537406618366 -0.1216958068973519741 0.22554157634737234672 -0.12001281405999146557 0.030995411322342292237 0.16755918424738913686 0.29663439568097643706 -0.15212993924127521383 0.20366282202305227567 0.25250611144419637943 0.31952890570214714794 0.030462326790852534142 0.054612107002588977656 0.0010628998692069871641 0.25259566802246724571 -0.0016526545323766726227 0.16997930475707306863 0.059353932334375532343 0.3234095645138370112 -0.086520383869035724644 -0.23283307492472044009 0.20869180220685229488 0.020802000275703894788 -0.25022137821230805432 -0.27374199432888440819 -0.098081792727445354929 0.24688398496299562845 -0.24487443134329214822 0.14849456016980569495 0.32240166578026258071 -0.26428224087363849648 -0.051339849545057054947 0.21986030367152614717 0.27231642954768864318 -0.28048094593597849844 0.10923739951785491065 0.15029733114366378155;-0.17021845522270129258 0.27668442452723446268 -0.17947890271873376267 -0.033774042218396811699 0.17477168590806707593 0.1963170293140807654 0.25023196272044084809 -0.24497436667056721182 -0.17228851827662836071 0.2322856405353395659 0.30394350631117333927 -0.12179846927923233812 -0.1878186921577427726 -0.035781530557532609249 0.27979388162089757763 0.25238422590937092949 0.051250460399454703109 -0.12251556396086950296 0.26173041395880142224 -0.080850514677122758966 0.075256551996626785961 -0.15241267312100933995 0.25028483833230963373 0.016151168860193312882 -0.15140354981259318556 0.022290728710913556426 -0.032717083009819424022 -0.22740418988571434178 0.17398210554105700276 0.24950829452448611279 0.072494975532509178806 0.1856453710856707795 0.057560398424562446429 0.26280967469986699081 -0.077153426676247083282 0.022792993437503086818 0.28202783961474009455 0.12850838786236903899 0.21340875718683383067 0.17127631890470706999 -0.17578779048716422495 0.24875552608153389533 0.038719982316715355342 0.050055825930174442651 0.14709406826749124586 -0.3083755038897382228 0.19974394332942235764 0.14408748781906216552 -0.120018059221237261 -0.16191976474188912727 -0.015854224078795484121 0.27863370789678670869 -0.15013756789711341089 -0.17184274518620037964 0.22122341331333025827 -0.19568679320060175519 0.098693600990459623423 0.18699724991382521422 -0.20654945698097254558 0.19093839339587198589 0.10706848639158599024 -0.31637522661112921218 -0.28325164364788479876 0.18439211469872573979];
  
  % Layer 2
  b2 = [-0.95899468628334927356;-0.61173297581569641146;-0.47780882613584862995;0.31963089748005629742;0.47178864111065899056;0.2736192965703614921;0.89033087473486227648;-0.14498900894126773298;0.90112167416382016327;-0.41729800570631109258;0.31853074997525221423];
  LW2_1 = [-0.22838989491555822253 0.31402433723439138191 -0.37689544710696171181 0.26415484263183913738 0.85807661720367855995 -0.25458091542822119946 -0.52971942677004557609 -0.011017298229160926368 0.54525267152963674544 -0.099712847111874669537 -0.027529378238717077537 -1.0326392350266975217 -1.1750966953061536824 0.73580004033240453687 -0.2296337220730984563 1.2104425856403513428 -0.086825458921392636991 0.76242984287515158659 -0.53125145277993113258 -0.75011867185467884234 -0.61029554687627174392 -0.16028331967437492445 -1.0663808375189167688 -0.62002842118033252294 -1.3990627531598582856 1.2311343689530285239 -0.00028128559807532064682 -1.1622043117403670909 0.55606931611801158066 -0.77413080376771703506 0.74495438743875930232 -0.91119723280110842545 0.53345729015802645367 0.20264992271844856075 -0.95618971864049362441 0.092579480386538473558 0.57179796994512877006 1.354396712427718974 -0.32384922733919735416 -0.56247916910622219877 -0.66972219102968366666 0.51460935754567194156 0.051734555217166466878 -0.92182949869688923794 -1.235431959824247139 0.13026844086499225761 -0.84319253541483452086 0.6944341413323039669;-0.11524076679271878787 0.39958634527298086958 -0.62707165773620165972 -0.84542731090633194135 1.2392948879940997031 -0.2626093655548744632 0.76042810592668419467 0.80779654317420079845 -0.72257341971082966747 -0.71092517954360967547 -1.7335197534058319757 0.12014647635679878701 -0.75919930050897377338 0.33606619117785002659 0.92618189106735859806 -1.4631333288519168256 0.16616309742563067919 0.46471639557816962762 -0.51511924183271895483 0.75884830869324459979 0.89442614503676420856 0.49688790035542684809 0.2107161306617904295 0.64643369775398984434 -1.2625345255405617806 -0.096923074788475366281 -1.1290556566014393614 0.97656638351615654425 -0.69241197457707226448 -0.44735130076508278218 1.0252698504514794475 -0.64508748600740239976 -0.046122970307953238545 0.085921408865148443668 0.44887417302026177968 0.016331898086684910193 0.15977079647679212626 0.21411904456059768775 -0.3201405551200753874 0.06093318097444673509 -0.29067215197019191653 -0.85756564901003407009 -0.52127567180134681823 0.76041428808158806341 -0.69700645363767510521 -0.088987093386156762564 -0.08496719598791235839 0.63278801564330888763;0.74253946505658019461 0.73128910202682084751 -0.0037619941876442641177 -0.67089625220247717241 0.72069895494122926394 0.92258388202471286466 0.65682251868056296118 0.85265095809154312079 0.84339991185970031307 0.36686630191797026113 0.14819708641330717191 -0.10876460529451063841 -1.0988386084501524653 0.59171018309846112881 -0.60936622271138363161 -0.22876298291453456279 1.0305860891085016906 -0.64892429886530478278 -0.079743512725341303415 -0.36217113576334114544 0.64917859759284102239 -0.20101983336213996578 1.0640519937562298303 0.41789998548181500615 0.74207130664035947376 -0.85808667860509291181 -0.33380754933693712605 1.5757140893120331615 0.27764718783818476133 -0.65867832671177439785 -0.34091537349199607654 -0.23067501155277397862 -0.87315814842849504007 -0.041968878393695605022 0.64151477199895023951 1.252118512939449424 0.53230310957683391049 0.79405558510614304701 -0.18531789550984631432 -0.79015995833555108252 -1.6417039057750177911 0.23553669813070107764 0.87018144321884394188 -0.0093190695255932279317 2.0708445289112136223 -0.19590036730989923708 0.38598450873137396533 -0.99647247525561699621;0.35487516014039444112 0.63735327600317226437 -1.1129048059793769099 0.89529019091864558977 -1.3212693235753121268 0.59381850537803715362 -1.0208605311266054638 -0.59515867771710218026 -0.17161598142886269613 0.71393875822850438873 0.60657538031255109345 -0.0029763229131036361003 0.72574331474935416253 -1.225224168583199269 -1.57265566123859446 0.99198390026398142183 -0.32752952486664860254 -0.15022977578453136638 -0.454632397490948581 0.89222504357945353615 -0.55639333825357872865 0.85665709036874038151 -0.058941695265931987047 0.37714405228418151905 0.78467300477553492133 -0.29646514904681309233 0.31881132505932963106 0.061966555624023769711 0.39687651004746515859 -0.29262656850627333238 0.96774170962114069994 -1.0801923406378535208 -0.98852968236025406945 0.36836160837698173065 -0.49568225150754074981 0.62887329713943407317 0.70185464769732441859 0.33167759928347029241 0.6377997070503865773 -0.372894354233743619 0.54681030972134370138 -0.00093966290414038144974 0.07363076791398920351 0.92513519365517804527 0.22282436575430253356 0.29980890562014422818 0.58188361064509686038 0.93576369102030798608;0.5965599489708677261 -0.47496565386544359333 -0.92272218214088763677 0.63431831199093591245 -1.3147319508500936447 0.10921833031852047624 -0.11035370887759857195 -0.88496262343696774355 0.28045935113258485538 -0.20476930734618797869 0.98527950245567230692 -0.29251279313862343923 0.84325309018430449903 0.79096063418993201033 0.84656940427429017149 -0.18276376558522683391 -0.62713156864459962403 0.33657239674620859082 -0.22174854695996504272 -0.7740538321307552927 -0.18597813495735687761 0.4648944160476107812 -0.96856917280123711045 -0.64907792551131693326 0.33802356859891508067 -1.1442752153068946885 -2.0213820248362921461 -0.45478037129842913133 0.38269583790977662607 0.3935704138658886464 0.097441890758061602829 0.87296750098980913091 -0.048205143549897820632 -0.32539512309660012512 -0.20819334289239926905 -0.85382085436601362627 0.44812012143707669054 -0.40093194834148965233 0.0080268749837893380028 -0.37288097176693862922 0.92162432776857283745 1.2556710969358606533 -0.8006159567092576701 0.85112410519866421588 0.33593519431451074331 -0.036685161909484016729 0.69712716522270379294 -0.74155053785824320833;-0.8600695252896342069 -0.99330722822873385169 0.75327227597153456617 -0.27377169917881660766 0.21170190434328686746 0.79292927762287979121 0.965671820756373811 -0.77181012424984940523 0.38174152066051769694 -0.55322888448312745879 0.56115316559442407485 0.50305591802690940995 -0.11833052667418185455 -1.9088862383159264091 0.16718362307673728662 0.60986917036609766818 0.87109474687094334833 -0.22893676243714497498 0.11498460458946034579 0.31637452036711977144 -0.74137346886433530546 -0.83908446441895012669 -0.095495970479390859809 0.60202441479958046511 -0.98360438931151716879 0.2818785544290429157 -0.78638906423147458824 -0.31285374307119673265 -0.69798831404588024263 -0.012070794043987590621 0.381818706077367509 -0.228661918760478311 0.62898142148432889531 0.98445873587082866063 -0.63117892651040385932 0.3713782851757016501 -0.91486375291459964831 -0.2333485193040478467 -0.84277444846607829643 -0.27634662733942511048 1.4648028668751391645 -0.68550039903953174925 0.7376551861660404219 0.60496899299162976149 -0.4991510672017444028 -1.2630041067190884707 -0.023887251503604024772 0.60838148518233181594;-0.68922665283336204123 -0.83064901421845782625 -0.57419157460588110542 1.1056257357950949327 -0.17010106594213256215 -0.41136124974554022504 -0.043257542615867485003 -0.28507839514700750172 0.60730822197192146916 -0.44680616608590723038 0.10447655265181780837 -0.80789323713572602781 1.1939664450006790553 1.1412787655507832252 -0.34257506721777220005 -0.33935927481415228968 0.4103016615263175848 0.069661269826421193252 0.68455983595029434863 -0.53808730211952482403 -0.51527785065517606178 0.46707486687221383415 0.56848353832954379161 -0.10559693748561611859 0.26563539833068283702 1.1605231989878268539 0.32125246129239798387 -0.61289079568668658471 1.0638378949812965502 0.70157234375098798118 0.21480124853845752875 1.0004508101879736603 0.38296991797521900969 -1.0672571324003650162 -1.0092635070342854675 0.759284089611872548 0.67193253304756450639 -0.6775029895390597412 -0.45675506291425305161 -0.45814824038337631507 -1.165886170312729897 0.37308300482581580049 -0.88012747389905887641 0.31768117499554771044 0.64715889064089382465 0.79210213344967794757 -0.0011297057547070953748 -0.075244498827598732538;0.0081691603229648562107 0.47635503253930289169 -0.38818658971898672982 -0.46409620903063208974 0.88230798256610154517 -0.88823055702764208696 0.64421570167266772877 0.003598745841379619604 -0.27951581930652408259 -0.90554376636922961907 0.89461562282076001473 -0.86160867235289984034 0.92246208382005911997 -1.3495172283735992202 0.3761926185577236792 -0.24426646502221244228 -0.68780620650647450454 -0.74480684850679501618 0.01550582141152007272 -0.20337337219705903246 0.1028688194443326126 0.797351856340131393 -0.32102141611731022097 0.34534682971786717642 -0.92756590630876123438 0.38617199865115958701 1.3225551394434120756 0.8838109932238037425 -0.19272334208986552362 0.33320893599476847369 0.52466776150496674536 -0.99852348120968259515 0.80219419634635935612 -0.1858238974511794428 -0.39590892098103247498 -0.26993985351467908451 -0.66434069116659244525 1.5308173177276800381 0.3898450609881471407 0.67797028577853279963 1.0228103481675903108 -0.14499350203714278518 -0.77944589232606531493 0.58134560306486926518 1.5283743421472830715 1.2618015507005249098 -0.2207286549380452767 -0.91864139923321874726;0.7179270003722647564 -0.68663200273388258488 0.81402621901801708315 -1.2433287091131703939 -1.248565640787518527 0.28357866193699193813 0.03176111007926256391 0.5713928242584862538 -0.0016390719311135549391 -0.94060700051089463081 0.29837440689097499691 1.2671554484316553957 0.1015947452480235047 1.0605113105644379257 0.015356826370653640229 -0.67378606449626443631 -0.98624240365313931012 -0.67556557783222270785 0.28543193153525725503 -0.022976200784950839145 0.73741337774402504479 -0.47573672842907710478 0.61215043877072294887 0.81715050793249000005 0.81158740699222209347 -0.12845743983076018946 0.42434491236659788171 -0.4002528122589836812 0.037976717056286350693 -0.88715043333865406527 0.21009416331174993187 -0.26208748044080282247 0.5103201998501568637 1.0905192208443055257 0.14428142021563100661 -0.51714887720774782576 0.19354556535436115428 -0.32491092340492283563 -0.19728223358505841967 -1.0079356464662050374 0.63014984112977068254 -0.55995569857611937614 -0.62918599120927509727 -1.4224620554684330731 -0.51528991884225583409 -0.40830206170520366715 0.15807743236101148843 -0.67589127185100383866;-0.36175059735582087983 -0.63561460723846641141 1.0664310882728169627 -0.17673564429937874132 0.77106808292154793705 0.13343354133758408842 -0.030317851612992517685 0.47201789768361696042 -0.72428398852231545835 -0.84831147488754177211 0.93944120187107493791 0.70361696149538899281 -0.53970313260234781261 -0.26109036731719348357 -0.72298513801956976188 0.54947294982940497743 -0.56522818689366782774 -0.47536911884136512363 -0.44369739326029083992 -0.80809346936530157546 -0.24695976199540670137 -0.74119264397192941018 0.11304238670320972127 -0.84489271663990361816 -0.6601981687212220562 0.4706557580671344998 0.6947717621157081247 -1.1345783398433415545 -0.71518253872492576484 -0.67318271487171388312 -0.14265186528620618645 -0.37065059937051075822 0.56415029284667739251 -0.27533112570676343545 -0.0068083858718505536889 -1.8515826480462020953 0.10086558730910917536 -1.4069465747031062453 -0.40750473541865983584 0.65329669993176109344 1.2024863587930358921 1.0271162507959989973 0.62679641928389140393 -1.1072736577116766288 -0.020507091910827283249 0.89169613954319393301 -0.99051252755082630497 0.12388047917847856694;0.53930416444839179846 -0.036169368362961459851 1.2960834212452256864 -1.3553205597391124737 -0.80095330838696743303 -0.011734265753235278637 -0.98473355360780467915 0.78252036244589018299 -0.023833334282655441877 0.058743930139580687044 0.78968319021288368997 -0.0042318502312695032222 -0.81527834898021733778 0.13141915515368576828 1.1153230769627782148 1.141953487824335145 -0.64367269921693737178 0.43263193414132061765 -0.45617487181472843316 -0.047908851163615782942 0.53446570380196134487 0.68737883137194688565 -0.82895909144479296149 0.24804656998661200884 0.45397166533083410656 0.49520377102860146934 0.78508009601667805288 -0.54269348116360049961 -0.076917080279732652492 0.74302100238826973566 -0.64760423762011543047 -0.31887273611526117945 -0.38852621585553159811 0.43544794502881567499 0.54177931412699520397 -0.54530452318154531977 -1.0185031409140616887 1.1616710926302660223 -0.66678934793063970865 -0.56242316690727167661 -0.40843100943771259992 -1.0025301865547096014 -0.36145824826501460336 -1.1081140388336911951 -1.5924900018116985301 0.78630559147797496333 0.51438859808699599618 0.50079797672094972238];
  
  % ===== SIMULATION ========
  
  % Dimensions
  Q = size(x1,2); % samples
  
  % Input 1
  xp1 = mapminmax_apply(x1,x1_step1_gain,x1_step1_xoffset,x1_step1_ymin);
  
  % Layer 1
  a1 = tansig_apply(repmat(b1,1,Q) + IW1_1*xp1);
  
  % Layer 2
  a2 = softmax_apply(repmat(b2,1,Q) + LW2_1*a1);
  
  % Output 1
  y1 = a2;
end

% ===== MODULE FUNCTIONS ========

% Map Minimum and Maximum Input Processing Function
function y = mapminmax_apply(x,settings_gain,settings_xoffset,settings_ymin)
  y = bsxfun(@minus,x,settings_xoffset);
  y = bsxfun(@times,y,settings_gain);
  y = bsxfun(@plus,y,settings_ymin);
end

% Competitive Soft Transfer Function
function a = softmax_apply(n)
  nmax = max(n,[],1);
  n = bsxfun(@minus,n,nmax);
  numer = exp(n);
  denom = sum(numer,1); 
  denom(denom == 0) = 1;
  a = bsxfun(@rdivide,numer,denom);
end

% Sigmoid Symmetric Transfer Function
function a = tansig_apply(n)
  a = 2 ./ (1 + exp(-2*n)) - 1;
end
