function [y1] = myNeuralNetworkFunction_test(x1)
%MYNEURALNETWORKFUNCTION neural network simulation function.
%
% Generated by Neural Network Toolbox function genFunction, 16-Nov-2015 00:42:06.
% 
% [y1] = myNeuralNetworkFunction(x1) takes these arguments:
%   x = 64xQ matrix, input #1
% and returns:
%   y = 11xQ matrix, output #1
% where Q is the number of samples.

%#ok<*RPMT0>

  % ===== NEURAL NETWORK CONSTANTS =====
  
  % Input 1
  x1_step1_xoffset = [0.000153503734577873;0.000172600328448246;1.20137661873645e-05;0.000125194761211002;0.000284272091508582;6.2017824313508e-05;0.000128533386492556;9.68707776499976e-05;3.96925340606327e-05;3.5449179282986e-05;0.000146229726379959;9.21590646101639e-05;7.3095124986159e-05;0.000110297554152702;6.07808091539551e-05;3.8964228960831e-05;2.25086175673108e-05;5.46311305298268e-05;9.28426009513306e-05;5.78995047591135e-05;5.5549286059733e-05;2.48133437535683e-05;3.27827761611506e-05;4.40822447833654e-05;4.24979409336797e-05;4.34381385989725e-05;0.000110742506971088;5.52432676000089e-05;5.49751608937879e-05;4.28456979507339e-05;4.41972642850545e-05;1.18473593660152e-05;0.0124385982783796;0.0205528149314229;0.00600563760974162;0.0067440193615253;0.00050589458682787;0.000794791860394587;0.000530865074223249;0.00197023234795006;0.000977622290910897;0.000508797143753669;0.00168000399317546;0.000288645218793307;0.00101264915527215;0.000328407887310373;0.000664281139420952;0.000596063180650223;0.000592691458278741;0.00029882920143586;0.000184186555449189;0.000650717151745482;0.000119744331305666;0.000346229387477205;7.07994080592383e-05;0.000195962853842474;0.000312298190265754;0.000188013634641061;0.00014488540322984;0.000256548159045668;0.000120999638700236;0.000160391451007012;0.000116343154102861;0.000103723170723952];
  x1_step1_gain = [281.47833257059;437.571717361648;387.869147453225;446.727083061079;1093.82051641405;329.286768506467;889.348838727208;1155.71882988958;923.695713457376;762.989299150143;821.294672887658;561.041312992752;727.051145308627;1031.61847995451;1115.22848417417;574.880226056775;905.786140755881;905.287374200554;994.024326809357;692.828716447332;1582.69626865367;1370.37982555871;936.04777271013;1657.07714372741;1495.31505943707;773.222159784651;968.896436784801;1053.70762049263;1117.38941031518;881.426710123245;1148.22702104095;1907.73529286053;12.3269201081374;6.22800677096995;10.0046172706021;11.2552787129003;12.9158660182236;15.3834028218391;21.9860728396947;16.5797783788868;23.9603282534301;37.5402560367296;16.0049271164753;92.0614446996202;36.7561966018745;113.078357358838;113.078775421357;66.866768540537;192.578105009847;193.178414029203;251.382874774933;174.63605405993;243.967021530953;182.757356116464;268.503035334223;312.093619256817;291.901879312199;324.101885044603;543.228837635655;289.321653680638;523.163132108896;163.174125436186;374.516669920549;257.441243473337];
  x1_step1_ymin = -1;
  
  % Layer 1
  b1 = [-1.3692891705054466289;1.5402493558283925079;1.2053776308811885443;1.262661216898436134;1.2336788597605077289;-1.2426268520069592149;1.1801072825934455501;-0.83789161302013059895;-0.92318789874256956818;0.75849099259393970573;-0.86257846990354813954;-0.76388850247247430669;-1.0847086523471378694;0.85612347038950931122;-0.39643031079520213433;0.86328778893513979931;-0.13554348205660077253;0.4159547785656146357;0.52000598323987579086;-0.36123899742970794202;0.10337280706842802425;0.078663101534828666628;-0.2042415486543928127;0.22989417959713337458;-0.02015938591366551319;0.18662895420752365072;-0.094742287094016858218;-0.1263340904343624449;-0.13700952086455747692;0.42215304729872499268;0.44240567689022813891;-0.49769603515145072192;-0.56511070283580733253;-0.57525966099949865651;-0.71134021995218799095;-0.64508496603387277535;1.1803650248852040061;-0.43740211743504281428;0.94748190944802523905;0.98775834809312124118;0.80635953586808351012;1.0493162522727561559;-1.2411433245737431008;-1.1229883499418871207;-1.3430956699551164224;1.3119701037253423959;-1.473907214237655694;1.4989946470799682121];
  IW1_1 = [0.28403981716628445842 0.3097146517901258056 0.13742037307418611403 0.12646863670908065069 -0.27201861231312107758 0.22668527692295473153 0.36562181483613337418 0.096407236664698595097 -0.30003684521714352185 0.18522010615589346028 -0.31388491724102868252 0.073045872327509281385 -0.16135420606708381075 -0.13783844671843389906 0.3091089214359725168 0.1958065435005098831 0.36494918996319442028 0.12710361963817531916 0.25206794087529921233 -0.14710709938255517315 0.11866346241023145724 0.35058880492011817998 -0.13607531216145918318 -0.27017464458360518353 -0.1094299576413572811 -0.1017591087946131817 0.25138265260959258285 -0.10565612221557854622 -0.26837530788457925057 0.066040119985889197962 0.14227548986990110058 0.054808185948390070186 -0.25389294836088610596 0.29847370579331899965 -0.018259967478128236867 0.24614931054572819491 0.059002064333895827553 -0.2080345523938889607 0.16694050742453986347 -0.2009828441236331531 0.25321569711835778538 -0.21632411610735594043 -0.097232462385355891699 0.16869278823065783635 0.043680204126408911369 -0.18074338602269932053 0.12291415794881030421 0.069283331651334420509 -0.058884197391890921724 -0.035702286120176292272 -0.13224369533606644689 0.24584110089299363033 0.34863688396117431534 0.18383870648252106927 0.060526734328176956534 0.11721771483010046122 -0.099178613514097124781 -0.11239874342869420054 -0.25505793213333238789 0.22548028961906871337 0.12515744746364929063 -0.16633825221386552839 0.16186517037317499357 -0.21419917343528996345;-0.28220848199519110722 0.040161843522093343406 0.064348078735589966937 -0.2893018989718647016 0.046224976900530567736 0.05061008044538102546 -0.18335775837343232242 -0.13838081615385108836 -0.30018910119982744611 0.34924106227457207829 0.17138438185116802726 0.044229508024970463909 0.30347608438232270833 -0.14202191407946848645 0.1941494785904837872 -0.17739593952533289078 0.45842256967443739679 0.039879220465551548647 0.56706141215537142486 -0.01336968467193202538 0.40605419614307153298 0.26437290468188506809 0.62329127031388842362 -0.26082286640339341632 0.055853170672925479823 0.45709254184673364652 -0.039939686890928860485 0.18571885054871159482 0.12056713237064860256 -0.097706753471251475696 0.15040934076509271389 -0.10387741699863253797 -0.27419014531336532992 -0.14007021465264640758 -0.62802817938826804856 -0.30126855338881913804 -0.1621302655844851226 -0.11865149792008133911 0.22505428928747894801 0.027205389983024106521 0.13186567780321301058 0.01028719058414862518 -0.2148275365992199093 -0.11303927741778799221 0.051596722180883694553 -0.31027438441228227806 0.20044950080254639313 -0.29636641561767979036 -0.65986382203981308603 0.32730020422406186364 0.015447754784886986307 0.30702792831291048081 -0.2275683262715703925 0.0058466085909344364668 -0.012484438005289812471 -0.34873621604054139134 0.47942261553327458756 0.62475713659662290844 0.22466210956592100323 -0.094278333654639251415 0.31847706179155682582 -0.2383866200105256572 -0.21447834258885242753 -0.09302429609112801423;0.093727536998412255831 0.25102883354762278723 -0.16897675259088096311 -0.028321834781678229681 0.33593563407455423464 -0.08430658444314334532 0.13440358495552581775 -0.041933991458835535859 0.08171686708268421917 0.11128821891343290695 -0.32110107333969750698 0.27221516764139119804 -0.087706058861661148618 -0.24547096834538495447 0.38417732166122231519 0.29203782466596789336 -0.12075371725150271796 -0.40767586000942868107 0.25669825452237182706 -0.18107653205817519915 -0.0023360486423464566982 0.23594662308606839662 0.71759823107125386699 0.15443415773472099484 0.33959017711486710889 0.23745705356952323539 0.31759632296817619235 0.15791409458614544259 0.27953666407603505739 -0.11899743449254536476 0.27291302522879740122 0.046195342725397839367 -0.75133529091837025771 -0.45975173486063936057 -0.10063838600960053893 0.19767104156607309684 0.19500908572833131061 -0.47305750438991772677 0.28701610986246561819 -0.32916186172398231857 0.18740224911949387998 -0.25851834206440110764 -0.10439576855830913493 -0.14167727438363963977 -0.063459561511911302678 -0.40178810522477031997 -0.084778466895144066751 -0.033068830538679247488 -0.097003978422732034526 0.17047156797610354961 0.43810922701354865216 0.2345375758318092585 -0.2526724808251958887 -0.20090547687222568007 -0.20921361061060975151 -0.41409319979469000339 -0.058847194845621210446 0.2563566239244663425 0.15841473527370891761 -0.30383365139685358791 0.2841108304465227441 -0.17751443326921892418 0.60797657134061167117 0.36135243098783592641;-0.060207703140117918572 -0.024648775732896834739 0.010062758982361162674 0.26463969827059680151 0.073914353351370684631 0.07245464059761094755 0.15559974431746234624 0.011618913653652848672 -0.20010599131496220604 -0.033352429105683631394 -0.042415672249520690318 0.24588015868619311766 0.55623909767117574177 0.62362488887011824357 -0.083566724792565175162 0.10889278591649038941 -0.66156059930699717686 0.40463178355649576101 -0.13742177020477938654 0.12872961452688805317 0.14546447725829778075 -0.10423016195643398929 0.17249585386413454624 0.1036788326339582178 -0.2166181206544313953 -0.1191698584023284796 0.49036204804539756941 0.24599092534399852328 0.40676270210219001022 0.19922659983662585614 -0.14884409485232069636 0.36130761782378728597 -0.064677886696964975721 -0.058231362553787892333 -0.21237896239483572414 -0.27852440951057810814 0.61432368942217940866 -0.38650473117072736695 -0.21412165616599246332 0.12513871094753462043 0.20423508146520852335 -0.17820965691292439681 0.25113649513327696017 0.31685603920261723454 0.17041312976858319361 -0.14214179342045429877 -0.097168960786910452132 0.088332872955497812595 -0.29929122242920630503 -0.47306295348493920816 -0.60564989416637271535 -0.20132749380118597493 -0.059441181642591434109 -0.1161082960840185696 -0.080953377122585656878 0.094608623242898301497 0.20265319902829428966 -0.16998914918102422944 0.24612952936623166966 0.18331031108292225595 0.035153137020060398754 0.16367516870862219847 -0.36763108902210311912 -0.38718458449382536779;-0.15677111637064142236 0.24269179035557703061 -0.28614399700043235963 0.15118965308650972323 -0.27365262721974026316 0.19284602950020890422 -0.21473044533071500295 -0.28678502583052239983 0.23985692457650309439 -0.27301078338949452684 0.081379355077719109368 0.054391980327733784051 -0.094204876951487229175 -0.090553105541068781847 -0.1712340980317687833 -0.11832488046011778449 -0.13803708807460865482 -0.044346892890470196447 -0.23813723067668635114 0.0081608132436725780434 -0.1212150509521018743 0.087784919394018487426 0.073796579680022469927 -0.094351459366671192042 -0.1468113862616341192 0.17107768172322174172 0.31557559650749411606 0.2720299940065471489 -0.28774707552332484672 0.12288826984849182677 -0.1706424295077934028 0.11656430030880782223 0.094116779835300798385 0.16887234181948845846 0.33450243209638863551 -0.10608357408875060401 0.098977274780153903788 -0.14318847965270681266 -0.18037912529649333115 -0.20470531808273451091 -0.28404215692565548679 0.21288097869936653539 -0.2672607062238374076 0.0034329314918291062644 -0.034041429926549730822 -0.010091900781179814414 -0.092932116848640722306 -0.084256084084664478739 -0.28164796143337794687 0.0039957558278942151286 -0.39262770685423575845 -0.027533171504465981522 -0.056952992698265848814 -0.012791361026710437038 0.21741673264146002542 -0.22257343895267658884 -0.065050432341923161705 -0.38859108546067400169 -0.13450775767181472053 -0.29597184275608950932 0.29482999350944077976 0.20140887283957700782 -0.097426020487546116655 -0.20687262523699045946;0.35885329687416867017 0.15572381306275956403 0.073320450041423193555 -0.017060653367740229169 -0.25130677609888130153 0.05888472740876603273 -0.19383284743513279347 -0.23145441743279335234 0.072103277326232756428 -0.16873492723815458616 0.31095966999430590949 0.040648236751353240825 -0.1653900623152590732 0.18460190993355893307 -0.14730930874689190935 0.051124194175547386931 0.2172941042177992943 -0.094681629048063931098 0.0031086443893736620363 0.29728994233676558911 -0.1069232762088857952 0.20033796174004217527 -0.27183064729578371166 -0.1312069309256431171 -0.33891499039723527176 0.044188879213899960596 0.31455594333902031634 -0.13594735889550532693 0.068108089624167492127 0.28047243569478957914 -0.028816804583038094917 -0.026402100861489093131 -0.16037201375240897616 -0.060206928265230531816 -0.18238660714045534794 -0.27266474980631538738 -0.24941176486070001928 0.31849195317237771752 -0.053137440808199966347 0.0059570145293540033987 -0.082786295620265945572 0.29371903023253176368 -0.11530234473649256244 -0.22827705022676575419 -0.23279962097800710463 0.018021634486631570027 -0.086832653581947319421 0.4052249656782358489 0.085381843302702764564 0.096176316785111307106 0.026364087559130347516 -0.14995977308115610027 0.15153599162711639536 0.35849620756983874292 -0.14854134442895278179 0.18601120656649100527 0.13807853568660974353 -0.0043858142882051412079 -0.14052921590047545708 0.13886333595096297944 0.0072857909894761966121 -0.11207871282289516568 0.15857221221378545173 0.19965696725426360092;-0.24023922957925780697 0.18242412515101713577 0.1757054839061583662 -0.089074812768963118614 -0.14798401784165102213 0.01760039791728526537 0.28332184764010448497 0.46937477255123760678 0.31455242154453494363 -0.14072710181933106854 -0.24938324886340437758 -0.057029686749592273243 0.19592092619784462482 -0.21678566524775760849 0.2405348180939195224 0.052512356331442494595 -0.070955697586307195368 -0.20377834272666012216 -0.10371546532165595855 0.13640312663447323738 0.20366015699794770555 -0.27962550833536076178 -0.11014193050033363463 0.045525379179381771089 0.068248259941291425368 0.20279227324191523296 -0.072178717485851653923 0.0061754968341710004404 0.1709600663543581478 -0.019396029428485513091 -0.098416561241548530803 -0.048937273073439042925 -0.15910520832299590577 -0.25050663078616086654 0.19695975700876930392 -0.18985891879751776168 0.2075037780189959713 0.044608127725206628278 0.29345186722649191369 -0.1117355096296095418 -0.051366075525855814377 -0.11288485659167986352 0.17324079716271670315 -0.261894956994256356 0.22887320393860099976 -0.39785500945847562804 0.32406407521908242586 0.1548999383273709507 -0.11656874675275766262 -0.1674639302458111878 0.10614148779365499553 -0.23563037208928028221 0.16425956462587851248 0.054613562227742419586 0.31918500344772626764 0.17528889201975586531 -0.048691129512774496135 -0.22470734596861349774 -0.16268172619608139984 0.038050641570303481154 0.30353789752259696666 0.14386078107475402943 0.23066041954733662589 0.0051220662583546603536;-0.054510678938191919896 -0.0065517613935709168721 0.15307362444058950079 -0.21887008800333054848 0.11872018021858253556 -0.14389596525685013906 0.31120225107714188928 0.40070287305326401928 -0.18193950796520572122 0.052567783264735580551 -0.19376478125112547857 0.090762516436254020435 -0.14476632497864708182 -0.031460877675937401476 0.18694733647777081464 0.16129118934131861374 0.31777333397396428927 0.2977919998727643347 0.19908277854428546583 -0.034556932464546719075 -0.11560442596332373699 0.21003800726858642967 0.23291793902395310778 0.23149064228446217251 0.054417591695541785157 -0.21070952775153625747 -0.071677635003725592711 0.15371029900361618536 -0.22636014282414887444 0.25708366239410229692 0.081674991264821056314 -0.31841808766406826114 0.23225670646261253882 -0.36804917352427529709 -0.082742680304916979561 -0.051799801920647571551 0.0011823928157723446325 -0.10639505205319690906 -0.36529933371884815152 -0.17692187860079022776 -0.018763798396399203328 0.36464443007317431933 -0.25564821368176809946 -0.3758322893373696183 0.030528037424713518749 -0.186909948209627641 -0.098995403408865187411 -0.36912286253028059324 0.28234815399604334951 0.18988561396001593651 0.083536050897877883736 0.31676683603216593266 0.20473334499843989787 0.036448135354597135938 -0.03905258440241653195 -0.2599278054683012984 -0.228045351507785099 0.10596118380214417098 0.16269155411883312601 0.22566017945995400784 -0.35279369001233651382 -0.31690077771677821472 -0.21375570515109026948 -0.015785235109504830442;0.14902736728622850704 0.36252039103606037429 -0.032792716107785113699 0.10377996265022121358 -0.030565527148417884207 -0.13268061291098506849 0.25969484007254256541 0.011610900848921131695 0.070667656479379045709 -0.23915168531239691663 0.045830375464964205612 0.039878100611460215452 0.12825757771058596268 0.12045601339852680944 -0.25891716753885574143 -0.053444570857056686308 0.34957559108816566029 0.097066203546045462525 0.018978026414531508348 0.35718326184199122864 -0.25753584091902059772 0.2117464519323046801 0.24721540686951185006 -0.24486816524081064794 0.29883922413659247397 -0.085535004215444299103 -0.14202660900361258056 0.11884870400734037776 0.10868921173066549424 0.083543689191865722066 -0.11012856589953205766 -0.33468604060761747432 0.20479642288053695465 -0.019810347989138572117 -0.20621339133097510432 -0.067174207873416172387 -0.29983764389904560277 0.012381948690158007392 -0.073587604167455203386 -0.088285771492108394698 0.24770184192564687065 0.016794314497687968385 0.42146205380506929217 -0.14470927682465251074 0.25571369009328942523 0.016539296659842359777 0.05159530398358795622 0.24083259666527370713 -0.12803478859952743818 -0.0074361468441076390701 0.20507509030914250481 -0.065506195656147001016 0.14453083737097702222 0.40135388809538768973 -0.17878117763567516474 -0.074544142213292072241 -0.28636225440827944855 0.39843600093207715007 0.079865209241140919239 0.2477286434679686622 0.096363064695982589281 0.41681669124639925128 0.17657923553606955092 0.021283735121535675427;0.050561942836391773892 -0.25512950317798976929 -0.16710510494220018329 0.12767983999578133569 -0.3182849919307729758 0.23291614320227674306 -0.033572708386377235479 0.0082613604975713978568 0.14153235596530786 0.12070518115830204675 2.4922721755927731979e-05 0.12642099413717397538 -0.12281730674187729679 -0.062733644909538657797 -0.22981531421687059757 -0.20237693476809406889 0.39781970316723608283 -0.33562676464365098772 0.26063878331409312539 -0.16611269324972463557 0.33671062287729158768 -0.20767159281478425603 0.20847870797652598429 -0.26533434224765006793 0.1085339928972968021 0.23005132535597042076 -0.043215053430579110361 0.34596297440621309738 -0.27713611933523313313 -0.099057594329324233362 -0.38027400108432879433 0.19595046554988607146 0.32057814285828872825 0.30914958939312164876 0.062454492621063145696 0.25234541360217244144 -0.33321842219836622645 0.36671702802036321156 0.16268699090975569099 0.17804911425693231708 -0.011415057252770199892 0.19932474765576266296 0.16167234314288136954 0.75407709613999429621 0.19644869918401544617 0.820832727107579041 0.02772961674686248712 -0.12602515452898671588 -0.48686125847260008914 0.43232306843238754723 0.24733383512974407847 -0.016312726770681136579 -0.40198321326104485829 -0.17846700630212755656 -0.062091622044729954943 -0.67125368506560001425 0.33611546796905417134 0.38358810492641021161 -0.15734328898837043886 -0.089810046297904622126 0.33239211120316319859 0.21931201650267781456 0.60629367492177044241 -0.18677924630638745307;0.24176567981399668672 -0.27995055537076973806 -0.0015170479215183927269 0.33088565376615020064 -0.20429911555515553601 -0.030177764174258010083 -0.15187084266037226277 -0.073714172929883386987 0.33214929591193731451 -0.22323097839126526676 -0.093973305209704011132 0.39558996193696416288 0.035243771688050075375 0.2000407540005221807 -0.33641464656011776935 -0.18051411255017094093 0.035808456918503386857 -0.41932348803049507291 -0.051710763936078200931 0.11990392603878519129 -0.11951651450164746393 -0.15234337776197323655 -0.25662040032900435005 -0.06438116952450424757 0.10202603745255127421 -0.20330647933276260741 0.18375596355390180769 0.086156578864338959067 0.27691966265297368599 0.37873708672738437553 -0.091600257746223864852 0.29286487467224769921 -0.31876164767824449742 -0.19592298190022472415 0.18292378336090694968 -0.27063849492286945475 -0.045023822475789107567 0.059143229784965847817 0.25629385085148975731 -0.2893832791172078478 -0.18601819228129504169 -0.081610568558036430953 -0.36705648888291958487 -0.25984213404482670029 -0.19134057508213128673 -0.043238710819979084277 0.072652192392502590312 0.034095012593544977986 -0.13936923122168146105 0.10502230968540306189 0.42242486956346386728 0.19055349371805940795 0.069534987925052776925 -0.12888832786856577184 -0.22388255452677374713 -0.44517162692025019632 0.018216140354069779161 -0.26740189850477530387 0.1260896411896046676 -0.18107290273817797099 0.2086520259320372439 -0.33104803964691958962 -0.041980370231677700821 0.18185900559246562236;0.039035062785397194041 -0.19128195720674426306 -0.22072158357411683638 0.08567600076396560127 -0.5813239428775905937 0.055161429804363469598 -0.16034851582425621586 0.38576043239080148872 -0.65961066957180924941 -0.34134631955820088356 0.18178010180577477972 -0.0043104568461469032481 -0.35918235626539696259 0.16113658049987494847 -0.80745382178041580357 0.09107551578476939802 0.21450229841992118907 0.22744673709870980027 -0.11837017064340432659 -0.096165198541049490277 0.3265360867174934012 -0.094938826460885278324 0.072443446878375603037 0.25311135301424875221 -0.52430636867296509518 0.35321599111776941227 0.48872747788752474163 -0.097757706269548216849 -0.12410817189902241531 -0.30392969490692162138 -0.14045762164648056824 0.49234924176571903676 0.82674641542902094216 -0.28442731750480659825 0.24209021172972200464 -0.4710090062040616643 -0.065443513591877722213 -0.085632932849570991829 0.35829663158413388446 -0.056048547634805198636 0.23136570128750974518 -0.15323119000154389324 -0.074293126406792170391 -0.27794696346324776481 0.026306879099875547096 -0.06426205676725715854 -0.0019880618527230954282 0.12715413875122663634 -0.30741328541059786961 -0.21826640720742226942 -0.80744567135298839222 0.038219358204100085941 0.12766137084911605148 -0.099148181925994616215 0.82068208047712731812 -0.076317998984950452535 0.3330021584636100318 -0.59889581197527197443 0.43956340900980012121 0.52090250653322145435 0.31156487687441886125 -0.33194393220083473484 -0.5616765875790810103 -0.051177784147837003526;0.11655587268330240558 -0.089048534553943056724 -0.0083308114916494421104 0.18418534475192879785 0.17077762093758019901 0.061911093447420947888 0.50374150380404880689 -0.037887500544173884076 0.042980623238849616219 0.75048754718483412507 -0.36795141565682781826 -0.20996754768998893148 0.47152427718558342917 0.068511117919768355078 0.25038232563978918277 -0.0051609052211060331417 -0.033526838324570436278 -0.19840459004837396328 -0.093689197100566418142 -0.15288088377345082636 -0.076531247110222341834 0.13209766999158270573 0.19195991859416511316 0.37707090738293913557 0.26121388221943653285 -0.43355109228294841373 0.089737000980714465292 0.012981508094060005554 -0.27197648783608502354 0.34922105648315732163 -0.078574358635100954862 -0.13953531181726966381 -0.56282222940271420253 0.30912929735404520715 0.018469261883385646589 0.31290956673712555514 0.22986057409831553433 -1.0687232765953571523 -0.13582506762515969556 -0.086357546778813257249 0.28914847033987089997 -0.12245723968226099321 -0.043138321662681937407 0.39299473442292981451 -0.11145582656454308679 0.051706142737962680622 -0.51157623617090330903 0.13101558676493449407 0.34390419802266319893 0.78884870512199434245 -0.07385661659145577318 0.14353674261571977566 -0.099549324312886405819 -0.38622199246518423843 -0.66337680985027291936 -0.22079665742349627311 -0.17536613232376954685 -0.28334152137623330736 -0.022731931354691453651 -0.28250720184384459088 -0.14238247604195117257 -0.23970092890446750844 0.15362437066175563261 -0.084656602781387063628;-0.19819772006210889526 -0.14822535537136266592 -0.28545874702375351184 -0.31084583206563209945 -0.35751324176925186604 0.015487211039253013026 -0.053385184518857611846 0.25243008197910765666 0.053064207904038769581 0.25967225307071456486 -0.24974130912575451258 -0.26886796732934448162 0.024007744040804746 -0.42437574797478971877 -0.28255039094615008732 -0.051196265751142625011 0.29072735027386109596 0.1596559017923507573 -0.20799758480666369342 0.14602830122341742269 -0.16565599106872516688 0.031091816546785118469 -0.019298589229373903225 0.098184816413109263222 -0.18585633369053516928 -0.23157909558595254906 -0.41545388129741439576 -0.023974475318082489467 -0.21344948276989222924 -0.30685639848663393003 0.075080086715707317069 -0.1438960012710897296 -0.23524382975376950666 0.22985813709594465903 -0.26885297979925842915 0.10887335619829127675 -0.062321717388147089556 0.13515826394155788792 -0.015201856820944681728 0.14678415599505720279 -0.075994778759600215001 0.18483320278638068479 0.12863824788888941764 -0.084868659352093742121 -0.33699761770134695205 0.089385236318232641484 0.16465947137860983962 -0.038734670862548337134 -0.28625357608936308207 -0.31165624840217820424 -0.22258423689733952688 -0.25497015662311789397 0.044100523587528105141 0.091821398751522953496 -0.04987383386510207961 -0.2178533790516866131 0.10705047504023267047 -0.048832396227398752742 0.17967623505267782402 0.19578691157335681439 -0.32750189175096766636 0.22703621049070496496 -0.26148082070795863885 -0.17719515686105777319;0.10678995300883992181 0.22486077321911873694 -0.086682195053239069482 0.15416423660268549489 -0.17205960310133794344 -0.26997629139115186803 -0.059195227679860400183 -0.1243181026007263712 -0.17907110246517204954 0.090209997054154708596 -0.29971222131410302225 -0.21556216957690582658 0.13820778082479856508 -0.573141429092486554 0.11777463843234828311 -0.39334862864525887982 0.25649724292407050097 -0.15159053193433141837 0.034708327707187631994 -0.024940556876767043526 -0.10991718457753811566 -0.38921108979831664509 -0.18998271794491786157 -0.32593336817171203457 0.063469627541110115732 -0.099377963301192098755 -0.17276653459606119978 -0.23082016422248366472 -0.13245859392487555062 -0.46383021356366244126 0.10791016946995790615 -0.11105313345085483789 0.27240612635103544914 0.37489359848561737421 -0.024558599520340521072 0.16183617513238071628 -0.026885993456948923536 0.22110371818664978361 0.11856063872179671559 -0.0029319005914692575568 -0.10873801608809062491 0.062264912940261908647 -0.13867860921684868614 -0.2396925851208941971 0.17852819202062952808 -0.10340082578742444686 -0.40096944251570332263 0.15143256503895966003 -0.16248286477685872087 -0.2385369811697601039 0.028255198028590011033 -0.011401388916404561757 -0.23857297670890317831 0.0065817308812372733035 -0.20648537271958411488 -0.077824467694869906009 0.18573021691582011772 -0.15498257883048363603 0.3991242073960205583 0.076916086926733753804 0.25884877156981411783 -0.26437544340440621848 0.21580383861459914718 0.096319194735649066308;-0.18431259266341654124 0.13214338297480077156 0.081349240850321996588 0.40212288655676009519 0.089883870202426691121 -0.045279935441820254316 0.23819178040852306832 0.27192715488576246763 0.78592935984565392982 -0.31604971368060885695 0.10595007033356051984 0.0047129544231536129456 0.3609986712086445948 -0.018988330355615090639 -0.31327954929954804353 -0.075931597160365349453 -0.048025344368975916853 0.0099996764028786790796 -0.057600311409201646051 -0.1806112448892734923 -0.12845111942399936589 0.033470387318002454979 0.047260730525155239534 0.038409361822110014983 0.034282605712352268168 -0.22207889707096956089 -0.14408366793154187002 -0.082153158843233320408 0.3402658830766197573 0.11778883158590816582 0.13885082166675166704 0.30050115813260519504 0.19300135358842265831 0.16007311044927896582 -0.5713914535966425623 -0.25262653596306505754 0.26155410779816151701 0.31809161166219640515 0.070365835460524633893 -0.15080617768645920851 -0.1844253607497335079 0.28248574451866437229 0.35341257531582159768 -0.2073363368108760707 0.054412746611406097308 -0.39394568335029206407 0.057424923402858145394 0.28286971126018989331 0.13843350120215480725 -0.18504809162998922534 0.075949171205158774733 -0.012702519539576396373 -0.18610040310360792537 -0.25479461975360967463 -0.27025327421215938895 0.2690761921941559609 0.12355252289424269174 -0.19490203953781870538 0.59794519798121315013 -0.21676223100456354365 -0.15044279025886314605 -0.11171818858398320506 0.0045309367763635916351 0.18987245841740382768;0.087085693657882781715 -0.054008281900548141263 0.19819769653046490077 0.45282311316538509383 -0.28199179392916584597 0.28191013274316600867 0.24309089151182816657 0.85415384629757218349 -0.90242887535799576337 0.45256100008205790708 -0.40344836152159874176 -0.061149340241817222441 -0.209226072712972333 -0.13225615122305373061 -0.0095784085583048954315 -0.44312170683868229437 0.069193999011809226296 0.10104697021902588061 -0.18679549923215102436 0.20190907219889475677 0.1483278738119029605 -0.12098878506750539163 -0.48462157881979117668 0.28670421979627103148 0.12044064529512041317 -0.14977043804316392261 0.27089520580736059507 0.25587619385328819188 0.17757344939398606032 -0.21205720918025067201 0.011976462897242594677 0.40773939347454629667 0.56363563452588083535 -0.12016734463827807855 -0.43247326732375324099 0.53011647701542707889 0.32086285491175142726 0.29964384772679353297 -0.077030200050331412709 -0.31101399495594078681 -0.17069786989326360405 0.20937130309463405919 0.14525648160751153393 -0.040394741607610466783 0.0075202545755138870687 -0.25033950612417016357 -0.20293178878436848867 0.075004250379759065948 0.38504052533144045301 0.1240606008180337172 0.62460136034389901472 -0.21371607491957203551 0.17881501760276979907 -0.030309630570093396701 -0.14054619951351282614 0.0063949429335559788631 -0.040080989407401713953 0.1932269102064330113 0.40980479792102464387 0.18571719643446149561 0.0037191842735532472733 0.34232957882358866497 0.011118372352116540416 -0.086448588965046438415;-0.0077951197816605848762 -0.023334487888646053555 -0.046175187101538527068 -0.033023382168460235775 -0.13334011793914743449 0.1713261924869362296 0.1959622768111389246 -0.34561701810910905319 0.53070995263051667923 0.051821619176093167147 0.33010015456830310576 0.34218656876040931536 0.18445342226839400723 -0.15765292516208764817 -0.012366867725267618669 0.015427282698609559586 0.17111184012392913201 -0.50951364148564692869 -0.17340591451625927966 -0.091432814884763236041 -0.048693942684445788716 0.18334120535764078519 0.40049161397674643004 -0.59659365170967026959 0.063410167666461847435 0.42979378950973978757 -0.19661884009330951595 -0.36693827394232159111 0.3013263641735092202 0.11160932141768319104 0.13933829159490718208 -0.21425424260525999243 -0.24863076743731721274 -0.58020724080950103474 -0.1596615515977039268 0.14617341032158687186 -0.0078179866473159914664 -0.084214645156186457298 -0.059022669947622410924 0.14115769896948293649 -0.14210384702132533574 0.089847765669290716173 0.26701500147762302628 -0.069636048539450934314 -0.0039233696838360679685 -0.19646163427416579728 0.035677950202899953724 0.0017887349605904458855 -0.21217487988347377703 -0.37789225353870559143 0.13818703449647212755 0.5703877410784190527 0.037186150562269024156 -0.074894525759416630262 -0.50656061091598425516 -0.50936554583342064095 -0.049238813744213315304 0.089277613425577898032 0.13648265458653072169 -0.29705617107058307491 0.25644537968487068902 -0.27335113243583081255 -0.11335800892869997425 0.45183055440798358671;-0.29556105002059429587 0.20395553498996787933 0.039848137715892260891 0.33778532520311327358 0.066664415715309302546 0.16657229077028060105 -0.17808501904469103971 0.4441343584845411363 -0.35337068281979672202 0.17663350738178174026 -0.26618654719306489298 -0.13172468135595777339 -0.21322663530429306067 -0.16367212592682547911 0.17993215665238196377 -0.35975754617644700728 0.046335311096761151728 0.030795769157735308069 -0.1112169859612493622 0.10371674807299131882 0.19665894500578837145 0.34423088196892509538 0.086791643272953744592 0.2163829429718292785 0.12527033873478471415 0.28513044369472462236 0.10696436821205893009 -0.11976204756030117693 0.4217716391762909578 0.19509213842954720164 0.26519313874033989542 -0.17866761789017374107 -0.46229541002382973369 -0.30583009499560953603 -0.13623917237802571356 -0.49813516106378280535 -0.32061130237800988807 0.34174619098166247877 0.31456033983317727154 0.32215394106942785157 0.047801012574678815314 -0.14387615454098892642 -0.027327037143466351848 -0.32263323531295817759 -0.32949343939194403186 -0.70999162969587159555 -0.17937364907879727038 0.058024387082880095334 0.41458637571847939407 -0.36822583255419594206 -0.19692736876769734167 0.065939238559729593248 -0.26797078236601012957 -0.25150998985230066385 0.66613113209424390515 -0.034728154097868196848 0.20420144498954059809 0.38765389865752380993 0.10409469103828336567 0.0086064098253414694079 0.14732391444087408749 0.011960489124510489956 -0.53052005102154919935 0.18231824403177157579;-0.046622637032019152714 -0.027893261086458325665 -0.078876060018525873119 0.32643991214636636222 0.47943694701536926361 0.0039167622369454717715 0.15642650076814176852 -0.28002633155771988749 0.35003881927300606325 0.11438946230523588943 0.10242261328240997997 0.21668752862886528354 0.12223782270700284114 0.27795340053255068735 0.10138834488040580906 -0.34490571375891221351 -0.75686286920498302422 0.42643226258756766756 0.26869931238992689204 -0.1211996349588183447 0.045104341082274623798 -0.024890823917888250938 -0.76201238087081757389 0.4372425568420831854 -0.280807060858955293 -0.20375940461122551972 0.16142324996185514197 0.16454777698063327573 -0.36877068385525718641 -0.078974185602014759788 -0.097636712498724631537 0.57226146152171131209 -0.33787126657512406291 0.66160331402373540044 0.2626545479850077025 -0.39099726314031946206 0.14210687003525657168 0.1150290615118494536 0.055004715276329246842 -0.63402987330242288611 0.10899726824244400369 -0.51160303801718820527 -0.32571198863175931937 0.60684863914751929759 0.23628029637512165673 0.26492789470363620197 -0.49681477532034312716 0.079767059573087120694 0.38657728134799340669 0.33171919094885154999 -0.24674664998019427142 -0.33603280573727301039 -0.09793543471857556193 0.23639833008527316727 0.15052205737369830918 0.51344089407278625803 -0.26959598189143607616 -0.17749020505229681777 -0.027282035446886301888 -0.1104012032536045157 0.20412086427206760364 -0.043293263738321367817 0.35691448947410769899 -0.3721271248562577072;-0.23232058151708454008 0.032374807671343104609 0.28182940675660128615 -0.2345900370838825133 0.10520218567117174679 0.2652492044620611833 -0.24919066056210087412 -0.014398965238585494791 0.33186202544364223899 0.088926703236512597006 -0.025646166028933395364 -0.33480174668648232661 -0.12204195532585974948 -0.14311494835541258008 -0.35456960319339925203 0.093745962326426193756 0.088277735230189752214 -0.2031098043356672489 0.50510118811171089703 -0.26956126440246780396 0.13514449117574980908 0.1161519347608760272 -0.102884217779807427 -0.15394660550323979731 0.08833524069474112117 0.31224080720917246623 -0.11206734046730357224 -0.52436030677840461678 0.067401353186549245455 0.12396090427590572558 -0.24432551589397802361 0.31490115569913440519 0.22962627252396156097 0.82022971833536417741 -0.86114024760031593342 -0.65843545838639683243 -0.24238828011974716814 0.22517809180229012012 0.15618865659734440521 0.041614911490225919843 -0.32290573636496011645 0.10168443916312545905 0.10252678802118948831 0.3930686788978926538 -0.35083487393890167017 0.17378779893210904994 0.42592193527356225768 -0.067128111638586770993 -0.36829758623619418545 0.3437762500201867466 -0.39730331072057689656 0.060767237092199596904 -0.60366562770927423287 -0.16478180155341998203 0.26085003964583985958 0.14665638382970352938 0.68431412126177137978 -0.11965894355926513792 0.184452569509740677 -0.15954537797831025436 0.87620133744145711763 -0.017330243926104788726 0.057621793945820946881 -0.017236429489370336948;0.20321514853015529289 0.22198045889140408105 -0.073233494504803847702 -0.13805021961353453053 0.029149286875707003386 0.20873142348619000419 0.31229672033392052999 0.14827517384738703177 -0.19198723014043972412 0.28652596463765017676 0.10499626393348289455 -0.40671057247618452868 2.8345609681947655373e-05 0.24208586248121718998 0.11500479515634354222 -0.36126056261772426792 0.14765424490383827205 0.30336529711439574886 0.10147828302245144594 0.12864040733457784982 0.26790699688308539095 0.44529386464946513202 -0.27620306431339219921 0.11338443663490548052 0.16194842645970505823 0.017113636453302643464 -0.070377743159326128231 0.20438744140681364136 -0.094196115655210702067 -0.11114412895923378444 -0.0094422235934556609377 0.21388722949745767044 -0.0046282940324848097918 -0.29004622522200945722 -0.31722403775008201077 0.11154865010073818088 0.30684883807722040938 0.67892757695905281423 0.033788609946192350864 -0.065733780233710389918 -0.18633954972993266308 -0.31628362241671564847 -0.15964547234050394109 0.03115584354576985196 0.097550315210478591443 -0.3217838214758597104 -0.091740564483583836308 0.2286872014026609945 0.26946100578321735552 0.092667414328651817601 0.37630587434486373333 -0.20714735195590494587 -0.34155143952668037821 -0.22744136395710634613 0.26735783820834357893 -0.036834174963013090187 -0.23452684798964970603 0.14202850683933432308 0.114648330091458861 0.23923190529190344056 0.31447035867516037744 -0.17050867748458184425 0.14517747480429890605 0.059434679423244062002;0.38398293155779944508 0.013153928557969627594 -0.42041520186418845917 0.096744570170274157839 -0.41866465017572457308 -0.044390020300496289829 -0.32726356192697142466 -0.043400931222427406586 0.038918689988342816677 -0.29891667013326472802 0.036859294992542430969 -0.13892543988392905274 -0.20577822119032934678 -0.066484000485141567238 -0.053560739990535552457 -0.27445513577162578001 0.18543542905795820652 -0.39070487751877214233 -0.22727130531001601965 0.1931948820102987463 -0.21117161150596708286 0.1582485751750280778 0.049752267078161424574 -0.033064547268701338645 -0.38467808236960260304 -0.33074426925223521234 0.26323199655856704959 0.44019028484202521456 0.19474750985242297863 0.27612693925670228623 -0.13461352676168703013 0.04464854375089812033 0.33205736192609408564 -0.8746886241075106927 0.9814872341106860576 0.63716790156513203325 0.39236279194352924327 -0.15451289501292361783 0.4376639911452998577 -0.3106058230807450804 -0.02025727267167292539 -0.019562478200372785536 0.11115412161162506466 0.10566274867767955215 -0.25417644643918185787 0.07049133866623552569 -0.2273186902599644843 -0.26015198911085363198 0.031418966150038744878 0.0292460957012782366 0.40261924863383213857 0.44542624706422534464 0.50380209781528406676 0.17481592696665659847 -0.36630678973800206988 -0.25396749252886730019 0.020993645345679472908 -0.087198369699677993894 -0.29740618527322859599 -0.042546476878111000319 -0.24155184890660563735 -0.30062388026694575327 -0.11878485523597571982 0.091517783463729351912;0.23957273271440329698 0.1265720850082060478 -0.41625661441739358892 -0.019466087857023448709 0.14186586241600065983 0.040330183516633963392 0.062991473328693328715 0.39812857052823324988 0.046342495870264385771 0.40093000650264049023 -0.33647550443891899308 -0.25670873383684200686 -0.12473919393460676519 -0.45725421393045495577 -0.11369125191437237654 -0.26013215288737517872 0.20237627789557111058 -0.021201104915959771702 0.14009617578715127806 -0.34674562132223163413 0.031229061843620720823 0.16091955757183676323 -0.037638846518862970059 0.079022054111465900306 0.25757474270557512153 -0.15218641627718201836 -0.099428401774547633951 -0.31335182851045034758 0.2683950075677717928 0.12653657953046409945 0.12220598325661100048 -0.37411002715084396009 0.50912328213317192827 0.18875234722321740377 0.17346074399698091506 0.066472981427401101051 0.38095066186701498356 0.54904669706292885678 -0.19586884413799651727 0.1019227282229754894 -0.046298189166044841081 0.081780629674819513286 0.049505106262506884396 -0.15346416328915371552 0.080756149681496469661 0.20772904730493280123 -0.2977198686189496124 0.20762955858061743486 -0.12964088701591594543 0.3559769730343860239 0.077147053337075319202 0.15378097900367157513 -0.0062476689631473392855 0.21850158135800862302 -0.079530042506742143482 0.13378667337065255905 -0.14337699097614606258 0.15593700997435552824 0.15731124802252471895 0.1698908401772958876 0.1485638729345885034 0.14010704464268056157 0.17585775390929664352 -0.41840046847680723019;-0.2057852178064749904 0.037346833715454094693 0.526055749322882793 0.14049975937834296991 0.35199241607879122595 0.33583505687378917282 0.14739148857953901506 0.41922202596868018976 -0.71371475370430015328 0.31739756188718981633 -0.20647878415122175588 -0.098580779763083131728 0.026580542942892387837 -0.24531395623128457451 -0.11676210512083499971 0.0015088315398141041983 0.53016143234732204803 -0.0006476063497004710609 0.31682385288901698805 -0.034690914678768704216 -0.27196431917344726648 0.17894348497991796609 0.14278691586926800516 0.21668189649038763211 0.79966337814955157359 -0.039554466508483550335 -0.1040162429868549121 -0.14488660043974846414 -0.23088264115909010177 -0.35535658005302456219 -0.20948947861739675158 -0.025636909783741237967 -0.44781367080426315308 0.28299445501189013363 -0.9769027026441541306 0.5408701274051914698 0.099114876570149348933 -0.12183657021486067606 -0.47388604422651137149 0.21439483839890716155 -0.091578987734380931651 0.20401647133373690401 -0.2327861434390754436 -0.34966002992494943369 0.05809472584154085073 -0.46692033997885984409 0.074386474542914679531 -0.18880293005367718151 0.21197142244789937693 0.21310307042810400224 1.0649772987098531374 0.19557646535873299265 0.04078137450361289662 -0.0031322061726344985026 -0.48003413085008200811 -0.42201478466612640794 -0.0062950735859627002244 0.02610705235531275703 0.10806873383342355255 0.17145592374974194527 -0.086847252126859952881 0.32682051789634730676 -0.12133731357690212549 0.59533632845985062776;-0.018293828818564290828 0.49986387956702094115 0.024970047861647207132 -0.52203007816058355495 0.21859010407337531312 -0.076532580180130413416 -0.20073849302126592353 -0.097529783997022542752 -0.27998424522657411329 -0.11592345103958009989 0.20040548188752901893 -0.49018612176992537588 -0.095944154692406607987 -0.03230730265578937721 -0.16027381242805710526 -0.18090426701417394728 0.026136753139839142418 0.11900044459780080575 0.51106626707967928169 0.44166249758576153761 0.14659076768008205693 -0.30407973379318692375 0.18199626563060911089 -0.095930735146801962565 0.12734070236505853901 0.24683516675926281403 -0.24920190221416471665 -0.21786675902931029736 0.16472940068804795 -0.077394947567872948713 0.34996177010036677579 -0.43857418137528902946 0.33192154211666180519 0.36026710853091997722 -0.44061239554793568685 -0.20149311831655100646 0.43158652473837616492 0.20466573035054283491 -0.5787954324917208293 0.46631403547195438009 -0.056467709313114566871 0.41927510226472941568 0.35730291579023965021 -0.21808862523702735037 -0.48649576673147398864 0.21015112911651445682 0.057675711760592905664 -0.065186096588478126268 -0.67696661271083402589 -0.28840027739292350972 -0.59347402994054809788 0.34661310488437163668 -0.41336003778646945861 0.33038323924559026556 0.1700847960275496118 0.34719632485046786341 0.30723283903943593431 0.46288874006943375727 0.024983148592224262846 -0.10051064437503695603 0.37658443948923753242 -0.25061748485793200469 -0.1704368121008265069 -0.11271571553271381161;0.43024095737130935158 -0.50693155413307855461 -0.11185169280347043164 -0.3970825441677001133 0.19284362190362189238 -0.21828378556096555974 0.045600981513130245393 -0.4630078404032689221 0.45737564609992187314 -0.264257964266566725 0.12307852662432421098 0.53318798322112892496 -0.32528630010366293979 -0.42602660608594367098 -0.10189896716803152621 0.018025495041242622918 0.33202938349303173782 -0.1490088712592776421 -0.070738650528819030372 0.085274108162461101368 -0.048305814485993227303 0.105922039065725615 0.53698323584362728234 -0.41293027367463136512 0.31511031669356126539 0.3853734963236994937 0.18191668810274236323 -0.35653388481840175839 0.18673059288022697544 0.15079870750577537009 -0.22183076364696030502 -0.39406693005962944998 0.18535536262552759768 -0.47592348144004970045 0.10646522876323759321 0.29217074566767103905 0.081454048058698644286 0.03082269278277923949 0.31705060299536380608 -0.37482890313818983952 0.32491785088034486062 0.07125900028954100518 -0.23379890591891039353 -0.2860389286991069091 0.053850622934210223836 -0.16129199975537053535 -0.081587440537161978749 -0.4469039420961074538 0.07329614580610067931 -0.059854067997890329778 0.24351519030582180481 0.17891978472493647034 -0.0017248346574298845796 0.18819326727312959968 -0.32154002367076628399 0.064256473314386414186 -0.36875792003978558053 -0.17714823516004085668 -0.15809941321306550388 -0.10572311429297348573 0.2907789869855842424 -0.033557754275910525732 0.030798391120718901504 0.27448029569326315436;-0.139578445879234736 0.16942639114785176813 -0.20299961555434514748 0.47125066403230808643 -0.11552392074440219483 0.24360007685153040047 -0.35473283095973640044 0.49808819387889896602 0.41393464761344239689 -0.34853714538333002704 0.12196665361707519082 0.23514793439316777901 -0.17848484777342210617 0.44794515992474154276 -0.36970890774725284622 0.082657479877096054488 -0.63307649734203996772 -0.016090408264209793421 -0.21510048661232084033 -0.15567353713721884811 0.14567474794918375269 -0.6933074225648637734 -0.22590374523183370803 0.16599604130124953616 -0.37515373118355194171 -0.10413282623563016593 0.027926129799007080173 0.34591377055845690114 -0.098637295322698659295 0.23949149463095462109 -0.079457923059545382261 0.55810163463509332438 0.11293938450643867255 0.28143071150922893686 0.08741256833475785637 0.25345499940348542589 0.27369267461197877012 -0.22829190182882780347 -0.43399678129950081118 -0.07723211414886783921 -0.099890886331142611509 0.26245063964418308133 -0.27193741737554810722 0.4293166657351054627 -0.20628081066287271006 0.7566884591005315075 -0.17947799195339375622 -0.21602328004996887434 -0.91927891960604790622 -0.029067965395357543007 -0.73972057498643029039 0.001608315699722297383 0.23988559925839186837 0.1797826411065179264 0.41286784495054990041 0.19464910918599140355 0.15911323218760786702 -0.0603826671826062783 0.66465700647763681364 0.04718583964040309886 0.40857173923076972599 -0.21234736765180570184 0.21328566547925861818 -0.38324536167432010636;-0.31481574717831228849 0.074550947699202785302 0.20230878096765542162 0.13666135108318408498 -0.077424953430758919337 -0.12197062236298109039 0.2888189288854963177 0.16736387107009206843 -0.27583926908815875612 0.28596262135444761032 -0.20015282675597878548 -0.38764465792677871292 -0.016211443267619179281 -0.43996194263892757226 -0.20896860667962971481 0.077717183172734599639 -0.15517840369921087618 0.33912927308992968367 0.11080872910972545953 0.44874162159631675317 -0.51311667297539120813 0.076119700203166634767 0.3946051362545754948 0.35086818307813655293 0.23379205204223438286 -0.33560987050869167669 -0.10875663588584362496 0.18039942284835083774 0.16626598250158011738 -0.26341750514565182018 0.44920123732599059885 -0.31915164414146879324 0.22942643657953132319 -0.66568891155110987423 -0.076923616068904188126 0.0057272862541514462514 0.58347211609030613655 -0.057922689990098412405 -0.27339470877023691608 0.2512783426665273212 -0.08552007076293006993 -0.054626060910786367053 -0.13535376663415568665 -0.46034949181424927867 0.16871874720543575399 -0.15194380609114865877 0.31664156764430262392 -0.085550556648060840925 0.17752318298858954515 -0.1093154619088271412 0.10589112592521038314 0.17168623169109112347 0.30963731301878477664 0.42457172488123662291 -0.36818633924040294891 0.55425384184534054466 -0.2657738909956559592 0.11202787877713514531 0.26559945469559309572 0.044056115709653093093 -0.19669856358212159386 0.23362425752060311801 -0.42177915906565971449 -0.0057922527886320350141;0.054951086995336705099 -0.17750255333818848458 -0.18069469975164348385 -0.30634708412999644978 -0.14797714168168638049 -0.021786235043959482904 0.16598455666555422816 0.055993209067979658744 0.23366177893628489737 0.1631006221328520911 -0.19147668897987121794 0.14516297284695289793 -0.11626157280079200962 0.13969334115156004095 0.16216009305252113148 -0.029328440719372565748 0.12009927366318538799 -0.32488440792050082839 -0.22799141797012623112 -0.15168470523933377803 -0.16363604857863384145 -0.27294426094190182841 0.16956017727211575297 0.18861155176082106122 0.19746083780686779496 -0.34485813987363761468 0.022331560537149176132 -0.036918882189456402043 -0.067986351302023170784 -0.27105806099272933274 -0.17000360038455325506 -0.05528142132803403469 0.17653300536698252055 0.077349334575884151621 0.027680840087400675198 -0.088125297349193776331 -0.0086084912128732808678 -0.20366929843243775089 0.097090313753753779147 -0.3249423567582973571 0.22176895401188218004 -0.31677793617265553872 -0.16210110868783700333 -0.23255172003657664792 0.18419237707983909802 0.25104709881970821428 0.043502894399350358623 -0.015074534078558398179 0.17550028336620282499 -0.12736500204841885719 0.23035722730983068662 0.14156807463659018542 -0.28400536104755030875 -0.20322505744551003226 -0.26013773888235613985 0.21435818211592255755 0.085604851300254816704 -0.044783580414697168881 -0.072855282694584050374 -0.2706565036396880175 -0.20362636594065941509 -0.26239533606257631204 0.23367110708292906929 -0.38493237154456855231;0.3285113446988937036 0.026689745765084156581 0.086004561907518956021 -0.14661547490946749694 -0.17212744566971366345 -0.23655823604805079063 0.081286980388365417949 0.35829613815266281307 -0.35177070085234707353 0.077456755377107527893 0.22875361808630650939 -0.074114199112634990274 0.0093948577158559590933 0.079327380741986197599 -0.15829261055646390299 0.17247195911744281349 0.49965719715765949394 0.030087392487754004849 -0.26079099829260132815 -0.3003979214169657519 -0.017266694228927001453 0.14760573393733908421 0.44459278902056786897 0.2092078564022376852 0.27145865959155207614 0.29937692461249076903 0.3792104387609955829 -0.10012670721117823691 0.29600527833390860577 -0.14540680407353587245 0.16713886233247063351 0.14431640842370799249 0.041196045486213014875 -0.44041485322693291193 -0.66261477088379772127 0.1401456655249289085 -0.67103713588569180448 -0.092577825184258819013 0.14046603852707087445 -0.16423259083109661982 0.21424514882105419322 0.0059932955490707212273 -0.2940544921568121195 -0.11952964428885572146 -0.19435866264922507796 -0.23758726731141766031 -0.20522932877864599743 -0.41882653604746150622 -0.15385739832679493078 0.41959651041886458778 -0.17866952774639585644 0.24762758321288727559 0.25126583964794824144 -0.32020583854256223777 0.13612676981026608503 -0.34285023445056844738 -0.0175897165464851922 0.055090179849075729401 0.32514000351315608395 0.1561192991280766218 0.020683678742156489522 -0.13509486848330454212 0.15348811745916188243 0.017974740642280585823;0.11597395687966205458 -0.059391335760099098207 0.10048897493499310551 0.38027534164718573839 0.31210197110080262206 0.063596935453889308354 -0.0042444410780597182503 -0.145880139167556655 0.5881933598656717832 0.37180336853375733908 0.12248230492057317342 0.13411968133506527168 0.28371251424405224961 0.26478639555925986837 -0.13417981601969072858 -0.0095488649962238696806 -0.22908808285122111981 -0.45359177969855690726 -0.23274907462055902108 -0.32529396051794035039 -0.20998040103097456721 0.50476441210481570732 -0.24939987491079892989 -0.24400176912334883839 -0.12785142677733477012 -0.054340172509509711285 -0.22311236471559878214 -0.3444423456539949524 0.24288986970509812702 -0.079783736718718911707 -0.13607061238716253171 0.60437233756369534987 0.59870989588685630256 -0.18817456384907219058 -0.15723816786039693238 -0.27454298734345955468 0.43349703978261516779 0.46383145948645471135 0.12211347784213591461 -0.55039152962665371938 -0.37143511808329154888 -0.2553605055198575613 0.053567706720277621923 -0.27752474682259631322 -0.16790982145749702714 -0.43603916385712782056 0.43055220128715354644 0.075398269560060945937 0.66131110300528439527 -0.19035247314972997268 0.50595146277885938435 -0.060237151969348062819 -0.063318525583381218835 -0.14558806859376294263 0.048728315434238736459 0.29590090702740290407 0.058561423069548666775 -0.59369718355889933292 0.78026136151563196819 0.040191811906660754317 -0.048334477717490949289 0.24383932357169982308 0.18647707181616268723 0.12549428839745738196;-0.24414556904765921663 -0.21961692995116582905 -0.14232126038090178732 0.27065934307994043984 -0.31796657723406535068 -0.13166550896280429517 -0.24976244404007519329 0.0822009900996663323 0.018023243420546314342 -0.16147625424696471219 0.46040022009377440382 -0.013116421929461805768 0.20950820610747161732 0.18109081082110409233 -0.1289788932995132309 -0.091661347164049028491 -0.22300990058585246079 0.38379719071409795772 -0.43639839386722728554 -0.23909736621570634729 0.004686958254958169777 -0.31993860476331376086 -0.71553872924164463321 0.24197288943693959218 -0.68893786990524563674 0.017173769860223783018 0.054215363287590301322 0.18453241916922796806 -0.1217443142822794977 0.045944894155489753029 0.075284203129382318287 0.18563777542063419901 0.13652305502154296613 -0.23193623121306039536 0.77805695137308172882 -0.47067617665440031338 0.081222425984156854106 -0.51489413143489148883 0.3875459482214931306 -0.10427098936796912187 0.062245091708528217656 0.42600758504490832124 -0.095215320496463695665 0.019572904647635214898 -0.16036661253687192752 0.028474719665371146099 -0.15622755345644134817 -0.1110453541106698333 0.098851410841681419672 -0.65363187894460705873 -0.17137720937435693691 -0.2822434283165214941 0.25712921344544409363 0.26752259115403453915 -0.032981661272904555515 0.54141798024450893401 -0.16985506735293579017 -0.076886664619888314687 0.027139718887527638363 0.16590728820089051254 0.12139936563049483209 0.019308457909380124379 -0.16336208410802480206 0.24610160184737681077;0.11717684100022554561 0.03663836423306443546 -0.19019614757796871052 0.073434377517100080102 -0.81413117478034224828 0.30410865491862459908 -0.30002211008127549485 0.64518886275343789727 -0.85636845001347738915 0.73241809707985139344 0.3672159564053204539 0.19617305870837165038 -0.45175204806715496542 -0.17153561282773649443 -0.33332242200045542058 0.19941739602167968259 -0.22813972299041448966 -0.38496298965877717713 0.0048372555350073825203 0.16425631930381129342 0.018788305572059942755 0.07169132451010909457 -0.14895610290083771687 0.016580514457730666927 0.60956383789480061974 0.02158963927068284841 0.19692993370014877375 -0.26892451703048553258 -0.013150776061445318757 -0.57220735147477996829 0.22495622811985466205 -0.16994446926858405855 0.7350346819969028056 -0.010334816301254811169 0.30178001218487127133 0.7663990374812494899 0.73429224480382115914 -0.073220222862148451326 -0.28339496949988379759 0.10061826815852886741 0.084479966272464623867 0.27163624340687386738 -0.21831911566059913898 0.035998828084206770106 -0.37939127567988317757 0.45025596475606138869 0.4870153394696140059 0.0010818754781461159542 -0.77610972343925288541 0.057654435275066549804 -0.16497822385998070494 0.018389403546927002298 0.21438908454004002024 0.22437322278117508012 0.35284447527594398064 -0.057408015160907904795 0.13167934594150867977 0.1532658048896201608 0.39957846000604008152 0.29613192402455390528 0.6433790018723337667 -0.053220905206361988904 -0.40470092224659703906 0.21069584728583434785;-0.32254830640305715006 -0.29432451862590786051 0.28661810273154880724 0.16048508641140352138 0.091209806825719816348 0.11186977608837089804 0.071444734165376000412 -0.30022669594436007801 0.094403447577260032886 0.11335501459729702134 0.3601749276955367729 -0.32342525510551023427 0.23862835290858355752 0.3357748020536126532 0.3848807000631750963 -0.12500444712083769172 -0.34805814581898064652 -0.37578740795766296667 0.14658750741307019494 -0.15181331066400435836 -0.058720307432392176983 0.041375521604372390849 -0.064806133292761927689 -0.3723105637256937106 0.22023670609716211599 0.045600604658266388758 -0.50821639468173895882 -0.36957678008387995217 -0.16411712182574161867 -0.19914925773009986565 -0.042158802051660865251 0.15763368122648163672 -0.46279238843091785593 0.50993387804739442881 -0.23260967194909992761 -0.39201297456497730121 -0.19501614506411932282 -0.08971079714849369835 -0.34459679306378820929 -0.032410902900026572482 0.24932392064976785506 -0.27242948911552411495 0.092612526074758408368 0.52507719956684106855 -0.13502416259997782055 0.5209874038315062128 -0.10927245219983797164 -0.16352156070796711185 -0.41782086741381119221 0.449676461334713784 -0.16034818205701154015 -0.084473848728446723766 -0.44987028611143059509 0.10448106341742477432 0.015651573909391914424 -0.23919815613343187177 0.44876033278480731425 0.019096602562346815662 -0.042282135579848334483 -0.028936967026543782 0.028297426587221057026 0.25319838608371841859 0.10104509320819042573 -0.10736953102611349053;-0.048656127041106486675 0.15708286611206556671 0.15885219491482427401 -0.46315316052357041743 0.49950169344782002767 0.12599462026679369986 0.38640486261863832285 0.040027125108318434288 0.4393796946891920796 -0.21553777363373069487 -0.19198130965900622735 -0.12089093064407903377 0.21583414431539774125 0.14280633691063349122 -0.19048136001052029531 0.11311075646859775068 0.083742406988982623361 -0.098602479871140596979 0.64479444293620291617 -0.37696441920245410406 -0.42604956969669993683 -0.16406333231318512289 -0.35368396420394149215 -0.036918716051697698932 -0.037704495134529218692 0.09247124105734409738 -0.26737064233569401983 -0.42105021941976039646 -0.64157803699591209323 0.068935551258664518048 0.066293646904443601087 -0.54458058120058761009 0.19600851678087746754 0.95075740712705147928 -0.43995196079785509058 0.49016615630288384864 0.59405165441580820573 0.55309982355490605599 -0.11424726907050918034 0.47577292904909324056 -0.20098685486921230581 0.27531915820544650142 0.071066599723251175358 -0.24791078052247061958 -0.046566117481129883082 0.2273493483029361828 0.20218239712232721761 -0.2072315764532551563 -0.03152215605549687355 0.26020347850597319583 0.42185144458783790933 -0.11001186473292093315 0.093431585875718883849 0.2701748619590670919 -0.15658122932460424859 -0.034354333253040963969 -0.36060174030433617132 -0.22878415337939764229 -0.42233667546026881778 -0.31555271864673062332 -0.13883243042939150125 -0.19861644190939659049 0.20316738805527273515 -0.14136090256831651546;0.12631933053847080317 0.0089586499337593970133 0.20946797745168263538 0.13784945119189301321 0.40443626207764349356 0.058272633161630817134 0.24023983304076243495 -0.11231504525105207026 0.62006989087233477242 -0.20666721986539235423 0.085248057812448888027 -0.39836982936365339381 0.13890500376123043891 0.041417799124845201819 -0.23132846541423898734 -0.27245094501346511784 0.12352032556283588927 0.13290459091290385274 -0.15687798007649275678 -0.25208395283596707337 0.23078592568729713874 0.51268981573802385743 0.11114524144047795151 0.29377307494184384806 -0.23740984146909002717 0.29429761012029559408 0.023957674606107998844 0.068469634685606919899 0.65925730354514111564 -0.33845366187490966148 -0.19332463506808036935 -0.256629903344748167 0.52095030781433537825 -1.1127216054550057578 -0.27195942480060275592 -0.43416581360127570743 -0.053591636140373440089 0.61979029448907119182 0.40934493631082413678 -0.2821012428361908686 0.2468730823277529296 -0.083780296231677126029 -0.089359699729276764746 -0.14562529068590038261 -0.14401576098779370061 -0.48769832613245167607 0.3231616380651747833 -0.17323911832792282528 0.095115927470874842009 -0.0806700044832576596 -0.0022206503032714498477 -0.19820984525827059497 -0.015804123076634941231 0.039444160049933459089 -0.094109802097998296322 0.084462606180872673578 -0.12317333996090221171 0.5847615355516773139 0.5158814743165816008 -0.062898647810448488071 0.4931605073382580029 -0.054761830187640976597 -0.47090693016674012306 -0.18154609138719671191;-0.18222114726226959491 0.38582198578757098684 0.42283261660221516109 -0.50389755159559634912 -0.21102353925424441328 -0.33160320594770681391 0.37295238528904584019 0.075397743455358795517 -0.63762505811949643508 -0.31108577005898496726 0.10704440818967754512 -0.14262134759387218308 0.2400556058956871408 -0.25996641997770691956 0.18600904909014243094 -0.32057160866305139946 0.32791524821433853942 0.47339854438485146071 0.14369586329465075525 0.065560933410629032569 0.088995772135977938011 -0.17665124534078185947 0.059644414171138006309 -0.3600616382861148157 0.049001291602484987886 -0.45106693755064852791 -0.28142981608858552711 0.23515447051191235017 -0.32385224826510705665 0.16140915678356410057 0.34282076342459832929 -0.6100527398351797137 0.24145117218366676792 0.16763681841202093814 0.049228632952101829268 0.71606826290830727366 0.33419151367214494641 0.46540680433074355093 -0.11338156922473360821 0.1477482092817924697 -0.21449126951268479568 0.4209959906345467906 -0.17844587485171670149 0.00083754771046129061068 -0.30109983940657403245 0.38226950485362171106 -0.17895354952354988742 0.1607807000406355491 -0.40498123437831706761 0.1162599502797207196 0.016607721714171932298 -0.036489541893044444287 0.24819757488688093394 0.14663384458570902225 0.044595763124945959899 -0.07845789209954050214 0.14148470757009284915 0.41589902803049505486 -0.36730541420726325885 0.0070817218295682196963 0.030952580738601725291 0.11249127632969803392 -0.14040757920936672298 0.20838061357357204328;0.093973123165595973116 0.15211125073209760816 0.021850375873594504034 0.422178118630772925 -0.32763581581000683629 -0.30728786153640591516 0.15941136509074876892 0.078829794221740009941 0.2380418599619824882 0.19669041965816355666 -0.29191856591060566517 -0.025012894522450000723 0.28186836868023040781 -0.28182237188432746056 0.58741680559209796808 -0.14670359007910788174 0.026912961834869082722 -0.017111268225463587694 -0.19888079982338038865 0.1595278981707615451 0.3763020302029325137 0.45068753088472357504 0.36080017340934800174 -0.11096115831566973065 0.21314970048710377148 -0.35115481105207824175 -0.027154158641727828283 0.71010060036013644691 -0.11578096032955113859 0.080502721992322667788 -0.19835644989078377032 -0.035026432690608927389 -0.60534820142552925315 -0.07301932198616312153 -0.0038950328979265305337 0.2817185511412165777 -0.10279547967748856041 -0.45026842593513094481 -0.45454005358286347915 0.12139279850411233141 -0.004267175337056478869 -0.0041243935742878868461 0.17100761121581481428 0.33697962569451583859 0.012231841275462488131 0.45333089443010221586 -0.38791833993566049443 -0.21559129277673888536 -0.35099150142822521659 0.060630503097166096871 -0.18967664446083673524 0.1599726904044563025 -0.0020790017781172056774 -0.17337431549500481598 -0.29166851961443512886 -0.25663182338368450974 0.43634063136386780357 0.84609924206805753322 0.37048990714013996239 0.044959676231473330588 -0.42015466926810773884 -0.13722683208315003545 0.2028600419351224704 -0.14085775091241331536;0.056578092168318078192 -0.01169307142242910838 -0.35658923127438219014 -0.029697875806245568886 -0.13224931911647366811 -0.23738906669798701121 0.092797153190982639703 -0.26071717045099151999 0.33353479245468037329 -0.30873686894768775923 0.07100679230403310338 0.061094459630700682917 -0.20226802735381974041 0.089113112719234943704 -0.1214959355326779844 0.022479282419043133262 -0.01637016495302439506 0.054040282055076632739 -0.28512405309459554203 -0.25530545512019914289 0.28917794500131438484 0.36637666452269840311 0.1285371317333454666 -0.093168831599186527348 0.043071319244885816757 0.0076266117821891816347 -0.19426416301118112906 0.12118769011577057437 -0.06002932381768266018 -0.25915161816460724475 0.067441653417353475408 0.082358600121622313472 0.044302195952046735661 -0.17595610848770773527 -0.27340470518339127226 -0.038117922543692527027 -0.14624677167740543493 0.032765087678321612452 0.26769552530287121783 -0.040924771645117659358 -0.16880269911235110114 -0.12112880548819784932 -0.39380757452531894858 -0.18116136568121524175 -0.0068167299284982909441 -0.10223179635163609502 -0.26760581030897417909 0.1745262170812817426 0.068571046842867008908 -0.2139999648371855856 0.3108468776294662228 -0.25242332282721491321 -0.0028841638226033044015 0.021288161287918126729 -0.31409957611659405918 0.17760220332738943516 0.15721128394901992542 0.14205969909982052446 -0.19904975974015523543 -0.26754087973551943236 0.11956861679385624719 -0.19369216129497332513 0.015983075916723345905 -0.18003681378388611267;0.29094280783213227748 0.063807521086540669453 -0.091413560860485729154 -0.24953371370092497505 -0.23596686048965923033 0.24214091859208469737 -0.2882392395409915653 -0.2318148422335087333 0.034398157269378303036 -0.14097160319063065104 0.025102859511395118897 0.13167645055851667779 -0.34183071243072177259 -0.098344739150400720118 -0.30703203045265375914 0.36943119505008248371 0.33879509068603164135 0.20799420665269791053 -0.20150966354107832657 0.47016536117668522587 -0.11070738249101814976 -0.13626448496960238965 -0.28034058201610634331 0.0099659019339133746856 -0.051474278623085865936 -0.10624825748030938821 0.27631114944910656339 0.20140575743497449168 -0.23224626690412147889 0.31970839128144307173 -0.30520275025751569808 0.096854318993147919814 -0.68505398368717973501 0.36906156413071639077 0.28149805678700179357 -0.74858923940981392242 -1.1036531538708773681 -0.16990682822431824039 -0.051274673340995655102 -0.11116638583471627477 0.30344626706886396184 -0.22673122123514663495 0.008263194569044611526 -0.047910215795655741733 0.4428423701200392415 0.16842749294801759308 -0.07349472455205609267 0.40636926118868277324 -0.16792524928347712931 -0.5789279423936700697 -0.45274492162670443296 -0.17869606593475001466 0.45137449873500790076 0.18579271464562563398 0.28245108560642062656 0.17256500458308296486 -0.42970191234870680486 -0.015132069984253976661 -0.66505554183671433677 0.15352181104635637121 0.16181532996575601069 -0.0751153687846645296 -0.23255049344531658617 0.29427095868167979509;-0.087449125008306427542 0.1573294670839304743 -0.20264117064215003694 -0.10290069828004555497 -0.040458833751270482926 0.05289095367430074468 0.097874468047979196195 -0.25701453397979545645 -0.59311732208911727149 0.11276746152895346376 -0.30975415413741536064 0.0085860331156728166707 0.12539005333711888968 -0.38439839387801744142 -0.038334215724801085079 -0.13753627435922458067 0.059774898226066998375 -0.020569724987105714176 0.10278791591603678168 0.42625548950596120479 0.19283569228259700434 0.25931368633852353023 0.065640395866430625849 0.49570042716325490861 0.33097534300012554365 -0.26063684353697647023 -0.047375724725948975546 0.25829266606366718673 -0.23797415369108948502 0.21634655431512075929 0.30470211546780345824 -0.43565343236795167625 0.085718747646845075416 -0.74704046305146010187 0.62798650624220064831 0.41926492664740339089 -0.034904240130025548927 -0.074074060514178002856 0.2146800540740883001 0.4157935277080300196 -0.23214131145699418157 0.1959889513686041973 0.29688094827042327273 -0.013857699499824696621 0.24967898088183521077 0.1371012053346242765 -0.43202517163073428375 -0.0026285357125094229759 0.51903157266669130987 -0.39468934814337719441 0.005275661491117538196 0.39421080902841915128 0.25925440838387914244 0.16546996437826747006 0.22442222924444893417 -0.025132150294882381336 -0.45236088213454467288 0.30143950675208375234 -0.49917027461157320589 0.10642604695926961844 -0.17553022847669175199 0.16596009655216978351 -0.71825699516596364091 0.23745365273067450818;0.07193015873485099354 0.31313019728731678049 0.07038754159944629607 -0.27873049694367746376 -0.12313130804422343922 0.14842918900130902538 -0.39258106550900268017 0.65363606529150020119 0.28595191003499165205 -0.10997268084647689179 0.16764303876335631682 0.045039546669119169542 -0.08605121527063672171 0.27116397559443711218 -0.39045474937705421103 0.26675975828781017807 0.21842810678348559272 -0.32274639593026777096 -0.35466327882106463143 -0.27580690237081439964 -0.068461324436630610624 -0.12518321184440772686 -0.054692017881899701592 0.11046187313822189435 0.44448975220065245484 -0.33169124728180404693 -0.31954386329437028946 -0.055321000192486986802 -0.010135113795287031824 0.067849432749274282695 0.28608398719645633523 0.1738493575978848904 0.2597631869914417968 -0.076834837284665377655 -0.34315173504109114377 -0.044161355886915013014 0.21246270528614244477 -0.17001307759093806093 -0.34751621886362543679 -0.083647977130587941597 -0.13109616371794791112 0.019329206273412880696 0.049702360028518438595 -0.50120451950525357621 -0.16348820140227385278 -0.36643324237461366577 0.045810839682754789237 0.21146265218133700192 -0.34454320908323188277 -0.27893312051162960641 0.11685800069118680578 -0.21535418504423151087 -0.024061675949891465215 -0.21027475660288952319 -0.27568077784641797923 0.11881852369617858234 0.11846859525349555387 0.3215588757225326666 0.28414797907130662225 -0.079233782728305210408 -0.25873382971100156169 0.0060323239923376218222 -0.19498150432383085096 0.12176199971960913193;-0.23704556358473993782 -0.12713062374481973182 -0.28852121770588717853 0.29784728854935060838 0.097007747037126626499 0.010744430680564274333 0.28929804489714300297 0.14826722728809729746 0.23696945914322653515 -0.23984120098305680702 0.14181443576975402698 0.017115983329860938456 0.34230388299317232592 -0.14524391774170575253 0.45960631299912263481 -0.32788918515469395176 -0.026049554165997777094 0.17820936654176350311 0.24243031153300581559 -0.10892072125549702444 0.031608389084178602213 -0.18189007807652546322 0.27892455527979642671 0.23702831343036637191 -0.068939248456557494782 0.26841274995449504459 0.11986355642317420012 -0.15908145772384743588 -0.36821311291100067287 0.22054943651020569861 -0.27294182905400998784 0.057188473907195072621 -0.32860355888508180344 -0.11507150490275712407 0.30863545671608305643 -0.15768993807622230796 -0.081007633226300876372 0.1262345565877378839 -0.11968941610194991365 -0.04685221887252141032 -0.23642683530563446404 -0.060355686112266333787 0.22870755068105344532 0.20448869395509591818 0.01461666088817214354 -0.17338927133524437152 -0.014031197771992524187 -0.26486734565611658176 -0.27454364024798522115 0.027930713277115791493 0.21389284059639929181 0.020221853740444137998 -0.075099089530129461978 -0.04335539356404683603 -0.070830351739726404858 -0.050929595109453780488 0.16593181368309090074 0.23296511670832997787 0.32391391488260135034 0.36580550698138786236 -0.15589530580342186861 -0.10803989076552400483 0.2328637067011526951 0.12608114516052276732;-0.16987929686594371859 0.34031396256903800879 -0.023401582368651509258 0.18157714016319645434 0.063563287461895115471 -0.27531414148001764897 -0.22106606340023371438 -0.060993984337794286688 -0.19324615830121641413 -0.19752884802916759188 0.17151953809238346116 0.18617508410438901589 -0.040990435950025945477 -0.024874787628736141909 -0.28034594491611491973 0.19737882727673716765 0.17384337601414090457 -0.24319077750259093795 0.082055972114815411977 0.023334025888572255264 0.13925194365024265442 0.30447997155011224946 -0.2272705622085677557 -0.17697145379324025205 0.025662041792149543895 0.16835855580544639709 0.14594140814038331078 0.052714934224103553173 0.20635938621373681179 -0.098840093783964216856 -0.27055609821507647927 0.26707377367355572551 -0.20462428817943181802 0.051391504154482008093 -0.11873110121598523525 -0.13401947984404144476 0.26345284588808098869 -0.16020060911184588748 0.11088896544352473683 -0.018458392455356936734 0.21196082868587914905 -0.12513764915191868954 0.17285041126168135261 0.23526464963509979844 0.22968304340471157321 0.11392232682442873792 -0.23111732264717901875 0.28930521969435046836 -0.012628291024301834672 0.072482891306382385421 -0.027676024471640754687 0.14065873985389340528 0.23365730416883695453 0.13104041512460060104 0.20769758793742101877 0.17351356864770417499 0.32975258971341708802 0.27615776110083978256 -0.26965828300207350665 0.10555321654021254663 0.2420065307019397538 0.17389014045684869636 0.22662478512251846285 0.21191745326956393236;0.37628055579800290253 0.1030305273799429211 0.22157953878815270232 0.31722754320150969853 0.37112350286018352952 0.2519700672921243445 0.028275851244701940418 -0.12578456785685387942 -0.17251017411014618608 0.26626102588378908198 0.075498630443330064232 -0.10884033137419117654 -0.030429693538289396409 0.17956098094615965954 0.064468316851784154831 0.11144454767012001994 0.11239784206236759501 0.030170569595161365883 0.24104565162447361137 0.26266365292811549859 -0.093166324812454029414 -0.030231718017293036233 0.031489134976353305717 0.30524748744008789458 0.037237090394850798358 0.1523020428326258835 0.23048551952985707469 0.31431119226127107735 0.2522695737294459728 -0.092925868879866285743 -0.26963575693820146517 0.16148076378499820471 -0.1573528620141562695 -0.23682498415966177219 0.070354559244466527423 0.052588951343362902446 0.0073540297255777486995 0.015041069455998586774 0.073621967623978157302 -0.16591536425260206 0.1508972863326341618 0.25705164423894477643 -0.019477058299283336179 0.051814739489116669324 -0.03340945018665733568 -0.072898357044081679712 0.12830566634501544554 0.076559566343302715152 0.34952121431108379435 0.40389979300902351111 0.25704297095913769544 0.35014312045501538861 0.35827191208843894854 0.23317256035869890485 -0.052213047028944803429 0.1728540608665423417 0.18234193570321099997 -0.11209686591592669946 0.32608397174055475665 -0.072788833107081854501 -0.2511865286396512964 0.040582893292899269166 -0.11699742490780279391 0.20538959744882909209;-0.22903621255927822387 -0.10374143999628707147 0.066165310865950260899 0.18301006646088216478 0.18750772040672020191 -0.097328864448548282895 0.080400000510214272853 0.027362066229333820155 -0.33619043677668070114 0.22280403706289808596 -0.14364000896329434664 0.11368726491376240917 -0.048776741605342573138 -0.26890901677545575588 -0.37321591615138338671 0.2194806151295130292 0.014872241813936336319 -0.21682631045654551794 0.058346828255715563194 0.14831837401292785605 -0.16906595328315288107 -0.11613491003959447445 0.19057481677830814815 0.10545717575251933873 -0.32194234805253435505 -0.22758894661961989736 -0.34970335345515141112 -0.30423003855240560167 -0.1669896645046784478 -0.24639972431962103849 0.0032146423852193661483 0.00063036739796774876599 -0.0087403727987870848126 0.11530315128056604912 0.14855472423338728083 -0.066536889719805036858 0.73648399484495674638 0.14149562042420771313 -0.10570661305141292041 -0.085446801867394298058 0.0031858933307314729957 0.10402848038978002032 0.2738359236017008369 0.22364989229063619858 -0.1231644784957716815 -0.17435322261417002254 -0.46315894669029744612 -0.27269674400022581029 -0.18582350140201928101 -0.056162842600619281019 -0.35928300438622573498 0.4061635248939354792 0.30595849319126638965 -0.20620806783312470301 -0.074245026504809935597 0.33767124280949312176 0.10403555798736144333 0.094927425947219395974 0.28671256008616713418 0.19180247783604992273 0.18204422869552552844 0.18820328381954340435 0.22472555110371894571 -0.18973587116793966256;0.45120374098838844645 -0.17221255312411784533 0.36400800486477763451 -0.174833199105120074 -0.049882598333040338578 -0.010643587084922254485 0.22465693448185086734 -0.15290468028234402431 0.15661585190776061705 -0.22446626086334001138 0.40063045552832515783 0.097811284883406623969 -0.45877681100340489406 -0.42445696786699071978 -0.36901983198897470029 0.33396526385237756962 0.15873743229402906274 0.19425621687611946409 0.13166548089938712174 -0.10253651572770317024 0.34910750558488318207 0.0065224286255031373866 0.30477209169527325061 -0.1866243739016850145 0.14046464237543196396 0.53435498917614787651 0.22105279430281130071 -0.41424637107554090898 0.21103906799829405538 0.15113568817788899934 0.33201905198475295533 0.13610043331502677533 -0.049265500137794619728 -0.44084395855519770135 -1.0584855443148180054 -0.13193531353570392417 -0.63441565295881285902 -0.093766969901758909223 -0.25522319920513636404 0.069405155303722515514 0.22966258119304028273 0.087887764943788831973 0.18679468361111370434 -0.30771287812927838878 0.36622152484661463223 -0.23465775979918865324 0.0738943090537853009 -0.32348480746824748167 -0.54073790935458343476 -0.28933641442672175526 -0.35292966828752714292 -0.040502328293567944895 -0.41194982550812608846 -0.33289596983995861645 -0.24449594477072472687 -0.12505485071442645761 -0.012854613956370695288 -0.029110542507670051499 0.32830446024558940232 0.13355858158498973287 0.17985192005233791024 0.22763986492968288355 0.21685689416643391669 0.40839447623171265533];
  
  % Layer 2
  b2 = [-0.35247676784472953271;0.33351906480442156111;0.43478228474651908764;-0.22907495406095079726;-0.097021493081728540919;0.5278942561206905193;0.46359825667789150705;-0.99945378428324982423;-0.20588430969442356178;-0.6588928053074001312;-0.16075150274060956423];
  LW2_1 = [-0.99218618867084562574 0.0098487911472743636804 -0.7723656538648944192 1.2370245572717828431 0.99174300617480126707 0.83249084875144374607 -0.074862490531071926303 0.62534891046963636541 0.15316179099489124482 -0.42421048200668121098 0.00051387212247059818604 1.5031519624138980351 -1.0246301931451795575 -0.54812193426233157822 -0.61826640135767818585 0.64744877496137942519 -0.38536459854974525197 -0.73005721540889889631 0.68463022054024891272 0.58475625107883277831 1.5344199643546128087 1.0846711818163701224 -1.5676993135071266572 -1.0903899059106896274 -1.2849952576452630115 0.90252811950943467867 -1.4923661475203491289 1.253968782571365459 -0.63198046366711435606 0.55353620938956282771 0.11197736821178640165 0.042054819332911462515 0.96697007537575174752 -0.43136277229938463362 1.0458412689860316913 -0.60264123639978983693 0.37028671039587252034 -0.72731246079593758758 -0.32547724249508769301 0.57776443671843125127 1.3795177980623720693 -1.2662889442096296744 -0.28033759257340290505 0.39970835268221616143 -0.78894722775121428615 0.094156731662516826575 -0.7296361339566196369 0.62628547789666721979;0.77452816308926930589 -0.11314664716294056679 0.87140056479585636939 -0.73496465240922193018 -0.3580454297950224074 0.049115025542878686104 -0.96584325445779994901 0.13318882460082112629 -0.81821254954609534682 -0.12784831845058955424 0.6483721297986956289 -0.8613073249891548544 0.37420173349900859305 0.63353784728651973968 0.098041153445906137343 0.12027791926829599356 -0.47435775168011562464 0.30220264477365421651 -0.31805360458355647069 -0.67774179894801311885 0.87435868649206072156 -0.21241776741292273112 -1.0228988998014376666 -0.79469425977873631162 2.2143752660367232998 0.019895386789822416818 0.70092176746104417617 -0.90270462505804704989 -0.41567628788577465349 -0.42656925030355846706 0.54617877424387095697 0.2041729864169181119 -1.091687887607464047 -0.39718914658480264368 0.80830905224196569758 0.90243778212175096431 -1.4655644825870222103 -0.55036177175944067663 -0.60664894605037222863 0.25024013368282982395 1.1544042683282116357 -0.95617133230313422487 0.71254617333286818237 -0.42683589680464412153 -0.70302667073035951528 -0.2635368716775322584 -0.40997546070118418005 1.2383930255274735455;0.48929731554670136129 -1.0459622645019168719 -0.42460746583236336216 -0.13012831303829502927 0.28275156481664914798 0.76519618857291482605 -0.94054918771731921279 -0.87205798789771538093 0.47649045533508216366 -0.076537840083951522163 0.010262497951491270087 -1.262440093292598986 1.2093217762994756814 0.075987688068694492216 0.7441632869891642299 -0.46807797076391749469 -0.16674407005146948957 -0.94716797131768359908 -1.0392017928994810028 1.581546198153300109 -1.3297093345622190697 -0.73624062946032287069 0.88253453752026223 0.42467576055856903761 -0.57672044040378045437 -1.0254131372873047656 -0.7903520028183504964 0.3598225161041953557 -0.48604867138472679367 0.53979946882723217616 -0.68994603620111505382 -0.84398145815440173134 -0.062136514363517164616 -1.5427990220836871327 0.39882378241262583796 -0.10277259965043089585 -1.8331781381457721292 -0.03732145572272569517 1.2665433182745131635 0.75733739713015479911 1.25260222298123991 0.58100628108041685316 -0.8632847169746487026 0.46777826472634098653 0.91911116720639507438 -0.49358409002254632902 -0.74972434474648708136 -1.4847981578942053282;-0.53732326048175627076 0.83369572281737136521 0.41362432749645589025 -0.41861507262920899519 0.2157735118569747701 -0.31414231810293696823 -0.62213510724257015116 -0.61546944598787012293 -0.18563580551035299693 1.6733508176586515681 0.55212577269503726463 -0.6193319947142257309 0.12537236057185624505 -0.67817443964317003502 0.62051650609501829425 0.24328361429801764748 -1.0851164975716536265 1.0520544339065149853 -1.3319298138656814334 -1.0438858870479084118 0.66966528353961518594 -1.0035810693365416757 0.91853383601526816804 0.6030602009456312862 -0.99134503506227866776 1.201611446208393108 0.76746345762843792837 1.5314736925616168062 -0.30284137348536549483 -0.64033127591509475529 0.17803228758618647176 0.051402076537700264192 -0.5753564235978104735 0.3764933000954287512 0.87792910904031418173 0.41743487776584337068 0.92673352238661166336 0.63099742473991937697 0.95732187063658713555 -0.74398672474774973917 -1.1107393049068896573 -0.4524209369435407968 -0.10063235784722980581 -0.73630207284887849717 0.16540765466502918568 -0.92118503142616170454 0.053339402833588955843 0.59941763936301761806;0.5769518481083165673 -0.013742372805105504061 -0.45018138689285364107 -0.50024415209212469424 0.85289365825906160445 0.3774388876075405741 0.78506284847901386392 -0.093804989992313847491 -0.71996084903199697447 1.082602795874661572 0.5470364881891027764 0.95039660385974722434 -0.82242812995150749167 -0.26940843463388974843 0.92636300885937572502 0.11619451529123980826 1.1495449640338613051 -0.50679886678857455351 0.94440204279460771009 0.61188339702204419535 1.1653197765989187218 1.0415398524917502954 0.3813292242320978076 1.1426639066190902305 -0.22026725305727690163 -0.8921581410359591402 -0.031085263041192599809 -0.76984208372473217352 -0.56553277076920782651 0.68394513458412320439 1.2568524926076105608 0.3996917993002012115 -1.3001033611900532083 -0.36798541683973101657 0.096807641199697036516 -0.24186167379571346658 1.0927017948050026241 0.025207603806143175085 -0.66530533352601473052 0.60755277154020170816 -0.11745333198987818746 0.056610260025504711978 -1.1989077395645859614 -0.37881206084967206094 0.96820075459132448614 0.7351325993813135895 -0.5855796660330278014 0.18976084544152205247;0.83425951320526881005 -0.038094079928932260415 -0.74233812477906813143 -0.44281435726456269686 -0.088899128330815424537 -0.026248700408801631245 0.39216208760216259011 0.65008724609329326949 0.41867870870152446017 -0.94125856877296099068 -1.0147662526790333093 -1.3923485022834862779 -1.0364556704815570676 0.99457243565727437851 0.32611354682882054412 1.0640993139650913868 0.77545236559400243515 -0.81870606831250802848 0.48512862008686508108 -1.2586002520823267314 -0.55088519177851769104 0.7586808906636530736 -0.38486053989987140111 0.83579532745301976515 1.3020553115848094716 0.69974290300973440715 -0.64659234577461155435 -1.1603186940026339879 1.4983907345007143608 -0.16956018581255102862 -0.15545056692166639434 -0.18077077751161613195 -0.7063983114787023565 -0.25253246221799402482 -0.72337694148679665407 0.66020288072905419785 1.1397963810169240428 1.3173804403736673052 0.16481315153015391184 -0.14575486815359472992 -0.47832880318211656867 1.2762842208894240592 0.8281505140986403779 -0.30059430863010333512 0.41177432014292369988 0.15053978850856569727 -0.62895278502013385324 -0.36814762066473127877;-0.14419498866855887109 -1.7818012521948183302 -0.27435363363134523951 -0.001205848633480922482 -0.70392720481125703458 -0.032108364830801199019 -0.079605297556845477924 -0.8611588771091847061 0.84175318600032278393 -0.72979380802831261832 0.91182091420134048221 0.341359107621728608 -0.86500373838287991646 -0.85867866517972502027 0.056223980984369655023 1.1289665609897636678 -0.47629243093480083671 0.35135529725665021195 -0.96985740620894256292 1.1017375900191481719 -0.12939349096330976518 0.27867218987324948731 0.74811307255487990986 0.57701215494322077859 -1.3798174095940751727 -1.1810021676803874602 0.55650800274317435701 -0.36844306916459862444 -0.18384262911096396764 0.90315528063889882748 -0.50142058989941928893 2.2799953188013124539 1.1857774745449625176 -1.3956875045376972988 -0.27167165934588866083 0.9233010343270776632 1.4728323398791336452 -1.2774984665164257347 -1.5528769824451300607 -0.33559012924651349108 0.47935328514410474599 -0.47952500784436363768 -0.22396752695588062476 -1.0750446012924772532 0.29734434700333489676 -0.14731320290828536779 -0.73277909098362004059 -0.35286223865874227767;0.45604312875890096191 0.80297425867923033493 1.1494271087003324894 0.78861194030966319524 0.26032633293953494347 0.12411017366078387625 -0.16488366091246331457 -0.29454122751125760837 -0.72143252611155428422 -1.0254788237245560101 -1.0242217941255502556 -1.2223678604131769099 0.92670076520097466322 -0.3789645107890864395 -0.48277568327031650242 0.063025225254867187075 -0.4756439725279355546 -0.34318576578574827574 -0.17783309489571252904 0.55198468138255807336 1.0902866842524510105 -0.056139181657988014573 -1.013086006470222733 0.54385094025738001111 0.12340557842945666656 1.2643835178977811395 0.39291872568817920452 -0.90811409904638673574 1.1042797583633978675 0.69205427977081890312 -0.94856952169618358184 0.47019724891474590223 -0.77171912289144861674 0.63496846572903498096 0.70443146290625868744 1.3534603195843786239 1.0362793228091273789 -0.68343418919086251773 -0.39318887353351361647 0.49304964054303451748 -0.98136192871329797072 0.22741947954283184274 -0.79782278706979181671 -0.95575610031556024193 0.2588481556262022254 -0.48726045688647429133 1.0885243866043947669 0.59969767880618374267;-0.66593622931758622574 -0.41962592450637886676 0.5781745170659373656 0.99929700394567233523 1.2179365084541571296 0.31867072327630391326 -0.41641107169448560166 0.69876393042223605701 -0.063000043812459424752 -0.9238036658416538538 0.15488005501937257558 0.82428328480503310072 0.55596336481628760851 0.2987808147649036461 0.4526546038524987825 0.35738217003488609302 1.7882301679146421769 -0.021997841505853602678 -0.15240173279881158441 -0.40420322487128229616 -0.92629294127025907368 0.33184941371019582856 0.90391572810748233024 0.15103150035547471819 0.60727926630760342697 -0.57713537015493998616 -0.31716570629877033349 0.7172155634690383641 1.2390065194957717853 0.29435167080337482082 0.82615826782007806273 0.57216096322759268933 0.1649377567151984747 1.1967403661954669758 -1.0390179109897308418 -0.70862307976654004271 0.58958285932134057994 -0.95406366685611765366 0.59739820995759418398 -0.29686894302760230557 -0.88347283410693233652 -0.24583411479711744785 1.2298276296757375547 -0.72587458159032147709 0.62186390522662937652 -0.22966062078071147745 -0.057215604328527860933 0.68076771147022419051;-0.68358497871848244998 -1.0519878700267295546 -1.4398928866573883489 -0.49548924959901025078 0.29389651677844341737 0.87355270299154175184 -0.82726264159890161576 -0.87502333778082252991 -0.60253751311793257717 -0.07008500799445101237 -0.3166183860088822577 1.3662387778889080181 -1.2602521148383072358 -0.79846814819920097772 0.92564128901033204677 -0.86996922471047632985 0.1780679680400452658 -1.0120169672968768459 -1.0147826522384335579 -0.70198977361318726231 -0.27141981883210364312 -0.7324755265353402045 0.55456409438665488221 0.72230134273099755315 -0.16849471777281402329 1.1315088576058800474 0.26250637578272278949 0.3502634202049340062 0.58905412065452333881 0.67101340448763657776 -0.53080577165714237786 -1.4274211114190160643 0.3554422522634373971 2.1111704461948850309 -0.77189658941205352427 0.93948803302107586344 -1.0349108285907375748 0.73770531921359894234 -1.1155761663155037144 -0.62378295016610008084 1.0553676399311697764 0.95739404360736657384 -0.88579960660046785925 -0.43484523007965941721 -0.7193269707113395528 -0.10524591255485624131 0.43025053627151477187 -0.64567408243023816095;-0.69408943615376594849 0.56522577565892218043 0.8959276843518289013 -0.017604832397214432299 -0.53025403155957884227 -0.45085458466103772723 -0.39004593337380277784 0.41665498964338409937 -0.24250727985732969949 -1.1224609379432792799 0.63793045783375457169 0.28962127681091037745 -0.57325617972942444212 -0.59668021816507332833 -0.75433512789713697 -0.49926341937958040873 -1.306336567808954241 0.80088011814770876384 1.2574122115687400569 -0.852917336040315055 -1.0440217969712597412 -0.72477838921871351463 0.88655497682115824709 -1.1822376920871862094 -0.55649276271527958748 -0.50567929906869690804 0.94326228408606660469 -1.2567093052908138162 0.60446358062375160625 0.061674874203683130447 0.52565092244642341868 -0.80665821485148714309 0.39390611964170052506 -1.1731831551401032954 -0.97110009960111831617 -1.7043720968151527817 1.0724044779842616393 -0.4188277714757026593 0.17297062781901412221 0.40151827786802724019 1.486327498810894987 1.3743314392951790914 -0.88911031085129155205 0.10976969377827010266 0.80660557526379450533 -0.32605322273686637713 -0.11686301324463076179 0.97457893173822129906];
  
  % ===== SIMULATION ========
  
  % Dimensions
  Q = size(x1,2); % samples
  
  % Input 1
  xp1 = mapminmax_apply(x1,x1_step1_gain,x1_step1_xoffset,x1_step1_ymin);
  
  % Layer 1
  a1 = tansig_apply(repmat(b1,1,Q) + IW1_1*xp1);
  
  % Layer 2
  a2 = softmax_apply(repmat(b2,1,Q) + LW2_1*a1);
  
  % Output 1
  y1 = a2;
end

% ===== MODULE FUNCTIONS ========

% Map Minimum and Maximum Input Processing Function
function y = mapminmax_apply(x,settings_gain,settings_xoffset,settings_ymin)
  y = bsxfun(@minus,x,settings_xoffset);
  y = bsxfun(@times,y,settings_gain);
  y = bsxfun(@plus,y,settings_ymin);
end

% Competitive Soft Transfer Function
function a = softmax_apply(n)
  nmax = max(n,[],1);
  n = bsxfun(@minus,n,nmax);
  numer = exp(n);
  denom = sum(numer,1); 
  denom(denom == 0) = 1;
  a = bsxfun(@rdivide,numer,denom);
end

% Sigmoid Symmetric Transfer Function
function a = tansig_apply(n)
  a = 2 ./ (1 + exp(-2*n)) - 1;
end
