function [y1] = myNeuralNetworkFunction_allhands3(x1)
%MYNEURALNETWORKFUNCTION neural network simulation function.
%
% Generated by Neural Network Toolbox function genFunction, 18-Nov-2015 16:22:22.
% 
% [y1] = myNeuralNetworkFunction(x1) takes these arguments:
%   x = 64xQ matrix, input #1
% and returns:
%   y = 11xQ matrix, output #1
% where Q is the number of samples.

%#ok<*RPMT0>

  % ===== NEURAL NETWORK CONSTANTS =====
  
  % Input 1
  x1_step1_xoffset = [9.82802513371268e-06;6.11828780038536e-06;1.20137661873645e-05;2.33881391892058e-05;8.24973372937833e-06;1.62239532925598e-05;2.42022226713668e-05;2.34117160986051e-05;1.21001658119507e-05;1.90244237145928e-05;1.01904632313061e-05;1.14984413803954e-05;1.34073472637692e-05;1.87980912185855e-05;1.65559785872251e-05;1.58877907275317e-05;2.00076489143198e-05;1.5962603494256e-05;1.17280436225671e-05;1.96719016018277e-05;1.01530743926963e-05;1.18473066149287e-05;1.06903574483916e-05;1.273148556313e-05;6.31437732241765e-06;2.50882527430845e-06;7.62887911693587e-06;1.59433262394555e-05;1.70675036976868e-05;1.63650974145182e-05;8.39652737180383e-06;7.80493575486422e-07;0.00044928972021305;0.00125064424066159;0.000133527453395777;0.000477275943250957;0.00043432996668442;0.000787242372706315;0.000202977077752684;0.000306043104356502;0.000191623222003452;0.000195519132033205;0.000189604069324414;0.000233524660389433;1.52872206631602e-05;0.000117918446630909;2.8188744098288e-05;0.000127167673799057;3.87588347313152e-05;2.78059939561849e-05;4.72727521180067e-05;7.36704114141347e-05;3.41653827796285e-05;4.45936036084539e-05;2.57896087752831e-05;3.38440329100345e-05;1.97625079760266e-05;7.15559833610755e-06;2.07450200183778e-05;3.92686145398097e-05;2.71100181264226e-05;2.30714735613093e-05;3.34109462942768e-05;2.41889470338821e-05];
  x1_step1_gain = [216.645769083766;192.077774653748;226.414230474614;229.723276650924;241.136841694689;166.636717803967;258.210389716235;214.156110136414;169.621113391013;296.628574710353;240.902530192133;331.469073384197;346.234979112729;390.656340729609;275.625069439414;378.400327585075;415.194031127274;256.288237944246;379.788911524284;267.686633604924;424.513183354646;510.330588417816;428.263583963305;365.598730671776;369.972981088552;460.128862253994;434.103781279467;494.601617351282;504.676054977036;396.387057503615;376.180016977909;391.341279173166;9.46973811352117;4.53177811244976;6.90225935116515;5.92669027259292;9.27577273555007;6.7306518793456;13.8990241566094;10.4210795245312;17.0577052919753;13.3610968971866;15.8162882851685;13.529673263766;34.0570601586459;26.2929535668166;31.0737984060948;57.856724151332;43.9421379259145;59.9083085948694;75.2435422221436;87.9580762611257;98.9559482414565;118.953587845364;102.770377736603;122.437727751365;115.58943088718;108.573263530737;147.898425560974;96.6612772222384;149.479845382796;137.942907525882;159.227581315781;152.945886736478];
  x1_step1_ymin = -1;
  
  % Layer 1
  b1 = [1.4010172972388592605;-1.6685425190166147669;1.423498186576994895;0.92667259153519399018;1.1091441335869383078;1.0780403568968852657;1.0707136517614812554;-1.1043734134487059872;1.0199708314456816804;1.2405759652239907176;1.4335439977242301346;0.88020332327565853348;0.94166417243251565594;-0.89886585918159467301;-0.33415206299491723163;-0.61915900044422389481;-0.65919596187466644732;-1.0855994865291240803;-0.0093196202107144344301;0.35184353621102182341;0.095247283091158319035;-0.12442644727013589534;-0.081985960495080029142;-0.34489256115308297712;0.061467261394133942964;0.34941936795552680506;0.26368254213371028483;0.04799915667129506236;0.27068611476869774979;0.63870543171017057915;-0.28991718260352633552;0.00835644797288395344;0.90091161364553018487;-0.96949368019536052987;0.78382313940560521814;-0.60979585793939439231;-0.58991221313436970064;0.69956242340915508748;-1.3973748594094468345;-1.2109420126249061944;1.2239276178863778277;-1.0325315936817858198;1.1873049555531836052;0.64465169272405764556;1.0974348177194475085;1.4434799648085372414;-1.8545431996804071506;-1.9612517652297229986];
  IW1_1 = [0.0061438666574148668997 0.14034472200201014713 0.035608902784058302227 0.27107613105430200529 -0.14454178554470370477 -0.14835551102310204352 0.48720436692406521306 0.053828696134251972916 -0.10377387894589733264 0.20207525187785468912 0.5314210996290024136 0.43151362623481887004 0.020212160233511050622 -0.11085120727943174879 0.27867879800710187999 0.34363353136081159489 0.48967258256988815956 -0.099139375612367144908 0.0083119850414138506806 -0.13199123037973894967 -0.0063468640201871772549 2.0233333813239346571e-06 0.10816122806019351499 0.080971118889483453818 0.46253573205148096337 -0.0059396964663933383977 -0.019857107913698650303 0.015623772456513083592 -0.11789143440690048881 0.10918556883104292565 -0.059967468741804232091 -0.30402811770710208572 -0.45320141747819903122 0.54746037782104994829 0.018551397769976010754 0.52179303746272098774 0.37230068816445249791 0.17566900056014170262 -0.13479729741438378765 0.23709971414990554939 0.53080586826781661625 -0.045011331231795570496 -0.20623219505113135619 0.47443344266640657958 0.0055050074889073418241 -0.65665262354803199951 -0.67580732301296975173 -0.85158747147078450723 0.24203986618024722621 -0.0062367725819170135096 -0.10340852974311015577 -0.37462035743640792473 -0.089099167032375622965 -0.30882084705259627011 0.026688591585279562018 -0.15598120344518254243 0.10651037274851568593 -0.17772968795505500461 0.20446535676665536507 0.4208297798808755541 0.33763923690090352769 -0.55438208636174202137 0.36652016666479442231 -0.22244491922743955814;0.13429694898574986994 -0.097235725950666138107 -0.23834284572541347691 -0.31031368092254585367 -0.13118257375599526315 -0.38171668625875349035 -0.04824527295936979765 -0.1331276783947559772 0.089202761601473279374 -0.12778894942979435179 -0.18745942421254158106 -0.30044403607186498384 -0.44137581550309007428 -0.1887972158327318184 0.18031760074825931017 -0.2242560872365153557 0.23411847332733798366 0.019514237866587430537 0.070570032892490863752 0.35537154113307456438 -0.26696008186907149717 -0.43414207570104296208 0.15709335400399543348 -0.13213255117774919123 -0.1086202949765874004 -0.00072887834902696300825 -0.15008527415844111208 0.31962044762138192011 -0.18742227984581627531 0.15265040094718868025 -0.22667470878834566905 0.21521070858291924122 0.26577842138089408097 -0.21420799017996264291 -0.051457511894750528059 -0.36040726345179957546 0.28193107650872256675 -0.29539015059735734825 0.79973667178083318596 0.24613707379280524989 0.22646004676832284797 -0.36976904851381636741 0.14142248098012416557 -0.47189093892504802019 -0.11695979542466500289 0.1202596929635923878 0.81176514840773827952 0.12761073338291731294 -0.0092134898906519168554 -0.035931475872886156631 -0.25099300797019730158 0.18091689658369680682 0.15178424726903264053 -0.24522018308524096142 0.029865539938981222612 -0.32642964093018034255 -0.38842905781383985087 0.39984228626035006604 -0.27786770951405415087 0.056844004959535739119 0.13250573653605779434 0.18418728484521212918 0.31416738784924980177 -0.33415517462736737953;-0.273231527272457142 -0.20476027880953659444 -0.089942568211975951198 0.041539036927021086298 0.12860450376545154438 0.30685090385629992804 -0.20942647391196117512 -0.26466216611712234386 -0.22009495463096140355 0.173207887861730081 0.22088434896256059492 0.23570374853429229556 0.14213152026576850173 -0.21769698921055952168 -0.23180460295332630527 0.12520574604102963079 0.16198944130637071837 -0.018312057541106121356 0.27927941654009869055 -0.14016431382474089928 -0.16296895830931723559 0.11305578626784575091 -0.02949985230329929195 -0.25024071205344616819 0.16087506907214893515 0.12854697372778214892 -0.12600617736339381203 -0.0030177041464050681496 -0.28646917151012546432 0.25044720729348735055 -0.095078717008790447629 0.10275561986122364044 0.083985753303979407414 -0.35419557177953941984 -0.29273664248961384082 -0.081387887446148485249 -0.23735959259570996172 -0.3531660545737057566 -0.0094730769456765583081 0.1445093512620222731 -0.075186561093938397704 -0.1077820275535509853 -0.27145727803199515282 0.11803052400760301321 0.13122541933154727167 -0.21810764505705332317 0.044632176428842006144 0.0016020678897889527922 0.14331364338239568901 0.23338439700663862753 -0.30585662798671248153 -0.20249460986139133922 -0.02940507661531972447 0.08324864790281172322 0.037223743609543204214 0.022557085762061637041 0.10680587648819397928 -0.17404935641264424051 -0.30532025884538727123 0.23912730745260793452 -0.2218697691096041813 0.08817745811862888472 -0.18777913739510035396 -0.21296779035676502434;-0.48544954732661244057 0.0020085083146192690001 -0.095699619014342818257 0.24934146199746923256 -0.20467109088188151222 -0.077527952798028265669 -0.16143657303684449955 -0.17262465827644407623 0.041156523105255214678 -0.061299136618708602309 0.12899469171140809376 -0.35070643796867329023 -0.062779366232753527899 -0.14947440972474596022 0.11011719910864767313 -0.082993568168474876612 -0.36128171008511017481 0.37657089399225485149 -0.15167883257876207947 0.37226874460159081748 -0.11284865275024619224 -0.2704952362823087042 0.24879181091637442291 0.23625952435213873337 -0.041784579637452377854 -0.44771043200610294299 -0.15258389540387282124 -0.26513980938207848403 0.12091820693021168576 0.24609903613759603891 0.079728858503424468451 0.60187036315249475837 0.87904988663953476102 -0.68556592384874093238 0.37544911521147028566 -0.43943526020825474099 -1.0512799094116649368 0.29920717344847463925 0.048193411579662497057 -0.96699384949071753859 0.25438170652430214247 0.060300270284698677392 -0.1543494984710773732 0.088952208285934100673 -0.13247084614622520182 -0.13572203243078295731 0.27637423117839832187 0.33177330601370802476 -0.15465327239043000218 0.043148250289504287702 -0.12123866044115104434 0.40216332203658611277 0.10673116965673123957 -0.09380720353431896974 0.24844359507499244599 0.034792964369785503442 0.13899611105611875406 -0.1753693537304839567 -0.37110752557509063543 0.20711327875910695573 -0.10696811765086577939 -0.19574486615226777131 0.4576149006370571759 0.1075686906773010848;-0.018603601860945395696 0.15212699682384669964 0.43400142940921138113 -0.080852326525364157095 0.045570593566926720364 0.36748012915717853666 0.18569895741055197913 0.4329219234851403586 0.15324212962154123985 -0.0022523822291135907683 -0.24634075128755053563 0.19322384568048087128 0.018114844039157373262 0.35659396773888302201 0.17276664042279216149 -0.25942395288731656677 0.10713158602959348131 0.27873675695876898306 0.25377611236050523491 0.1274249327144175159 0.09226193556163150844 0.39218459445087888726 -0.093833159094037985049 -0.086642287595297032277 0.25898600320487313864 0.027754990365215257558 -0.037715437758529209156 -0.028947107314654156596 -0.20791890459250172984 0.069014745082402323417 -0.0557747193250956938 0.53382263652995354253 -0.15540187509578240466 -0.048493474090206802052 -0.15433078567055985575 0.2435980772946256534 -0.26482890117081331338 0.17003698805796502169 -0.14932138138503123215 0.16550052086411165542 0.17124234637504168188 -0.077503045156371810909 0.15146227566895947847 0.1860554171015603997 0.10749585438641647006 -0.32745268351744188928 -0.1541940974620009952 0.15942453202381837163 0.0014453471567032263878 0.25198809883083234107 -0.076393023862878162156 0.080825907437902258512 -0.0002741805525083599801 -0.25170558609951598772 -0.3006785823250610612 -0.15467453072460221608 -0.24255887652775237617 -0.12683420720266083692 -0.06311354262377320834 0.14434879174781994893 -0.20671614207531552321 0.30287000910310901691 0.23918581072820419009 -0.11760750554654224309;-0.054778056605920340261 -0.067881396979085226184 0.35753299216616224454 0.45103804520771206832 -0.19673574582035260883 -0.26164599500350332884 -0.44856105978203059115 0.029323779867381365855 -0.18991005750788819695 -0.064849069386675367577 0.2023554617179684767 0.15188381464248548736 0.42034230690670387753 0.42650843535248483818 0.54953800807293362585 0.18353436228900493754 0.35387218742229498147 0.31386005619881529594 -0.059656557018373156109 0.07854745723469887253 0.41690419812954343515 -0.10230710685861599263 -0.028132455924948923665 -0.13536483168843663205 0.084597157289060254115 -0.033580564913670049587 0.30847249953103478282 0.078176335089583742777 0.30845290525199597909 -0.01970686216736884655 0.51242983835626021438 -0.048226497419112154819 -0.8860656303520368926 -0.69131602791422475107 -2.0352543319475753236 -0.86353225897717045267 -0.62473927445259336277 -0.75370573857750255975 0.8516182997145904654 0.70884008177547497276 -0.17894725363410443619 -0.48154681229255885677 -0.12409320127690859348 -0.3396111669374277664 -0.15500836610567214624 0.38256722221070987855 0.42384343738787466638 0.081589208170105426143 0.3296575453773432085 -0.1359243640097025918 -0.25984826623188400641 -0.24167456106698276264 0.12749561321761815336 -0.32541554125316163315 -0.3126382374307896117 -0.35223447668196400384 -0.42703783032954550913 -0.028739417145591306113 0.60472451997444998106 0.011382140209592977315 0.33512352526252020546 0.43164101136966287475 0.15381875334922470722 0.18007428978096778893;-0.40077121139470145428 -0.43793183764185467099 0.23424578912864230107 0.069068975062860152314 -0.012794406456144165329 0.032932410337166095893 -0.37284768419217423352 -0.19916367111557634062 -0.341198220779509509 -0.059668034175242301576 -0.14865919149329878679 0.08218827591793891052 0.030625288037422541271 -0.21767975959832605581 0.21335010752896210739 -0.27158842212107348058 0.053768903869019356312 -0.26610820219654313101 0.055039672314606789827 0.039941601733825139731 -0.23216693871457105836 -0.22382556828646957281 0.11751261848206158434 0.26761373225814949484 -0.13015531507694066971 -0.31039432064463995387 0.094020800765798509535 0.22007611667235460473 0.19133160653499950432 0.064725437617352624131 0.21022524059268782315 -0.1461953493873587584 -0.09497701146705303521 0.20984604349271829271 0.35641032740055450523 -0.21283931317309351394 0.018927884170897694288 -0.26489932303802782299 -0.01217162835297921214 -0.43239009278438089723 -0.088410854672931152298 0.18119531410653280656 0.084758059249090300646 0.25400579390900090981 0.12104588732980745003 0.032059309875884942076 -0.39289238210167853893 0.046656647953524060801 0.15316098267557409773 -0.082632980525638541347 -0.23119562609664071062 -0.25912173093039203575 -0.17056208831638794421 0.2498445104674890116 -0.12932695059110513314 -0.28192465674210304138 0.14698917619597798301 -0.086906463283222518124 0.024677834216333866674 -0.1118004095938517628 0.17864936859890828691 0.10827575683244597404 0.11053622401479515358 0.056183617873619078054;-0.29566881185259763498 -0.2410145704381081444 -0.13669315788329131078 -0.51319831071012411705 -0.36229968291509107026 -0.63767787809952192202 -0.63774400780646633979 -0.38487480647607885675 -0.44842131952464414635 -0.74291007981872891897 0.27805159269190410365 0.26651947385324159523 0.017572108178069312245 0.35322857745242958183 0.16312603437355888136 0.023019429865418102737 -0.32251251387397372739 -0.069357829460321179793 -0.59990886938021203978 -0.24429325232558277148 -0.25998267498624622052 0.26275790596860770787 0.38406372768287566632 -0.36314711192708076792 0.092019986065846576251 -0.56364647751382712659 -0.052163189206273774534 -0.23046327191054954975 0.51301513324403380523 0.0040470811499368469083 0.0015824757380604758707 -0.1818084083400295925 0.2855026132880124079 -0.58845198161899814338 0.17806485058522544818 -0.18347464529148588275 0.92532348837293931787 -0.76477618093405130839 0.47798761479601731272 -0.081960311117564813022 -0.44620984000651386925 1.2555017022344781008 -0.1309851615198368846 0.16167246089767048356 0.83683388820791160256 0.70707515963582268093 0.91524198299501724474 0.24940175552199345121 -0.32475839141997403514 0.2398834824688514944 -0.13776072706257394551 -0.010023871338007880535 0.20655423186123589296 0.25769974473059048536 -0.25310849347088398842 -0.21825142232222907723 -0.16218475187316372388 0.73085349142295541469 0.68448119832770160098 0.11478560220524046398 0.25623927937131402155 -0.03021432597707084805 0.41993578548946031148 -0.2232828662230061656;0.15779646860711285528 0.0012818497708756721593 -0.059969788272286911335 0.13566301294672664102 0.0539281425293257205 0.18262244831214524687 0.14357531028957498664 0.0055043841998424864956 0.021145300425924010157 -0.21828258634299327334 0.30545311117936768674 0.17300459832600265098 0.10772282966176502383 -0.27357907583258772588 0.17545706002992178529 0.25797170463611024394 -0.31837630341716716131 -0.27534340484748170974 0.24899618140951795819 0.30125847533133903733 -0.028540161532969895303 0.35292835305628850184 -0.022625779425917480481 0.15475045443524737543 0.21700495244732276312 0.18488890648828021357 0.26035061812121135238 0.063135623810382748844 0.27601234739401514506 -0.096163353006813584445 -0.094218675430190551578 -0.10405666796849318001 -0.17239537080650793599 -0.020420535526796547432 -0.002410685006741867132 -0.43967622352426705135 -0.28521379199013269234 -0.46934919343815467707 -0.0030979029818404314744 -0.16503470887150822888 -0.16564197068999622631 -0.017310459235131261946 0.24626453560401684317 -0.11901025998938129236 -0.38619398641069313527 0.4843565208317783255 0.28074296189608149987 0.10993437478934593721 -0.0081944447315289020706 0.26091462533212422814 0.17726387332432050337 0.19221542505820393698 0.13546046801914748969 0.11515903793723283877 0.17255688997119408845 0.20712384760993018951 -0.077791847594078630812 0.37617716985038318622 0.28515637376824209959 -0.26260688993584091477 -0.018734490678008933195 0.17938306468136694383 -0.066791131573226261708 0.28434312573754660924;-0.27229679830004199781 -0.18279231631848671946 -0.074952790418752482382 0.12218629543117631719 0.201788231128147727 -0.20753500318570361483 0.31520672058768017809 -0.097167013709233474028 0.076157739374364485929 0.21258143724231479132 -0.10456781591594895009 0.20345507545316571241 0.019323808456581454546 0.13581762512068870641 -0.12148222514098362679 -0.011822551354267143986 -0.029701507278373073112 0.13978204722557552309 0.26017557684746844826 -0.47927972843574989659 -0.046452616291096586465 -0.4594846864056539304 -0.58823721074518431351 0.079621027468621180523 -0.25834655374984955012 0.060701261310537137084 0.21463028084945784402 -0.10790343982425040781 0.085211063658960639611 -0.097451712277664997996 -0.091004667345887801932 -0.032877332325310287819 -0.067934547577667814267 0.22465441977249164807 0.73897674286628733942 -0.36941263823509234987 0.02465750511076210752 1.0457036345240042774 0.58523706566428701503 0.34250256984660004678 -0.011572091808824420262 0.041025761348258617256 -0.75996484563404465007 -0.43674897992544781111 -0.49603794101213166678 -0.3351159358600210858 0.28797141327553665846 -0.004318893835700433198 -0.52840461657556336839 0.22739075402010608395 -0.13424590775156153288 0.11706801884082063125 -0.12246229824929873164 0.56794320443948198562 0.40711339888808079079 0.24670378302790688108 0.31655440002464974025 -0.0034727924278440871347 0.020639577557240683381 -0.09161960645266351011 0.31379408627994553882 0.33109127375457736431 -0.15674951874354486892 0.24974701456029280155;0.047518367559551619173 -0.62068459941009290759 -0.38757514573193790897 -0.2302463532956103287 -0.49578271430407022669 -0.19851108828009839113 -0.26269852085976447276 -0.69210752280768816913 -0.88032949638936763836 -0.047829040593528070191 -0.18721015553827688449 0.35411433666136959975 0.13304097733729844388 0.1082926937740630452 -0.068223277541055268869 -0.19700557979155874921 0.36974496438249671026 -0.40568016167945636363 0.14686710435844305134 -0.23228278645592756457 0.050891098834360319614 0.075978510222210776659 0.22254795932467325015 -0.16287061544094594279 0.096350011733913568102 0.13840343277454006388 -0.13282329046955138052 0.012281281031831601386 0.39886634076822369277 -0.54338818640251573822 0.10682945046045838611 -0.32038498707064611004 2.074343034048279133 -0.75991879182453980768 0.1682209667101374484 -0.94857037627176177264 -1.2287688318530736176 -0.28526525072967751084 0.46717223575816280157 0.018336744259176220723 0.31792695030342293938 0.087696802720476224602 0.14246124329046738755 0.052119090029667143604 0.41290335786278631325 0.31793643673074167832 0.68557905514651173995 0.50893549600689480528 0.29793380310058981131 0.73036943381041941059 0.65828111538318012652 0.65797506751234768885 0.23191657087259040515 0.78567849790831623125 0.22920434687698038045 -0.071467593095000975234 -0.41138542167394487326 0.11029564324020395272 0.52414579881046075016 -0.53721934311084673652 0.22136724251317432821 0.11909799921366943931 0.68197431605373082242 -0.18780750449815022951;-0.15870432297926936882 -0.13104834806208962017 -0.26365752614883875005 -0.017040310137094068221 0.12995802044685184073 0.24105993374871084733 0.2379606582664282044 -0.046398481792210725938 -0.028178697678965140133 -0.0066475006652616363406 -0.11944170882278103141 -0.31313349590168770842 -0.06721567671886873041 -0.14339637434676674732 0.23273997919377661936 0.021777079241302677026 -0.0023724460807313919007 -0.29520618276390991896 -0.21499997160669920282 -0.15737877121348020637 0.11952047936177639942 -0.23022018024020071691 -0.25788950533605126125 -0.046103650577809802968 0.044716443355963621242 -0.30409662580293289613 -0.11117043702648279901 0.25415118586684054547 0.082913792804744354537 0.016287236254352358694 -0.073491255966669749577 -0.2511321546978239061 -0.039513502668931860251 -0.30744268120956214085 -0.30071955180793236151 0.07081379293381358242 -0.25790790329292306859 0.25241209021029631376 0.028108621924484589877 -0.30502757166516930587 0.20047338616951682067 -0.099480013160375954651 -0.03065792871552523377 0.15861730658998529631 -0.17088368275836218757 -0.097247961424340181869 0.14923813990130055385 -0.19966705629785463927 0.17524790520321112397 -0.2604565537524407004 -0.20546028525775417162 -0.35788562651935512671 -0.064499984258827025574 0.23762627462008528711 -0.23246678050555510953 0.0078505545864997021421 0.20635411119233590393 -0.16704622760855811214 -0.13657580637812849478 -0.23273940959708500076 -0.21047924665452677484 -0.15282118494529700614 -0.27772121193933452243 -0.28007152992608580488;-0.059070209212468499649 -0.01359022695182804906 0.084213547724084708568 0.18478475338639299697 -0.27640439060656968318 0.010148970327074369538 0.27711210031598459969 0.091821543859555640466 -0.3856399820767891784 -0.032376196142235399988 0.21028487057614297928 0.14755456643725448074 -0.14629463296351777335 -0.067205652299091700463 0.14287676534349647017 -0.031840848301417146171 -0.14026456355667579756 0.018434929947587171128 -0.1763310003277031579 -0.40320514414841202022 -0.066314473603951817893 -0.11026259610579254578 0.24413328990667348961 -0.33800112539234755671 -0.31549932572039807166 0.20368253658838467168 -0.14696345486748155218 -0.24966921414350215502 0.10356539866592527621 0.040924323250204841518 -0.19548899520284310216 -0.21999539331170062106 -0.00037390378123786229903 0.08763274924299198354 0.114784702915740916 0.15907010857939360426 -0.25855989111761901178 -0.42518358340395584483 -0.090076946779162905821 -0.029147558617150213373 -0.32769510132081147713 0.093210885971409168649 0.075503627202617398795 -0.17146250039691707245 -0.30212635407313642721 -0.15132618186394355964 0.070850894329096747448 0.14336648024163956006 -0.35261971746848791431 -0.19171932418477946602 0.022921021523720493812 -0.055629112427901167282 0.13373548906234458689 -0.10660919164902550593 -0.097798840417876203857 0.055504681885337955882 -0.16503335189097195768 -0.23099261763214151699 -0.049819600213944048583 -0.32806236837205499102 -0.21171433140352108326 0.23440198384820251643 -0.18569858100794367495 0.20260335632264994676;-0.21432805254216893975 0.18708946037364865278 0.10433850907269659469 -0.55809556052446718244 0.37220391712162592679 -0.043014890897864650754 0.14608215731558760186 0.18912261394448320884 -0.064620280285400427678 0.13779437306658612328 0.3805830166818341409 -0.24361382043902543582 0.38330795244511212116 0.73118407882783531537 -0.064659861105949512083 -0.070088953178868831917 -0.15635878575091571863 0.23989988736787201673 -0.26668065204474306062 -0.24248468084111649001 0.086511545480682322529 -0.10727963513459581879 -0.039323973064214590156 0.12090031211070000061 -0.47359185749552967781 0.20852817754018590501 -0.045796903272965677756 -0.27127546711547784186 0.020171216872703123801 0.17445251747196588443 -0.031472014059350447712 -0.067190701511250117139 -0.20381519470944819972 0.38515435315016205431 0.18046391086746263466 -0.91048100651511443271 0.17470684318283302705 0.018847303297298459435 0.29139321771983223153 -0.66328748662279035653 -0.37656059810376574237 0.69734528926845995578 -0.57828851705404016315 -0.0061078381979249307676 -0.035519746668560052416 0.74053818425541495518 0.7809445541384489875 -0.70744614090836654974 -0.74729685400482648294 -0.23886148844555038506 -0.35797391900885960903 -0.18087572117002753691 -0.51421090026879101575 0.058916360126045071166 -0.087776662959499415773 -0.175549895762486724 0.60426028144249144258 0.0091709153275147236445 -0.17929596974630485073 0.5481374676020699388 0.018215467170241635836 0.4659787978228157046 -0.23513604682335373375 0.1044036792203073688;0.1448893923826932717 0.55618946208414676846 -0.016263469040147488648 0.29795784770401850805 0.13593365497661336061 0.56364434835757160069 0.053435793603780971928 -0.07012085303709482409 0.16840948293900825927 0.018785937816981672366 -0.18945625492672901746 0.34466755039715152309 0.30295841941158968558 -0.34458528761430501364 -0.41214040372686810976 0.22443980487370457366 -0.26895610457194624177 -0.2274446604495371782 0.13926037526639017949 -0.090476661915544723258 -0.36332708501246485655 -0.26406893888551147276 0.0084163052208719776187 -0.13286999785935957319 0.21152367640357858103 -4.6524449334767355169e-06 0.13347246945081492342 0.093233505329411214824 0.28481009927783940139 -0.05430132203619887632 0.11231649420348854829 -0.1467753071879135951 0.022304213791934247163 -0.040967347637420922779 0.0099693338392870933101 -0.093173875054499338821 -0.63885982589092260575 0.10783129889702740278 0.057310994834397575859 -0.077236289195880797331 0.2473450113446806764 -0.31930200153863891321 -0.04283768125212081973 0.59299618532398190585 -0.0048848332185653514648 -0.011803440864995056597 0.27884487035567578905 -0.1436891529368903575 0.06393950413403599875 0.11037622332187689567 -0.19816759504716119356 0.58584934438075741969 -0.1026729522537215139 -0.10009438980849076628 -0.028123391472720062068 0.051910324093023020586 0.031554389151688407023 -0.2601774891232971898 -0.33076213128450437928 0.030411880889482753587 0.041613647568931363963 -0.146113639002230844 -0.075445173487050057326 -0.22085253870841217716;0.28093938883524544048 -0.013897995048344140984 0.023787774062384928198 0.048493635060605444487 0.0084040469590969044122 -0.11965878352996651979 -0.40233404260604627156 0.25841066623513236911 0.39156301745443145013 0.070392307862878825131 0.031086764892406536925 -0.27073711297279268173 -0.10097503104238980676 -0.4388877268540627985 -0.28517998376824260642 0.57844534057849061881 0.11138081443218134092 -0.10591252914225890436 0.066631428759752558966 0.20752887908813136275 -0.022246667453268482995 -0.62904837513977662766 -0.25667264489679642026 -0.34268272487476647559 -0.23811584427321780266 -0.35769991260414185641 -0.1427336577061967815 -0.19972157140667845532 -0.03697610757422327421 0.044955500811828974506 0.093965539348187437918 -0.24838423844246740324 0.38355645992397063848 -0.12476086421181864505 0.40324066222257021197 1.0328764552036571178 0.25804706481277889241 0.18101742268466924912 0.85305262052436670039 0.25096438238531332265 0.047784146131294495674 -0.32121064269700300153 -0.40639379628880062389 0.42266485600320435889 -0.21484718467254204644 0.033525398271609503642 -0.28129377392549481662 0.26874520212676172859 -0.064299204691302097592 0.070620863772666880864 -0.089269702024112274064 -0.27001219651137670086 0.35468282312537036116 -0.21223275675432834442 0.48041245428314560684 -0.6030691195945686589 -0.087218477473129427113 -0.049943784679889677292 -0.2754438845525926105 0.37272458716665501921 0.23533157117197459063 0.11329777438141258594 0.08946134099809698037 -0.232757970662748781;0.11348601923616791209 0.30999473936985627587 -0.21844013641844273188 -0.24301390512481357842 0.14284053392119819281 0.033962272726282563551 -0.015895526818885195863 -0.17233612352855143257 -0.18412441355282266331 -0.15258749134454571705 0.27605839514656910216 0.16829610271876815908 0.14450785419925724073 0.28956661639978342748 -0.019230437044196930368 0.040506388943218653298 -0.086241493677865974088 -0.059341146302127154022 0.30140844731322818939 0.24348511691596649853 -0.13835175910615249428 -0.1339832621907945942 -0.14053097650524370987 0.27114562625972782328 0.079221794394365940839 -0.22587125371548996688 0.099568472039121336259 0.15303055026888559564 -0.021729527546241036995 0.13952134678618316466 0.40035985935089457577 -0.0063732951919238996913 0.08393959666388947638 -0.040763160384816130022 0.2307472133421348548 0.10815741273327646177 0.019057057585837387792 0.015718813482923602032 0.37599520738030850486 0.29531415803378652241 0.34887842542822228298 -0.15274909153062307676 -0.2660101113124124228 -0.022317526607595106897 -0.082274954915180845139 0.17041421045855481564 0.27068385267909911285 -0.075480805588447275056 -0.21504466138265915243 -0.19572488866533901963 0.25438402596030051939 0.15839464598048766386 -0.17358883112455475439 0.14985794073657071612 0.30940491665233776919 0.34557331498085147592 0.50602068275782774442 0.14203110022188200623 0.18658227790871764751 -0.24302753477085603517 0.10785519314901131915 0.17491888448615955376 -0.15967406708903525425 0.29742505034322597179;-0.32055952851181096497 -0.2949207045112456349 -0.17668254716330686338 -0.17551424243898802735 -0.2488951860088701451 -0.29608610040696448085 -0.75592429312051001578 -0.052746243412039324483 0.68692186541018740442 0.52694504791160334811 0.38570770321634401112 0.48889683522606097732 0.31121485580153973594 0.37657278532030857843 0.43372172456293628384 0.052086293766547851758 -0.12959242133584469858 0.036450644705264899359 0.064715471361692297747 0.38926303534047823618 -0.27621833727365041611 -0.54830299022650808016 0.12774594296011773653 0.56569221148138504329 0.40263905576573161271 0.092561175141727958238 -0.21397527402773100502 -0.50977580682330303485 -0.38482743551937370619 -0.41806504043956238537 0.17698390330322813502 0.15203491053466147709 -1.2772972204496646498 -1.0935486654214554569 1.850256135001938862 1.2294767654248515143 -0.7190863379602554506 -1.6127327645594655703 -1.7550835522855818827 0.31262076947423889095 0.20194543871015024905 0.043141543482920048647 -0.22862557842060851621 -0.34214716191675093038 0.6842017841999911143 -0.49145555474066254797 -0.64965833992378352324 -0.49556222834602681182 0.22246530149841167723 -0.13326605851251743795 0.056043417087996878767 -0.61607034065363897035 -0.41277205251723048107 -0.23547022202558656745 -0.33999450670021552634 -0.11625801920381531596 -0.132499913404436509 0.085302873757913913466 0.60481578502102606443 0.83230294095425982892 -0.64057204343968365823 -0.24010543978676165966 0.84802177368036035787 0.34151565511585402213;-0.24730107922582122981 0.21220180221671566811 0.10898561675081426536 -0.012674571972790054167 -0.46171762107649100271 -0.0019120591291591068281 -0.70527418487542314907 -0.42351442201147893041 0.28202931938520670041 -0.40252660988631461247 -0.28428755191749038866 -0.14979088030000609066 -0.3697205049882036354 -0.016177954419447828499 0.19923270545547172583 -0.29711545907442388215 -0.011775101853279724279 0.036785268097151158084 0.38005299567685152384 0.29696688327253878414 0.24352455671120079583 -0.28082668161340001989 -0.086186539442160967073 -0.2343972373134432241 -0.018403434484085441636 -0.49136776094438538998 -0.10908088649922413615 0.023818101716180265642 0.44080105465127922271 -0.033806796428620548844 0.26936951120110497193 -0.40349795052981413113 2.1708659612732765787 1.5040927460945630045 -0.82328946648597789437 0.84520697922519627543 1.1306322663490098179 0.44859860028343867544 1.1948723582832463386 1.1264970592699872221 0.48840616056052160721 -0.0011803451936446048703 -1.3600158298309219518 -0.40401031059536757217 -1.5600361990726920869 1.2347109090248591379 1.1177467643168736977 -0.058454652687573098457 0.60013815001877990341 -0.60567431639681712507 0.2197794398390370274 -0.65536626878555315212 -0.40303665550196449141 -0.035862835728510275568 0.041793332944695012199 -0.5429889885873653288 -0.23758664241527502337 -0.507070913382434596 -0.5876538621291076403 -0.31533458856963925143 0.7760641451730894147 0.73941995181748765287 0.60646130565295208736 0.66600920737731494903;0.69094198475024692918 -0.10829949851498477109 -0.041734319172707631806 0.33852601290203165885 0.21931916057013642329 -0.043712333758456178856 0.037466642781927829431 -0.37447295302881705714 -0.40825548768844133196 -0.53819255094099249792 -0.056866593220179256774 0.019295320155591280664 -0.26265550830490791423 -0.11330266334264958716 -0.14735961672270594947 0.29369842679479185588 0.73670763987148935037 -0.81706134084611059532 0.091943765050605932854 -0.21626734123871105275 -0.32482270732835449856 -0.10329570819139592686 0.052526933572800173222 -0.16007741193801569568 -0.18186582630408859584 -0.38719716042778395959 -0.03030268359941192674 -0.38621188941067063904 -0.18751517638485595829 -0.55330904313002871042 -0.19027871282001579401 -0.58616170619350738136 0.72525108055694686993 1.966113372966196593 0.88769163911945780931 -0.59573985725821598791 0.43907590250895733863 1.0097518264179268233 -0.002740173291340856649 0.31805667695098327474 0.33782046616693450769 -0.232838250277265707 1.2794588169959715263 0.90062261122804765368 0.85706499114955081442 0.45574742126444733881 0.48078370779972318116 -0.086324682931995730395 0.13068449571723278479 0.88575517795176916813 0.42721705762172373921 -0.57484316308841065801 -0.64335675201988318239 0.62404909739841829541 -0.18073975362372815545 -0.017607349802177176684 -0.99867655903800867101 -0.063313051799802066988 0.101070889248821974 -0.45293268794425711743 -0.2430653284146931381 -0.48342838419235484304 0.24012980031166883399 0.16952277500103732355;-0.046982440801551193787 0.24606780859985993848 -0.0066093919298887103542 0.14600842309171133127 -0.017446516371450088156 -0.36375925224710642381 -0.43491941556596547258 -0.069627784425247529754 -0.14423128187779477027 0.069783318083789555586 -0.14607846321242887178 0.2338633141866623133 0.15690822998994427562 0.093091231329538726147 0.12128033689826250852 0.33239016817983235708 -0.053543014119895655789 0.30081293379052342907 0.056434575415940699261 -0.17113873428733578086 0.2305006942103947909 -0.036222461437250601246 0.14388754775215550907 0.46353781390559739561 0.23251027403770843649 -0.15706330363150763918 0.14960545642761641227 0.17817247455042223292 -0.022448172837856768952 0.078270964828364514299 0.2408223180730215407 0.17146983432649884338 -0.79238971337701313846 -0.45172010539683060681 -0.96379841756778228401 -0.039973734461372874283 -0.029410308322231147604 -0.357940700936834999 -0.087417032511869982581 0.67104287394578654435 -0.20950789883268572389 -0.053123608596703134066 0.081007494543856958802 0.20058797704289918484 -0.17572672093865024379 -0.42897145439025458069 -0.25987635372025508218 0.24198353333571706592 -0.0067298830941497156735 0.31462208600347296716 -0.3921418777728645777 0.034713644441313799838 0.2461366566665418032 -0.44478673373528510027 -0.33991215070523334019 -0.027023191104323940337 -0.27162473336149312031 0.17059259364769333023 -0.055498954423432333982 0.062638723759465747554 0.032625204379453667802 -0.12255779488269234745 -0.19344369664552610311 -0.13754701001807712046;0.47569335012847496769 0.32521547605818246218 0.21228475516657024924 0.1582260665960480428 0.18508346071630288332 -0.34408571067518156639 -0.27807597746922380066 0.0029114387531617674613 0.0084644266189866593925 0.21625701226107743591 -0.26448048450040184676 -0.33964908645957975208 0.22205795018049090395 -0.1596949104626113336 -0.36678522549782893725 -0.26679954303117375813 0.16050755023810195365 0.017586404706399470094 0.30417169159501700193 -0.34349196869368880947 0.34630254722349829155 0.14139385526920808522 0.49684435741341437254 -0.27323749970643823604 0.18354301078385043544 0.24903506349651161056 -0.15058037671808491287 0.059427883010855934998 -0.26074443201368074918 0.019533197366277239848 0.21459615499924861171 -0.063029437245587210947 -0.18297497051486930064 0.086853497456718803393 0.45200555938663472544 0.28914457753553463037 -0.15390916450135838645 0.96199678517160625013 0.59217912522251914265 0.18743444204837181322 0.28083659502822139187 -0.2971571835838191511 -0.064947658220124313 0.098955855724880345536 -0.12005108815360893137 -0.36428148259241494022 -0.29184149565952954841 0.18883730165857240402 -0.4427047109760511856 0.79981154773011842174 -0.20851087601230863799 -0.14061367239074323843 -0.25734745847510465122 0.39317793753039392834 0.24927090612491009658 0.17259914387789634937 -0.26965091492938270124 -0.07015685750593750325 -0.1105071111196575806 0.036248731421624824645 -0.069706395529305534287 0.0040524952707013889644 -0.19689778474783248274 0.25685317364593407419;0.10320457486079928633 0.18979950124308245241 -0.23018447924055293607 -0.33308839464813944087 -0.053102549565796179631 0.1491207967320584693 0.30051780835641256351 0.066824318233068835671 -0.1324595523926964391 0.20192852087084126045 0.2161200813308135904 0.35164014909963575706 0.42545643258329984837 0.10874414686483444004 -0.0035296263062935722202 -0.28863365489965958632 0.23331979747694642224 -0.38824812476897646585 -0.25833486041750675088 0.16271099193978055819 -0.05120917008723051278 -0.030500080175331890225 -0.36122112149340557252 0.21196141587327571587 0.22582271699595940495 0.31107882249278623332 0.021481495740640697834 0.061737357354702676604 -0.094138505057939497744 0.11580753019639765389 0.25415847233314220466 -0.079343891626663859418 0.02191285461396907594 0.023854418072968668063 0.22788945227560139517 -0.32549247408208709098 -0.045091351535783641413 -0.098742223576250218176 0.39194075223683449982 0.055070005750062038519 0.077645186965856469175 -0.03315879007477116891 -0.34436298193102377052 -0.016021706639320322518 -0.25036585793003268696 -0.37154010789386532343 0.25877437675334191702 0.2191425137131766121 -0.2804487137070228453 -0.33275773493918087143 -0.058863417674680382219 0.28728309926574435718 0.1597123398755219692 0.19171424070128537109 -0.0483126032255912774 0.30843737402769128009 0.17866431217842410062 0.13365128230949793742 0.41077919793002543036 0.059999903950617300419 -0.24434711228289807128 -0.2767466430787848819 0.21662958199746246146 0.025035813616958578487;0.098996551557199413685 -0.11859018052920244912 0.10341758121732691489 0.32092003150707321124 0.031299832054913677426 -0.14210718586933310248 -0.21454189570648410368 0.46055878315056525407 -0.28934653041413016528 -0.10164196716524438735 -0.4519101847939679395 -0.6992291447933790538 0.15010398193701696146 -0.041573380180541519291 0.263628587048845342 -0.34531567772028159968 -0.45140740953559910231 -0.050666491692330638263 -0.25505985514527201863 -0.067502454788680291142 0.019511008846925137483 -0.072942876203760012577 -0.39438061411952407553 -0.023670366076652047532 0.03882489625696281671 -0.37532769901984808225 0.41254074157836007064 0.17342683537103592561 0.12385719098761505119 -0.07967153876285656966 0.22157695058992782355 -0.081658762597410533557 -0.54281489472706889732 -0.11606939213664325961 0.67736589584669781861 1.5715890451209515444 -0.20267157965220772287 -0.015679847445191120309 0.37543845570267853073 -0.087063013804708419552 -0.080345295440257910591 0.15317947013931318412 -0.35649630611638866151 -0.38814942461401397145 -0.24144757087988086286 0.092488697153532375972 0.50567503991437157129 -0.2368249076093265626 0.13971955034567090648 0.32157672931516423365 -0.041580294804066338099 0.10963516128600404864 0.3030857046019476142 -0.63109287504358102527 -0.26645780762363879823 -0.39406355394898717748 0.037048299188213618116 -0.025527858524077413904 -0.27893472863335472267 -0.18637333165848946059 0.47991332485676396757 0.67289681543833024246 0.16989919285533916504 0.092699104985910663057;-0.042572507850103462335 0.054584677951693992559 0.21203059846855162873 -0.040455803775102036624 -0.22761652314064925728 0.23017596032325365885 0.16996467752568639176 0.24380508509036219467 -0.14585503437817243233 0.049178779886670916099 0.05000854715535163475 0.10298376022749378134 -0.022375928671380274082 0.056981397951936435531 0.19513008813084700699 0.24339852174883044866 0.37928630823747588874 0.10935271543569792529 0.24714272275122028955 0.28446991357683543145 0.21830608035628817909 -0.25202635200678802363 0.19307152175115757653 0.17843781762560337323 0.036014587672151085473 -0.11114198270651326483 -0.17909664418488577264 -0.06940138934652340108 0.17493673771032988706 -0.071230007161700470419 0.2738798200803381766 0.035380590062132712126 0.39264714910930087477 -0.072518900663302007792 -0.27035818220225288355 -0.16281529624292695457 0.11391422239807601213 -0.14366448758950223219 -0.014816304752146305934 -0.10481469365619268397 -0.21932714940426681349 0.2909642515682456243 -0.23373237005748345729 -0.051484686657500562668 -0.2561377764808377977 -0.26333805931025294766 0.023533607849849477039 -0.069752268813400006287 0.34924597907994536783 -0.14271083719034768911 0.17055341140075497286 0.16816877428255783133 0.18575072669790584912 0.091395432435000534266 -0.28307969440007202389 0.15017859927152665822 0.1993065837695152942 0.17627247125237044401 -0.16151712767638695678 -0.22140057358396048048 0.29380079089710409157 0.32034290761574085726 -0.018384828155408310113 0.43967866704160868396;-0.056291631701296730717 -0.57509548793562736968 -0.20351675284889106377 -0.59859948597389567304 -0.48912965895630394764 0.076343138314111103071 0.16861747711957283946 0.053656410566598228273 -0.58777918329820832977 -0.1277121403932181265 0.057669485412865158225 0.23219125754056418875 -0.18209650695370732665 0.32822842054214124152 -0.20357168175128215193 -0.25265916020041673251 0.28259884418659853011 -0.14275851652225052257 0.10386583385096088972 -0.66150434264082613733 -0.15844178975896119899 0.29821792353041931545 0.02606069861235522922 -0.56883427867292046809 -0.29606445720708662872 -0.21784962727940831995 -0.084628019763462056235 0.030635402758099734843 0.1757027915998171097 -0.12214441766200098693 -0.021981789118784487297 0.10822851820320512906 0.72084955167108466512 1.1362998798071015649 0.015475108123491648771 -1.2100723549461500639 0.35980739204441980483 0.72677772255363370935 0.27040268576296944136 -0.19908560833153118863 -0.21662188440954785462 0.51314113692239149422 0.12111913723477718552 -0.2063168461471779902 0.95446490475370127093 1.3018278090389971968 1.2328038816773698727 0.41080637152610877116 -0.73275978689067222671 -0.32439064902693259818 0.14190031110534875869 0.23667390447549788157 -0.18755423850247940343 0.53222273871220160402 0.12780476718102917744 -0.23523206036168245459 -0.81431110732628919635 -0.21447600910640227112 0.69151032690794744795 -0.35034146872793364702 0.28359760831649732937 0.06652944811178876372 0.30541509869038907521 -0.045259516826690486535;-0.29970093593018770628 -0.064428901244825212413 -0.36652240588945761424 0.1679959037666917121 -0.22489323810809849769 -0.30708823161461817897 0.049913340305071413061 -0.089358309991547521522 0.030074066578499793201 -0.16351778076730577594 -0.061403609697503816478 0.10027171945521434759 -0.12742442454149771613 0.32916754513720597464 0.15374957054942872681 0.23247916178053637526 0.3408317213636026799 -0.55381158160738797047 0.019411859055629730048 0.34229597158516722466 0.24684811342060769546 -0.070990132493551530435 -0.13631529149037033277 0.005383915978050150819 -0.023549903795540907958 0.00059940922518553034493 0.19862575802129217584 -0.0018696542900066333986 0.61739102197240991465 0.20104419019746938568 -0.017742920634706373095 -0.10474129233997399313 -0.43739736368139398026 -0.18049429076616763101 1.0848552464318703681 1.1895726226753378096 -0.11332790472390714964 -0.23040664047448386476 -0.18595705199004025632 -0.0070089903584945071821 -0.91526050257642421748 0.37698705138039606544 -0.22617890063668785738 0.042807748817336531422 0.4168977839592599155 -0.71916359331130397248 -0.70491029498955948274 -0.30727206814453839057 0.11581348199142950384 -0.28333612499723359601 0.38040977392203007001 0.6297660062630987543 0.032817641444994917477 0.039783893087972956037 -0.0098076581717597751536 -0.037851595718898851939 0.93220933611299761079 0.27493745274281283786 0.058561611517408095062 0.47179117447918922368 0.21311679058249397012 -0.17682116872530792562 -0.37310327176069241206 -0.44331530796956136742;0.12891120858095073132 0.13679855405019078485 0.3033667880368844938 -0.093640744684955395938 0.20692697584376165687 0.31552002034905568539 0.067300738005218394 0.27589230768220451839 0.31940698173817211325 0.176025918319847402 0.075770369496019368549 0.29134993937504982675 0.23698225155592425595 0.14362293635700085215 0.11473844853797386667 0.15497379387867651901 0.047356985947299104489 0.015868334719065770033 -0.18640719801055927185 -0.16577942560009603645 0.31381198180446956414 -0.093724837292500987052 0.28499102603972636949 0.29822447251676581503 0.21323512268746952492 -0.16893987236863100554 0.26534100816005318224 0.31749307697780421167 0.2021465357399727103 -0.10515551666136079001 -0.17476896641213485184 0.21321218739097294592 0.18649062050730311202 0.30002068532181369598 -0.08751968845783644757 0.090389882887313421911 0.3373708380589626743 0.26644052316677407921 -0.16217816912301472043 -0.018300140232894477471 0.19269492640759461333 0.21811317763810630921 -0.2348228944437373289 0.052056847926299908147 0.28853802104531517392 0.17280478486862119181 0.23971508781153691436 0.35070894581976264082 0.31927549968407359371 -0.076289983238854830461 0.059127721750879470852 -0.0019006384869178127774 0.054449564086377709449 -0.045183585501330371381 0.27091683094971441559 -0.13376229364861924598 0.069879528597178067195 0.0039140050206607325881 0.14712647793540570285 -0.065215003438172228223 -0.19802079659195301331 -0.066168427728714881986 0.31528817786988905247 0.31767189956450958555;0.3297163203417891042 -0.29183112284562778838 -0.19610984778624240832 -0.15170830446639660405 -0.050269344441801686041 0.2814864203242451457 0.31005908327142089886 -0.18580460870398463058 0.25211106084802276106 -0.29120787022616573259 0.010161207018214386821 -0.30512814314321362597 -0.86468884715000815522 -0.55925461745768345612 -0.24397479064345081734 0.30857748542774721123 -0.095294620623456283148 0.16424607417971445744 -0.17267857426668445364 0.11074258523264104981 0.26758966553612167916 0.39376693431759113295 0.2542125478059860666 -0.12268184573343642041 -0.22190733190941883124 -0.082641887737112881829 0.12633474484461157394 0.48271041940884079624 -0.020904701882424877452 -0.1814007351759679143 -0.060924040122126869867 -0.41036218797981649509 1.2113330337864884889 -0.5360343205395766697 1.5537716895666502381 -0.61215487054803974232 0.60226073835547944135 0.24037347319027715931 -0.34203708041174168963 0.32137959675868849052 0.10150876632805840016 -0.20354886772237482107 0.10902981263317863825 0.92150754119634481487 0.24990682671806974113 0.16101985502504381764 -0.28577248804118499104 0.26357936432635131752 0.32983401640359816254 0.11120396757173756086 0.22205468198432337656 0.53698459185794145121 -0.25639071861964829457 0.0081660470254502261905 0.57088475534857352489 0.14492030873801486912 0.18906444815681786031 -0.0097500577594876181031 -0.28218616338862018145 -0.54011423639627897941 -0.96644990474750458453 -0.43772316395434229808 -0.73399592167655702823 0.22280513613431326969;0.010183459549568053132 0.14217933649121311523 -0.066944596957331806153 -0.13491676634666177614 -0.49409489643390896996 -0.12939088162823625394 0.051397077697464814416 -0.036939979866201309855 -0.068221180422315869096 -0.098873057818633036664 -0.012296621002847365339 0.0011272724438445066303 -0.10743270141897603986 -0.1138699622000787226 0.069150018720826392227 0.079156638308815863159 -0.30629914221167969801 -0.37477180385633251936 -0.49907069527256142649 -0.50406624276222133929 0.087011390145167386012 -0.10625751462426366589 -0.61279244806729271655 -0.66667535965512714213 -0.31252443660666817671 -0.50107352924654213755 -0.31410567875397954474 0.20109872158482325344 0.87459410413890725788 -0.34259938237132603334 0.23103196053432445423 -0.16240565747779406314 0.39092586107930976658 -0.12294698166451734078 -0.73272453065385068083 0.41112559417572641651 1.1724450450754841935 -0.33513766516080584212 1.0574790274823406833 0.21359904907079596548 -0.54258895970900933303 0.44568312392890385709 -0.025612485664653589917 0.076021447691278457026 0.685928243116102343 0.27683105758549775288 0.41560144647093810732 0.42537346264444120258 0.0052181490353312119657 -0.11896260486184311034 0.36810130854392208999 0.61744003112346079742 0.16732842848202780783 -0.18370744761023785618 -0.55944286482205718425 0.09234013173475057179 0.12661946204515880932 0.26521361991911424072 0.14588378524973097394 0.15398957601620075208 0.75660478388518104254 0.034006256905019946468 0.029478436653083549268 0.091999467405809207121;-0.20431053915666996801 -0.0039729578665277653915 0.059742324917114342231 -0.013843195609484515787 -0.072934012990625476935 0.44239130357820460882 0.33408876547338434149 0.2229789936073129919 -0.028203306103103835401 0.14409451910610110437 -0.28270186844086919731 0.37613147485573356077 0.16245931687744857852 -0.17594554232875636579 0.38848483829642999066 -0.034760105196676313599 -0.047217098802658792611 -0.14048156095765770845 0.33955288515250053871 -0.052868772650954423686 -0.075582107766460682186 0.091661699521248848899 0.1682323765532355575 0.0073101997117197741252 -0.30529581954323353754 -0.0041168044504289059288 0.27193991074604095814 -0.099006530414958257569 -0.29910657409674062945 0.33917209315638746636 0.24537117108116623942 0.22282222714085236914 0.12260090740004052356 -0.067570125131552485898 -0.21924089517234618407 -0.42859791631372839982 0.1179475226567864854 -0.14589944429486731425 -0.16977464846637388418 0.023169059024490804011 -0.008766343056777741588 -0.088796843809181347229 0.13021553279457107055 0.218762412844521692 0.079725077857444009988 0.3902531509294845935 0.15562164420940835519 0.075366646148722724052 0.22394948236013820231 -0.1679482343510851905 0.17515743729872756962 0.10996651956817499185 0.14839065352788630148 0.26854858340894932622 -0.32502632117357510566 0.14046261979289587085 -0.23801920730737669007 -0.49289879005233683262 0.21433827649501080437 -0.32102508775176358258 0.13195516927409500774 -0.095123245425766375649 -0.36064653262850604465 0.11639486988397061695;0.14126703305663718124 0.60320360334426903481 0.58132729549131789692 0.36786680207372479678 -0.025829601025655062052 0.64338749418996588059 -0.56698866327730801373 0.5899419456976831011 0.33265529315031067137 -0.22110511556926368271 0.015185480872146836853 0.067206092175736406591 0.056574106138067091487 0.12308275372040297646 0.077471295704124809589 0.09140470239902109828 -0.6233505510963648355 0.076309534059923009308 0.13043930121405833411 0.57218962252965532844 0.17487305333177699529 -0.73273245140747078619 -0.23495172674249925615 0.056137976716841717084 -0.54924783940513133285 -0.1709739484149455091 -0.52044634801522937639 -0.086126276686359998225 -0.072773087525966020928 -0.49023392883611571769 -0.17122591396239461581 -0.3679696169208956924 -0.46789559200862113064 -0.73278772633481026322 0.84438302764888106822 0.92332178588674052033 -0.31660968262714145327 -0.24188943854910535669 -0.11164433578147238413 0.61835388088462939216 1.5381923510877821837 0.1002032054326550542 -0.87478654406133671273 -0.66959268590853660008 -1.0662536635616892688 -0.2791309994140805939 0.07955586302357148254 -0.66773799614205087138 0.40807984319756074321 -0.1122318308545391663 -0.52123695268196135189 0.10947749624007012403 -0.11860547974441619512 -0.13384971887556176839 -0.26672210786129857407 0.42568280284597342922 0.32136825881206559918 0.076004506836688412452 -0.173777520522895218 0.082518348073779723695 -0.075624142813366379556 0.284612682648539006 0.13222358948109252941 0.50992810835657897961;0.21567818134056016 -0.27184911465517236362 -0.37211121153370940728 0.28928704634837681953 -0.38505664283610530063 0.030580612731344040955 -0.14937698001167196149 -0.14238088784261140884 -0.30054143419118251046 0.22937319114504703399 -0.17026604821343913065 -0.030705012710872395948 -0.094297953211697788101 -0.19562206413245677994 -0.34197543845285222064 -0.15846954045941039069 -0.14000242493451212078 -0.36979414055908732539 -0.22644615077040078366 0.1423488546812788913 -0.53166051872081399043 -0.1419684616041146652 -0.57693285661938253917 -0.34864606330448383309 -0.048879529142893049509 -0.56416835528943543032 0.079392238081462493393 0.24813109188438092767 -0.03703014568864227557 -0.15607476787686777597 -0.076200036205159651925 -0.097512645565045422136 -0.40196214170261984622 1.3425273673998978641 0.24685886035448734166 1.1646598882848420153 -0.80936907047166073426 0.85061235289501369028 0.70828329814959045674 -0.026860689613822361088 0.34023216821188562164 0.48308490966279393763 -0.39970947376500010062 0.25422902246732032028 -0.071063955744822354665 1.1909593774263929067 0.66780216632486000261 -0.10230881584903728232 0.042942797186344951188 0.46575025566591510273 0.24513520939576480262 -0.089697832150002723695 -0.16728563659172357436 0.065614290456431342835 0.084066856259387715 -0.12063851179880380471 -0.074144584667652044252 -0.16576479735990223841 -0.17876310810114129368 -0.26773825767453002245 0.49313286173503501075 0.71207376440931691164 0.53168212360619393486 -0.039040644728374658545;-0.27473789537882309375 -0.051381600796863241554 0.28833026139362394336 0.1043678021532975092 0.79566339187566514912 0.48170979903221372576 -0.056472412795289993193 0.076464072369068589174 0.12555073364619973031 -0.16489879647159641496 -0.17405567996940499165 -0.0079799107855003902079 0.039786482586464270994 -0.53166478614943102343 0.26898566394192030549 -0.13469062313190346969 -0.16239880751338761633 -0.2851494671735694264 -0.25643495823470185968 -0.42726501101260450088 0.1661592268602518907 -0.6866252299546495852 -0.11886890584663589721 0.11715259837890272532 -0.15012890222412342278 -0.29188145545482735432 -0.69279105382639161181 -0.34190192904471572444 0.065426907145248736075 0.0058069157676062677781 0.17328681433747758489 -0.19855345351047970492 0.27679752534868418135 0.069368841922476956463 1.6886249718902883732 2.2956153031216439686 1.3249262800131718087 -0.95825557502159963708 0.066449765212207537179 -0.65178353503921926393 0.55006279338870001094 -0.02094638450593283574 0.66357426310213118992 -0.10989714293718419458 0.46786793198192011545 -0.90076725592878892357 -0.70370641357009455774 -0.49461794965097682919 -0.39482891562869948388 0.094600161909579441599 -0.14928943790343426889 -0.24510696562081327188 0.046153101896731489606 0.26883342000624427248 0.19693415821838830548 0.29047319258163112332 0.77329867192148660227 -0.52810677916315240665 -0.12271573454207221343 0.41455426421415159099 -0.17767449926965594997 -0.12354683994544528314 0.14874787406931330724 0.19147645287366060751;-0.056247332345340149418 0.21041619604872383031 -0.10634872501070055661 0.35608067556143047083 -0.064918062310886939792 -0.024119280077421936803 -0.094884197167558886887 0.19136159113267878218 0.030067802200990964567 0.04399089450344319252 0.08978356154409446177 -0.20952993337669306717 0.18742808577617639521 0.09722524552182934543 0.19798136958687445608 0.028523599612192140906 -0.25900436618553246415 -0.44525120341806262436 -0.35799943692874663936 -0.021142071530838843496 -0.0036822282866281075969 -0.14538161701757032485 -0.16052030882830053971 0.2407449107825324619 -0.034152898063918094018 0.20425793221326465909 -0.34127456259059213428 -0.27490493420802564195 -0.013395952580375418764 0.011309864508722218199 0.23794581824991922758 -0.28199933576002111923 -0.14175522406624715965 0.19827086308504743295 0.28958111480043696728 0.13908806438155355001 0.2362320556856921383 0.069861188667184659362 0.024676610500898296663 0.044466878917089391887 -0.16837839799083215153 0.059109939774826716907 -0.025642671682191527788 -0.16667639886876473021 0.39554478464961362327 -0.12669264431129345638 0.24396385068654008466 -0.3822934972706313328 -0.09429226931072078044 0.10394998340654058866 0.23860788433244645157 0.22698639371991893854 -0.32699331858133767748 -0.10541933826013884234 -0.018732562238115417486 -0.034804343123140943361 -0.073716427006439558256 0.20167810077441811201 0.046056647505484965555 0.41338268681663897786 -0.21068652827585732101 0.21047454914872892884 -0.16973354076910282529 0.22827951884093591883;0.11164490334177394615 0.40298778106913085706 0.065601940630974228674 0.27898919794134668937 0.25787445111579970769 0.18409298410132210466 0.13560042740277034046 0.23929639486963158457 0.26847877447539980622 0.29308494486360031628 -0.06952734801408230747 0.042080663178155626458 -0.0038063374212766775198 -0.1673236581158751568 0.058212717798942735514 -0.069576492991617250317 -0.13320186514283863244 -0.028323998776564197899 0.29025520161633111549 -0.14063287044617026056 -0.07420238450419659737 0.062177433508231724768 0.21952518395268380558 0.040424543820253580617 -0.063159748865596374023 -0.056296348765979095652 0.17032950328629900549 0.28969806106916934363 -0.19374962035637230406 -0.014165568711773254829 -0.27265621147622232101 -0.051826430327166182754 -0.18389360568842497146 0.22581218059843544133 0.036232330943704517401 0.47415866634688935699 -0.0089244070814931790447 0.067918065315976633434 0.38376007845676918251 -0.14639932231950511521 0.7533321848173843982 0.57576188061365196624 -0.013417450717495381721 0.59135953960132781049 -0.36686732906920210828 -0.28453310466264419842 -0.35966656560956267175 -0.12680387022715183809 -0.3269056957986408718 0.42698700130294242605 0.27129492261525656183 0.13355843169688616512 -0.40480939954819261661 0.15981233609169270826 -0.011667489921264546926 -0.14215058815269282499 -0.48393568477178983134 -0.26479019875717385579 -0.21811237452669032799 0.13680485566155525801 0.014754849933419087252 0.11388134304451862089 0.25850727375336030045 0.10193688419013588464;-0.20131465031302236968 -0.1783120584243065021 -0.081221591283886382384 -0.40037260368195481952 0.11061037426030323472 -0.038802877300815691308 -0.19118410832603399685 -0.17862406883711509642 0.11924199621477796218 -0.35982332963339258569 -0.072256941946207006722 -0.042555899017356776937 -0.024381246240026126226 -0.36346151616385974359 -0.2529998632380164314 0.44957184670959449146 0.23135320471517634155 -0.2590040058233982756 -0.054433014586538375212 -0.2739872830528543024 0.17090999025633843433 0.25923998946721915626 -0.27563523547883561626 0.39499341544488192346 -0.082509993933084960216 -0.19905282812150620897 -0.050788119491099951996 -0.120229484805191425 -0.022837655352006241971 -0.2490234304460502146 -0.43699902925617528648 -0.0047429795527648404424 0.54147045726946041455 0.10811579468645864111 0.018945878459529330584 -0.084283292566786557898 0.43570723018789975223 -0.36906293867338180181 -0.57131553149705749384 0.92956865630401808165 -0.12341339511654454697 -0.20168941972901560655 0.84067293843097079531 0.41510193417291751938 0.07791428386112445037 -0.69443449755667119305 -1.3193989316086029984 0.22271537791927642491 0.76729455699713378092 0.017842729656557750756 0.76615570095306695375 0.93945346812434749051 0.17936841289870225635 0.35325436679136212881 -0.21392506025936441905 0.45714580428692064284 -0.1335111122347095447 0.32406212469777984087 -0.13722236423009637196 0.16806552832429474953 -0.50163085680134056332 -1.00259231816967187 -0.21254979984696339979 0.057714263138865830316;-0.32654347358789848066 0.037375677230122854311 -0.051175913515523432928 -0.052684576735603956543 0.17020975555520317934 -0.37598657914215860565 -0.39603593573010770212 -0.020617814388376884405 0.62491478753899620813 0.17323153938303617605 -0.12336275563541364286 -0.19086504371081156051 0.071548244730933935331 0.2054456672223858027 -0.046496902173305501571 -0.0083757303716594476428 0.05288585581167364047 0.093724849659629932974 0.38674062295117389576 0.18492450469208654429 -0.018591287694569833683 -0.049071825358312212706 0.097949034874620283242 0.42726739027668136917 0.18426305398742257036 0.057543659516959208555 -0.1325896497430794907 -0.093206416549370299518 0.095025651213085593483 0.045589326522487497173 0.38096510648229492402 -0.047682378902677124977 -0.16807827467797067933 -1.1100932808148566977 0.7381428846494648699 -0.39343520960934746933 0.38823371771707698707 0.74960712739384183223 0.61895153115518763975 0.45640659767010371972 -0.21681224645897173575 0.24049598542114586364 -1.1140445189953178673 -0.053385376842537989039 -0.32120307257557600966 -0.30599776801695999229 -0.33505381158394198504 -0.0090236731845390102252 -0.44794070984541256575 -0.14141758192548581352 -0.18426623131920125132 0.25429690005676369724 -0.096050249594209644033 -0.085121088841360617594 -0.061471874320955299797 0.15190877762892543434 0.23660317686471588061 0.10544491329996839857 0.096506492971148952198 0.6788459697559802164 -0.11073724992124696354 0.17334532120819770573 -0.34139320277705276219 -0.33142319605330883281;0.076990738681212450567 -0.50084588923975903452 0.15600833625298582419 0.63752001855467388403 0.19426572723960255917 0.041341510352656166138 0.56717868087737721705 0.73191783997564296982 0.37882015184768830229 -0.15284502551823375693 0.30191343547499810418 -0.082642592873653289431 0.20298016114407310684 -0.47214212611012368326 0.29289022587023516575 -0.18556162726391001172 -0.25677194063851954686 0.10897194515302245643 0.17949741574112501596 0.21689213874226109802 0.26655465975206110718 0.22814372269342989008 0.25110139387978008818 0.25849039250804134449 0.37587059211693485405 0.13142010445827770337 -0.14242265396170125658 -0.58396498504334815038 -0.71846579152987855021 -0.17701411307016967633 0.30284156615854446182 0.60697256027920176713 -2.5015218860193351169 0.3961690354337072395 0.41942947253808338104 -1.4446503811295230424 -0.95954772432294188622 -0.067361701857707498298 -1.6213808428785949634 -0.30627955342598689459 -1.1822407729871344806 -0.088565561496668956942 -0.072877425464961745338 -0.048402284979874372894 -0.066506560649704019039 0.073146897862534754342 -0.066734992986930877223 -0.45234516053470180674 -0.1568924335490571309 -0.34101238817880152876 0.82859019580022819085 -0.44498516425186762646 -0.12193093677103915284 -0.1921199028249153673 0.38646709173274457205 0.12382619657153907944 -0.20350949112804087027 -0.23192685880062052783 0.34686416327948244032 0.073920642189131885447 0.10806339148204532896 0.72711930319608308881 -0.1992600792339586091 0.010808038267516072509;-0.24636073293374638471 -0.081938636009542389904 -0.053681770813250574703 0.30864427916884817904 0.18810197688845758934 0.16990149674865739904 0.0066199763166074473628 0.13170381730128288833 -0.20109045843474071535 -0.11364888426591231163 -0.44635559460473744897 -0.15642262336637016706 0.30302413000594474735 -0.30336382729906086198 0.22363671308008081784 -0.58358969630274404317 -0.01779304123983284705 -0.12551546421091638872 -0.45928519953533575304 -0.10001986120941708247 0.3800390880354411749 -0.18143436053507119854 -0.16848083593244245204 -0.39304377970074655391 -0.15611853524178481711 0.057594579647788177179 -0.27416079731920828255 -0.077387051990124133827 -0.65144274475678565217 -0.094915541008395193368 0.058135737217086695672 -0.30660867554483289821 -0.31460493182020882186 -1.7001852041483855871 1.4223795924716755579 -0.7233624619350946805 -1.1752991804803032405 -0.5423638682247290399 0.7224154367297377366 -0.1975877057631150735 0.45472486163280034788 0.04888512890346828621 0.48367778536969835423 -0.83506392631306858299 -0.44042895074894466978 -0.91114302612995301534 0.54087541981375897304 0.25312391696609271019 0.56583830714321425859 0.64001072342595866083 0.0060411671149153767582 0.58995129089826703339 0.46587655700707314432 -0.30006054426283895742 -0.77395373887953744507 0.065214528605637048231 -0.61769389780826622349 -0.19829701136422289709 0.35635471769716214885 -0.030510113444959050671 0.072081525116262479269 0.83580047062315598883 0.61042938705503613228 -0.0058427929202517015286;0.15831708249503009811 0.83496007087403467661 0.27455527296180454178 0.26294258063364112088 -0.26908423248765633851 -0.228619859878046644 0.28787344890458299584 -0.30350962021268101942 0.28159905493191483838 0.26602948117863811639 0.21496608693187957417 0.22599113874273715763 -0.11331288524232130399 0.40554871701768446801 -0.36242605293775420616 0.66865102530943387737 0.40785573905856503663 0.41154856406488632414 0.23077228909600083773 -0.049973802944399410564 -0.17938142677492752153 0.25533270292117593581 0.2086515342058152811 -0.26627478221464329078 0.28920480320064939628 0.14214779215545372826 0.20764725243655038356 0.055533094974802750532 0.13454755645415794607 0.6240994662154096817 0.17183565137081355245 -0.23731497316780092444 0.44646431387935636703 -0.26535675918254419958 0.25489234423987783273 -0.83106768996219693157 -0.59793385856516934052 1.6992836198709158069 1.1191404808299469931 -0.32208686131737856995 -0.26589021026807668768 0.32989243541048168806 -1.4869690220096871691 -0.038588735460327650006 -0.82178403142270162185 -0.16375751922013956352 -0.54856686161711454286 0.31306636962368850075 -0.3057845035686432289 -0.52055717132937329161 -0.84770780757922958859 0.43369478770835856452 -0.15636333080914757709 -0.97426646007689388096 0.012929028786082215341 -0.52730827808229696618 0.069958897419568705223 0.36715978445864333457 -0.17197326570834792214 0.68145729752613248831 0.14251705807440043228 0.50401331675434790647 -0.76302775650537957297 -0.19810342149087326047;-0.43704208701076802113 0.12555867705174630911 -0.47534379515086194745 -0.095360092543924177 -0.53731406635182354936 0.18420137827134949737 -0.4030223208792719225 -0.11308833416536254179 -0.2807375057545128394 0.017706735579544392867 0.1359448170086690888 0.19482045844628140263 0.14490678573728291156 -0.033040777115883733506 -0.27092658652620532633 0.049502669768436369235 -0.0074618867332788855681 -0.17730517633481776563 0.24190467690576267223 -0.072128131097482839351 0.079534454646907518094 0.057032796345096628543 -0.22162832511711444416 -0.058669751496000517588 0.092550972361967742685 -0.30871481185340293729 0.0026504919485886265298 -0.33918378769422763419 0.24587814446686437342 0.0020251179230323370847 0.1278134266739534286 -0.070440793214373131903 -0.42494239040395398455 0.13213746802092254939 -0.005041552747317501644 -0.55721891308336690685 -0.61898776357342599752 0.23910895902547146807 0.10688451925463379744 0.64220180604943322145 0.62836460086841017247 0.282857296294881988 -0.5609054176497266786 0.32553062599368098873 -0.22725501110053250575 0.61539646987409979406 -0.43095298496782674658 -0.52075001176394153379 -0.30618269504814954463 -0.63048090827658809232 0.24925452195342925887 -0.34982134803822279023 -0.11713909857164739314 0.44412453610273189275 -0.26489779527770157541 -0.23325230838154209501 0.33309068692352661323 -0.05161158888788520277 -0.24685017343443316218 -0.15340857867507368129 0.21495786773019165405 -0.23248533881609026452 0.30947961644718180452 -0.041494285859520162185;0.31617554914292422819 0.028115187502256701324 -0.2233635677844666434 0.096838757947809578353 -0.37161427450273026851 0.14820502025323017969 -0.23419436706078791688 -0.13530110157125824211 -0.10190985575672438512 0.052905597438278710587 -0.092685764718588262157 0.11012987863239072361 0.19629917839398869361 0.0031546152439994677025 0.02943415497597112046 -0.011710268467069850917 -0.097066586003163729535 -0.019340351882692272123 -0.29787196959457645784 -0.10431750137818890378 -0.24609158763405264425 -0.0084027562333556533175 0.21418866511864625979 0.083778252111846376882 0.3239063731233516874 0.11526411435412080297 -0.28913173920481488599 0.086726913474541672544 0.099767057278356663375 0.11151025318262490493 0.11202341417696262682 0.069287859975018920022 0.54901779907834236116 0.20593660199263044697 0.15557120128517254454 0.14880816320004669473 -0.52593716998891448799 -0.27626521234760653689 -0.59389779238008000295 -0.13339853307273219496 -0.33576916946307799883 -0.061571549683382645335 -0.38398305362505530391 0.28803622407660672833 -0.22565133309754570323 -0.23561108563123808746 0.025595921358049320005 0.32865071473672696767 0.072479639107397006437 -0.17710463824309100045 0.31656248545128384819 0.24647032871695270795 -0.049245730900839855548 -0.4250755349172818387 0.17889130971099670431 0.04494349513474263369 -0.67345301262523893371 -0.19063872496960621028 -0.042735621138533436136 0.43259132619753687399 0.11312086056185974292 0.25793764815294900616 0.46838814849909132798 -0.015876483346380153988;0.20865032278063688764 0.12642044993581375012 0.11047388163425349294 0.11729130955323323338 -0.02079414391730539588 0.16098001727761421242 0.17849632837043538647 0.022097898593993109406 0.10353630796132430592 -0.013920990832569916928 0.17212891386111328629 -0.075585240366478345653 0.25434018280620979136 -0.43983770416672379744 0.11684230333484292574 -1.0644816758775387661e-05 -0.45819787432565739493 0.6610838160466815383 0.067931175482516620301 0.46530070859938665873 0.41550399724241571242 0.14734114896017369567 0.49527863209618760987 -0.11322762327936400362 -0.35623800442185066251 -0.26043037529669837982 -0.056859934983127302655 -0.34023660101440772463 0.067493253670831296342 0.66031672739240732106 -0.17983186640132117762 0.5114588625573834868 -0.65900818530019322772 -0.0055377788956578778701 -3.0254520688765387249 -2.3504506018232391718 0.7377953948514471838 -0.41633556647271852125 0.72526833558652703537 0.66833590746384063941 -0.13290257028904503556 -0.53849447536605932196 0.36299719706222877136 -0.16701062577979081114 0.53789927379401869523 0.062767708797149421307 0.20403937218487244731 1.0174870087134095797 0.53302208658792027407 0.2039274775446810184 -0.43191720584725601384 0.28282400327781626048 -0.027627925216958591076 -0.72154320321005638306 0.059329242411367680288 -0.24804710269227916997 0.44910073746721168586 0.28854835979551901604 -0.25480044549266755993 -0.27459829763004189873 -0.017938830393456436929 -0.3713065853523219717 -0.17698735859081202171 0.3728392486321694399;0.18516518738340784211 0.33666916334678265166 -0.130513207067095377 -0.062109682035093836949 0.07708544195055593018 0.30777985548721464859 0.13972549169347506237 0.019356284370893317437 -0.050218804654456945802 0.2045600565868868348 0.097307415534362173837 -0.18134513563227472321 -0.027037226900070043811 0.03106753722892487829 -0.27854220853669475755 -0.21621471064612832191 -0.047325432590858251825 -0.020610383150367533878 -0.2134501941774433198 0.37088115962301587691 -0.26213232930528662656 -0.22181574732632408642 0.011808211543305278252 0.37804783489902810123 0.17853530776925918833 -0.093997049286117101419 -0.057653451250470673373 0.059450983667806170385 -0.092498520406277054406 0.057939706804589249933 0.20193714778285634659 -0.37190301177267787169 0.038202103717254631832 0.30897610554192561638 -0.23029346698125990889 0.4756833576589508672 -0.60295204625637921492 -0.4418051001542131484 0.30867908048296655021 0.070066560624291868153 -0.86213198444318328573 -0.8961985856370959791 0.056575374872136249826 0.28846209467011979521 -0.613256174159733769 -0.38812230203838449238 0.33760630629929999635 0.26898967741384610664 0.54587892769340329302 0.2213922534342976367 -0.17402444620831386546 0.44361483224863751396 -0.087303303322337669212 0.23320054097641668145 0.21185636229858575974 -0.3363681774613635489 -0.13137109075178576845 -0.35467723292428671167 -0.58875033354807482233 -0.43032271871514365946 0.0679380487101474001 -0.23007379033629885012 -0.21636687631232570661 0.1116431297969455172;0.12955653544476675165 -0.072408315459218941523 0.34146725267759503453 0.14849763152336989402 0.3354852855151724822 0.30979920697936169649 -0.0065850254103226478139 -0.22174853005058503541 0.19844166847428609812 -0.30276642097534084419 -0.36460704469186083765 -0.054259012118289026705 0.35721738407096964574 -0.35328643921989227872 0.18662056431655654753 0.083304737932021213909 -0.18647266153197164518 0.11932349730239429075 0.13798728938556811818 -0.16610736781007129359 -0.074842725624564052089 -0.056009346929728795472 0.0036223790179930720999 -0.056802027164902332834 0.022470767309947872054 0.050473982983348278375 -0.012643405043006828922 0.33633916373378025533 -0.096876840149729359641 -0.27191041061013387914 -0.17920010862661511775 0.054562404042595456788 -0.20101252343530331967 -0.13003337300887729544 5.0700518256294960923e-05 0.97520507722183125132 -0.044486633584376170103 -0.015693167273926673932 -0.069233231167854833443 0.010510832576609913797 -0.35208485168358666373 -0.45489123709052925459 0.70374009697023898191 0.29653170347414875563 0.3680139094057391369 -1.1995613758105265756 -0.87811193604265103119 0.72202794205382447856 0.76872162600174587244 0.20529974126731773132 0.25575786222179452967 0.53006319273065505282 0.34894529626817050172 -0.22958519821944473049 0.23477400142616042245 0.057346290611980453578 -0.047858369728228225548 0.15028021870074739774 0.060167302646884912587 0.45453952681787440637 -0.19745460472243270278 -0.40238450094590982875 -0.45142585295282527946 -0.087480979248148307836;-0.38516139682265843058 0.0998982026693713554 -0.61485637660510183977 -0.29526939383688066698 0.1272120795772261892 -0.75814926200482013474 0.091546472265894920928 -0.27785258093837822413 0.10201128460287722799 -0.54424867719959213463 -0.01653518655730943504 -0.11853791303354957454 -0.50086040008130949808 -0.59849060016795452288 -0.034275563166991283859 0.03599077819001085532 0.34732873917420220566 0.24202200326783326889 0.50315296918621088551 0.29957394121917607643 -0.43363773328748794755 5.3009479752217682214e-05 0.06623774502861637381 0.11411920110740465806 0.94651190725418699046 -0.42784621440904152534 -0.14954292216954037653 0.027698198774025441227 0.12226925208733550876 0.37081584453647153943 0.045120557272835135065 0.079216810225760339592 -0.053652307137963428652 2.3887563940832441389 -2.6335201707366717727 2.1962747576059054033 -0.2186441962561506136 -1.5804859927899403971 -1.4515670841933681068 -0.42499534407148126247 -1.2915079980616641642 -0.52921394027291379647 1.5529548613426562564 0.93565664523095637417 0.93124156481976683164 0.071191735774506798018 0.22011523796328169578 -0.2237265506972368756 0.71500929997572881813 0.53148246769496509945 1.1193359321504463555 -0.37655401514466491086 -0.23901721151264598841 1.1665584189254323277 0.45874360489760679371 0.34908686305196429123 -0.50595272054054940547 -0.32806915324224850128 -0.050598072405113971028 -0.2707132093755674207 -0.24991393031243022693 -1.1040559185712102153 0.33089506854313649464 -0.6128742800850744965;-0.23697552375480609999 -0.24769537090559673453 -0.13775635402362723658 -0.30086913063533859969 -0.0059710424076326196891 -0.21494490454026582427 -0.22386797184877388345 0.17903281227183273638 -0.40136480244209737922 -0.3335194072512149277 -0.29341845600714383524 -0.44904571159573658523 -0.287203156775462487 -0.1208061468169831093 0.73506314812607609355 -0.26050427538308684738 0.072218804723066590268 0.34044235236648939802 -0.31127527685730682627 0.3942576068111370291 0.0098816745735032119474 -0.017494391705211886912 -0.19166525725047248163 0.098512177118423152611 -0.15065393118618852775 -0.10545432187693751236 0.05663928035847208553 0.56020020683110238746 0.25900147312220195284 0.33238754891994459761 0.5267709452397192349 0.23324536317889132953 0.80115970638557321148 0.06437877592379145919 2.4140324327979163499 0.25228305183139165813 1.6439654075442293735 -1.2077256044972592974 -0.43389816336724845725 -1.0155567460120125123 0.21706612760469551349 0.2544500356618078496 -0.31180023910636484041 -0.84236009354683305528 -1.2118013088181016634 -0.095328186151007798799 1.625930207984648046 0.11749183003063891351 -0.23568035176685081522 0.49295666412915239984 -0.00081593261060437620447 0.10780932390298009205 0.53519797873240804176 -0.87688288980079764912 -0.68418692100386480082 -0.22267567501405596819 0.065311257087154628298 -0.050745073892571428142 -0.028383702427423232462 0.22736457984434538249 -0.30776923712502424202 0.75269518050299277778 0.59965939167772996932 -0.23917188882004791761];
  
  % Layer 2
  b2 = [0.38061664400817762921;-0.79467055503535988237;0.85365144004564319502;0.24312159159415008824;-0.90930135525370359151;-0.7776833708004210477;0.11596800894066813803;-0.67434197291623676485;-0.56237569188063030179;-0.60975875240523946808;-1.2566642843303941213];
  LW2_1 = [0.25714896847442081373 0.96326745193559504266 -1.0331999558623075064 0.1772778204625919396 -0.54569726632466253324 1.4899002869188109344 0.48248663985640705132 -0.7908355076913002879 -0.90685509790839047284 -0.42258248889928473613 -0.60408445209599803682 -1.0237759974872175928 -0.36491587155831833877 1.1714166319231253954 -0.73354394364008468354 -0.76454856437657747747 1.1481153954969116615 -1.2172276722041417418 -0.89830192336418668297 0.10633535674879018851 -0.0085164469300337639762 0.21499566854733839771 -0.49656861874294916381 -0.99607091971705563616 -0.1736079596907262601 -0.22150572084193909106 -0.95092622833328932508 0.5060254226002004474 -0.96619836225002586616 -1.815205477579702853 0.37524960634177317864 -0.44871727859389753945 -1.3618726162330110352 -0.081840519632327038413 -0.65084414836970327922 0.19554328145657037807 -0.71503439985427863501 -0.034421403171747168293 1.5138524482064623644 -0.23836313485930346601 -0.056515088300059718174 0.81113610095680399592 -0.3999315503991347498 2.2792203892487288286 -0.74517754377627121176 -0.59943180674840135236 -0.47386431819770324925 0.063647306571824949217;0.55618640624155302188 -0.64587076560667056047 -0.13874685072017903242 -0.24836061354766816867 0.033968892050562617124 0.5126487499800963521 0.22524529103969748167 -0.66894394064843598624 0.14005212887032061908 -0.53670273298288417863 0.1432903025705499489 0.24336746852149324094 -0.98189820359171742226 -1.2348400539128148168 -0.58856027244437558732 -0.42751984656865005263 -0.14101841553514032901 0.95748644385997594419 -0.8100636404674547153 -0.87341715432484223758 0.7372029508362590855 -0.66773169988479563752 0.79919354371457373976 0.68210046753093789285 -0.83907669301566234488 -1.7378804363778097564 1.2438232080802555934 -0.074831504628033285176 -0.77187797182188211398 -0.4133473148912099604 -0.060803824957624250103 -0.02373540190952038928 -0.13507290963583221122 -1.0293987829287378766 -0.59749696652411443676 0.52171507124619576068 0.78386584979070339507 -0.35255484160936961802 2.200020885150151706 -0.17499452527378869804 -2.102007867163810495 -0.89654516874758416467 -0.83572150005549550311 -0.33283981100912324314 0.23372420922612063832 1.1374308107846182736 2.9568222724569466209 -0.43334172982704194377;1.0657760589801172912 -0.63610276531097054153 0.64075862894931567837 -0.99249159203711623256 0.55785956919845003377 -1.1202053513988616817 0.58972490671614441471 -1.4134175008333711432 0.2697142379336093243 -0.67333003154399029277 -0.70644488316650810855 -0.016920521342110878688 -0.13905309380499170091 -0.10895506902380275305 -0.25516542190427632386 -0.57972470013084687057 -0.74579537859640909758 0.28846818174415206348 -1.8543794748427413488 0.99221864209007737401 0.27254163494193667239 0.95561897037269083466 0.078537994110924741475 0.26018232394041351796 0.37117249335009072642 -1.4998914830100287254 0.14697257517853543063 -0.87258808641104057546 0.53215600903602211513 -0.99320183807623263483 0.52089463275313963031 1.0892093599833063688 -0.26827157277160801341 1.9918273787046871792 0.1005292809315959518 -0.059449993104643071573 0.29097105473433437783 -1.0895609417981415579 0.021078588020457734997 0.76128588244059847145 -1.3872069035631240386 -0.85642929038557902288 -0.89313653050297892033 -1.0615634253113717111 0.033324802084749416409 0.845176044882613553 -0.46570548798737071428 0.41952445562421813996;0.7801816931175356018 -0.23597703047155502154 0.1984613806208978537 0.37796425386492460419 0.11281027694982963261 -0.6284347465437484237 0.65879288702876459549 1.1070816935931933056 -0.32705121732450709304 -1.1842042963355667862 0.63539875547913826637 0.072238272658951302452 -0.22773990282611189517 -0.27247694061229366103 -0.22536722941130651887 0.08947593983129679962 0.77435546048246550743 0.23379328232350943262 -1.753473573643071326 1.49275890402977085 0.44503913374101999878 -0.53043914954049398158 -0.10092426057522511929 -0.9634040137762319711 -0.62029112209823489277 -0.10800017562396864446 1.0489776104413759406 -0.69766326398130373843 0.56691614982676852286 0.066304359140154478514 -1.014521189572777482 -1.1588819410758690598 -0.86288154812504047619 0.22556763990475900417 -0.3723344445714620865 -0.56419570611079528089 1.3067177739021798022 0.27813391786476626688 -1.2928973408785158217 -0.63653018838706854066 -0.16391400014075663272 -0.52751400679414850448 -0.51721922939922992946 -0.85119050858834954809 -0.90572834080522846012 0.76322381507804015754 2.9435799313330224258 -1.6054478766311501836;0.66477040604932580159 0.54247336026181491864 -0.52234372522413818896 0.6470544214798863436 -0.08481640303957452276 -0.35632396015730483096 -0.14082746741146442981 -0.93787748238715973326 -0.79309419854072216172 0.17372169755004276959 0.82153637503998411251 0.66278607474490158769 -0.24455988012547513755 -0.8991510663323460939 0.57101790480692704577 0.97804669266631927282 0.91692725216334891591 -2.2743837880167836474 1.68887771099733075 0.62257106417876939553 0.3525858154082455731 1.0993065255321707863 -0.56298691072654682976 0.55478684329543670462 0.48281772066856892822 -0.51961639383429159 -0.1907572166130972191 -0.40075937754343621267 1.0894206554221919081 -0.70806055790186117616 -0.42103601696250220199 0.66627189439619138867 1.1116996191315551279 -1.0790776613817849583 -0.69208206167125951858 1.3078694168099371797 -0.29854076809621898914 0.40409045569513041274 -1.2765632430368032413 -0.50935809694138833859 2.1169386746545022504 0.16154944191524789332 0.84464972753045208798 -1.2613122223156356672 0.56399570658367881304 0.30858500442500591543 -1.1324761447217337462 -0.79033833461639968476;-1.0714332134357729132 0.058909602609023829778 0.60026393981953996004 -0.40070609974689191946 0.50510923123350770503 1.1475923291085217137 -0.70752388104194141594 -0.14953822088840681981 0.84477926836923522558 -1.1295630726445851089 1.0342165462289929501 0.091173580817941024534 0.79420511885471622993 -0.98233121814498636226 0.25367121056334607232 -0.20406848229036303466 -0.95627418723104751219 -2.2659681513912235395 2.3869441239982114311 1.3759359433356399549 0.51096773757097446733 -0.6644743015184192414 -0.60992817531435894463 -0.30071202057449636369 0.5530598915900289958 1.2338961264240324578 -0.76503430760142465683 -0.23792374675969032993 0.87167111092391369453 0.68094701935199819509 1.0598472194759049891 -1.0521874516559066581 -0.27028774830464591394 -0.87633899370859968947 -0.87066455000444775703 -0.62657566514993900952 1.0843637892162534264 -1.0221612037144958141 -0.91213336903185227023 -0.039897108472801152967 -0.27580545677400458704 -1.3431432363527566753 0.43835239209371273938 2.7567323996224120108 0.25927768055135280711 1.0423776243514251139 -0.38233932745225002181 -0.66634601499362067223;-0.59467482582583675033 -0.70164737540274724203 -0.35805732723496463965 -1.1206177707632922758 -0.52185850664133015542 -0.92649993673353847612 0.66730954741242098915 0.17910965790935595709 -0.828602409275117191 0.62238755944711510182 0.015931295819827287485 -0.22801818404733978363 -0.3593386344809855748 1.1130065686979611073 -0.34841584807480169284 -0.87401184839555312589 -0.13173808147035900862 -1.3333105415843606867 -0.74749431523932452492 -0.36957818310651791016 -0.90693330735571453527 -0.33808190858308084792 -0.55498641445456464716 0.60171983946550977596 -0.91373564641508542294 1.4331625512581844806 0.98748601082226883374 0.23332168672221229033 0.85598697530851941551 0.13723956358562638957 -0.59215289959578154555 -1.3127255379636779686 0.79968389927967153952 0.029036681396290529855 0.60764891721133895697 -0.61102999898872745188 -0.64754478670347115354 0.34036951445046959019 2.0728244062998020247 -0.056644273142886517047 1.228051992231589562 -1.118509748263925685 -0.58594962480413037564 -0.58938058912721980054 -0.21824382197645816883 0.12472730533056165803 -2.5318102839210321342 0.80694344668644579777;0.093978490514717932802 -1.2488223399409996706 0.42217947503264713349 -1.0660919282872538538 -0.71601735282525647008 -0.99494205769005295004 -0.40165579066604989444 -0.73499259108627545967 0.34833153357106771963 -0.013963974283211624816 -1.2732752162351648195 -0.52741312027971987142 -0.12973471040501488583 0.46506908675703440004 1.2358779485805695408 0.3550682150394556813 -0.10152970365981216216 1.06803451645552272 1.4157587693229916059 -0.050847571329196580847 -0.80453350551932600876 -0.95069352868737844187 0.66662132980300636831 -0.43169125062373525648 0.80290921421505734301 -0.36401243828660717616 0.76304119891071287007 -1.0221838788346804261 0.72300958609723575687 0.65258383502084893468 0.35080779606501794055 0.91969744378859341616 -0.70905263971089527164 0.80101708818348094088 0.24326336199869114107 -0.50476554480524860047 0.91632361998063449615 0.54506469483524466746 -0.98529833895008633871 -2.0274349332885028829 0.30166266520399287465 1.0231575704812940764 1.0249591459753202294 -0.6645160637536722259 1.2008378902982710379 0.11421963900290137139 0.081218309679654390743 -2.2996745203059623108;-0.72781233889832341877 0.85330014613344673524 -0.34991850966156001768 0.77588057328873005769 0.2392892462041524837 -0.43093888484344383683 0.42793355533562749127 0.67989132577696942406 -0.36858095940649149291 -0.41415582478040219305 -1.3266855037105969028 -0.53439838523077110022 -0.039713941258982227156 0.69253468889857139335 1.0454193971093979076 0.743488400352433354 1.1217569448507285212 1.0063023014273371203 -0.17214586370589601838 -1.7362577065727382575 0.17757378883791399837 0.28745551169149713422 -0.8157384387588559882 1.5795784002754402753 -0.70941365105673359626 -0.92658746385209789231 0.94114236087626301774 -0.25003767073289856482 -0.43550716925321980577 1.0566170279367124163 0.73943617787957127696 0.77845073805356179708 -0.5860919818147644067 1.5670905980642793054 0.75249913688775971199 -0.53661171751726921553 -0.62573945607066339125 0.92640873048908722875 -0.78894939691998766662 1.2086723988868282031 0.41903622058918299498 -0.58782751336430139055 -0.65164271726107192428 -0.99115370617741405113 0.32155428227981031064 0.54820056734427835554 -1.4363531753097100729 1.7306669587975083147;-0.62685875141223534879 0.41711639347510759412 0.42644458212445213174 0.76569031316933877651 -0.063162029259748689314 1.0885585243011894896 0.097924528627555684768 1.4840159248585571561 -0.59618400300051244134 -0.178933952768523169 1.8600571856041809848 0.13536821767570678121 0.16865878668165809606 0.36082449642453667815 -0.2357054709214398136 -0.27048231109756654122 -1.0275592950502785428 0.55868144416258325169 1.5881055059019804077 1.5754935047087057498 -0.26840978978575419367 -0.32880379706939011353 -0.76377573141764443232 0.7063391770632849731 -0.56867030748787539274 1.3722192046497319051 -0.7171036365176446381 -0.40052572941079805924 -1.1958779307097944233 -0.12744105123156160286 0.33607935608611683165 0.3748561918699660489 1.2149422168904024932 -0.96942948421805408277 0.77703785036111316931 -0.071160141264290460716 -1.0915136376310976551 -0.54020864657004041831 -0.46665403764713042634 0.73766502556864388396 -1.1505611246711462403 0.73083957064907534296 0.81302620179412066204 -1.4174155266659975716 -1.5329940190232278496 -1.2899669787029701684 -0.0046156623170259362954 1.510857896162920655;-1.1474586427618012063 -0.39562832371837841627 0.078903335201762847539 -0.027032428248087807948 0.59585802959556122271 0.5468629718544173457 0.21048327148670240017 0.060540203884709271887 0.22821380141629038496 -0.84565991433450082848 0.90913303251916299796 -1.0789777447243364961 -0.91089787998025306681 0.4576657324542019456 -0.22464545189699894334 -1.0072662559391014625 0.92106185406359819545 1.8276511677626647856 -0.16141101085076089983 -1.7413807304526265352 0.92932607059828109541 -0.13499353865820187814 0.42937713686460710072 0.38382667073183296402 -0.38439096958222385148 -1.0944509359592007325 0.061477751103224689833 0.53037823282007856562 1.3563174245228324377 -1.5519292775332098611 0.7133417155528148923 1.3906066007786701544 -1.1407302632776377127 -1.7698474885442252447 -0.69131655621307008808 -0.010691833290250826391 0.70080391156149235421 0.80995190205569600472 2.4733823456036261312 1.474920610871029325 -0.57693688143455557071 -0.73432509654661648479 -0.94982096262968718214 -0.57522329490469403801 0.41775197322005047651 -0.017960479590345367756 -2.413544105565132103 0.11710043574285304568];
  
  % ===== SIMULATION ========
  
  % Dimensions
  Q = size(x1,2); % samples
  
  % Input 1
  xp1 = mapminmax_apply(x1,x1_step1_gain,x1_step1_xoffset,x1_step1_ymin);
  
  % Layer 1
  a1 = tansig_apply(repmat(b1,1,Q) + IW1_1*xp1);
  
  % Layer 2
  a2 = softmax_apply(repmat(b2,1,Q) + LW2_1*a1);
  
  % Output 1
  y1 = a2;
end

% ===== MODULE FUNCTIONS ========

% Map Minimum and Maximum Input Processing Function
function y = mapminmax_apply(x,settings_gain,settings_xoffset,settings_ymin)
  y = bsxfun(@minus,x,settings_xoffset);
  y = bsxfun(@times,y,settings_gain);
  y = bsxfun(@plus,y,settings_ymin);
end

% Competitive Soft Transfer Function
function a = softmax_apply(n)
  nmax = max(n,[],1);
  n = bsxfun(@minus,n,nmax);
  numer = exp(n);
  denom = sum(numer,1); 
  denom(denom == 0) = 1;
  a = bsxfun(@rdivide,numer,denom);
end

% Sigmoid Symmetric Transfer Function
function a = tansig_apply(n)
  a = 2 ./ (1 + exp(-2*n)) - 1;
end
