function [y1] = myNeuralNetworkFunction_sai_sam(x1)
%MYNEURALNETWORKFUNCTION neural network simulation function.
%
% Generated by Neural Network Toolbox function genFunction, 05-Nov-2015 20:13:16.
% 
% [y1] = myNeuralNetworkFunction(x1) takes these arguments:
%   x = 64xQ matrix, input #1
% and returns:
%   y = 11xQ matrix, output #1
% where Q is the number of samples.

%#ok<*RPMT0>

  % ===== NEURAL NETWORK CONSTANTS =====
  
  % Input 1
  x1_step1_xoffset = [4.01926021338752e-05;6.11828780038536e-06;1.36801318478328e-05;2.33881391892058e-05;3.32877498976499e-05;2.15287972548081e-05;2.98462884818605e-05;2.34117160986051e-05;4.84404789161498e-05;1.90244237145928e-05;1.32001542293292e-05;2.00004880128468e-05;3.3159002625713e-05;1.87980912185855e-05;2.80547029552496e-05;2.54238970305783e-05;2.00076489143198e-05;1.63019843895591e-05;1.17280436225671e-05;2.56542035610617e-05;1.0750505361638e-05;1.81874512388272e-05;1.06903574483916e-05;2.48534837320261e-05;6.31437732241765e-06;2.50882527430845e-06;1.79362740655779e-05;3.15006477125275e-05;2.93634539134445e-05;2.58530373436633e-05;2.25206710826011e-05;1.12241730982645e-06;0.00637153673241608;0.0594516914392888;0.0115993586406282;0.00142273055760543;0.00351617930845005;0.00130765121232295;0.000284474527708831;0.000306043104356502;0.000191623222003452;0.000195519132033205;0.000189604069324414;0.000233524660389433;0.000105751953738783;0.000147078822271856;0.000244889586328412;0.000127167673799057;0.00014386539056901;0.000195211805437127;5.97753448292706e-05;7.71785332685864e-05;3.41653827796285e-05;0.00010467356581768;2.57896087752831e-05;0.000101647057842483;2.40594434089167e-05;7.15559833610755e-06;5.42779491893236e-05;5.69958246001502e-05;8.25948984504295e-05;5.80973458029612e-05;3.38482124081815e-05;2.41889470338821e-05];
  x1_step1_gain = [909.24374615106;815.927212502972;770.591411090873;934.566500459351;905.075096960975;784.666175229226;969.181135909136;989.609859447002;984.141632873811;1014.85137000179;1284.28872685556;949.662213913112;1120.2144910671;1247.36286096967;1152.27905439629;1181.83047209929;1157.1944183432;1074.44007054039;1175.91904295161;1125.51339064949;1190.68362952624;1272.72747054271;1199.40760554354;1144.86778565671;1118.56881244809;1139.21871672518;1020.72603171633;971.536337117104;1211.18071899911;1114.47083394816;940.664647731306;916.209790627675;10.6468201016278;8.14840206289381;8.67309632815567;11.4129156897224;14.3093564256414;18.7189439090161;25.3692051299885;35.135677817014;69.3354928898147;111.222652165517;104.654418630854;125.837267618981;110.144945293526;156.419668880328;138.078685044862;149.382787986791;170.389956393285;210.177254712701;245.865447993205;286.908155531243;241.223205352395;334.133306540682;425.104466550354;479.956783007066;520.733201929533;521.879650256642;503.389615754495;568.401453002331;623.308355300058;668.107883746765;765.391314504683;890.293149778952];
  x1_step1_ymin = -1;
  
  % Layer 1
  b1 = [-1.5576674196471109735;1.404790532674606629;1.4911794973946963516;1.4479859771399816726;1.2357768193471276863;1.3532609900929859492;-1.2796866093120651264;1.2171093718185108656;-0.83080001857641272434;0.62523169247150867101;-0.93867491586441575979;0.8728332169287617015;-0.45719457616635117425;-0.27385210691106004477;0.066785265360964851666;0.31304619126564969811;0.24496881800678194097;-1.0165004830289174897;-0.10343566266618908767;0.33932394879953797773;0.41265696539079793626;-0.6427119569201240612;0.33393491545526704511;-0.11172470441772051897;0.020137140249640979317;-0.57432122858230749696;-0.087304792738666439633;-0.60506864545883232154;-0.19878925074583089772;-0.15199162096323060034;0.11342693452725027825;-0.65891050076443435923;-0.57626577475687690288;-0.86366525143244099461;-0.72319660404770103046;-0.76840563126654970461;1.4043503947633582118;-0.84837201298681763628;-0.86605756991089222208;-0.89673920895465841774;1.3822569894756979725;-1.3758785012094683076;-1.4237280586328440179;-1.0914075366971511816;0.90971239927606240006;1.4268042102133700055;-1.2034131377943648733;-1.0948338806312754024];
  IW1_1 = [-0.023384810768738356623 0.05001331132769916421 0.092836679954459960795 -0.05269360646913030799 0.091577066600121839746 0.16582706612323724893 -0.33139346396842089826 -0.39101020620309367981 -0.013998819716747584047 -0.018562764666167824723 0.13967882254364633043 -0.17824504996375106769 -0.29550011391517921888 -0.18284050714243424429 0.60767333598279815732 -0.1662194374258035845 -0.06547416076061748913 -0.21705540596228661832 -0.29966677894794913062 0.22844235710863941557 -0.090844278749826826158 -0.084833682708242791337 -0.030603357244702419221 -0.2294436844350366822 -0.0023623634214270826034 0.10935647418852702251 0.22422273907970580176 -0.33282547133191536792 -0.13621458319280640992 -0.34604470453424751586 0.065670712487998647577 0.19399040873827391729 -0.1895673439653632053 -0.38426106558485284559 1.6840015231897953463 -0.95390070268418347688 0.36985774688467171201 -0.49722766371312221434 -0.4062371163716381739 -0.39420325128576699791 -0.21292908802632987131 0.26892437213646008809 0.019639099007804659835 0.012421375574246126469 -0.41121760500734205745 -0.23414247294409554212 -0.32659268133264918177 -0.26966888933820798435 0.11946218656207834019 0.10248091927022079384 -0.40396690064791485053 0.43980863730935265687 -0.28685805230774363839 0.33986796241301359123 0.17199367094794434929 0.097403631411622074165 -0.030256117465592112514 0.038083055746178137713 -0.0077845328002722541036 -0.51328557268033425665 0.14116504287329850742 0.27041323783125914559 0.062094729162219669538 0.18388254447271420999;0.20605025007303706674 0.12890130994604184766 0.4826195222647843841 0.27702680526562739605 0.21175754176647043625 0.37141310632994017915 -0.054345448049684393077 -0.12077287674610921731 -0.20263439886151946023 -0.22471211898418463893 0.18079768027697348809 0.40914851871269825034 -0.039845179195098827385 0.42524713207099212875 0.19785367341192588997 0.28906138133768027876 0.20558170574616463355 -0.02242125152537713384 -0.13195415933888821058 -0.11460489704772512665 -0.022177751161293727394 -0.097205786447182238041 0.27897059376305083367 -0.29006792304955630879 0.35609138003756529711 0.65400050619751681769 0.13986796551616534345 0.062095186494985875336 0.23400271190217972195 0.041781375015228980341 0.34917589008121829863 0.10294372691749818782 0.016595128250987901258 0.18050070729883424536 0.06404820251592525937 -1.0093524384083394363 -0.33557341065498552668 0.086770799450483632187 -0.51162425095658770058 0.55776790462826908445 -0.039968680133806708255 0.23837423344653035917 -0.42975789059418512128 0.049215674882885654395 -0.22577795260501401509 -0.12051501755314705799 0.52798214663246700873 -0.34971504245666001909 0.38886302703920161417 0.20963133204515485564 -0.19032724544574478043 0.15631591834790894979 -0.059617259241053953411 -0.11441409290007364952 -0.34523326244579582989 -0.18108148881660129925 -0.43245730847046659484 0.36228173153049908484 -0.19909106991517236396 -0.35757267122401936721 0.18487350220055637218 0.26148939679005150927 0.17343770420929766063 -0.09063121047964659005;-0.45943954835699740702 -0.107528501385798822 0.07295896916240009189 0.0061258485479084006514 0.10139096841163257323 0.43707874161345644515 -0.018668977983809009746 -0.0093785206706839315677 -0.24719983614753660017 -0.11768522213893210793 -0.024980416193054182095 -0.27485442122515491015 0.11994746240152297234 0.12702295386079842654 0.2901440328926399026 -0.16038058184420700414 0.23124328866199919674 -0.50678341010092031738 -0.17302177117667463802 -0.15475934228947599292 -0.35086008239625521288 -0.33700547485620391264 0.089845325978507098452 0.037316775955327702308 0.40976051019831938316 0.33289918580256028235 -0.40885931775709938307 -0.18705819927826380922 -0.23880518089641158963 -0.43883452390725125047 0.32686898465555491722 0.44158646606140450341 0.34147963426994509817 0.33684532576687736816 -0.56579588674814373928 0.28695622960597677586 -0.25151564217630584253 -0.84003235857011715471 0.49804584344868291224 0.38444565738450325876 0.48514879217833578595 -0.026261721107938690994 0.98758854839871279552 1.0376789371370147563 0.40531157614231205777 0.03843012980548429075 -0.16635644846058328383 0.043394585872385094127 0.59512838578924875943 0.50947968586707792493 0.1921493485750335739 -0.1297362636871476349 -0.18578618629149420971 -0.15690870583487789847 0.14944225348776993267 0.19045614369449564984 0.63152470672140759156 0.10748052316644955695 -0.085466272756436284519 -0.58122020780274052942 0.015528414252571993634 -0.014525201371492357447 -0.19165775136173776594 0.7632393624825135614;0.10592148791938624242 0.24579412872146083613 -0.015963872836164294533 0.0027051572797667008258 -0.085853849529271095142 0.19389899938097793219 0.04344813820772120555 -0.29678510889082887481 -0.30221805330127626821 -0.049476346474345248017 0.26184858958074058721 -0.066367709938368463218 -0.35803397548880661061 -0.10048272515914473402 -0.37045805448860064102 -0.1746004558176569299 -0.17375057939013899277 -0.27016928143562485287 -0.42872833370020568822 -0.360297205004857235 -0.25306352196785525388 -0.13453403881095551964 -0.34607506598756004879 -0.75327367294758096339 0.20728416744269545502 -0.26798216695061688464 -0.165147017424112863 -0.23390570822169448606 -0.24562192569219898353 -0.10443377589357866198 0.034369094763050736518 -0.15469434580922281075 0.71420722661219415706 0.19301232615338392851 0.32581191522587166221 0.91136795980844509391 0.97283396703558300267 0.42334355375380544606 0.2054225393072360295 -0.08067030469022341832 -0.13188875609381159326 0.5059597102440351879 0.072845438741081375289 -0.21150179822699358145 0.38464662198647908697 -0.11889211044251664362 0.15340763902078863312 0.35875161667408911326 -0.09282259528670347426 0.23222441877127930621 0.2622450375224393837 0.39906584949470680357 0.041556284210839344873 0.69004987894691405259 0.48683154418509599903 0.19141256023488384397 0.16420228460950628269 -0.24157365260241464577 0.21242749626877802105 -0.1947837471907706286 0.078504842085588832923 -0.04574653861516685821 0.1279829547595599526 0.42316355239182262826;-0.21161407370200335798 -0.094383321397131195174 -0.24639253515834727559 0.11946820314568436239 -0.030878029430464779687 -0.054474747176786991743 0.54349597706045382761 -0.027501092528378533186 0.37279199670912821496 0.4120629579511137508 0.67211902128405798251 -0.0057724030297448530175 -0.1244505801672212697 -0.19722733117858043395 -0.04145440309120307365 -0.067500876521744718195 -0.021040344867093212222 -0.1146046684029509849 0.40535626986218259438 -0.12027816683344934312 -0.054634092357337862844 0.41437310226386198098 0.31037878733955820421 -0.22442721013104577343 0.31753422723616986367 0.2304416895092398776 0.36191761293850432946 0.13762864359617457688 0.30444499050336371049 0.033043795832675651458 0.21406954192317198538 0.037584413325839664821 -0.92647503108714857056 -0.45400027197293668646 0.19032808786615629248 -0.70088370103509078923 0.0014800301551407000003 -0.12611728672668479079 -0.4448401582682105504 -0.3083871940463802086 0.11397581366150236204 0.28246331996915241547 0.10430322172463347974 -0.48819673594333590216 0.17556031218863032972 -0.042698823735182543648 0.13145278194093076851 -0.017010243272060535102 -0.046351211294038421884 -0.15021746877654471031 -0.18783209616337484538 -0.066523907483540006824 0.074074154545178017006 0.31823942731072640822 0.12284780632684458301 0.043758479624955881615 -0.36751543814510490016 0.056325085294705007355 0.034801724973982706146 0.26162880413752259701 -0.058351499321367850115 -0.16370910184772802243 -0.24812061128563833723 -0.22238042256493445459;-0.21346202513578838023 0.15636486502692309442 -0.26014975844292248519 -0.073930210735115825527 -0.028901378283267237929 0.0029004457781971848367 -0.33473653983597145833 0.15810681956442970697 -0.22396611812648259399 -0.29956206841849636335 -0.15902056217307825037 -0.3119636488257220841 -0.099514857116447405505 0.15330711584279380078 -0.073500690562947890161 -0.12631474757262300956 -0.071398234278587421886 0.046080530516198543733 -0.21259145538943163833 -0.24704020153095920809 -0.10600733260894916465 0.24467183907973311108 0.096576931173333435687 -0.17308040841825603207 -0.037186189506907378621 0.043030826828545906682 -0.049183432638584427543 0.15579516774106458299 0.091179551283423004859 0.10580288477922716872 -0.44287108469387881371 -0.31584561658506382642 0.10672391357597153794 -0.15154786457744909289 -0.10071236012938834803 -0.28604208040138118241 -0.12527724473000417804 0.23642122350559555133 -0.079997842591706308513 -0.36502121486942901152 0.22886412472177314337 -0.048355862953553790939 -0.25312553265587450779 -0.015937653989498954538 -0.23206944680359714583 -0.25816435619030575488 -0.12318556348045388293 -0.2149573023882997147 -0.17654494281732166505 -0.19159053026984779189 -0.054553891824402581112 -0.15121756615663212164 -0.11848219270447719886 -0.17084887005458596065 0.25302089727822474341 0.14635397931721574882 0.019280679976923658508 -0.10571546458935654478 0.14237614436770926196 -0.37470815663158280051 0.2236172001978748991 -0.3021409003967427398 -0.20222393583356043645 -0.057463217411512300392;0.014378888590237906553 -0.38335836437000980759 0.1220073406530518545 -0.12667109738142229292 -0.07316376921998143934 0.33722534375676466167 -0.39876862406144586437 0.13387601352225364515 -0.5073207589594848077 0.07843641478358964747 -0.16599364942977709592 0.10365939968134463278 -0.25064343015835954809 -0.17896097685647849307 -0.36355072841586411059 -0.14294742083568395818 0.3397577930068197416 0.66365953580847647508 0.12485268831870352524 0.016446473022798002717 0.12710602251608571489 0.32062144813687554201 -0.14099075759790380413 -0.33485964851557548094 0.30928093962463465427 0.061230416565005892082 -0.026476267677972800674 0.020990187555815876391 -0.28644746341748761331 -0.082025809696797805093 0.23325845070885520283 -0.328564634727516236 0.61762696209195422359 1.1483705359396152446 -0.57933789710949334939 1.5325051244240239789 0.15159511143851409076 -0.77442727862923355087 -0.71996686253652752985 -0.25907067477824008428 -0.40315948364064962961 -0.15743771808526046962 0.85087720174901415593 0.49298024465893536261 0.27578132156251639051 0.43042631684239285317 0.039992237682322830106 -0.75585583582520565749 -0.39035371895193876624 0.14956358102185418613 0.44755372255542336113 -0.71017609430641526203 0.61492785402541638717 -0.049371302318632431794 0.18717146213694166312 0.1471769192347238131 -0.25310484953540390851 -0.36413869241624591266 -0.17228513571663975346 -0.44844826078020383342 0.081635303119337490618 -0.82400129937039545691 -0.21205503280166954072 -0.030946442902490715193;-0.20849922120940267423 0.32356043417701313425 0.094017956716926046057 0.50543274980238228622 -0.01000918345867233758 -0.19075179953923643295 -0.59051196579376785678 0.200003998298251634 0.13512970222478640214 0.26099215335153203021 -0.18113714289755167286 0.15585721386045167658 -0.21288891837820311803 -0.1213723494859678953 -0.26833224842077540995 0.021463772128508609022 0.48532671067956256739 -0.46989096800618196381 0.33946100989198996212 0.44144203319728092527 -0.13620543944821966731 0.31293313771616670937 -0.20860744613047563223 -0.19765080427975290078 -0.30398620397148135019 -0.37430486990081252019 0.33246950958511134466 -0.075148327104167730872 -0.091043806959072229312 -0.013589774372099039726 0.002705217376579407626 -0.51734091083598832128 0.31793037092938097876 -0.49261331574311917336 0.67751615414950105976 -0.13545018100010078332 0.20930304501931379368 1.2118047105190117296 0.57608485331295289367 0.7509859417738724563 0.28599759741889246856 0.406606433553739266 -0.96728805081395141663 -1.292994695718445719 -0.31238382567449091143 0.63711794112645481203 0.61312439796667628222 0.19749564062916866169 -0.50636214689044312109 0.29053842179442324056 0.15981148916586959685 -0.48656163168719562817 -0.0076169899148761620322 0.61444012028403138803 0.35237616179076086675 -0.35677877556849418861 -0.34439464492204363566 -0.086011945235683992528 -3.7694983428842058701e-05 0.093784573813220459271 -0.16276475307976689955 -0.23239698142538547931 0.64307468050470861787 -0.019835790353202646663;0.16549127683591630111 0.060373756602071650124 0.1685266803749738973 0.18784444128954719266 -0.26358757349765321587 0.16059095258563779729 -0.19053765100783451314 -0.030111144582723077534 -0.39699144715716810916 0.18060085871002398705 0.21200088015036042122 -0.094276676171958895267 -0.30655729383129137755 -0.27184814250784389289 0.45773749918006284565 -0.34784564797449818441 0.31658202634753712656 -0.090926168253167641287 -0.043151552397579881482 -0.064105820286182335632 -0.13902951456489812121 -0.049095452365111563742 0.27019180662306674368 -0.13779966748519745234 0.21745918600806127263 0.28535073061514126813 -0.21501742432153583828 0.24932026888520941732 0.45247532277575341908 -0.054649527406366603388 -0.055477197148280241179 -0.48551982566750584436 0.1395031080250440092 -0.31551045281360190486 -0.38938709222842754487 0.046394574721168806153 0.33591883031373603874 0.26168809451348279405 -0.43972378375516474325 0.23885382287456949357 -0.13492280010531837453 -0.14390742616767929207 0.036531839886320333077 -0.10743523258280887611 -0.072660345948921900572 -0.13526458506742822241 0.49120049589697534209 -0.40575002539083987463 0.023077233494181875056 -0.21602269147444996822 -0.20905056204304145462 0.1079953434213360014 0.34746390105916091784 0.061711450412648777286 0.093418481408752696016 0.24609272469765522406 0.087958694243091092857 -0.13085093647959775143 0.18089267662499033951 -0.25163826412615242223 -0.088564238138292492031 0.12626855583031049157 -0.020597011786850177167 0.32540125538656650139;0.016242587485686767884 0.20520194363625129941 0.28700798338131694454 0.026964215540059663367 0.57860606964405525421 -0.16266342607485206884 -0.032121860002291606484 -0.085436893426837939858 0.20394689913513563972 -0.38836100732014522396 0.2105034594097964229 0.05310822539479684995 -0.10428406255904183741 0.089753026374149738609 0.26237071686131624437 0.34850345133153720623 0.085304632919910070021 0.25903585964397374264 0.045307892322752986447 -0.12866717646481237725 0.053544786490110789223 -0.22474663051481724718 0.3159249455953161978 -0.15558386976485827358 0.049925867656151548535 0.32174194741060019309 0.033979141102415032216 -0.14224908671086877732 0.26851316414877396399 0.35132872786558427824 0.18552029288838711718 0.14265770676699535136 -1.1184067961969923477 0.74026223912124877735 -0.012985955156060029897 -1.0752113578818600637 -0.3968867858451000652 0.2913315814065415843 0.22816702237514197016 0.48589173301559690499 0.040815821124317218371 0.098117498980593603752 -0.19173718909649969944 0.478750062224166828 0.5098317755864334444 -0.4126900231857844048 -0.31008474643492267564 -0.21763864445506811429 0.35769924406741360201 -0.46848773396453230466 -0.42639216614405411887 -0.018488772969542759117 0.090762465668263750396 -0.20238742945174126309 0.012809133062091809449 -0.21514047978579972642 0.10435412869334761976 -0.19407942255104082552 -0.17716020550451738735 -0.20775202059023800683 0.59802599542678458455 0.18307277419295600596 -0.016310849098983715849 0.069518263747219297133;0.076266759770645203842 -0.26659823145899796959 -0.41152503963371506179 0.072443857463020636112 -0.044884045018121661308 0.11080657799374524219 0.28405238211378264213 0.37340853905115894973 -0.085875025682594183229 0.031170623869958499069 0.36265540750305846895 0.15356941028017706552 -0.082919455994499902118 -0.10260610334391684351 -0.27163722661299954941 -0.40696651248220028219 0.06570050399061259927 0.14720552662855465598 0.18664919199963841967 0.077249534757691362685 0.4033850760976536165 0.3507871469958186994 -0.15317367139236967577 0.27039273211434244892 -0.079652160279293532374 0.45310355072462749071 0.11703820442800462465 0.53464639765668553473 -0.13691450057573359422 0.28954271348841598144 0.085901284177226144845 -0.18651437372324006225 -1.0852663209204855832 0.4882675538347547306 -1.729125980420402442 0.28513173315628548288 0.24391954988194536336 -0.13861096868329420007 -0.98994101402587730831 0.46698958362972936564 0.49342747911423179286 -0.89355044073276190808 -0.16360542897124075168 0.23322819676730843774 1.0584618029842682851 -0.66246336219644119669 -0.93835359146667007835 -0.3911746948327711193 -0.89206989151670501581 -0.90306649925329240958 -0.64115760245165775988 -0.59916562953206520259 -0.10492729458997498981 -0.40546000899190248745 0.28327067794188004468 0.21372810276012438324 0.17147868813403621679 -0.34795138442985668048 0.27694683313209511599 -0.060567377037637593062 -0.1944656311116325087 -0.46673911975511994665 -0.12799853573286607 0.1809611089584418353;-0.30969143538615023781 -0.16651581897751685513 0.21381046241746060055 -0.20133559798048303313 0.056663893883135085794 -0.16546656740389317775 -0.099678792698660506622 0.10367010372144980224 -0.11968332684944697764 0.050220889914649680108 -0.12013855435062432975 0.2059125501941881653 0.1187974122682730338 0.032759113850447191263 0.1736992233414534903 -0.0043413686688997549928 0.011760785181811953676 -0.097268511335733803813 0.085219502009567973944 0.3873530048945659221 -0.27011050284454179993 -0.23354837097963643266 0.42906637282197607197 0.045716028092759077028 0.060712374054710242788 -0.32779906333634256654 -0.09661801798208212444 -0.18578993142662406091 -0.052363748344978776339 0.14512817858807389171 0.43382416676613116957 -0.16001503436927377866 -0.23597405890030559439 0.4317931099395901362 -0.91428523209144529904 0.23032027448959319083 0.60643047853278664316 -0.51032030763497349124 -0.40953310242324375556 0.41155854792655982566 -0.4957542228696827924 0.68310957600459842887 0.10920033305325972661 0.2340138828168881191 0.18332986668330975011 0.61467167414691270544 0.33835452486264033789 0.090407444434951036993 0.099873777119173584582 -0.11777051919792072554 0.14295004958570023401 -0.035221326339612397949 0.15279096727667704214 0.020394094542563058481 -0.26804586820549097803 -0.10436099513032395802 0.067359539190447348389 -0.027069478298697546848 -0.14386030392496354513 0.26943742946352822187 -0.026861594658447330436 0.046011997444209050412 -0.43975897324871010552 0.33484051783138107927;0.17349649378267043009 0.054773882988532959781 0.26492082846376202587 -0.0059547359074276842716 -0.35029109090294507922 0.039033508763837265754 0.22629947498541430617 -0.15871666625428867969 -0.20866030449960645821 -0.16087343458941161245 -0.46428972700966814058 -0.40896466630641248319 -0.089677486697023467421 0.095173951590440397652 0.051661554694200834126 0.25301369892090508351 0.19993075853361572114 -0.30261961502223483356 -0.15175025039509032476 -0.095562215909778980283 -0.026051998387766082954 -0.29285344264837931405 -0.10294873591413683522 0.11276979205153621344 -0.30124988778085237673 0.082848413454505498432 -0.33215611745826312262 0.061063791382290837084 -0.20954756789854334098 -0.18453691306421787788 -0.031694860816812234217 -0.074888884751217785207 0.95586770607867488359 -0.21956985187094441025 -0.62395327970283820385 1.103273352543013397 0.18872655962676124219 -0.41681076397961469571 0.431626185993355449 -0.035744470822640712904 0.46023338315098988316 -0.080118268995696892421 -0.16819999976185739943 0.0022826157045576123301 0.01693352283260555341 0.0064528441831013163416 -0.43765432044760121943 0.27837649380490020468 -0.27143908773386438149 0.49191683056299440047 0.10802210130602889204 0.21984712054580932139 -0.017559468696530484283 -0.22655348948582701429 -0.25598564444260296646 -0.048347457515140898621 0.54966423822352628026 -0.040272855355137200661 -0.16393478459026919469 0.40423760239495865054 -0.20305304636476789737 0.21756942034768714245 -0.30160274566855038714 -0.073168711173543468651;0.39724141169072141322 -0.36229044885725880665 -0.48428758765898272109 0.12357926028402160812 -0.38595671581629126257 0.1007402472272376226 -0.14303481068979428947 -0.16827885349757237821 0.043875895442055889983 0.090930454329274740255 0.39521162898338740854 0.39066773504080248847 -0.22429584668541452386 0.035131414129975516158 -0.27772122190394959995 -0.029118603423320614521 -0.22342208039430813682 0.38460561202279458515 0.24049737480566590886 0.041505368296128004879 -0.18526414259066756318 0.10947865307264353918 0.10206557014660677662 -0.29037945824421979024 -0.24021371438429620082 0.18835572483003731881 -0.29288749455570933788 -0.41564670886932642002 -0.18766397544017918153 0.43344818403481083502 -0.055061269160259627975 -0.0032938256603965579764 -0.72119346362520553306 0.85457987784619915406 -1.344036021121819191 -1.1765721687851373733 0.31299701365476734205 0.24478420024517894005 -0.77162090246182690745 0.31900718736617367233 -0.2248064366037098305 -0.34028430863289077513 -0.26082601237437585961 -0.27795795134926881698 0.61120108611234913454 0.67321364509671743903 0.3319242236584492578 0.47523716785961384046 -0.5353459687949161383 -0.24570459782856032827 -0.10792404073669703557 -0.28595400849196461746 0.42236287794341187407 0.46572035170782244418 0.38054400026367063425 0.28013941023418093001 -0.216468143666723567 0.10039027517007911849 0.18499446925547952114 0.036957871747626484804 -0.1466130776407158498 -0.67496433447670500794 -0.10245268219753739247 -0.024636935262764086962;-0.12030097545769599665 0.64702024916724010239 0.59912897953189359068 -0.19484049561552571617 -0.43488663786098863406 -0.33648017972870541969 -0.097848081181400051176 0.30371939716711782165 -0.012885452589367536042 -0.2824543782278133297 -0.039872307305300815072 -0.020151477887317834764 0.048599720448618786983 0.18718515708085625704 -0.26050916760373526992 -0.007322383138440601881 0.2133217009569621514 -0.16949035046108135161 0.092993505363072714864 0.38910195557649140952 0.28978606037945164875 0.043529910059164012015 0.18367447257824487394 0.10141611475047167257 -0.17661338110190169526 -0.03650803219330774757 0.46507198866598997711 0.15095511175327333553 0.18835274558914219534 0.21407553219095482033 0.26990209412656263055 -0.32306337113126581961 0.3473546294670424861 -0.10880480103652896695 1.6466891950419251245 0.54986482269650449606 0.60264128435663177896 0.71045673475910697814 0.017543546370191544226 -0.15302567609650422065 0.53699385078963879359 -0.03249647543111260084 -0.93574546744258368935 -0.68712489903556661641 -0.97602054117321912496 -0.14814627466832475111 0.27207612068880832057 -0.71406579635132438888 -0.1910594149780114881 -0.30798815202557416892 -0.63408727936579700746 -0.31407855489659580739 -0.24012582629980630533 -0.4298302648712709062 -0.00013661878900146726817 -0.1569292557061315041 0.054612423283220953851 -0.17281623404952350942 -0.42858956912591461563 0.055283156705654513952 0.20010837962716140903 0.63383683068001639427 0.58573106242686046041 -0.39140741573106457851;-0.66449943804378430734 -0.34591561159027278682 0.14616994447950817926 0.093357590606720483595 -0.13699525872295603701 0.14191929280365395138 -0.71113429708509479088 -0.26036480064209344132 -0.23098899542302034349 0.0637941474299755229 -0.086244937407074492852 -0.36429154635740601531 -0.099027696455247601892 0.078823180724935992814 0.27198909080241101544 -0.45155627809060439048 -0.16871018333976553483 -0.33358335192231591826 -0.31903478472184398917 0.43098449313245740244 -0.33330174529796269267 -0.055911037923743855949 0.2252961377975017665 0.014609565144187141097 -0.086290022803503438342 -0.13306910776053332279 0.0079889724991964138068 0.0083333670842895592179 -0.073817837569588498625 -0.2501149271352818837 0.035253440996231982796 -0.3509728326314388025 0.65591775453363121429 0.14530495749170957431 0.64705980942647800536 0.81671607838640947197 -0.52281638510367078876 -0.31316065479838484098 -0.20484629685106453545 0.25188265997144160258 -0.22440775875781987514 0.33513066524448636985 0.63944368805513918108 0.1762769178169565909 0.027485669198167677479 0.13219151344835944339 -0.22239755072481662279 0.25850912600576070322 0.22179679473088720343 0.58150244536169992671 0.26070036763165160831 -0.13844650646253106596 0.26417510730472759661 0.32747675710190904397 0.34839593502695848093 -0.46792455662087889534 0.059719405923878879361 -0.29112209874047584313 -0.44467694309190747282 -0.09335456303353142915 -0.62642037633664959806 -0.15161992182475700353 -0.1471007539113207141 -0.083281429529085099217;-0.13077438177493236338 -0.3816882064715659828 0.010203448262421862397 0.17178287253977664317 -0.42473367660356864395 0.036077496047299061066 -0.29788864311952073516 0.48004341312598985958 -0.042662201051586294553 0.11943520321598695422 -0.19543179794312240394 -0.25617036082987865164 0.36746935623940346627 -0.023469325391291460253 0.041958724278123041285 -0.19057339264842057536 0.072518620380707596307 0.27969903428970210868 0.018129971314180086395 -0.12104393495391362057 0.36694870453425793011 -0.27500313766984341157 0.41894801559334082786 -0.058841162421454082376 -0.10240739878574939281 -0.068461423440172738952 0.2295244212946401241 0.48491341316890890223 -0.41156125720877828611 0.043993834828034469875 0.077734821831118169899 -0.18518945631405450691 0.52102774415451080792 0.43721561947909576284 0.16690237268539734328 0.27250796726294301831 -0.5744968348235229838 0.18162604406258311962 -0.25724571302096993497 0.66807661003551777057 0.54457773508472018253 -0.49779596897535305366 0.21652980143369165988 0.31945189192148165658 -0.43164934591333053993 0.03893933927957979324 -0.23690549768289426158 0.19554859203406319001 -0.44985583554347635671 -0.17146792128022564361 -0.18471141479994279688 -0.099511467249731130891 -0.20859682066520640609 0.31117419406519292169 0.088423596162028994527 0.22456860185669583196 -0.00024424251679384511443 -0.38112026451312702724 -0.32162407638860252002 -0.68402754359577799814 -0.46987946017586484926 -0.17782879564553238927 0.0070266369444172901981 -0.25102825003029627382;-0.5123253035095591823 0.3538120124141607703 -0.23928567340093692684 -0.033596340064005907056 -0.090307566137228845182 -0.016746359676344021311 0.18428370555227022165 0.17818687892961790342 -0.062609826029311532736 0.072932662392509534088 -0.38261680479777099295 -0.36477023888520165862 0.081408624585917674366 0.054735326566297717865 0.31972270597190799446 -0.27569593964953031939 0.074988319147574186707 -0.23961422778426072489 -0.20105454215749293811 0.49633619539656231856 0.12778425602864679211 -0.014333490614374246735 0.27099915734995383421 0.3448003911045825487 -0.035510266153644588771 -0.39472684123747514562 -0.26507474124959451434 0.31115095496246752971 0.44781856971770084286 -0.62142197891381645292 0.34044123804632159258 -0.097041996094634791481 0.18664079933894761609 -0.83706645006096691564 -0.28254097218904350441 2.212409740889635934 0.32981010455587667085 -0.069498659544173321811 -0.20432464834030261702 0.49833331482797332823 0.055478760176801686366 0.10106568656204670265 0.29980706298763443174 0.24144349500020928501 0.1917905303754001145 -0.99774961739224354851 -1.8725120500167813375 -0.39474475607661024812 0.28849064326479473275 -0.26756617857429182417 -0.64575596069703600222 -0.52714033612654209726 -0.11089760849853413927 -0.65182885410832325235 -0.11543232054737162517 -0.28758598386963479809 0.54754302113946073938 0.173818678665906029 -0.11793210018358556146 0.37237834027133254189 -0.065949009910839989645 0.023120571902341974929 -0.48349115923038565867 -0.17140009379840506765;-0.25566826260600244991 0.10342184089010636461 -0.28615404301286495592 0.14690158928983779174 0.20045270368328887978 -0.057443813384155800739 0.021134933072240125185 -0.39599480542502385472 0.49828227399470981229 0.02639997863520021637 0.1938661090602215864 -0.53547568340342710513 0.17028762676406539178 -0.40629956298793473701 0.22611603403551450153 -0.3226640746686557093 -0.49806248490035426313 -0.33585780461109204786 0.13209674532015505677 0.41979117728710019231 0.18664930678818983378 -0.0043788763383521261269 0.47485060529718131628 0.096500015095152380518 -0.67793173599477196678 -0.34119602249608549371 0.079448524589648336636 -0.24924178467150984173 -0.069456293975021093923 -0.27346143135412404046 -0.29196883771660880891 0.18660028620753188466 -1.1484013233981125168 -1.408890966450223603 0.3445774868583087458 -1.3429105774856699984 -0.39602414950583009201 0.42541317745451395771 0.62936081424435286191 0.23347402096322794618 -0.0025874505717536164934 0.45237712020747272712 -0.69242311423356572853 -0.75316227738744323528 -0.09092736020751644721 -0.12443072590207156225 -0.59218676981072204679 0.42712792483988953895 -0.21776789970463505952 -0.20625690816901651181 -0.22684852258787638335 0.85185894190645849999 0.022333347067769432348 0.47910847758297420151 -0.19220322518621596464 -0.28478058984228155071 0.055790247071131351952 0.1138004234918758989 0.54961436759074111524 0.2475776940825434036 0.079778967604684641879 -0.22963607032659591467 0.18020414274408205757 0.11389247029466097183;-0.32837684448476595067 0.17614730218159185826 -0.034112580474866406599 0.25412285671253115327 0.25064460395332111009 -0.31270682610602962281 -0.5222981282385429358 -0.32185206973427438193 0.12535339413267848618 -0.19130741422501745808 0.16417295169583692727 -0.32052788782453978111 0.40638312064136794532 0.040534364917799388384 0.081058805645784173799 -0.4109746796002313185 0.012820219002387275159 -0.037931152436587393939 -0.0016062396623173721445 0.25487067354871023594 -0.096942951455080791923 -0.17521420114589777994 0.072603751902082278025 -0.086345701045041883814 0.085546647704265149637 0.27106962983508997578 0.14303051631468896576 0.094219725320664735047 -0.0043957037855763079343 -0.85028973490125858703 0.18429080344891485277 -0.25505244657015468945 0.0058917445929298432189 0.048512633167717172933 0.91850219865037141531 -0.84521233932638439867 -0.4891357681883028441 0.42367851747546164676 -0.026244639648616646666 0.38659862907035486002 0.24663848185813375125 0.65683519560158598605 -0.054999775413484684738 -0.31795185477606857649 -0.58875049796163403393 0.22185607795806769338 0.39254534810684832413 0.10558231036577023221 0.42547629033769385209 0.4264863826827883786 -0.2774625985046191845 0.067894650703879719233 -0.14679323066218222249 0.56552730604107182 0.28463387751659491309 0.35396129845667578806 0.1584686495246027671 -0.057413123569629027909 0.034680866924047981659 -0.37621699738570785199 -0.56464810961915623544 0.123577299378853811 -0.49922764101966693451 0.66992934413592208909;-0.059225066152012548204 0.50574182640054721194 -0.28898095340194218661 0.1926339667662808619 0.14818622958296315262 0.18421344073782164319 0.31897871112371478652 0.14440800201390568969 -0.076064385908477666343 0.27763547804036348143 -0.17802170173741108106 -0.021969779840469348675 0.0050294989196818500748 0.021796180718865496712 0.083370047401810074006 -0.14008754511607016124 0.06118117359167725422 -0.1361136080482266697 -0.094302193609710552313 0.25505763488575305953 -0.034023027683820053491 -0.091919779437937276789 -0.10331158675527292445 0.15150990467888034163 -0.2932814889122556945 -0.0060379708986431409462 0.21957322212419108642 -0.21683212829303918912 -0.26409645333775289 -0.077634289687723873064 0.37002056160038115928 -0.054045394048783092222 -0.083894209584245371669 -0.54420413441556003686 -0.61255064910600542927 -0.07356086648369160319 0.31311541036755213829 -0.030854689854283946782 0.49141480944221671567 -0.036816802440507265248 0.28899785169601088786 -0.25793907250840036882 -0.23480852816007641293 -0.50808489020497771271 -0.085343387923929162064 -0.40435539535030129432 -0.47157728905063406311 -0.040508720873311664101 0.53405403491976166652 0.10681575494459712161 -0.12101968966197755584 0.053262995218502869055 0.0096378562075627137451 -0.3960494062747969557 -0.2326741577370284586 0.038279216438530737354 -0.020743466374800300506 0.038459030333913866995 0.29980264341927786997 -0.14732039627412726879 0.13388079986401565935 0.17166253343375026397 0.14065436620850582661 0.30964513287147699128;0.11453681593209656675 0.47038254517013949885 0.44028202173192271252 -0.19139019677090202132 -0.19389969099551687681 -0.06182989890108765707 0.35132677831827191506 0.40228864460819224735 0.060001397849819095021 -0.04116269194509983298 0.18414029879347171281 -0.27394998203471687681 0.09871832148739058399 0.42801263405958894781 -0.01144710545036370028 0.50819948623849653391 0.05269975038101234327 0.032711526784494383835 0.13191377266340731378 0.41883128633431732091 0.29540315909744285783 0.075120386738934050164 -0.16874532165851280352 0.25261188381309801487 -0.076043222155873849144 0.13495597451548813073 0.35512862106649134564 0.22538880579304854113 0.44917503618315579583 0.37702741387624533198 0.0023961859496552141702 -0.16870599389349899555 -0.0019747468615083771035 -0.65759148915057108464 0.58127116678226276036 0.11043348750538686809 0.51172082664651508122 -0.096618321645985758006 -0.70517964482456196862 -0.33753330761159727746 -0.36060061418527838972 0.52819212978482799059 -0.7789042152204984637 -0.54914184952150790764 -0.43446057671518939491 -0.19809385242290641904 -0.059157813742407402979 -0.36063953987648794675 -0.2426563966849781262 -0.69043127056507735961 -0.53501994455115109428 0.071517564690609505829 -0.14542437245160547143 -0.58634337908575684395 -0.21665451573180680156 -0.15613389681225942063 -0.11351681018938844514 -0.049196915065007777723 -0.0093298260274884883131 0.6722728856948206877 0.056426242962404060677 0.57141515488366401154 0.20801627795234542417 -0.18226529111316311371;0.23013133628505100248 0.57653720423806209538 0.21614203723659047851 0.085322652487198863414 0.40354314022187837141 0.076284824536711565157 0.10385688480319306415 -0.10509442786258997582 0.30773889804548809623 -0.28707945857373157184 0.26857244272362179593 0.33322120402331067979 0.089119645808324363112 0.35573649797349421453 -0.11825361041261622796 0.33270488976228868028 -0.034915554414724825349 -0.18065432400743305918 0.11527045015675442541 0.1668179860740880982 0.52575463563934377031 -0.22841733249214696277 0.21183715667782354597 0.06823233451634017066 -0.31081153140080780561 0.067797931945774839169 0.1915654914234729278 0.30178007906117337855 -0.12878187799057144725 0.054183015560006292377 0.10441914581877503876 -0.033275671298501431628 -0.58733086797442346505 -0.024856739985429615603 -0.36869219500737843154 -1.4891363443400063016 0.25644375953152342973 0.18797608267642526569 0.052658928000554973414 0.28022283300549494234 0.47964768217996295308 -0.26948993337566923278 -0.83724789853119452321 -0.21617976589909077001 0.074658446267572758925 -0.057735838416645160476 -0.19174516845852271341 -0.2801712397682131761 0.082137277296448499286 0.28238388608067699348 -0.68834406064450415208 0.48233080068531669626 -0.31561251915541449486 0.022131585858795332217 -0.015166017188697002854 0.42030485962688357571 0.22841721382388260886 0.14924283406834268351 0.62236405209847334152 -0.039779894331263949969 -0.063081941411813016729 0.44762980295398402397 0.089586703116462523822 0.13605766898489282668;-0.23064718323674621159 -0.36638490539101520316 0.069123188581839578593 0.063479383015465851159 0.022474180366135330239 -0.38670062488573148096 0.8545090467719437255 0.013018724056804644937 -0.2602998296806310341 -0.1145031031106899938 0.021293149787427724517 -0.21035449049202117888 0.40764612843431441425 -0.066200605526113398547 -0.3264018218209989719 -0.028961962021018146374 0.085700105286068417598 0.095770151176434947793 -0.49917888369818985694 -0.53351654579110430188 0.024577236155662443573 0.058411124879621849348 0.024180155676499563017 -0.054274964334400592481 0.19111711704213560359 -0.1437137191409034731 0.051801922948666159763 0.49917855449793369083 -0.40726843918631328023 -0.12305871879005067515 -0.37714369718309131985 0.0059181039760444024977 -0.027252182246169088381 0.19264503354001472069 0.17763782635329822268 -0.19243095595249729013 -0.88372046834573725338 -0.47456183780484301193 0.11821473196652626525 -0.80526647416352870046 0.14381460283656047339 -0.96682953669447457834 1.1966321704268250148 0.28571159736642987026 0.30830021143879049461 -0.63975043155667010719 0.62229795460695802589 0.27984326657153613116 0.29400828900041081626 -0.28208270552037872925 -0.14997181989138769209 -0.062130644197503664961 0.0062023848195781085268 0.19823416410378957853 0.72216519248700872247 0.55201843388995575079 0.6315519058390283158 0.64253456293585742287 0.79801005449591000396 -0.0046190459234906923458 0.086371346565964915443 -0.37364127794200391319 -0.26212716296301685759 -0.1478195268294322795;-0.16349517561026194468 -0.15552983220810409626 0.30516132771811488311 -0.16619540171750887825 -0.42999490708732079902 -0.024444319224367887927 -0.30141831402791191552 -0.24660386891015453892 -0.043834536003037730123 0.020283313746840090502 0.052168691117199864071 -0.21064690011960324201 0.17956388140119600161 0.21195236498766562017 -0.1609782293969751199 0.095574093139691687626 0.081956033017555968145 0.01254764448557685666 0.022787002132210281563 0.23902800023764989024 0.17331403942419917885 -0.12505439509465862691 0.1313469302751444634 -0.23028166012408596286 -0.025903262546130956245 0.084304363085355771279 -0.062638989863600003094 0.044316326581485140923 0.10342179848264886066 0.024486326403660049061 0.28994968501647783166 -0.38382158744581373888 0.0044983874365213576477 -0.068279322124609562183 0.78378622625593363793 -0.43464618156692147455 0.16223293449164935542 0.092862526456210181536 -0.51648658162885674461 -0.26093413474149940168 0.19394251450742192033 0.1917470900056276184 0.15307278962135173472 -0.054702377534568455419 0.36737394237603182567 0.46521923947595167359 0.32563625291256537153 -0.59154666632139363269 0.067473975104204497732 0.29772718308238549367 -0.20660656161062881941 0.48002038382333805933 0.26087310851727801841 0.35275991240000087457 -0.40318458165474008181 -0.33796829890844864996 -0.004377466248113715333 0.38325239568596747297 -0.17117666501149617075 -0.24055860696285302769 0.025838065918124337311 0.46973046543389995744 -0.22388341103376008245 0.5344191514220966166;0.12337865372572724698 -0.057677897839184331941 -0.2716347150252144127 -0.014800055074864424884 -0.016515839561931394686 -0.36362678349902705088 0.18202912149474650971 0.45919200528600667699 0.28559649232967010413 0.30844721947559217146 0.40584369978072726282 0.090905236413206261248 -0.35321601306977046253 -0.064829819640678409964 -0.17277572400543095288 -0.57651185884402122994 -0.38949872976099003674 -0.050263115518770051793 0.39315688225424139102 0.45141367213449323792 0.20618666226103757322 0.62450561908318347193 0.13044063220375207157 0.20359703682497296007 0.18047418133358175685 0.31960943657055707057 0.31968506846858013581 0.1482940899339772467 0.028317705978374293346 0.055796999788368925599 0.60281690432664958301 0.561293451485107453 -1.177404113651714157 -0.20377857125020865103 1.0913715682325595413 -0.34277739960736980374 0.096159310292559085909 0.59998632206399238331 -0.84260242370628846142 -0.13375413820386028441 -0.62070421411698617487 0.43403433854051537422 -0.78957516849317987973 -0.57212889614765793933 0.1522116705193116426 -0.73133960359425842501 -0.83094435841823854894 -0.36819604560030771978 -0.60820716280204067949 -0.89559755115297423611 -0.7055494679960183646 -0.43578789022581082557 -0.13647399576120791687 0.20097682653194978708 0.067909608243713059927 -0.25452032049057576879 -0.086445911165220865047 -0.36845870112668338558 0.08379076076445227117 0.51083744288257704191 0.52790742662079714886 -0.67413322896270555518 0.098939871028569228995 -0.19996554304050900841;0.079486030854056685668 -0.14996095039637305502 -0.092163041914825050149 -0.023505299344209515389 -0.25061265393730824957 0.14710188816982011639 0.28786724718720607674 0.1194414844885151733 -0.34873712258843453382 0.16037865711498169863 0.057994174946960352912 -0.26490596094304896813 -0.50314127223815030554 -0.15631109244665708502 0.094751069906247292751 -0.086687653502726447208 0.11059210443428958703 0.038530419899531952177 -0.09187225246287203384 0.080838879775898639379 -0.088306078492522074863 0.1527365403054428139 0.16674677558375497477 0.13569570673816877537 0.0080434829365504615512 0.18960442050009967963 -0.48851228796820106437 0.26825768983925096789 0.21575410998537228324 -0.19761553295392686458 0.39863043810116804977 -0.00038425211040990329969 0.22011206280546438685 -0.067999087340128383516 -0.40518125323729897724 1.1898118866792299908 0.51505078331575426809 -0.42806385347880360204 -0.72246038366420595178 -0.54358014694513046017 -0.53024727542423555349 0.45125543386525196476 0.47276687883701112858 0.075515419580262671539 0.54788586322244914317 -0.33760355941768388499 -0.0058012103947163952064 -0.18561970126493873567 -0.54571545745489902224 -0.10653575006757841359 0.36173926202627881832 -0.28322270233586899213 0.55902322638586421366 0.013370532835107305433 0.10755347615868886268 0.11027781274083567342 0.050681445011445752646 -0.27935887582447238575 0.18408478124462956949 0.66437352842728902846 0.34883535109932234386 -0.31484453624100589009 -0.11461274815668633098 -0.18931801551733018485;-0.38835172230945086413 -0.54506267251691886688 0.032556900856488893425 0.2864988357077958292 -0.32259895119597248314 0.10265694749905104888 -0.35841751243841835084 0.035767030647583714087 -0.4717094694886455053 0.015152741645385844546 0.23392763377719544282 -0.20807039383390374399 0.027079121087112006244 0.025791884174075435654 0.0091062879980340002972 -0.20270825575477538494 0.29835425109113089537 0.26856563104319663982 -0.14957500535801518393 0.12262810384760175486 0.02553962651602398673 0.25083866267521093274 -0.065382991465147685672 0.38155820756696506857 -0.054291802348229618869 0.031607490351396268224 -0.42256900641170264121 0.0045567048030025567723 0.21336597707442855887 -0.32447709500615040668 0.22072467453910260549 -0.55600264013544287156 0.004848790099309842859 0.35831435385809995431 0.39041707456015456446 0.94777587777167926486 -0.57501305147139103457 0.23422031859453013025 -1.3591534172172283768 0.49703854522439400165 0.096146983993884174713 0.62795560117685988999 0.36452309141158878436 0.53790228782924642825 0.41441337197285083027 0.33449387616427539438 0.52659065881935962494 -0.42062417087707837382 -0.65113766701211406307 0.30709116357531551778 -0.04296672439463178339 -0.74284025936938025136 0.25856854253313382719 0.67956093535413508722 0.45725027400038709136 0.0027373721101280009717 -0.044991825864037389426 -0.51088989950965046916 -0.24664779209071543975 0.098786816348604089555 -0.86817480334270058506 -0.29117867170914391028 -0.70098855227411693836 0.070683175067472389652;-0.14236201941024523299 0.16188115712810868807 0.24278719924307565203 0.19127521757432716654 -0.089893096420133156155 -0.25846048511661584568 0.22450542100848688842 0.19278519785503306361 0.12204748139708584964 0.31624990271826874944 -0.20413388010374924897 -0.12569498237773540916 -0.22221348680083871652 -0.073770401342759223118 -0.0039199373453016666743 -0.10978451231768823759 0.10512499059348576202 -0.12583318405472734836 0.021127111034680949586 0.21635426902852344933 -0.24758349275956814672 -0.14353200495185883256 0.24355230975900649115 -0.11040406237606825712 -0.078105535768097561489 -0.17226211484371625748 -0.009888852592885797807 -0.034249387718841547978 -0.0012816432932208348273 0.15464520858044106255 0.21146041936027168417 0.11930458553479716954 0.10492655589598222365 0.27514147102357389141 0.46345974868380357403 0.3187028731112950819 0.20866619144306067235 -0.22357173153705969804 0.21496342951726035708 -0.086995362201307949168 -0.17581509472165574026 0.30564980682439474302 0.038068994342385698015 -0.096345130226972594545 -0.049922024088687275145 -0.13472113566868079704 -0.12441854008875108395 0.11406321709358339944 -0.21625415419986684928 -0.21379216676031195798 0.29599237724767174518 -0.032957653020045697689 -0.1726539085953726349 0.36955780290999007409 0.20975368209196484925 -0.22268380459158282347 0.25725945176169018325 0.16972253136337026036 0.027053261586114273757 0.17002313963344869996 0.37023323594759277588 0.0074140717219829555679 -0.1052855431731093 0.25761677213904304873;-0.1913292597439209819 0.38420464066250648028 -0.44065014886318465415 0.20728596574423194254 -0.15984693858392678978 0.0599091029306551906 -0.14992554152091602804 -0.18846645935568814845 -0.06436710292081276874 0.21479367210579369818 0.11054268908191260123 -0.32093517042806662953 -0.25474443453914619173 0.20750793529529429349 0.0155994357990842554 -0.28806006756759816589 -0.21440950367979835778 -0.36098168637243194246 0.064341039666502647387 0.051333788668765631402 0.10211647507676401003 -0.028456272411809396816 0.04269709601043952113 -0.23282970204743672071 0.11994055573677352144 -0.36146490869424313663 0.18118935657442147846 0.098518405329355879241 -0.17795252942976341748 -0.24861920220964758843 0.044411706060078486036 -0.41341773708668921872 -0.053448296010400270228 0.11290561509962046549 0.20021550837123239241 -0.40908236846766216077 -0.29521561074384677914 0.21201791605939165897 0.86576093000376908027 0.56560502504919196731 -0.028378422219353473255 0.021113365749722529108 -0.10248263537825659519 0.14598726307732295959 0.25927909127090581487 0.38868102268137982858 0.4169065474193013876 0.27819048943433610788 -0.08011336626941557848 0.3784128860967944652 0.21858941026903869198 0.11524271549957175453 0.13773675574893548545 0.030889384873368196105 -0.19663479913907502827 0.10325648889594685187 0.1450903907121701697 0.23378844569815881993 0.24244006107396282035 -0.36751588979186883277 0.064088818955936419086 -0.098009877546084797628 -0.017974847146542148602 0.22386895717535373884;-0.0048887947670749037216 0.32042272658700660104 -0.25354195480566071863 -0.0075640866671385625225 0.45137537700023228071 0.47610353565081242611 0.10766117471589249643 -0.25804425599751784626 0.21166963337291666569 0.032682284068694368584 0.79170961066266087869 0.0067407371040204867862 -0.38266283730444156097 0.13884125561327212428 -0.1875835900258267519 -0.11500901275558167436 -0.44423957634945265838 -0.41053845876573202833 -0.03104442641708505049 0.037620570134950008512 0.24011156872151953601 0.13458319997552598002 0.27534541316897942487 0.071298318224212481331 -0.28588225588092669449 -0.12363683773774146457 0.18942967208686722902 -0.038844439172734321342 0.25452024768429382107 0.29546761828247042336 0.015251734049233500387 0.20621342123920352596 -0.53483177663335734753 -0.51939334716844054451 -0.77359017417696951391 -1.1411818976658720803 0.15101770310400969288 -0.61644559272636556546 -0.0052452254782132268912 0.33076386467264062841 -0.003702450184131592277 0.083149648934843251036 -0.28023059420653240181 0.5650340719809534562 0.59204225979596813989 -0.21597745432794690501 -0.14388955165700134664 -0.45855326682931596416 0.34057829512783044379 0.29646018905363696883 -0.28379288930906609867 0.33117531905102121081 -0.095452248300933212333 -0.32675746799375976481 -0.4502686521141952003 0.38936087656262408085 0.11887486502996225113 0.27471052435869230957 -0.030916075628465242847 0.53397890428967809129 -0.1113859000408206068 0.0090549879095832147557 -0.0012840168441728961029 0.28818785919312650545;-0.35950351987095313655 0.039344894670139220205 0.053569908177373434799 0.2831602457620819302 -0.081977797094776178044 -0.16519287656933692721 -0.025503868449325606954 -0.0015626634476369207459 -0.018675075874887401423 -0.3458382313893054727 -0.01481123927316182684 -0.22980556268962243349 0.28416973548806473415 0.10960433585720505412 -0.11678495626511578576 0.22096547064044083641 0.029079896459038259704 -0.10626760317722545868 0.11396486583136192228 -0.012270607807261546887 -0.1531251167083936271 -0.15585163486980463388 0.308723503735811311 0.38991524438610614123 0.21925309611386603614 0.56686719843222344029 0.36017267229937682815 0.21191745485003479765 -0.26882624898933177304 -0.30853996859655824503 -0.16648426554703441016 -0.54923199668005762142 0.34698476352307472403 0.46951714487349316407 0.05174999430109579468 -0.65012164469481081852 -1.1714370853857087873 0.13442194526989045822 0.069479957338486955654 0.6120549669058270581 0.20492760347138194721 -0.089771806599692957618 0.077831145460260459101 0.42039379168855589564 -0.73442515544476072442 -0.39356578609587644646 0.050463540013833976805 -0.39079850528661297382 0.12007549959957243557 -0.24429767253211828737 -0.14902461070207004279 -0.41101583918152923003 0.076729053113444883882 0.033632612167164559203 -0.067030074919928545052 -0.042243632908312594987 0.053957379484760203958 -0.078268532284748726369 -0.27459286057868381725 -0.81727215866306512915 -0.14642311338266827958 -0.19572526799318976098 0.233807838423455705 0.041704977826427222509;-0.6126181656659611674 -0.1784473345092874863 0.25246129213948292902 0.065495378829691017208 -0.19847393020091400051 -0.17698993959099709739 -0.72119144061366580178 0.40899894624816413025 -0.28192571108135888736 -0.16773423657577851698 -0.62775414461085377038 -0.079231189388317579958 0.10586402763132461702 -0.6072939574886594416 -0.13916022854208986992 -0.053011079509664001119 0.22001225629776197112 -0.74525181001547180504 0.041824526015485252728 0.15551739218117371921 -0.74143107104945993324 -0.51770529304143675375 0.21238072115266237727 -0.42281172008645850902 -0.076361274709804582983 -0.31728880225850780716 0.22860682634784629252 -0.39262803193139433899 -0.53450032523303114829 -0.28383856401690576998 -0.0085069636090577792353 -0.16712939365664600255 -0.11913132471166786031 1.2617753269753964052 -0.16207171139377271607 -0.20638134453027992543 0.40509061421322739571 1.0234763689865045144 0.20030068991965069292 0.66781522305415974561 -1.0319102787688554379 0.47047699826754318941 1.0525278961447885884 -0.38885922180901749678 0.04997572798649267678 0.63502159374782707335 0.15159473722112762339 0.30605002818337995185 0.58227841235199007119 -0.2836884647365081058 0.38573991159760334657 -0.27228619474794407695 0.72639896439607831713 -0.39091168716577762154 0.1692208168568938853 -0.78196141493293502833 -0.36639338704397944602 0.090128670198695595706 -0.83252092190442084085 -0.49434704018203529108 0.25620734175770160101 -0.46346725298883834077 0.41796318607162191716 0.2339603547880202139;-0.2794437025596029911 -0.16435322660087953173 0.142231811599936947 0.17868354290597068812 0.18757386634178974116 0.27751869455149918986 0.12629185430870543128 -0.11226542189021349039 -0.3266073077259272206 0.25339591045993903329 -0.26404336920453708171 -0.19961176317173212613 -0.2730376157230189893 -0.22160207896647701742 -0.0041109990401286189074 0.34395376864966054065 0.25060453871241455959 0.26983704637492045286 0.31549994115796153871 -0.15614424080978167586 -0.076830761160837771073 0.4769935516401515585 0.14726342143439624666 0.27157777870284910415 0.21811055323938260964 0.066485251295447245212 -0.16910447164182604296 0.033580740692125632396 0.10194757678971066994 -0.10109296865562079903 0.081592999630394485999 -0.18993354168978709984 -0.32584684653340095783 0.27085885698446193759 -0.088192008784284806056 -0.11352104990712372223 -0.45433308084354534495 -0.10051980899304102657 -0.07369608774161592879 -0.14037385905959642862 -0.5255041475523962724 0.045576439347211734898 0.49627616966943638444 0.33918866278172626894 -0.081516313808048149192 -0.32965082272016810183 -0.37960887240998597569 -0.39128968135578490184 0.42524638567278388868 -0.040561601024221190237 0.071635880795973466695 0.081107551590145057774 -0.072363310899322033642 -0.13004860070759655111 0.16728825072530220663 -0.40551558416445959709 -0.48905594690577236516 0.17318658262615788113 -0.0030517279455121782729 0.011244348623533732823 0.0011468138409306844611 -0.22650050894307161009 0.26488712142040643505 -0.25435930992142646856;-0.27929456407310349064 -0.090350774203153516595 0.16165059848771401452 -0.22885195609261912986 0.18202959041865093837 -0.072305345853481362006 -0.18232517880808549182 -0.1331964176291333124 -0.082624765088405036084 0.077552448957370651028 0.27773755623102186485 0.31578728505281494776 0.12607308740156500382 0.21966289088071833113 0.035199560779329105986 -0.028898219383576211755 -0.054035209401998456069 0.0070617952534419905358 0.20196310331107319991 -0.0076912454658583737782 -0.17288932936752907099 0.15495517085905222143 0.13063960502569330058 -0.2079450451561055957 0.29757130431892314659 0.11637870330937903629 0.019391027479724008697 -0.1979138578462438236 0.00017685376499243437112 0.068127069713343132995 -0.20378426783722564108 -0.21411292348415686404 0.084124167502928060003 -0.14009628044161490101 0.22704723908324098147 0.23027382059969789263 0.40146586669190359453 0.017198321343801351024 -0.3654509900407975076 0.13369558169717640772 -0.036047647462823274866 0.11315353738946001827 0.19255020252782226176 0.21539291678054947599 -0.059540442499097900875 0.18351666937759944509 0.60046763685765847107 0.24300200098854754516 -0.36374337904472897609 -0.28213571294010003632 0.028652022178845257261 -0.21865642996300471701 -0.2924778479091020289 0.1718904964282554626 0.27045353240610070511 0.14095741144150114588 -0.031632261452473969809 0.18797413301174581424 0.098496526032457898392 -0.096290683415642536191 0.23073224237015699245 0.1378787202953150326 0.30934700558460592745 -0.019333462230856916092;-0.63145673414157377223 -0.58466554595859765442 -0.0062984845009775919031 0.4376324799070229199 0.36782810998532211588 0.31635655270503004743 -0.14123002292684147529 0.23666369165854680978 -0.19852102373592067641 0.079832164941008407211 0.27306919864626738592 -0.024721258053844369362 -0.17854732072087584061 0.34582526890551096299 -0.11639400017831097456 0.11233208213555111177 0.34789456157771553313 -0.0023162838320897253912 -0.47050150529152623413 0.20005590420875479785 0.022388511841683965409 0.057630778103589283545 -0.11363137415071691838 0.36862735786630601575 -0.15927643952058184729 0.48989720251171764431 0.20496739390478377341 0.37019123117609364915 0.42817405312561601649 -0.32121857670964659714 0.269442081624830021 -0.23711654535595200199 0.35957839057117668702 -0.58317442383104911574 -0.57769607336751960247 -0.27204111585444451515 -0.17603939715074115591 -0.88312945695816935654 -0.7992817575248121198 0.88014209613140559352 0.55665892062579092059 0.1152630907987116371 0.056624620153405712253 0.19277647410896836533 -0.511840453542950935 -0.30224701257621555683 0.16455209209688695382 -1.3206569176812434918 0.2260319929924831106 0.18961148382538897672 0.16288901125221455501 0.3033505645654253069 -0.033816926130258731509 -0.088998593207084419898 -0.23324119762930206612 0.40501744150715207615 -0.31058293154856397855 -0.018151618472447339503 -0.4647419309237758589 -0.30711392390948577535 -0.48270923004038923665 0.2364396820272937072 -0.22476521603951665762 0.44175442479431414888;-0.010745778975830785201 0.0067361008169250042796 -0.49228020599612520858 0.027804717849833859161 0.11160104406676117639 0.19660380956741349556 0.46707910418461073832 -0.0051569389423405994494 0.19088328662141149095 0.072670530027497487469 0.072766956120366252381 0.22072080024232723638 0.1366987326304025252 -0.27479629486335366284 -0.12438593347653517651 0.01258076954166913522 0.28118796138189022793 0.3223133801669308407 0.069356664721410513086 -0.55773281991240530875 0.067353577909330580864 -0.17612020485565568761 -0.20472699449481787659 0.21475666757146769092 0.16094190336295438604 -0.094815787181900784697 0.12214930009153143753 0.14153259811033741533 0.018836865380532905045 0.36721773754640119058 -0.090587586180869983377 0.098459256989414836725 -0.37764389770305178962 0.27160946825396548032 -1.5343653056401531654 -0.84213652137266337139 -0.21695988926416903686 -0.59568536774941127643 0.039870377526556935455 0.60658549464573918719 0.27339622801778834527 -0.87014330268060580131 0.23370078225935458915 0.58997957391005351191 0.82553672588125670551 0.0087578504919528961381 0.3068177106393638609 0.52110342830721789742 0.36705823750546373585 -0.071146826870688475997 0.018102416456742712741 0.16212958546583272623 -0.39758757327635474432 0.03810971929835977462 -0.049630972958234473302 0.50781264442795681635 0.4339639108993154637 0.22666880710331807625 0.63591027673125843922 -0.023180842618239199532 0.29758537914232169319 -0.11477012818901351221 -0.24175793439761791848 0.020633590452956439981;-0.54397861508504097294 -0.48648998817217253832 -0.45560718954945256254 0.062015559541179966774 0.21160935110936440751 -0.013823486375567078585 -0.27673284618819660174 -0.14490177676321880362 -0.17364533477896904046 -0.019474521333803798684 -0.22442332097523082224 -0.049480901836664079041 -0.063288946425802489193 -0.42944769265910609501 0.023999853529829251464 -0.017495099837077941751 0.12581490442465362301 -0.26949524717014794462 0.24261002455709421155 0.094023254375608170119 0.05251324414936552748 0.021416726401522201417 -0.24878511218236945557 0.13402131178838949666 0.092616805610398783566 -0.094968351772210468642 -0.11191833903230612168 -0.18136846653118643413 -0.076850217272355275666 -0.13878642542493427325 0.29914283962377391513 -0.31225156887360067115 -0.42005676746155712342 0.42840495936480366135 -1.4689760968530853891 -0.077081572624010080697 -0.57796109220684888097 0.087432636773060637414 0.30478064157937134748 0.81660496941273663651 0.013719685450573896462 0.29492965563728373857 1.0893906599994453988 0.48473031683800293923 -0.032233255033923907673 -0.19895055964297236883 -0.81235960767837933627 0.70391419937636934279 0.74848848874031570499 -0.089956921682957227682 0.69070525128756399269 -0.0088875272077166868334 0.21427966519815139224 -0.037623358277669792515 -0.11865645096354607291 -0.33105041239267496422 -0.25520907183321356326 0.1171784981785604085 -0.42395123351708702275 0.093223044909010219228 0.13561832817184266142 -0.93789568024021119363 0.040887101551408004674 -0.021973242888034344444;0.11548752754405879062 -0.26054715454424448584 0.20878341692022100995 0.19196612878949809167 -0.28392430923957306943 -0.64382999547477293145 0.16553932233902604598 -0.32190208853167939784 -0.32987515879187345735 0.29249210875158365708 0.10643283205046170925 -0.038840397855490871315 0.028736791439931085729 -0.090178505561551242087 -0.4231606554860867786 -0.23046509123485753312 -0.31416201917326980197 0.23968767546746372332 0.17656168809822211929 0.090636160490740816376 -0.15461307794270817695 0.055654951898023968804 -0.23198485787126940649 -0.087408521418956622306 -0.21836791734985738778 -0.3981288580416582068 0.46776864913536780888 0.2500190641134006353 0.31548611847460589219 0.45086787659865767974 -0.27531040153718522312 -0.28048008270085761362 -0.19616781931406826467 -0.076328013984344925125 -0.15720604355480077841 -0.25597632220776350698 -0.55279760861204640943 0.65856085823071797147 0.17808326803460189369 0.15849900870977789991 0.44578566666713748123 -0.38893854660284893354 -0.52546012479711978749 -0.34974951210011784308 -0.65939076936873330936 -0.23611200052792397086 0.67911104476864270207 0.2735191129519032871 -0.031777254067091559309 -0.38906692198411318984 0.27645021392142871131 -0.050080954173706691834 -0.2963598855614371641 0.16839223433181638168 -0.035229767260024975883 0.0071676727624767344604 -0.17240538411100883587 -0.29616726420381372931 0.28231721308681118066 0.21957124619395892995 0.00060842022202062956155 0.0036278519082796069871 -0.29094782304245564442 -0.056622517017937461226;-0.0038230483011186893426 -0.40756024601395968165 -0.0043277836692861455792 -0.18467354145626574402 -0.2099638758859362353 0.079165115085969683939 -0.24436852135431080812 -0.19504685914382929868 -0.10503766050388482767 0.20271447633827383017 0.0072899569946529478928 0.28626373720796338684 -0.066893935935122064707 -0.34965923490241257454 -0.037433217697085303943 -0.05032580404436854532 0.2860741910510397612 0.24858688877722409649 -0.11292088952017828585 -0.22655813338216879149 0.33587783711154067801 -0.16090840603676831444 0.26140562625926339058 -0.044866252076954458994 0.34314187975357973714 0.138091131153793234 -0.071816382130004824402 0.11583467308007121266 0.13394836666445497642 -0.099970604190446607507 -0.15614664674116596199 -0.2030526052926313052 0.57633520743353727767 0.70541305334556914097 -1.215929633677461208 0.90135053798337305686 -0.016460968144655200446 0.92178346051796911098 -0.29350326532207771102 0.57084523041365231588 -0.21771217874930851033 -0.35331500092883366682 0.3351691995021355841 -0.15064278677489614799 -0.010993675259424641119 0.69557277947650386629 0.15383707355592060595 -0.068118920875207891741 -0.42380120485086897331 -0.13767779595450410635 0.11346851598520915627 -0.41267535748118328032 0.26293938736970967618 0.22046013648294240928 0.26598510894065158228 0.27542301951677905514 -0.48480393282704087321 -0.096146782181231765785 -0.45947696108204727494 -0.21823300874277165584 -0.58166394791926412378 -0.57259129896964644502 -0.25464708814036463025 0.17839220607558894938;0.22186264639095501505 -0.15887502838299930041 0.014665345171678386554 0.014648160156612981611 0.14715583003469709378 0.3035424255241286895 -0.032911839653857244414 -0.10594134313089723087 -0.16931061177327080824 0.025910735890431274564 -0.0064192123284006951875 0.36133444011397791717 0.06425169564511157283 -0.053963698501918400119 -0.15728606475017631317 -0.1982481101657125877 0.27777524739838577172 0.22003297997932461105 0.0030236643264511509598 0.33131730035632939169 -0.1725150320262180681 0.38078316895698893774 0.16195447153173175847 -0.027967700028076025731 0.20056914720107782424 0.2612497606059677735 -0.16236546114335223545 0.14228565761297518044 0.45734527643762601379 0.34496772221359028876 0.21507620934757232245 0.068973343866627637166 -0.21295805593991612437 0.16513244109166866358 -2.0090672093430361755 -0.17851304460996031409 0.19356111676925727427 0.48640625549459426402 -0.034040716727889691606 0.52200750907871229511 -0.06750024134806470455 -0.003086674408974487277 -0.12199216875940471772 -0.27902467121916091353 0.1658806589833327072 0.47618870582089922738 -0.066564627872908302408 -0.081673728621523847271 -0.25992728794662961489 -0.089994180541232093873 -0.10438317805984424769 -0.82127644876440974997 -0.011494196061030980544 0.017162178385221750487 -0.01384450478640327116 0.0059677611748771598743 -0.35736265440666220572 0.16713714451159489283 0.20232926723575012096 0.24839170941174976148 -0.19734945940901785222 -0.17944629238847736863 0.024322967767496862096 0.03954239224511423012;-0.54153368320331218833 0.54253414044718728526 0.18231806389796206824 0.013625003607631771402 0.21691208464229677633 -0.030624511295122738841 -0.18079304339002888469 -0.046368530893415742244 0.17808483666391464184 -0.060376740549084387255 -0.30292317546870922707 0.095893122343190070889 0.071071640425029850019 -0.22943161256481225951 0.26983474023975945189 -0.12248165097057310546 -0.13592327517577831864 -0.39448177121140287626 -0.038010201169328280968 0.0021059168207158683074 0.074694542110992218076 -0.3944265367803938549 0.36414082386265583802 -0.22129446022597626387 0.10570253020535912147 -0.0068022405741024255174 -0.39856491696641188627 -0.011763343939324658743 0.0042002716981989953599 -0.027663341609546015371 -0.016789829363591062678 -0.33460953448888491879 -0.33655273988903233739 1.2657081846539770531 -1.1304678692514682492 1.0608563268219193265 0.54546815587705876904 0.31383764430741267759 0.28346501373077015451 0.82234399292725135489 -0.16536269797988792374 -0.53200120443154264027 -0.035477242661373885324 0.10899780515669518777 -0.21611068048861412083 -0.66350280773940173429 -0.77695755558874135538 -0.048010667218517974475 0.57243858250634771512 -0.43956847543172672399 0.10945707414955863079 -0.34559385380321572256 -0.27402584412655206503 -1.3090323737659010916 0.030091253892174322365 -0.29142935038718409402 0.011950450349989606355 -0.061875221066681737603 -0.46505597291493883105 -0.42472991616528149583 0.34944277803592266318 -0.052789737540050611642 0.485477388544027888 0.15941186383474736932;-0.060211499643575805418 -0.026950606082316339723 -0.23573578217220733655 -0.20646551133911011933 -0.1169713528462751756 -0.21027825568711369653 0.21596973494355536927 -0.46861923228032192901 -0.060172876620869938935 0.17954320154899056083 -0.064701851849304284348 -0.49249502097391834043 0.060208515713752283616 0.018521171985090116585 -0.033585577836132085583 -0.16143403440105258406 -0.029831515016376441291 0.12375468259543015437 0.034174373802279819912 -0.026319838908494049001 0.034869351679805316024 0.31676609661033439114 -0.28419197099875564971 0.030531403994748403802 -0.17395980406391797768 -0.22511818698244215331 -0.11638140508905270298 0.20249025905927961477 -0.33133710837201474364 -0.47789695759649397644 -0.58180460421229773793 0.32310999852225030793 -0.1726023340929729033 -1.7297948864381629264 0.77379718036191214026 0.047973765687218554443 -1.2676725086181714897 -1.0250429909799259054 -0.16797417476735601594 -1.1194253412315713359 -0.040815088013648005705 0.12181361710585551783 0.61690317060792865256 0.51869971144910631544 -0.55651278481281796218 -0.68160621764831341718 -0.67559235880940171626 0.16298764145217004007 -0.03615005162778579112 0.16077119254425967232 0.32134154927671043644 0.49757409226192089724 -0.18938053721296477239 -0.020394979432440663719 -0.039507392591287021633 -0.53092612959447649246 -0.44319301001906780124 0.14463155833746926815 0.38468730227107378328 0.10032889090067619031 0.28670076801467547778 0.3673171216012001139 -0.064843528501877897852 -0.31837845940069603445;-0.37354311933616568542 -0.10924496348052051276 0.32041682995696374459 -0.36864857039653647908 -0.12181013412841183718 -0.078067801752101401158 0.025463759539892150824 -0.028865532839903958184 0.094018367620992124301 0.047957332742998265429 0.06844633125605327495 0.12616414466851758047 -0.042282377711493582262 0.11633855265287765257 0.16398851006284922982 0.13838956482375594503 0.63077252527665039761 -0.22973331555723616737 0.31309497461143109831 -0.05561504328778132944 0.25367725421116293916 0.33253328929336917197 -0.23616039165239219311 -0.0092768357263528535006 0.11726754742853830182 -0.027736078553884668113 -0.10641195010290019352 0.13301189024842924313 0.16604618880520893853 0.19037595853676092528 0.13154933204789293066 0.068009181299205620497 0.74818306942955781214 -0.63129990589952245106 -0.59780771949969679913 0.69963247915823045808 0.083950040643476192548 -0.9048390384643778539 -0.30359015665306121612 -0.20626546430668205034 -0.33534840511650382266 0.76134639952610927427 0.1752330321145783576 -0.46308535190650845781 -0.37553248811357192727 0.10327834277949286823 -0.41289780708249274044 0.018536043266649749467 -0.17644339446547041561 0.27564942296423250445 -0.18924107709659307441 -0.25099914592916244827 -0.13858052511821167263 -0.056022175367848967009 -0.520398506267347849 -0.42826278778446574824 -0.25476226540761098827 0.074511009282164877843 0.20719592069660419664 -0.15115791183131738196 -0.1080627075710631213 0.63349419172230725383 -0.31727126162984120583 -0.12318235976149653765;0.3773850406709062244 0.35524231777699172286 -0.047366563227413144288 0.19463685314505335677 0.12209955568264302395 -0.34797441172088311445 -0.42060570895765470034 0.07244160990323775251 0.12619197051362610051 0.27952588675091810666 0.096594625787854007659 -0.11391978176443705306 0.082293688293247860277 0.44253413470302532806 -0.25523648655647407368 0.10769701957367636136 0.38399386703585980385 0.41132801239499661161 0.40760145172022776983 0.094722304694179235152 0.063209559508347751278 0.16181256001002322642 0.012628012184616423802 0.056262986533704824332 0.02131452811477672904 -0.18464143711232527956 -0.24315311295332786568 0.62502539063275330822 0.1674857117179237298 0.59735276722431973617 -0.096162648725727828403 -0.074786273445228063084 0.13458418928840309992 0.43984494908281274173 -0.34067936374372975727 0.62266769310232306101 -0.38610244710575947202 -0.57363875260868035788 -0.50811788096444643337 0.40674593067186154416 -0.19740343157512660333 0.00629524007130268827 -0.35425253306507664686 0.24812424845906305704 -0.91603373682302458025 -0.40261717826492399164 0.3082324281742392369 -0.099747153263319815464 -0.52954464777955023713 -0.24515151131950060903 0.27275050833896441471 -0.31477843821806500424 -0.36365824619689174346 -0.19863318618210060174 0.032914299619016068599 0.27518332669737621821 0.33450088966341551266 -0.092148501846915586988 0.080768573538915880428 0.32580359064466246632 0.11322679645882011146 -0.02645523506889588955 -0.020354786883469075387 -0.5410985264482844892;0.26224582593492301585 0.074727211339125965139 0.10042846939739517864 0.12312492637740338197 0.011870836309038916914 -0.052496362388899091289 -0.33464690462633583934 0.03373844231007656902 0.16357883368902081944 0.24263654114806998408 -0.28352639118823047548 0.37172923822062281518 0.22530408346373639872 0.1491095777159672231 -0.029345529772977208688 -0.086570786233655619424 -0.010643553011127668273 -0.24882996753395916767 0.14046119565723519385 0.3445180071523467058 -0.50309529754446902228 -0.47908836704808815954 0.0037537969490835385381 -0.43126668412155938492 -0.28185992756724903563 -0.12790267003792027412 -0.25401244082554030879 -0.15532386869879816205 0.22249263239389693858 0.21703590597611846502 0.2540533623600464419 -0.70149001299360780326 1.0190495991835537559 0.28746381711489937816 -0.28732438492195228052 0.74865901281263014244 0.5718468551024336044 0.71338987792904384744 1.1507313720352299047 0.10070885112165413322 -0.044721096748326756576 0.36987535475084393211 -0.25916488981457425078 -0.18136528636433738026 -0.52959442182581428771 1.0049087161888310415 0.8608634368155261285 0.21345695749147564069 0.71062529506434601867 0.40897647620329419249 0.28498391035562031792 -0.044267626607363400049 0.25026705896785073069 -0.2084279309754570042 0.06873603219577700818 -0.20982512206858286441 -0.076264812414473012736 0.0039930672178895409291 -0.095465834668516116879 0.033958764176040157068 0.29609066854724891416 0.18310220949031061344 0.48811952157773447203 -0.13402375419719200766;-0.38760376025045295556 0.050577800227814308232 -0.1992224713061483965 -0.13562629888440236314 -0.017399426966527291316 -0.085931643383270167602 -0.17519402247694659813 0.0020641202623445931152 0.28252291667918016937 -0.14532606938267231267 0.30928135549560425988 -0.27700869323218263451 -0.060259607761253435043 -0.078765588681291409667 0.03863243951943237664 -0.37446281717651552778 -0.41036360306511482365 -0.28874321879672765201 0.016618352895418492254 0.27557899316384681931 -0.38501252544610869988 -0.28819951639827828815 -0.081776438819663094248 -0.20299362628246775397 -0.26588349870102967465 -0.12677648455363865754 -0.030390868996304710309 0.041621055716492182108 0.22992293286620751891 -0.11261060939988939977 0.0094709730121571057693 0.0011512607896110695418 0.036443669211953688691 -0.94912756342132809095 -0.81098651775505925521 0.53729251830601476581 0.55916845198451148313 -0.15446657025451537848 0.36109335878986736912 0.26652266292698306716 0.4028858281742673797 0.6209251932207298097 -0.59160145976491906872 0.13615006466333526292 0.099855808385158964513 -0.39689797355291955849 -1.059927759887165033 -0.10735976434710253757 0.23704662320218425342 -0.020322939480212645624 -0.47484606227134357193 0.27959506545591222837 0.04885977676946090531 -0.42083362387523520765 -0.31492121043723431129 -0.32329411683041481274 0.85221277652147831017 -0.11173981951476009977 0.085092464453130012281 0.47321498529987204851 0.0082700817656522485066 -0.059873575048544735999 -0.098867463336712507749 0.28980353960403221203;-0.088124774125959620674 0.16233514017139891172 -0.10037280374649623638 0.36470152859610605045 0.015471251896132541537 0.16321997174385605156 0.0063968234259441690906 -0.043253752153374479261 -0.11702669366343258772 -0.11233111642948610809 -0.24813484092641713286 -0.0074342266196088940822 0.062409040077633030907 0.17213230879184485134 -0.077824218972501871261 -0.10561982600630681617 0.087339500551289944719 -0.042264444454495161962 0.15029869519702590552 0.052169100903446084805 -0.13754978825573480061 -0.56672467684818605971 0.08626465441725257588 -0.015045404847179876667 -0.1163620611329832244 -0.13553797615834056733 -0.22889196202756381671 -0.37368708712955528428 -0.12219724373982726595 0.019190458184825519988 -0.21934695642345711231 -0.42184270665442741288 -0.3196186524856391431 1.0099108649351484779 -2.9238572921569363494 0.056229749791937663761 -0.08328834902325321643 -0.26669378766902718247 0.53320869409973525865 0.45091128448458683842 0.22679905236727532225 -1.0435176736059104119 0.28154361258943638724 0.10875093261253231114 0.28760173555141571589 0.094877074565154553842 -0.55734138802300492443 0.32448120754969556057 0.25781386932408295598 -0.067853968824157048778 -0.18825634907229196746 -0.29811856883221976577 -0.43726581365810390789 -0.67109538734640317159 0.25188076904423029045 0.13306927230809298401 0.28819731323666725187 0.024050048971670002357 -0.08526228114376988021 -0.14238103565650650495 0.18353376534907389628 0.108023404915271376 0.020062971763893624327 0.18826307138766787408];
  
  % Layer 2
  b2 = [0.134177204777953335;-0.31741417166747493139;0.78269138946195160322;0.93401377938843599402;-0.35848065948569762806;-0.34726994377760822541;0.45996274430599448646;-0.21019725579348033651;-1.0437095469085140298;0.69302237549324896548;-0.37435606151017430943];
  LW2_1 = [-0.37210247931976209168 1.3095720929134193611 -1.7318132124045655384 -1.5232823423089223436 0.92357175620132392346 -0.4108187113005277169 -1.684560133189072717 -1.1953202202031674162 -0.0032517494768746608123 1.1058334533495954854 -0.38825830189138982318 -0.60912754916059552723 -1.0157525285104969104 1.3564131252590876375 0.81574027096456369623 -2.0810093453384772566 -0.95796430601971327423 -1.5500449776781799471 0.88734119173568160033 -1.5679188699956292385 0.26396539935136598132 1.4691515211613628278 1.6228848499324644017 0.92215316339212582974 -0.7368927445333647297 -0.45205869404267245981 -0.79013905333041523082 -1.9989575911721915169 0.61235652045299859836 0.099852001424013750452 1.3108685721226565057 -0.37065303367962243453 -1.9644722559035872056 0.23745659218821210668 0.14627382240973710315 -0.51677627286790217553 1.3996412084765039729 -0.56517399536079293565 0.9713473301624405698 -1.218990237656017328 0.72178965658444960152 -0.30400492548822594108 0.5695118085191195334 0.27190664008269116447 0.86369616352121414415 0.46055708591098087901 -1.1784836869048447294 0.69925940694696775424;-0.70026636749103621238 0.33236355958172303371 0.045791871485968131672 -1.2380772123713645883 -0.11086976170680155895 -0.42470949769871185753 1.2038185840135253724 -1.5743244372460207803 0.9945245684037176126 1.0701800343223788481 0.33420981906987290433 1.1706343340007676623 -0.90361555971736717829 0.72381871920610185711 -1.195465065138768157 0.74084009347819956837 0.52591882612029083877 0.68298791792273405576 0.24793557445268218919 -0.85492945810528409023 -0.80413674752682795521 -0.59634276699695165647 -1.5607887256829793277 -0.58702210146560707127 -0.76806405371770769541 1.2322543460863355502 0.5455258989078128895 0.95043537556292434498 0.62134863844391186039 -0.58606420889313048939 0.42381931636105818484 0.79373760564639039838 1.700441372614380775 1.4284850910495860976 0.62759740431153121509 0.28309387854649137317 -0.25594423444415559388 2.4140242042650430498 -0.1547558674509847132 0.93904687178230816791 0.23116881810538827957 1.4695522056845164993 1.3951356372186061172 0.49731938297753730538 0.6672667625219887988 -0.90311687904923365622 -0.73928984068493841519 1.5291956712881245029;1.1354900511960843712 0.39209959086517143234 0.66322812778047179894 0.80197180496567732622 -0.85675558399107909491 -0.98137419857739149887 1.6562785245123556876 -2.0494096215615265066 -0.0029205414122304125882 0.27878529467761803406 0.40303146443259163512 -0.60510521823630336602 -0.0019852225944155333162 -0.87346708101545522673 0.95589529994891930809 1.0109802504636535847 0.28220210505174969651 1.6132643609309524901 -1.6218019053846077782 -0.26929365937215804516 -0.8979043000494474347 -0.074261034015888155446 -0.91987962409997647839 0.95737396149022346847 -0.30933444861002895587 0.60288050984301899682 0.92543583411216046031 1.2078220000518160582 0.18926134998266314069 -0.089032691877880071329 0.52979678796769180682 0.29861064800660969132 -0.17140980386340051722 0.65995685018967642499 0.13475882228358074255 -0.089446113170777177825 -0.9989288288100234281 -1.3117913410554726816 -1.1063449286149213968 -0.23116204496060924201 -1.7380333619491612485 0.91559089090450607173 -0.01583772579848622547 -0.61438781548940135657 0.31145659190886809675 -1.6152759239300029659 0.0087740585192445947477 -0.97175620853735955595;-1.6381664882401882899 -1.059000607843369357 1.4112324947134877728 0.84400108695765063693 0.14332568350519098166 0.78932967281733834586 1.5851371943948444621 -1.0482220928803049897 0.41636869328583470118 -1.626263138173156042 1.1870105066538987337 0.7228343539330885914 0.88499782562181972256 1.1028987240506222811 -2.0905624109910192487 -0.67003778994175755557 0.030206589441932524265 -0.22169642460423166774 -1.074360404137771674 -0.80742659475858125084 -0.59860594994436477911 -1.6397606739364574135 -0.58027497236262182145 1.8628129560892461303 0.83425370056564929211 -1.6067604393059913281 1.705690760184418675 1.2299256691715896306 0.3679549262629375761 -0.76881195957859205237 0.54495997353769853877 -0.77771569153596320501 -1.9697306594813737135 -0.53702363761266902475 -0.36130511424927524988 -0.52037133408500368947 1.7356307557072212511 0.099614303226619585474 0.45268728910520966702 0.92174838409294979069 0.57014866465452873623 -1.2317203539898382569 0.64891209449768294526 1.1046394693711081292 -0.51926290205591907334 -0.97212679389123635154 -0.05327936852737379797 0.76489954321786046698;-0.62713929255807643326 -0.8009635522182942946 1.0417916343841744364 -0.75697943641317655405 -1.182155965432649225 0.18404084862978462023 -0.96493404915561109547 0.068423805472748941425 -0.23093981151481199343 -1.0280715714492709711 -0.8060239146890498807 -1.1340237594853432856 0.84157012484722659718 -1.0213733596292304817 0.60913850143212477928 0.70095812613465857677 1.4899103383526797195 0.76234839042829938283 0.24334664099108160862 0.46912984445819555512 0.51077047698084687699 -1.2153599952981550825 -0.91517495085581235248 0.94278830057727103231 -0.68442650715652086912 -1.7710727846511731265 -0.9952122292382167279 -0.5268148241237863294 0.28252239523011007938 0.39758298757552840152 -1.2109037143416168103 1.4184821812236221295 0.63391665238354544254 -0.091879194740596761837 -0.21029516387704713654 -0.55709815852742750053 -0.38734801328701601308 0.54522119736166951842 0.84484648146608942731 0.65114232992007237133 -0.52227324535081653956 1.0566147913101813227 0.62041188294342541898 -0.081155994347975338177 -0.024244611871588345881 0.91089636919484351374 0.14400324063435337996 1.1708354348285205937;0.25130194974550812415 1.127334006677063849 1.7611490384647583429 0.0044542746877464112903 -0.21185535843240749232 0.8172785198708151233 -1.166729003355713612 0.14979970530950925678 0.036193211652588437588 0.91592937994870715634 -0.56307429885513360368 1.2427578095021141191 -0.17229685372531944321 0.88742322225768377475 -0.80199626692951442308 -0.2869339913472799819 -0.9996545857485057418 -1.3366195336024755402 0.76081980905524360104 0.47518223285143534884 0.78835683897989217161 -1.2722084543179601468 1.2099628300231757283 -0.30172467857069373842 -0.64389969728623142053 -0.93245696962675550523 -0.753711506236734885 -0.97821908062502715975 0.35419227952567466922 0.9313722401961692654 2.105272746559629482 -0.36602620188817186486 1.3521186199095180935 -0.37370631510362878336 -0.42557370943798256135 0.039917443446973441268 1.2316351302307240179 0.39751589355128591485 -0.6479435703216597231 -0.39639346893306154351 1.048671819446431952 1.0229968129306783453 -1.9984755606863677801 -1.0821767792022709553 -0.89259615451929874563 0.8605590503187842133 0.96784776843371433941 1.0149679725243421213;1.0413942149441262064 -0.24344570097019374577 -1.2858293987756457266 1.2665160282162695182 1.1720815592631448343 0.40401222877249187704 -0.47452631878398937593 1.2142280991909770727 -0.68279234329175553242 -0.36979319221436479648 -1.49750131402262876 -0.57866565892423704742 -1.2657881817206344532 1.074918838805611454 0.0618908732748193538 -0.46158411178029701283 -0.16154860515793925679 -1.8678777074199164332 1.6183392057382706142 1.0414588875316526106 -0.9457011636268453092 -0.69798804743772158155 0.78127840650414137613 0.50035476125131683744 0.73906072766672481489 2.1274698511155256675 -0.47333838176521775276 0.77074893992521331665 0.90398881196342040223 0.17183016596043154678 -0.20587833220505741272 -0.12498869790587772977 0.704224788986125394 -0.34475533747670883411 -0.21492513418064707054 -1.9006412816456748072 -0.87514349327044538285 -0.6613631866985125729 0.71919998439517807132 -0.21311938417442904958 -1.1749634516671443318 -1.9132275018100743935 1.1485415725128973463 -1.2439436975625928206 -1.166649536463115755 -0.8416687357326340102 -1.2296942248620779115 -2.267580038600472303;-1.4850837178208742273 -0.59031546221170660971 -1.0543290148587738386 1.2768450710334686704 -0.6829962281740178387 -0.89465344510692690339 0.67480665874179734942 1.643751744070147458 0.85957698894761158659 -0.67471724285031009494 2.1114695172916193577 0.34743243729455586255 0.26618827609285300451 1.3297034932195648249 1.1760588797128350702 -0.77116082972450405997 0.028211115916099083895 1.6102309496940634403 -0.23876603467640167278 -0.93835285628206666075 -0.10978227989435569711 0.1643275238136144567 -0.20665996031611993944 -1.4656636292461986404 -0.79495050581007442592 1.1888738062221073655 0.98295751930416230824 1.0395761700564765118 0.6253030833374317865 -1.0217506723017393266 -0.0074964864778074222218 -1.187815778592140159 1.1080469966705461804 -0.42220772494343905556 -0.15082703694625884672 -1.4549873485516042759 -1.0589757825840715455 -0.36708598670850500767 0.62876863383887660053 1.7386053155369556311 1.3216359599093379096 1.7901104065608437477 -1.9339863391566309847 -0.031632894653570178822 0.75075481319801129487 0.69392139205951841596 0.96421708268757966298 0.97789650587189402842;0.36383363985290401166 -0.47931061306348754503 -0.079781309613090711785 1.0088146443890295689 -0.84045379646041906696 0.47342127976782527599 -0.005079510669921735895 -0.6437312361212510492 -0.36938590796166964614 -1.0296612279550936275 -2.5075458622627739835 0.44938211251605253427 0.974295884853159877 -2.2068811718008509715 0.80123268372433709139 0.32331271591371879559 -1.2005482235142517222 1.1643918900266621019 0.22289628418821130773 -0.88945820479712500717 0.51035708340940832972 0.86167641126878513624 -0.40841838487401599389 -0.8728068637959029985 -0.045432651336178526968 -0.48277011717268214497 0.31977671250576705786 -0.95215998687582703575 1.0234492476542953465 -0.90098463210494139641 0.37484864578641235999 -1.6971725661499246218 -0.60965374531554439308 -0.46165103379628713576 -0.87852648382137410454 -0.60850005673301754694 -1.640385634140828941 -1.2775450667679641992 -0.89586764911694916069 -0.58302219433043045438 -1.2700215991567831431 0.14078666132597822402 1.5191044926054944053 1.5553722759416530597 -0.88286592049429002405 1.5273638169611496451 1.4846690123117312066 -1.4873215877283270103;-0.52347306267166238136 1.2844949019797464729 -0.046368580336483014581 -0.095119366193366292062 -0.65378185214543804715 0.99869889352310192709 1.4991636285865035383 1.3494078105158084924 0.84057825599829538721 -0.66565682738562448328 -1.5405858228803968046 0.87353128844851446466 0.081077112314207472332 0.54565220097455258141 0.73816361346220227269 0.14231705448899392707 0.69167579934455580837 -2.1860195861929296868 -2.1322312690414344516 1.0130506678530588616 -0.91942927587530154376 -0.65095915208615273695 0.40662291252660676122 -0.95792657705773842647 0.57823034072041057385 -1.5885769353036660601 -0.79412184910399385984 1.5340663377409751167 0.7731122431543463458 0.086559064271264599122 -0.67535596003670261833 0.61015086559566478197 0.8513444759055281974 -0.80478475453426090436 0.65140436182672578624 0.84144050429190042628 -0.3790396425285812998 -0.97847940494180285498 0.26139881903032852195 1.3930694463919939263 0.28787612938858242462 -0.69763958708260132013 -1.6465733840055933879 0.79535827890511190397 0.32205637284825205935 2.0256262466911354458 -1.3904763906004899976 -0.65036232064675092435;0.66413135037009052297 0.68509188780089069759 -0.43947541769574427484 -1.2631906700516053466 -0.79370329673614958832 -0.34953852381296590668 -1.6600744149401895911 0.55915382704633109778 0.69670073295655265966 -0.5862061724449539879 0.59805877304808219286 -0.23775751907429634735 0.32020762408910158348 -0.39745549661988721635 1.5004597171860003524 0.57882089638826761391 0.7343801385822027461 1.8935251385193765383 1.7782818268413973506 1.3704280870935408032 -0.1152702781661269632 0.90910391832343329099 1.2118540149549958951 -1.3295397065023091265 0.47392528850848403277 0.68553375149998541094 -0.32886492172973691428 1.4978755256409352903 -0.31508865755641074502 -0.42734021957571627359 1.4387904465059428993 1.009488496874301422 -1.686878040409340862 -0.15423770349406998315 -0.61645625594223063537 2.1377520001596188592 -0.88121837075781850324 -0.66447168329821826305 0.23553804225844665599 -0.57043885394260318566 0.10555435170593345517 -1.2343174373149952139 0.735912913765335297 0.79235254248826192391 0.99965676268748804301 -1.1049613953561805424 1.077115519470362992 -1.7740968079901995313];
  
  % ===== SIMULATION ========
  
  % Dimensions
  Q = size(x1,2); % samples
  
  % Input 1
  xp1 = mapminmax_apply(x1,x1_step1_gain,x1_step1_xoffset,x1_step1_ymin);
  
  % Layer 1
  a1 = tansig_apply(repmat(b1,1,Q) + IW1_1*xp1);
  
  % Layer 2
  a2 = softmax_apply(repmat(b2,1,Q) + LW2_1*a1);
  
  % Output 1
  y1 = a2;
end

% ===== MODULE FUNCTIONS ========

% Map Minimum and Maximum Input Processing Function
function y = mapminmax_apply(x,settings_gain,settings_xoffset,settings_ymin)
  y = bsxfun(@minus,x,settings_xoffset);
  y = bsxfun(@times,y,settings_gain);
  y = bsxfun(@plus,y,settings_ymin);
end

% Competitive Soft Transfer Function
function a = softmax_apply(n)
  nmax = max(n,[],1);
  n = bsxfun(@minus,n,nmax);
  numer = exp(n);
  denom = sum(numer,1); 
  denom(denom == 0) = 1;
  a = bsxfun(@rdivide,numer,denom);
end

% Sigmoid Symmetric Transfer Function
function a = tansig_apply(n)
  a = 2 ./ (1 + exp(-2*n)) - 1;
end
