function [y1] = myNeuralNetworkFunction_sai_color_2(x1)
%MYNEURALNETWORKFUNCTION neural network simulation function.
%
% Generated by Neural Network Toolbox function genFunction, 24-Nov-2015 01:19:44.
% 
% [y1] = myNeuralNetworkFunction(x1) takes these arguments:
%   x = 64xQ matrix, input #1
% and returns:
%   y = 11xQ matrix, output #1
% where Q is the number of samples.

%#ok<*RPMT0>

  % ===== NEURAL NETWORK CONSTANTS =====
  
  % Input 1
  x1_step1_xoffset = [9.83272654116128e-06;2.55621218795009e-05;4.3309659142604e-05;4.05709584849886e-05;5.63163177176424e-06;1.2450823732265e-05;1.31189084133076e-05;2.40495398310045e-05;2.97239906635758e-05;2.7658487248948e-05;3.74510302766536e-05;2.45963894928191e-05;2.9017417562404e-05;1.9088027049233e-05;2.1478839032696e-05;8.70193170808251e-06;6.1612434593233e-06;1.11217019711591e-05;4.26716820490533e-05;1.13440813093538e-05;3.63776407689012e-05;1.7747038343534e-05;2.68309943154783e-05;3.98279632239607e-05;1.60841035081333e-05;2.78857145317716e-05;7.16222204132565e-06;3.59643131508689e-05;8.04982154701494e-06;1.67570472794596e-05;1.43789183557243e-05;4.69032881047239e-07;0.00442215936172826;0.00234930514124845;0.00377060648168395;0.00520802862577765;0.00392444156650946;0.00133357443898647;0.000554182339743798;0.000458377534121345;0.000636557327939047;0.000727594460333372;0.000151553212851822;0.000230556140182706;0.000175118747760167;0.00021221478484283;7.0104950191602e-05;0.000125223232661395;0.000144715128013976;8.51496079428836e-05;0.000145541400539643;3.7767074282475e-05;8.11363090835989e-05;8.67024847521331e-06;5.9830274689168e-05;6.48378027685565e-05;3.0811317903128e-05;2.6346533306329e-05;5.25068726210247e-05;7.6664600708483e-05;2.16518453929826e-05;2.38486309856211e-05;3.70018530362632e-05;7.70891889620869e-05];
  x1_step1_gain = [272.185550950247;210.528808465616;261.631417717682;459.326722526025;410.04315079162;352.555260391418;420.075646785194;528.930719480788;449.121359341936;534.972125369294;652.946583127401;758.464644858337;543.462454535176;704.831484971613;634.460453423894;515.731616632975;600.099299136512;517.888948954856;654.424749701076;662.451280769916;803.967738904966;626.42241841245;692.270292036412;694.795424659785;734.299138935532;850.03074378335;822.963425079373;1048.19830323819;1190.68358803497;648.433188546604;1022.09542429827;1004.7958050571;12.8071205230368;6.93002382118073;8.37004826039565;11.5307702270138;14.1639206147758;11.4552869715729;15.6810912834679;13.0609843038943;25.7507045365744;19.0085524207155;24.2952535647401;29.4303476079643;24.0496334853961;50.8341527415086;64.3450010280079;79.8837876193355;82.4766601464408;117.232669392696;136.903356698242;92.3665489118597;197.885515818851;104.585949420557;92.666542443412;94.642099568047;176.308561087602;188.839651771434;181.327461634437;287.694375078271;171.982775716226;389.127944166497;253.781252637566;341.611073220751];
  x1_step1_ymin = -1;
  
  % Layer 1
  b1 = [1.605140969049513755;1.39036206135471474;-1.4925808837998015832;1.2187313512851003505;1.4442125081712318124;-1.2586440280132158431;0.98526798141122173824;-0.87697645402715851404;0.64991031217525008223;-1.1656867107649089288;0.8815286992218465123;0.36077346205558430414;0.79655734369500263981;-0.5590813576051589795;-0.60886052480582930624;-0.83682730800562343809;0.47795234319575780058;0.0043870568404868401369;0.24984100329420094733;0.32179271818153282192;-0.25068548823234060308;-0.16102419651431584824;-0.016675994674715206856;0.086840544015604467787;-0.14422484429639417791;-0.23142499277526873414;0.42332686119095780386;-0.101889669938147992;0.20017605900424265131;-0.10547211842343559574;0.39198233274396265813;0.32634848757851492307;0.58491458852362376852;-0.54241708191878545975;-0.8676269853680086408;0.7987985192670973289;-0.94283999530985329596;0.95260541634864148719;0.81384802653434695774;-0.96915158601577000574;-1.1265417436758637937;-1.2657954231355432739;1.2520775151821414983;1.3490183357937688413;-1.2715601580961084505;1.5047780801084975622;-1.3682425919328708996;1.098093169731376717];
  IW1_1 = [0.0053103251773332447311 0.22388414104705814389 0.10043585655252840194 -0.17449098664997669816 0.16678754778427140604 -0.078454404813495165483 0.28098620458451722959 0.2224901018199180458 -0.092963228305133149831 -0.038701060818062391067 -0.23059631805224647949 -0.068918656814070167194 0.12996030255131479914 -0.089264136798628809788 -0.18600205637099953559 0.07605105429884936874 0.10027629470983608073 0.19281816985753102989 0.11538602187470527183 -0.23996219383662453772 0.074022940855686530925 0.12383236737903963176 0.36157731433444556535 -0.12782753600887117318 0.17288133907443581361 -0.38758041015669597584 -0.34896309192302260582 0.14112761445577814978 0.1702404644039023085 -0.2567202266097427521 -0.17609037169943156376 0.27231465798840148729 0.072293713723145844319 0.04419523347971052174 -0.097674544706341043243 0.18605847353652643639 -0.16963877421558515302 0.0017985259227877659419 0.38384150871455824383 0.0099165760932893743523 -0.062527792649147803661 0.021700178981047126003 0.054539995508728240925 -0.13426215202043800812 0.064798491333670535375 0.21219177039277478669 0.28895678306415500947 0.03673525765583021685 0.050957315749362595836 0.24718759182054853007 0.19147747584449043012 -0.54501319687110238998 0.29314550990085580517 -0.011779022429342738548 0.098714948366454821627 -0.22766729086866804854 -0.30918467806840949086 0.31336163104342396046 0.184823671777009646 0.095513601972183809208 -0.17373377580450827251 0.16766468482754182112 0.11301052743784717469 -0.086013045174042276897;-0.13390560134636356193 0.28506134026147755822 0.11852561304607715786 -0.12627605199105759737 -0.1394140285007936797 0.2401016716981232979 0.12731805725116190908 -0.17662439856073072764 -0.20412136957006712934 -0.13527994123422176775 0.069124806001688410273 -0.28278624150121872693 0.17570813648405977925 -0.28996134552913338522 0.27541660625351327418 0.16895448641050636596 -0.32495272992616675012 0.026843623096369832737 -0.35169421206518380885 -0.042296154466610801081 -0.21131467795421746136 -0.30738010055265513332 -0.12385160417678096889 0.19085849567428311846 -0.19318809775892359371 -0.3316611869884751318 -0.025455163463135133811 -0.058752697952503589451 0.2657392517086176742 0.051197870416408483574 0.0022311068771952418527 -0.25600136490810154744 -0.1324239138019263351 -0.031409969616713086238 0.1677272260733974063 -0.1543857478429226382 -0.12595498519848666308 -0.035204413502378982537 -0.22643491904845150509 0.27591970063636500621 -0.20116182620057423969 0.23579817660516338984 0.062151796982987811413 0.30383047534581819615 -0.031557344187451347173 0.058659499193836929509 0.11108556034919771227 -0.24145630038852411436 0.11282908336444301411 -0.12172325932924897562 -0.077216830351162543677 0.2130079054212535572 0.021820583272567507793 0.2132509814151466454 0.097934872869033226528 -0.28036890343353715327 -0.19758111261360750133 -0.099133783264566510685 0.29848595170048425329 -0.25459616311636290575 0.10472849999838843016 0.067694882893775093491 0.34806963563507303805 -0.16961775562256678485;0.23695831214006837784 0.21247259644224533726 0.19727268555716465093 0.27444557959365473154 0.1109008659214133774 0.055265659298306631098 -0.10340566648476964828 -0.062380041376572561984 -0.24623469058986524605 0.015741262185181285893 -0.028213263506763938682 0.21721701944702673237 -0.23636522400098128327 0.051000419396687493578 -0.030159562327518044805 0.18009027887778403243 -0.084197365908033464099 0.36071365763819629446 0.25320544799244482093 0.080952484799669405247 0.15305478346579493021 0.011157600441312065173 -0.19169155080564656557 0.13253541257843121093 -0.22390470701928830155 0.21593824465735522722 -0.12004963226064112314 -0.1124587246389492784 -0.14328194194593368849 -0.27252633414489696451 0.1799420406802840211 -0.15830402188296868737 0.22084941628116061541 0.20834718390339010408 -0.10198670639653395487 -0.1121363542503727162 -0.13081267624280290551 0.18242929707844920961 0.12610285537030027636 -0.13253777182933429435 -0.13267060925031687324 0.38927532678759013685 -0.12616872174971716092 -0.17551074999877258609 0.32785406163910024713 0.20751919004857757867 0.28135442300657503845 0.20622522315309771423 0.044288211074669944778 -0.031251487387023442477 -0.14110703620875733599 -0.089422570942544965522 0.042074344269812775921 -0.12963293856469870757 0.14522562883038919734 0.24523699657962796938 0.13669325396198439559 0.30206573650214008087 -0.055315821100319691184 -0.19894933146891935483 0.27863018623333885015 0.25822874355236596911 0.11020294708354522184 -0.25436071582289604409;-0.031300468453515084555 0.25551137750221103451 -0.11190912625663640423 -0.31801466200770373005 0.012527895137656780769 0.014817630751382582927 0.073679171821522185248 0.32573363569414237606 -0.25003441302584983319 -0.26667275996922401582 -0.062329165984265279266 0.088165579570208346682 0.32888140119900666214 -0.13817253618249827896 -0.15061071934646613757 0.22360446352986845797 -0.29663561884387468215 0.17990685150384486124 0.095222964469038898216 -0.15768006411904209041 -0.17893065980825981209 0.071964419721543090858 -0.25726719908719503094 -0.13509073879425842479 -0.27937400409108004151 -0.20550504705320271626 0.23078818903470382784 0.25285935599515590999 -0.14741958646580316517 -0.15839941165410925672 0.2613833220186819184 0.30622647734940788844 -0.3937933802707312414 0.065367958372531745348 0.011045305662710121208 -0.162685667831933084 0.030791797707661761746 -0.085058617484213880355 -0.40571568537931573806 -0.32753339495752831212 0.04807697747245030101 0.064118706219133181357 -0.21531562281974858664 -0.13366922310487586167 0.1925295632883846364 -0.24754742772262544603 0.23536721522212963875 0.32118550583323868253 -0.061417270553808682443 -0.077755869264018881437 -0.13723789381917647634 0.02225709297864410588 -0.043690794440237296081 0.046041379026385435835 -0.25992975489225161878 -0.19149433729664472326 -0.07653561251937232579 0.022852866789207851306 0.3592830622812701602 -0.020012015685614094329 0.22384483373931643446 -0.046041894491838722403 -0.10162675216570975223 0.18161567558790370214;-0.25758548401796182992 -0.18013800855272266155 -0.021938338608286526987 0.070530062606118062996 0.20377181457752807647 -0.060601756014558326446 -0.19419859680899606569 0.10907633692345994336 0.32546487201287921387 -0.281469373932568101 -0.18927782963975950392 -0.12865290578374305452 -0.15644625457985975037 -0.26045386897267913673 -0.32148209539385869116 -0.36641117196521627575 0.047730636686907093602 -0.26953601374953961578 0.40989948767259432039 0.30367060871023571211 0.13318727703541158314 -0.41757219951279112014 -0.1248229843265205169 -0.52046076843228616937 -0.176853998939543261 -0.43464181350903619006 -0.10644959641712292697 0.13630256053745484768 -0.14932302107564551785 -0.19993117359239162556 -0.26442056208970499132 0.21059601982261297315 0.61957080133828978941 -0.36140072348327934026 0.38341544896504881068 -0.17355336122950268396 1.5151601169857291662 -0.023164072925504382294 0.76928745251039987174 -0.049276083722388036579 0.28208802958030437802 -0.28048282143356439988 -0.36413739613983575616 0.41960005682012174733 0.37899900796450253226 0.6319828175689901073 0.041942987002101750349 0.38007615983263548509 -0.095042419205358316669 -0.21840120491875403275 0.027044477540395045478 0.21586577086080876997 0.61375419121783314491 0.25656844567556946757 -0.26737427363002291836 0.19423177938495020389 0.49185521538534909824 0.29552990663805395188 0.19556135281481229482 0.070621891414425541633 0.28013156418776269385 -0.0078990658434244694075 0.050449800863221240521 0.17346572212839145299;0.1177316018213567933 0.19333007947763888867 0.24213115436756066368 0.058648053620393027219 0.10946768551379280898 0.024864924264945589827 0.0067027311656237941601 0.1036169458557772427 -0.21241641004678821214 0.085928336727243107007 0.23200917285413247271 0.18256381534735646732 -0.34690549939599951701 -0.26324664649557305562 -0.55521687038823364091 -0.049577075129329004066 -0.074943822357550107793 -0.0084544704184799680802 -0.12176804017766655608 -0.16435470615482977719 -0.28699412529536350025 -0.23541776859488036666 -0.12207621706595248035 0.1209247051672181078 -0.19730015814442897204 -0.33779606237365528143 -0.075417863589189670925 -0.22398526731484744157 -0.42469939072719359308 -0.1813422716706581117 0.21426600436357373658 -0.0056300634025821683776 0.048802045031761255578 -0.064369969032423007826 0.14645654312855255208 -0.018497164612101504866 0.66087834420434365956 -0.19351388067252212055 -0.14955945183734439818 0.45614499615119913356 -0.26541110109627402691 0.29331281810220261042 0.32700403392291016447 0.37281516897989375181 0.14093470344631717217 -0.18510159387001748343 -0.45152150578830396732 -0.70173730476512630183 -0.64328389503416516515 -0.11786796155375858786 0.0049797306980356292189 -0.26894859916501595576 -0.022216485411578081738 0.26345916680551012545 -0.050379334903778806576 0.47684726439041019708 0.046188825688485576904 0.33257234594219731161 -0.013212858031553083998 -0.097155974930765109931 -0.073652473690811931517 -0.048515905539807724356 -0.24749016165060330752 -0.12095455058711923613;-0.33834186222459600168 -0.12787813498630964948 -0.11055974054282570462 0.11028394899740288915 0.082868404673516679604 0.029281231926804891091 0.34326565100733091862 -0.16482838841550603859 0.3856825316851718588 -0.33297725121761062583 0.0030543058798625137909 -0.064624473104040416893 0.34327070883817895064 -0.38183149798035703748 -0.38085477834151432175 0.059937219078970344066 -0.038922539576164011388 0.28302459702576965306 0.043672074203766696188 0.0091218853065685445713 -0.094739215657132461179 0.041398180528993806793 0.023609125746734731244 -0.080921449678583584619 -0.34685353382574807268 -0.068350116068928518098 -0.41805542275853196932 -0.34442349868091881593 -0.17948085639518795986 0.22521355931961661856 0.16378376465756847025 0.31196447898061324677 0.020833154310474874538 -0.65862383093872867157 0.71689072087525906873 -0.34782127468168222428 -0.11981883668184123426 -0.094658826160197953592 -0.083657106686369719917 -0.14366824455171922637 0.17732938921361079965 0.12194992320915939987 0.25220201513587192643 0.037950607621355936239 0.22521090735494239676 0.25163267590896082337 0.089963119885454911895 0.2721892775698173117 0.039215998711829874734 0.33220598603739942556 0.34315918206134865542 0.29987189197115782235 0.10925068201982413019 0.13320885707818733157 -0.17597137294260575824 0.22771326661137394898 0.23423041212552142554 0.36978460982026023496 0.21722889437095049825 -0.010082949796435411449 -0.20202029427365872372 -0.090733416899579755199 -0.33268669049041404984 -0.18708045332046424614;-0.077545975606784708911 -0.43984544155744620397 -0.2224579715279110248 0.2182525323855063204 0.32422368873322965355 0.14408213274465597742 -0.20744268799213036458 0.06983730416035710542 0.32307706030801314201 0.035571370847609265486 -0.11986111254269936344 0.44667757588860834694 0.1768328545884967351 -0.084414831430541709123 -0.29408971575824555122 -0.10332870551866622788 0.1925354291600990253 0.022243519261652022756 -0.066044490904588970537 -0.29452808764571131173 -0.12905472993833369544 -0.28079702355255403701 -0.00019899780365009332381 -0.15062914744637298514 -0.089960272181413530879 0.093348871386795470584 0.16068303787535251348 0.30519775540450100326 0.12482848836659229952 -0.026291261156003914445 0.33790893813089095676 0.19162066704197325273 -0.0052033192112112495314 -0.33094000982738486227 -0.20661525374630118623 0.24814039654525496537 0.23392765045382499234 0.065131478917342194856 0.29629601706969305175 -0.33564883658574418135 -0.35738295613793014116 -0.13994843814826385398 -0.10017393676703265082 -0.19944455769538343981 -0.033401444653024782439 0.23664704982822237778 -0.31466799859641814141 0.14986915295495117917 0.085688458086034244299 0.38041247082306017813 -0.18542693506653179503 0.14534103362546191285 0.022047786384847268409 -0.038871764672038115751 0.14128721943114258552 0.097300977199385643712 0.18554863454235698272 -0.1212900331541007376 -0.080503683827430033704 0.317402258761134759 -0.0032259838539156100723 -0.029732694758716503303 -0.27836400158120211401 0.031991168897541950866;0.090090813968428412606 -0.057725250384617621258 0.10281923373938189892 -0.35077262408664849902 -0.1821635779084962159 0.095731840579329402496 -0.16001734268202671974 -0.37179547131768747592 -0.5763548223271756088 -0.36290385999665009109 -0.24575833994710244435 -0.18295022794577708858 0.1533908890955829607 0.12183869416765064075 0.0056199625573543814452 0.058515057583647021866 -0.15036336005058703602 0.47633335991056463543 0.062724546238794767761 0.081052782028382050483 0.33447052464185145215 -0.22854036728721230376 0.3262011430421195568 -0.044712898328577929674 -0.34952660974785232373 0.10975437311139529806 -0.26322029196020080288 -0.25137912993416605678 -0.34978159222283156105 0.15982584118876067003 -0.11326162215027055225 0.14807960999273570013 0.39054792583012837293 -1.4477111861822586913 0.58243385586314666558 0.07997290903966534914 -0.55256560433218260275 -0.49913441939202457531 -0.025834253944570940292 0.51359449820218949778 -0.071352094909498481323 0.4514907958500830043 0.27055215918597397273 0.13412662681413092813 -0.077805980060249552155 -0.63332246662502522661 -0.45194198710719069023 0.2897031609513446293 0.10932218757676040455 0.73262355837604720143 0.70810888633281943161 -0.051004512322609156516 0.17801991592868970926 0.25765312100014181595 -0.074682489666595616717 0.53920690931518233668 0.031527278963794695688 0.25583844287426382724 0.004397698731695474407 -0.18549664551001490698 0.1153460108922581967 -0.6674700190403957123 -0.37136812093703286397 0.54165946193180736223;0.59324236475423619552 0.16656889023023918606 -0.080405294977577271287 -0.17193207403138380251 0.35286572217751149827 0.0016742508218366199818 0.13235611724173698689 0.21453753289204000043 -0.41794650837006785959 -0.41701407724457745241 -0.26536098211384590018 -0.076616828924167337811 -0.24673033928800153225 0.36473176144370517138 -0.44426159464901943119 -0.044457427403630463136 -0.15106505207304429805 0.10149394991865426374 -0.28437529478709144826 -0.27236869730901380748 -0.12116567593234525702 -0.11837222739359105905 0.0035374656592801092918 0.11036392740329141471 -0.10650013239004610388 0.39657878370186527839 0.024410686020740278435 -0.34127497608184687028 -0.17709064934833773641 0.013736629455748746234 -0.026673490461508249372 0.11848782902713786425 0.29391628261135321898 0.74800796699189631145 0.46739635102084492457 -1.1919870991467735877 0.33097779457833353955 0.45150247396277404244 -0.34799184988838866017 -0.45759382703637518919 -0.16544250909188840115 0.15541980010089359587 -0.38376139837263956167 0.014182211606384942382 0.11221512433808357445 -0.25764798195288612925 0.0084416265974336362338 -0.25999894703711451394 -0.14808092406645009809 0.51058325535475646006 0.29842488528146088322 -0.17074915058422404646 -0.080516854934263151766 0.23128038862237310092 -0.19003612806375697053 -0.12885886193126255828 0.013198811924492636488 -0.2413148255817318677 0.099485989901881774489 0.0015166713471737381432 -0.24940997296258024529 0.21822450948297944517 0.61279070960378301258 0.41522630921499903423;-0.22596037241936284268 0.15034584763141778385 -0.16616093294739128772 -0.19442156946021210695 0.17737340139400503691 0.37259762130383550227 0.11104192477613443468 -0.17315741554323188511 0.25796898141013119288 -0.3215846291870667617 0.092262325832199426623 -0.15338450322893079636 0.16203873957140124684 -0.078899745297452653081 0.29550467000549424101 0.17405170155893964767 0.021549396460434716571 0.020350468579592478208 -0.13920214208033918069 -0.019022544727541355891 -0.37524847577362546724 -0.38207315016953691256 0.12858842135383063976 -0.11072907695790880356 -0.031599781386972898567 -0.093332219093066687288 -0.13274889983904153423 -0.29031221909033672057 -0.18723159905767061684 -0.19190659158506803705 -0.20424295126727567973 0.078906464292951047912 0.46732836544630329545 -0.12542799957561151514 -0.29118366530080014298 -0.35806573488191850707 -0.019343732337344127226 0.14808970785459565911 0.041866009218384188373 0.042011744101136783147 -0.11469330555262775839 -0.21173366089326567385 0.12158131182613531041 0.25640903790341129653 -0.018091917466229900935 -0.12859807164621603337 0.078433780109466222363 -0.059006747642157658662 0.11115095845985487055 -0.058911955166368872028 -0.21649738348728952975 0.34412428144156664844 0.059051158574337334062 0.029385125334678994374 -0.056352895189614088389 -0.099015350010069155817 -0.1453360602174015026 0.15136240219774146909 -0.014464461761773057466 -0.14049524333259308384 -0.055429756323976772658 0.061942109212701358667 -0.1544123883112944462 -0.28631861609737957464;-0.29029175960145142676 0.02684108578130444539 -0.13778628403627612986 0.17979872221201129157 0.39113518375813366434 0.4452965802967721598 -0.16129498566896449674 -0.12214172477919074677 -0.022434725515783154881 0.2846449097659921601 0.31300431878353468518 0.17416088888530389944 -0.26393877140619587118 0.15807510522097653616 0.15657891147881611293 0.42260519632646664778 -0.12535606590731457333 0.55040829354218534508 0.12065236599840666043 -0.094098278755928493888 0.27023365564325202426 0.40057402742313918953 -0.22190684920124686963 -0.05085813158397228112 0.019302371816827527951 0.1556128092823342024 0.70660952549690569935 0.022790933555246025571 -0.14374795409706897509 0.29956680525433471152 -0.19705727663170588548 -0.088671271634135753748 -0.059823348658756284046 0.79688724386755249718 -0.62111422174217123526 1.2734790465349679067 -1.2788904378091003888 -0.42431121281602812711 -0.45214830719500220813 -0.11747810090649954406 -0.69320505878488802853 0.50599573860986590823 -0.46618965323316302607 -0.053429268096716824032 -0.15169666573359491535 -0.45321044258546544503 -0.051976782612775010439 -0.085444538245302306678 -0.14942413230071383001 0.73250248076138890774 -0.057971131687246574282 0.099940758442758376168 -0.40936200761735219711 0.22135794235916908534 0.21513352845952235515 0.41591245293705653152 -0.2191760010262913394 0.23475616378693614505 0.29394820433779239588 -0.013306825583460003826 -0.16110925670971176782 -0.048224642617548330037 -0.25309892067691341921 -0.55418390459406452475;-0.065897110904672179243 -0.15347858314400181223 0.090308248726901324543 0.036070337383412615084 -0.2052765579814045116 -0.32557855593334916744 -0.02873251673426511707 -0.13384014842150707136 -0.14281264169756821558 -0.2258627419804635772 0.14473647720755555834 0.30748321011926327273 0.061782176423973503288 -0.13505081743230948343 -0.10154001103926603433 0.22344038154502299243 0.059618619067952717538 -0.29216993772501276272 -0.094438992568240037739 -0.17668781985154324854 -0.33180771857328816843 0.047075728130236547953 0.24452144033078504481 -0.10090938168348662085 -0.3212706301036820089 -0.16390571653729754664 -0.15028147827730442554 -0.17285042358641386495 0.26048484480913985939 -0.14144119056083151453 -0.28705155992936887133 0.19232040459918184339 -0.31510848208920078095 -0.31019979136591946389 0.050661981941611540503 0.29003075871181255296 -0.0041760223769949566738 0.10518251808424954052 0.032735148469022840034 0.20577958977878510471 -0.17241202396345589598 -0.046627443570499846337 0.054418607319569052561 -0.26793454957918927395 0.11202112101311141601 -0.23324521770921957664 -0.15864113701669757539 -0.019169401656091451108 -0.064771123495361487832 -0.19336923373109851654 0.17136715228723733984 -0.12492222458649566985 -0.0027405427284230682826 -0.11950933962178440784 -0.31659810010014033388 0.26362712813917188459 -0.33364366574508697028 -0.11857442767469875133 -0.21073308115746039459 0.16611137134739056842 0.06968035850439373291 0.0065219493970084339157 -0.23965606929942009917 -0.15003208791184105553;0.16821424533792922462 -0.0064873998224979408794 -0.3251881402525607645 0.12325562598258477109 0.071142112967789217226 -0.088427124645437310546 0.31229082626556659008 0.084139646739972373535 -0.14484326335142891362 -0.048147138016543140904 -0.12998417578581084042 0.14573049513229985319 -0.040796186367004133588 0.020551147922675636059 -0.089047563650093336518 0.2705365971906590894 -0.5563414449256167682 -0.25664877089620768968 -0.0064128111141966079312 -0.11485576122228224882 0.15932283705797531392 0.16348921737440913482 0.19018931747451367498 -0.1292151555896788595 0.090183543722878775628 -0.1458641486486201011 0.19936373367421023062 0.015853486891485146087 -0.21328482965358233625 -0.02352011619013786789 -0.36145550716852725692 -0.086845215097265893167 -0.62222413110546270776 1.0324110210656720632 -0.76210518904802404538 1.2685963815950289657 -0.0018031939969683739855 -0.46213386865689820571 -0.076794596831052636121 0.34247761173033630655 0.10113802677456906753 -0.070377624599576263376 0.57386540775284944349 -0.30624004998213133488 -0.24584571458898302199 -0.65591642444873521356 -0.11227839713501790164 -0.2366786735140261333 0.043506951457888479173 -0.10089159273681780338 0.23445790458011775415 -0.8349133621526834137 -0.17864304847459250292 0.34021858357169215692 0.20655556370789085463 0.47585127306034608052 0.23122024328087797951 0.56936475549767318061 -0.013479905864194570431 -0.86717897822217826498 0.18624325186003184984 -0.16496332755591491814 0.23569538727799868583 0.065337070611909395246;0.25488318897576683897 0.26287057881353070865 0.22722469598119179879 -0.11744194113917232059 0.21126815809621604658 -0.36803086851601579665 -0.25492601823288552065 -0.54805472634791752018 -0.42547966851014129563 -0.11851947874173579534 -0.036641804194375737769 -0.34556011218229404358 -0.27234064929396678556 0.0664624695342627414 -0.040519247801685878696 0.29741249757541010634 -0.028979119950788070903 -0.11058495958572397977 -0.12792667192753920391 -0.23843912400588096467 -0.13808666022439841647 0.055026442787305798743 0.060426906300121596693 0.2170855664136369656 0.19667252020753883679 -0.21920597161851135271 0.28022307745280394808 -0.37092116658670931661 0.077180852762138568712 -0.15566212660824699232 0.064200997938397952325 -0.43059507012550796157 0.71154471971360144789 -0.68905274209366307314 -1.1666511440414562006 0.76661305191283590776 -0.64881827888260867887 -0.29759667973421866094 -0.14149712872859815382 0.29636302350261922722 -0.14631197257417927204 0.068780030752666504457 0.5966926032707938754 0.025793471113325312782 -0.1036178102118105876 -0.87514861654401265856 0.056820539005840747793 -0.047796832654134133178 0.54935981784698673103 0.32295203971783142949 0.059703542892716378321 0.15344377762503286222 0.21139742797470872926 0.14711991896080098274 0.13010101255161812817 -0.027106791155017170847 -0.32519085030448519058 0.11852132311436691658 -0.020345966263189824152 0.16443696701313759156 0.22007137719039890356 -0.084971008137958714546 0.097226603429757404995 -0.20008644719685703128;0.1089665907325275962 0.1286484518617702355 -0.044166180435271318316 0.15785016029518286751 0.1966372009840023638 -0.30883149267204829114 0.55786774311809994575 0.223164901420573214 0.03728897128858389004 0.099555706336649549271 -0.32327937277942542238 -0.21739505123240931983 0.31209233269956415668 -0.079426553994094914457 -0.24401504992156655693 -0.049143774751192345618 0.29462320712950534896 -0.076231142562885462199 -0.30580908322560057533 -0.14672636026715224489 -0.2295374687233924238 -0.061164584105303079764 0.12323795898211332978 -0.36303302587099728349 -0.23112714195909322967 0.078273410870516285653 -0.34120609062500301123 0.11094130714037322982 -0.27792645202886112621 0.087776986858010400128 -0.26849986377062762255 -0.048805761266533770337 -0.49869080562802359236 1.2943537668451443601 1.072497727940520118 0.043665032201058516514 1.0650186754265147382 -0.60326252092037957464 -0.25877137052355958513 -0.015546545135496126627 -0.0082867580269355457789 0.46822081150319588838 -0.22031439351458950715 -0.051171200073996329916 -0.0097056589526521887257 -0.38635260131869669786 -0.40608379667593524909 -0.15733303996594760754 -0.08853440753053481993 -0.018722382734096237877 0.29386787380357970445 0.027455865329381889256 0.0178015225067004422 0.16169278724767391364 -0.23863736807394170247 0.3263826981343817546 0.57430761213251124708 0.082630050298612534032 0.013391986896475529048 0.088457325871368397419 0.071932123834901121051 -0.3584014580937841532 0.30975699270125883755 -0.54874302339030356368;-0.023660973375949408831 0.21255270477225482462 0.14577573220993372827 -0.14600409309106671119 0.15705420942656336813 0.14285687621254380963 0.17555439984335605152 0.43155714224298441506 -0.18407858640862967414 -0.31733459977478289948 0.15165009323557654408 -0.063446614821832086895 0.052070071952863027087 0.11682667394741962086 -0.021059216422777776723 0.25753812479718268813 -0.28278977874726068942 0.039624528968721914324 -0.30142969094678101483 -0.076588444794454813014 0.2641135390059095589 -0.18508647366637609455 0.17472960544621315981 -0.13167932721200997781 0.15593918487135860484 0.20313186062323751457 -0.13035818848330296693 -0.15699073890650983021 -0.21772696516926481891 -0.12991830636088341766 0.28806707045151946911 0.089060858575650783675 -0.31304191273792386641 -0.46157170944826231285 0.42942177452558882855 -1.041827523504009978 -0.15234266175130742327 0.29601692183113870183 -0.23568291194702162272 0.067219359410988333003 -0.46215572472765070744 -0.29483555273208555958 -0.25950945927400115298 -0.098496735891994119383 -0.072014354229348695458 0.39727209017240466826 -0.21708850639070675914 -0.12872016087235341186 -0.36039862816299611525 0.23400446164441643382 0.076179856668479248305 -0.27258007675637463407 0.17519289323190023744 0.20131582634134737031 -0.30697759325058149305 -0.12085981010205305852 0.22079793424670041135 0.057524427740168582179 -0.19406447962714998279 0.06507552529091475968 -0.073045727442307237243 0.46301109078351765369 0.30141763591330605898 0.31757281980458290649;-0.073885501682764392894 0.28823152015780956203 0.069689723831745736815 -0.38615220263767990883 -0.23531699292025323733 0.29571097989612538104 -0.056283418744639872322 -0.036764468069783909354 0.11876433750052667326 0.03329127638938128575 -0.32737032915239672182 -0.10346804619574799522 -0.064786742242219474974 -0.045565415536072281788 0.43208489455076287689 0.052771461487165202686 -0.088320019837705890375 0.085825326428126957889 0.32736758041146096776 0.032991924839774054712 -0.11584939829854171145 0.56866521219894561323 0.018005156663476053203 -0.25253031315516444311 0.051879351682735462548 -0.20146275047187714446 0.36954247942696499818 0.13739813481178297927 0.030839493136496729658 0.36117453740714783317 0.20368425481081187112 0.47814764886981081515 -0.31261471582371697098 -0.14088775529823588384 0.5332985963986722755 0.048944928097533146882 0.099835216945822230494 -0.29415918904883681106 -0.90140686660080326931 -0.71774020257554116409 0.096713510760402202071 -0.1674052606605330451 -0.22768883252241134407 -0.16381203888815701331 -0.087969120865807159948 0.31765012373765150189 -0.3245089226732706944 -0.049317292437280030315 -0.34959017125405955628 -0.51314529819262899579 -0.09441440739480704003 -0.082978115577702515893 -0.053009524390098081148 0.14781197212092353488 0.26904077807501386443 -0.15618310353452038997 0.14019989589383993756 0.35513792695491908091 -0.13953941380038789588 0.3046638096185308453 0.46644170452019850792 -0.057300907574577633619 0.16374161884614421569 -0.02489453999558172842;-0.24550072333117053947 -0.17057371985593317021 0.078430515236668663093 0.21961291162900342666 0.064863554992226901685 -0.23665306174227371261 0.09185504463526193708 0.14782329296170582111 0.50061751230895301656 0.060461298657972131765 0.092119597512347675683 0.14477986218291694076 0.36081598428209293861 -0.50885490442918845932 -0.064210026532326047732 -0.36215745837972279642 0.070873140114104060672 0.07394617223655146343 0.25666518001917554281 -0.069503440728018589523 -0.035061556698748400085 0.2655420295323855373 0.014054215191738911317 0.12692682367987245806 0.22244877272076971075 0.15574073721852349506 0.23362071911136100821 0.0068736806356528160414 0.21356333724162640531 -0.21744822649437176021 0.52595368251105145685 -0.12545928264602623781 -0.61278524935821743203 -0.68484926314453964391 0.46483266524133032283 -0.44970525738820266159 0.41398384011176431185 -0.60517864052221026494 0.3849994841321162653 -0.033705660523304134535 0.49391045626006069291 0.12244983568540579455 -0.55976727361272260453 -0.081734929397202213397 0.034817784639761831245 -0.13794373527405631719 -0.076260601163226762744 -0.15330078537470126498 0.057497708019435857241 -0.14665551750694050259 0.086843268759442537874 0.46734724511974351513 0.13507898912847854378 -0.108327400628136436 -0.19885687544095628776 -0.10415848502118567331 -0.12840145102764524698 -0.15526889255636966425 0.063535204844960002646 -0.26481741860826885082 0.11505836752680731472 0.015290918451431906311 -0.53899423441292715342 -0.5905651040280891495;-0.093751543997283109944 0.019864551878055879131 0.03308067865191498258 -0.18123763890200844662 0.2386124141091215678 -0.24815183971832707743 -0.066826137785835917904 0.21526607461761620987 0.1650814554779825305 -0.074262636267507245447 0.15190088064541629187 0.0041005312894990533432 -0.12940928484517263963 0.073602765909360282071 0.080694281189310559932 -0.10540517759724422897 0.17133263908484541727 -0.25614257824881192516 -0.32607766746950389569 -0.085020807251005983685 -0.21800188618975963051 -0.36882900893216252758 0.24442769004679462674 -0.22722424144182609695 0.187961967031411048 -0.29089052625221667459 0.2257424575471805861 0.015077789349111116179 0.085909554878208616024 -0.3010818654191327326 0.2464125115522145526 0.061664361315915273976 -0.049581671714281655428 -0.04783580200180416464 0.089695094235658329174 -0.20595679040091424694 0.27828951748413111034 -0.14535159645167494702 -0.080631884963752134543 0.17191906919878718885 -0.46730498448294371938 -0.055530385793764076852 -0.048664741420140190942 0.067361204253080980697 0.05073078956793065919 0.15025304556774421449 0.25381109945583629761 -0.36215717889782877981 0.11819641673873002019 -0.27715808012026216245 0.19235683636674544283 -0.21012992763713822519 -0.37195990478589141537 -0.012848011396435017953 0.18588823126274459097 -0.0070704608896450821948 0.12871858751054979231 0.12339703465797716153 -0.25109070455625687179 -0.17536434808439771427 -0.39193460979620825535 0.15840037579765101072 -0.10710569907458014627 0.14015867887864902341;0.26564408758979884961 -0.31150596124766838368 0.15433332332433433165 0.35907378657253746779 0.097718162107773981484 0.2644285068179956788 -0.11659764524713181477 -0.041418384297740834521 0.098029410658315510596 -0.085755746810884159181 0.13249382162116646322 -0.0099335974758383363548 -0.012577333252522023693 0.24487513018773504614 0.13124672244834839629 -0.30992904942306614968 -0.017301083376579071832 -0.019385693447149288798 0.27805066217961366126 -0.23486119576228500772 -0.18721992793196415295 -0.0023087490491074153139 0.069762982719903346429 0.31007232791328098731 0.25853174213531548986 0.2734593678895367308 -0.25680016229274110762 -0.14377744253272528585 0.14915025990117075638 -0.14599764427302650005 0.42312581110035579757 0.34877640840198886885 -0.017247554954356727336 -0.071169748979731939365 0.10693522137971926689 -0.11429798285156556048 -0.058666987534173473118 -0.011503980767381202441 -0.14057131799779032377 -0.24134762257870373547 0.19422274953310944556 0.086428433207874466593 0.27366692085719074301 0.23842409636997474731 0.21528165032115212374 0.29149626767115327519 0.29887215190485161287 -0.22032268996636694691 0.25043459957626063028 0.48062583901122746255 -0.058366858530732548815 0.04895968601643251733 0.087241746162552785693 -0.27657976639883180558 -0.18543808598083777461 -0.19981545399951705644 -0.061755271952546354763 0.171291320645131806 0.22947941973323218723 -0.12331784284616309488 0.15340134092971671742 -0.07905488564449855704 -0.13286366429863991079 -0.03052191707977676069;0.10054317337306578617 0.28542121789261726272 0.29795720426061433894 0.17714955188545891684 0.29554356386052083039 0.11577634049979296238 0.077210174618588853224 -0.15926633920164912084 0.25605246017575539197 -0.034550062943958508022 -0.26854078477198733976 -0.25479403911902587243 0.082018517650516598039 -0.11519310593349499361 0.27118677682267061657 0.048066263040856316291 0.14960443320832170211 -0.052499090416857283059 -0.049397391441676562207 0.19010872253777313934 -0.12459534756316487103 0.26396398672041770928 0.073921420040917562577 0.22250436217533614558 0.1440094639496878326 -0.068105645720093824225 0.20790921560862674067 -0.29040787602238032905 0.12035793623132493013 0.051961821211751378635 -0.13600256609990155066 -0.074430023018776422794 0.26313026460293881259 -0.23844454823104768715 0.15148165552145065327 0.058322616957410672311 0.21192542970282299275 0.28215007549348308791 0.35157740093282408012 0.032097083283150890098 0.14690065446247935199 -0.2557004827533803093 0.050564331670554595044 0.27606890792568583581 -0.23930789198269220019 0.16533926344545565867 -0.072349951536716042289 0.073045663733354082581 -0.035370527791014655383 0.0087611167300526010537 0.13303405991735592351 0.10789394020638112814 -0.18123161267365958671 -0.14936812483187036915 0.15173049233867511032 0.2294114769880072624 -0.19496455016813268868 0.12097312355777772863 0.32959684374911929483 0.048909000641945137022 -0.087394422119438291974 -0.28939743889093139106 0.30372078162613175278 0.11678434129006201592;0.17545827378161418797 -0.4355189416661470192 0.25187528206861475866 0.029796645180487017768 -0.098925466769313283311 0.21838023789897181848 0.25140937197622148513 0.060254007638369917743 -0.42815883798264892102 0.14009147185757059306 -0.031689184276532604556 -0.17242707261639506067 -0.12699767825373109442 -0.28698767934898100629 -0.10446480096406939031 0.42082422889273679578 -0.26813634582942780238 0.027481190129055681898 -0.36808484863321011549 -0.09011428166755423852 -0.12078626763784580667 0.14515150474215976484 -0.088116775419648712964 0.055283371867553360302 0.1936782388755647899 0.32395318852310178714 -0.14605346721665565801 -0.18722047629838528549 0.01257766526407788979 -0.04679088515940861559 -0.18373361487641706735 0.04732519740672420927 0.037128413228211920583 0.29979161333266662881 0.14820406433158808679 -0.32436572869632002147 -0.83866158505950216817 0.13595022128975514653 0.47312902681489665824 0.25958004449350308152 0.26589490798188647469 -0.019533349251735235286 -0.21157635185290513125 -0.024274589539591998749 -0.23987784129677999778 -0.29532917645361933534 -0.21346658207031543597 0.53785687860179398623 0.60294759574374778843 0.26109763877325598003 -0.2026182014346895599 0.33355324874943909075 -0.086495455606113783031 -0.13179068571578700375 0.049725468371289854863 -0.37846694658633228681 0.26288860110466594211 -0.26427437524172581185 0.16808792613805592642 -0.21360891017161276473 -0.0053853613005556046772 0.090500145459908504231 -0.060466857178614510926 -0.3367877558905377211;0.21341041072947547486 0.15413981988168043435 -0.14986950056778183815 -0.16146199643138095525 0.23817277837238473581 -0.27004703008069053105 -0.24157236841234130953 -0.2056991451387603087 0.14667971902270188211 -0.33403746501797398905 -0.28374334638979603618 -0.35454667120018262816 0.16104023502118502975 -0.26515097920348856819 0.014402352236906272587 0.31985733079026840153 0.37872226149444104815 0.32414019939879890053 -0.22040005962084990854 0.17195337816791725349 -0.22701062562997029182 -0.080199196718840293219 -0.22680187295997900065 -0.1064013366302531266 0.083037864684409407046 0.12894050935335732433 -0.13989947010932188287 -0.20181777587912516636 -0.17739040448801413064 -0.20186790686043296073 -0.0051316023895403191368 0.13865292969318027128 -0.091101158166678117278 0.29491520885725919232 -0.2104825204718629994 -0.25205947732465217026 -0.22102931826510063829 0.087979623881667634588 -0.32934359781747940543 -0.30707740084145490611 0.030032511168253485379 -0.37048960932831687121 0.20752969348193919807 -0.10766288581694768989 -0.11085931312943753113 0.13637015086264181463 -0.32421916757215613059 0.38415763080216991376 0.001646519864027063372 -0.013047579911220189702 -0.16215353628496126381 -0.26119782867774926638 0.18215541951012387267 -0.093637247198761638933 0.1877218641640138741 -0.037243946032647093358 0.17326076417296290555 -0.016791916416500497766 -0.15748453096514455907 -0.33619728098464857213 0.0063455554402455519383 -0.25022324641951237956 0.25379497249459870289 -0.12851854191372549807;-0.094228780595702096856 0.2869497650613911377 -0.19932599755465424396 0.13816822192577393746 0.047801466453734356432 0.26978109337014927194 0.22606214286197340302 -0.1405345022493734719 0.18019458512298899833 0.13677236104097567626 -0.13924288680538693397 0.24407731101657215156 0.020012465368207568717 -0.25519416440579512084 0.22197015420469801139 -0.054911133453310362329 -0.073109587443915408089 0.13678261776483127687 -0.14025448276087507105 -0.048346883600496833033 -0.25082606523483169658 -0.17888805528337584083 -0.24233067832625226901 0.39031931437201844437 -0.079485402213409550587 -0.13371780463445431808 0.11053577387283446132 0.13787692395081310726 -0.21193577434144855731 -0.098589532772800483884 -0.024243770171893053167 -0.15924926583921603096 0.44197160021241821415 -0.44528989179064065729 0.33671074056237182415 -0.19084496432970776691 -0.13908877960379739669 0.37421338737736320468 -0.21771234647994100464 -0.079913830820162609636 0.13135138412938390795 0.23594990903208740152 0.27431414903686690554 -0.39140730103885224 0.30592621009830511802 -0.13845474034218435699 0.077463077004455579977 -0.037998479209158927961 0.084621318680829740733 -0.0049123399409233409196 0.1794813147625384242 0.18260963927532963824 -0.18537632808305273824 0.10633891223000180304 0.18496621410281380293 0.089147598575237213536 0.043630955864009619838 -0.13709953229361407367 0.24439042391239401697 0.1507777029314273376 -0.22452701505800498616 -0.31154342114756744531 0.10190590318601421005 0.22779605402277541826;0.0017102100138749751559 -0.08292279838144335502 0.23720391222640382911 0.085734745063221623473 -0.10639418716616130811 0.27311312203562732037 -0.38120036455807893017 -0.1985195844214135974 -0.19823503945699963436 0.17090757019025459851 -0.098714781101346585346 -0.73528760281896576867 0.02592511324332091513 0.29110937843684892012 0.005414770411125225183 0.21474727220057374111 0.32987037390218215682 0.42780331464905951844 0.16435793140858320771 -0.21496770196263431663 0.27246200702413203576 0.049395927515770370053 0.00020753413465467390828 0.22252238366109733381 0.29657787433591448201 -0.010581710062575829315 -0.27003975031630295112 0.46640093855911995968 -0.34950367580456792593 -0.0079496700045161121373 0.17428825745124107427 0.45381817760400994244 -0.4004228812163193596 -0.99729842485983211109 0.77670640002249846656 -1.0758165542667919024 -0.040532109140789501778 -0.4928402827711818035 -0.94443046199683566844 -0.080766249822285154925 -0.31369810166488309999 -0.0084645997442762428015 -0.90796860599258011337 -0.077912747310783653232 0.13486224398755844445 0.58471461499701504749 -0.56999798149153901861 0.60460954169364200528 0.059255875954147246842 0.24180329142509643381 -0.37198061648418528913 0.087666784919268408993 -0.20489655015508936864 -0.22216754202964433818 0.30812407517301348969 0.39884043144276115633 0.47761836541965946301 -0.17201863339120260221 -0.20699992254302071459 0.057356647617538600303 0.38495830782598566833 -0.25430122684699180136 -0.49276551905811377674 -0.25785013384717381246;0.21691481772437007369 -0.33315720695014566788 -0.03162303716887344962 -0.025722122869499642467 -0.068341838091872608718 0.09825370815280017045 0.2663290447623728463 0.26221686542001243492 -0.14550060305172785036 0.04012732084086369222 0.005056064814986672637 -0.030929984601695499624 0.094945631775753852599 0.094759736109465433906 0.025378174457227873489 0.13363368477675424684 -0.34436192688886324564 -0.020537204571788585106 -0.048695870095012569467 -0.15398061832277215588 0.25903228856353949228 -0.21747520368811579239 0.32132346224165220239 0.013299397757505269577 -0.3316253995555187295 -0.02845851415454483252 0.3345479079415412671 -0.080440660888491638536 0.13519530364066037476 -0.27814513307099331119 -0.40247251853950338774 0.085308954467598341331 0.028724261746407221685 1.3060482189552351517 -0.39078982313330984377 -0.78282924899217598558 0.27490549523335039428 0.061777637772060092769 -0.10145418880406945061 -0.056615830711926981578 0.12767162701755499499 -0.35886599655912004847 -0.033876158168222765543 -0.38975292711679504487 0.32700159786624310998 0.0038926686425325438337 0.39392486794029579755 0.48759311995171189524 0.50284360135584216245 0.19327523224549905678 0.1415482538269287327 -0.16738090438885000477 0.050358418080491337832 -0.43463677412408785461 -0.17421563426886851889 -0.50162247141385407634 0.21175846558654348728 -0.029836951264908380399 -0.085638506626713628567 -0.24379354119250357114 0.0030838402189134056508 0.7546975534036854949 0.37730991617245535075 0.43086879449869425196;0.0060881579816355786694 0.040870496129056833878 0.16208638051184331985 -0.042440922775040842985 -0.29213985820407917249 0.2483490676291014998 -0.031937647920879601304 0.050253087381549280122 -0.33582733949243259719 0.27617404372475801155 -0.056158528133258285575 -0.34134184982552151499 -0.095881990204099293296 0.062767923093302313564 0.036285816401141930687 0.24847068504038871684 -0.07138019765128512939 -0.44216393521135505251 0.13242142991637845251 0.18230684655238429959 -0.15361189483350276563 0.090809800886954769594 0.13274472840807172158 -0.073198858035232239327 0.12973956782494330819 -0.28504879708089919665 -0.20013990495662017932 -0.25304075551621352247 0.048992267268496557386 0.072961307642074216262 -0.13418657439612061144 0.058179946255479425554 0.22617375545331425135 -0.044664993497187825688 -0.11846401991285269995 0.01278437148726416922 0.047288348031686980311 0.077961787025339526758 0.18661330189162819715 -0.053314398781548241746 0.2729805456976803768 0.46266590023972004042 0.07315314669454103802 -0.20750081155092622853 0.1138910374982076007 -0.10966988560819383725 0.2596588905370225131 0.22048332894544778182 0.41483640920452979906 0.19527940285058509318 0.35374482807295470899 0.16453738496726602603 0.36525233070906970578 -0.21224533699490907845 0.019655167098624883731 0.18556425344994476045 0.11959437814995410587 -0.066110349135617002547 0.020462484635568347485 -0.0083769018919471298357 -0.43235291615090809536 -0.12294012992197571321 -0.1265458968808343132 0.37959904312480086119;0.0058410678170691824121 -0.020192383065864225045 -0.14296595652450497238 0.082634963450449142042 0.25277601091541518352 0.1844327768817118629 0.084756204133515339327 -0.25659051333920607219 -0.017391861625491226301 0.077847131243435702119 0.22827049926526807311 0.14446454010319528805 -0.17674687433519822854 0.16969346012591532413 -0.10647930800081881197 0.25464488003758845025 0.37149505860013781744 -0.21273189680192206019 -0.29954542235389214344 -0.082480787894122387094 0.31422932440510303875 0.054021660145153797827 0.041862438818345296121 0.002290901223503014842 0.1706448277576819994 0.17601627314820422754 -0.31473518004168143936 0.13031477096046054087 -0.34315421840886989324 -0.081244421175965655935 -0.090283999201380027433 0.40146396132105660604 -0.26129294828289972852 -0.30664029782056695383 0.067798713548331696055 0.08577070446871502829 -0.50002343937666693385 0.12535326666678534013 0.40018996141680096557 -0.21744962821934327168 0.024975935757328825843 0.16251281055945898668 -0.13234915199190747104 0.18159996905960584801 0.020098191629034811712 -0.23434436846814021838 -0.22976459753735406499 -0.14842210426089755271 -0.31220421012152438367 -0.088201737441024441466 -0.016589165144557282278 0.10949876272026963508 -0.21800599636962000871 -0.071692944403505848294 -0.047236613897767509851 0.11134985839943194186 -0.16796289176003109667 0.10920937303200191348 -0.42167459961636272192 -0.021082958884576428332 -0.028287940287370388903 -0.12233174101248300847 -0.030371684492352023221 0.11610389543261977197;-0.030138910655440130648 -0.28189961441902922079 -0.042077890307246998414 0.10878792451549856857 -0.22242461567294963265 -0.46455942853904580447 -0.30106102733089334933 0.11428773702650223132 -0.19666832632885936083 0.00042470116671514514597 -0.4071329738455420344 0.013783355736710875203 -0.069334124626503124134 -0.0075807043952050776059 -0.18159670158631524561 0.19558726928076430873 0.18250454525323672739 -0.35514568937050833286 -0.060594334714356393179 0.18757264041558288636 -0.33931067266761744117 0.31592112796004595543 0.078256668673470738962 -0.37685433358477332666 -0.37335994095658242564 -0.23805987601761741113 -0.33634313305458535259 0.27224850155458901746 0.22391315204745923517 0.020181286519171157123 0.21650913746681815786 0.1530654981126212677 -0.094089668438887427704 0.32674617799352734249 -0.13289224260540649647 0.29080318266727928078 0.16796010859863438891 -0.11385657168068458178 -0.11440814507859671523 -0.33736692451537270143 0.091406958747068792204 -0.21430433754660138668 0.087820958965965603693 -0.024438658743384428923 -0.36012151821962573583 -0.059710121207552813161 -0.25094210680266804125 0.23544071735702165604 0.19000405556856531097 -0.22025967819988231944 -0.23937385649989070813 -0.028908043428749963938 -0.25076137554207150737 -0.22773904641991646325 -0.13013515675695133678 -0.035586398943315410148 0.024623980867914452286 0.004095161528045804071 0.21742083666249517604 -0.064470339817261954063 0.12516035587218232727 -0.21412925199571830603 -0.066566833697680072301 -0.0080131191119930094552;0.035404748550766765303 -0.18924802356598052766 0.15730559840542529537 0.41043491995090880531 -0.00139109435629964414 0.039764055590748637048 0.14131171483238391673 -0.15406003489284489372 -0.001679989955141804412 0.098724839936367853044 0.022357492400724057746 0.35798989011007043004 0.10706288700283903004 0.35922062824481526544 0.21682331750202971099 0.39793003957778388946 -0.057645574789297319984 -0.18436033522420361419 0.33361658697545470975 0.12609357203779283929 0.10919066584784045681 0.16336430812631230758 0.11681036902353492124 0.35788186949200406772 -0.22158654191817001022 -0.0097945331233120023345 -0.17515871768414212339 -0.04901121104776782339 0.33412438687646500712 -0.045810430147753530838 0.27172877825742297597 -0.0071973462466751693054 -0.069392408749292269765 -1.1823404599634035339 -1.4894468137635219485 -0.88636269929863653605 0.14924754337021728379 -0.44012508268686806323 -0.45533556555011289735 0.41899009876050630208 0.33054686277958561513 -0.73456374784627120889 0.0082006671248265172042 0.48623318611668675526 -0.3363602306952435117 -0.14656608283667824089 0.16059895249893407776 -0.30508117120598082783 -0.0087144544705211948732 0.020290328638476268219 0.10077595807030935438 0.42857526209114771287 -0.30176653953066323588 -0.14490333693278670268 -0.084022351516606308408 0.30068187584918459887 -0.025971433838147598566 -0.18720650080643372326 -0.088538637451584120686 -0.050426844926811299763 0.36236716676387620284 0.0087461439047712107031 -0.04609320195741561238 -0.34632993251394827983;0.0584630199648704732 0.3052978756271468308 -0.076318763606574580027 -0.11178645174214429936 0.15151455287569459696 -0.080978589001591425034 0.18798078455222591576 0.45082256307274326534 0.42111059531348155049 0.066672961350047174611 0.14232299114076193969 0.12889111691277002625 0.0076585146614810460999 -0.15957972440251860791 0.18168359057424987579 0.073368576924907391579 0.30387264495189664215 0.11163970520857137425 -0.03409356457537913998 0.39368325815858185024 0.15295904929672671235 0.39440195780937242764 -0.25159646780638028618 -0.13636384824049052611 0.3821620120372700713 0.080167795322669183067 0.24410524521899298889 -0.026571735160482636701 0.24352790336937843452 0.28177858474430023117 0.0023651520702561183371 0.07305333001426976558 -0.55624239126466956673 0.21591121432908591538 0.22373648996707853898 0.16068064360982139971 0.14076275693144973955 -0.17455986744327292581 -0.59774151986526069535 0.026163437361109358886 -0.28862386395078221124 -0.16659331668135099469 -0.029301186524509682113 -0.099143200979925835692 -0.31627918621319539572 0.12818620764118268673 -0.015140916452534531472 -0.23879851951096467411 -0.50683778377534116633 -0.049265967616521952332 -0.32995117169474930119 -0.3251258959771786694 -0.028771491652539758072 -0.062414155467086923634 -0.21707315947886596241 0.070431783331800071335 -0.11726657442504843931 0.056039840577407754041 0.12426262285739583802 -0.087659774746637275644 -0.037874175744035315505 0.28222573587025712172 -0.11935439119749977066 -0.26100046353349476425;0.005972030188302652684 0.32046708080511443484 -0.014835530045503877994 0.39824825453432644018 -0.36244339141755332889 -0.13017851936766097753 0.20766721735180720954 0.0077437752383196657019 0.083507653983717330948 -0.0098000718019777884743 0.069160782473232998435 0.17931134156657874135 0.46950493040466712014 0.12664087096899820373 0.49313926139501118584 -0.041962497866223247289 0.50094608693680331424 -0.065417856963905188228 0.047143763480238867758 0.2320044223403384398 0.10208784814891577741 -0.19606709953367942867 -0.38536014327617285069 0.097745165235996842035 0.067010647910005757821 0.25319875327758484262 0.28151246218289421863 0.25840610495047466877 -0.03772080032513550063 0.32096323110838553827 -0.057573172073994191567 0.11009719759815471407 -0.57244754902262307006 -0.39835314748921202277 -0.36188973720336076179 -0.80989426186597901491 -0.63800223862168159439 0.51769286632677924409 0.097108702279672970414 -0.068543915151862783164 0.30230708201440248395 0.57758017883148093929 -0.32148749938667769976 0.44424765479092626075 0.016311182793422526055 -0.15104558112401422765 -0.12605597884965283328 -0.21058129593706476079 -0.34124563636745131046 -1.5004516577810794731e-05 -0.50041278933032218301 -0.012424037107767585408 -0.34516830068772869078 -0.0057711628931923011909 -0.29224170327793502766 -0.34320879700157463921 0.24072348593265241457 -0.4085221195366635083 -0.063869001263121255585 0.23429710511629781022 -0.44167762535976606841 -0.28906464826816408165 -0.17688777582165715607 -0.055340416326468459818;0.021098875250467104964 0.25828952686728773314 -0.044696748395974345014 0.39246940490085641118 0.21211711482438966314 0.20965330283650196463 -0.1252285777717939419 -0.15796514604608627441 -0.20083939505337394804 0.10537081320693590658 -0.33254110415080456731 0.010168874047957101453 0.28542871726059876325 -0.26429649217856726606 -0.44855046178418034319 0.1987564019255852743 0.49423328704487656804 0.092310106719658127639 -0.39204842920423083052 0.084969640325656667357 0.034827775316735219702 -0.046139156778795237246 0.10421543584548637051 -0.098910759232691963794 -0.31315197127307714542 -0.21384681054387924548 0.087757985358350942828 0.21081974089040392273 -0.14122483192063658985 0.17527222225697058899 0.067274927991182967291 0.025506179652706354594 -0.67776587716256742056 -0.44644129478127747568 -0.64102197685178541331 -1.7301824999255464022 -0.1439477438716258717 0.091599787253118458707 -0.13172755117480167142 0.14312703548209729232 0.15535248073032417726 -0.36272867483862952787 0.21496679027914689097 0.074733778582383253442 -0.14010481002399324812 0.27100684111801831566 0.24029246357984421212 0.16962558876416808373 0.099932749101430531913 -0.55393297298128707506 -0.31349904153841373633 -0.39029330627198383086 -0.17557903198942403922 0.043740534602952352294 -0.034754499176573062924 0.21570009152376282135 0.09237780206347842582 0.23614660281131458208 0.051471810198120200586 -0.20856806944469380438 0.21796789187146686784 0.30229367435873943926 0.24927073464298341032 -0.32775002381981444;0.051168790377761494415 -0.13950294433202448108 -0.079566404344546606819 0.15816578725963939545 -0.015084120135154420114 0.010683256792581495576 0.3681970512715623256 0.12527925012405785599 -0.53038278777016423238 0.17149839182343473709 -0.45395884318021451076 0.036129478780199841825 -0.31758766884044831169 -0.088091463821089788233 -0.18394334926094052518 -0.00042028018181005147823 -0.54830568481353347821 -0.13956640930301372761 -0.055493944863966519765 -0.070137560504308277265 0.026360482068557126306 0.080192925845821660946 0.066754723809747951169 0.24465771213817133489 -0.0053770140426958011604 0.39358117180127738521 0.14203001386436617248 0.079872017797110186899 0.13226475531910519834 0.04282939259416407296 -0.19894288215356747962 0.11260546281447005035 -0.42852748091422149246 -0.15710035532357516375 -0.52744192906287201694 -0.52491591550122562726 1.2338579551914135024 -1.5149463008465611225 -0.35752484736115092145 1.0246355739198822477 -0.21937680320146762947 -0.44016603761484529578 -0.29285143820649478519 -0.2616850023082679666 -0.065120760019061849078 -0.41610183134876554956 0.006223113409502246951 -0.24254922442873064203 0.41327277532087913769 0.71485276146402265685 0.70546903884221723313 -0.11045534562932085576 -0.098839754905883578373 -0.25393347175698022244 0.035746728155586507403 0.39640755660516308057 0.55407709356139001056 0.19898710011822537402 0.129449259343750539 -0.4298449510614366087 0.26656610373344929998 0.21921187706916059335 -0.38963364541242812011 -0.47286429101784444029;0.17021421648890650014 -0.2443571347804259497 0.17533006746471696546 -0.25228810402732226859 -0.34520026319816449201 -0.10407604895960687053 -0.061368304313931545946 0.055442298668174509746 -0.24091360738101788574 -0.050061096629907590738 0.12733412331429316833 -0.10780640264654747784 0.27086559698104129001 -0.022335333761829129912 -0.010078376814045332879 -0.13146384856123158325 -0.15946473009875486437 0.13233058177153175783 -0.1413881496626057388 0.16472656781904343459 -0.12504367492495313541 -0.10074457212359341773 0.29941200247535854073 0.018982420665352831707 0.078664673145966673706 0.22760386954392688996 -0.35869309409074584538 0.16081777729440085989 -0.076539145810549588655 0.091129675021091371967 -0.1419959449653923067 -0.049376488447262542603 -0.23904600355940699985 0.29545586892551084501 0.093687588682751427038 0.23485069713395770319 -0.33508144828222452549 -0.01719842877330738859 0.26040850954365885039 -0.2926798317806345584 -0.36974308014973356062 -0.1296674386726555106 0.30572779173412523157 -0.072038959687965226086 -0.12844903911547106423 -0.22828601618690774755 -0.31784057466279797 -0.18120158138005912352 -0.13312670412074456561 0.40447647733272773518 0.26749672292023540798 -0.15593229907106451182 0.22386533353439785898 0.096032347014781818673 -0.052113267184677319888 -0.086975435770296316562 -0.045819520916556291668 -0.17442121466943824593 -0.018276401495502591493 0.10585209788111724083 -0.17458619648907891531 -0.044028313191832674223 -0.26087836086662197221 0.031065334618170032527;-0.27960261207644143688 0.19697339604725638829 0.16743446264605835183 0.054428638750808749913 0.0069887053559442215839 -0.37773335505937827294 0.19536617166410283342 0.55708059198510229137 0.011767530975736255686 0.07527637732386245617 -0.1112265201558801514 0.31350558178515192109 -0.0032326312894262040562 0.043192588203302351157 0.31429743763055806305 0.30166435378790856792 0.075816266518036981581 0.045104582416541423584 -0.19383699405257642789 0.42914454872524471218 -0.043454375869351385964 0.2543214647973956466 0.044363288150579445468 0.023922656917358783163 0.10397427629902630808 -0.18947597483380973493 -0.10005755491355905473 0.20795689026796468357 0.15696031668684917726 0.10767978595212567006 -0.16995417624860634231 0.093609581892930213143 -0.91086100008799686378 0.49889127081514672568 0.43913965386875430941 0.66397103151518843678 -0.93585103294936677898 -0.22396955672160784312 -0.28457841455520088703 -0.59580857958448629752 0.22653201373823012021 0.083313721381635369445 0.40129853754511007891 -0.23646117194071011869 -0.26271355336073326514 -0.29703808026051992108 -0.12575153027580901477 -0.15354144913416839513 0.15574783250935969603 -0.17185667890133082825 -0.2745163958744553101 -0.26656396697338619051 -0.4373691277880997208 -0.22339451321709852261 -0.23784845678076771414 -0.23752407410121173514 -0.00086830468031456658953 -0.15981604992287368194 -0.048045940489462465872 -0.15948349427079616669 0.046131043042189456838 -0.031609379201323742348 -0.095495151418594631521 -0.031629058124124503903;0.20359379505098737506 0.19403712547061349736 0.24861287732880799073 0.26257411128031904468 0.13808546350185052498 0.078686326775960852009 -0.3343556915018395248 -0.19561027549866524811 -0.26291077651683902872 0.00070278494599143592758 -0.13668774238939015997 0.40022919698910630615 -0.26272486442010317687 -0.020412461908744967964 -0.03836294079649569394 0.3333909967280326847 -0.068358388138913456222 0.19278514091719489709 0.11131068788398656988 -0.065029087809957475397 0.099914604158256245525 0.010573454012031305999 0.27057994893526637892 0.10475563828998059324 0.042188329848260701371 -0.11140377328347234043 0.10918075426471757217 0.26855374842648677136 0.073176669422451975922 0.35267504515278413901 0.1719040638916889685 0.3149059038959096668 0.10116819221624100134 -3.1307231090651357341 -0.81675070949842665247 -1.2752946325506089309 0.0090653747373463534204 -0.47367316547449156428 -0.3010231726939062713 0.48119538209203893686 -0.089074419046637376418 -0.3242860727648368413 0.11519387194609828629 0.13356724503790229353 0.11753592058334502712 -0.49161292742716117266 -0.013006778166752280476 -0.62420978385160053037 -0.13429329406410972503 0.015774837379918978109 -0.099692784460031713678 -0.068986783917902000374 -0.092145452251437137692 -0.0042923810049601378303 -0.20906768365358088801 0.10160833278601917595 0.003651126126522900861 0.28247545844584259767 0.061456030756445886865 -0.23458061388805856451 0.39455472669931201946 -0.046837459054204839959 -0.1740748898996551941 0.10931034008780612932;0.29707381084219142142 0.18520694054221875646 0.32283080383668921742 0.08093546339377992449 0.25604503364687547506 0.31544023606850479791 0.013775009380571547751 0.16926622772825480889 0.10391088105152979093 -0.29865658244529169618 0.26007844064405433171 -0.2322014269567616862 -0.28623398875220096294 -0.31795924635549999149 -0.27116360631958524863 -0.11299528350939322396 -0.13641627969676320409 0.1851157519531140272 -0.094808731951820227057 0.18475743117269663451 -0.26381704971586794617 -0.29819337319832051048 -0.097039780722941310076 0.24274711393242381918 0.053676305343631589007 0.018608853739856028725 -0.15572347216494172861 -0.19492739876210768424 -0.15814931318930722237 -0.079104555856859659624 -0.2770386185023256953 0.094348909107536724217 -0.054768311011710230085 0.068213608710492923404 0.29878553140127772636 0.22337441651459780112 -0.32790209761650446207 0.0027899667325236663512 -0.30058104837584620483 -0.17179400892850266169 -0.1758260782754088869 0.24042509795205832535 -0.21657462774846583664 0.13789022076128756855 0.32441731760685593722 -0.086069932945681243419 -0.15851795919428507409 -0.26349823819143081138 0.18536188521698587772 0.064500954580906363911 -0.02309822334286556339 0.30283427992828632069 0.17822418207054593897 -0.31231704691066025648 -0.20947121766832482725 -0.13965873746763304841 0.17525387920047649781 0.11746241781919361524 -0.17587050920172528357 0.18915470855222685231 0.19995604234838418312 0.37285069357741873475 0.015004673279200221592 0.12011938149025504219;-0.23495964003386676788 0.29232012036486099138 -0.16634344862324601522 0.071214991981237485419 0.15692924346992634388 -0.1124033906645113684 0.12408537623778136127 0.074796294595834117436 0.011857423737483909626 0.34748967348485143569 0.28717519049952711097 0.084286939911709227169 -0.12769476414922745211 0.26034086614020274242 0.30967018749500763164 0.042569936248695330883 -0.12475715230302628078 -0.20241524566667903895 -0.19824308062690543242 -0.25231554074066631088 0.20922884403210895155 0.28920534898074057306 0.26163189932013919403 -0.10081488523227036258 0.22380984969846109967 0.27244520646727832247 0.23756329155123637187 0.1469072484196446704 0.15113083198281626607 0.32611864020262010255 0.020920842169926588683 -0.19697208360427281848 -0.16742967088771848472 0.04875008931245992938 -0.16679767169988907183 -0.21697865921712880533 0.21254485413042664699 -0.2199673906913196253 -0.15043936157704415613 0.18465494426013148721 -0.17645204976064862712 0.13963210930620789663 0.14884689831590305897 0.13784939099352605529 0.10830105229840387981 -0.11568857062001711156 -0.079782554362130816972 0.093544832712903189242 -0.076184704221991431106 0.28314221780755594038 -0.068454112113379761428 -0.18467870444125758511 -0.041019054809454016941 0.092843675281930090892 0.22833582606518695868 0.1360293736581731916 -0.096886602834732368783 -0.21245239044907215931 0.39279728451225931485 0.30760660773917136712 -0.11091260231180713469 0.099805003856399135409 -0.086728316574585531673 0.17551328878763333696;-0.17855702094511721745 0.11059577203392573219 0.22515829646137303088 0.16497449283126994213 0.18295442631154112956 0.1302165371957275386 -0.11819580795258906314 -0.26011927602316264885 0.13123939539311343938 0.035423900000371690011 0.017065893904196303282 0.11247195252286038003 -0.14170256029861380553 0.28327999508474593915 -0.12899314894803226572 -0.060018383902355150472 0.22137275656152843872 0.046377881235957360562 0.27033492792895585932 0.13547010157712485734 0.0088949444477919754892 -0.26458548873734077933 -0.10338129220410202658 -0.11057749202290266533 0.17151760530616075306 -0.22427730523315356215 -0.12326307172571539239 -0.34432726804025987066 0.17231000004484320343 -0.064688371401193420218 -0.13064711579935031627 0.1213295081565146788 0.51179143019411077464 0.24681712798660807029 0.49366471471357609158 0.4395920900588566882 -0.20471401318719825713 0.138915629451247441 0.26470557736281735695 -0.070140052620729406718 -0.15399494977565950093 0.39304747119125499344 -0.050809654572891917168 -0.12908453414020981675 0.0071592777566324445476 -0.091035717751565395361 0.26285862078874461245 0.11700232051342457362 -0.14459684486182614038 -0.061501623824813590746 -0.1941022886993657437 0.30763755718010621365 -0.20028925317222731617 -0.23757552694887454359 -0.18890733532717937648 -0.2757513949075761639 -0.2722008292748215319 0.056920208144720429999 -0.080339435749276350007 -0.1252286283122538979 -0.24050508708516080136 0.12345348983985453273 -0.28870453677531399128 0.012289750385162029334;-0.13711293393526893802 -0.01356110437855806948 -0.073160288191714994976 -0.36535660267994940487 0.086568284631563768849 -0.26149847547716259522 0.11359019753893741245 -0.17158798393015087247 0.25105140063391134797 -0.016399789986473414793 -0.082559256975315173377 0.22342607139579456765 -0.29196526306314007915 0.18866838014337813934 -0.13422746856024761475 0.1768150400548165746 0.026149611100159005778 -0.23038553830293279079 -0.0024560771554682399309 -0.13097370063760288561 -0.29869605000929894123 0.25566148173458680404 -0.092499532864966066414 0.19210485345599775941 0.19330139937663351479 0.32369223714963490934 0.37256499443823953843 0.11905034968132825746 -0.25180668912260245618 0.11706430593070960011 0.29964659661637688126 0.074396675204798534686 -0.58851186391692145161 0.31825907507797501772 -0.026381127931330634884 0.36479734939452346243 -0.058389569058841975235 -0.38694710401412568679 -0.76227649675559971953 -0.13748276188929017816 -0.37382207414596668738 0.34754934245962937345 -0.098154635095114683985 0.1453990075128403503 -0.16873953100690861073 -0.23501178461526125996 -0.091164863210799251814 0.033830154088826225323 -0.11577271380605955176 0.023850544304832004688 -0.069857589017175605872 0.095024469874588554652 -0.41156478972876386901 -0.059779975960629012921 -0.14744922329928264459 -0.019795031464548501487 0.034954760597537930245 0.068987528754049481927 -0.15703096706192587462 -0.095047124369037783165 0.29033370127498236979 0.18813947409383460774 -0.1017318702468787972 0.063450441885022509925;0.0017088207884553871345 -0.34657970331000953479 -0.11913871192215773342 -0.13581599071823832747 -0.10112264676240206862 0.0070311890257600756851 0.021020266173164634665 -0.10710041053246713294 -0.02001386255540542336 0.14580363897587431121 0.14896226565230555328 -0.07274984563678019156 0.012600475492453442478 -0.23735536867634898783 0.17552748108988547315 0.045905012702479520981 -0.20911236823590334533 0.28870588698505111891 0.31377972464611020298 0.028810581842435133842 -0.1435067895747516864 -0.066588180108106881372 0.30728360746291327743 0.056743730419147327126 0.32610724500203758236 -0.10705528953714482654 -0.35830299528416864607 0.00972160197677850689 -0.32465560280145994154 0.062178437641123907031 0.036563671522449311957 -0.0041597943564713989184 -0.054034297938399852845 -0.074704498158667864693 -0.0063904653737036735961 -0.20447551006823741493 -0.62014521405487976757 0.023780899397933888406 -0.0051859729359817049663 0.21412233879875339215 -0.36942847163606440386 -0.13418012410595314687 -0.1322396013749007615 0.19841309724665090464 0.14300449075969554058 -0.16199723024566817231 -0.05079109883192143432 -0.12115231079141433601 0.071750662087617558815 0.17269977843997624811 -0.19224394920345894144 0.43991760678365160464 0.3076355301980405188 -0.0054175176152724529438 -0.067482565477733402748 -0.017425615239489239405 -0.18542155988693914681 0.1747170845426966046 0.16373038310281073926 0.2674462892540919734 -0.077486148019143427645 0.15891991780141465074 -0.31423690484497557307 -0.11087387590845886043;0.19743540227906680729 -0.097699006252816425477 0.045502207243237939582 -0.25804833428181495059 -0.17755242823755745807 0.20636551132232075489 -0.17276021668150845501 -0.12639411127964064741 -0.092980320072316893776 -0.25116069783038302843 0.031783568842374446128 -0.28635803416416388822 -0.25946646281095053777 -0.17234355560344832847 -0.26216181420453926743 -0.11716853411448933941 0.011620467195902747792 0.040686088037376763604 -0.15704079307037557833 0.070805917104379847982 -0.015539787892304781497 0.12292550861973469689 -0.064506552485632057126 -0.2447322793711236566 0.010509462144701029601 -0.1328563060103329363 -0.059443496195983019925 0.063696705605584436061 0.097692508006179207269 -0.22824069320438505892 -0.13893659480065748135 0.18137882927350723605 0.16374493956826799423 0.18175599810071005336 -0.075205022335576882098 -0.068635822239308211246 0.2888111622186412264 -0.25600207273232084004 0.064439605479941916566 0.090246437425325634618 0.097866373286171676193 -0.096910771227168068798 -0.24487821548951463346 -0.13040802546959348596 0.32549328578229747011 -0.25258986090072427233 0.037323633625045413154 -0.32808298775586380858 -0.12448038943433580028 -0.39863807159626973853 0.18633578144673840216 0.079988413540661246204 0.16815067365996233528 -0.31814045768948762127 0.2387326203912430167 0.010965301776240108864 -0.33609772268081150592 0.18377054038839141237 0.048868673238245355361 0.22094459235407731823 -0.2131735678542537038 0.14230336281831340584 -0.14811515907239178325 0.27267780297463517503;-0.13867802822748395708 0.1589478711328191074 -0.30208115278132030568 -0.17372963563488630356 -0.17774533770852229964 -0.22363274319236942089 0.040659532583347847423 -0.072652259087298706741 -0.02619773480152969708 -0.2902594321698762081 0.042009657975903690053 0.18014396752435124505 0.056255991862336193754 -0.01294110326609048886 0.21285954778345939076 -0.18391053786207942067 0.054115557790287864559 -0.16965995753121415612 -0.065556188450171665183 0.17851730244874411402 0.3545798008792287459 0.14602113525764570667 -0.30076127689453713288 -0.19595655793478725104 0.30991723651184682753 0.070220314117103554974 0.13251218886980520306 -0.3419806603340139195 -0.017425654981673407984 0.17101185388392420306 0.18023063050151894027 0.2245242164120086481 0.12969011357986265365 -0.15246307473860021275 0.10085023567905408715 0.17799041313285152155 0.33157889650495392386 0.20278557504021962887 0.37141834292188391498 0.25154831387445431012 0.1182507366175113428 -0.081896067307563616411 0.22228337250604823794 -0.073745510178585937933 -0.053689046855653149715 -0.020507753181933732062 0.30141578852957201518 0.04362157001135691381 -0.23376766256837328006 -0.12823887201024264382 -0.040127505689137643596 0.28676869727761411522 -0.18988130736704744717 -0.12833319439913454252 0.12183108186344919488 -0.19477403544166435601 -0.24287993769785434783 0.31791041414844883883 0.2072834387113230703 0.28381840152748877282 -0.10744295200831366355 0.2265980145003969326 -0.29627550532827950924 0.2252867233039074768;0.23692667324526808792 0.24670913858133558527 0.048028265620117964463 0.30704131256226074864 0.0799829589338481306 0.086047767427994761857 0.083963487654555593598 -0.19280107022502612768 0.098128295173757762448 0.17233849245552843032 0.017840155847281140983 0.044620898837824968242 0.37350603838006163349 -0.041904742463736890934 0.29730263573937054655 -0.37627185654828193551 0.2236943899481074749 0.030893918944656394154 0.21217971434871255032 -0.14327727976715123881 -0.14779169621796381384 -0.41630116134224198765 0.27227004641157093179 0.28072255336516693802 0.17684509724502739392 -0.091750138662771762998 -0.068796650714729026821 -0.042596323697957023946 -0.092578607773094415134 -0.15680186491709172114 0.15642569842154124826 0.0077101172326654067446 0.57412926494611826733 -0.64734108109043875245 -0.74710760070862036741 -0.078282047743929217276 1.531403626615186031 -0.42123555831856546172 -0.20351675537362057256 0.57204128718816715793 0.34678762845779986801 0.11721084444582470507 -0.39108200631291506477 0.28469319124050507241 0.18357438919222721085 -0.091603243210458734636 -0.28889212404104602783 -0.39470686753209138775 0.14299075241385578172 -0.10018139057195457609 0.079812286821334510467 0.10538489483052490558 0.13336368332554709992 -0.25136951301355758837 -0.064113999554831588301 -0.14869549617566610311 0.28222506893727439259 0.079395115034818788957 -0.050697589639575942055 -0.30492930661826123107 0.26019473764884182287 0.088192824219565202348 0.091823607339831719854 0.022961599573287395926;-0.14767133495531128973 0.25513455550686969797 -0.068096887272051764839 -0.25286127177318090675 -0.088459395538318580376 0.231536371692081272 0.053322216919935681856 -0.11902973291482493723 -0.05073854135864205861 0.26707774702462455663 -0.22870672269078448635 0.20091454704168884571 -0.23335396612226835811 -0.27529518637107153189 0.26991432005749660394 0.16944143026541030883 -0.25880041928417951702 0.10209744642175345997 -0.15571755539820925085 0.13493911073877015716 -0.024277903648739666137 0.034617591043501039216 -0.19944594046722072256 0.17954786968208194531 -0.22243080359796685297 -0.034962107085209546964 0.1530950147676863049 0.044544676616513165235 -0.26869195585023225581 -0.3241288677716169242 -0.19004839317900620865 -0.28218629807951650657 0.041186803056132016698 -0.26107362399122469032 0.18433648167284460984 0.19790281953485538979 -0.20746633628499877577 -0.039401243508931198256 0.14588285202502054849 0.068963897538879659344 -0.18523643560061892055 -0.18963780821696743506 0.30551335513304789249 0.23109897101811438525 0.288058706926970165 0.18070597983024141997 0.34281239824379777792 0.11682312605547483242 0.1400629538095626847 -0.19240899675178563255 0.061495873829217277684 0.032396395871805976074 0.13385107529356962686 0.23937662283861879664 -0.30279531138728577044 0.029991824394322713632 -0.0018046494349365027957 0.22675771217307599814 0.19698797439985429869 0.19579110127040022515 -0.2098084455477993715 -0.0055724903516581290874 -0.1624630281050992997 0.27829053286545502033;0.228393589014345616 0.30172813772479950556 0.26899918706642617083 -0.15051267695645711986 0.17572745917487059275 -0.17120190032949533787 0.09900888856287229367 0.11087723204876642757 0.39761507274753754571 0.15023498901063783717 -0.42014121256795899928 0.26631560652640023923 0.38725150969580429683 -0.31523458366017492738 0.0861964808206807237 0.24131136555989124437 -0.34071544524915120533 -0.089575702771725843054 0.0013834051363550503924 0.19535867147883564932 0.32262064201063744839 0.086623494194281766556 0.47868916391676219479 0.16143647075982367478 0.3215877350957623837 0.21530814082024976597 -0.060455811717387022974 0.61322235759604704075 0.20880556112265577506 0.27333862233015182586 0.20262199997698926435 0.33584514470188531199 -1.3478672116693453109 0.5163891951859181928 0.57376710103792394335 -0.79695631695664304051 -0.88976057159221100257 -0.42546893986099931784 -0.63504416408550579121 -0.22786605772491158595 -0.26529024265501727209 -0.010280111429206159959 0.44016772455117347818 -0.021731854449805271257 -0.34008473670193983818 -0.2408487878450370212 -0.010936423409626496589 -0.45518718134636559913 -0.029468023534886294418 -0.29157817136645930445 0.16477338928331072831 -0.15644075648923860822 -0.086395061971385647692 0.24323348441501546624 0.230492095458362245 0.01473043529167190023 -0.12150975678994850593 -0.20388336369604989629 -0.044566297077697672457 -0.2275028371648436798 0.080829906052942074313 -0.30334048813757097385 0.2619723472405672271 -0.19780237532593422656];
  
  % Layer 2
  b2 = [0.30043243867310892581;-0.13266077682480195699;0.59838567743621950967;0.81605131636069838663;0.69158787908377250542;-0.49720568113246010888;0.22055651355289612736;-0.045868726557386572951;0.48576748814836090418;-0.47731169189063210601;0.43523637983395091489];
  LW2_1 = [0.86746605401431342575 -0.63282879086656951273 -0.73464027059814629439 0.27478736524594793433 -1.4444529138615163077 -1.2053759726946711162 -0.91569985837925893524 0.74550737197303396098 -1.0990576066732560268 -0.80563969731378837213 0.62417900852943564161 1.4012957599495734495 -0.20933367223966081738 0.85067142421244623662 0.67959897942442615282 -1.1976784443914467726 0.68972335059030620563 0.37264361846649890486 -0.065676228518799659173 -0.28468160214883636572 -0.40225853303048414444 -0.99448795614450524738 1.0399905082530285227 -0.65558451313767540647 0.54325026931356734661 0.93610968646784076252 0.58542410712585646326 -1.1022864923172033258 -0.36397262505945976452 -0.5272292523439953138 1.3805266625243644008 -0.28193101082684174363 -0.40093798238902600417 0.82425188810029403896 1.479599130436490162 -0.84471251222300103301 -0.24141658898472156958 1.9172830312932072072 0.023126108112846995024 -1.0098784246790248886 0.015219353511378508684 -0.066968337028661145682 -0.39402082436965735202 0.24009560984216077317 0.75667485802582379328 -0.37409560161484378682 0.71533498586469146385 0.83739934068699173331;-0.04562793832219372292 0.67648103600269893221 -0.11810129691511096761 -0.48528683297687102982 -0.92523865173097341597 0.62112693278872421754 0.14017711499463547664 -0.5788440898811774149 -0.42567143485055219942 0.54264967645760497916 -0.69014550468259872051 1.0956997477804428787 0.14125208473298986322 0.51594077044276709376 -0.76630774618429009504 1.4073259218382341285 0.71972711230163355367 0.16147523842611044564 -0.63872229457703688649 0.82650115585604067014 0.5215551292486525492 0.41829681690959152895 0.75059720644396243916 -0.61222816393519152722 0.022386254877170226607 0.76823528741727442615 0.45791706919799551878 0.034104438761511410294 1.0097866526075507387 -0.055245795833466324054 -0.68216017959344787958 0.66072653098222133838 1.5354499906502911966 1.7361713576022153038 -0.37656693830351434249 -0.79915711622636498301 0.69060328370936807652 -1.2870067745449178531 1.0549979860538145626 -0.45078889630115415166 -1.0113206309540716532 0.10910260550816708314 -0.35016365709413016516 -0.77993324529890339925 -0.24715314466779766955 -0.73524212399518551475 0.48848192267719536819 0.57414175464261729687;0.59515997667651121539 0.207541423787141327 1.0258735189617926853 -0.051983549611843461735 -1.3926529672744385469 -0.39857686010925424958 -0.27419991568144114202 -0.31916954012151971254 0.30473930832160178728 -0.37888365188095296521 -0.8833736715447195742 0.27408301058039202802 -0.021806740549200575446 1.5771184732509682114 0.37105476081623284257 0.85670423604247680771 -0.46410690344942689967 0.10319308373306268489 0.21849249182215704779 -0.93033569777331992512 -0.30083394233880339508 -0.52723137318457924394 0.2768393808377591081 0.50167680701253347664 -0.017006781755632475323 -1.4377623050801520144 -0.01141970438003004143 -0.5184853201175517734 -0.0010638740884381624185 -0.54085337334961292033 -1.1824476159181922519 0.2093720876340696424 -0.50307593271915984623 -0.94736285149061594257 0.67541274880916024603 -0.45129926593504721133 1.1135044799182480801 -0.8918434391664613603 0.65687893549412879057 0.4059905501818912299 0.90660462115833617691 -0.21495207757060710851 0.57360331434507905168 0.1460721011774349376 -0.41543635528265965284 -1.1901492345464321776 -0.36455550120400076475 1.4256109908870235881;-0.19768460819826352837 -0.25940775068255617075 -0.43810732098055193973 -0.67194911075724317318 -0.18573825808643493196 0.8005182399852051045 -0.79577982512077938271 0.24040922190305347161 -0.23827660437344122535 -1.5641193819813863364 -0.48126780726833690016 1.5119945499306974845 -0.58010701230496730663 1.1606240432669283624 0.41785212630539858569 -0.22426436992904436041 -0.86614140618218693479 0.2943562801882497193 -0.94449498160984868278 0.86086688164997549055 -0.19125465651480941243 0.70267627815337219133 -1.1631710275792663811 -0.82184053574493476368 -0.24077591410311952047 -1.3176604022749920375 -0.65907189570061253114 -0.34681580173197673611 1.0683069648814125241 -0.42790264538842009978 -0.32196474309463574137 0.70437502266394880213 0.14685109038255056424 -1.051716271531392799 -1.7695262961796949241 0.97491923938265923066 0.32841982222437160477 -0.62716377880152529567 -0.055877107404025030957 -0.2676980942514434747 0.10250541731107903898 -0.295411086837299941 -0.8875700310896407208 0.89402251088475337415 0.95752591797873953805 0.30751696842423342781 0.043374982311971961579 -0.85657310728701718805;0.64503635757284227825 -0.58111021164221365876 -0.76413089369932740702 -0.010599407277438499184 -0.89769045641511868716 -1.1256771805774530293 -0.085188325158378375157 0.91192094271457069254 0.9457273443600439089 0.88713497297005461384 0.79528676996357083873 -0.18706933123025404342 0.45770586478827013366 -0.84929213413675130884 1.2214346696406965798 -1.3827812340817846604 0.5223848309431159409 -1.1933909946713543437 -1.1294413320480760632 -0.52128449458033776498 0.37836913019884688136 0.042552950100480720075 0.98643432301865052736 0.080850417380913489063 0.9106054960920166863 -0.21941036782804060334 1.2109749502646096619 0.9725017477734474447 -0.48246141595803831992 0.76015530139299203327 -1.0988510667430220202 -1.1172699884968102513 0.31845195490215566503 -0.68378173566103972458 -1.2016802611342747298 0.85322791388056495876 -0.59756609193503129607 -0.12025355750298540036 0.54726975140851874535 -0.60434676196771530687 0.60906714167500175527 -1.2610353701593952636 0.88714096879467241319 0.032862836397946022793 -0.55676911024243425086 -0.44160463039292185972 1.1594512641012797438 -1.1289546777440535585;0.52048198286685076752 -0.0086757264348022427453 -0.45172288622456346907 0.4527599146573703659 0.047024335257250658715 -0.1880262697225020263 -0.14641989254075118976 -0.68063110804448012647 -0.27455325655464596357 -0.75200852911552462654 -0.60391931055248049276 -1.46729660305236842 0.31085945836720163538 0.97356626602647966529 0.56866696933922344925 -0.31346150753300394687 -0.52415530978501700954 -1.2439557375640952763 -0.012550709901523179196 -0.57296852543930387736 -0.2274656658955923616 0.21353887902092016926 0.34120901557722932429 0.48023315481471673394 -0.87278562249509084037 -1.3696878810022892203 0.26848171564095901775 -0.15633298485056823512 0.66256760297154448924 0.80209264983449568565 1.8235140379116057119 -0.93499334210378004517 0.79613641305693627626 1.9005587630869278382 0.38437935598221828482 0.15875240134932502856 -0.85245307931852953853 1.0712544904317105043 -0.51535540839173066274 0.06787528701000034026 -0.68464287297697223877 -1.3681273915578455735 -0.91832641579276685917 0.088957298515266181038 -0.53325174709040568111 1.0154477599636542173 0.53138774340338645885 -0.62783025002962511429;-0.81921489280184212056 0.13742217550577870422 -0.18717309665011239161 -0.32906562722886634198 0.62108393007574491662 -1.2041721307105863747 0.17508282718807199885 0.77154726189899680566 -1.1527627229543249143 -0.55460836237927646497 0.14308098266952157251 -0.60402903470268154429 0.77666253747139257779 -1.35883577365127306 -1.3516932650299673391 0.4225331643897969891 -0.6520413948064970322 0.17511902105756591008 0.79601367772260900324 0.39870582084494571307 0.58139785823324474645 -0.60543794972596476356 0.35472349233583283512 0.24109741238704690547 -0.59325341288145305718 0.65443588329327750941 0.30333167285854933937 0.43702138986404692744 -0.39496399123256448194 0.56430562002331030591 -0.95169042638952228153 0.14790476196974408629 0.47768254693985084947 -0.9309815335274612691 -1.1592942330631184067 0.15327720672864578177 -0.12527734006444404824 -1.8408615961260459404 -0.50758183127558786918 0.70619494524341264174 0.63149025137630687698 -0.81590577776947714739 0.96196518904942918127 0.7392931712449841708 0.39651555952874983912 -0.26360620448596422394 -0.84369357002622091812 -0.26826090903102595142;-0.56237614974594885009 -0.39318048504459585102 -0.4750970948914770009 0.60089004062469653089 0.39797494963609397756 0.53543623929795824967 -0.011509462412024676348 0.4565512077920729217 1.0638054581951972288 -0.60550749249140822794 0.61882772482880210596 1.1001673960040592171 0.61714510399445821065 1.1682400621844319932 0.79689518096203204589 1.0531365226547317882 -0.63527739672448668706 -0.99692375226903695573 -0.55803438148479123093 0.085803327718851657435 0.83327577627858862019 -0.18944073545514389378 0.42494227822799346406 -1.0382477042706446113 0.83625960361014373134 0.01324559100925467095 0.77940077848580813225 -0.13176652205059916079 0.2989458474412147182 0.072054297473266373797 -0.18735739871261997136 -0.12934570369568249015 -0.10055599116730340459 -0.5842163391450626575 1.2247186160510330488 0.29988481436931718749 -0.59890784501175653443 -1.2476734236956461555 0.79354989735429748432 -0.055101923789952461652 -0.49669967990261570945 -0.39371513245550582294 0.071756895784364130297 0.42367971629398959443 0.12573495191109027025 1.4647858413421446233 0.15698546858114650893 -1.4932490370895772358;0.92628988179507287803 -0.96785138976890749962 -0.48339719019654486809 0.29064268204992438349 1.3649665431088784384 0.046713744272250848355 0.99557794516928810324 1.0689498017018301823 1.5667200873917974668 -0.71205533551997879371 0.15504840094669161688 -0.75138214725781027337 -0.18759019425114442647 -0.31118260970875316618 -0.24237751036224355894 -0.28758804335446552791 0.86405428801798889182 0.059376394173877952709 -0.052015893516678596287 -0.65554884520885925436 1.010329164069282859 0.37101521518178770531 0.098031031777469898603 0.95788233084223506353 0.26988374573871937168 1.7532885588707349811 -0.30895081328499057749 -0.82359962402366859724 0.37755928814759542878 1.1268917652699059762 -0.94247281893015211196 -0.27913886867375908851 -0.94570694628795304304 -0.018722113571525519915 -0.14765467539400678465 0.82068976136151561285 -0.80469282676823117306 1.3943567508358183371 -0.36875642837710703725 -0.25905494873908890829 -0.037194604716512980058 -0.96913645772925249844 0.88570323495169933636 -0.78436221343005774198 0.069437273748750985569 -0.13176273461778634233 0.77172062845688038646 -0.53741205446610851304;0.38872353085657362914 0.2829224271311474026 0.53030529661807257469 0.44424853976198724892 0.90577077922535731425 1.00979184666725752 -0.55945014663228187501 -0.24451552413643964923 -0.65937812149138108619 1.6759428850673103728 -0.19504573406982930739 -1.2399437225161458187 -0.71436645296566114727 0.5344454047163483823 -0.9810031983754201601 0.69779513939300508163 1.0650691389239674844 0.53705422645649569802 -0.69844386568245808711 0.89677497952599383169 0.67689174709633326277 0.76342926697049184881 -1.2721833891326341792 -0.84525379137764855564 -0.55865774348136076899 -0.21297864029817328846 1.5405591615314413456 -0.72185921726608592852 -0.74824206804835757811 -0.77410966907477696264 -0.36952871704284873111 0.52247023510513745936 -1.1747357070850312777 -0.26701989991435126637 0.67841620285329640172 -0.85268676985248692546 -0.85503052360741238491 -0.57245792511667226155 0.87603699574691817897 0.27738205389731596107 -0.78496246319921991752 -0.47911217200312422593 -0.65413694357500062893 0.94943507567223783816 0.26841379899104528262 1.2293022179969050889 -0.25617999894846976705 -0.78014453862534771655;-0.88223085282111957106 0.23744396546798418601 0.839892320901896694 0.78114301490921966842 -1.2068131710299403458 0.64313102403479371905 0.34554261591005197563 -0.66191263731422822492 1.1964835964712381422 -0.080052092850972034199 0.71169319464183122825 -0.30651304873660351058 0.083870010428695351834 -1.0836601707067454736 0.62365089964385878041 0.64460416975472367707 -0.13630243071715389402 0.80876267045658689625 1.0880594097029143708 -0.81846639271486798517 0.91154274169478188838 -0.52066420518997236222 -0.14448165631829718025 -0.046677888738075913599 0.66007052660904297348 1.5018554745864951538 -1.4909334459514134164 -0.32035300701330599038 0.25912102170770873188 -0.72421955423567818677 0.67598236801465638734 0.15621569381242972341 0.89062877107750004768 0.54382255553850222807 0.92370870406286564869 -0.36862291878011194113 -0.12284375165980709887 2.0436172887309460577 -0.080538271733721841783 0.15637006697730787552 0.57977176001391295124 0.04530679251477182784 0.025300745577035849143 -0.97563889599921782558 -0.31178911890866795042 0.19770323381217683179 -0.78143350065348693434 1.0094693886321794984];
  
  % ===== SIMULATION ========
  
  % Dimensions
  Q = size(x1,2); % samples
  
  % Input 1
  xp1 = mapminmax_apply(x1,x1_step1_gain,x1_step1_xoffset,x1_step1_ymin);
  
  % Layer 1
  a1 = tansig_apply(repmat(b1,1,Q) + IW1_1*xp1);
  
  % Layer 2
  a2 = softmax_apply(repmat(b2,1,Q) + LW2_1*a1);
  
  % Output 1
  y1 = a2;
end

% ===== MODULE FUNCTIONS ========

% Map Minimum and Maximum Input Processing Function
function y = mapminmax_apply(x,settings_gain,settings_xoffset,settings_ymin)
  y = bsxfun(@minus,x,settings_xoffset);
  y = bsxfun(@times,y,settings_gain);
  y = bsxfun(@plus,y,settings_ymin);
end

% Competitive Soft Transfer Function
function a = softmax_apply(n)
  nmax = max(n,[],1);
  n = bsxfun(@minus,n,nmax);
  numer = exp(n);
  denom = sum(numer,1); 
  denom(denom == 0) = 1;
  a = bsxfun(@rdivide,numer,denom);
end

% Sigmoid Symmetric Transfer Function
function a = tansig_apply(n)
  a = 2 ./ (1 + exp(-2*n)) - 1;
end
