function [y1] = myNeuralNetworkFunction_sai_allcolors7(x1)
%MYNEURALNETWORKFUNCTION neural network simulation function.
%
% Generated by Neural Network Toolbox function genFunction, 02-Dec-2015 23:02:07.
% 
% [y1] = myNeuralNetworkFunction(x1) takes these arguments:
%   x = 64xQ matrix, input #1
% and returns:
%   y = 11xQ matrix, output #1
% where Q is the number of samples.

%#ok<*RPMT0>

  % ===== NEURAL NETWORK CONSTANTS =====
  
  % Input 1
  x1_step1_xoffset = [9.82802513371268e-06;2.55621218795009e-05;1.20137661873645e-05;1.33195362068705e-05;5.63163177176424e-06;1.2450823732265e-05;9.65859715457853e-06;2.15780790610835e-05;1.21001658119507e-05;1.60159078391269e-05;1.01904632313061e-05;1.14984413803954e-05;1.34073472637692e-05;1.81279237988049e-05;1.65559785872251e-05;8.70193170808251e-06;6.1612434593233e-06;1.11217019711591e-05;1.31192205131815e-05;5.58857688998552e-06;1.05912392122613e-05;3.20322407294212e-06;1.34768186216427e-05;2.43852000069398e-05;3.55207487488423e-06;2.50882527430845e-06;7.16222204132565e-06;1.59433262394555e-05;8.04982154701494e-06;1.67570472794596e-05;8.39652737180383e-06;4.69032881047239e-07;0.00044928972021305;0.00234930514124845;0.00377060648168395;0.00128481438509703;0.00050589458682787;0.000787242372706315;0.000202977077752684;0.000270464143579427;6.57466883221746e-05;0.000195519132033205;5.0627369637662e-05;0.000212337438714419;0.000144645337591042;0.000117918446630909;2.8188744098288e-05;4.54294625762162e-05;9.61637661397719e-05;8.51496079428836e-05;7.76361469789333e-05;3.7767074282475e-05;5.04768220742507e-06;8.67024847521331e-06;2.57896087752831e-05;2.37779128575768e-05;1.97625079760266e-05;3.72577359366498e-06;2.07450200183778e-05;4.37384833502162e-05;2.16518453929826e-05;1.52307410907513e-05;3.34109462942768e-05;3.11145826319242e-05];
  x1_step1_gain = [216.645769083766;192.437124849582;260.564667422863;243.48687209568;241.060748357943;166.58434852192;315.689805368812;404.665890314847;439.855310317126;353.358313151771;339.655961956529;367.928589226913;440.446269142546;390.605209501508;404.468816708557;462.148672392001;541.804799430982;455.867537592965;605.69552513565;661.190806031814;436.280883589528;509.207444901567;428.519268522822;597.026240552544;513.830258045861;523.743224215175;461.537594300617;571.062577355861;643.336683589446;497.10467445834;503.487288220062;459.571025565025;11.1697006761834;5.77141184719286;8.3656709943879;8.12629273402039;11.9198976953977;10.7688974788802;13.8990241566094;10.4191479646403;17.0394120789357;13.3610968971866;15.7989245123582;13.5277343593934;24.0408240338051;26.2929535668166;54.4842386954499;57.7202416057211;73.3809188799033;107.973180072143;98.7682982389236;92.3665489118597;157.798332623495;104.585949420557;92.5206175000854;94.4585668471026;136.16662465883;108.553051643698;180.806801679717;96.6821636261027;171.982775716226;137.868350153416;240.574752868418;153.026933433112];
  x1_step1_ymin = -1;
  
  % Layer 1
  b1 = [-1.5313364245751905912;-1.375981535964294622;1.3187357065190989935;1.309394339444019062;1.0896895471643686104;-1.0656352037511662711;-0.99065883016274303152;-1.0133843012457623978;1.1066457149863873077;-1.0173430033748716017;-0.72269130932180192239;0.48960847179408678587;0.31772771792734233465;0.77356301531099957991;-0.69356511000226428454;0.6788479022932848439;-0.53100262613651560972;0.64672745330213221582;-0.21489214615778079454;0.21447534426401487773;-0.25502763409278533802;-0.048940923875564826262;-0.013294955258079143787;-0.074647257587008547519;-0.052878119296518470704;0.11473716389136470739;0.13584448429199921793;-0.41172588936051401909;0.35363341059616848483;-0.60100969040112062203;0.49206674467025141029;-0.94931273310685237998;0.65679177785914355514;-0.63524064650603362381;-0.63896099081461976699;-0.49166457896314108567;0.63694398970692234219;-0.79505306147471810352;-0.66067127632423250372;0.95556192539603701519;1.1386038305692713912;1.1257733389842674576;0.9927581327805362621;-0.97036727236206876679;1.4091161427902856307;1.4724559398265557597;-1.5190722503929103837;1.4829546557625443715];
  IW1_1 = [0.061469538538087530044 -0.31628089549773563682 0.024514493582972640695 0.12650404657009220455 -0.078578089807283660329 0.052631449490253848222 -0.40631152497581352057 -0.08052460767942680453 -0.28844093658093816757 -0.30225581809237295206 -0.050997966218485728251 0.37343269818039165342 -0.24336916504605984879 0.096098900179009183464 -0.12138765505138317258 -0.16192239786187026529 0.00843576462716414191 -0.18994822416688655897 -0.036508328606706129393 0.26247351011156394573 0.28891615532275960465 0.59143386664550168241 -0.13886396097941333672 -0.15733857161993369811 -0.30677191343898913001 -0.063141478119519020562 0.13716769989911656302 0.1338659942293745353 -0.092891823771702825008 -0.23180240301832341632 -0.047954903086265224244 -0.14731700518394233446 -0.30835664316543942576 -0.30351509507695273449 -0.22948672257070135139 -1.9001204144994294776 1.1963636660517718013 -0.42648171977648829944 -0.3178903161688223511 0.047130968244273679923 -0.022916022528357549853 0.0060199371751647615461 -0.013604982967654936921 0.11584117189798770475 0.32706587354776933685 0.1287679530241092607 0.13248456605361519367 -0.1929187074007341629 0.0034350270142636972134 -0.22189235688435771099 -0.38030277481122926053 0.062867961258215199205 -0.30108633326013672926 0.32170838275252777727 0.33812835984851108417 0.41543154924805053563 -0.36471615308450439086 -0.32763674190905622829 0.48172057553958408382 0.19811386177221290694 0.12664463410931953158 0.17546482151103329206 0.20384641639037140437 -0.02317641028355412261;0.084449404979487288636 -0.33171886985261322955 -0.21301943082429788956 0.080543295731543326776 -0.28365394872124716219 -0.045974614280462899885 -0.0080342145906544745748 0.037063803681336014717 -0.046629107680965085903 0.030903382449067266086 0.11839898777847858435 0.24334025523351057729 0.15981233022231799978 0.11051450110898745904 -0.066545941551926141022 0.16178449284124885033 -0.235941659602913828 -0.40198306778298292796 0.25135950250249183835 -0.17409995619657073207 -0.29633595177963373279 -0.37920265980086353963 0.077824802491720940223 -0.026479008211405401924 0.12844121008479342239 0.038378428501339177659 0.19156386554134069433 0.020291305839288373974 0.1780918276233666997 -0.25841306997467466955 0.22039351581746013942 -0.096847175705892352138 -0.17632878943701721375 0.19110081762862451971 -0.29402023515235198303 -0.26660479145536364332 0.039338483161212439709 0.20265301972527702268 0.27230710054012013943 -0.14959149250069539439 0.30049042112066182142 0.30891782372078746555 0.10391525854254941852 -0.23118445429343947861 0.087591774331294988687 0.20231556379228529674 0.0039109483475582547743 -0.19906936779495196244 0.023162302551921601368 -0.029770888029275209552 0.1773476543942468231 0.22860873154300864751 -0.11643991715128804154 0.080901908678023007337 -0.23661973504216793351 -0.078564952682309618925 0.26761645244826559598 -0.22803290781452384417 0.35151212501852158177 0.020811807063832458292 -0.058720686924756640424 0.07976155319035380109 -0.346706692444632536 -0.30498105006873760248;-0.11404049905939306342 0.0016221117836064770975 0.049949413009755930237 0.083193551345348906723 -0.18893692188601421411 0.21108690795667359175 -0.45986104094359309125 -0.073105758079091767709 -0.10748820986945568923 0.1090809003259990001 0.19047527319289597747 -0.041726586396150955327 0.24627092839475250852 0.062419340324742195181 0.064056473881733952402 0.30501700875373893851 0.075406843867844255969 0.083807937395633580469 -0.074554127281819912443 0.22371127067194601645 0.16018909538291958849 0.25488236730475483105 0.28588299044109655167 0.20290773544936691053 -0.238261636184973008 0.19540903095637465747 -0.099912818017266771808 -0.0034519447869024891089 -0.1709036973097246559 0.20919071453952606254 -0.087906055029090907071 -0.26480130848521532538 0.066180257584526683279 0.51261918809482764914 0.44705180611036554605 0.59918807182850375437 0.15076758221800912185 0.29140958446846115804 -0.081002972890894406333 -0.023359028722782247678 0.13899225690524905086 -0.010134751480402883275 0.34375178201667400124 -0.05031182372230705302 0.22462956158086042069 -0.21140358785122859153 -0.43971654852087332932 -0.41008384467231984161 -0.13819216016507737677 -0.13104167779748515654 -0.21458532139016830986 -0.4050728211328256112 0.025586517085463632293 0.2173619733496591766 0.21596581674573503418 0.071829120624185810451 0.073681493572229722622 -0.053082617420066598168 -0.2303588134361430062 -0.067498453965059740378 -0.25360680612809860524 0.037547435668918743845 0.4052118032482924237 -0.071475430673766396361;-0.18179804384459799516 0.027258328209883192494 0.098912754075595660241 -0.19151825701864697016 -0.056807226528238753682 0.080850567991900865183 0.47458105427788987996 -0.029289951367690938294 0.35288769547360443468 0.25375999056656362018 0.29103597990351032232 0.17413953011630564638 -0.07109166562436809722 -0.13019969306066789261 0.17487767521473285282 -0.0081005693384559283865 0.17749316245737595255 -0.27160303102123672936 -0.036584277505661198793 0.024531176989555189549 -0.033846889244982532319 -0.42477818040865950033 -0.12317762313112036454 0.31033551378304141677 -0.0011624050375991031199 0.093805159016269235028 0.063131359070403320066 -0.25783442698712460972 -0.025504732866653941764 -0.50037676302148348384 -0.078500649980727366106 -0.49174779389274508867 -0.84301019785188824329 0.82992444507340934479 -0.28764172479673866256 -0.83742620998739480953 -0.27269452724138004696 -0.15020706456948546004 -0.71651958257377668104 0.15125648659587759282 -0.37249710813324632408 0.076993629987646264312 0.1192090583380436275 0.036904202058553985111 0.04171803347960615499 0.13073506930333603226 0.60273450349374735335 0.34128997469400601528 0.04552275097110250468 -0.086588203469721319872 -0.0495925703904123924 0.14874741333709906588 -0.097458110056236613161 0.15063081555954041524 0.18190022156398397146 0.35871209420612604202 0.031897347321802438369 0.31911735065397889288 0.31236202019390879592 0.25666982245018599151 0.26291069109431824957 0.31121806580409228093 -0.0097905010153692805658 0.034793370042951854426;-0.087968370160835487881 0.20909468076389689517 -0.11052334279641312653 0.33124355526364940294 -0.018638788258606861503 0.15131139393200326859 -0.070160267027175704513 0.074908195889954426461 -0.13272373426772091087 -0.00056390298016736049337 0.38702616589233229671 0.10849440124255264883 -0.11997582451388782987 0.53272302600750953694 0.37744699936630443649 -0.18661854263988286728 0.17940966103615096916 -0.018693299614442607931 -0.18726104018381289906 0.11927529386764373909 0.017840125822988790044 0.24009572263666434377 -0.32660382083723171753 0.13123665065324996437 0.010659983628769105837 0.13078693774888097701 0.33325669587396894444 -0.012455915578896980395 0.24925250039963109394 0.21153987452229200406 0.10859138623809924673 0.26745059099120138679 -0.11417417901186553697 -0.10141129859261244217 0.13826271914629109649 -0.047465341205324911023 0.15237388951580896346 -0.10877269683213551532 -0.019547664700634386631 0.44175777295191859251 -0.064260537540450010652 0.53320500167772932887 -0.062811863372762358204 -0.19327678307545198555 0.12717261220838010916 0.19662058622164052535 0.067680241436600702132 0.21930869165836244794 0.28552958949055023963 -0.083630268446611796818 0.19813138076934871945 0.11466570501811250427 -0.029266130931767320861 -0.38614461232198682428 0.06365400369008573922 0.24611096889187725201 0.18516776622360717197 0.029602734607363154901 0.54249625324709971341 0.11019697200757022637 0.14059138190817696557 0.058996822903171534935 0.0257181052987310102 0.21154257474397808458;0.12470560852089514203 -0.25788883972997239669 -0.14360100749665885567 0.026783818270204325096 -0.035749665912911295085 0.17787130276659393613 -0.35817752750883324886 -0.070182650363420556738 0.12802839790313341739 -0.039860846687082958362 0.27759505933111644493 0.25553421272399423625 0.14504302636909952029 -0.31338787786982874595 -0.25208681305435498565 0.1344928364317295455 -0.35248724621749527586 0.058024318062353100189 -0.12345638465402800077 -0.37031478983706506147 -0.22290598256065907723 0.10514385941877607555 0.32776486893379419563 0.094953876618426608092 0.25834726063114943351 -0.32247511776646375914 0.29004916181407180975 0.12148806217360870463 -0.18730634671490342669 -0.28004146669768820166 -0.10960919991557918629 -0.072761472246423181121 0.4201342254148142108 -0.56857436804586392043 0.82866073947454743642 0.46049221293847436565 0.20864308862927213872 0.5119516094270990525 0.31448629175568099114 0.080912971063333824495 0.3832565105016634277 -0.046982645899087988051 0.063003573768237911001 0.12850141682875534932 -0.16748917481091141202 0.2916538782426926768 0.10561097721755988155 0.11309330227063596475 -0.015672947839055872965 0.28090985767288156882 -0.11503307033362378253 -0.030446113246509132894 0.15431008929932479856 0.16147142134824873927 -0.12669684640189893265 0.089270012369135939845 -0.34514089034009332035 0.13903613787956825565 -0.088623319302534669939 -0.28690097769256783788 -0.32274116534462160555 0.063287962660808272375 -0.045573127026150107854 -0.22317962445911784797;0.15701705053029241244 0.021846412584186583605 -0.18038993256895460848 -0.10357273280144774219 -0.29676244706892446201 0.14833032784958732897 -0.10349858997183077058 0.12281823729767329945 0.054161668780471079743 -0.023143235268428249962 -0.23611335197715455081 0.064540713195104973399 -0.32935255753080416863 -0.32849939213496009982 -0.28301859329807321775 -0.13333364062509098225 -0.11200420483357863277 -0.38183941716709435266 -0.26377809971247323517 0.15019905846531281246 -0.36624571258542798491 -0.078218466427415048181 0.16972307381005546922 -0.15272265067024379248 -0.012813625123703322253 0.19045023022854085104 0.092048682015317268013 0.26989875723323125678 0.019680306829234751886 0.050200541931539797991 -0.20030523435641570118 0.22290162817994191302 0.16230842888967250692 0.29961895756293588367 0.045744615774258111374 -0.097054477814816186854 0.13302502639442376209 0.19092154364216679108 -0.16535169751820766315 0.067659413072361132557 -0.030451854611935273709 -0.32851405427821350758 0.30748328750561670919 0.3145543821026831055 -0.25734553385156494487 0.079283369356839841768 -0.01193078499204484888 0.11181815927507131325 0.30249069906542225272 0.12054896790583499722 0.23289551751202255958 0.150892627136067492 -0.039234746551710830698 -0.22378429186972867426 -0.012956086135272125437 0.16605311364832128773 -0.071754999301115326982 0.050350071593832736172 0.17826022400968929982 0.2100061385390251667 0.23729691745583861295 -0.31293355542711509543 -0.021827350289473558542 -0.081814023806516894544;0.053550230717806748815 -0.10742333753378835448 -0.29224454164625107699 -0.063685369628994473179 -0.10834125125292853875 0.080584507865372523305 -0.22516832159676050673 0.41223347510260077708 0.27329707471706760069 0.063001216612884408663 -0.34932909165397607598 -0.20563844422253033106 0.032374315607926626437 -0.29482587008172989052 -0.14771128955122048154 -0.15948018128292404394 -0.13967210318407180525 -0.10911498521323714783 0.17414611601720428324 0.14656573806771272528 0.025395080879531257284 0.34977775791370296909 0.14048512617342706621 0.28837625015520540472 0.019787976211758415146 0.16175925516975145357 -0.21115548131947181609 0.17584161781042936812 0.038155301392633560187 -0.088769468903353673794 0.044012082829619922353 0.16701048546247959647 -0.28836870700544009471 -0.25410978835826986133 0.29430102182551914902 -0.056202961090560374369 0.55859250573524243944 0.16260463938489691516 0.29028265776757644634 0.020532676596777686001 0.097238612811323926755 -0.37428573706387319175 0.071196288465063914397 0.1841563787900998006 -0.22411324497996715222 -0.38851137181125722231 -0.036660786939501179005 -0.00078216769508492565988 -0.24580274822599262885 -0.16777603476567296004 0.041018175063792426671 -0.12648826362805853929 -0.14822733080030914277 0.20485415181858546152 -0.12126328194717618525 0.24712707558838839517 0.045275228833699637798 -0.13206690103507082168 -0.34597592643004504431 0.31141032969514964579 0.17809771976391489123 0.13677723830631607904 -0.20655979640736985004 0.12562688741747879417;-0.24273544142450106942 -0.27177680339269766341 -0.040147855393802861501 0.041243423659894244693 0.17167830172452716586 -0.18999513447862628746 0.10327711300818177842 0.069317540155046014627 -0.062796572488632185216 0.041921527156726832997 0.0090707688805284087535 0.22069104721815127612 0.017591546765289931692 -0.20799569599198899916 -0.16803624308429682133 0.11156249515113667026 0.19733402573081859632 0.342038881706390685 0.27004486126911797506 -0.13111499944355228808 -0.21438523835020564801 0.17166409966940426868 -0.34675761865050902522 -0.13278689059751236368 0.20201135436057579553 -0.17003372457807588991 0.11159911591742477377 -0.18993970568277163125 0.094109928736804571159 -0.0042648789983834207995 0.29852724761381549401 -0.26697511306972693257 -0.20691124677160538381 -0.85256777827640617407 0.26135604258269190536 0.14389224223775190503 0.3234646699320952723 -0.067492062706159733354 0.48696528928967613981 0.29574153232658417778 0.30700755835906773372 -0.18882033468988490554 0.1743158513008241095 0.043492519632774097327 -0.31034301877755271493 -0.25595388451964318222 0.25284585762116190688 0.080942725397465650761 -0.20909027002595631517 -0.12487753226895902114 0.57256827995707360035 0.055787008001974579263 0.18955052052049400912 0.11454062501318527934 -0.58130468615415009648 0.066147250312655891946 0.1525650021102944176 0.088548648780423150351 0.35180005955647114524 -0.36954789434857948649 0.19887714058831959529 0.058411622600516729942 -0.19010374823280018486 0.092202745325932894405;0.2139450112779738844 -0.044365095472219014117 -0.22513564201300076406 -0.12436102704863437329 -0.2759286469047689816 -0.096301275948072709299 -0.080283539481375426616 -0.085154578141269476887 0.18326427342818843447 0.32734530195206590353 -0.24815802638088219068 0.32930032956487426121 0.15646415330470186955 0.0048737310862125753433 0.037465199655136283141 -0.30221291565531172019 0.089412058400502869571 0.15544827647962683459 -0.1381324675336443597 0.044227620690239707879 0.13060175618967453937 0.022302883691232119195 -0.016286841026756981865 0.18338585711201835227 -0.1187489854676929274 0.032860912280164994437 -0.20474723137800038275 0.14951881264957667117 0.28363170751805172332 0.12590560835263012174 -0.011164421048422874111 0.18022517954650021932 -0.10983482715599840462 -0.15889115964394501246 0.17393706053005525414 0.30504872930373272411 -0.038339401946647394537 -0.11314707510693343406 0.32495575887791161573 0.18807605932181292729 0.24401262897679590336 -0.19529228170282639243 -0.052876617028550405852 -0.10172655974477413932 0.12434701625415356396 0.17544818231447850687 0.097047983293167078278 0.18796544360110362115 -0.074754663200943136103 0.24227994946001968346 0.0021040649936083250654 0.16840032837323626325 -0.084506755137155109558 -0.17467434147304863878 -0.19018773090656088121 0.38154706832307910824 0.038234787945421511157 0.28432973549941958913 0.2184078780252642904 -0.10379863189774811427 0.22502057239316142212 0.25633873746258650783 0.2443353177559698941 -0.080764152954897180936;0.19727430445834115424 -0.098104946058685638111 -0.13251787619197424872 0.064102951255950973986 0.41522425953278457866 0.39039388114699041799 0.40398494094951209465 0.19775837245239857864 0.066457545857175670534 -0.27811525206420945056 -0.088949765622470838844 -0.046297118583551982729 0.16853279339147514415 -0.097287148494734354554 -0.25996972578520061159 -0.20965870179052345512 0.1390267917947626275 -0.28528125581123914278 0.18103998885515604211 -0.060383286993172538559 -0.12965491539308546254 -0.18295658698904412875 0.10199540731915170133 -0.032853298006068669401 -0.10193357056557590667 0.16129580010469360407 -0.13396229180551480487 -0.029039132523739120267 -0.15177993604038531039 -0.29691301888771265416 -0.37630642535948594096 0.045062416002511415658 -0.31245236431631462359 0.18755936407045020742 -0.69811236939919973921 0.086689996708889216492 0.53618667759699190078 -0.41500820468370036576 -0.2812620369222477712 0.18185143614259402511 -0.091571303909023918366 -0.19718341044431250686 0.38015414753602944087 -0.052389963113837978437 0.17341603846727188243 0.16332818706745041992 -0.27863040659632171137 -0.27878907179226158908 0.085466765838607544614 0.25631116291525740669 -0.21341057507762353773 0.0031316642123377994023 -0.23989737770566835207 0.52708755719581856791 0.064323137680892122914 0.31182680101350945812 -0.20663326122303760091 0.078112844343534881819 0.11104228278953247322 0.11358470789953810376 -0.23918316469790376622 -0.36718013689232220642 -0.092866028098814695779 0.13968806224649221726;-0.41650394723430617105 -0.00078570597058342953132 0.0058515633624139640201 0.14129342356037208339 0.25003003112042304634 -0.19584705330880664009 0.2777350959736586411 -0.11841038991394128854 0.31173992420086260591 0.27924586425727482286 0.045950432254202373816 0.44291042730568636054 0.085910733783367471128 -0.13388359691588086475 -0.070416905003536603425 0.10193806087055892751 -0.26378985288170109236 -0.14675984029266675446 -0.047494085789184459223 0.020103702829954696318 0.27757962705230493361 0.051910903727030228982 0.29487255301492937276 0.20682324848951508245 0.17212947155552585365 0.15301015870081999259 0.017801054146645099024 -0.1998419922538186011 0.059215577703004868004 0.16878783286066753599 -0.15923115026519929494 0.1016213459051515805 -0.27027486427188440743 -0.48186915224435894478 -0.18151700563355532836 0.97662757674983713407 0.39059120406771452583 -0.77308529329284103593 -0.96942958628769182461 0.45558806483727520842 -0.44321593945015291816 0.11281912694429710453 0.2662906665169738063 -0.17623867225396322445 0.24779925331115787435 -0.1102730028019685421 -0.02405488663400627905 -0.54996282726177148081 -0.37846438285227490539 -0.27352022654512769817 -0.40764672072319380058 -0.31438225106231237893 -0.37275094365800398588 -0.18895103828131307178 0.24334754667646185666 0.6910770079929394738 0.17414547217748135854 0.41388546380844176698 0.014424177922925548317 -0.12986182273228305539 0.033164700083044534873 0.077291666079299908843 -0.45043255189086495172 -0.29463386733870627898;-0.013581255702250686832 -0.029093439794477794769 -0.071620987669471253279 0.25384411253758976112 -0.024470507524221970369 0.22520049143700049399 -0.15740535909113184676 0.16925473479227645668 0.13324117519416042721 0.067945847124965180752 0.30520416171810060835 0.090819442396068358891 0.25097866773004018359 0.33816598086772897691 -0.22019285055350629188 -0.00064873735512137092798 -0.21658635150886584864 -0.27250279567789487123 0.1313884802860401102 0.052924286485149824033 0.18694953323668916934 -0.019304947298371084169 0.038504145972039140189 -0.094521855877544705415 -0.075670103859104387301 0.33355151496570045744 0.31290476660146793186 0.0031279099126722805305 0.39042890386002448988 0.36175566514447365929 0.10641681489591549303 0.32055898726621068207 0.021739819371608501419 -1.4458501423741256797 -0.89244511856797426042 -0.014597142464621497976 -0.4687903297262276392 -0.65514653683964030328 -0.72133006044774561349 -0.46944952860651195659 0.2193899542915306311 -0.027078343383040066189 0.48246348395687799204 0.28156075483567516438 0.56873001182128746223 -0.15401280198460498561 -0.87427060095319952815 -0.41457893378056448475 0.024131381865002413806 0.07046544231051475593 -0.65498416819693949797 -0.16696563963617863657 0.14765937303956069848 0.14092277058746582874 0.4052549113750379961 0.18005311313012314911 -0.021889287509518056546 -0.020704904603583578621 -0.23747789887312897861 0.27516007321987207002 0.10465739365124628046 -0.18466947763915297909 -0.12040017587388865405 -0.066893354669458365835;-0.045339692829272144892 -0.057978463162962935729 -0.32323912781609309697 0.11025075569463051173 -0.032411879229451254214 -0.24900050752341529314 0.11466357564292335713 0.15603587500345775241 -0.2835564718434108733 -0.35686290987170321554 -0.047451718406306984954 -0.27953349062180327111 -0.01916461296945471543 0.097801940525358704859 0.18875492302428653613 -0.0048106251597179227122 -0.30638374381094479748 -0.36609223064518686686 0.14204584151186785967 -0.092693420184650168747 -0.015776608708785357787 -0.3493248451519914699 -0.24159049937595938884 0.041568506213193488763 0.19535462889398602648 -0.067136842892823567208 0.117812103037664484 0.11514268691367296471 0.034603117902060283317 -0.34243281805910558147 -0.21295644812789610301 -0.28334755340482392638 0.10396892303536094115 -0.10258043443260184135 -0.28518601235067370103 -0.25888106398635052363 -0.040942227336238784519 -0.040388230408106740033 -0.051494224336170804635 -0.22381869938149304144 -0.088443162329021898782 0.21091119806820551874 -0.24983845415555278047 0.17243158295348798292 -0.31715006794162414749 0.20764617399239906903 -0.18417959164409933304 0.22631497155272678468 0.077397302389822536517 -0.094488903918366493051 0.14559289743668177297 -0.16423560260470096428 -0.050619086352005113194 0.17739579993299853244 -0.11574083702305293375 -0.095815850832712254337 -0.20016051104479898326 -0.16095064613916712504 0.14810648685105687328 0.13796215946065229496 0.24990745007340514627 0.04797728473683268019 -0.082608676530997168785 -0.36112025478134585077;0.20543785942928174948 -0.38331526476007643511 0.27406364894823376233 0.1032922735995942809 -0.22320072810547647579 0.35790974477552339739 -0.35765525133172626493 -0.12047317552992339862 -0.16932213912304919234 0.14657350173111222125 -0.051731357898743779433 0.054843331812150862559 -0.021502416704380297036 0.35695018484247437174 0.15568122576393492174 0.18739150850310171137 0.16185481863750786347 0.10127798713723638879 0.22227163470904806597 -0.10020069117662980251 -0.15133474816637990101 0.18016622219330663546 0.082860113962454462477 -0.083553883283752489186 -0.43464552395818117914 0.14963627186444206085 -0.097907861097325854516 -0.049950031781721637714 0.28650311958164564885 -0.13713285494067500858 0.24533031074070060784 0.30328235668283953785 0.1651816816521343434 -1.498788857823249776 -0.98894727668560322709 -0.81285231255160583785 1.3037069124300240119 -0.83163334483768991401 -0.12933725274958479678 0.28767968312289748933 -0.24148747935073458515 -0.39290208395514431006 -0.077531702478486869134 -0.12604375208322415869 -0.002798962256360787524 0.062478784694055530813 0.19649729455078523976 0.34777838545382061541 -0.63583320275211585582 -0.085160907366720051126 0.033482278306121313061 -0.14446658140051937824 0.075695860697512329374 -0.40988587810863613692 -0.074699444083351107526 0.0021880096082005284427 -0.14046560673105917827 -0.31238925679170470584 -0.19752294095749711733 0.13348245769246258607 0.29924317790241561354 -0.057038251927722910528 -0.36548780670870101295 -0.15135550380930273828;0.05725875370606546555 0.077739565686632441932 0.18378336888890203782 -0.094897823392784644292 -0.1551345461528272629 0.11386669785396713594 -0.03575295014881799821 -0.43199370888699389903 -0.27946788014983237058 -0.026890396835876056308 0.10713723115372962569 -0.20930160524004387534 0.17224202028950383325 -0.28020689547343247128 -0.22933461433829793741 0.13199625031741324399 -0.026756181997294379432 -0.16408849577885911697 -0.037248171060304181845 0.051661674215474330529 0.003188772029701967322 -0.058068505490836266891 -0.1295827173854469383 -0.28628448309645215808 0.073553011247927402305 -0.021351994965192855336 0.046649660870927929512 -0.11080116581531603004 0.22815003959688631707 -0.14920162615875370848 -0.061094268456148785595 -0.26249324205298646406 0.97383977251990261337 -0.796544307372187399 -0.86125692376984930299 -0.67961193301032929437 -0.15528084259100735642 0.85201679539745467373 0.087561095400745095341 -0.19913804282187977379 -0.07419828748251854067 0.63982506536143102238 0.15191038988067637194 0.36496755578296785627 0.56643998373510395794 0.68587197426053569949 -0.033689348007385336303 -0.19418417896930831312 0.24580480061092122024 -0.074793222582527754683 -0.22168538268090406951 0.23055345419768846771 0.20014938190550779495 -0.08241212744612218255 0.14256374227188420289 0.15562837883176172671 -0.14790783005263238858 0.22939226842373511284 0.15858383193673930567 -0.36621483722193570731 0.083140087407335500069 -0.26200770877201717823 0.48858993547455104034 0.082924972116035181036;-0.1129156723616298319 -0.1223500740604898801 -0.0071623696509951683895 0.18366340327698962853 0.20822299250853748553 -0.08443559744466373751 0.016487763177386264429 -0.011225102526410912079 -0.1263715532384424578 -0.049528154246373204406 0.084846613095480916122 0.12566147952300468771 -0.16588526503868147866 0.17135842690780850317 0.28630736033202308644 -0.0031494315662360609226 -0.038956520349085484167 0.020603090958675924355 -0.11119958625248010931 -0.29692391265418777158 -0.076131184782719144022 0.091488200271616332282 0.13418504190914942731 0.290829318773875245 0.062086057234683723893 -0.15795111665379810151 0.059142903559979496941 -0.16654703539081172625 -0.023376031666335492232 -0.17468439821083167618 0.069979116557662909837 0.16366574874028716469 -0.4686908531067903172 -0.97527504672584719447 0.38037516600573306746 -0.24036224841653472395 -0.65555498400160328032 0.60489321846682153616 0.51839916320030887675 -0.70369861790132293144 -0.30637469608750295125 -0.3831220756732098276 -0.17189400696844001071 -0.0076808255335666982683 0.20238960171016451284 -0.20275633246385915687 -0.17575951481559132228 0.068862302729704297222 -0.19288826712191714519 -0.23792614958880450859 -0.11187357119001578587 0.12182037526706566977 0.07169115219789187754 0.097588813971290905291 -0.036414153402248322644 -0.19240890362259244206 0.46567620827884625978 -0.058529257391668768062 0.20036251950795105903 -0.28336445206118088258 -0.13058894347924859813 0.16778125960826084651 -0.18303614660847222773 -0.22529809882444346014;-0.26978561179551230342 0.045856327310349040416 -0.13504468251068715845 -0.072112372069217695048 0.0055855633651116813262 -0.13174548760811691239 0.02225991832707132842 -0.29601830617938085233 0.14007317656049095289 -0.11646974131695492227 -0.074661541355882932169 0.25106375615533255141 -0.38718547296859240348 0.29040931136922176758 -0.20436554274863386049 -0.21910582732304736964 0.070408249846950377027 0.0083414153193714594275 -0.018528871397400309418 0.37497681324792137003 0.17998218396561407872 -0.062804950997528724566 -0.18846468943473770885 0.35639398618522344364 0.062018923086447297344 0.21672598308237994713 0.26978602004476121001 -0.11414466569406371554 0.02010620383718853682 0.016611122482375957621 -0.11380538646701342242 0.16579260768375289614 0.35451059440722293425 -0.4971372314289076999 1.7213868236400120537 -0.35889671788601351654 0.5682122910749632938 -0.037167552209056299584 0.52863931889104753825 -0.080346537798211020709 0.17782291279682205243 0.23196315625774951985 0.24125485452365943995 -0.22108131941837483314 0.13603961516137871857 -0.12713734105807666941 -0.18657850244065779521 0.16633502663783761299 -0.27974279480377395313 0.40830756474923401989 0.28712377597867116963 0.16201273464647553135 0.20095226038988370232 -0.060642724116203444717 -0.31380121558144002947 -0.2382521865972284103 0.021503227240016017235 0.053781604965629781212 0.029634242509099663343 0.23222750319886933945 0.023948373127168017666 -0.17355644563969624405 -0.20237836773366052467 -0.19587233165247514011;0.27574562098593069503 0.24723790551713334396 -0.12778762557672984634 -0.069466593108925930866 0.019845966561550500151 -0.39275413494322164443 -0.19340732005453054043 0.086192167220473681066 -0.13651053890187761497 0.17397124459011067965 -0.082606761637641148988 0.22700224909041064048 0.20888967795063762001 0.20414123355167243523 0.19677120579023796298 0.10029685204236581109 -0.23277867049656053577 -0.095911902227381537478 -0.045464697997100851634 0.065097251835941977172 -0.12963600934731420167 0.031550921208854970645 -0.073511791323487382654 0.045376510961929815424 -0.022401857493398125154 -0.00028225837374572649956 0.36852235323827264857 0.051808581317502752639 -0.19472241469278933623 0.22350326385356875103 -0.14141501062650596587 0.21366936839905528722 0.1240246421042899283 0.17126703091491257691 0.40115846030729040983 0.08919479452196622804 -0.027689636936856533433 -0.40955342942135952722 0.039637029639725332442 -0.32888349770622266055 0.45742763023922961008 0.32585983840754828567 0.12543995180332284667 0.37951677483644763456 -0.18703222528551594062 -0.063531572719787654524 0.1302822386694248713 -0.31269702561112822092 -0.31968985248369585772 0.18614607626486956438 -0.028877852706256708359 0.10022457376263074758 -0.31904349253332903169 0.32658463582202601483 -0.013494413922468849812 -0.16816231602101325282 -0.43700431862557781448 -0.097757827623394633054 -0.27772992584477512734 0.13995612540272528435 -0.057414911251322642283 -0.16148907856025473961 0.16240097188552515828 -0.15102770020984562782;-0.0249996621538497929 0.18071816416692462748 0.19388720218924357375 0.16456238721913954426 -0.17458390120334571494 0.14718761105420022361 0.4214708440204087414 0.088406829267486261581 0.036752383876373743987 -0.098951930786452285682 -0.23097845177836073827 -0.24566707316629310398 0.19248215456719550143 0.25526506989112496271 0.077333541700486133075 -0.10466554383891477076 0.0050886790359842091341 -0.10985960519442883321 -0.033001996122264308509 0.25207814716501997232 -0.11691732164610416089 0.1249432794778749245 0.34744566225255912872 0.033662562695009917713 0.12977332895369539378 0.14469050777502776017 0.40042842665681493974 0.059712252555814304689 0.10511291978683287573 0.14592956802186138332 -0.14271932681011556543 0.021209514974942902943 -0.54037105373531135744 -0.41216281266852650145 0.43470992327704982561 0.47006278848570254292 -1.3028982320850839294 0.40260566893541838152 -0.79193328204340152077 -0.83366536393868739818 -0.02716416525089565201 -0.019669387165959340003 0.22039115021805666395 0.18210362130015642079 0.1022084479096882631 0.34226611732545897393 -0.64500483356197335638 -0.012181506754381231025 0.038972916070775395769 -0.80045258946774699993 -0.69646050094037614819 0.24871617125291858863 -0.26575284978516278134 -0.074573365068043864778 0.1763907563695614189 0.11741063544145408093 0.008413536697275007803 0.13371463173155875848 0.091157211993928594085 -0.24018141500201950489 -0.44261063474896772396 0.081970880970662476916 -0.27300924833442291595 0.32597413011020343054;0.12912862808835456896 -0.0029727046326600806321 -0.074391536927319840133 0.24491797936907794275 0.019275067368656875755 -0.25241922416049772382 -0.063269852043163626876 -0.05022675756325246238 0.31645587970861566163 0.23939609465358510643 0.12905517251186190975 0.026112805068207699255 0.2186402218374325912 0.098598791354107678808 -0.015468238854583957892 -0.070416016231135677983 -0.060335251013151160182 -0.27718751614819842066 -0.056548515775546454032 -0.39219397366571517871 -0.21199598439106032144 0.32153472640098218482 0.24056054742229879273 0.024787511102474114183 0.14925383157162427916 -0.12658139078305732927 -0.076739686378907837061 -0.10723133833916023705 0.12309920357290429771 -0.033355241687107323179 -0.44732574379908213169 -0.13378928693393568605 -0.38919046051016620291 0.26136146051955216896 -0.71213250638811065318 -0.22269240388541289288 0.14604981780468009878 -0.13331924515667734066 -0.13215856449055884969 0.042919347581976081962 0.1152484556106302821 0.046250744154663743501 0.32076837001663066617 -0.30402859697737499856 -0.26699711873119208461 0.025119784414378693721 -0.27074327113370222353 -0.13510730914012422654 -0.15356160742642294137 0.1316246434397230769 -0.12375924050100685359 0.12093331948037919221 0.43840901741909477085 0.38427120253189606114 0.2310304515403404646 -0.17227525186804937274 0.014556566112500514062 0.2947632086578162447 -0.25354857854302531583 -0.084017702161139462547 0.23565843376209147375 0.097024557359788751731 0.18493081543121489552 0.22307294335314808986;0.0094202254193115342318 -0.25122230243890009138 -0.26176592909816659427 -0.0062781408079639377043 0.20836367027003924179 -0.25377816957036775092 0.16274300571939870341 0.045843546593602763073 -0.34833044373516230952 -0.23534241682447257227 -0.13847206050481616901 -0.23184330218108015198 -0.34864562068008114748 -0.029368548395086662567 -0.066653825676095609931 -0.17931989501666942277 -0.34602121992708867459 -0.16928412499056383345 0.10855572803488212907 0.24259129060886847062 0.21183577661311178697 0.12870218589211651627 0.18167241817601703646 0.034983793006035483752 -0.22095366408662089897 -0.33724048669934886258 0.054530414023479530095 0.015821942248128335884 0.070707617253640858701 0.02071042698487805464 -0.092847647993021600876 -0.041761412986545162762 -0.37315058511102555672 1.0224028814426262546 0.97253491873410757851 0.5122371132080484335 0.41694512544953227229 -0.46684546470600418733 0.16185866622938419046 -0.10637837634292737765 0.19954477980722531982 0.27906525420213468269 -0.12413738096317449011 0.064074297980547659237 0.048167159338662050849 0.079550535228505900309 0.46213802640681628242 0.060323901023926262965 -0.32410965912599748462 -0.10859925926190067136 0.21373366140774771593 0.17763675390378255714 -0.13296087224898270329 0.45471122006044040198 -0.34546281358908725867 0.28436541380081453712 0.29609474550762199252 -0.043161979552940425708 0.34340164944227363764 0.015824871979720087078 -0.26328412939094075762 0.14277226960578515147 0.1009194522313518888 -0.14289754721012559724;0.20449401493146524 -0.20619187250965387292 -0.015159867693302610248 -0.029887574662826345978 0.10470677256016441836 -0.07183086238182580241 -0.16773074567711310223 -0.0092294051143447953384 -0.031090826190918012528 0.012415161449472198255 -0.25440675875206736345 -0.16044594908124448773 -0.030992036623540119428 -0.15839135282493846391 0.1108734584832820752 0.09902427483550810261 0.13932527593630092411 -0.26759463037008457409 -0.064629425296793149847 0.22996310531549429834 -0.14904942032588450185 0.40765951555736362755 -0.081554851426746732823 0.22324548727268656023 -0.15981455314276793445 0.12438571877190594817 -0.14323681609916155688 0.023654563556578956512 0.077499007613574741327 -0.13942456848619669274 -0.11136666406684045394 0.24849889928495727531 0.29828389280995121213 -0.73273836123073021742 2.1257046081668713455 -0.24271033665045205208 0.52361273578553668706 -0.0013039058601417925949 0.062288660012092579576 -0.31459941054113682579 0.05845545857242473442 0.50353614639454413737 0.093775605656611291105 0.0066993406684972165929 -0.11519806234595460215 -0.26599900126195807903 -0.095090186070484306047 -0.21606802881910555647 -0.52192892594000794837 0.26277504834091797159 -0.087109536416876992559 -0.50714786387440879967 0.010895600320649689169 -0.23625086789645818874 -0.17828972411297935863 0.29081206363606743048 0.21334690106992801328 -0.049022909792214686142 0.17801560194238591484 0.14436528515071389567 -0.26523031274852149064 0.36553230974364042671 0.13827690258216024377 -0.060093698086585253804;-0.033373727181795022345 0.17802145558473031484 0.17605437469050636001 0.18000228348132435441 0.033177397574086484044 -0.33695278390899369159 0.098031784558520712602 -0.1732372098287753015 0.14763231533623372149 0.37541405474835132239 0.023582095105510909872 -0.15337273563381204067 0.093603241397529943213 0.040760609351524527966 0.053548831911864200328 -0.23072284245245541778 -0.22531864368290568934 -0.13368789186691462656 -0.051448507338762099195 -0.080825829984310357257 -0.28923326980379804318 0.10252533025547620749 -0.1726546289162349257 0.1651561883278929721 0.16054004517080824876 -0.13214485454664073871 0.19172429445596608777 -0.16316398165275822207 0.017273836685981602129 0.24776208555575671144 -0.21362325518470931529 0.13755092734668161736 -0.59520638098766120994 0.30345911573223077751 1.2070244588088865356 1.5868666467283212285 -0.37294558553877193985 0.45281887533535841728 -0.1392332942597956924 0.55448079472635558584 -0.039278737196093857498 -0.0021191067478147649142 -0.10923091646547096467 -0.59441565354758285622 -0.60114825106576874614 -0.022819891566833668678 0.25761313031014615449 0.1810916894654273912 -0.2886415016778346998 0.10105438654535922605 -0.074528894603971940214 -0.37878061597914669534 0.08953459839810792853 -0.22567337100118445292 -0.29863207264329072466 -0.0083947378431654569308 0.3843983267576978613 0.18127305134259821817 0.16520882333406228248 0.20653402094302794612 -0.35335091540109819785 -0.21495124436331222717 -0.4542379547002541873 -0.074161613788636046585;-0.16725166308716238328 -0.32202397968207618906 0.12494995264232772181 -0.066970890881728403765 0.0095201727478668018295 0.28949231081451198833 0.186717479968130734 0.069593197994543831708 0.40674046551692671914 0.038015279239702978731 -0.26617954363958901132 0.30776969403526999169 -0.28991763723540270314 -0.14721202209799222338 -0.14587911055423230522 0.050777414489236498418 0.003361911747085496744 0.039534595056712314165 -0.20165122708493143922 -0.099046372815662836464 0.22326897590488972711 0.089778852145100188076 -0.2569951367254332264 0.11813194722441386353 -0.057967501332294786576 0.32124872673837695514 0.32573749699595422324 0.10909162932864621687 0.23308041499365417248 -0.23203113011951231881 -0.063363575042688857764 0.15346252469945040331 -0.54936635601820993369 -0.0099097370809943276238 -0.36771945906067621257 0.30728423300553830977 0.015325655608058883286 0.025193541217040496538 0.24860354789948721499 0.11211344438925749389 -0.064269918731716210725 -0.15431906300763759132 -0.13564052121227665459 -0.058974557353082289468 -0.36764944984949493589 0.026300227076548284011 0.29346918979983860343 0.38163138181152772566 -0.11845978976978560615 0.28964687086514367964 -0.16147859807092640461 -0.43426726270364141014 -0.24207476479761710908 -0.039671675667857363157 -0.44129546898013416456 0.06431988302689826964 0.22825482859225676435 0.34210265464699529669 0.33210078927807040738 0.069770822943950636108 0.020799653717488285343 -0.0098940446947778284276 -0.31655797707969990373 -0.08605112521893654165;-0.24868636261008816857 0.18899442967066201748 -0.13803242142132857162 -0.1988519801207565274 0.28854919293325070884 0.11565606642318866648 0.059544633609223247828 -0.029653148531701933183 -0.35677236507295384538 0.068496590293113335246 -0.080745115001955913847 -0.046881391698739206808 0.081642680280077428723 -0.36538312458714428121 -0.2528085032642629626 0.12752745363815026769 -0.20398209230768890587 -0.26083962862929105375 -0.34388619425953120823 -0.24158552341214398207 -0.15773834141461223757 0.08755451093721179634 -0.070661934820269917124 0.08732589751322945848 -0.20878061980830628364 0.1466700220650742903 0.209455178886928578 0.11069988130854095665 -0.12468567625631001017 -0.059338168152008582967 -0.35890149222496925407 -0.21657037501718837125 -0.16118395805339230664 -0.29159182623341223239 -0.31508703224896283945 -0.10123506031359198742 -0.13246966083278649551 0.14680491892953517752 -0.4168216690517294043 -0.22459233356824540029 -0.092340563145482654206 -0.071809773918541208726 0.1237884373616110617 -0.22781559575776649806 -0.38075394918548582934 -0.32573755120129299634 0.058866115442604338703 0.06019211950630291158 0.22515530002812536581 -0.2429103131937006832 -0.04881120768751882194 -0.26987038049283801344 0.039125543120342193282 -0.081073594834128084874 -0.085054006546263161148 -0.26913067182877892236 0.033270569923157772285 -0.16423653104222438182 -0.030868472813536100563 -0.17865224134889404195 0.19990785961447052332 0.10198695313106317939 -0.058812591547760278976 -0.22925736735395213506;-0.23042654958683650435 -0.058457643302188444512 -0.37445354439685191172 -0.16329405820173514829 -0.30027602507208367433 0.041081099453843326896 -0.19176009986345954328 0.10996772335560033029 -0.020005507596712775176 -0.022531985276704618454 0.024594049599760817171 -0.26778740038056686457 -0.16011573135676035462 0.20393361605145066129 0.13038541996609812057 -0.26191271455143488867 -0.005343504037396269897 -0.1522857532723624896 -0.11176795359491109583 0.076095353053929351561 -0.015279291894247384875 -0.21895505090796732461 -0.32778801113462446848 0.19029818807211085208 -0.1469325291994715843 0.019033734891138940487 -0.045184211614008491786 -0.081392181348588568679 -0.036171450657378020899 -0.34780646559074351876 -0.11570141474262851666 0.1107509495440471281 -0.41142734305406342132 0.12046665083126840978 0.032342502736963353593 0.086124952501643994851 -0.1669924413541010455 -0.11153756853093173274 -0.035248478264333658883 -0.35601968851052784304 -0.093737214612463704011 -0.25690543946178040491 -0.22437261711326061953 -0.24984575428469005254 0.0085110440032784631659 -0.18487100972069439586 -0.32267269692476352461 -0.089945109512566664978 -0.30969035172876896445 -0.29723490019045606392 -0.12911601364968589012 -0.42283405354659542308 -0.22050374155680596555 0.095889183855267484669 0.071782680171053686591 0.15788670467992391155 0.10932568700407321871 -0.3318999800972768921 0.024018679695223785903 -0.011477860308526266486 -0.16972043858451163478 -0.29864046457567561266 -0.29173297676211362717 0.21156136489134599876;-0.19254296954019792243 0.27649593440738368111 -0.29871925524121806239 -0.22356810497814269545 0.25311192177348051935 -0.14589275547911070841 -0.21821552069153513087 0.050616266082583384611 0.016988215235939838066 0.063297915345915820029 -0.077404993585421966173 -0.0044238253686745120791 -0.3417433055033567979 -0.025912622762548350591 -0.32384555509657358963 -0.26740026349970175135 -0.39474072450133940171 -0.27108988698907815484 -0.24307906502567086515 -0.35113677289583650198 -0.058722664957693314347 -0.1464721411612259494 0.21197904182315088772 -0.2474076252563389422 -0.24336161026801111928 -0.13758027216446575003 0.017018661339247370679 0.18593137930019137949 0.094110430260097563404 0.078737182666549609955 -0.029652739909376547162 -0.0012552857766587976855 0.095636253591422151765 0.35709796357206891049 0.15313747167594518594 -0.21395556285370767591 0.13711987515941617688 -0.16698976658636571768 0.20018985424685056818 0.079544483330925841447 -0.23693564631176744495 -0.3370945104640490908 -0.15907156945903505596 -0.35708509727804566003 -0.15942068257062469439 -0.21776215771841966884 0.041741957766954329578 0.27229099554909386161 0.31207889829006735249 0.20908167529302487675 0.15331726548963081624 0.028646590406814685659 0.27273344253340359167 0.1948059629901019163 0.33300362028159613548 0.2472981368534540314 -0.15392220552016544488 0.064739798844004728395 -0.23251791997561202519 -0.072166789300906628024 0.31533123371930854573 0.18895909093898782816 -0.21216555742671913687 -0.25929719944323981196;0.31235124587039880817 -0.17787904062153228613 0.34084743920925270055 0.27736662015684754312 0.33913917638018248324 0.14588107242504566585 0.3666652622288140706 0.096735196598584399785 0.033122517739618009824 0.31971104210957773661 0.17575339046577989621 -0.15224927485949049655 0.1068075305050042445 -0.019893794447442315204 -0.10875918463497591393 0.20519479997520007064 0.11522301160707643097 -0.084023581750146819624 0.26954009692358671391 -0.13183621959039912297 0.12817259777806966348 0.23252679802674486309 -0.22806405693203060658 0.25703957418780870592 -0.10355656958479701746 -0.20512309698856198703 -0.14243590370339404005 -0.1346052655752210947 -0.11169974838255412874 -0.20949983828267171315 -0.071869771273883165108 0.31627860405398372512 -0.33090385568411234685 0.052019358206723521898 0.081799220466566902044 0.11714499397787353496 -0.24846935329629293854 -0.17392450865286063211 0.061272759642645793776 0.38454776122604122923 -0.053138270619802752126 0.21330843862109713505 0.082028423059006261298 -0.045232361732531811693 0.2576236886704507123 0.34916062614481419013 -0.075688798435701823419 0.0095635095332076095614 -0.10369990481857387088 -0.18473526487101402105 -0.13921832491419339206 0.0074929723596311986061 0.25114861916143832454 -0.01502013013949633248 0.044968138834906724866 -0.13524035114144750125 -0.085231829666436789705 0.20920454218080034026 -0.0031339227355904044833 0.34174933598049850314 0.24688734061201572656 0.13239707938791417385 -0.26527504250031391786 0.27816043199398043928;-0.18937972979372996729 -0.10477297691870550433 0.38647302437756891891 -0.1605267539306364788 0.22319345593116468596 0.10905631740204473068 -0.072012733985976032369 -0.2064557513515316578 0.31758860532029892232 0.094745734633307432393 0.12153578291655371679 -0.054208228542241464198 -0.048820153159219066563 0.05740944361730491996 -0.083469664007508409531 0.087601589024483922374 -0.25080728177887345876 -0.083889122817316710834 0.26435778823919769964 0.025747139373610169327 -0.054726648065831141887 0.097978709923622744893 -0.18794877571521478865 0.14968460212996384517 -0.1278139168203814291 0.13529471758475819509 0.30577314425778245877 -0.31097550889650810158 0.16436874049645361362 0.19769700904869491609 0.11489270023584600977 -0.09826760125436145854 -0.38024739088924441877 0.18415488809520560998 -1.0664276435594834957 0.32196703102445944911 -0.049160777807793022698 -0.39176454007637390164 -0.38720438174473226223 0.015410676258285774601 0.34455182148256263686 -0.094974601114524964673 0.065972495262219391088 -0.32392315267143972912 -0.16295252942708965405 0.089330375858659591404 -0.14061468327444204274 -0.063562042219194272996 -0.03449811718720640491 -0.26047054759586391048 -0.069227666056377243353 -0.18512852286513339917 0.168118711862875303 -0.18570871333783023349 0.55022280367052622818 0.043545907151134051472 -0.073524227346192974619 0.50657171216504226496 0.21970547262504108721 -0.27603941445260737897 0.030419223760457907157 0.0087835361237274325874 0.12948997344084670069 -0.35861459003904361253;0.4936399759610969884 -0.061525867880161393131 -0.11682668041280429294 -0.32003229976713681859 -0.39129210805811287521 0.33660055216988604698 -0.19825113924905723994 -0.33177041302170678927 -0.045923414901305963098 -0.16584031974780077956 0.065882073306907915078 -0.010936563333431058645 -0.065883508089188441703 -0.14856423117091643871 -0.10904245885616135892 0.17419413412749901182 -0.12288625971472245946 0.21310965869693607178 0.3844560719316773012 0.1038884202798315004 0.30592057955465939978 -0.011124023569014825086 0.18098388822320851665 0.12480881102866503429 -0.051809575215422037919 -0.20878912322657419698 -0.10423887707641502076 -0.10559504983151686563 0.048108323133341041045 0.24967690457212290966 -0.2408822567587197705 0.027879327796891752861 0.77217700910677589121 -0.63658048343514694878 -0.72447552097633383106 0.52156864045034723176 -0.16670205680606969834 0.19063751466222250697 0.83620431894412905471 0.18785670490648423425 0.55552016232226342218 -0.17020571192874464628 0.39407562466931794765 0.41137252645371763515 0.03488820161187966562 -0.028380026591611772629 -0.64031953697649413026 0.25039330212340865645 0.51134560619845248475 0.19938440976025201268 -0.092297106911308005039 -0.097556084493676697988 0.2292283191248283003 -0.28159323204532971108 0.19695823955324415211 -0.11600967360346976787 0.05471774137847502939 0.16069917673571670891 -0.042774003937275463516 -0.27820108463520176745 -0.38187493778878472961 -0.36974968654159912074 -0.36774266737557131934 -0.058451843306053054283;-0.4431654608489105085 0.11108808137292804086 -0.21835338145578683799 -0.20250259155759561813 -0.18403146004218751131 0.18908444334989013558 0.11035338710994009592 -0.10458658930050325486 0.22383001098106158899 -0.13501579014116660282 0.14630306518091623635 0.18552864058791401769 -0.087131963979890772465 0.24379010975906778569 -0.088014250586596010084 0.026571232465812492929 -0.095279009284394644563 0.29892873790093732467 0.056067593495783524249 0.012092130126157257797 0.50256697813752160275 0.23311858833805509938 0.38971923014304837851 -0.11112087675748795468 0.058021155933872012311 0.33777380115041327757 -0.15655339896877715211 -0.095755469729015177394 -0.18176566428482643367 0.38263794893053915125 0.13480320168775480894 0.44214005743103212964 -1.2492054924857385334 -0.53481835079482453743 0.5675957607036651309 0.95541322585197463457 0.033557308097594558405 -0.90904110760348144638 -0.51861869995634179986 0.15847784378067400479 -0.34329913719784538317 -0.17353260095206549107 0.084352488248424159489 -0.56803904861648357727 -0.41848173155650875144 -0.50144662995027211583 -0.37055384722180817469 -0.55141414805001620625 -0.053418518813011427182 -0.021843100803934908938 -0.33347475903407747255 -0.32840267051829302725 -0.015253595705079257133 0.11209854432224131138 0.085724032783314169093 0.47993696047234196689 0.06973462925722180572 -0.11492810015701433735 -0.13284762237601704937 0.35716253055406788075 -0.21663105704896526427 -0.31439774913402107615 0.048772357045349927496 0.030048371935038335756;0.14729261781275393428 -0.38609101784446242522 -0.2335054934784935865 -0.24072282401359676451 -0.18632559474849866299 0.073142984982295267127 0.11919705633633910502 -0.077082511256609795303 -0.10511452602405293999 0.18057645072096198402 -0.14525883623257127009 0.16083232718700177233 -0.30421841760452689174 -0.38829328951686647997 0.14447513736966036135 0.073034631160275059747 -0.20833058240402646533 -0.060825551369012256786 -0.23220934784422953001 0.033163690556848521296 0.05348841836835688951 0.060645826155870947993 -0.19714795428682349576 -0.14605069506736206852 -0.18374788016757220843 0.20879093660309622216 0.16667468451629544046 -0.19741929986798267826 0.096143361746902217257 0.19579280425943973443 -0.38490294846423306341 -0.28263701230913812479 -0.32739314983768635914 -0.17103164154652805706 0.17230462100514648549 0.16836149604914585343 -0.16453711811219123851 -0.19696848310965972551 0.0089464324006223675673 0.094934924513473739616 0.078545784047090616564 0.099128401217221773223 -0.29228165944571860013 -0.24163225223820597454 -0.073201246886004003867 -0.21973438686255433727 -0.22493875871249044418 -0.24280874959354442622 -0.27042739295977669123 -0.13513587993649700536 0.14523475267056970561 -0.16557106424641990228 -0.24509360292547388571 -0.11446834303272040989 0.154994103289598395 0.11561416704557420099 -0.17186978850508213834 0.05661555589081004175 0.094608494382204991191 -0.37616752898495225965 0.043355909729041297584 0.17072294216342828732 0.034673821452696734768 -0.01167390509427039709;0.021195848486858352017 0.32870410999044835654 0.016813054361352872124 0.10780624619681358767 0.17175086653779497725 -0.016358157973430213078 0.12951826439549096737 0.27042196823702591146 -0.27352488539934222134 0.18660403214839013653 -0.38117628035371314832 0.14550035463748481335 -0.14251397353489989039 0.056880939362076485266 -0.2777264802352736317 -0.34490005527146866404 0.081198335775126792568 -0.12452518518398969505 0.10234121906137227942 -0.11015693079312668945 0.24224033297552513555 0.062040838618351301648 -0.041581069226526698457 0.18157960548679474844 -0.23257436766120376248 -0.081223519158765966619 0.20442381831204592402 -0.19363065692842668097 0.19177074898351739729 -0.00617321064606413724 -0.2054754663271455839 -0.026000174866611606289 -0.10617196849428595096 0.41669967563476656425 -0.29970765449171782313 -0.77229799977247237663 -0.53885001932888931808 0.18850098717174043617 0.19286279886778215364 0.063457861805865045657 -0.27882849214163107909 -0.027245687053289245616 -0.27520245193611275747 -0.13539405529050960175 -0.19088967763774367103 -0.19564636496472320726 0.22596717122173343162 0.17898701898785443487 0.29639337802733312088 0.63126623940150394798 -0.33678986866262694555 0.26681052557403467373 -0.039784997758740558993 0.29320573381303766114 -0.26317278860312570687 0.19941184456259541946 -0.31160308412631620989 -0.079232858560294050498 -0.18118686500404679318 -0.12712079982560431368 -0.46038047140513854716 0.066234307198661176996 0.2504784170430626733 -0.16311857136106250321;-0.033420930456869064884 0.16567539519887569677 -0.041842122546214118028 -0.46130751905500205767 -0.31148672677055366798 -0.10232427300841721862 -0.43586929377665933893 -0.16135400887916692692 -0.38638187222612790928 -0.25374236922258280869 -0.0054040349063017726131 0.0249249977027703358 -0.16790341200995181903 0.13521863678575010703 -0.21437474489922628273 -0.26616569271024720367 0.28216228584481028996 -0.17502982326942892466 0.097924900892637140037 -0.24424094905689175405 -0.037486881166884464256 0.079250212946492384902 -0.097876695591827211906 -0.29706802780247637541 0.26242097920229517927 0.31234278993394998247 0.29330693936822860302 -0.15743440431576755101 0.0063394385039703491508 -0.24667925438417509509 -0.2835503797413462812 -0.25065343470057460662 1.0449342663219454153 0.18481964341260964657 0.51675725038209763262 0.61097176444758982683 1.1918687692521587884 0.55445937051943905427 0.16187145411837108866 -0.43051725746522040428 0.25848725707748543279 0.55314635858564020765 0.042462422122258133839 0.35564034532013960588 0.3945709403563649742 0.39112553927205584436 0.053299790951367539971 -0.26528679849874797769 -0.35787013519072025103 -0.28456624515030881639 0.067225774771455193424 -0.27637260222458948089 -0.25219909667592588232 -0.38910632120649374377 0.011930229770438702946 -0.43765627953419267149 0.030015977243075739334 -0.024365261063080487919 -0.093957412658415756512 0.34773078575479848817 0.10211743658852480421 0.048559876440030895484 0.25762047031012891285 0.34024939295266465322;-0.16639748398316853151 0.22876524032244199836 -0.29329222562330969915 0.086340803233161483865 0.093900217381888084756 0.21916404624139557145 0.0053238469067080100225 0.11570205561454142973 0.19393161288217081184 -0.062421125381852626823 -0.11903711515272122345 -0.019489058761804026187 0.16957543324386442629 0.089872377139970080484 -0.17839149830026143628 -0.35552464694830976377 0.19581327671119413969 -0.1263007869006305961 0.020012634778515336897 0.11532273059068429144 0.12272715577323294045 -0.13111172153750719205 -0.46580843512596725731 -0.18763392786850854876 -0.26695432355546339087 0.080395666225874698463 -0.073400289934918247492 0.11333217353649889525 -0.24840465935627048522 -0.34839419123363252195 -0.16692289826950870713 -0.14798263845581696718 0.18021000625893673908 0.88525114137326477159 -0.53282638403036530761 0.23411677304733574667 0.12838300935112562096 0.60923807440147148551 1.1842042818896392209 0.13626211663965273613 0.26567275831769349148 -0.54662952611019788307 -0.26166937008748925031 -0.041083950824052986595 -0.63251063800568840811 0.24024790499179465852 -0.11488524516231082839 0.34522089813014311677 -0.40369986243939964821 -0.26041322207369999031 0.62656372301813667569 -0.10803027926327515851 0.33018317172192895859 0.066652759645128623056 -0.29705799436310242889 -0.24304599572456980772 0.1054181266223172958 -0.16614369284294619455 -0.3715965035432168273 0.0055852391424423934729 0.10848314423713482924 -0.25613642322659413431 -0.24234314781223662005 0.058106222451042958965;0.11877436995507943684 -0.1314085161566526383 -0.10461802698150653168 0.14251487554083555609 -0.10511945640604097862 -0.10482146270458701787 0.11422583638753873447 0.29759479526668147775 -0.035112975148160960326 0.15123146210397359068 -0.094976390881176250836 0.32087791669747772749 -0.08383793352067633875 -0.12809490708700141393 0.015146635776843971402 0.35978482008915629864 0.14578828398957396906 0.36580305851361266667 0.20734994454441785239 -0.091240367996949442442 0.2271365660781296536 0.057761367217973619281 0.048111647452143226078 0.24938941603252900991 0.3795467667041104165 0.1348163363025213779 0.28916287583049937737 -0.21053864169494135306 -0.14540287206001334397 0.052512116480499186622 -0.15551091287329416035 0.15151840403777791511 -1.0024000922749445319 0.063271636662050906308 -0.50933336873306889192 -0.73877462016785133692 -0.86064120530615739746 -0.24018659087547081232 -0.14189566027842009932 -0.21234607214022396815 0.23366518948003889289 -0.014135999175246140303 0.44014583155108144563 0.26317874633230337045 0.30540809486464626232 0.086045820872482886577 -0.20902677297276059387 0.17155934688405674593 0.062381402692561829793 -0.3549583934161847365 -0.29739865064953141527 0.095706019761932686896 0.24604919739206498885 -0.21443145494045243171 0.25983831095083242957 0.35798153450531483566 -0.19475706647849058695 -0.098605367090543308284 0.027773380584973396401 -0.252453521075969467 0.27461306048878991737 0.24113851061357732819 -0.07291923497038506341 -0.12959418169593267534;0.0081463344572703360463 0.019189167742300353159 -0.25487921973322175129 -0.22931235943647065856 0.044240415175276708026 -0.20368486158338650061 0.46761952713987053887 0.25885104655042723287 -0.24442517691562609672 0.032021271937326747925 -0.27988824737276751797 0.13616342939027320513 0.10238343447141408371 -0.13462012247353133398 -0.27667628256345278004 0.15292221138337686037 0.17085126629114649743 0.035774773816156367479 -0.11561354148726162017 0.1843948778601472438 0.014886724110863671158 -0.39102299841368798328 0.23647389658200998475 0.1558670116880994938 -0.05856978424734508859 0.14012528703395468743 0.1314932436260601023 -0.11959502009218186958 -0.000712470555674457281 0.12677192334396880646 -0.13944918466775751975 0.12099744162213135756 -0.10980125629050981051 -0.71416569024009812772 0.11965846256160808658 0.62335352011166955677 -0.078833590000944461784 0.14515638947351003352 0.06409064878427062073 -0.33000423164268954945 -0.062530630336538453595 -0.048733635902026443965 0.68611093663182409763 0.21436033092663844823 -0.35624735142950103572 0.17893467512471289416 -0.4542743658609521562 -0.038947162427257167594 0.12139065489733391612 -0.38529136129538721356 -0.46788119509167147569 0.20900468148939069235 -0.28368785218827852201 0.09163236717147378585 -0.067279747964880592948 -0.097833412406395550698 -0.14057439463044194006 0.15357350889553184059 -0.19378998007128259151 -0.22505649876063738013 0.16844959990379004822 -0.051525612215837367225 -0.17731845223804368339 -0.026312913064896789606;0.025339931035575025131 -0.022078084620540915084 0.12483562182768452586 0.26791052360533440524 0.037856742090610691343 -0.23369091760568674876 -0.21293629936165792138 -0.0086122453866389718502 -0.036116407601916408754 -0.005004629740933476921 0.14884121589289059373 -0.37035666810095518864 0.13891896350520480108 -0.34404008495622440122 0.30173559899406637852 0.24042922215994128043 0.16372067097651810119 0.12753597260204460606 0.24761930757587363727 0.33473109263806816172 -0.24302995353745227014 0.12066105899070188323 0.046094721956957435127 0.054654682242694589689 -0.38585432795726110067 0.28417577995517540046 -0.22956571004808487557 0.17145909996559285937 0.17511333226170036625 0.19916694925047387366 -0.27328331242449599436 -0.35428198170420915902 -0.066895051704191341169 -0.26982491270954450657 -0.43457547246331390545 0.1052993242513922123 -0.087960860140027380405 -0.23430737851099511793 -0.24776998757843868293 0.1631341099849850651 0.16178796134457837375 -0.22384977007913570146 0.27049076132325500232 0.23182503069956211794 -0.19238034774767201474 0.0003770144839475217109 0.31248849868110134542 0.32908060388032883692 0.020486991065221643593 -0.030346569395315277362 0.27987976031562783463 -0.01058609321427886156 -0.23571157031508196966 0.22460205237940633616 -0.027220916920091882407 0.15052841953389831109 -0.37849046009423331638 0.057583855124259494818 -0.24992471757311399139 -0.22689210416697080941 -0.064654399533241674325 -0.21102059448860779889 0.29275781745186257865 0.32451251365401817539;0.13648992506513865641 0.16090805765750668122 0.098500903235012343684 0.27252650450251325598 0.11989443694750027969 -0.1797471816611110329 0.082280864768106046214 -0.20329638498332203156 0.0095437859636895404358 0.16505817499237226964 -0.083212634265866017302 0.23307966163010437888 -0.035295672666929990557 -0.32691316192324115786 -0.15858423928574538753 -0.34582810647731532239 0.031659706229528808419 -0.13341660441641453594 -0.10930022663749323908 0.17782522327294703057 -0.20967505909333178371 0.29354589903418054631 -0.26335620041157065119 0.091686521196548895207 -0.13986678885694411867 0.0021269904269512062041 -0.090267865630775143138 0.18197853047754722344 -0.11149733070425243975 -0.29349693193948250824 -0.27954489008803395933 -0.0017422778036847452483 0.015229093642670723033 0.35554958395325614307 -0.054820670705826343716 -0.060320493921767498469 0.06319494981361802044 -0.096925971454007497918 0.21230490319941955346 0.073709738153639334235 0.15476608353190313139 -0.157181369311354735 0.15436649077343039815 -0.35282125778861711529 -0.28602226717008799595 -0.020111038725243085556 0.012227473639530059973 0.16739981118383540082 -0.059413385647007384283 0.27075336376680669837 0.18046161178338257502 0.1286270558869266889 0.14503429566548195484 0.0079430921451911790793 -0.097174792586750657897 0.23609874040061609723 -0.16860444794594095508 -0.25887772937406444695 -0.092089643497708914555 -0.13221637619140366726 -0.34073200468553876963 -0.38521883876430207394 -0.20513771974568403844 0.22663107991016451237;0.17983068220062681242 -0.063355031800677211185 0.1360545010963004342 -0.12430230221057705919 -0.063444894849975008722 0.19044156846681598028 0.012255501483649604982 -0.63296507231693355244 -0.23314734241071072285 0.12254029225393449354 0.22933688529974033399 0.10125385457801083788 0.17114719224838545464 0.26591274361843558749 -0.17763122073238765686 0.16576591740827664734 0.16556801392877074086 -0.24118029748633748599 -0.21051155125818230007 -0.0034982583030788317463 -0.2198636448384689579 -0.078639362060285850076 -0.14855951480860007941 -0.43569156352732185677 -0.29104941665939343398 0.28230138133821730539 -0.14852748245387623061 0.053664932619972724459 0.42621387373528385467 0.21658003992920243919 -0.05156086589767599343 -0.062530947811817533255 0.9632322333249067059 -0.35785471885620795396 -0.96953083460342159849 -0.52034279303332242606 0.27387144183182049462 1.0900089406900956845 0.83133584856158670995 0.070338486627813917584 0.065663928856310338489 -0.45473337863256679814 0.041962021721683374909 0.28521388684967674543 0.69580134942486082661 0.57359791336249188465 -0.323498383491677588 0.22726879693511042868 0.074706963594199524148 -0.76480876686611520832 -0.16440416787262970844 -0.11979352697610765044 -0.0431175696251199711 -0.687410494310892628 -0.071171423419523718867 -0.44069319750500690613 -0.06759703836713377989 -0.099557543267774314955 0.1632523491381671632 -0.13751979666497071708 0.41225340989920694623 0.34610662206120546003 0.071202644244951929231 0.038591879329931175202;0.021800895826926257326 0.14777513518647797386 -0.20929657205125151709 -0.33589029803344033764 0.24046615958610265129 0.15774583880583969986 -0.087651677699163710322 0.017443787352361215387 0.092369929578025908312 0.25259391269170772265 0.060722954473051010682 0.3931185569585932682 0.0043602832187309851011 0.059216467505280409589 -0.20539299669987223784 -0.2192431362844822762 0.22109664031447845423 -0.018985886669414517303 -0.30078699202024600234 0.05779828246902098815 -0.20521632054629540542 0.21038164242630633116 -0.3041646029776254867 -0.084630571058045625521 0.2822906763239410588 0.028851271301981548656 0.16094267610992274431 0.10758204606733853814 0.33655844368870924121 0.02024285693741082609 0.26911684542178138102 -0.16495085294611164239 0.19980586238412112454 0.030635803760317537742 0.41644192471783803011 -0.00044921004663051261954 0.16142165811696512767 -0.063652401063357275102 -0.10788437846405070364 -0.13801589840799100006 -0.13928972917215962091 0.34050430244595608631 0.14675204873975444819 0.2614550401682756986 -0.12901027590170313641 0.43708594714181919771 0.10171816165851405023 0.051748730228307351919 -0.15617335410116992001 -0.31727434274112081836 -0.25904858880086345518 0.0093021282694863462182 -0.36251034011881960728 -0.28222721023623359438 -0.063850121276785631874 -0.16545023815677803447 0.044650125011948649245 0.44665918432010848216 0.027395948028090484627 -0.034196052067765839166 0.27937732076981958151 0.073335843881986759185 -0.04653357831796520877 -0.056539901162369711474;0.21484898379820344116 -0.3274588154418658914 -0.089249810266330803499 -0.22581220072568833346 0.052286521669084234931 -0.37500308826403111473 -0.29950224056072793921 -0.070821505861887582012 -0.34895568821014144589 -0.087992145225967086097 0.32537610556318496968 0.18800431134017520085 -0.0064911563645070110423 0.46160091920099538543 -0.046496932983717140231 -0.12020433110489421591 -0.22714232724767213778 0.26307268162930486088 0.17106491293053252556 0.22787804632791192061 0.17440390420835011343 -0.2018854236822735515 0.072472422968884050998 -0.077101021543778749945 -0.019655622132630209964 -0.22134128703522154558 -0.12032201936396703934 0.23446054090773479905 0.30702107523128130406 -0.10075612390683602593 0.40946741831664312805 -0.056565404448099765311 0.095910550623846457796 0.26214421550668565164 -0.13486685546952473236 0.37451160133771277394 0.052078396530696041689 -0.065294635012877355607 0.23757450190127307743 0.50904828896756493251 -0.1689055920437282643 0.43874170300738862815 0.24542091345848326966 -0.21925364795561974596 0.29892811308590344632 0.19642510522115350091 0.19128541520658617903 0.08706577714977616067 0.021748836013563418307 -0.27170015736740454892 0.079759385720044456702 0.16760432655829526905 0.45108991883172011583 -0.029655228445907969026 0.054482530570528868441 -0.012145097441254941104 0.50418210261493789925 0.34120807367681965649 0.047059293561401316364 0.35188020481096471404 0.037623843064878668974 -0.22039930372494537236 0.051135125090796658409 -0.075667235762277088029;-0.22316867700943129882 -0.21605428265416212752 -0.19991518568138055834 -0.16714403081514789262 -0.14645457947462903192 -0.19194312698689969254 -0.085368566052328329063 -0.10121509857179000758 0.15354319680066172427 -0.42511998240325865606 -0.22189525022922459985 -0.067124762443578858684 -0.095636673244908695923 -0.27023971429704302105 -0.36275568371826799607 0.12342252825331499755 -0.13229483134301855962 -0.2381054305853405606 -0.17835871093657343356 0.010776004542626210075 0.16798811975249625106 0.1773843613225426219 -0.19415373457736753715 -0.28310457017968515547 -0.037158903857151502625 -0.17437012188957212722 0.18540063508764836886 0.0092913102173175811382 -0.0060853982910998487624 0.1389773769875019549 -0.25487720264118585156 -0.3671753277281776251 -0.11911887994752154429 -0.28987492384178692451 -0.33569698979418205464 0.31710994007299447839 0.19902022558915347106 0.15947418146549990903 -0.33849306406908208356 -0.25810211735392285526 -0.20420616624383555737 -0.28612777682046236505 0.056371959035733429366 -0.14864236902851790667 -0.015867390033958237577 -0.089662295585278578569 -0.32490879195249361411 -0.15834139359489216026 -0.02508083962688078053 0.068575031203623473819 -0.2831030240602679382 0.16706520559796081415 -0.39331424716419710608 0.041224427412004584215 -0.49543234523471413322 0.080943354024616914755 -0.25098191038956446652 0.055678032084313766603 0.21293809117377068829 0.064136020012326613871 -0.25692797302815656435 -0.30338211373359624812 -0.12545052445607718372 -0.40365228057764895864;0.27347324073062834193 -0.060061330867343887263 0.21266027916695184885 0.21275235096117064981 0.18312804798779891424 -0.017696328417985858483 0.17537098134104298075 0.052617119071775582395 0.083836945963444833851 -0.15670075811212280659 0.18688215241076475137 0.044348775727500087951 0.29951848720559964834 0.096019818899805348122 -0.19229395307474303478 0.054368738586397333257 0.18183672434265746309 -0.3986148216049133497 -0.24929137211684018749 -0.30865138894933791258 -0.35341106418182144377 -0.15199170260277666822 0.33396172535897811207 -0.034797587943756154438 0.14719415458372864247 -0.15632084435553622592 0.091653165559010776886 -0.17566182799743582099 -0.2503090233465526393 -0.16794570886770471274 -0.33114960749115363026 -0.031050316204760831235 0.34931896882021040707 1.0583451351289843156 -1.0051216205001856085 0.68149227076624252497 -0.95882032154608687335 0.51112788204422299199 0.1323543739499428995 0.25015154673858647216 -0.073546393444038155041 0.25425118935573454149 0.6923318559092364044 0.076397893789846987866 0.40426482320863721398 0.037942796956155315502 -0.18732576835096279022 -0.11959549088947876716 0.24938728068108589886 -0.17720382703658513202 -0.31888653218085688534 -0.27395878581120042261 0.25382235205581310522 0.12834798617379747365 0.33302499680475661226 0.028339554273113732458 -0.51720941695112965242 -0.16080677643371948937 0.14776454245207387705 -0.30923010050722482545 0.028703966281259818416 -0.35564967410086750776 0.24953134002513049916 0.14552897780659021509;0.18148094778224202472 -0.23480181932647661847 -0.2336410717870028575 -0.19904923253447862064 -0.18875441654320612717 -0.068873605403516863221 -0.22134895388502545677 -0.15407776611650866871 0.159279105802598131 -0.34631106071082840003 0.097174842298877184277 -0.23070446765327753957 0.19626183996178397928 -0.030468876131275853675 0.1285087009018750781 0.096213945918802820656 0.012287096419729318098 -0.077221382367368029964 0.10699586043182909845 0.21801273783949554064 -0.053288666004919257868 -0.12407758333403938467 0.13733096313294074209 0.19150180696720045526 -0.35773458444315292537 -0.029467996667900703267 -0.076989567396047522974 -0.092423246294961153291 -0.10433787067132957449 -0.091739144378351275555 -0.11050554767636848463 0.2599185308129505767 -0.29685277087705896903 0.19761490454259486582 -0.12590281879688475231 0.29192973739042499259 0.11971661951188927731 -0.25103651803119531039 -0.098903268788140000223 -0.19873286172955825779 0.20278029683295545338 0.14432191782106973399 0.17336911469279445153 0.11970766439980093376 0.1921138876977653287 -0.18064597755469036233 -0.24116772087622065368 -0.23101178245696882274 -0.12023117705318533965 0.21145889982230786641 0.0091810833099155182008 -0.16248823727228245417 -0.29197265629762114703 0.098156945539164652814 -0.18629632084755948229 -0.11313996901344666735 -0.019423168426511157325 -0.31305107447884361616 -0.23768178494678290913 -0.041698071166625820527 -0.20779472930613027137 0.23019113425103668313 -0.205551948212113339 -0.27019755085058116961;-0.03639862753490479691 0.27802531038226430127 0.14940008243814445477 0.11748131633742382729 -0.27500520729916266838 0.17020017598144213111 0.11665327622563663457 -0.19793363077469502964 -0.17851235038405585676 -0.036306507251094487232 -0.032916333031191687131 0.025714724226460049933 -0.13348586340574156162 0.14770087012706045737 0.099636303145407417725 0.17618739640283062609 0.18755866137351318024 -0.24350468485522702711 0.26660789571587822921 0.11474256840410113067 -0.23328098186598758557 -0.16076966770538797524 0.050406782038040484628 -0.11996197330997378228 -0.076936259362817727148 -0.030892093655758637305 0.048564374360523368535 -0.012958242096043749367 0.096403144471388424463 0.32902623080445231318 0.05928080298121077979 0.27620097686416245075 -0.25386626680775115084 -0.058361011165277774937 0.25347426624334140621 0.11736477519044424822 0.20147021789616414988 0.16656208213487649905 0.17074498595774548204 -0.003930002620196089945 -0.22735652979365333914 -0.096666404412987502748 0.048772643115865051133 -0.09791474341603485787 -0.20563993824248458231 -0.19647307034579916674 0.2306921208019750702 0.045465227424764581565 0.2230772853587260629 -0.26201926271985542805 -0.15138934953153415641 0.019703680592002670302 -0.058219785427296451286 0.34476002026437968517 0.38203037954888530159 0.035611127152067025003 0.3104454008404188281 0.30003791365501747412 -0.21072268230929758204 0.31976867484391252594 0.06657212200040366068 0.029872928654525683634 -0.20983988663676769737 -0.034524297834817321839;-0.0065901254687527289697 -0.14475633599507256588 -0.30490749652218868126 0.14691347765659204527 0.27008749995751396566 0.017120595478244002297 -0.25710237830971832684 0.25718664990327588793 -6.7237151615224654416e-05 0.0024654911410146728053 -0.014820944220155040857 0.35322708750954706636 -0.31947348402864222949 0.4054070931057460192 -0.28071658345067940221 0.10488684109409560086 -0.32222903536075209185 -0.1024685023437838377 -0.034933010618090308552 -0.15247272889541496621 0.22008619993201891663 -0.14571912521516339201 0.24958686847775737871 0.082163561229816439724 -0.30818222067552769605 0.25677115315416065844 0.0039255232068570603335 -0.19521562538063921832 0.10109399665866210249 -0.14352704887991385441 -0.42743490131359812567 -0.22791699512761651181 0.86054737658886215623 1.4338234735973196532 0.78524574545167158401 0.65838853109530526275 0.49746596058554781727 0.31728805153746381107 -0.52698620562785503108 0.35655543675255751968 -0.2065007206722137556 0.49606884411860674433 0.23100998365095337661 -0.042739751418450530607 0.84824496602434762416 -0.3173469095070478585 -0.32764511839601573318 -0.22382104524898796538 -0.26620935574732423889 -0.020477514932748821369 -0.18647655602995982793 -0.12070987250706287364 -0.18165805185522942988 0.3320838274301808335 0.68227141982989736313 -0.053228290154561257175 -0.2166083173615245272 0.50873668487420020679 -0.026739507339413569331 0.41005907477040970388 -0.058323426921944233892 0.11974048871021289453 0.31180713176839125467 -0.1550817886408963342];
  
  % Layer 2
  b2 = [-0.85260473576703665888;0.91982868888364899274;-0.97867065497544791786;-0.89994056518545151313;1.0445301579384858037;0.31670759454652053222;-0.17111715409942543364;-0.01090216188224326678;0.36893315087135492014;-0.87415817654153127325;0.48648903388776221224];
  LW2_1 = [1.4107324552554603159 -0.33018866246032441136 -0.17875487490466407392 0.95697313836295616607 0.49801222164671332671 -0.44607718383868394385 -0.97267541067669383015 0.65788482346183274618 -0.41343434504200582413 -0.091505786336755129406 -0.20876348244636838691 0.38810816039277190592 0.58330011594764663574 -0.24103482440669188325 1.4304574339730318222 -0.24098216053843515838 0.93031070420607964166 -0.70539659201957194412 0.50657554080890221382 0.82314097540573749612 0.95638820987483019742 -0.44106986945524573329 -0.81937365351572399863 -0.98941709446319003884 0.71216491917969404479 -0.50147656017807196172 0.48960024699855003716 0.25716511709020600795 -0.72469045899082862316 1.0986904083045894165 -0.66236980282065416326 -0.21216554076396174078 0.32834395606031929749 0.83561062357874194007 -0.39568148659171042958 -0.71211682489430261356 1.1887663737917402162 0.14088953026607048402 -0.56322227741627939324 0.66332351797768773771 0.68195790674525236241 -0.25680072810627774249 -0.60461918793847746478 -0.56894597388475487421 0.25546145155973709606 -0.47222744485548207027 0.94672898423171603088 0.39047184278001612068;-1.4998507460614243225 0.78721605586569554092 -0.61916843067078564111 0.96420644302769620282 0.29864616680763639289 -0.81105702765344978022 0.41416691288845963737 0.86314599944394332365 0.4350380064221915366 0.56595815625944490002 -0.44533975421923066573 -0.31214843229324340523 -0.17783346770278535276 -0.77932521584389025104 -1.183807222111227464 -0.4786933049193615175 0.73495530995470514934 -1.353590505717780168 -0.12836292182036013187 0.55367167670899575249 0.19148965545188975645 0.36698444698751608861 -1.6979620409136839676 0.1028175847245063057 -0.19929143566989085401 -0.19692322939269071846 -0.48738450415665174331 -0.21091706543909249927 -0.67668994654782110842 0.38637562628225025074 -0.10671823589262011134 1.4544333913026130656 0.42698737875851106027 -0.0073657851418555729886 -0.61959247412504570018 0.33816414954095136425 0.68432796627134928613 0.73119352052734998271 -0.69269832952218934885 0.87165705892508782426 -1.4495076493682235164 0.15343893929945928711 -0.15600928540122357968 -0.59552449710938681893 0.64552595794268452511 0.15377931767183652956 0.12669809118605793175 -0.88135232951880249086;0.46457485176635454627 0.81396145331268909828 0.60693325888965166115 0.52915643173157367318 -0.61245825713660173584 0.48146008198161688307 0.086995775977056627459 0.89679265464866031454 0.6988414254912230783 -0.18667259822432646921 0.79066375386618270582 0.90129905558342060523 -1.0498888464789151165 -0.29928880950415703843 -0.94506276921023413262 -1.1774639818341399167 0.25927985664802111199 0.67481880052148668359 0.76930234242108574971 -0.048477023813977476729 0.41891760704636260559 1.1995422691049166808 0.50879452775500066952 1.3789806562929527445 0.34349845781636512143 0.91467130783027195129 -0.12565717672471624078 -0.05968130392757002578 -0.63236102610327260543 -0.37393776567265180066 -0.42927517231029344025 0.33423059012494510389 0.90724827490900816773 0.12764894141850777198 -0.5615621469028866386 -0.91687610762241933404 -0.3538335419160759665 0.78801475772195261893 -0.28894777727297760173 0.46221531798074966257 -1.7221963105215281065 0.020577187651841164634 -0.95209419350944113347 0.17350695668488066992 0.70493691811847325468 -0.55567391408745825387 -0.60727487628847154344 1.3604723634219202388;-0.30324029046857198244 -0.63798313826580488328 0.90203561875231474954 -0.57381490590822659126 -0.57572299724096143159 0.088469005492681510039 0.066597124268567703398 -0.58474195222690250606 -0.29026671966075628939 0.46065325940847284825 0.43478123798213147433 1.5203782273963457605 1.1065853677797019561 0.50196937649770612122 0.5237116957581333665 1.0391748051643006079 -0.077231287728823039274 -0.095733757757704956992 -0.38406258531508802312 0.99599304867600446656 0.83388074355399566251 -0.72920591720498173505 0.1474990844240766652 -0.33554866509657449436 -0.26038249787128753265 0.12562588148233957974 0.14018831650240090592 0.37800152087343552587 -0.84145498084648662207 0.8209622777480860556 0.99311688848725598877 0.32748384019184928473 -0.80807109437784929717 -1.064133678514582515 1.2557864359374835139 -0.59073505305353246619 -0.91881266679552608956 0.87501334004384057064 -0.68490552444525354403 -0.36499693338596522763 1.3583686679266764319 0.90043524609861036456 0.80219162857598613758 -0.27540712811048856379 0.8340247742831673472 -0.36989525237036940952 0.62686061001227277867 1.295355981598885764;-1.004298483057119995 -1.0337306637200009973 0.80643309815560837439 -1.0340298687693354474 -0.77195301908402558233 0.76842502863375417022 0.71713494619816731124 -0.96499668683129535829 -0.14548052454951218571 0.88884463500147214976 -0.33063837551316410668 -1.4216072970060149583 -0.46040642059140601816 -0.6532739856327145489 -1.574565660783312282 1.0853400646310666922 0.31788924623366993094 0.6610991812967661474 1.0568890776747208449 0.55655118155463856322 0.26800185972246720612 -0.40303457610328807803 0.59666830407808524317 -0.62927993321804609472 -0.79250195232364195608 0.43118709308593944352 0.0060139040875141491771 -0.66885455892821810142 -0.19716478104358087231 -0.95850685910627364539 1.2243990025339495098 -1.4384647856438737001 -0.19154369739851678789 0.44188498689632549343 1.1332530815387920065 0.30828790009625883783 -0.52008494545625549854 0.38925424956516863073 0.1363722882064415387 0.63937114707057207674 0.30256404848079926362 0.084944569389283380856 -0.023966602015447896479 -0.48054467400400080468 1.1076622987736137738 0.36129291216087688898 0.23750328771700127128 0.32406500015012801308;0.18690707612282075889 0.46840641264424054402 -1.0427478209812373056 0.50925650227514107637 0.56490312027472255885 -0.77193439115549300489 0.65925491395196900157 -0.055530471046963292281 1.1299675028962461454 0.090425788685701918856 0.66374916401213146511 -0.77744880446486674952 -0.38484290630965345414 0.76438255085793993526 0.55764813666998680475 1.3192556804813493354 -0.2413574757880242172 -0.30541542769479673725 -0.38372667314661823568 -1.2103856966293331521 0.35969873538984270533 -0.38469185250270460097 -1.4442029418194006762 -1.124347193802124778 0.0045401954219268557747 0.64011070337076325654 0.26805298469741328793 -0.057746484363904303228 0.5577119757376192144 -0.27901530207199953804 0.74960588618229095914 -1.4892872594882635706 -0.15411112251190209332 -0.095414383657303633579 -0.58825023820746225045 1.0428495089204727897 -0.064832433599699132443 0.58770689650941199123 1.1443901047407940563 -0.64184892200368504067 1.0074380968860874308 -0.32385975246553871942 -0.38753393559706111882 -0.018648283270783414661 1.0362895019297453381 0.63912211090296777716 0.16827553010228668562 -1.2110992771053317174;-0.081074786100501880504 0.74941577879115406358 -0.19036959349182996926 1.1625951015628812613 0.36092074022001868761 -0.28783027331315169661 0.23482485433442160105 -1.1044173921161419827 0.57616861558712939573 -0.26721062178208587756 -1.0752438295021631287 -0.081921116118995981892 -1.2466394527472615117 -0.24422731523624335859 -0.27563516316807501472 0.62234027100859223847 0.82772166160733262608 0.80459410976400180804 -0.92393368074934734135 0.57196065849558064276 -0.34735137998648257796 0.36420338175014355109 0.11812311541114534075 0.85998156073151377221 0.38256871641458983779 -0.47821107862476297523 0.5372996539246769343 -0.22577920565031159295 0.38890415640350678439 -0.36017580512516428337 -1.1500633880000967757 -1.1950338839342231623 0.2864439885792716689 -0.52745409101922602346 0.21996640901081174202 0.3510447847620152273 -0.3137176786458523714 0.32826786109624939147 -0.37506371787907011317 0.10778768568828524244 1.0402658924627170567 1.1516007664077958506 0.89233512998830377683 0.98221153378933778733 -0.064567072472298661645 0.82886545249267318258 -0.58268483131409898323 0.74080386905786521634;-0.9600806507967269976 -0.7966861095236306145 -0.3560779519887373179 -0.43546028193419150654 0.24196614719206921418 -0.59248411547396184762 -0.63470949254004882523 -0.0416243940132099699 0.5109055030305891254 -0.48758919341859097152 0.040426946639233234115 0.83709930696652279369 -0.50302819344848026528 -0.38716193547460037161 1.0542754747232638834 -0.49674850114651281086 -0.88384916125566825862 0.086074454104956232836 0.44333601685857398911 -0.72749556811189264316 0.54870048818469829843 -0.58066262541589119817 -0.16950329507675065965 0.56668278604477784199 0.99250089207126923618 0.73699661534857807688 0.55147450919605900399 0.80243469362711694615 0.69507394474661188255 0.34931957172868322026 -0.065315252216753744152 0.81941382881667235161 -0.82983633560290936959 -0.12331457832564247934 0.40490128429610905414 0.42781984376397547143 -1.3220255092476458358 -0.67669757558197052294 0.17505781023617753012 0.23674008501628454604 0.3759699287672069179 -0.50323021727640804279 0.036493776534480146245 -0.39321670553708976126 -0.21101366289936238085 -0.60260742862575522594 -0.88506982691553570675 0.14686130229013372173;-0.35368901656993162463 -0.80327180939023246076 -0.026460844146461163368 -1.4592119967660670543 -0.76271340007279064821 0.78387027610709902881 0.20509120962369417618 1.0289205092825730592 1.2622923121901852284 -0.19655753803603717711 -0.2551421969613266727 -0.050929838828202782242 -0.54186199169449522639 -0.74655126366981894304 0.99619684693662635677 -0.67550815335619407431 1.0125878978861462265 1.5488016274482347967 0.74691033620241853441 -0.068809113084483994327 -0.36603633474758001665 0.1838440900254626198 1.5060371305254445229 0.77412105658444352319 0.72315856807250444849 -0.9706407584513638831 -0.10515959322485456118 -0.85994379935297837747 0.60261917483658344885 -0.15232733453669783374 0.83398704761120268092 0.64908260723444999307 0.11986612504927213196 -0.89206550106887150253 1.0524403291625503698 0.68932245227071009541 -0.61878219572475468002 1.1110554909529779533 0.37772954924104734653 0.21975670247498316212 0.56616766997573031439 0.24899403403486974895 -0.28018988823703216973 0.7412824705887925969 -1.5958724769629986096 -0.3590863763313236201 -0.35500029596708482238 -1.134780122677508496;1.4509269976083192244 0.19510113332773879047 0.16704196577105678845 0.55705087736313463331 1.0562163738184757733 -0.39326920984983487761 0.88093372516298806829 -0.52035739168042915992 -0.011814012085811004607 -0.71875095052933868356 -0.061276524610149887828 -0.51692358253567516346 -1.0677936861535122226 0.5674807975179769759 0.68338209345389488991 0.16365175447900376371 -0.93488532261905998855 1.1000044394038752671 0.9434020065687458434 -1.2061641682360977335 0.0061521888695165163549 0.87960151214897674965 0.8168783278384544877 -1.3753982940045819117 -0.72797949797062266875 0.40348867739323190929 0.87868334536444403504 -1.039992298650975977 -0.041863503979198794791 -0.72472712378746684259 -0.75144021248621684084 -0.85553085220320368443 -0.82381696165003204246 -0.53266053182871031524 1.5271142709661273962 -0.09724495384904696671 -0.7865705035008895285 -0.85535385906261296451 0.40653003802166132186 -0.2240010799355282578 -0.19677015834047884013 0.8979553681243889196 -0.64564561558176847278 0.81509772353673570766 -0.65211068237923330848 0.80361624031687661773 -0.30780694891300452998 1.3341590224147101829;0.67935935402990399457 0.18622067434601510816 -0.63670014061752744361 0.12823792215659368665 -0.16541456429486792179 -0.66843634270998952829 0.12285742203642445458 -0.26968401289372284646 0.39531342794553253617 -0.30465074544918135935 0.082468324428255468383 0.18012809879507343802 1.2776935729476621706 -0.75300728795855831343 0.28239658366508463283 0.93546329160820596016 0.45052240559025635847 0.4019955255638220093 -0.50212928775742482479 0.95536389039973124149 -0.48511758822165984562 -0.91644782964348481258 0.53876790154216880335 -0.42793379503017053844 -0.7573268472663031714 0.54979799511787730282 -0.68698417233908182222 1.0999224790632677884 0.24854688590875972931 -0.85621335541531085056 -0.07811095543470041036 1.0902309775423155713 0.16953182466458124877 0.16908375345224016528 -0.80516138878238763255 -1.6095654819624449772 -0.36006013303779588197 0.24507100812451318439 -0.32328284656504641115 0.4024883439005713659 -1.3690555043902434829 0.39034638011554656511 -0.10730566472439946601 -0.36367800352785289997 -0.77711565359468104397 -0.43438651238348280348 0.2299272557325978128 -0.60009116844727361517];
  
  % ===== SIMULATION ========
  
  % Dimensions
  Q = size(x1,2); % samples
  
  % Input 1
  xp1 = mapminmax_apply(x1,x1_step1_gain,x1_step1_xoffset,x1_step1_ymin);
  
  % Layer 1
  a1 = tansig_apply(repmat(b1,1,Q) + IW1_1*xp1);
  
  % Layer 2
  a2 = softmax_apply(repmat(b2,1,Q) + LW2_1*a1);
  
  % Output 1
  y1 = a2;
end

% ===== MODULE FUNCTIONS ========

% Map Minimum and Maximum Input Processing Function
function y = mapminmax_apply(x,settings_gain,settings_xoffset,settings_ymin)
  y = bsxfun(@minus,x,settings_xoffset);
  y = bsxfun(@times,y,settings_gain);
  y = bsxfun(@plus,y,settings_ymin);
end

% Competitive Soft Transfer Function
function a = softmax_apply(n)
  nmax = max(n,[],1);
  n = bsxfun(@minus,n,nmax);
  numer = exp(n);
  denom = sum(numer,1); 
  denom(denom == 0) = 1;
  a = bsxfun(@rdivide,numer,denom);
end

% Sigmoid Symmetric Transfer Function
function a = tansig_apply(n)
  a = 2 ./ (1 + exp(-2*n)) - 1;
end
