function [y1] = myNeuralNetworkFunction_sai_allcolors5(x1)
%MYNEURALNETWORKFUNCTION neural network simulation function.
%
% Generated by Neural Network Toolbox function genFunction, 02-Dec-2015 17:21:19.
% 
% [y1] = myNeuralNetworkFunction(x1) takes these arguments:
%   x = 64xQ matrix, input #1
% and returns:
%   y = 11xQ matrix, output #1
% where Q is the number of samples.

%#ok<*RPMT0>

  % ===== NEURAL NETWORK CONSTANTS =====
  
  % Input 1
  x1_step1_xoffset = [9.82802513371268e-06;2.55621218795009e-05;1.20137661873645e-05;1.16712344732692e-05;5.63163177176424e-06;1.2450823732265e-05;1.31189084133076e-05;2.40495398310045e-05;1.21001658119507e-05;1.90244237145928e-05;1.01904632313061e-05;1.14984413803954e-05;1.34073472637692e-05;1.9088027049233e-05;1.65559785872251e-05;8.70193170808251e-06;6.1612434593233e-06;1.11217019711591e-05;1.82238881840122e-05;1.13440813093538e-05;1.05912392122613e-05;1.7747038343534e-05;1.34768186216427e-05;2.69440113829917e-05;9.8014511212908e-06;2.50882527430845e-06;7.16222204132565e-06;1.59433262394555e-05;8.04982154701494e-06;1.67570472794596e-05;8.39652737180383e-06;4.69032881047239e-07;0.00044928972021305;0.00234930514124845;0.00128414722176131;0.00128481438509703;0.00050589458682787;0.000787242372706315;0.000202977077752684;0.000434616251557144;0.000636557327939047;0.000195519132033205;0.000151553212851822;0.000230556140182706;0.000144645337591042;0.000117918446630909;2.8188744098288e-05;0.000125223232661395;0.000144715128013976;8.51496079428836e-05;7.76361469789333e-05;3.7767074282475e-05;6.2332696839424e-05;8.67024847521331e-06;2.57896087752831e-05;3.38440329100345e-05;1.97625079760266e-05;1.9604342997038e-05;2.07450200183778e-05;5.21615447319331e-05;2.16518453929826e-05;2.38486309856211e-05;2.60636071874938e-05;3.43104951923067e-05];
  x1_step1_gain = [216.645769083766;192.437124849582;260.564667422863;243.438021408204;241.060748357943;166.58434852192;315.862327000923;365.278564887842;363.571945416537;353.546237842893;339.655961956529;367.928589226913;409.662167386664;390.678465880696;404.468816708557;462.148672392001;541.804799430982;455.867537592965;606.633342175623;662.451280769916;436.280883589528;511.100001826991;428.519268522822;597.482620941663;514.65656969003;523.743224215175;461.537594300617;571.062577355861;643.336683589446;497.10467445834;503.487288220062;459.571025565025;11.1697006761834;5.77141184719286;8.27955984573715;8.12629273402039;11.9198976953977;9.09111917541985;13.1558304240005;10.4280656558671;17.1226820593386;13.3610968971866;15.8115304113411;13.5294015723546;24.0408240338051;26.2929535668166;53.1746267394763;57.8534699227338;73.5118708516629;107.973180072143;98.7682982389236;92.3665489118597;141.706244347989;104.585949420557;92.5206175000854;94.5034952865066;115.958746374406;108.64668700716;180.806801679717;96.7215466957531;171.982775716226;137.950301893456;240.362322535824;153.064362315097];
  x1_step1_ymin = -1;
  
  % Layer 1
  b1 = [-1.5985860756241998537;-0.99634736772284082651;-1.1929454196915694197;-1.0998511958563017554;-1.0987542852268146198;-1.2876172269200678588;1.0519636439403929895;-0.88617684401666885208;-1.0771884471110244608;0.83098991129983434956;-0.65452822168642288414;0.74939063223926660751;-0.57385715471157294765;-0.33124257728547978896;0.26915819167786902977;0.8099813055402058648;0.57808868041626293444;-0.20413166363973983541;0.033474155516079941164;-0.70498633450853953608;0.38261906810423618186;0.11794078600802047896;-0.017007184933839968738;-0.12040372964357963503;0.02908321887275118478;0.024413638375574218953;-0.39922005291320494802;-0.31987943431056403698;0.67668346114268307367;-0.49002918729132355358;-0.41901545842527010421;0.25294979706023273947;0.74995455123507548389;0.75442248770857789353;0.83381308648508900561;-0.66615632261699908589;0.71147358771255830856;0.6288172131933422726;-1.0320641695621872724;-0.6076787754682336784;-1.3604980393737426958;1.1253380282184057837;1.393912357371698274;1.2481332345174362963;1.3727655656200372647;-1.4099606734256686646;1.5872262906605392185;1.4480134802244848391];
  IW1_1 = [0.080754357921662134334 0.17338026028705086357 0.18494178402927322069 -0.66124971697843826224 0.0074485669178509317581 0.15177193124815138714 -0.046620149289316452357 -0.5408992791654577692 -0.3305008780151693637 -0.14293205514851409221 0.16274094952121012647 -0.088279846253616345297 -0.16942083529579535228 -0.10001806432442902905 0.17778600153458479216 0.24183908680314353257 -0.046544087951159725247 0.039826779894063593646 -0.0050267575139444770072 -0.2412056745005674574 -0.43964794444921445615 -0.77592933340076186699 0.27605613704070652847 -0.077650665743580579714 -0.0031737565772461742708 -0.26586940886729348854 -0.18823227969740985444 -0.15631132229605498862 -0.022209730403881834671 -0.37841352331296496114 -0.23624992067590930289 -0.24419565696716549752 1.421865680104017482 -0.084705850984473696208 0.47749906619929705087 0.93009057256281546522 0.98527298508006977418 -0.43785092771339684248 -0.092141669169059498001 0.82543826991237922996 0.063586671145753087542 0.18634864919220636703 -0.26123183697264723557 0.32775353395486439556 0.082231331619957159784 -0.33941744656791889012 -0.56869382547855917842 -0.012943325877782956013 0.28022059695498219289 0.099718563295982054484 0.19650592412343664828 -0.35297228508711475659 0.45289374100629847808 -0.31371876777251145318 0.036882536841347138279 -0.13982928179814207992 -0.08106843436345463616 0.453433536793172276 0.014226943371835523017 0.46943719105022468918 0.14031714659953595237 -0.040987515729247490925 -0.424398628009463319 -7.2044862448700838081e-05;-0.012461284697884898731 -0.047417079089262750835 0.20757458311476786883 0.29813982685386086757 0.43693548380657071251 -0.3348635770415757662 -0.10361205384151658815 -0.19507163578732814035 0.21222943017373568919 0.15390797377570222815 -0.16986753550775759991 -0.54914673944511283032 0.10365162734754217178 0.027039692677325487952 -0.174897815502811943 0.26963064138195713682 -0.31748657240990563189 -0.13769053057778932181 -0.36503837641294939464 -0.15551876264841163477 0.069699796666177565863 -0.49075063419853320879 -0.31592105402837611372 -0.2503029243121357994 -0.19213174577176500568 -0.013127681625927662551 0.19440688267666991762 -0.25347517475888431404 0.088023823540896342643 -0.13218615272949632566 0.28079650643612319438 0.22080134838447190715 -0.11370245837011162815 1.3474636810451436908 1.3941068841075483498 0.87417894459883138669 -0.16718903595675965734 0.19621865472539595787 0.42858413724591504224 -0.19214481509451106223 0.15454158857338215483 0.41320250983719669646 -0.81484676231357255904 -0.02449730126224127294 -0.092102662685794173258 -0.44826438582393451915 -0.12482924643346035576 0.44223175471719317065 0.48421306501949334944 0.16798801924671211139 0.3854652017799881647 0.3116486577350617293 0.68328071393327893812 -0.24588859205648938566 -0.64310681597097907325 -0.62786119016191344055 0.04946325389124402172 -0.46353211276924755069 0.08423723412970389457 -0.27173625881072349664 -0.38317191392769855973 0.1649620315020909056 -0.071243834048579368634 -0.35661860367411168937;-0.12168470833151871779 -0.045090644669651749887 -0.19051598091507054855 -0.27563026370974530455 -0.13539119507092536865 0.00056378038413662555708 0.14952804263572855303 -0.26440484473498915285 0.11007910154400940561 -0.22528967990382980924 0.0095737249135944245404 0.16468707630491330463 -0.34738174667060178757 0.14450527978543684093 -0.144058376674359917 -0.4110109956331475245 0.0083919683926484030245 -0.18645512815974807364 -0.27848071307611294012 -0.022101220344790624417 0.084257622290117684116 -0.32969867099427363488 -0.48564436298610563769 -0.00064150445296109071674 0.16411850523302498606 -0.2056973216392314896 -0.04538537245162945627 0.12175209296894913547 0.42347368329042583968 0.13838201613801887069 0.1575498826216089332 -0.32777180442208497801 1.0317222070145006807 -0.29175279258759873047 0.9629924589246239286 0.87720256295479026587 1.4504229313461696194 -0.38152291206843935711 -0.14920868912339874113 0.34525247849838275327 -0.155740500306710411 0.2150988246066092846 -0.092443939187752274811 -0.1245346668281273883 -0.12690080958855443072 0.15472620305452416956 -0.17551683741080278955 0.24651256977022664718 -0.12202927385354184198 -0.30315649622622015125 0.30655534733730566144 0.067906600087667662313 -0.00056866281384542036095 -0.39385994114716027514 -0.29036768993525874372 -0.40094932793579562968 0.20540476068506074991 0.46970741999028053915 0.10875635494094285094 -0.16768988786501154431 -0.05604001648226632909 -0.18918504000950134292 -0.3113343331041869555 -0.14797966981434307332;0.26684311470742622108 0.13906743392934822756 -0.034117776912512332022 0.14463265197445215882 -0.2298886016400494281 -0.32691720499925336352 0.0089605624095776426757 -0.073147330217549530462 -0.19341128544535207689 -0.17147821335753427041 -0.24154300717032384238 0.26584241917649475972 0.30057599548389463129 -0.41690838363482024542 0.086545705538303374649 -0.31923232542044982507 0.060443380614889651026 -0.26857889821390495966 -0.39347482098458130828 -0.33037116128491378353 -0.30940778969251270247 -0.071693201946223555909 0.12881655659538188141 0.12640846212275660965 -0.22916588421574807244 -0.027578808933803062448 -0.2393387363271873014 -0.069445913834291522759 -0.18199281097541231134 -0.35434478641898065066 -0.22883193774330737313 -0.29520088046320702713 0.074896692837009171129 -0.25238411170921160043 -0.3330525026527479393 0.10624160157826770257 0.064191531698087236912 -0.036524954666546649573 -0.41113278407242082046 -0.23531034465122208088 -0.34017719477373459247 -0.23073707110370686446 -0.02357919872328052488 0.14873287557526618241 -9.2267186400197295608e-05 -0.29720605886423839825 -0.24838848195277227204 0.20556987574823148979 -0.38944954933641301453 -0.014639723338404905112 -0.14277531986345370907 -0.075002759859934792219 -0.32012156235968053375 0.032434824836319993413 -0.49176657471683515865 -0.13464550174127601356 -0.40162383876470136856 -0.0495339021352872097 -0.094895287868457051106 0.13402704882274291132 -0.17033963305224353313 -0.39433012767750585947 0.16227712146636885659 -0.21371177222526546724;0.24381085047475190009 -0.27169627563869980236 -0.42227268003401058349 0.10930370559757927873 -0.24545604116850144871 -0.20739631822203255518 0.10161989168996519994 0.24156302394695841618 -0.42838758450878045014 -0.29664398176287770648 -0.14529668880167145861 0.28651646285967163896 -0.3835471272596086556 0.24417637460350599676 0.18675248904833213759 -0.087611560322776713128 0.21912574810139134884 -0.43061771769569995305 0.095496448604973083185 -0.23659968589086391444 0.10489196816082708985 0.0078631252771541020746 -0.0072299545704042119526 0.041028827633831435606 0.15683350435393728084 0.3264025676744218285 -0.019906892974959233822 0.17912823708336506057 0.21042512902745669212 0.28428651619641231996 0.099570012803321006345 0.13956680739497526189 0.042453100497661488966 0.60129525673108263906 0.15755895303912126337 0.066815941167954279178 -0.46332768467779850141 0.016753988101916070241 -0.20777926324396828184 -0.2820364957639006076 -0.030378535043012831057 0.34135738540767857074 0.32763675208522813342 -0.05925492629968900915 -0.46546000607112070213 -0.16141911576944159568 -0.18338132456453160035 -0.23992569144498079869 -0.2845318801131033748 -0.32343965218418430085 0.03330061986527580592 -0.33367140364875524927 -0.047044680811949027288 -0.13033326963395647224 0.30973439661985424642 -0.37602796709275465581 -0.34510654696420012266 0.11227732777063846592 0.14663849562815453598 0.35173082865266230845 -0.1553509669651489955 0.17704914602696519843 0.31830940169325061539 -0.020441342044888389379;0.1687566591576954711 0.051055717874379867582 0.4321593661122324348 0.28412968699320256816 -0.27442332130148899827 0.49115883990195718933 -0.22393975914176031394 -0.27075074692438333424 -0.055907324520066366269 -0.099070691105661579101 -0.30077050365700086498 -0.21440833511097862063 0.30366810632329593878 0.11106312961602791967 -0.39372145136746866667 -0.23353377391251309292 -0.048684516924293118334 0.1896473553285001612 -0.51622004410158595089 -0.2445746669489266556 -0.27858939510502050974 0.43618991424094299969 -0.22827823198414765038 -0.34211763711999981785 -0.25445474639252607663 -0.088812567356169949684 0.049282801415347445018 -0.25167011091615465457 -0.25001293244686673134 -0.16049632204764174848 0.53135809915099496692 -0.077556838372199302101 0.67094339386184831397 -0.99975462600960807169 -0.58520370466001192522 -1.8179130132232153017 1.1192068822869631894 0.20238393420525638278 -0.26458024549572284334 -0.99000248864869611065 0.15402474983786032525 0.0091967538323534051697 -1.0389377149261282973 0.46604264554745872262 0.80323985690262500459 0.16310549607789026627 0.37418062628730347496 0.36198697035365867691 0.14429468379710688741 0.33419938894492190462 -0.48258643291867114877 0.60575793411361700258 0.12869195947909081723 -0.84589595041563547806 -0.46968208362426244751 -0.80498124622378874893 -0.300683491190556762 -0.53580771552832462401 0.054733877707156125547 0.73941853721024197732 0.15080010805520660533 1.0005199348986164587 -0.10632241711158721409 0.20059788385227950158;-0.30298988749259153641 0.13374549357406642636 0.02309933514874572269 -0.096798201526684793383 -0.12925598768747173506 0.13368920148204155307 0.11696727685430470534 -0.33827249775858220238 -0.10806070622832147921 -0.19662848888696202176 -0.14241474628239303435 -0.28217445599476281837 0.13584692972543851996 -0.20674344281863493711 0.20725934446641075537 -0.30883984420079302335 -0.068251696845157888704 -0.062771995170988484358 0.34177600045469641588 0.040321579055631398547 0.11081219080686281753 -0.18152829019321195525 0.30524149839868713885 0.052069915043341581662 0.037027706502972025648 -0.056078900198733509785 -0.031890637437751480354 -0.022411911655049000791 -0.063542992933606629036 -0.036943919652122354791 0.5191822034314020895 -0.086390825814904870228 0.1681163806299474095 0.17780441021667386936 0.42026506768528359981 0.27265048957052723244 -0.037080872002780360108 -0.25733271780039357335 0.11104387109770620656 0.21161624334888720633 -0.017625143933515306088 0.24854985131439158441 0.16937839557317641015 0.31141626602703115223 0.27300967591182034866 0.12662805474757368729 -0.023141348287470300121 0.098666352923733810498 0.095901696894618471134 -0.042666888608903434654 -0.20023343766764700735 -0.14452736148971703778 0.074512589382207783384 -0.037101835730762373899 -0.022032105277036449081 -0.044800904877068198351 0.29021717772784111355 0.094459529584522070045 -0.15636399709674828062 -0.38550554853819640755 -0.30508460516751917391 -0.27480388180472758997 0.12591424360484254619 0.22747882112330305993;0.59778462260261211458 0.26479490269359551302 0.37785041843981936882 0.0046981908220392444922 -0.16367198389195800057 0.16334598130825997431 0.17966848949189995199 0.093136068111396699831 -0.10492976070700973934 0.27048938132236927112 0.088326598299357836352 -0.16236172218960198688 -0.13906539681085111626 -0.21584148233102376513 -0.087392217128811372495 -0.18953411219943730459 0.28646275660000702912 -0.031714000961081525998 0.11622925499448957809 -0.091491313687413519662 -0.30046042737408185097 0.21019130847728462186 0.13347394447035546006 0.27122536510872563564 0.20447828301534265449 -0.16741662916648314408 -0.071077396151316543649 -0.22590903108210055872 0.28336805151819477455 0.17638703237371822219 0.24809478038625762397 -0.15141483679616096758 -0.13894170160871857633 -0.066003179981255544195 0.13844783592235590519 -0.24314319313952401092 -0.23015366795350641893 0.11754665016894220997 0.20662425350122345935 -0.33135944049563281766 0.18932587566855210715 0.26201291436400514501 0.15525215137567477397 0.35651282606866407932 -0.24488233984712820535 0.28606595457336858601 0.014374460847057322216 0.21694031676960556787 0.039225217402284462409 0.21888725864900060447 -0.19221375751763419837 -0.012083765328019649421 -0.24915830655418186312 -0.083352148356341401736 -0.24860376302001041537 0.17942738009678754763 -0.30046949344005491334 -0.33789120592942589738 -0.21454836118002004741 -0.32633315844782512238 0.086362385768446250922 -0.10526021358040441034 0.50444885332953259827 0.47472344520494191844;0.14960037454461438955 0.063569030577285454142 -0.25364613128834440081 0.021365011093197404379 -0.10633827824533804984 -0.16695423461725569791 -0.091969128195645316604 -0.10551035735471006594 -0.38217924357401089619 -0.048895097166414526468 -0.38421220619685808595 0.38691764688366447889 -0.25917708805041850262 -0.14757932239291465804 0.19750211392313285486 0.075132975611174088182 -0.31060530223240861991 0.22335587819517077612 0.47279191429323097484 0.19827101918433284733 0.38552958483314342386 0.0072923015621751876431 -0.20451629203507923349 -0.014468666478279880797 -0.17789388241610692987 0.081855601456943413718 -0.24576343374816717047 0.11306942213922507867 -0.24030304369229402162 0.057738771808826500065 -0.15496943622283218533 0.34761420411799237584 -0.46727563290759038805 0.36473920646029805992 -0.17400760318295388496 0.12772448207262807052 0.17714701359854503893 0.15395337108910595036 -0.17688734865954069964 -0.15669877151654171277 -0.063067908660969174139 -0.23386997965597602911 -0.46352990969361312912 -0.1072740138139921251 -0.26611242230598713965 0.012215537746659789822 0.25211419780659555245 -0.094083437625866545018 -0.15001993203710048408 0.19889975671794049572 -0.3617899080103468834 0.13261755010376649611 -0.0087743077709925721558 -0.086366765644032561511 -0.22334015195481130012 0.041099725829752457862 -0.25825982774263828157 -0.17558615131221727568 0.025966263199657030336 0.20886618233328829719 -0.078828042281791799173 -0.033391364878629960222 0.15457386584907473193 0.29099756064250204002;-0.24635364521608099642 -0.19710092600596759715 0.17783325399486876739 0.21659195305552261801 0.30000043990507418989 0.25928593006214767369 0.27467030586511392842 0.28120244429319135593 0.10202631622079767759 0.23761556313091550252 0.11885024148527477406 -0.32707652437746875806 -0.063351846857822052828 0.031145598657649018609 0.23008549423379767718 -0.21545366255808665046 -0.22010700386255518946 0.0040961909957879290983 -0.085369105262970215731 -0.12517958114514976531 0.01958848131819308086 -0.28126210560431019747 0.31062167573100085693 0.073241402546150913278 -0.108619837024640703 -0.085895994864214134101 -0.17558912492900979885 0.53382586871653692207 0.10672811907097055906 -0.024973433359850617796 -0.30260888475668501485 0.13503403972101218899 -0.047406956379899382881 1.0318294228002264923 0.55225064917790023244 0.39495254951177427571 0.048946480296725110304 0.26431886248033170661 0.064077191490598317536 0.1343624688790381605 0.3380387623294487387 -0.16040472730317317795 0.46618039714599701639 -0.26584851112718155264 -0.10569074386678251054 -0.4773554817281362439 -0.21848585261616185194 0.084823146456867989929 0.43760019077317274805 0.13562007531470360311 0.23394053798957267776 -0.48984993564856227355 -0.0029262545445394388087 -0.0076084349806926371979 -0.38728950071438977831 0.36495417644994876394 0.40658067132992753434 0.0015027771659345805916 0.032742576790470989678 -0.058438381711448834921 -0.041950885356562737927 -0.27549588542988812101 -0.005210750767488314325 -0.11992992717629148702;0.30878424961475281485 0.47525370734883171098 0.10916874417540921305 -0.31892507157570837428 -0.22360783799781538961 0.0054066307523567159327 -0.20790480536658295652 -0.1991966834697807831 -0.43637546602855564748 -0.39723176858845199444 0.32018302945280624483 -0.086083740926790566772 -0.13689258540345861093 -0.11099469531059906469 -0.24090634504458000031 -0.54026704635587419201 -0.094634126401080473356 0.33426882743796559883 -0.29278431968502971472 -0.23993672475346700113 -0.24171989700788795719 -0.10839635759106329427 -0.063918230013612339913 -0.22942306894833228159 0.18887924521076618345 0.2811039233392970127 0.098647203259587673552 -0.0052211772641779377949 0.13716247834743139355 -0.45990053992557905493 -0.16584721901096657892 0.050501386062825559531 1.3554704870667453331 0.9698113349737110811 0.89191810077384126032 -0.90470506737474476466 0.98683426158929898886 0.62207324009569997525 0.51060530377770430022 -0.72930703981813838066 0.44101997174539514512 0.24137640019313727491 -0.62006434050982695005 -0.2802876991563904574 0.050511507073249736766 0.25844133398405066959 0.79804882783805863866 1.0864693036945654026 0.0025608774610515719523 0.092078065270917996976 0.078038554137120699772 -0.083299291365091412964 0.26676895791208443676 -0.10404282626022311187 -0.67924940814412337886 -0.65840866556037036528 0.31744177016482577613 -0.56502191914084531899 -0.177721928216011682 0.64470098070748549368 0.18840626994184297982 0.37981834304198275332 0.063611736951488792591 0.31685510921004983453;0.067765192259439319122 0.12569674457862795025 0.28230614539769322002 0.31166361927762165074 -0.27147211059789533305 0.41036238981474976173 -0.11857124082571782187 -0.82144175136359154354 -0.1410799108667210866 -0.10051468329653047429 0.36417424438477019599 -0.24445964594961799854 0.078785516595311119725 0.4408529181643380257 -0.43256356258632838729 0.51621527107565590153 0.47956958338969701838 -0.65171782508284081814 -0.10760176055297170084 -0.11580081609867813597 -0.024839008689071170877 -0.21533852386285953773 0.15546914952997115122 -0.17220244468752984868 0.073805677799086297219 -0.089791572753311607591 -0.036636434405850092089 -0.41490342601155733027 0.17983654786584366003 0.30156365162895415466 -0.41263003377046891806 -0.52372779512217504383 0.42196897252092324671 0.56060903786696947293 -1.9692075128772530412 0.27719221881967637255 -0.82702502849986392341 0.70522766195212371887 -0.12337327387256497024 0.44840578209500336904 0.063648255721977228805 -0.28120903432814053913 0.38983017719042573068 0.78633872205118360288 0.50797593212227054593 -0.4066138018418711253 -0.0010694912428268431564 0.0010122333404478020807 -0.023850796788725731057 -0.65085230689489270706 -0.36486390101437377043 0.31630157100811850945 -0.15445247364281161628 0.091080595489993101954 0.70593863001729895146 -0.3954330624119182791 -0.24198048558603263425 0.63122596152406473813 -0.071665732491922568004 -0.47774486471279986599 0.29256978210032835719 -0.17830150697507157753 0.35584005077707497877 0.14144681329673702841;0.47544538053797041899 0.0090024284022549912881 -0.1907138928039599779 0.04382242318870839537 -0.096359975185836832523 -0.08647404824254430189 -0.16648397697750297319 -0.28788316657470092164 0.20781914770021153727 -0.23019015224941430375 0.099475712863321699708 -0.34166513583667662557 0.18341779457566906308 -0.62836353298309466364 -0.17591779166259399747 -0.097265309300338512188 -0.058772558482691007742 -0.024951202510596990486 -0.19050830307851063239 -0.10156461641916478267 -0.27001705560582012211 -0.20846453131045591944 0.16995472976661518683 0.37890485328976880597 0.053166277490424150576 0.14800696399312643359 0.031109039933946747852 -0.050658708652042534759 0.0070407530707449275664 0.028120621360618183043 -0.18601067938231796717 -0.152947004271673348 0.76557626889457575103 -0.80767623132101296068 -0.64218211779535261385 -0.26619688718253331494 -0.37054556811165856312 0.53733530378465532706 0.95582888251858610928 -0.20844760298690584444 -0.42656090789111916761 0.13524622360281399192 0.027942528113118498406 0.21821474405010299336 0.3968475660046054676 0.52938535658835828013 0.15289242531897151434 0.74811002069730736519 0.22083834260517490322 0.026996254637607085963 0.28719534078516167908 -0.042813309307754725264 0.50161515042975679535 -0.32701220871395225709 -0.55554181343605679722 -0.6743928318970821012 -0.32498116489016565245 -0.072143987046798821461 -0.048474049663531165733 0.11422627233163056004 -0.0078090634742939580432 -0.047763983052129796447 -0.07278533263454559088 0.36839675339762806283;0.16663843207341696995 -0.40991903867169837694 -0.28726429910643086485 -0.18151621155315858513 -0.58366514698989868659 -0.21317851309254387537 -0.47010091072701531978 -0.16747680807581522 0.20152332135565223514 -0.29946150350315325905 -0.0019866341221975850929 -0.06242853657158733971 0.088537943709231417544 0.095717890340592387544 0.0095624637594986378053 0.16419259696221535916 0.0667700219206618234 0.06561667544276984787 -0.098637912609488634375 -0.44576686815233507177 0.18990156404834859782 -0.10726556918199965651 -0.39678282620670063396 0.0089838982158930279914 -0.49851267409523475349 0.0040627214469350914072 -0.20978086800029566161 -0.069773681632052109158 -0.16117149585848111748 0.062251887337642634879 -0.13266714411435492904 0.002267963071432626751 0.34733585632802527199 -0.45520652350992041324 0.65352623422919464691 1.7782824462190849335 -0.10846824112843965471 1.4031215970704111751 1.0517244926174487141 0.34159906756761004853 0.42581006744615329529 -0.30939874010139967186 0.58513788676105438213 0.027922547681689967314 -0.10933527085644381693 0.25014644540365449377 0.12756227911069367709 0.59886915403581497674 -0.24078656499270550961 0.11450967978039829076 -0.28268625855019963167 -0.32210625012068833106 0.11166305160780430616 0.19164970929748326167 0.27744689921451853865 -0.168072735036714771 -0.56188959068287502863 0.42452229778371269875 -0.022112102414106507564 -0.55163052594934458561 0.18693329090942381598 -0.44027448134773222721 -0.081308117768877030684 -0.18128390555573789533;-0.035996885133301487203 0.39593465897268070863 -0.041530700442827452046 -0.36911068426788129493 -0.20737015084359808337 0.35611245583595840802 -0.28265768369096044843 -0.062247881284104605859 -0.27378308043407612038 -0.27965385094780709219 -0.51762884401163156145 0.4189468135038034724 0.46755037715886643701 -0.13701506664685761394 -0.087556561822672615558 0.069821464911508354656 -0.23525741473472702725 0.5835685173831737238 -0.16037187007103156922 -0.14375549617863650487 0.14245429527246245005 -0.19868464830435053625 0.185679181624642059 -0.23766829886696969054 -0.087022839877235705353 -0.086161362398939650431 -0.24150249822774227937 0.0034371060813425820778 -0.11753367614573929922 0.025032285239850102926 -0.047899789902428088761 -0.19335544476026464422 0.19374915288945276926 -1.2361260591291691746 -0.82414569998048237132 -0.19364701914685056305 0.2623470810801273867 -0.31765083881707523172 0.26999680687662752643 -0.24262749554022389198 0.42054607602455745807 -0.49151781982561665307 0.43051937841115212047 0.12952034766805697874 0.32344226933352726583 0.39067959081902975393 0.23897464260325404495 0.71704308875055278172 0.25978038510272805084 -0.048372677871085005552 0.22226738410293359061 0.26980658496984905037 0.077267368033706193553 -0.19232390063348420162 -0.26328850192717145884 0.02114627768821672818 0.17964368706008843057 0.058335234692264543999 0.0015492036051503554721 -0.22872614471607555231 0.24691495360094095624 -0.022857171817862419194 -0.27842379147810347728 0.11775045701715698698;0.2650102103222123362 0.31552727478158215657 0.41768181199609749621 0.22922348062317304818 -0.55222955078667790296 0.20324345818076614001 0.022169951512995427628 0.030093554466822984572 0.24634951355988335409 0.3861028803703680512 0.39476054133427274095 0.065392163176925602319 -0.068314223103293852946 0.19404869692219611776 -0.22252029537587331154 0.17962868338631396425 -0.13072935048565842431 -0.18573175246841588937 -0.21611626979804191007 -0.20552223853172293944 -0.60161202579576833482 -0.27813212319318481036 0.01356537109796759899 0.07243373151458161463 -0.3002199576679680515 0.062407176831143974793 0.3382606267050393134 -0.20061445714036438281 0.19136108001670598666 -0.30994023321552838235 -0.13331142668297210618 -0.42664225404615918613 0.71577216488830042174 0.2368514169304378747 -1.7797663803278100936 -0.93334590964153507642 0.2035419088930366105 0.50417182452997921782 0.86878526288436852543 0.96277202658924809775 0.4260632851771272156 0.021825195407313775081 -0.037515015405869683862 0.6009267220057274983 0.65505653147464548702 -0.097234787494125993201 0.41696019796747035846 0.29741764715170304623 0.76900147037123589566 0.066014928398330577353 0.057260260262529921738 -0.073288607301318975384 -0.13400745244482997753 0.12554574004808277676 -0.12683361731271711181 -0.70448837323655677523 -0.43480178091698135079 0.13767775146221164495 0.11119574391599666707 -0.28056286718729439578 -0.55954402505937206325 -0.19002878148386936896 -0.18904678281243847415 -0.39814892331714929474;0.2672470462677337677 0.45514647610955288881 0.37766482962926334332 0.061121647073788802629 -0.81591272747748477823 -0.18613980655352560523 -0.28896746427752884046 0.0048677112529570262453 -0.20390444630862628039 -0.11189461607816915401 -0.076770750772077220314 -0.11124626605965452775 0.3037468663143388925 -0.21198274245389847614 0.020414925562196272607 -0.22871564809575464783 0.42630990880009639321 0.47576960836209397643 -0.16048234237657202361 0.13094917847506382103 -0.13587498060220981611 -0.11000619128834393523 -0.56758641109653629186 -0.063780450087968898476 0.41241520206932269499 0.19286209299914339188 -0.15420618285253598345 0.11039442194090157146 -0.5032135257991301458 0.24886242566379110364 0.47599563097931402167 0.11977642358277922063 0.94089417462147084681 0.52445008223904288069 -1.3537751536607944836 -0.75985954352647400167 -1.3132347945809987877 1.5356226412832003625 0.55342350358637182328 -0.72716475779370126631 -0.13215260521027913376 0.39937023662155296533 0.28729059247882643424 0.41121172156136304165 0.32760832599736450232 0.67054203098743048184 0.64531024886332599699 0.070023283450650897208 0.6150295794677539396 -0.13956910840741354463 -0.46249401966089559446 0.4622882338455174267 -0.45179193714760068623 -0.50189842430454445488 0.34423514677183886246 -0.96334796901413166648 -0.33432891438968304065 -0.1972734247913011385 0.071835977652121588144 0.30342596416844752616 -0.564523203190489542 -0.44934960148099079014 0.075905772726519785132 0.58566298252453630191;0.097239644491545554339 -0.14549521146446628417 -0.21109169876986974557 0.080278167680544132434 -0.0077488259378376746905 -0.10505730634685334079 -0.11857879168550085336 0.15201942238359036907 -0.20033788244967640213 -0.1969301587659481878 0.19458829750088668664 -0.078794464193006827357 0.22364275477798761793 0.33922207238466517421 0.22434607002744424986 0.3243138073544929445 0.38255195526885504842 -0.098320122769136333862 0.095839987653740119078 0.21737463952921137755 0.015650037565491672908 0.2782621809766837595 0.12160876763823492974 0.053716607263452842425 -0.13239769998827360942 -0.069160459180839725657 -0.29110437538311273453 0.12667772067066107589 0.038063750287741740519 -0.090450652334712888791 0.27176061073867485707 -0.11615524494853005089 -0.17871357351346797704 0.23582265570954477618 0.12431610890177530182 0.020009035911634363153 0.088294667994607514694 0.034106190690068961813 0.41652643214784301762 0.66328014526628176206 0.2786390430571449861 0.6675408871698776947 0.011473844022573155554 -0.29645338030436307886 0.1706908704585645975 0.16066520232887565589 -0.016589168660336977429 -0.45646721124918354651 -0.14483695607892987933 -0.29549690672497319621 0.026244520963385527951 -0.34338272978949080372 -0.32163343262128524236 -0.47281534298952843098 -0.24266202224823635314 -0.2041314481975808337 0.071660558030547688579 0.20104769729510504894 0.28634676968850558687 0.50070363542575690996 0.0040191393082595226402 0.23214338045200463845 -0.18775967064091197978 0.03548772914963094216;-0.20999757342572378249 0.29766888524871454313 0.38243365354472064199 0.35982836893152037039 -0.091911574684644142819 0.010180465257472615798 0.32526458016685494412 -0.043025281779779489533 -0.037411558378644814427 0.00073502109816114423371 0.22919826411063551341 0.24807781300918485545 0.050558530838079270009 0.080489500843871103486 -0.36641881528199865548 0.019254213771588597759 0.3045505639142156995 -0.13822398973838539993 -0.048967110013200913776 -0.29279210671472549743 0.12933522352480414375 0.16747209593188341903 -0.096830730768267536668 0.31699499257990365608 -0.021091235371772487639 0.089074020652731109027 0.26630467430503607096 0.1178577048370429009 0.05894249956770467036 -0.27584582795603979077 -0.25610217788599015654 0.0077468638744301668297 -0.061454059739918479033 0.62130959494551019073 -1.5028167463106887336 -0.34700635869141610579 0.3182023529119230032 0.2613496572855183997 0.12216338024800627027 0.2478631578747219899 -0.26905766029302496944 -0.85686041567916459982 0.58546889251973910362 0.18501611470441309271 0.26364244338200248929 -0.47576093211295744645 -0.14557568343413473944 0.22135170777881962856 0.35820034950056295342 -0.23522676366892256161 -0.024544214649092087333 -0.034946797690706674078 -0.24212169761130936108 0.32376323139177320964 0.091164309905684789981 0.066410266743894150188 -0.39925030511053932747 0.11582385815088290515 -0.17761031688406181406 0.11633820013013299044 0.10689861240108033957 -0.42858559986960165222 0.013385506401505417595 -0.19336142717263707369;0.10602158887355858652 -0.029836388111074679114 0.13155664357800775366 0.10996378868395474682 0.2571302357255044746 0.39621563959577404956 -0.09010198759930360124 0.0013433502890532881321 -0.45497383796780971332 0.096368759141151588699 -0.15407711690098224722 0.39279910200714374113 -0.18198385129642710711 0.08182782468968095857 0.15934777706523639562 -0.17351653171918993146 -0.49284292539782775799 0.18393487454610532583 0.16262839768662362694 0.19646518414235081273 0.27240122500833069408 0.22969576381542028409 0.51653872232429631772 -0.15387123946786224193 0.18822752800535896833 0.51072506836829834054 0.33787245552116568215 0.23496445306626512206 0.097351218496809249769 0.23663768285206762676 0.12380725719670598872 0.55120772665588047001 -1.148036029366286348 -1.223584894833680492 0.1833022610552744458 -1.1423812511824755767 0.16384244116440688233 -0.19568185518299285874 -0.22478295371966988681 -0.018590464102772902288 -0.15264794986629207085 -0.15769179240240613349 -0.5490737703232729805 -0.093591813289544717458 -0.17435114760870387696 0.096107550173571573704 0.029243994708294529516 -0.18554112270857373024 -0.25818224940951711721 0.35448299604181737754 -0.58282567823785225158 -0.17091187682912686863 -0.50682617534167395679 -0.11460059348353632269 -0.15684419882081981901 0.31693048463025519368 -0.011285702737324978737 -0.042417819701360139073 0.078481987897799254661 0.22822100522918348231 -0.01461641838113439569 0.25865744780888832999 -0.1360284720213743026 -0.3165002359757691508;-0.06865412974861104245 -0.37197359883510694445 0.3242207640686911585 -0.23819098736184760035 -0.045948537068908501535 0.18055499646179115625 0.27271716562499420666 0.25396900318599091584 0.4016276578236070427 0.23938153270926385008 0.030215046772238018935 -0.021305565086623772658 0.54526087581767535006 -0.11156163202567193071 -0.13222932360998004842 -0.34275134710491200751 0.31900798157861937066 0.16447754757707794271 -0.037981791492867296445 -0.030095493524985916789 -0.16431289354886591259 -0.084578475505849542992 -0.31103894394770892351 0.034732738387843527239 0.13424505699271141457 0.19250654890011201226 -0.20171860633323637768 0.0099391987142418165152 0.053981605474192020933 -0.034871099903001349929 -0.21433031506639876884 -0.087225236555779156467 0.17912147633170416583 -0.27374930749086018311 -0.12022025104588282551 0.57388073861059485381 0.34584752700536214309 0.29188963434916520567 0.34491312569419646517 -0.42036034292010449054 -0.51324794121475147968 -0.073809433087962048048 0.060182756039001500392 -0.29875562982437314785 0.32382164259532753015 0.29534366032942549474 0.080257667275710917187 0.35851113667630524207 -0.0031397594567646328403 -0.15969963621196381354 -0.18286332912735078771 -0.19695202533280423141 0.046395754239917597062 0.13705343008520942671 0.36824304286449904833 -0.060675940468332294209 -0.3161808987822837258 0.25404775738250906514 -0.24129155045495900844 -0.094658326459934202801 0.21098650878204808223 0.28755620307691104331 -0.091730012951541303745 0.14372721121686599099;0.14221194571695763842 0.1308949166543253162 0.055963986494370024372 -0.33629953383250332788 0.12222603182723514037 -0.31726957585507381543 -0.21607873191324009077 -0.54271499064722150685 0.45450021968301679287 0.18464630280727936662 0.40927176419477895308 -0.080932378972430954467 -0.2488055831960313824 0.1889875182961955058 -0.21942023074836070062 0.086741897499998249499 0.22322039794798184675 -0.04728568717551622641 0.16852112308168082366 0.25109094187326685965 -0.017674914570430570737 0.11814609514932659928 -0.23675278433565194458 0.10142205926528483073 0.02546276030498894824 -0.19804593676720469442 0.036063692019502623098 -0.33298307487538092442 0.16386566242659345027 -0.16077430051602065175 -0.45358023473394176728 0.0088987629815410369816 0.56496164290373795946 -0.6446207343019312308 -0.59627089276033129472 1.1513159605789002882 0.44633634194452564969 -0.29342169809113072265 0.53927184879092904257 0.41027964650124904011 0.23758308875647174419 0.0076751548227102202662 -0.41391224513310503896 0.26644025868182819039 0.44974208955705241575 -0.35114509567676749358 -0.69183328481225869755 0.20289632033610338624 -0.26297433945572984415 0.0809372310001478662 -0.17019714694211604544 0.036763144309642177554 0.002130114519669686849 -0.34137833524050709144 -0.064331996301280822137 0.14479877432136689652 0.43176072625538569616 0.39068806020641200227 0.028254745565966812859 -0.058541067827388201805 0.40882190184935957022 -0.27700499750262319587 -0.071918126933220347108 -0.032444167088905240259;0.34961818981734005263 0.4007822218262598879 0.3383344904543594267 0.19579744413898544919 0.26333979987514355425 -0.028247472421045843188 0.16991176404952246237 0.17025668737582042023 0.19157728468711673897 0.28960092602925319172 -0.35833241482355354668 0.22889683356186563135 0.098582073975508555108 -0.04760702308676479505 -0.17552673469222154767 0.077168977107089906098 0.231196132044551389 0.23335738058934213379 -0.06013400747280042008 -0.027272544048370806619 -0.17262133365608500757 0.21111279004076671795 0.21115057430039407826 0.19084672249153664114 -0.078467356432842305658 -0.26429380746306296857 0.13672156709889138337 0.29869264526699201845 0.11711016294980723662 -0.061610824581767684172 0.21576479681104843156 0.067757637768577558268 -0.15532169849656352056 0.26358724581581322033 -0.3267883768356351637 -0.054031885367247900476 -0.15694736681678980728 -0.41165482559986577016 -0.27796990605777910366 0.057649412928869082917 0.093487996797195549448 -0.21506422241708542109 0.10707643285271102596 0.14488898366561106523 0.22511096936263286228 -0.1492202112131698899 -0.18505075289298261731 0.021902905814791328448 -0.20545023961199368467 0.15653159137656022515 0.24400614160044847845 0.064707354383392839958 0.036902925828813534781 0.27018046342559076667 -0.022679089276124497765 -0.010468858197299922216 -0.33703595233327282576 0.18339586705263519195 -0.19573218609404577362 -0.38565620879319678638 0.15356237774955427966 0.023692102467977520924 0.38422787118519208249 -0.17169957582182179823;0.33273287461782208307 0.13383740413977007755 0.56398727964462669338 0.12598021919264634771 0.1149149073711844965 0.26672201173611004288 0.051999188240445255726 0.053873936677054784505 -0.083277869104145280099 0.03046924546273463083 0.26516313447499856304 0.097300393391696340939 -0.50278834483803502842 -0.04939490778469816934 -0.050973849110984938149 -0.1456950475279520929 -0.50779084693539100481 0.33155151537349908386 -0.27779694052127468229 0.003131861167440645223 0.19478239191287560761 -0.0060045605941022829263 0.19261018673872240536 0.25461567754206665404 0.17493044001342886173 0.36940884157408654387 0.38712055364885517017 -0.56458192337874002487 0.046978987912138080174 0.20757650187194942593 0.10731546253527542156 0.26330588859000236823 -0.48530130525928277807 -0.029508808128982162711 0.31152347076290548555 0.28716237014583861908 -0.79142839842346823787 -0.10056538076297820428 -0.34444708961021325289 0.15419770019467393674 -0.19826028393693825858 -0.027437343712427342268 0.13323144385696550351 -0.057967312145855889871 -0.41076612498182030198 -0.14118607000756852599 0.35340149743673276994 -0.15812310039751772961 0.50698730292450921997 0.039490888144543455363 -0.41663364458390966805 -0.0024612048784890777457 0.14220878492839356122 0.35863229599788148949 -0.24862174110076115663 -0.031410080319372313262 -0.14060891208179271405 -0.51718939445287404055 -0.45998092501857656966 0.067184960168197596642 -0.45898917334430155979 -0.41883223545483327932 0.026205746825886770679 -0.074187588028651732519;0.023191851536608906054 -0.055107998411996629573 -0.13560842582563661929 0.005403176707178610795 0.25258662340798970769 0.047586845010038958392 -0.15305621255420862048 -0.10965232524477228071 0.20006719646747608832 -0.016219136276415180992 0.10445207040367950058 -0.16503216198443143581 -0.089882730725116807835 -0.14795133945122587726 0.30969890515535797304 0.027476062439291990686 0.34869202481271793781 -0.23624716585916266665 0.10503048153087697625 0.46136579694042356703 -0.22231053537935924203 0.34640453065197540639 -0.27321206688165344811 -0.14304820500218592971 0.0035541456375034678576 0.050901887141758590805 0.23987180447333558697 -0.097497851220526843274 -0.19367359575105638769 -0.051080656397996027085 0.081670995486510050698 0.11856039263659960692 -0.10681113265496072762 -0.074770365209971087483 -0.28518135884213263731 0.36612464624815321823 -0.2246826756690012139 0.0058794002977914918903 0.13939273313305300395 0.34518184198185236644 -0.36388514454718562385 0.44248550459270086233 0.26691600673839038782 0.22610993044555405262 -0.17339392662618560714 0.079117424604156647017 -0.17381479396621188349 0.15935660781432614552 0.19995473612360026294 0.28076906301681026079 -0.1805748472474043298 0.063333283359900169329 -0.038662658500544497264 -0.25217553664478009612 0.26820554165853149886 -0.19464167409142887899 0.087658113150456795637 -0.17066097401705709879 0.28534772906017386029 0.094090027609564239053 0.1898071646025946968 0.34600670441276293321 0.077598730316288916375 0.11123701025145606158;0.066057731648300338501 0.066463828925382481549 0.17695467090972419322 0.045240958910611285548 -0.11755672368486318191 -0.08072184421361404405 0.021672510488936168327 0.020905328272524802136 -0.26285071913037461044 -0.22947692613146683516 -0.09606345443820521468 0.04359713277138042159 0.041982708985697933524 0.015950801219612842363 -0.078039638621223511583 -0.036547128177457539888 0.092572790507171473506 0.23420219940288894422 0.15629132657413172258 -0.28368913919298066606 0.35840539031816676108 -0.25501762396395177834 0.0038290650515655335132 0.2472734944774925836 -0.18645628356687346527 -0.035680145345953921676 0.05483975586453763984 -0.34831629265255553696 0.19882585261651558595 0.17701755717671474599 0.12274524119599455885 -0.14631906083515086592 0.089484798390090658504 -0.33831900056903896346 0.51620081158132835597 -0.14391195408864076999 0.073107018060489928346 -0.053058067791238228139 -0.23919234861990534835 0.23263746617865868616 -0.30693038599032995695 0.29217246378148181707 -0.43841936890624494394 0.029627377230905749261 0.30083381754857396739 0.14051863065076686254 0.24945676192978302743 -0.22647270262245719485 0.14884693324936973391 -0.019000184896942239055 -0.28500093070454113331 -0.087176317620151794197 0.036871445658071412554 -0.052456398434410106413 -0.12670977848003056598 -0.32865937923079235894 -0.16119835246023139774 -0.10000368550038232773 0.3018550131997655428 0.24385089635942691633 -0.26062169342821550622 0.31363909042923854287 0.26907460011018108359 -0.25547420160878187012;-0.2272349603455852407 -0.1643209394683234903 -0.25389952720226821592 -0.17050504906383270876 -0.011874661929792170237 -0.071325844415465272652 -0.22264309281112854011 0.10510825222906683418 -0.24058261394075969308 -0.37015833534808723071 -0.3093608698494464404 -0.11162058212586457862 0.27542334328851725278 -0.18259146885896035406 0.23243546315137539326 0.070228468792198253667 -0.0020197830044582842576 -0.14432498434959745159 -0.16074681273594915165 -0.19263483825520172354 0.34972854534364494761 -0.26871159170531122573 -0.36229165346476965848 -0.24200575505757049299 0.18228846143975299676 -0.16082073615377159848 -0.4193765326435472951 0.31838389639630620964 0.088821122056564338898 0.016675003959002614173 -0.2394240000060595952 0.28472083309143914054 0.14675347818799339139 0.23700074727526826424 -0.38735187813174132287 0.20142744346647847853 0.11980950651266270013 0.27916148844725796607 -0.20347631173738797705 -0.13638077121332711772 0.29918305275993190007 -0.58910168660458461787 0.48031376221800287096 0.23034386318589672449 0.12465470387410847175 0.20188845050994394525 -0.1581822298074040678 0.068151397445806977116 -0.62090429597818541652 -0.10136254083621154543 -0.018297138600458402735 -0.10771728888113869804 0.048088792075074299204 0.26700311650760749638 0.21161292456951419361 -0.029775997977336300659 0.071781606600259950657 0.14521327484625587423 0.20644205818434691047 -0.10621346304031664687 0.33285959232885320436 -0.32575730177763312367 0.091551677560563232694 -0.47381828601784364841;0.26388327009456336025 0.10689731331256913105 0.32751376053123865129 -0.063283094479167162349 0.16006158335806672244 0.25018220787022521501 0.13824947256677494467 -0.18014151713144382905 -0.24661249505711321794 -0.15901530915834888313 -0.0059950115883157474236 0.37813149036224014132 -0.12012409702433314573 0.11897796495872428602 -0.0014217788456382354952 -0.22068588115951803807 -0.3603577182005411883 -0.042686201087071808102 0.082045630452495230123 0.098099721249112592503 -0.059088156292932847435 0.17112186168751539195 0.45140352829690855163 0.017290447086447700148 -0.039100776119888561166 0.24306976417341111252 -0.1385400584797983059 0.10891135413327986126 -0.050096062320916082133 0.37737419460707349872 -0.18731761527493981379 -0.15356113826625988894 0.0072942185250401718119 -1.0253695116029277745 -0.54599406125856986272 -0.084489108721607947272 -0.58005852751799225064 -0.11881988018544746566 -0.017500768166365272133 0.48703720658594473747 0.00074121101758271032769 -0.34489777804195265176 0.31696279277616007386 0.077207889381573135967 -0.41372802940166508723 -0.07349459259021066948 -0.21634072570559498283 0.12637271477847611401 0.30192276487852304223 -0.11110902180637434455 -0.20201853435861152897 0.03748362696006379835 0.1965449686272817964 0.13087400552541289533 0.090024621767621285096 0.20507183203463469345 0.34452085025728851342 0.034058721764212172844 -0.32333098759279932377 0.15165415533908382928 0.086322988585386978277 -0.2961464541179518184 -0.57364857003837588234 -0.1977392205545836501;0.039774390359833634856 -0.076616214033326107691 -0.40335708506484629909 0.060319126804300730871 -0.52604061485352282546 -0.21010027804344735824 0.45187461473724960248 0.070130074387398502744 0.35218162242999351275 0.05162713484093164884 -0.29634654283430905686 -0.0090746220052055036331 -0.031731202730727554873 -0.47684719330250358027 -0.29165117385814121054 -0.47418497715211394006 0.28692276017275275546 -0.24846411511134772199 -0.058446858152588827828 0.0061366902081528137622 -0.23998515374013018597 0.050317272025675041647 -0.18550478324966343524 -0.18145884594353750563 0.026053692266378464248 -0.16080548034561667481 -0.35354013812509865744 -0.16967860590261310549 0.042578021535902704775 -0.014354154829509963368 -0.16926979676690359633 -0.027572092738489102637 0.56595942707412150163 -1.2518779320621526985 0.55057750501578606173 0.46379728795491870219 -0.75839822948083090992 1.1271110694785835271 1.5744003158038164525 0.23844496889789912331 -0.13384515749645942151 0.75649989856638588659 1.2064900565782219477 0.80811444858903225263 -0.086565423619644907283 0.079757269100690364461 0.63007813706800808173 0.01605602915518441684 0.52123550096359805295 -0.036270896733372186282 0.18850823965100246826 -0.03166092451668601343 -0.029658114753899983418 -0.60498651361671806903 -0.02836982158822441355 -0.28713403693533373628 -0.53400087775819760072 0.35610800630722655447 0.17850012976659015984 -0.29651581100496526844 -0.87907443121561157362 -0.61840534179126360748 -1.0648403227058742537 0.4032591719293146526;-0.44602588235117157645 -0.36479786665741686935 0.67216195398444922304 0.55891190193502993111 0.36302240827937026779 -0.11468408073588598484 0.14686473792468771049 0.28438311414057221294 0.41916538524001545341 0.46638973704656666586 0.055422856079467203161 -0.44709106667278347702 -0.14851360265196755783 -0.33028788054739749436 0.012823149465348859105 0.1905844268403850128 -0.027430888314662220384 -0.039987368754440838492 -0.51001124077014592384 -0.35620079803961596232 -0.03045019475119442251 -0.45209697003571319707 -0.27692214621451310963 -0.14035805710482301967 -0.27771532361206135997 0.43722213101178597494 0.25408639017807088667 -0.089455484616578262447 -0.2344973111923752962 -0.28396592120679364779 -0.099873230115165773091 0.22791932319168484167 -1.2069700102038958267 1.2283962821672822496 -0.52680570245134616947 0.2999927250000511969 -0.57450838531161274592 -0.26654406767376981335 0.84018619454424459114 0.57909425104148148922 -0.56070323393889054397 -0.11920521000760786468 -0.43358973186465804561 -0.80582799517698955327 -0.64351242053593338266 -0.066950935907263350866 -0.0015711323167688527255 0.38279455528404765507 -0.077612240080692354582 0.1638728338466640122 0.70647180645046614433 -0.0086410090303729730765 -0.041942147658969627932 0.56678897283678242314 -0.18135951041121919913 0.098371190096089591859 0.28125099674680187345 0.066440147833461776772 -0.13713163199710062812 -0.05937503700042994631 -0.0015593988170615846571 0.1375659854486245004 -0.58970346694379771613 -0.51282971145164346627;-0.13361528230851710264 -0.0035102575367206684774 0.092352421047294575018 -0.18288685854485581261 -0.19526927635304319741 0.32457581151664677277 -0.026931862662512105061 -0.039550560316882983625 -0.32584820025171534752 0.020126766370553904328 0.042195334039732010356 -0.0044003884979753162335 -0.11535654233808687041 0.34536185139159197854 -0.25147030105555778778 0.035972861906784718566 -0.34984556907597558206 -0.14161963658391632515 0.04368613402205093893 -0.035469481897764588985 0.29097246148843397551 0.034421476490585002639 0.00090569431305365620533 0.14079147539492695151 -0.4353948841547135018 -0.16321666152596892019 -0.24893119897007623398 -0.58927186063279757278 -0.17769165108667381303 0.015978238280784255732 0.0039392455814037359921 0.071589397176885921636 0.45445923126203824349 -0.23144907193023028791 -0.17893739502988520451 -0.52983872154662670084 0.53308621080649587487 -0.04767118774072074544 0.21718696407451068553 -0.50407527189692236114 0.61424420021564885008 0.049932472885660293682 0.15627714819431481885 0.053008454713502989319 0.021151621029866465862 -0.22849045022442981967 0.10093406647392035025 0.56147638724912007913 0.071483631912858169866 0.11216266412565524535 -0.16595565914302723431 -0.68816450816666474566 -0.33467467664659455995 0.06005163403566425584 0.45547564078329555448 0.1684168480207851315 0.018250851389587634949 -0.24662859969788766823 -0.065799365124400877036 -0.0072799165950607645434 0.39647396655234301566 -0.018904852542687648059 0.059659502204690559313 -0.14061578320711176637;0.083752098420022250136 0.010343276150024062823 0.08512825069202131778 0.066100750183269607607 0.32708984372624128056 0.11769496315908048456 0.23720852230659966731 -0.021924166693459840038 -0.37268513456902685466 -0.12626191587239773972 0.012959135612196606008 -0.058437032680706088583 0.18155862621427801273 -0.17403132592633746567 0.20235480192999019677 -0.15954954290988443422 -0.44387810653609094391 0.1751561627349856598 -0.031948744138353857291 -0.02914585157744703503 0.29624904516719569036 0.30452830008619818924 0.12522960457818710367 -0.28602698584430180651 0.031773801021794577382 0.043258251686270503267 0.079528725712366896139 -0.18869816258886804028 -0.17313970392908820117 0.21478965584037298941 0.1556029652071973246 -0.18191113899903524342 -0.18471491292426667208 -0.073294040316440600691 -0.29560790538243036929 -0.055287693236245376294 0.32314079933876693751 0.60934611863013798949 0.24381734482709685463 0.4686280441760024007 -0.12727537574692773803 -0.60655187407336408345 0.31661337432856739849 0.0051140228897763352622 -0.056640818953812593906 -0.21404554677035625421 0.12522341007092591125 0.57551795922596671318 0.13355684432404052453 0.072829347503716765355 -0.28469549946776656624 -0.10970935032957315758 0.2742151228160470966 -0.1272345188508147984 0.0060599823987880210505 0.38951040557966393196 -0.16485672342100887722 -0.062910192011249685407 -0.26054469121871021153 -0.3292186136351323289 -0.20403963154673482316 0.017605766266552289045 -0.3634047876053821402 -0.11873594537481696465;-0.0096267156893363285686 0.009873546133190531926 -0.015807069684531653564 0.084469342107022143962 -0.35620222094343362285 -0.16348313361819336031 -0.097549132614494438176 -0.19400329138677743779 0.13524309706663850683 0.1046688609377075807 0.10348323975099114891 0.056321578460841181801 -0.012428474331388595503 -0.13144487936201673661 -0.053954392887942639878 -0.080270567145149282484 -0.21802443278878760879 0.11897368864868694549 0.068325108103229711953 -0.32631070814233181787 -0.088548929656420832801 0.21198236712764217948 -0.14484242097918109682 0.0014936389194312239045 -0.43783519206838572568 -0.22140619179376153092 -0.31343584275374120063 -0.33146233184452705833 -0.15343928694365088772 -0.21141799188037518897 0.044178620075826818825 -0.42594865313724455946 0.014751358526571218058 -0.087215865577024584421 0.13998581935100823381 0.089049929440405878323 -0.01584490014621883075 0.0169848487868530032 -0.29763668306048846057 -0.28353648438099932072 0.0071954957999336554425 0.13690155971830439419 0.19775026454787555941 -0.41224648349120757151 -0.23740507444549729943 -0.045848854418725153159 0.12309037944507141005 -0.083194356552538595295 -0.26516036340785409386 0.22519220640675269296 -0.16812438591309816771 -0.099678409103746395958 -0.14715943158707930905 0.203370239991260221 -0.31386106060914692462 -0.31651460017214760878 -0.04131984439334360909 0.16513639955199346798 -0.34355526742805136964 -0.038887709855332033837 0.25004697884118198825 -0.15693433449856922235 -0.24095976874496108366 -0.3557990525921044811;0.37352985796814730524 0.061005917836343029337 0.090232222563132527537 -0.42589817613207209268 0.405282310137879076 0.25142825760088183262 0.082068238319890032817 -0.40397608558722919447 -0.11169653522112441002 -0.51472744840585105131 0.00058400840318469223952 0.073196143194678792154 0.019692460701039287557 -0.40711026893847734875 -0.099988690762682408408 0.074749603570612901948 -0.22949357948349560776 -0.16725001766332339703 0.10553697920897084361 -0.16308192205710514422 -0.16242853542345869755 -0.17200722754495709199 0.1262991740787442474 -0.11153919974299054962 0.19264549765568114714 -0.28490533292031039458 -0.32266847434361423108 -0.039941985716986289079 -0.214616345624576349 -0.29804057643772957631 -0.18816043263296844401 -0.076218757878026552333 1.444889668417535189 -0.40339638003992145387 0.46322060795247277376 0.25822499109206642487 0.039192149327409775417 0.48005681453657900182 0.18222378335752992262 0.15567657075373700359 0.8349706927736567641 0.27167317557628251068 0.64856936484362026629 0.59930848083793453185 0.14303190779385435705 0.068526992810550330093 -0.45513684796439074498 -0.13144004694711236558 0.35313048323975182452 -0.18013918566935843701 0.5952514625833316142 -0.10284204009099631727 -0.021827191162335543573 0.15334986324771293642 -0.60423016599705681173 0.20599287967342591599 -0.086097142268078630245 -0.051961302246638800539 0.088344024014899560915 0.3203407805971103528 0.056124527533307051741 -0.015488328281785547144 0.031114097138694927352 0.36175957397023777995;0.15812185016774363278 0.1269854674056567212 -0.29150352679989177673 0.19863769528690625177 0.29478771786823038115 -0.18310243271410325816 -0.51934151404686934583 0.18263740757625451794 -0.36334776838343785244 0.25347563576467163626 0.53427489097350355784 0.17816568718135197824 -0.20308453518375516045 0.51688920840300445203 0.0026851170083984649689 -0.054823156156784312587 -0.070174099129977171585 -0.40268935709560171876 0.012467282877562638546 -0.2822265574190777615 -0.082969516190207995288 -0.1642120933778671299 0.39551705155922428636 0.033682076430584802218 0.33694562357036145217 0.36626753435285630545 0.33295107247939009776 0.12470372411771310506 -0.11186639694159944414 0.21820275470162761589 -0.062774493538452352803 -0.34672688968663534226 0.6056473856279576129 1.8179945723450174899 0.5899318501766072087 0.44016498275508464388 -0.47233355818818018035 0.50211249945404856643 -0.7938839203982991366 -0.43098160079562991553 0.27131264014767159098 0.51778276081458618485 -0.13594064713579023795 0.1919806274833823212 0.066326324884034323914 -0.34191739634810075499 -0.14143570241025407719 -0.56427455596895392809 0.015525426957101334108 -0.016419601566674317528 -0.67647613631231096054 0.20544538868560310862 -0.13884526468710087221 -0.088670947302245936572 0.31900335461015155714 0.20324767229652399014 -0.50951632253942369388 -0.20598062347095810742 -0.056859976377047920237 0.18474839225333608561 -0.3614530037113198313 0.27791071578671766584 0.65716251777150680446 0.24421818522328100909;0.062102023866064774704 0.34840471511617787659 0.33127935934307317645 0.05879245969497727542 -0.07697889124670359573 -0.26473384859486837062 0.36828832131376459946 -0.5959452393019957217 0.25195684411044705353 -0.10390360174211538125 -0.63975329265278191304 -0.21669891344505698427 -0.17547113987960691328 -0.35898543169294955257 -0.1932639949660914791 -0.20391902362095939982 0.26531826592325274961 0.075051141584407052298 -0.11995219809851216664 0.023167611401546876759 -0.36958771983574456588 -0.48625477568582226029 -0.026697768382016186239 0.099353065949834534765 0.3187129475271070489 -0.2255648773182729605 -0.30477669606394897084 -0.33741099311472338984 -0.1490544324718222069 -0.33611385191227899361 -0.24840530487615697375 -0.26420504881457851365 0.32755123146301634574 0.98765089540047679151 -0.48619331286567446515 0.14890143162524641096 -0.41116619410063698359 -0.44097672745151050844 -0.00045769464965131042081 0.74555386403746859436 0.085391827458098729098 0.041177446636661979573 0.34685558212594375105 0.36486429182474872102 0.11495487311553118093 -0.65758458122042073857 0.075012123180674156186 0.18931257735545634069 0.99313753781996216841 0.2944868173686114865 0.87717011292715185711 0.20398214823358390424 0.21133363946087860286 0.63411154040975314938 -0.19432059415820221449 -0.29157875752876966091 -0.50065919642197587169 -0.29840970292932622598 -0.32246534769157270128 -0.36949103482728717918 0.074505401672712467942 0.0074081391553113004958 0.55508648031350704688 0.16419743380216814121;-0.17922746731942648668 -0.21258135625378865585 -0.14260797937871630414 0.56899199342576789462 -0.18654698555638010715 -0.17547979432041027614 0.50409216516169841338 0.35559373030192481524 0.085964770419141162128 0.14567768692123966856 0.23871040487260999918 -0.13456476485593352188 0.23785085198974942333 -0.45214414461794577571 -0.093577331733920743329 0.18307771978167847182 0.065289146955713181497 0.16410680504627614407 0.062872761467564403093 -0.090205192462400385356 0.026717001228186834649 -0.26994835072004863541 -0.59604973967276353441 0.046634010688325885918 0.36226641611099186235 -0.11093413577773376943 0.46558781368392487821 0.27354382450241643276 0.054953773044534776071 0.45413428261938154629 0.36331967160889966362 0.052775281811811160237 -0.33007574301864250899 0.68883269769269273031 0.14436064772807433165 0.65883567884609761656 -0.12666534868770820688 -0.017989552466652396212 0.03760319133894108462 0.047947606980201909477 -0.72427406431436180956 -0.2822784298232769995 -0.30903348305112815497 -0.1410877155225808699 0.074024361612553921108 0.37916222467038068755 -0.10582586718369089984 -0.31863190743627411994 -0.27352296752656485301 -0.08316660364795006033 0.65446535236538572189 0.060610779468097557288 0.22164373053366753785 0.18137824937301044725 0.061193771907383981423 -0.063895794724963983491 0.10679458569109975818 0.20669851315990461771 -0.38313215204630096666 0.1338499163228041855 -0.0099622143407348193178 -0.35482676048717642914 -0.2078622663396643977 0.019236002861499408578;0.36616560374916140574 0.26417042092575271361 0.12168214230102598894 0.39505530365792029812 0.17924853666807930019 0.45478642038912159284 0.24234212124568577096 0.10912411909216832018 -0.14747462804550995341 -0.051878419384298067596 -0.15310856240232151304 0.2770208659048856159 -0.1434157422847601171 0.32827424619548650764 -0.014635529094313150592 -0.020293886094502777695 0.11871081933627822269 -0.21918758608584629211 0.22396922489321394178 -0.031223386899346828455 -0.026256399785639625982 -0.053600958388023436929 -0.0088956443063924594411 -0.041265986963029070711 -0.18389208643545121302 0.015502951128963016539 -0.16572894645037444805 0.34504838230845558122 0.29996714947660829687 0.20919971803701561952 -0.059678254417702164547 0.036661841604384681759 0.27833954226155116496 0.41409929697546171701 0.079488505488052085823 -0.10853249580273705011 0.18641938632059365522 -0.031302337636917879071 -0.19953074670404968849 0.28569245116759384162 0.1661919873957379834 -0.054713077052709419013 -0.048256947375389255828 0.19955774741147980222 0.39015336800891492475 0.26750397819949367495 0.3612356683921718048 0.3971399607923445374 0.14356928137491556385 0.37180895843692413072 0.23318645864837322934 -0.18716629448037616634 0.059436956685438475934 0.085294458895332089798 0.42073459880105196218 0.45381913831354447897 -0.06916893224409098595 -0.11781517043717114335 0.22285866609209645239 -0.083677583200055721813 0.26821922963895789005 1.3916039339731877886e-05 -0.033266221252045362344 0.14431799096918696002;-0.29598571695318032226 -0.25968750464055656568 -0.20193234681627228455 0.14513183318315514558 0.13139879045692776094 -0.20814500980283578979 -0.32008919490824305765 0.43182477858406537186 0.20286971359243344271 -0.24140519424589962361 0.17945838449267664805 0.18220787476425351348 0.24795115852488588959 0.12488714518028792844 0.46077218997503588405 0.27926453922766220073 -0.11092150835254643848 0.54119234732529375442 -0.047097265873541169223 0.077845028549810846297 0.30178998339304041743 -0.048238542263024070111 -0.23302036376805371209 0.27901750542198999749 0.34063275370549817023 -0.01399741072415129281 0.17899940590616986169 -0.30840443011185081357 -0.38335775753672673982 0.13326471701733422215 -0.14832380454905647049 -0.022144421423906872348 -0.52034812359989213171 -0.58948466407632260644 1.0334754835257602412 1.6064354119914217023 -1.5505200873497013703 1.0651837818981868544 0.0059541442679042185307 -0.33505294361889692567 -0.40565686132375622375 -0.11898181512660738202 0.032848803454122769974 -0.21255934958354813502 -0.65515762576417568841 -0.27763931699339644554 -0.59332094274069568929 -0.071314682580023117109 -0.38114455613689113278 0.24011169626841069591 -0.87348614189750661829 -0.14173281648375180009 -0.083772314373864620318 0.19899670628529839145 0.9875520042126912923 0.030146524632224253049 -0.081057302686548898807 -0.090892741657092865348 -0.15291495136342084238 -0.40320146208174301172 -0.12378814292534486008 -0.76315656267493114928 0.048618034493186634837 -0.34699037897256984619;-0.055359011549499521909 -0.087455890976838909778 -0.075135710903024427454 0.027805087601235782546 -0.24865324287730114494 -0.43837444198741126744 0.032065651194717097183 -0.27070823125888671123 0.64212323292545514519 0.39878357404510950124 0.20878568339003059084 0.33587158032976438538 0.31408562909713283462 0.32620559366643420152 0.10321350802041284744 -0.2051392342002569813 0.42765518555706705239 -0.61796129081756401291 -0.082535379058282482001 0.090646261959839255495 -0.24435354380029161714 -0.093989590471215883616 -0.31301397362358879262 -0.33554365336977154399 -0.12266280255674583133 -0.086439037299140097925 -0.082144834608832817402 0.25913615914804022378 -0.011560618073838933167 -0.12086012031547460621 -0.14939517642478658543 -0.65166156702923838662 1.1020520367316783972 0.60111224332009993709 -0.64064958463574483982 -0.38372254309393050153 0.71235451068655686324 0.49226769879842952049 0.57229910456372456995 -0.15213269262577247543 0.20605089652526847877 0.11630276728111967055 -0.028010280116427317687 -0.18288865626042355439 0.55005838833805942301 0.081186167695868505234 -0.019159666982621639114 -0.48937547016230176222 0.036911618274408836138 -0.7889349898857997978 -0.37496464555110575745 0.01566857121803111319 -0.20684008503377329657 0.056514444204189169529 -0.15444596094635715255 -0.16568020731701019188 -0.27660533976382600807 0.17090985083487633678 0.3533078075556100317 0.2822748281885963384 -0.28434768292831108516 0.17725024428917235397 0.15936627826286461906 -0.014529793796725325519;-0.37550827506797707089 -0.17087948927662752197 -0.01752318912532469658 0.21150394360653118619 0.11594526667316253088 -0.15957001536768924965 -0.28893755737109277915 0.10062098710313129024 -0.22550977857692738882 0.70289506349917241224 0.02779497861996406069 -0.12993445055604002647 -0.24061271033816383769 0.4928722630720164255 0.30435736511864353027 0.23409478834134875291 -0.43913012151467456512 -0.22251114666865190461 -0.076412192346393709164 0.041483778420682876353 -0.034599573323179103057 -0.33184978824320227053 0.14799883641465516604 0.078385708079615770694 0.12568457937220403609 0.19963371298545953825 0.18700259778716393777 -0.3129098193466143818 0.21907440030549790722 0.1574729643395839096 0.0025683371065082097676 0.37537048292858643528 -0.97452356416087115853 -0.10628953945049182672 -0.42591055170847402778 0.80320811248049783782 -1.2348595253873737576 -0.65888499603205652466 -0.8416345577887553997 0.46142823480404571157 -0.45151935842068474658 -0.036742627607057896932 0.10092994569320665188 -0.27533882129680092854 -0.46316967430528960259 -0.57729050583294272414 -0.34777481117486114259 -0.26618236453731802804 0.40105000271935825618 0.63688937131560219296 -0.11685752079794163583 -0.26125846039556216427 -0.4277155114542387504 -0.08792413671191118274 0.49195578650560939371 0.20516793169659325313 0.18741065750206048479 -0.1089266893518035656 0.38876827152918974617 0.037953421057003680628 -0.30352699739358718345 0.1362426371099966782 -0.34546665320493147311 -0.22790029443166562317;0.044455227869266811247 -0.38269857798913731184 0.12285126117330531781 0.15483304073293915892 -0.17218212282194514384 0.021494255143507896844 -0.19768169838616209133 -0.27423914661999077014 -0.027949919169151609538 0.085875623918258869871 0.12432597386977296827 -0.26091357436674089687 0.1744020144150610907 0.25170318960830795341 0.059789051004364164588 -0.18333442898153065603 -0.33543799636316706803 -0.17293074720920847964 -0.1116682218364399154 0.048575416023214371131 0.12708617292829674228 0.077449557367350596593 0.27307324978547636851 -0.095143409751406782249 -0.27302717000729320729 -0.16057627241488706127 -0.21206768095354985859 0.18130289593696263806 0.067690434529197596181 0.19598222689517708073 0.21144427933428566746 0.17856564972341223974 -0.1141918289124021213 -0.21437442900953182501 -0.011083182329219955567 -0.26235545669465631935 -0.13049405452780921122 0.16378272182795361456 -0.21346248601727740857 0.034246005142792322606 -0.41052812281545303374 -0.49989636599968872988 0.33989993370218718471 -0.047480314309392368521 -0.21323456931140874482 0.083600621210467879196 0.25306733013347343375 -0.16984029254746646487 -0.26425550055777508041 -0.16682694221410007684 -0.29262663722285675583 -0.34775181700782648031 0.22722468718163307821 -0.26743240406705287571 -0.15323236265433501369 0.32566309978305935102 0.045948423509546643118 0.30974706432164011982 -0.11050655372118102504 0.090785765446196875494 -0.11045446084157578559 -0.2247677817866197969 -0.36847786613472255368 -0.089973429479383110197;-0.22943013936384801243 0.06965828781912516976 -0.15096103285978923481 0.17253010838322546672 -0.18514009665342967548 0.24272498753476867694 0.39371286277371297935 0.10176509864285786244 0.16079080947855606265 0.17792476997649844805 -0.23756259266288282106 -0.46699386124922309671 0.045882912340037849963 0.0030472034360212651646 0.32225538390365815467 -0.097937191534874845633 -0.11372100664228769473 0.25861476176820569206 -0.042736843602458218783 0.2647184057505544974 0.17569021481907731719 -0.35928331503928279123 -0.016062290009329915214 -0.032505417328486850559 0.21765354781503426507 0.044651397088649243117 0.019503075049457620216 0.077593506435162079571 -0.14174058724907531714 0.099223005889975401939 0.074611559787388967435 0.1876375439426102576 -0.28258010351008649996 -2.3175858309216694764 1.4135449354468205829 0.091959840938410669642 0.51098162659324308787 -0.4781956098493529983 0.26928802194838080686 0.46115512312166467845 0.43604942424710829707 0.70272223829703561737 -0.50592026954494606628 -0.17786569481976727269 -0.63321387658824690448 -0.1928124998606354501 -0.23182270635822221916 0.484225385272847475 -0.16789815431929872025 0.48730155047912027122 0.13322571712189720805 0.24471452751685193738 0.4257925660693919756 -0.55092594763034152816 -0.21751956607643860298 -0.26367542434858015632 0.1484849417795524873 0.2001508006815235774 0.2886991648116028486 0.11898517433372078622 -0.1046843262910299166 0.13185488316767116079 -0.43568489433279844469 -0.22881449383492327709;0.21482172747762662279 0.059777521729873259182 0.092683348316294600355 -0.1613861008039003675 0.28852990927744553984 -0.33761442347961784227 0.25604790904906055138 0.04360800612598255549 -0.30513698671315625521 -0.11907456078272056488 -0.40414032405400690529 -0.39475084029087925686 -0.26879576127060650359 -0.38888753825504668304 -0.32812550065791612486 -0.049676544797200843095 0.10297935994190302034 0.018284884913522127248 0.28981884016399211967 0.2696596290896947079 -0.34646087351379750707 0.10792576421903549155 0.30683137879874450293 0.1379702268060107595 -0.1574248783513820249 0.16171577257311453568 -0.0063294416592894761978 -0.13757526089207253173 -0.2323529230449087879 -0.214016406236952339 0.23207462248017318718 0.40426894152282083494 -0.49669150853462462614 0.87607991681919350491 0.55461394130649777079 0.3477650331748936563 -0.020843987302040064419 0.13114754551839080676 0.46463622627345835259 0.70529945401083682377 0.11343532409619568047 -0.50618589579242012633 0.37415406739597623087 0.23614555768884887277 -0.47687480080267546922 -0.1021874650838676124 0.25965186774339221731 0.22118998054779667739 0.36507905511020116718 0.47799372915665966355 0.85274758865429922672 0.11212547926147879707 0.25005118927601627243 0.46495502524551884926 -0.30885520706478003516 -0.42553108469311018425 -0.14648116176968395408 0.023890375665212574413 0.045904756505131656674 -0.18793126302097651337 0.19272113078918351459 -0.24702654833652029631 -0.02748607723787209467 -0.047249527591425921624;-0.02102513354587992947 0.16939206985985746923 -0.12275005124194211803 0.05778672865435394157 0.12896293998409297243 -0.28277234830282538258 -0.28562573735949764453 -0.098751368720099555465 -0.10212826851048269206 0.29279012572178997331 -0.19469241123921202097 -0.30446833281075674771 -0.14538801630204323256 -0.35472025688165786939 0.15192165523498454838 -0.13261336397764772466 -0.0091091306300985150357 0.28928215397209272597 0.10666253175893217198 0.25297603337985186123 -0.12142141227328655251 -0.13447205636440062726 -0.028649859664765953832 -0.27941635067070624832 -0.10583823927186257474 0.0072901745409240728546 0.23447936991548012919 -0.30039317784324709448 0.17232752584052002387 -0.044657783951103466324 -0.23117636926924997609 -0.14799771244564147166 0.12884119895655929411 -0.32540940827756154041 -0.24080505460633269688 -0.28078159797206320158 -0.032467786047802010829 -0.031018796500690531959 -0.074970412907048089579 -0.30785776351592830657 -0.21215099492898586986 -0.1134776349353219943 -0.30680282482879517314 0.11133080383643811917 -0.11153051616380657562 0.23246322787668979859 -0.12523508963887536316 -0.0037227517589116946098 -0.090332696510426135905 -0.32273622690449066397 -0.067623428780378538883 0.1979753584334413008 -0.28389282682965577553 0.097165502235831993638 0.19291965203058858425 -0.19325782404183758367 -0.17015289545419504114 0.10529689296875598126 0.25245092197742735607 -0.010061902335008553189 0.027500940036002185368 0.17923784322144856174 -0.0039227485443528069611 -0.19692548307151516718;0.27540198759004913542 0.14910785511454063834 -0.44872671231503186151 -0.45383846396739307982 -0.28419959608882128244 -0.076470694216357340545 -0.091129173569693536217 -0.0078275046759118845074 -0.77917908667690960467 -0.3430146848181528374 -0.41480262854506783077 0.21174352964613296635 0.31031879403447515386 -0.43008228245870672168 -0.32934501459751269747 0.27712540011918779248 0.22192737074480270443 0.53624351058851194018 0.14666783655123569186 -0.014355538498245216938 0.2434748558465034407 0.015072297520194356465 0.26718137780893047584 -0.0021012279983063475268 0.32632122903576005202 0.1331267244152201934 -0.51774248512157949875 -0.074263050371992406218 0.011067194122631107342 0.20639442386793269146 0.030875271637931113455 0.026755191467256123766 0.29036619076496988923 -1.265789169687344895 -0.017336580369987534406 -0.54466736979212349024 -1.2294329806024688612 0.23234676847044183345 0.059289700036852827081 -0.42657130895612532795 0.029691138436832589798 -0.26951409674675397277 0.025896523294515520763 0.31698452498398327348 -0.28604031298619886359 0.030355236402370592425 0.18658965618862502489 0.23440691342316802293 0.43962876096960534777 0.74420941560612641208 -0.37219564842900282331 0.076661849470604462309 -0.24403705582982904154 -0.35269453022065400116 -0.046609320404033691143 -0.25359966338874539993 -0.16241412812807692889 -0.021110344613886913162 -0.17538948032855103398 -0.25227731770362166186 -0.29402967188307255197 -0.28813553158411780997 -0.58543382148732114878 0.68815825514350792425;0.10418283296578652319 0.074934750993587137535 0.16091554362297247338 -0.053766584776692417924 0.27329880328637162767 -0.18655914731511313853 -0.01047215369377807806 0.12465263064417701766 0.52307933971575870657 0.57341935774907659695 -0.058618193629049589188 0.15357071492809093449 -0.28338790692013915429 0.29655420656109748867 -0.050259781107924492161 0.091039198189014722273 0.035616857790205624923 0.23451377040317669675 0.15292048852812201165 0.20394805477844005215 -0.12128343311289689621 0.52634924958154916119 0.18122713999240855354 0.096145804946635535226 0.092844428055331565397 0.19532969712473893797 0.33292254001118004592 -0.32843048916093559031 0.22583446130216255909 0.064395416929795806782 -0.082978702583334382203 0.026406955370545642098 -0.2294939827949619704 0.083114176483946686225 0.064319367462887924725 -0.16877855724273851945 -0.2037683256199575299 0.24635315256300591158 -0.1229139770732304987 -0.14837893632374291042 -0.15700299062792827387 0.31574564986512310139 -0.29430295246079929417 -0.24107615749701066798 0.24584764022759750257 -0.24345600653362733934 0.045190116989863554631 -0.39337399354836211085 -0.27645652141002230451 0.09437157252149795672 -0.21542771641084265677 -0.33596890588750899509 -0.25132391686742844294 0.14009373629209084799 0.16937959511880068542 -0.2716335134955104591 -0.063503411519256036666 -0.14349635092962356731 0.39944745322421310041 0.10606086877507608923 -0.082890248050803333468 -0.26431321793750506277 -0.031050017897515897608 -0.31030431770151600812;0.29591075996890375821 -0.19342575597263297893 0.31803116444327650392 0.14762237650603177164 0.28682559960096304374 -0.045415248808776099987 0.006243861093402337803 -0.0021935455603729974404 0.18682549427381209273 0.22737662115533396889 -0.18959010566591388836 -0.15920757611291111444 -0.021358251649140576334 0.26418216962431551043 0.060819323243061204631 -0.16641080252523871019 -0.0046513702905905856058 -0.083054821176577725561 0.38197567405311649846 -0.14854414627318690556 -0.014694632764033757275 -0.12226235979661276287 0.087121937000858434841 -0.18809848815675908607 -0.11289927564276511229 -0.27122507867662509762 -0.16251779129012541847 -0.076317381081573529289 -0.17576489898710664916 -0.25700847018553968359 0.18553076623746281304 -0.24728135432548589701 -0.065483425927113647624 0.30004361640323551352 -0.22911206158176358749 0.29988822451322150187 -0.2788248658643017186 0.33888128088772501156 -0.36566961393555913462 -0.05321649548253164913 0.11930352744095819306 0.016059211221598587022 -0.058881634632451294864 0.064253450467745276686 0.18471967199026292916 0.11286154324271641114 -0.10861801493135093966 0.32307628214896627616 -0.14886703686992608375 -0.086106866365462622626 0.31535184891027040477 -0.16277702363737217572 0.18170177334837647742 0.13508791072335948891 0.25379704473955599919 -0.19811829592747751128 -0.36807303516493056206 -0.27728079500066671326 0.044592179486130291421 0.2472404663144696646 -0.29763080360160398818 0.14254454993851939371 -0.2667668201746939971 -0.17683954926758871373];
  
  % Layer 2
  b2 = [0.031259564624692440238;0.84047908840173035649;0.36908082218704368893;-0.21479166969060498049;-0.7988372726345341901;-0.039955804755911442094;0.57127858368114070586;-0.52922420723594609804;-0.84237123808841141148;0.24394901958679818255;-0.45725986938276880212];
  LW2_1 = [-0.51829190720072348952 -0.68321385781686783112 -1.6396816193763523728 0.24599823454673211409 -0.62355553661989260306 1.1476424540370120386 -0.20526250968136652841 0.31052858637358832228 0.85363033999744819535 -0.69965371151996402777 -0.12867361090963624903 -0.092366451337585170345 -0.69699981543232059078 0.090596382085867510625 0.37791657719633214851 0.26757961460924944985 0.35276985815834510651 -0.11447694472870910409 0.36317617132745999564 1.8759655554572318703 0.39538169313784671255 -0.25853577831314289437 -0.18001179811837822453 0.39292542163241245268 0.47842766631401212329 0.52888345498391320376 0.33526763288200445157 0.2512987730933867736 -2.6108872887693364007 0.71117658182492604624 1.1487759576446576748 0.65205471333460263139 -0.36008268650291880286 -0.55764211787088735495 -0.23863360786068213426 -1.2054756664719670223 -1.0092358197477768744 -0.92616976506063919405 0.35440300477415337399 -0.16360697462977358274 0.33850776219665301703 -0.15575653908650480273 -1.4913098359425303041 -1.0386718189762731424 -0.79512182273317733028 -0.15327135783309503436 0.31664408677325606156 0.21354363640893953002;-1.0949423284120802791 0.73993293756417599649 -1.1246340941865773377 0.2535869025620741124 -0.11463329125053527136 -1.7014857177155022772 0.62197565966416024086 -0.43425425342781659444 -0.58605456054625393314 0.071089319108783521894 -0.70896993292076559978 -0.10103548173058804482 -0.019010100871113249504 -0.7529350143498859671 -0.21153099935643032703 -1.9496309368035826814 0.1298651507807447314 0.57798776168365550987 -0.2648641161381174447 -0.089771547320967870487 0.063832082717218213697 -0.81297550827412756735 0.030660262418417474906 0.87446673973282940118 -0.75843657706824063602 -0.28075139483712246991 -0.29206366108400183546 -0.046032065848327030633 -0.89018285483600667618 1.1328583273114354313 -0.88234702791333230465 -0.41495504760094004126 -0.53693477233984610031 -0.086285401518719204161 -0.019151447860221295499 0.7006916281662194379 1.0293787219645058606 0.76849664484009438947 1.9735096402644261016 -1.2150586040348292372 0.89138935683260078768 -0.64905470041902724176 -1.0092980131061357607 0.58446836268765423039 -0.12108398643959085439 0.033341472213135325831 -0.57106362481660366548 -0.64911922179283154666;-0.3224619327824064241 1.1946863068224484739 0.26637786657766954201 -0.42254241722828500549 0.77447703931915845565 -2.756358950113442674 -0.93443028622684676243 0.022734339258963263269 -0.10089160610462344358 0.98021401816786279948 -0.65102895002161520477 -1.427492346624759767 -1.0495040180068335722 0.92111059380128745833 -1.2221736178496866998 0.17196461565455470333 -1.4022220871430095546 -0.27037712749820458358 0.52054101174628841786 -0.54386882831496186075 -0.16040707962204131531 -0.90372693637274403855 -0.34174891741510082799 0.55334335342690421644 -0.084875274096226499543 -1.0157988279451153346 0.061573629598446574795 0.034504177503028865548 0.83070937932908017753 0.8631330241375476664 0.55342521970997071712 0.86281317740808272099 0.01835565441711592416 0.37540187200042018922 1.0893971196994809425 0.18008635285272775461 0.2000944435391453502 0.78110197093112154754 1.0280575243457439338 0.011881746052221097559 1.0740794858100919384 0.57403619790218496366 -0.68241242145091030036 0.86862711084709554044 0.13895932409601238766 -1.0228403349918837595 0.60001864507638091872 -0.22567288561439449723;0.94031931243702504553 -0.83854283636391757639 1.2496516633419356701 -0.28871431451981577343 -0.20334336541754480243 -1.3498436878714414888 -0.73568198919952887405 0.83406554309830638338 -0.49158687985507704132 -0.57423682719478275072 -1.7721056488250992444 1.5756871940081207395 0.21652140206830361446 1.3658081089658669072 0.042727605687125295997 0.17807779293237047114 0.26275231603361814958 0.57783319365543328594 0.18782398561805185855 -1.0562230054333838769 0.6908383539247638927 1.5043529735390390734 -0.29777624470992830608 -0.71365736706017690594 -0.87701217409393861235 0.14305961421121837773 0.53209123586970064057 0.23245065226123504121 1.0228873325484857393 -1.1464919412226621809 0.21386638375989600047 -0.31582316059745974002 0.40512158399620157301 0.96239104425926280673 0.26982504673608037615 -0.44627216894942928205 -1.1434422684542018267 -0.26402614112779776434 1.110599724626281759 1.0261488714621005425 0.17232371973070140236 -0.8410468946055944528 -0.87971691540241192531 -1.2722526543879499883 0.7354955172422067422 -0.54995847208260417727 0.36907697438716230431 -0.83452226134195151008;0.55568106920415782923 1.2325442438577902671 -0.11032512900712020121 0.78762144636042941137 0.21810174533456264112 0.15720667053145617742 0.60204022742043272753 1.1574523959065348144 -0.077507607179473927972 -0.96045545404811860646 1.0597282555171423368 0.65711880470714156832 1.5381237665248959079 0.97191542461820312759 -0.0027965489890626723038 1.6803766532745878504 2.5727897172378488833 -0.47871815384876065247 -0.60724760233431929191 -1.0150968872544010591 0.042803342115243898924 0.13285153104102181976 0.73277000562292249342 0.98813029010509889627 -0.8313156089545938876 0.016247897748178790484 -1.0542178126752452805 -0.48575927819684089348 1.5647224760346354344 -1.3609130189595994853 0.3706237000866756115 -0.37634023270001226713 -0.10903641975108153972 1.1041886223043406723 0.86706491431992094299 0.77438951911817233142 -0.8253285082392289862 -0.83684581893245735262 0.67056082163469299395 -0.045286678146530694178 -0.10814186934761939318 -0.56348081143831152406 0.042293612292451134016 0.33720101804607116591 0.64638765645081430744 1.1812990839039989588 -0.11754946064912789871 0.65483547614379922219;-0.65233246142941736512 -1.2189270385226125271 -1.0879029019902328734 0.70416127284172091993 -0.77764274605281069608 0.66409083782338973467 -0.46633340663641292823 0.62438583991495100189 -0.20965075258054335916 0.03261246430681098013 0.47973613490648076008 1.4949650100916860307 0.79681562962854690646 0.67002357060347217388 1.3683877049678911941 1.8169778171370509767 0.40632891087871236824 -0.91723106910965934713 1.1409848364307164648 -0.42942283445310924783 0.88347734981895120754 -0.35846959061778238542 0.81916756045803107433 -0.095460413482185382805 0.41219327744829692417 -0.7253732858331698452 0.26598313893840996869 0.62741103612877269224 0.82485456225788333917 0.62661152229319738716 0.33925072999264349605 0.68193445115781192722 0.13159598435379782355 1.1104523275675017846 -1.256663980964255245 1.4095514442391887666 -0.67062681653324540676 0.57930169600984482425 -1.9553349619623547895 1.2514117452527717678 -1.4067158772416454848 0.67001865436437091361 -0.52791279277933800262 0.57805324858336670779 0.73034736631847307908 -0.12283326821238203796 -0.56679355283155441469 0.51098453643116437117;-1.4951163552793438338 0.47386543571332945257 0.51691562914637212423 1.0565156169577110123 -0.23996270527581825549 0.68549687374443291077 0.059123820450013839234 -0.92809443657307422182 -0.45097220638738377829 -0.56108257711472153684 0.96668814189646423696 -0.95580402505921446821 0.064426363319388599282 0.24607589440720195606 -0.67495839485529862678 -0.19566192249082092758 0.86304532792766397442 1.000638545124461265 -0.42413310763473266451 -0.74394789146238049504 1.0631898649235484999 -0.58626500791850177929 0.064153007200214468009 -0.52783544599006149145 0.71867973614461111431 -0.7499986048604615485 0.18377329913180054377 -0.95539612292426046025 1.4878982014534161138 1.136833225360796229 -0.34695377752631967327 -0.13707447254427465588 -0.46359540496354295636 -0.91669865676992212666 0.53186757715891874732 -0.9557739899279130702 1.2345449694883705583 -0.6763031073369590862 0.14152010864165939785 1.1531690692236538087 -0.90198253542343298506 -0.19359339409148446087 1.196606642925384989 -0.51491308619051112672 0.049269580510367151638 -1.3720751832606612464 1.0329328709664200581 0.15644756166490053628;1.2386907354382332702 1.0492034885879488737 1.1322620157034171129 0.052963990906799228442 -1.3668253884990058111 0.1543574421729707602 0.17161664978057447617 -0.084933053124418123048 -0.081600151711082841155 -0.39706086857271932766 -0.72480937189713612323 0.034392226910494219649 0.36875721131778854689 -0.47488934117082859387 -0.25899612860418724791 0.32200554647416912424 -1.7789418219278605449 0.31465143769831416254 -0.370818094553855504 0.32402173818055440835 0.077253478073975756502 1.2597345906926764592 -0.61311556348550899642 -0.12561150042199556442 -0.14644355475413914358 0.71878190860073065682 -1.269210623134808813 -0.034840054162147547634 -0.8726679237202777939 1.5356512273283799974 -0.16653463307693147644 -0.18197480847287636485 0.58441173497138931836 0.61556403045398333518 -1.0482070127137133042 0.83727676378889703823 -0.069981192347448525903 -1.1475966868152616129 -0.2690972789918403274 0.25404591045441571318 0.50737300361586523678 0.70522472134295544066 0.22003873777481219864 -0.27198343523616513862 0.44365157517802289444 -1.7152186860094740251 0.17277468164849890675 -0.57760240761215864147;0.76673225954692880713 0.18521960468318574011 -0.33752831653847026327 -0.67510841978261193486 -0.45630013083057036072 -0.43100368122017590489 0.50166184069494978992 -0.25746678563514413529 1.1661257913097609062 -0.34758139275745070229 0.34682418279737242672 -1.6160319326477927682 0.32339297442417591633 1.2327093844453469451 0.72547316246261928097 -1.4993395881046205353 -0.89602446495400767112 0.29646687390536230478 -0.67865932848258991861 0.1214942380954465162 0.4678053473777134541 0.52431747699106900917 0.29345905489174756164 -0.77938800401198427004 1.0166210154179542435 -0.72823817689133707454 -0.011925369840000699106 0.16289990019883088257 1.3545823834732539925 -0.53997717162270497671 0.84237865140673617859 0.38018953821240347724 -0.36246746669027191112 0.74957681744505921806 -1.4384493402689535468 -1.0274530162475918882 -0.55975221614311843066 -0.26782741329355508331 0.98698394107081022231 -0.39545217816648886577 -0.71347964981686484709 0.36941974394776588841 1.6838885007855897147 0.07184285633128023596 0.24078536304549497116 0.55981296410911229877 -1.0591518535012993674 0.26764908660466635304;0.24953869486810811851 -0.21059448821156237508 0.68611085978254349182 0.28988436421584262703 0.64587833579019759966 -0.20982604595064019426 -0.58379610155272299021 0.16524145536523504596 -0.22893941517819713094 0.28236404036639617399 1.8960825823363103293 -1.0362704423946522692 -0.47096344931150740942 -1.3765827244767350201 -0.45684069392726917025 -0.66586757552826791873 -1.0724252409500696359 0.77727828860736614125 -0.63427675222387258636 -0.27322428254647890267 -0.1607013506704003114 -0.23989688937983888462 -0.061343407016815724997 -0.99058002103866515942 0.078074801885386138633 -0.55877803873937215151 -0.61599770762986905126 -0.87743200268090815186 -0.5330475350918637556 -1.256541426076415835 0.73608670799799436057 -0.83775005005464098229 0.92695274006052097437 1.5297309172692257206 1.2993322406179979023 0.37862369070800516724 -0.9168506339060005228 -0.095744141114212991117 -2.3851982711627721656 0.73336747239101096607 -1.6812915208606920014 -0.67547534721739355135 -1.0400772514957299375 -0.20175955274612367152 -0.52096884944891863611 -1.2415692781342271278 -0.76719229058190629988 0.93801342910676399622;-0.91638906241605944114 -1.0469744863916510269 0.19390602865343736783 -0.45716147997260098146 -0.01630483875104681013 1.6557538102397579838 0.051940183038876056032 0.71529667727243406716 0.99946567026397747924 -1.1902963808786231059 -1.3415553056505296059 -1.0842141665090407887 0.11682469212113245904 -1.2541561209985792047 0.21589767069420159884 -0.80903110571455827404 -0.21722635041452093008 -0.70079976161243795474 -1.0181019203423600228 1.2404104418439070301 -0.99204253936681630055 -0.90443649490575572791 0.17222770084304764304 0.47366466625722358774 0.75404600520581599454 -0.031018824662421694283 -0.57237026909814736619 0.78398386061623770438 0.69376507724542169075 -0.14751835361529264112 0.13614646070223360153 0.4888028465533231226 -0.32034574830472778428 -0.85162999011270812399 0.19370298517866549326 0.57581439737045059246 -0.69389903848883516257 0.2541439431419321715 0.62217119730737058259 -0.41174456640183454414 1.5227379242654173197 -0.82070917643040997014 1.3496738670711243557 -0.85773033791414898808 -1.000778308338663436 0.5976659657773997214 0.19586871553302404037 -0.2824001620664969292];
  
  % ===== SIMULATION ========
  
  % Dimensions
  Q = size(x1,2); % samples
  
  % Input 1
  xp1 = mapminmax_apply(x1,x1_step1_gain,x1_step1_xoffset,x1_step1_ymin);
  
  % Layer 1
  a1 = tansig_apply(repmat(b1,1,Q) + IW1_1*xp1);
  
  % Layer 2
  a2 = softmax_apply(repmat(b2,1,Q) + LW2_1*a1);
  
  % Output 1
  y1 = a2;
end

% ===== MODULE FUNCTIONS ========

% Map Minimum and Maximum Input Processing Function
function y = mapminmax_apply(x,settings_gain,settings_xoffset,settings_ymin)
  y = bsxfun(@minus,x,settings_xoffset);
  y = bsxfun(@times,y,settings_gain);
  y = bsxfun(@plus,y,settings_ymin);
end

% Competitive Soft Transfer Function
function a = softmax_apply(n)
  nmax = max(n,[],1);
  n = bsxfun(@minus,n,nmax);
  numer = exp(n);
  denom = sum(numer,1); 
  denom(denom == 0) = 1;
  a = bsxfun(@rdivide,numer,denom);
end

% Sigmoid Symmetric Transfer Function
function a = tansig_apply(n)
  a = 2 ./ (1 + exp(-2*n)) - 1;
end
