function [y1] = nn_allsamples(x1)
%MYNEURALNETWORKFUNCTION neural network simulation function.
%
% Generated by Neural Network Toolbox function genFunction, 03-Dec-2015 20:12:04.
% 
% [y1] = myNeuralNetworkFunction(x1) takes these arguments:
%   x = 64xQ matrix, input #1
% and returns:
%   y = 11xQ matrix, output #1
% where Q is the number of samples.

%#ok<*RPMT0>

  % ===== NEURAL NETWORK CONSTANTS =====
  
  % Input 1
  x1_step1_xoffset = [9.82802513371268e-06;6.11828780038536e-06;1.20137661873645e-05;1.16712344732692e-05;5.63163177176424e-06;1.2450823732265e-05;9.65859715457853e-06;2.15780790610835e-05;1.21001658119507e-05;1.60159078391269e-05;1.01904632313061e-05;1.14984413803954e-05;1.34073472637692e-05;1.81279237988049e-05;1.65559785872251e-05;8.70193170808251e-06;6.1612434593233e-06;1.11217019711591e-05;1.17280436225671e-05;5.58857688998552e-06;1.01530743926963e-05;3.20322407294212e-06;1.06903574483916e-05;1.273148556313e-05;3.55207487488423e-06;2.50882527430845e-06;7.16222204132565e-06;1.59433262394555e-05;8.04982154701494e-06;1.63650974145182e-05;8.39652737180383e-06;4.69032881047239e-07;0.00044928972021305;0.00125064424066159;0.000133527453395777;0.000477275943250957;0.00043432996668442;0.000787242372706315;0.000202977077752684;0.000270464143579427;6.57466883221746e-05;0.000195519132033205;5.0627369637662e-05;0.000212337438714419;1.52872206631602e-05;0.000117918446630909;2.8188744098288e-05;4.54294625762162e-05;3.87588347313152e-05;2.78059939561849e-05;4.72727521180067e-05;3.7767074282475e-05;5.04768220742507e-06;8.67024847521331e-06;2.57896087752831e-05;2.37779128575768e-05;1.97625079760266e-05;3.72577359366498e-06;2.07450200183778e-05;3.92686145398097e-05;2.16518453929826e-05;1.52307410907513e-05;2.60636071874938e-05;2.41889470338821e-05];
  x1_step1_gain = [216.645769083766;192.077774653748;226.414230474614;229.41452533561;241.060748357943;166.58434852192;257.726467653903;214.11407048999;169.621113391013;296.496276326066;240.902530192133;331.469073384197;346.234979112729;390.605209501508;275.625069439414;377.88656597018;414.003988069898;256.12935243911;379.788911524284;267.183004624822;424.513183354646;509.207444901567;428.263583963305;365.598730671776;369.78402565382;460.128862253994;434.059815881354;494.601617351282;503.530269770397;396.387057503615;376.180016977909;391.317430835857;9.46973811352117;4.53177811244976;6.90225935116515;5.92669027259292;9.27577273555007;6.7306518793456;13.1558304240005;10.4191479646403;17.0394120789357;13.3610968971866;15.7989245123582;13.5277343593934;24.0035000826771;26.2929535668166;31.0737984060948;57.7202416057211;43.9421379259145;59.9083085948694;75.2435422221436;87.8194099193415;98.8135890022527;104.585949420557;92.5206175000854;94.4585668471026;115.58943088718;108.553051643698;147.898425560974;96.6612772222384;149.41889093119;137.868350153416;159.134495669315;152.945886736478];
  x1_step1_ymin = -1;
  
  % Layer 1
  b1 = [1.3638962332204040973;-1.380404358246180907;1.1129085068164896732;1.2797611262844903468;1.1999096305494239001;1.8038837010698094421;-1.1158499455760964025;1.0531256960498847075;1.04338625531672613;-0.67633980642790580973;0.7359307489089151888;-0.28256288287330466602;0.55252156936061092019;0.6053997362119205583;-0.65386748993949406206;1.011556398785245614;0.26881414976248829696;0.32924995427012915261;0.13284643366186088542;-0.16443643731558368892;0.19605966003274952203;-0.17185519123382364537;-0.14621357249003283374;-0.7873938634978663309;0.35169924767582400049;0.16016235565650460693;-0.22543574747213090959;-0.0081362170196332059269;-0.37006459967464172545;-0.38866546790727279914;-0.32787210968891999929;-0.63330555738382510178;-0.91101588206529204861;0.5061950202439615687;-0.38863569699152528125;-0.3428819975221816807;-1.6836896455700560704;-1.1560882652162614015;0.82414719536701019909;-1.2179568754449556778;0.67677821327825793407;-1.2580449450687123392;-1.5267643661555196921;1.1734213310019281362;1.2839307415367415821;-1.4982439892219614475;1.8358652663205228261;-1.5579261908851418372];
  IW1_1 = [0.17226961227416309752 0.41384527827004757849 0.27873913854990356453 0.13091349224344533964 -0.34506187728445258944 0.017534783973069154733 0.066551129020710045325 0.33002973579936950577 -0.16761553571654846939 -0.18422316777782857256 0.20397149491586216707 -0.044162390303922063883 -0.08001200718927239941 -0.21337550897000595596 -0.0078634428105883204252 -0.041544370806935682072 0.015379103694013417786 0.23073334578443105425 0.070484446760613383987 0.098112165846029955607 0.097262371653480353406 0.27459017226589321758 -0.10437022322018933707 0.054948803231877861586 0.52434958597262570912 -0.14071870140774334068 0.11231521885000818328 0.066089563102288820251 -0.11762402470643526509 0.072623663009348693453 -0.19302004778472670043 0.15909581167400033141 0.70122661749370807094 -1.501139809199934394 0.97147521951637505477 -0.78949180062600465835 -1.398257486829594054 -0.27428939853072009658 -0.82214320572829713285 -1.2961910140696453198 -0.27911778210989091065 -0.037637571793289928412 -0.74481473499676242866 0.081263847117174894952 -0.46084672500390660987 0.26546765477179512516 0.42905662207308403744 0.11479160200639322575 -0.24021141319699185201 0.17114904791738663747 -0.0078973523873359305347 0.43782621404817478883 0.060582317882064827541 -0.16356038247317328249 0.52689512371600943919 -0.40059944302964084484 0.36002980881845203509 -0.064113294618422897453 0.12389936317256956821 0.46259209351666946697 0.41398073397058854361 0.40432045266683025453 0.38399872977475940639 0.3522407514004700646;0.16933809799223137338 0.16057074139326768525 0.071510124788234263882 -0.080864428787407086063 -0.23502810047516858871 0.082950473876536034989 0.001625952754967016807 0.16038591213841349448 0.13854253619990578028 0.25141448865839655102 -0.15405577490405722441 0.24904419181348716461 -0.15274070329543928959 0.22028973068520132927 -0.29098459317674585378 0.021071882649135842414 -0.17705752572249866539 -0.28933617645182291289 0.21593150279087836019 0.16158818913160180597 0.20331230259585053588 0.24245776139591626586 0.13196623154257652866 0.26617371312849336107 -0.1683825278754055299 0.24272246261332286466 0.030792548025651688554 -0.012483731065443415958 -0.12215828957384872178 -0.27703649961056531215 -0.3721601916724836534 0.19114464329029101641 -0.30825781386130990391 -0.31614703956400119766 0.043207432235111656316 0.053998256916438662489 -0.27621251996192336398 -0.19092709564964699398 0.35376255210468804391 -0.061189653258038281813 0.03288410884477457885 -0.15332258806000781393 -0.20638993686709872222 -0.16681197960145893733 -0.057458880133381219635 0.0087086254840640382052 0.18521471047453452741 0.04578548699056074478 0.21409622260477342848 0.16460758618932461173 0.043597132266820139146 0.12899862238451709207 -0.059263689860794818709 0.1953365226400345378 -0.19533815612870059075 0.13535555019457518044 -0.25397976369875935321 0.28632787262653841553 0.32457186457941189506 -0.17187084563254723113 0.26159066752041471027 0.33934284962079852566 -0.16075886453013282784 -0.027071978617716280918;0.018870346597584231746 0.19600835561468107904 0.40261995112253079476 0.15141505712728742239 0.20592772787072710639 0.068357069429183694997 -0.30597167765245497639 -0.23473571148320127033 0.73079680154965220851 0.6251066836142862293 0.32568888176303262272 0.56569100643401604156 0.090073198207475835275 0.13016040216584326417 -0.16604318233618498013 0.12980760040529948363 -0.068232897792962626804 0.24253056858158222875 0.51513730100584054217 0.064697267270175162768 0.22829941496797789835 0.29754843706240685641 0.24845975028912070659 0.68492412202109387298 -0.21970948729930359078 0.33739743387614906656 0.32393891146225889388 0.1004024171226684109 0.20273770440391666869 0.2975780170259491042 0.26113765657932902498 -0.15246590838494322728 0.067540944916215109317 -1.4385568224963845019 -0.34255259908013285797 -1.0829664916322063739 0.098655269865775246929 -0.11673313935890071436 -0.78531118060482496546 0.0076202470780707427106 0.26133483350345521057 -0.32680698310018851949 -0.71986211588400439432 -0.059820202171316366746 -0.060637248739543743448 -0.2276948208831761078 -0.3657890665099305938 -0.10715926073596337975 0.07070165734048682038 -0.074558673081714543773 -0.42856376451699168539 -0.2049609274194058306 -0.24435333312986051713 -0.32630167335235349402 0.048573979767330591195 -0.18330171860532598616 0.17373423820576469612 0.050629473543876625519 -0.039928719442015515873 0.40539592571698862544 0.033566066216494196139 -0.037359299501354664708 -0.11997604420945491566 0.11725858050984966363;-0.12005734460812729492 -0.068935086054990865612 0.15726127543442772194 0.053807882968406023361 -0.24649469691959796647 -0.079228041940353072237 -0.10429436144253337315 0.26725978569381414474 0.1289313397553553675 -0.18624979184421536216 0.0944391176469977639 -0.027558712257789282074 -0.30282704488660588948 -0.2097661723129659872 -0.31393006089499231326 -0.072328200634752246034 0.011959447841253830272 -0.069192752370315926957 -0.16517760223205746328 -0.31185874318265072169 -0.11701678757737878078 0.18029738176190010512 -0.30651097789787046244 -0.067431194514218945057 -0.27568712746860390972 0.021738738073205757934 0.12119824663935313547 0.17487695869294497819 0.33671078475661680995 -0.012185155124423967254 -0.25210083933717086779 -0.030696875103442686911 0.071069478293549204206 -0.17383025211981251168 -0.2632060802332145677 -0.23517255546784107678 0.011232464847233234254 0.15639260624918360776 0.33841792965213446376 -0.1188042185458421246 -0.24110968655157838381 0.0921592716950776214 -0.036718970609488123247 0.00028044192965401748465 -0.2833565204228491452 -0.081271893537036690724 -0.22975180771962638859 -0.26045117974107134806 -0.1535453056181385334 -0.059354957308147410222 0.17582761568527413565 0.20375687585921387068 -0.17378041038155916942 -0.057212430615428376546 -0.013203963013265611684 0.33579320152569513969 0.29416294893471212069 -0.22199311030796878286 0.29672038090627683715 -0.14629887168046229462 -0.14020581834057710413 -0.073954524606879054605 0.037540415900124780857 -0.1245777116255380873;0.032442426030439286411 0.02468598187989702944 -0.074961707454515524862 0.15967984884076447116 0.34808709295760187352 0.064167485854047162652 0.068304690535945469798 0.16275322048052556778 -0.17752757483915529435 0.4033085334063948868 0.15329127072623188743 0.033960075997612498844 -0.31394172165843603484 -0.096732826228607030061 -0.18683507115102185314 0.36847768521158408284 0.08277057643749648197 0.15048308161575030262 -0.20370699993800189809 -0.054662419683895423217 0.051265385073347574663 -0.077612371795023435417 0.044317877592570657785 -0.019738009099965786453 0.3828704383826619928 0.057686168695752632063 0.036214044657053114096 -0.22823093611717337748 -0.22498394308222330329 -0.31506896230169628703 -0.13725640753707099573 0.21834415637724929882 0.54032984416768037317 0.058125320874413230476 0.83715476251578602174 0.028709981926481657755 -0.417162513537664148 -0.43533179452414866306 -0.15485034465737326781 0.48020309998923971229 0.12132020094145361255 0.39178557224726034969 -0.90167406562718899199 0.097519374228801247728 0.10250529923451252856 0.38078440239469424355 0.10721080776692908099 0.30613395395681841649 0.15951898828870961222 -0.32709992291559508715 0.54527894186616410188 0.45835323475213662903 -0.070518965837720548606 0.1272567814908894257 0.29600027327173489278 -0.42826332744835349242 0.13271666369857920698 -0.31569822911140027477 0.20796815761793502331 -0.35810843861178570657 -0.17814932181544507195 -0.12553415050383057161 0.15950345780094987713 0.2188364334222255847;-0.093154719152493681289 -0.19444820050508734854 -0.40266780007207336745 0.031090497162158271111 0.044230619533692103196 0.0096355116408555815249 0.17016411828705224618 -0.27780147879145994372 -0.30237697890444359405 0.25288126728061277593 0.059078314338271362138 -0.0019881348415136460006 -0.085270795928990048007 0.16372531936932890884 -0.22181032255716318091 0.030888386251410038935 0.256738785854397078 -0.23426441195432842757 -0.017537371494150411078 -0.18730006579461178085 -0.11824770652995167386 0.043490931285532483108 0.18386784028967328997 -0.43611974082985077716 0.31838932939043401715 -0.25900417788145896347 -0.019842921536183649039 -0.041631676670898676296 -0.050045455334032817873 0.12281406851301275573 0.077103790571827632294 0.033982923208949009086 -0.44383218686104058959 0.50646274763295118237 0.13782155250604372076 0.22730496364271529641 -0.6456070541841376631 0.91976533359885248586 -0.50840937452843548705 -0.31101171812485034485 -0.64302453595458830549 0.45320704167403341733 0.55159197438657781021 0.52591100729971629324 0.07438517446709259906 0.20000385762192068873 -0.47600244499423999267 0.3774116014210065484 -0.32415015827689080963 0.22378771565011371103 0.67944165530886169169 0.41823283590153970124 0.42671059600950778101 0.20133621232810564039 0.4697969504815076025 0.47002705488524282318 -0.02118001941998164106 0.42317195832651566256 0.088804067861880359169 -0.1941257609850174648 0.37149464459358749746 -0.36965307876407421661 -0.32569264984368456739 -0.24394585743666893918;0.047621164214938130343 -0.0033946945013251469438 -0.0047010455570172813081 -0.063780635190990239702 0.27066645943679507047 -0.20515786087412113403 0.089627078716440419792 -0.083440051758689418038 0.20418855354632947652 0.30319050737617952995 -0.071373325899702147468 0.29597459190493879966 -0.30992734322494919219 0.16969165682249789939 0.12211065011043939488 -0.17242385905642235167 0.11716136654682310358 0.25135196831846973176 -0.18675272500491041372 0.33033527565908732404 -0.15591741788607260677 -0.00016615235672885612147 -0.26485277516586525071 0.23547640842670081174 -0.2526101304588398988 0.16485062544741954649 0.34517808928770388199 -0.16430497069340729843 -0.078584327460338207483 -0.2733769083252437504 -0.031428551507079682814 0.050605854705050759557 -0.13674004456023863829 -0.029924141944290407608 -0.30034985014280635163 -0.17374005145166188102 -0.25431246007486763006 -0.092221101944032671249 0.19469986560397928299 0.1074469749382321454 0.16883823258318383931 -0.09205161940182812752 0.29754993502350912671 0.15093062686270750095 -0.015072195259219704766 0.033901960114087893727 0.029434763835315069791 0.32661980090117237463 0.0085898428129782995744 -0.10856697207466081689 0.25445783562767648744 -0.24981004475253709707 0.19870028241787637824 0.15416793417871721417 -0.015890658155705315174 0.081953442062973808069 0.29503461441000783383 -0.1738955796891527017 -0.04980672681619906228 0.1586329615283948169 0.2165504478895490803 0.33812945181103126746 0.29599713658994375454 -0.058742635300056286751;-0.19455916672334400142 -0.017726771204919472558 -0.16128837655513830751 0.14178743815673180984 -0.046685015318291028796 0.11743161735925367051 -0.12397883460405090261 0.11452309913622446547 -0.21003688642916057416 0.12701791676039322909 0.09608708295268264532 -0.052003108861167990362 -0.092417713927364086857 0.33947011039454422221 -0.0032909654697042866126 -0.4851915573289071193 0.0032348026075976980126 -0.11581907760562430709 -0.089156535004632983532 -0.14083642889931866082 -0.26661921465406995813 -0.1600571242883037093 -0.24507214254108516949 0.14868369054146390873 -0.054065014604132557996 0.13249676590202366655 -0.14104905537779860447 0.096364650895712389289 0.0026027890023121026501 -0.36438406948752388725 0.29647467253054776704 -0.18082176455742859922 0.01887609973233003377 0.90432377227989002577 0.71933170545050917344 0.42565899520419714364 0.11528499951791018607 -0.33561518031427745035 0.27637660223743404364 0.048734990653693861795 -0.28705980882487519557 0.48175340455009096896 -0.7348692644780584482 -0.2366691896726920985 -0.016681878843034746857 0.50306634155412621734 0.72369088420353655522 -0.20438973325990958396 -0.24254070327062501877 -0.41612515714079229001 0.75354394888608844383 -0.24937465082895418633 -0.28019822546815353892 0.41612116430374529452 -0.16808048575489986654 0.14194738713066271107 0.08653241303639383486 0.10147484646137075459 0.49866967312785176469 0.12164548006730974139 -0.097268666143635731935 0.86492022212051522523 0.24642132512123213206 0.1277376436456420794;-0.23373504331395672518 -0.23359217444023364085 0.15712274177012702792 0.22932824461896766932 0.22338879201485856152 -0.1858522124304192169 0.1579246372671945231 0.22072409290876909838 0.17018133754174130656 0.03483155669664261822 0.065358607280176672649 0.24235576569233358013 -0.034754386578428546339 -0.26625814452244045416 -0.18353747675873016698 0.079823785227595353553 -0.16818855649482614134 -0.33546575673705780751 0.11888884698158003195 -0.23596090605243033589 -0.1667961731772313605 0.18920855021874150026 -0.25874403785181249171 0.071877569108516392582 0.080544965993846057151 0.036878427022287281478 0.037110360774924397442 -0.15729200755171307557 -0.086248357337351380658 0.054582713806813148993 -0.15645577025069551391 0.25160208255320720694 -0.15342438388222595647 -0.25140299418156392131 -0.11609945703826103636 0.050591560157150050614 0.17798669890021107109 0.10734506221826954631 -0.12285631823912372684 -0.30109817072504452273 0.28735550971395096287 0.25334066331628246616 -0.12274520394118233757 0.018389113229437974162 -0.19107014006034922504 0.11673587012411892894 -0.12804285714313146105 -0.22712374781946870206 -0.22094761608225252369 -0.11865961544022100849 -0.27745026599450495208 -0.013437689037077534676 0.27571771150285284691 -0.23416723242616110934 -0.080309739654520567731 -0.23850609571270997566 0.24758309966782596212 -0.011624524036659604834 -0.19901390681887437539 -0.32110196016161496324 0.086451718170804825458 -0.26412543249945791279 -0.091839483411032304949 -0.14657635675544969378;0.49285735238590533402 0.079001265170315998487 -0.22754592032583925709 -0.25784638593048170296 -0.365332093580881756 -0.246272814743067614 0.14653135548490656137 -0.59077035105487762934 -0.096608492139440574342 -0.44324847557029978251 0.03399241139000249573 -0.55618046813188737332 0.014765533268602991368 -0.17612607548489511711 -0.1724182161076839026 0.33643850724944390773 0.11918544937517032423 0.21601705412389926586 -0.39982144783075979078 -0.056529420081788780972 -0.0078178941499447932723 -0.10511864496521505785 -0.012474882047475361821 -0.28791640513669414236 -0.035064316683370649885 -0.19634210650468239545 0.55668569453749183751 -0.3782596531820276442 -0.030324895273945391694 0.077137636648671875639 -0.40032443808496448456 -0.3581873399701551719 0.86259026422504014864 1.6456278553561456413 -2.0384068755131572459 -2.1679689978279101936 -0.85963104741050611057 0.17744032720095617717 0.072588401649731945642 0.18676972339863145978 -0.080913352961597434509 -0.066364526973755402772 0.081883871395314986041 0.77692070451456651803 0.31047636742045320313 0.44864549786530066866 1.0836867382615464894 0.26442121777958049744 0.49735060967485411609 0.44433573858454405991 0.35948016961810769221 0.67799627527215122758 -0.14845904608643961664 0.1974656576332342317 0.42930059624087174575 -0.22049355541003898273 -0.43507644341510337549 0.3371103974530759162 -0.2714225884785814169 -0.29177372064617129732 0.12772645517396388759 -0.015942598682722929071 -0.29931268937918975581 -0.33646302112082360214;0.2168405665837089269 -0.00045136916809103335563 0.098961911199867830247 0.43390201461715399711 -0.18319207751966520847 0.058164133090361565259 0.49251511215765431118 0.59789912270923006865 0.054860073742403377139 0.097887223583222951473 -0.24793289724577641242 0.082804682923884403989 0.41652179062028987788 -0.1212659326268078902 0.055759782954497093266 0.12436179289764399958 -0.026142431321734785343 0.23237479676957070729 0.18314174884189468595 -0.050177041337971552137 -0.23099458511848755538 0.15651487730711546864 0.0069870456662844675905 0.045190151379394360998 -0.10814599480148429089 -0.034260000529400418123 -0.051247323728485651151 0.20334408930402186888 -0.07568057280686277255 0.11284994490003145973 -0.35995194097258803589 0.4034692024719437331 -1.1650956888002348411 0.79609633781087163484 -0.15682153160088418975 2.3381224861663492121 -0.31673599843860283931 -1.6250380953781258242 -1.5738406543216156841 -0.84531023577756192466 -0.31396330679894740578 -0.15953194137012149945 2.6351444701968085305 0.71460802691589886404 0.40996663516277315198 -0.12035298273805497549 -0.78209153283241483745 0.087438979425803531331 0.49941543060053505965 0.54102284189925575753 0.04017453325352718374 -0.8440759690034073115 -0.38899908355313578268 -1.0057226149285674044 0.31427289909035582838 0.73041725131347090549 -0.64804440950173114455 -0.36827336618500428056 0.027294977458435419615 -0.21235573862851089832 0.21933915891338678916 -0.22561196977116532159 0.15311827569191535647 -0.24936483968261047295;0.034822586971005355105 -0.14763003400671198539 0.27845054302765237519 0.63456075594650607208 0.055104363762466697374 0.07433742370936545496 0.73059087267745936867 0.09836036837590221571 -0.29164086706052411158 0.13854112873037024989 -0.43295211172170938729 0.066905802748787226997 0.019778901243885104594 -0.32100949472337952928 -0.0065908362396665167576 -0.44879403591097877246 -0.30828592079576599971 -0.87762622350073260513 -0.44659954362324016941 0.065038986802177067847 -0.35795157181131043167 0.20415265395850382135 -0.51804184519820462018 -0.094738282758425870766 -0.015359268683745123593 -0.15316268092925175437 -0.086085628046156811854 -0.27054681060089663669 0.046195465816287875627 -0.20585365610804967629 -0.077434507508428937483 -0.2026851769655034774 -0.49221852999609799761 0.79301959917735831418 0.18434500152405516871 0.12661613728296058912 -0.36790250769260213204 0.26451221551731274317 0.031349886837563116504 0.53763853012790840946 0.17739773330855063138 0.52438227948107807297 -0.38873758844570910354 0.044090008133081698416 -0.15494964651154449764 -0.44807360177602567619 0.60913243595244892514 0.038817718675612331025 0.58078253140748126171 0.032162167814973233182 0.69463926376391382789 0.75633135808101636943 0.050985452562586519587 -0.31397988083690947514 -0.36033880744627844184 -0.56255349871592241762 0.097974943050410434608 -0.25463965662702980897 0.51030779683666893654 -0.4966118579109475295 -0.19126537476979790786 0.12569060895144162915 0.1776079134145663041 0.0075453989232342321553;0.027836256009191925193 0.19776395454222922554 0.14198558274409284197 0.330321639266564826 0.036943412673959369341 -0.16899731933313980048 0.14952323437019413022 0.021851837839433140009 -0.029044428337534764634 0.08896099018258718516 0.24315895963541098168 -0.11588763769306091589 0.042917156109657031426 0.32616449068213293483 0.38339988339889735647 0.30406013173461277077 -0.048606630450884952266 -0.16099788224004285553 0.36764260176541885272 -0.070911092880043019582 0.23404970575395361854 0.22600304746193400351 0.14466829236610459497 -0.0047676341824224414967 -0.1648485980669600337 -0.081002941536633468744 0.40048129470259735685 -0.12766501456564166572 0.21500172380455045973 -0.14961697433291892834 -0.13209227928771333227 -0.24072661732229089226 0.12426890335858976899 0.16766473252854868781 0.17208973967439986086 -0.1710271380304124178 0.33215347849348747511 0.23700364044762181615 -0.12619732635757321959 0.30533202152252419959 0.069604283686197643277 0.28532027109185703617 -0.0038233271116785458137 0.17080105535985828924 -0.089466129283049936061 0.30171721784443694681 0.43728514317028527314 -0.022165157780111084673 0.30368620117673034153 0.19478510763341624901 0.065545204949634894298 0.35013223459068326671 0.016837339879035021634 0.20822640275339998617 0.33873191434006205691 0.17653754103746124859 0.049768846684726066043 -0.15150408685413432885 0.0037766104377904988545 -0.0024563716820912430243 0.079295660205178725155 0.044629402615756506856 0.094969973480799593779 0.35270361417652484892;-0.011374554848668262663 -0.073556574416115724779 0.44322104538624251813 0.045938615471213931074 -0.36296136436712472806 -0.30702270060502678817 -0.14525658819546216627 -0.0017704926663984089236 0.34457416026223669503 0.044984476538104195553 0.2727989836701831261 0.036617134088959044091 0.041449329894683827058 0.22755247172375397957 -0.37873515708790239653 0.21142359512871591876 0.026727049327641499987 -0.31681564946925494519 0.53367583471635404724 0.1597492211499108028 -0.12924446461194674662 -0.19707726225870855763 -0.22918229496155889668 -0.28259271911774247465 -0.17035492536841218003 -0.59871718093682990691 -0.14245460851821026282 -0.10193591342578560421 0.10932889527481569336 -0.152060579164213866 0.38060713118698924484 -0.0036554979181729397621 -0.57848570828544365607 2.5857343155879828345 -2.5178659986298059792 0.079733103477117803215 1.0981416331182565216 -0.91785127577072533889 0.22910661771516624419 0.67863049976221978543 0.69654684536562161412 -0.92413560822683482598 -1.3573410750999448382 0.1291799924245748965 -0.23865604986749902605 0.87355516263629517937 0.97520063389770905715 -0.025660465917253513085 0.093851007842335562592 -0.73933734357243219293 0.81419302109470192974 -0.39467516060692142688 -0.39275054409104659392 0.23815393193657302673 -0.28186700488080174143 0.13267070797749816458 -0.12429953565194364062 -0.3865669892734884816 -0.24085229664450025222 0.027470398010560292262 0.80725205870447314105 0.60240685661710746679 0.61558564789009495577 0.30828346391231647994;-0.072904408833647266208 -0.2805294412407424165 0.058720036253358948164 -0.32641720233122906158 0.15154864084492622456 0.53723172730656676421 0.45946964554680702619 -0.1058623113939693855 -0.1217964206958405543 -0.13180523872820887332 -0.055343853622295664796 -0.067929225896855682798 0.19825501613181126248 -0.2201353091613920121 0.15634016530011646262 -0.0031293974908841795668 0.17802165875775519122 0.12374525213729212214 0.20699041031666168267 -0.28986931932916298882 -0.28599148830129333954 0.34125276762224671101 0.20780287487887150188 0.059845966379942605595 -0.13286757980932664691 -0.19279291574126256048 0.068672574375976930261 -0.15518254930824210147 -0.27957130097403776192 -0.18174928012591146098 -0.19415986703206228325 -0.20287353848613084994 0.18604362928382497944 -0.013874252377877659831 -0.35477095431953170612 0.17158892307001649691 0.0043659410925700296857 -0.44873477673023054457 -0.32645545727056207719 -0.29371794531533385042 -0.076283242248704405397 0.014010452110817884011 -0.0059721280817475316458 -0.11240754030270579122 0.45466913954755189264 0.19765997902144050169 0.15347441435641845375 -0.018554774068901064982 0.03762317156615076208 -0.07509468199040399139 -0.24145156931929614985 0.21155146688638751251 -0.3499154614355426407 0.023446914261522594503 -0.54176170555810387874 -0.28273639470086892045 -0.54282073588270685072 -0.57903281963995423265 0.047036939633149803253 0.4175555109789781949 0.020588889376166090439 0.28804764804327287475 0.20960699711193894745 0.13942662245617223893;-0.38290101254971536937 0.076655412315609211538 -0.093484069611633108243 0.15141038066954590202 -0.10712871726847961185 0.049163254836072881049 0.16104515586207698852 -0.14802572730540905499 0.53093903594729918716 0.10140066913636548718 -0.20462265578115393372 -0.085267107762291738382 -0.046704798448163262203 -0.3360590453200221206 -0.18994311059499460748 -0.34442217669874153341 0.5315139031893175714 -0.17373418688589853387 -0.42494760184684482462 -0.098054785277518902165 -0.044270705363237509988 0.17051835387550756673 -0.16223586933000946897 -0.18386117539124555154 0.068858725450565247406 0.046557970555737154816 0.48534610985588472198 0.031422111849925986327 0.36677274056083564169 0.10694396439099056184 0.0040888605382371923797 -0.081118588113403514162 -0.18549639342693813315 -0.31928140971396812287 -0.51148084238218272102 0.15057456692040024904 -0.54168939334989818501 0.70955430632680582814 -0.47603373067472709579 0.18207642846681426629 -0.14035402724991008494 0.19983896148816909788 0.19841497733709212437 0.2829116880770578546 0.24725543938536287403 0.090481112076142927725 -0.14206617184674297238 -0.0069744318736632438666 0.24630000888427769357 -0.17055595168360021541 0.20845915845647877696 0.76809070382236011021 -0.003210177416314873456 0.49488636400679070215 -0.14956434821590405826 0.3571829898790771507 -0.070838307497356242659 0.18417504148377331075 -0.20338715945399019058 -0.15308738522149875627 0.14096133753373735198 -0.7571315603964823282 -0.1955002396468046022 -0.22443065753841681675;-0.054678397330909338236 -0.033455765113492394458 0.23424495961087796192 -0.14607007158332122043 0.35595982768949907538 0.066904521232539246323 0.041603049562526230043 -0.062362416266167279566 -0.1862138072878253281 0.32171833229848162405 -0.13132331654377898955 0.098990011722009663142 0.012429980643972174392 0.2236585320224467599 0.21478426505951780934 0.21013484839072621435 0.23677749403428835495 0.0099116345593138945741 0.060178740410329098487 0.23765398761447212306 -0.23140160133430520695 0.0018321644702932269461 -0.13344772980773700333 -0.059499020625732583489 0.34670560650418680293 0.31877167162297193048 -0.19803364106358722907 0.25716302276051788978 -0.016108845960825426274 -0.11633612197343506933 -0.093766806547047776288 -0.073814592374681603504 0.3409611048162950464 -0.11387861093133599955 0.40467622547128934141 0.35720770484973313197 0.16157212127913975208 -0.021335295429484122526 0.15791607647916319768 -0.11179676134425213518 -0.1569835813360268284 -0.061201084264309028871 -0.16267934761481264716 -0.03902493965707525686 0.38100830750010089565 0.17279105974199285289 -0.055054161390518281671 0.29910375905076697078 0.2959411490417251378 -0.23472799228109478276 0.11590549424752154273 0.046303560395793481874 0.25819848777409304397 0.19129980044048636167 0.22546731734599562147 0.35254895106842476515 0.45492738016136657908 0.065787932363891729604 0.067809465108022021207 0.34196755811507478784 -0.036663371852150974939 0.1428211269583920251 0.14779727897144018245 -0.12013462386951866134;-0.014337051698909360903 0.36272335405956085408 0.22648655773056833307 0.52394012215657159715 -0.11193108706202369029 0.20831572962945529848 -0.15480652148273688073 -0.096939326764700198269 0.13775486971475453535 0.23383128842600528485 -0.14674392216948894951 -0.06346565595232506185 0.30409117982088745835 0.18197199358264168345 0.063778598628857111064 -0.040244845915568518147 0.20718809142533933798 0.054798825503367669387 0.028939184667932518064 0.26794092934703162001 0.029785918105752415275 0.063628007193628058347 0.33342735635014897344 -0.083976874390590205977 0.11794253822581703128 0.1433445963180504934 0.075920202544324674743 0.089022706650065508427 0.041196476275826003632 0.04419027099412320414 0.2660304973904471515 0.19709019264331792409 -0.1659120600821912539 -0.071671692122986713214 0.41108427786303114448 -0.26531570525599751376 -0.12221225930516771419 -0.24170072672422460158 0.27454451317659661624 0.23520806292371157498 0.89369536296745388793 0.10281553357413843186 -0.12994764962305288547 0.031523289609793184174 -0.5147465885158835075 0.10239276659867178887 -0.41945570916439212095 0.099409717553504653442 0.11315959765672047033 -0.28083241201774566953 0.23129074207167493737 0.037291811475244983354 -0.21121953735019591281 0.041739450303393967057 -0.1929899646237177302 0.037389163096959047994 -0.12604933381000210657 -0.14998201489272539044 0.37075263702998123572 0.49424759394577327809 0.14561119263110272604 -0.080446413149418860566 0.23645429513490340279 -0.13462456375713274803;-0.098880248446748281177 -0.25646826918489834535 -0.4150573900286335105 -0.12765020509345001432 0.14515397339256327913 -0.16480984100838064199 -0.14988017637439793317 0.025453981604985506659 0.037999181381765313736 0.39917551851951227349 0.20207319925332681287 0.060464606649024608964 -0.28071566277321463589 0.0058233265786615485624 -0.21775234368277310293 0.19853366959073318054 -0.27669946176077453437 -0.1525710878052278785 -0.0080534620588943797714 -0.1107758907497975176 0.24715331704523890721 -0.43765961687124471657 0.18101411172884807055 0.08432431950091553996 0.32462635315103394174 -0.025203639533899164366 0.14608924527001651561 0.11568932530438001682 -0.22562262544906760975 0.12050994705713688471 -0.082092129601167268538 -0.095642539245020641303 0.47241838487212300945 0.15293866895576091469 0.77994029157103694772 0.20776673695460384783 -0.25048642156191192054 -0.88790858563472030429 -0.33255566865660890485 0.043449913507556642278 -0.12640995604148069775 0.16002466185933900134 -0.1930582554428960651 0.34079255689258491913 0.14066411277400553415 0.14470520073431586416 0.00025849663882810151525 -0.49393792702907129977 0.28857114418485396712 -0.21487099723830427322 -0.16438455038204641268 0.10577949563492689 0.031694797384780849792 -0.97443608040663354242 -0.33186372228097404946 -0.43176073065960829389 -0.13174814363154918606 0.062925399536334636341 0.2765908052945024731 0.25342101530276839316 0.2594764058220748737 -0.060660559224699907299 0.17176642315408915951 0.17991922256101045008;-0.19186944553294796312 -0.090323731118644889904 -0.33894083187804696644 -0.44172028200211599369 -0.32486886705085687987 -0.16952668443779089769 0.11747165235803501415 -0.29736467201282873463 -0.40181850733019730537 -0.35325591854943311221 -0.19956178015699260753 -0.24374732172154520149 -0.20252755168234551353 0.52865791384710425493 0.13641450052775849766 -0.13564355040288059162 -0.0091225110222222360185 -0.085765123619830491153 0.1697091049799998308 0.038406656798452142032 -0.33631716444041298564 -0.22162743037368118348 0.1507118372105469839 -0.38309175152417535015 -0.1655469053079682562 0.0078084772110786531199 0.14132054035249913548 0.22381853489992656336 0.2745965160125167781 0.0011228442104450390114 0.036655133210074908323 -0.2421916756101014645 0.42526528488369758074 1.2300271234267150522 -0.039585828033862034692 -0.99529148714050830193 0.7366581069964375228 0.51810328012278261678 0.59195237063314987136 -0.88188480685730441522 -0.34696331060400703583 0.49939219099221743292 -0.11792890253045547333 -0.074942211037078432234 0.33804294940482465526 1.2651896385120693367 0.98675145849751222382 0.56211571025101481069 0.039722185933213825793 -0.32642360422244093288 -0.0063643941707789176976 0.29456993282783505705 -0.28904541379654674627 -0.50428859924684488192 0.082048412899504472029 -0.0092336194058687467989 0.11442238739977464435 0.12463317924194637631 0.004484020802478736259 0.13019004107681389493 0.26519890625850361943 0.42662949740068950577 -0.055982451940153887815 0.12987054983286505649;-0.13382383592821878171 -0.021006655309144278698 0.03714684704357133771 -0.17993646313146760551 -0.16226064636338857761 -0.28909938513912830649 -0.25262058334028025808 0.1919715870621176157 0.1924148322939398803 -0.13366565360976295773 -0.25549592380405167225 0.24236856596059272451 0.21951144117964060953 -0.3420987688393642423 0.017164101874402041409 0.0053184633877653500478 -0.095670746674304155133 0.031808436415296827138 -0.021222377898175475569 -0.29306858484964859457 -0.27822336301128552938 0.071294793285540072891 0.092656988131898945782 -0.12789158959119401038 -0.04630452388625025395 0.10662285707361450482 -0.33196517112583756592 0.18557771640770573396 0.18678568932440037242 -0.0878625941468897248 -0.060426295857504919162 -0.17691306359948275051 0.12390192790008970614 0.031651512472084170069 0.055141525546104332156 -0.23361967654594403832 -0.17981304654581869995 0.055132614275093611012 0.2278133444881081382 0.33915678274745886256 0.24252154656421970325 0.3146937031791025019 -0.019413296374333081917 -0.017339038527493362551 0.21345071826035785789 -0.024854302291324889551 0.022696831628581007334 -0.29878185820819797014 -0.20937876274526606712 0.082154148157649931061 0.049932716231757656722 0.040731857101188428949 -0.21098172110809479407 -0.15185100224468697783 0.24713178332895785472 -0.36486380379810007257 0.28848056962465917774 -0.30075455141242118939 0.20721869805347853388 -0.15383820560977373715 0.2044512591013802616 -0.03086236583330295366 -0.25296745448090701691 0.26996456424234427374;0.26823028795004133507 0.14371507355246593285 -0.28208510027091532324 -0.097169094983866124982 -0.28525432585602561453 0.16458023969528173813 -0.17315992688316070303 0.27454483411392999193 0.011558447536719630017 0.23448875802470589558 -0.076330641996380635406 -0.26023004860131399019 -0.15764614574424740123 0.22153703191884802082 0.018924689875736651345 -0.060322704439896714101 0.0037497650817108953841 0.2675807819225338724 -0.13848824230736200835 0.25505928572672609267 -0.27109591186994252965 0.16321554287693759711 0.049371050081982094382 -0.217903480204770017 0.27761881355032480556 0.29473644777108626291 -0.078229054267160674785 0.24328825074522530958 -0.020043554198276632844 -0.069123956402846645219 -0.21311435970453401767 0.1008619033810903981 0.20135262120570576738 0.15061379279218939375 0.1764568608032101027 -0.22703995460478842983 0.076899292832932744646 -0.2268733722388123486 0.030656873243121399164 0.22297857647557139948 0.14771507907945835569 0.12952071853037255833 0.12186957256969584151 0.29421064616798969782 0.046264874375081671554 0.2491868436089293426 0.35366741420183339661 0.13462736954121756749 0.33117964767681529192 0.19245055566932492419 -0.041681650499002083354 -0.0069334839309378006392 0.061169686778682764994 0.29858444372133718936 0.012266274633171996358 0.31737237598453094112 0.22883163781010529281 -0.067055750473735312167 -0.005213162121873907151 -0.24347530636228678635 0.16767116583273064534 0.018930459794114569416 -0.091564972745280887034 -0.047165461783898979253;0.097930556770077767381 0.049053596869876758824 0.0096000726512060867435 -0.30363317755670671261 0.23386964180224179 0.090960951750313961961 -0.12881556722729556319 -0.026573157982941603139 -0.29125864091465164529 -0.2173532088155363251 -0.29512377901268094238 0.064974886222131864044 -0.38050373167489248694 -0.27020639744170582563 0.12942249008173792313 0.30277939400635828227 0.25881049349615636856 -0.056765039996436318648 0.06558703780380716053 0.22668853115763304418 0.14473771460043430293 -0.23036926193234213978 0.29089897679109238959 0.37647619994600983739 0.044888079205047851095 0.44361440602147572676 0.14906453121064350276 -0.14321088029960418742 -0.060864215614468260285 -0.33024374774572340385 -0.24921408098094377515 -0.093442580202252975563 -0.044590946617601101565 0.13382654304069749318 0.9270174666930894869 -0.69010115861699250495 0.1661910779299253238 0.0040528810257076924167 -0.096383826940049752152 -0.26164289193852680038 -0.48117026962686049174 -0.83725133673077478669 -0.06943976714864086297 -0.4211082971645672135 -0.524433727386543036 -0.11575384563335140709 0.33301022755147557941 0.0283113397201514988 0.038067892960941561442 0.3158729391969018474 -0.18259195015567031284 0.43488138429655154304 0.066340514946012937858 0.42360311186633614611 -0.11655629185821060612 -0.046578604255565585202 -0.17446253014412743676 -0.2656837776723393052 -0.38293129497187594623 -0.35676425196789202099 0.25490007645168122341 0.10063074134191168918 -0.22901589162308130798 0.36833113422904589784;0.37313753429475693402 0.10020146445584179884 -0.25892614545249498237 -0.36179787676074054437 -0.073157588664934367073 -0.33985473664384346915 -0.46759358237073878062 -0.48196438554689502443 0.082326718628259257238 0.08559999976747720285 0.38140491391556924361 -0.017693534963665470683 -0.045795475181859258973 -0.21070421327414240453 -0.19603642793873654604 0.17991903511152404493 -0.17158950452796845054 -0.10203746878022566802 -0.097805697715043743434 0.24103530151285601502 -0.22415672772126285506 0.040986985303954052984 0.33537126316086807165 0.040374751229491946669 -0.028024379868803340338 -0.12735760103120749576 -0.22944599897037720737 0.44299344739364743262 -0.19604487899623790348 -0.3932349873414559549 0.40067611107597661535 0.14023210159060006674 0.29973142553996173776 -0.5024848384854467831 -0.51029011400654966657 0.44124683540734838116 0.53337258619394034564 -1.5307054020842054687 0.32967538030869852905 0.68221342544655194651 -0.4043963269239457814 -0.94160293337955192072 0.36071068146264290144 0.07057265180030083962 -0.28074403351360216474 -0.2290535246443642925 -0.41288472873357973114 -0.65856945152198509419 0.41075726126342743116 -0.085401725776541106971 1.070780847139225278 -0.096789807731444840733 -0.21510763077694639023 0.33783916318289020086 0.017497247964779402696 -0.054263151762169559156 0.017282394300555170563 -0.26820783255824814928 -0.45366012246864478863 0.53045448049502386123 0.38865504342287859885 0.085576309426678889847 0.63741212994723717156 0.10147405594495254033;-0.12169637201945371352 -0.31450649651567813558 -0.5102633532949433226 -0.3407425070165077674 -0.57831706925491244142 -0.46476498185685366504 -0.019350151991222093451 0.29447463596012574127 -0.26720528104705776329 0.031173422385464669843 -0.023013396609994352104 -0.050829452721627074729 0.23940886229079214043 -0.23733143414056045994 -0.14260199527506700612 -0.23827210785535490878 0.4072536042838866277 0.10644743967993883227 -0.22359624416683393511 0.25621527285917572447 -0.27581211428612834036 -0.16056845414193735011 0.16037993431452832183 -0.35263233052094239417 0.1122851586398378454 -0.0059901564607854999867 0.2635730777441687156 0.36174035400855741873 -0.030588549966340548847 0.21407926454456679966 0.17238687132638461086 0.013718885410660000904 0.45606360902771359012 1.6282455272633822307 1.0950565194886872078 2.3970742333912813393 -0.19131571534168356763 0.89881413023578393684 -0.18415706021412944771 -0.50966775031612776559 0.5522774043579034009 0.53992934623308852515 -0.012426489855805543383 0.20357011795237653362 0.13508340881235381126 0.11099868086873847239 -0.63883024473791649722 0.65709967519002543401 -0.78126338461632915955 -0.49122031962864437515 0.54000610195703957483 -0.39360368071978202309 0.12897867870554019509 -0.098632597220324205733 0.083563432171821022676 -0.3263030063040552875 -0.19264750987300832685 0.3245767840967411777 -0.48555034563139876091 -0.42716471366105418506 -0.16803388961580431604 -0.48935255840203317756 -0.55792567665275372146 0.18190962316915973429;-0.031748541405750584088 -0.28929545078727819662 0.070470183350541365508 -0.22983319093412948875 -0.00076869440787715598296 -0.34294759747951319984 -0.18435751421200602396 -0.26214288563751708683 0.19368542174491129582 0.11995958754771600396 0.45891308214821624478 -0.07532331392762629807 -0.034298767729070228638 0.48988525847714964323 -0.07720749473159800591 0.054186126812354698523 -0.33543261827879911063 0.28363314516093840467 -0.19542337272240406509 -0.18354256933425955323 0.13425529811432654337 0.36584381881422839422 0.12641618796581480244 -0.012949156812108824494 0.23301901410668712789 0.38424424004773022334 -0.18929668579699215902 -0.18944440369393863999 0.182140041605574593 0.082636001418155052844 -0.13961968988409972914 0.28718461053690030882 -0.026275812781351371578 -0.0018368110913613896334 1.335977524064702715 0.62016581793376690523 0.51146086186272388119 0.53430886994514092958 -0.70302527648833457175 -0.60214989642435690076 -0.76318463158643545796 0.48494333558436975018 -0.27797839982488514732 -0.35026562752785234123 0.35126480648181535038 0.45753766119618272112 -0.40712757158849999239 -0.27257008418338363187 -0.2467671960851752222 -0.24025470897468617637 0.032450720135418220647 -0.46854565048907004243 0.20100497626906843607 -0.13412474432451784723 0.048868377128527734632 -0.0058684091669524689888 0.59613538371996144249 0.10484905412924992729 0.29865210625053406623 -0.23617340785813889514 -0.13535839857142942244 0.069879662524629709841 -0.61493100518051047043 -0.13215605397781135522;0.17613413606320171834 -0.018149636201635798577 0.20022725636205146449 -0.22034232778714882284 0.019197099978851352858 -0.084377666750875129908 0.22261864129920147515 -0.063465955207211002809 0.0067089707965620531613 0.027377517895958776439 -0.056406796840963273343 0.030507762568700538819 0.017269393516730017352 -0.020666863069178195017 -0.26402542984979765484 0.010103887236205748301 -0.34497202631856987987 0.61332595862213823423 -0.063332240622354790682 0.1906680633937574143 -0.26334374558855500048 -0.38950757506859268187 -0.080344074284134883723 -0.1250724377590002323 0.0025955000337436742383 -0.21590860630572292211 0.061535373153314816552 -0.038006438256288577193 -0.4213663865988505064 0.060093313016558499995 0.14921346934279611229 0.45861831085813647979 0.0088076815338903810537 -0.34598351448330566527 0.53080173738231239966 -0.49234800428567943031 -0.036998465238863194327 -0.095011665109766788029 -0.44642209527229004262 -0.47985365989784267704 -0.22372146216212812631 -0.48143999270523052392 -0.14575416198211543772 0.24355828718503857999 0.0069092511589372556519 0.041064847181830135825 -0.0038695845777483419206 0.11134972929473020697 0.020556040766817301746 -0.2728143490831662632 0.19460777206116264271 -0.030664053816660874485 -0.1535555485784556029 0.38950391981785265072 -0.037031237668079655667 -0.057112462308910864894 -0.21012012577883107389 -0.012205467389723036187 -0.42801618906207783422 -0.047588633923057566122 0.29873460859275535739 -0.050938419607691867719 -0.16143729334415221621 0.15496961957574573177;-0.042006618854183171152 -0.27449896694642822448 -0.26833120963937462378 0.061575404760573874963 -0.18567149919062372887 -0.031206174470824118994 -0.13912042980980424134 -0.29052427244704909226 -0.34097439041425964268 -0.27810306830196046546 -0.15673664662373595902 -0.26649967494022658299 0.056332531879438131617 0.2314570185123287771 0.02905596646993832341 -0.23233958445217287037 -0.2506814362310311739 -0.14156957888419521852 0.17008312397475833233 0.042039004387490801207 -0.017227353251205428791 0.032663126234346834265 -0.30415021457227270352 0.034008815434775969966 0.18700036405551009877 -0.067894026436287308046 -0.18964031205585391016 -0.006090669629079307687 -0.045418826541601863001 -0.13945181485733892934 -0.24378133858834419301 -0.31440020711234434314 0.14469232032544770972 0.037789657013291885757 -0.073776149023079412581 -0.084839714934434137805 -0.18930603531986758825 -0.29095933230779091883 0.11432409876621725531 -0.11865476372672875693 -0.31946529512347621171 -0.11362003735686199146 0.15044419000166533995 -0.10067000971085579564 -0.39060186369269228601 -0.097766293890100552932 0.23360200902442793125 -0.055191059726986534117 0.15235868111859138252 -0.42459113137172987962 0.039849313054311705229 0.094331521863367115421 -0.26960702804387520759 -0.32845992327133149979 0.19496079257347417868 0.044004645244944920468 0.091543489948808676182 -0.088691552609742790869 0.1568967633348384294 -0.4503272462512363794 0.2089474960788849367 -0.28565792983211213407 0.095926749893353271958 -0.27235488572443905531;-0.51380695576098744937 0.045906531576079476209 0.33427052074513408098 -0.13147110233926084799 -0.19879248081850170449 -0.23740297509682453669 0.02619407720535163811 0.40420507204569994242 0.0019477190469573649623 0.035849192105066061964 0.16084892711675730093 -0.10268898666868912783 0.38028763255336239801 0.22416535605287729593 0.37653124071565508002 -0.24874610270958294467 0.045958279125592277348 -0.16195234432756755449 -0.23804507816947659271 0.23530675566493844397 -0.20476503369435225532 -0.16714238909855563819 -0.042516285205164018601 0.0023321773401347627511 0.12056526367713224501 0.19251603437862421786 -0.088342478416287950616 -0.12852975805458966008 0.33464382380392432292 -0.026754643996448970039 0.54021602824089920425 0.036426960723592562152 -0.060247312782767917239 -0.43599161417945819785 1.3074419409514543844 0.61086958398047785934 0.0094893563076063475181 0.077817247585703339108 -0.46171839638660744365 0.3575274727421314247 -0.29451102707181386897 0.070602491741428852201 -0.51028887835310043908 -0.20055690973852147163 -0.72758822878062723305 -0.44084244730705379745 -0.2870955565665678777 -0.37339771048044906321 0.0041067459414710480101 -0.10182771754918285012 -0.16412428289556676986 0.17151905393515592957 0.2913112427016851802 -0.39525039387976712568 -0.1378761955325291666 -0.043233557125705153468 0.24787278856520700288 0.18263619922145657437 0.22777193707412651813 -0.10244436373942533702 0.029376857481182547943 0.50383477756097483358 -0.073340518760232134565 -0.046950364929038680695;-0.55470318788557637646 -0.34820567935727886333 0.47772890123615846525 0.42218835556372341644 -0.072720246520277087576 -0.10062378478774683388 0.2706129621074032654 0.23922040030548080702 -0.1159314154005420261 0.56416182636083267443 -0.047103267599531796483 -0.22410004829453997188 0.52778846275026625179 -0.35591206284216431177 -0.11012943336407851613 -0.17104429651496999565 -0.25767259937358216737 -0.07874566926757824159 0.10585068481778038552 -0.10845194472880392844 0.29259665797465922443 -0.26350076689073503866 -0.31064843571557715363 0.22458626981040197279 -0.14399435102318586255 0.0046525150883846479871 -0.21650303983391222529 -0.3026220148879776306 -0.14309542753076415211 0.095086249852453591513 -0.048471680552502519057 0.22395730700453506112 -0.93324761999549776803 -0.80937062149515759391 -0.025723931827012918444 -0.70703041831878810086 -0.51468381064440671402 -0.54136648154494415586 0.27960941927392496398 -0.31573747718549666219 0.24753916001907186328 -0.0019253386027911103921 0.13532042932853366457 -0.49154392622719816908 -0.47355592527459705599 -0.43456236225728567257 0.56741702121764880928 0.30601900994906794384 0.23778814339287557278 0.038688237146861197135 -0.28430673703673620123 0.14126542314978807191 0.47740296066688658883 -0.46591940818437976857 -0.054869029594905568969 0.278053670276153575 0.2857851479198589284 0.15168097015676640371 0.28762358934574960845 -0.13651440250434868084 0.37235922455799624897 0.43663687141418172644 -0.080938087363927671558 0.058586577825048190282;-0.23238778054368947057 -0.10851303125715046349 -0.23344939252084245807 0.0089733037827652104707 -0.049889431093168276621 0.16422657871346077463 -0.0013679839440809264152 0.14606538984449429774 -0.079140179853003339572 -0.27821772134215189132 -0.23398020104505767858 -0.064391357818824962456 -0.15261738816701983512 -0.19694038599775104403 -0.31218138761274671911 -0.055435323351018951643 0.27441193818940667892 -0.22337956250039348038 -0.11321724013255453356 -0.21479490917598892397 -0.090175728457922710302 -0.0030898350564381418977 -0.15381710383994418034 0.24139633734984355939 -0.19182604837082686822 0.081176052222748401599 -0.30887086866029250798 -0.12285036905415562536 0.32019118924748091182 -0.21931200735088635101 -0.057569867363277169026 -0.19734719757262630946 -0.30586848702180047255 -0.088613728016931139764 0.2325551780367857424 0.24623690224482402966 0.29186526039561649926 0.22370045520991715948 0.17754176830580670199 0.049450536846059496565 -0.28522553455373894638 -0.083381549278674901848 -0.21598078529823167004 0.12351912372026879749 0.20571358219259650024 -0.037954215281229990164 -0.28544510921991467223 -0.24681449814807965293 -0.083374477366173996296 -0.15845466746735648034 -0.34453186879251995745 0.21211816238881217589 -0.10188793110459588853 -0.052130822009423941066 -0.35062916818525918794 0.0064241495596706063922 -0.30702192550697110507 0.23204167581106963092 -0.011756771870871825236 -0.11245035435702119275 0.18306483758812225338 0.29611296156435651383 -0.16920897846204074888 -0.26460481668966245872;-0.3216772723436085446 -0.28754619462847219591 0.015459897021229232136 -0.052368348954627629011 -0.14543583208721067024 0.1316614756052265911 -0.34037544500985766893 0.17854351795977257966 -0.076994729292130900666 -0.22794820517844094354 -0.14211940969411135383 0.23354153660480364563 -0.2205422944087124526 0.35601342833125054765 0.26059079933706469356 -0.35441599681564028845 0.12287272723716009815 -0.34007993248588197499 0.2405721638897961312 -0.1947642824752602031 -0.18996070621296301528 -0.33268589244450996745 -0.13672435519200687448 0.24783694021762328608 0.2080697278466618616 0.10241468238247979083 -0.2978623618702903042 -0.25005673862142557828 0.29498790927058710087 0.20207816159601177386 0.025975794697843744563 -0.31193410268430848964 0.14255441653132511215 0.16193883770141967449 0.32395503202672759624 0.24830311448984693223 0.085595602810456444809 0.15086779601584562882 0.034668423843029275155 0.3705772453811489453 0.27974594809561886821 0.41361046882089685939 -0.28258439011941971497 -0.022798390103682789759 -0.23052107717890171767 -0.32909904733542838517 -0.081856767975702127149 -0.10516595766011525848 0.065483668173254030997 -0.036789272518787802246 -0.34298769240461696173 -0.1878062351201887914 0.12880750679663779956 -0.072598671121688454488 0.099914280458256593542 -0.26732389446495896657 -0.097884183078803740918 -0.1030435274731210521 -0.2479293792226969495 0.12809271532303290186 -0.21695418387057402443 -0.23056728477759344531 0.015796589612013071935 -0.036420898303140929186;0.21504996334766401933 0.097042448518398660706 0.18026121570242101266 0.2032299070335582547 0.10135919561327845495 -0.63796171001685286761 0.040035325569270252544 0.026652307926115798714 -0.27707542177677518813 0.022276869417667898021 -0.12258221434498189906 -0.39532996856575652878 -0.076166695254513014368 -0.28765486079187252422 0.41784708578010071323 -0.58845018721992559119 -0.10889927384861509962 0.16436007258480242466 -0.11455449614857300678 0.035648598542346858487 -0.0080929710464902188116 -0.29657554271406860735 0.48608967817157117119 -0.026025263115174928491 -0.039014924504515914594 -0.25171933737473606296 -0.21306997839542277107 0.065851066995107426782 0.15747230740685616568 -0.28929427017717956883 0.25782819650477417639 0.18761600360413938082 -0.55466895596322862705 -0.3898130105618351493 0.92481355963402267495 -1.3673296260853686768 -0.73079680248386669206 -0.91401370519206837084 0.36006523598511319673 -0.1238651128948921043 0.65548368461295403176 0.033879240500128894598 0.22539784020475631121 0.20498271841211521127 -0.14284589417465826111 -0.64865089850306645314 -0.040166316353133266204 -0.33400659953982303474 0.35455588946364607894 0.41098829069989878393 0.36352374636063822244 -0.13322819216445966339 0.14029970412380052269 0.13906070245402299412 -0.1043458217079707151 0.30096228831132043613 -0.30354639693082596796 0.038571640410502421037 -0.092959758468899367223 0.020213705474105139043 -0.75555526010955142979 0.16351968469039174225 -0.14415869084791740895 0.31245506132304079472;-0.014853751736315430609 -0.24684004731028280633 -0.17512440059283040927 0.30354059430480268 -0.014468273254577319539 0.061001161976748041749 0.047454324751257999371 0.10550788079118361695 -0.33058252778634233948 -0.09744813460405003791 0.042614080434522902396 0.099940516836997242422 -0.1894083519596550802 0.029572096090957060432 0.27379915874615967653 -0.19516733648655054667 0.030789638445767656544 -0.091933403803736282733 0.31506841284988340579 0.33185675300111527886 0.48544625161460802643 -0.067580844987108701361 -0.22093406269456061786 0.1018159648155109176 0.28786319053459841211 0.061678056725658153558 0.12686893181022107502 0.18890413284863677434 0.044446523608094645752 -0.26690917945470510331 0.14384998930295062047 0.27449491292943944964 0.10719999448865419334 1.7763402505137801946 2.2481043441323791399 -0.45479673938832659852 1.2199555949518783304 -0.10123540469441093259 -0.26626091432450105234 -0.54761248326276801279 0.1746934108627321014 0.1298099895635171086 -0.3512738875251318893 -0.51848486591518994082 -0.079960654073644207851 0.34830533510762229366 0.7273430359185497629 -0.15139274763228133258 -0.81881453242669355319 0.65720312203559860809 -0.1026299712378058171 -0.46835480589651540262 -0.14568064118818757624 0.19189623237486513885 0.13131154478470349889 0.17160360375355365736 0.025604305087332898672 -0.21751725065534172066 -0.012983065885603925493 0.33054642286304258825 -0.19173649347917134933 0.059469851060520648178 0.019552959810946304864 -0.1840065744661126268;-0.095885580181723897852 0.0153562611152153871 0.17743614477597827173 0.065781098205350774233 -0.20934242390292265301 0.090864389127114766898 0.050109159967138168501 0.31416536896364899434 -0.1562155374615891712 0.072028268367396869332 0.22750034989243736461 0.090193236951836924797 0.33828328905071247679 0.052004902719176807069 -0.11144164677409026942 0.056305715543088413755 0.095866581641502385258 -0.37808961446866262701 0.00061031203761070709074 -0.094805455503059368749 -0.13048352270806504172 0.3403808039229561655 0.02093439473261560213 -0.010030584380718125803 0.1996554434529147215 -0.16299039604744658405 0.37032401627350375328 -0.04757063995717487892 0.20432913367120827952 -0.18380191478924737258 -0.53630187288671604673 0.10421326958516295702 -0.089051832255180249365 -0.49902681329188536274 0.49482975307917409502 -0.50253091503650149097 -0.28544411187764678894 -0.10618012863024775538 0.50424233100973714361 -0.13030530079638022456 0.47673141134263247176 0.37891613086581449332 0.13930773714978195166 -0.23122560849321424636 -0.19799152819900345257 -0.26562507897635134757 0.22296316412140859686 -0.31292979573614165822 0.31669617458848198233 -0.27364294748118328515 0.30050233490601130359 -0.089560818401928907195 0.39864414643207146671 -0.038624663712633948431 -0.2843892900174485594 -0.17147371130927130389 -0.090370988386418202309 0.49629990608539442665 0.38465230868175709356 0.25604690617522385399 -0.011917031007497245684 0.36531725239741708045 -0.083461964860451473558 0.17157240862637676559;0.032342836274510934624 -0.29688497272110547787 -0.11749425479827546592 0.21744491237566421216 0.14853651087503563777 0.39836971719919433976 -0.17953201062820176026 -0.060521024651185174881 -0.19893067020972923786 0.049198011336023583784 0.41525765755945887037 0.1214583788085143029 -0.33378375718173730613 -0.28497450302367494102 -0.2046652282043346649 -0.062100400754479569143 0.43991377989361946099 -0.51901853530096153655 -0.22595861882763876305 -0.087759328584947407514 0.01260265091843776851 0.27818459013536322999 -0.18960073448733788526 -0.36899454457725955336 0.16538372649053184604 -0.16420899834747887391 0.59147068507259337178 0.20400517636194778759 -0.064696017527730007024 -0.31705621596239269566 -0.13044455943147048593 -0.073860445958107284747 1.2701394663451135436 1.0225123472986665796 -0.29533698111996037339 -2.0999537859845052168 0.38728716807070429073 0.14182709369438808999 -0.74451069815752046743 -1.1221627050074327592 -0.50942866971187128478 0.49797863523968732835 0.27907680848091587222 -0.35528129986564938037 0.88096293211646137244 0.74487642067449832961 0.63184964683366906524 0.58081006743654994828 -0.2086583127636573165 -0.30002890972922829915 0.22945587487280352801 -0.64389221157276543828 -0.30111424798602876018 0.12368858895534992626 0.34984287269475072835 0.25569812214939147132 -0.51535588811312715851 0.34255069871306120799 0.56512970860667666173 0.25052159308915677993 -0.070622869639823809829 0.18327665171028437174 0.62024342540663346401 -0.18863023569953546454;0.033653736637770513551 -0.48102705077361451735 -0.29005825475683572057 0.16578880978851076589 0.1217530774876443983 0.027750289036405317161 -0.67710984281513852956 0.27236907179913044663 0.13687458892210349615 0.244246990894035787 0.046629147568281709146 0.43503348627050963948 0.31392940064357566232 0.25949130676780507443 0.19487798839778788795 0.18285889535428101471 -0.4170944141341388911 0.8911909123205081773 0.30217482882463186922 0.13447360852415149446 0.36983695460440890734 -3.4836954349660390756e-05 0.11605534652912957716 0.3899534865570383757 0.17759270977316593543 0.17357227083662435385 0.24986868208497414745 -0.0017519320028904720316 -0.23252653000684320173 0.57878854538808333086 0.15991746941036052987 0.51677734459393642741 -1.8410829070396428353 -0.41782039720744834632 0.37898539188340546469 -1.5457557311823313384 -0.7371066842677214126 0.41973227169542592918 -0.92790099389489522075 -0.84880890712857348657 -0.60735820674646645578 -0.20952652075927455377 -0.67442769629112964136 -0.60999102540897709446 -0.14825621767407737295 -0.16650487829973581455 0.25715515729931398559 -0.21423119105723228972 -0.40889524657823583809 -0.019171255267576549353 0.0022394757243823278786 0.019436079669371011946 -0.33056012165354337062 -0.42319032802269174187 0.096200088016783424916 -0.048326120463583630005 -0.073983726970673707735 -0.37751164864174674429 -0.014849831223826171975 0.59574243670442850185 0.28526759284924047 0.4607252397005862643 -0.032509329513548353152 -0.071954345509602224418;0.26013673835372891352 -0.22483586742323857788 -0.036515151605946059854 0.32729178826215060694 0.56150004714514745174 0.1154514021767443499 -0.015194093191725471098 -0.28872865883773690676 -0.23360170286052830968 0.40427147169617666522 0.066920067417156739453 0.2850171862623578356 0.098688221615952920196 -0.12319306721262714144 0.25500401818930606979 -0.010326242688310678652 -0.19626933769646429107 -0.13261393445249070044 0.14790974916117705096 0.14363241616846481041 -0.011763561172944620933 0.064633976998245162848 0.24594958821124787707 0.26491262222686579042 0.21529524581021391993 0.1561170536275311993 0.062979945198103889914 0.10576692165370869814 -0.61528021213576611359 -0.25339300391161523329 0.30367198212464563412 -0.31014711144623990924 -0.32676274596496757141 1.2517357749941573353 -0.3496184664840291112 0.64076695993437915444 -0.92108448356653316313 -0.74682075774297240756 -0.91724171926515629671 0.30980401640021998366 -0.289700271654674546 0.033355411156146125284 -0.61527047375071219903 -0.39390134277625904469 -0.56680647602409572894 0.10594777261944644808 -0.48076639958750089221 0.074497563019744389434 0.10486839447838046391 0.48489375841757481611 0.2663136261595199783 -0.2764785518415296961 -0.14613947276558475474 -0.17526393987697047594 -0.055525062914855420615 0.16436501995467250881 0.12191966909822286869 0.048728547453985388005 -0.1611884144737227853 -0.024244537003647564921 -0.18760746992833596258 -0.051836498624839334737 0.32109259561230862889 0.093191338565797671167;-0.017008964115167439501 -0.45051462291176114228 -0.49747139166803638899 -0.3705302408011151849 0.061599803631533903148 -0.03952860413933854955 -0.31735990412905923375 0.062270627080537849229 0.082441447846561613511 -0.072184774128069173482 0.044400005990852760285 0.033235929382508938579 0.15435506328360615313 0.2391897867611904871 -0.24097197926956923086 0.021584747754488424476 0.35641150880358024589 -0.031147106815106916783 0.097801120025039656181 0.15021495800014536548 -0.27985349537329029523 0.44538436156109978414 -0.19367662330339596721 0.064337389892227286881 0.021506514247521320293 -0.36235387432809057495 -0.046072071702744556154 -0.040630617411825865892 0.11167861444689776429 0.15502474783759098709 0.095630005328181749702 0.15020920052787059551 0.24252119770369881535 -1.1929576439411180289 -0.63616499630858291958 -0.22457546137777620321 0.46418756674100186688 -0.62194683323432198296 0.1087632938475797395 -0.11203818292047441896 -0.50126607678234003096 0.19737082434793579155 0.0010676924384955006203 0.480600785517031448 1.4003597898538204802 0.71210242274628654524 0.16558752081947275547 0.3382727657662217835 -0.58603553668323393744 -0.23286835920710874381 0.17479274624346463618 0.6111900243134549271 0.24405842431577179363 0.19822000022448829637 0.0038237534569457356376 0.17996427831032732469 -0.24475205339082167777 0.479997087484676066 0.11719083900221485828 0.11014920056644443569 -0.23255824411973349819 -0.31972443565856650816 0.021478512299040741773 -0.085276849234712820413;0.044043000569589457749 -0.20859851680437713206 0.2220654863297813475 0.03734498691955125127 0.043478595912024860237 0.22456838512267104924 0.40097452471278799413 -0.23324404085311681301 -0.074742133653977624319 -0.11385616559753891641 0.0088076554005637932437 0.20419429009551942622 0.18326022172468461879 0.35056321118522232316 -0.26705753479899835279 0.051032461499213567502 -0.20356588461676350388 -0.10997175279403738346 0.32108484840692380624 0.076420295645416289054 0.14624966965242480743 0.33072809327546176528 0.10018570922952736713 -0.073525573427771689916 -0.16462841019039267665 -0.10071510686182762184 -0.27058865559413042279 -0.27487322917009482381 -0.29698216951983597012 0.15869388339420020806 -0.28141498539601694784 -0.39061703053717877765 0.39959330167864737238 -0.32257541583833387877 -0.26752287827155429856 -0.39866447520294390205 0.26529115779549838905 0.21275708513935834287 -0.18311929174781085838 0.10426340943471172629 -0.18713102059140318545 -0.34162026510015119918 -0.18994182191876352039 -0.19573453911999572075 -0.66023075902595862452 -0.41830036385630298135 -0.09676872731139657402 0.019210427427821030744 0.43199365474511097762 -0.25084646816600303376 -0.5811688804048918966 -0.12525653530037891836 0.063103656850046291327 -0.014714258829062954598 -0.068166754808945642652 0.58351937288188060471 -0.23739260207796919477 0.1399230358237706362 -0.17909576972315260912 -0.048991110305518462131 0.28943345923488528193 -0.21305114646653344757 -0.22194122540365801566 -0.21280249407470408496;-0.11133121038456836316 -0.4987723928270793583 -0.4366421186748987715 -0.44309898796872704274 -0.089464422314544864157 0.20320768279480849738 0.12615595977988722232 0.14363391184353840879 -0.26574686615293191538 -0.19201351716460243746 -0.32575388319345693899 -0.39132638948648656996 -0.011538094277791850761 -0.16156826444631239292 0.37621550178755375216 -0.35569726947453034205 -0.43072534718913685348 0.17911109841919820029 -0.11173677124258689364 -0.15187088981884161454 -0.017399741673663114694 0.11563744417608161352 -0.10467638177776528163 0.28227484591647733492 0.023353444056694139946 -0.19204434040751808266 -0.039821456863604352827 -0.26273863495443700034 0.17754686805085295731 0.38823730630586678059 0.15439054065685214878 0.14405119772893543173 -0.1237339249645107303 1.0108011212181344796 -0.71282367731902263053 0.61637977432857260496 0.0082525375473097919987 0.25659960877714993455 0.017852162953351735641 -0.26253953579074634783 -0.49078235260803132478 -0.038970934533277476475 -0.23441581444863771044 0.41269849416359311034 0.15492084771773556584 0.3474729917677065183 0.16824966774253399815 0.20571316690225641133 -0.061322233923381944121 0.060096529857958318199 -0.035530097668287380364 0.2547327321545984069 0.081228034605243623623 0.32613968834897377747 -0.24581047647273920886 -0.0075098260290313127718 -0.078355844306205083005 -0.34750759451830159907 0.093840050179532188968 -0.20157157140439738163 0.13648616807318894595 -0.42301233861439035966 0.027205374522387415492 -0.0035310477706819785697;0.019399321969839181806 0.16195102494752619537 0.35178801655053365538 0.13200940613166256554 0.31522426800429159677 0.026342001159446799818 -0.23863780435977158256 0.062601219416255945993 -0.29290465381588082217 -0.19069159099006119384 -0.26094528734374583534 -0.15735352377187555861 -0.2158046811627496453 0.076143079774772914892 -0.22525134899572474279 0.18481743969997788124 -0.41983562417036457415 -0.16208859576801903923 0.12950738521520890889 -0.2462640205652791292 -0.046032235397883161654 -0.024641786409101883171 -0.023570971020685751313 0.092311094006430130521 -0.18273497825829451702 0.18162266740855451119 -0.55877992022125633209 0.044163010533390410772 -0.23017568831368279136 -0.2397836341545436234 -0.33833290727285608712 -0.15384004077496060692 0.7103019774619461213 0.010557461193825022627 1.3695532378842694143 0.6747387727421580994 0.65413402523641595021 -0.32690969620803561613 0.58493560145520606675 0.69883577822214903996 0.60064129482391082071 -0.24758654329878659883 -0.77615253533740702352 -0.1835200540750583087 -0.56555208984550153772 0.038622893455713264155 0.15537948096216228078 0.099004832898470215841 0.21268920062204743626 0.31415756302228359242 0.34148707261219407583 -0.17523533970279089877 -0.41317399297235246625 -0.25367814727162990573 -0.33889403717424876339 0.038533258343300014204 -0.40854294245785149897 -0.2510281641296593369 -0.10621037956153249471 -0.026025462282575934081 -0.14382096734987895315 0.45420996769323979114 0.59462729758140897562 0.14990540469440455373;-0.080029769085758109548 0.58582639520163160007 0.32606031889993308814 0.16524499584877144764 0.30763762109627290631 0.61413981465415790062 0.056245898954494624733 -0.22717731963854814747 0.32203355494186308716 -0.28233718016283076979 -0.16926676964167738926 0.0168720113022317042 0.14200319317061022018 0.033162138023498842487 -0.014800042220664487783 0.19900511644089763363 -0.19866842521091956919 0.045883253544971532023 -0.025405711203964016776 -0.12954725627018859324 0.049637611876013183754 0.26280395149163326973 0.081217770049807805344 -0.23830854814536206465 -0.34083202067408685521 0.10174144890952631359 0.21313831337519120734 -0.32756349344223362197 0.026474622691659833312 -0.040704624016498935912 -0.17366021376273946264 -0.052743527110465975027 -0.52817241388201197072 -0.36069107947404838166 -1.4317906745487412046 -0.44324380704153537591 0.49426258945809309342 -0.32108444398133101361 0.36277286205326236823 -0.18014701635252836076 -0.12391745778845951464 -0.84350554653686438122 0.2964039574857740833 -0.32657730052967404166 -0.48891371735824518119 -0.62933838301204536592 0.038031801636657973364 0.49555645306277529283 0.1075133396892299642 0.10446132362049083409 -0.4423351114775032622 -0.15420021128407523925 0.031325016083895450281 0.58953435864633552121 -0.23564619850327864214 0.47022709283030972305 -0.19033896296377894597 -0.028120153457228253685 -0.12386811688108458063 0.47542544634674688275 -0.0095528469850218820231 -0.16230003263085610032 -0.15845358596551192831 -0.012047686981964213226;-0.015491158384435703421 0.32462625604635830801 -0.14234481772037882452 0.14931075737855151186 -0.4595568351712334132 -0.45624958470284671108 -0.32762363070392169773 0.19256073267609544186 -0.30975436285057172947 0.058358385223261727281 -0.31205074443579189358 -0.16366723007578187765 0.18829504281936967902 0.055739015272316866367 0.44366067247928370199 -0.41845190887748079378 0.16403533343346982099 -0.28260465018474678622 0.034971540260273617506 -0.17340416840368122475 0.048041964556953829779 0.26362357148430765053 -0.33715799654521955153 0.4258074039848909198 -0.01587561560850463474 0.052855834567283502268 -0.13785605061378058966 0.48095046857587769873 -0.02253838077118979627 0.33048463887741680312 0.27173810836529849189 0.15202821036682123701 -0.16047411155488780499 -1.5941839794658612117 0.93497125939759984092 -0.23240340700691550224 -0.94728014717244379828 -0.99555919545591042841 -0.083496715058511986052 -1.1487580040345304333 -0.41619613604465466317 0.51706367140101783253 -0.19960565761398482709 0.055912593019007986173 0.040280481468169017367 -0.091146401216719075133 0.80847486474009799817 0.23276741345354418078 -0.47654224493930175122 0.019181136524342518729 0.031651341026062707051 -0.099615924778182055044 0.47205292060969383794 -0.2052043141597532927 -0.089140458705644950999 0.28155026715581121799 -0.026102108228039214849 0.16004694427364965503 -0.13902839676650927125 -0.086926353586728677403 0.48237735288287203472 0.83530900412011321876 0.56954545826488911509 0.15078883338581819396;-0.11558108902997149547 0.67465191170925653541 0.89282668667594300427 -0.01247031104995293023 -0.67779208360849763082 0.64104057195544628112 -0.24645244169746960416 -0.61794521465727636489 -0.47498569052911510102 0.020673850933906307015 0.030014563763672764962 -0.0923506931127791586 0.15020086141837535321 -0.054725321750615868455 -0.012278388045682374005 -0.17504892525687165694 -0.26999645464011079454 0.3593846909269357015 0.01984246343800876583 0.097740731303911615457 0.10212758510981582993 0.26036677343989017563 0.15853971938897096217 0.1648697838993056497 -0.13061477101597429584 0.53665126995443868108 0.064282881264504612706 -0.2528435753185650503 0.46066995902573437682 0.46140901818094143261 0.28884790162578610762 0.61869546377096129586 0.47060614291275942866 -0.55551297050418690926 -1.0327048236532698766 -0.8098297862974261907 0.064710453702000458875 0.47918922315229001141 1.3216269561469065064 0.6688173048458320169 0.50473182514014525157 -0.42546340705367835522 -0.61065723690800532975 0.15015252881132978846 -0.056541413502697757121 0.070919695383979713954 0.47763427190410651102 0.18338474530219078806 0.80981787091608059548 -0.21138905907287364183 -0.90853449551393028472 0.5533492042131132882 -0.0059108909472514441913 -0.67858673713032890973 -0.69321755984956612284 -0.39989073025693044894 -0.27340208981377411845 -0.020803599399291525934 -0.011602706177082623695 -0.068060790865428363872 -0.24495731752102134493 0.11988999249391216195 -0.3094652077258204792 0.03956586304926586195;-0.090957237407563076848 0.27361574097517565862 0.085234550364524264143 0.099394488435554262384 0.14346835546310890419 0.30183957582332943126 0.24380816458865756102 -0.17633241578265529403 0.28472089976169540071 -0.25086389613623966133 -0.14715714495128809358 -0.022357934452156318778 0.33810000703538312106 0.0049213163104286274802 -0.19411921861279346491 0.21101313853695732869 -0.091143393786646972887 -0.069007249217062999191 0.1551246427734548905 0.35243901890231565943 -0.30379993624272511044 0.066309193424820125906 0.22747426655359123671 -0.14159597008544333452 0.15207866965556385286 0.2112717663016532299 -0.13398739838258003076 -0.16074721048972548387 -0.096811271446289412501 0.020869752750404410579 0.17886570072795579533 0.092514042499399803954 0.30736894747569731834 -0.013863083722504431286 -0.051649986712106972508 -0.049712884709768090374 0.0055526536579432210147 -0.13205478515670757145 0.1201155754241336332 -0.20804191208742209285 0.076214687905951247759 -0.087855603476391319617 0.11772872861161380598 0.19372172136187509883 0.34829392162201328054 -0.034386035570024488239 0.15589622397656829889 0.29737550389612693591 0.25625106288098642437 -0.057474577655303893398 0.26169589529320830268 0.10536473370368176772 0.34091920965807359645 0.25659813538831532931 0.057773477746564320945 -0.097318431843661096226 -0.19497552669177381501 -0.15043156521984044072 0.066415962485800603132 0.25425724597322008069 0.0079622613092648567706 0.18980780415815098894 -0.02713727162583167915 -0.1283831723081225451;0.24962365157722612996 -0.085298553557675876879 0.080907275987400148476 -0.32380682652098247143 -1.0044126899295551247 -0.070431443222551973204 -0.38930046127969880621 -0.65944576436175583734 -0.27830366732803091256 -0.10500489482311395339 -0.038234775055334985217 0.090468442485759081872 0.1739230811984680547 -0.10440895881545175783 0.12976455620073479302 0.12162210302017438524 0.38123978813053432946 0.08124271029797351662 -0.025725063812928113116 -0.39478468897142116045 -0.10056874940730373136 0.22166701734720967165 -0.13210022650742256345 -0.18994618634500420873 0.11363642418811573109 -0.18469275976664700778 -0.18536582944035018272 -0.28077792839060816688 0.25687645670027847711 0.090753083525824784772 -0.23227098745669733093 -0.40852784456941798608 1.9420673115488737981 -0.17523782152235972687 -0.83739032704882354619 0.34906285156660327162 -0.10761955873990614041 0.18233473826932594664 1.4999473577396660318 0.061063326318538245496 0.11690094340033374554 0.40879993184841834086 -0.12035318290473974445 0.57638312564344074129 0.77243296912298675672 0.76462181244402016578 1.001028953351017492 0.3378352488204911519 0.15861697862841425688 0.0027160771907652567908 -0.50777950519754189163 -0.10885507927114584925 -0.26667234863110744758 -0.038399981408181300957 0.0037790196126625281298 -0.484222275993207385 0.025424865311869195017 0.17709270995056416997 0.01640435673054170887 -0.085734308798540159735 0.413009847098465388 -0.18170097917938410337 0.44533209070887502801 0.21775830001747734088;0.60800220118671821634 0.2187262343971194678 -0.35882926118170327401 0.13767763586447898105 0.45402305471710691087 -0.57018489150214668459 -0.445456493425124056 -0.27924817237234739187 -0.44265961973139100749 -0.0010518966964230946209 -0.058496091617038371846 0.34975471835916460694 -0.2095185148520892493 0.5563051589168349631 -0.094969117953036988333 -0.26141854323350621758 -0.061772463715767909898 -0.10144871730289843625 0.211906808204271907 -0.07645122622112979216 0.082424875370862335511 0.19252137493511653488 -0.025872189981826873573 0.078298149870402136696 -0.1040976009118092932 -0.010004542257127437346 -0.22164636017678496227 -0.038012787365082824353 0.0074451581790500025865 -0.39612182126525696813 -0.35132585720669218254 -0.055830751784082026379 0.43604490003311452417 0.68417863773615950063 -0.068767199494088437906 0.31233177284848984145 -0.73136872724419288438 -0.62099230702865171327 -0.25654091112881155512 0.030972893464775278632 0.097035604001737982283 0.44274668478188539122 0.50867667302933228246 0.094504765151609854135 0.47663338253349374352 -0.13858906401190734803 -1.0421687884937025359 -0.64156386588753211431 -0.23273001886020863727 0.26335691912415482019 -0.48649921295284631606 -0.32417294881246339067 -0.39176765998622831155 -0.18389618287929143658 0.17162846738746456721 0.4839604036101790574 -0.11797607414226402023 0.51459745343391138928 0.30077050089859225235 0.60265584646957903736 -0.32588336933736983259 -0.6357587341967748662 0.29563847463933207171 0.24819302491730765858];
  
  % Layer 2
  b2 = [0.72183794030042847112;-0.14172157671350357755;0.37357512995682989887;0.93930133209456678767;0.36673324069622409427;0.39294209790291506623;-0.34253145965361037062;-0.52453985974091921207;-1.1568969671034015079;0.34179382499805044393;-0.048059710095585829459];
  LW2_1 = [0.44031836598375007075 -0.21101982474623934283 1.9091297530053159548 0.034136192046019205037 -0.91666932985350568774 -0.97539655839311123486 -1.1293270076789270195 -0.61754603781133221574 -0.44709570002828508128 0.53706710675031421598 0.45052709375318117369 -0.59808170449781772327 0.55930698521450694649 1.4884134724964892538 0.75633084813286122206 -0.25722334012195824382 0.68067455345437644088 0.23324018994168474461 0.10434632926977210898 0.22014055210980870703 -0.71925383324639780014 0.68956789133533691327 0.94017044469927013584 -0.75763280486486983545 -2.5926990442896911127 -0.074982413563982400206 1.1705869846104737242 -0.65843339577164949894 -0.18693380488533697936 1.0489297351666804214 0.87107024585122305727 0.56369276653824484935 -0.33259829572271326636 0.43805191479382721287 -0.96215279707300804812 2.2662013006127605941 1.9176656709719674954 0.40464297398480414403 -0.41291932692232102831 1.1369205891199734015 -0.17391236214214053635 0.043327056816152904883 1.5871675662276276686 -0.46158584010234132711 0.26787775174649530729 0.62190356720371575694 -0.58359425977770351679 0.25087333503926712019;1.0652972801654578827 0.023529320315215627307 -0.85904351946599222245 -0.31437406678106943891 -0.18390957954853046075 0.95404410744351508811 -0.53653206108121820339 -0.82577189320425048447 -0.40629104416718053727 0.8420879608196472077 2.2362211045326128023 0.5025235404319391419 0.60011655337318459136 1.5553251894863346916 -1.1489829439709957626 0.37213694795690832606 -0.013959039331657822208 -0.54892330026460334214 -0.78980858018624844341 -1.2330114685893678317 -0.46346435587208129059 0.13752555429614063409 -0.56891636217623919869 0.65905882391541992238 0.38351659374233731947 -0.31861116559739871557 0.70256679001395050399 -0.54380576634558353 0.88858132254878030576 1.2723518866749792267 -0.92659649405617050544 -0.81207972094750802139 0.43825934955435968954 -0.12473799295610382698 0.22053704771348206504 -0.32459288873862596203 0.70289561207203343773 1.343599657475798681 -0.79052321382092860524 -0.43991500193701532639 -0.3169880835951215392 -0.28073927526714304026 -0.15715561382622073028 1.2457805064833371578 -1.7565645353106691395 -0.31870432793461705989 -1.5909734987720351995 -0.57215797666386558618;-1.4459271181609434365 -0.082998149808308482878 -0.75796537754024861933 -0.20662823199945776209 -0.59110520023754264951 -0.63171177720724147608 0.92964442047268203151 0.19323653172042387638 0.56116375441070653896 -1.4871360045535968464 2.124706420070620716 0.86785228692658600291 -0.016400873110051394921 -0.32821137303053193879 -0.5684039991369230771 -0.45223420369983352574 -0.20267059660670075361 -0.72873888329884484172 -1.1558081927686845169 -1.243274748695183396 -0.21947790666254979319 -0.54167000975993440104 1.0356843786929648132 -0.23444525566979967923 -0.12944618245299366333 -1.1302965841518568535 -0.91416551948537294603 -0.40738891454496856115 -0.25960941261055903162 0.54770395900764123898 0.63138862371616555347 0.98642972857642496898 1.8042207249986867978 0.77975259690165699134 -0.60328818380863902249 -1.1550002332947768569 -1.8697837067980713766 0.60667820960176721545 -1.1166346656799726045 0.070540045734211298534 -0.98979963738779641602 1.1919225041190848469 0.27599460290164246068 -0.66685815419717497932 -0.65619026501363053594 -0.5225902629828959034 -1.2075373330065859445 1.2073026491697362861;-1.0746271924051931101 -0.53866862648477509268 -0.2164162195648536291 -0.84717078119536282088 0.0014924169662694029143 1.1786759918845812756 -0.50004915498000457319 -1.019753773754011883 -0.56809772852461659642 0.1286785159267037626 1.5413773743568457419 -1.4251007284138077491 -1.0102645781620105403 -1.146947091213469383 -1.1701624517996789265 0.7766366810368703355 0.036039912796234800652 -0.60165722927752307569 -0.10149249265201538972 0.14409631039954631793 0.0004469213960516455527 0.072230919356790421193 -0.20568296029073385167 0.93439849033611543927 0.59245963810088975166 0.77650552299911046461 -0.4452358987221257669 -0.32858641530646603979 -0.83538773304889357707 -1.2954221004232622239 0.37211200329887633709 1.0206133234867227344 -0.42412712972962313129 -0.94036678893064673534 0.43202954363548823347 0.62637359520097612986 -1.5488345204032736291 -0.13596622697709581651 1.097694878446668687 0.88360020414331708061 -1.1066099072425756855 -1.7057869148388453695 -0.33756162486076290996 -0.91910794987906874187 -1.4723822093691056878 -0.3601837324372317295 0.22091025374558789784 1.3471370409310037264;0.91153322633509492601 0.20336960124495234714 -1.0496571589439369632 0.7499319229503372819 1.0172509724816081178 0.38476409862359306491 -0.15240533199558997657 -0.77846963796050760998 0.30879720539994454098 2.0042894814358267475 -0.77805331373755048929 0.5209242937465817791 -0.23697579190716225317 -1.3306001601001129497 -0.43966272950973600553 -0.68287466959618936535 0.40797108739624343698 0.82394511075165988156 -0.39354439003724256407 0.67108901178443725044 0.60575969524681028133 -0.54090235247664120166 -0.10480433919730292036 -1.3138320481657435046 1.0553915753905267483 -0.36898916419614213869 -0.039083134720416738694 -0.59541929245086910871 -0.0780887608663638072 -0.50030496912136668275 -0.75741459302980407298 -0.66133549960450810357 -0.23308579358602429799 -0.939490366751656647 -0.44782287336578674442 -0.53779088696009169634 -1.6843532413551611793 0.59597469821762794062 -1.3361265704176004121 -1.0724298546319861458 -0.095783651659419641322 0.51319073359558420311 -1.4111754028879071043 -0.89909422157441654111 2.0515032991723933797 -0.60646448817179410273 2.0171175813794000042 -0.51996332828856861585;-1.3087267902522348173 -0.5799778242267996653 -0.28581589901410248133 -0.85598245118836102652 -0.84706202316695433652 -0.68817363793008934358 -0.22325352201355766479 -0.61233997595956735083 -0.041571673302890702062 2.0057526942078349741 -0.51118841258666092298 1.079310685783564594 0.085761398981138839415 1.7075939445645480497 0.65956892024744506742 0.96889267069415119238 -0.23475187022021601346 -0.26379056692361307901 -0.65203681423109394188 0.86351660615226666362 -0.94715119597192920509 0.80606328885234979076 0.42830752698297996917 -0.0098513116281431518245 -2.2757335666785465378 -1.8749534835793359999 0.33676882513556583021 0.60857103080960606167 -0.87619866077292385409 0.58493767851808609048 -0.28282809087062737996 -1.3497455405256610916 -0.22547149473963698507 -1.0292520694826206018 0.46055655950841040136 1.2966373857315394158 -1.6360609585869516636 -1.5595930315168555769 0.60051933431806392427 0.22285905840885444906 -0.84915541978626696284 0.14193652394325029231 1.2176789871673736609 -0.62976776885055896216 1.5482308204060495349 -0.53289376047615211185 1.2541469622010574803 -1.3668156131403987885;-0.3735908508449604648 0.38695653883046871035 -0.4170815369025541175 -0.43673210050792127257 0.4481706425652668413 1.1885799405676717999 -0.88880934056225613382 0.82849138165473168449 -0.35012071947315615006 -0.45296428042645442424 -1.6496339724102746516 1.2005155323643346144 -0.60985963717128688355 -0.16222371460916815145 0.41067875882425414202 1.0873956465282956785 -0.47345475233219486144 -1.1431596733531466104 0.67454261649691316105 0.74156034984345953198 -0.32473922150278444754 0.19764744808228498774 -1.2649019429430417016 -2.1670327987535924485 0.13227574160883678878 1.0639815697514569681 -1.0676453841697788327 0.57008059231997565419 0.77858084952339878804 0.5953814874654360656 0.3758590884654613995 0.20131533297714471198 -1.0385142392300641401 0.71858325490726926432 -0.68957302239520967824 0.9780819131300884095 -0.093420066917110411442 -0.25257482618118304307 0.55047652026475435427 -0.59323066844905669726 0.95071640300538873269 -1.0323362711707606554 -1.7691383973276646469 0.36849242671078735745 -0.36390353212870768518 -0.051338254117186274406 0.2525997058628860481 -0.79744095923324731512;-1.3807867305063681318 0.80959660102205488474 0.54497077162065610256 -0.082601701591801135471 1.3163338332247440654 -0.5589164659019310033 -0.24740677381660228229 0.19819464079525153655 -0.2382008900530841744 -1.5259199277432218267 -1.8716007059823691616 0.22399021691872736395 -0.35465200350034697951 2.1291794968857153947 0.72236028378617467283 0.55434787128647311505 -0.59726416796299652834 0.38568311873385269228 0.67646226642431850351 -0.9208022373484784362 -0.77222357266277075194 -0.3744219480636175601 1.394065613695075756 1.2069015615898159854 -0.27664894319978228232 0.96830774431205657304 -0.57214172505807714408 -0.22954569251288406417 0.60117426458775513609 -1.4875764169001310933 1.1419730017634173169 -0.034315049711133950583 -1.1568098505460160386 -1.4740515294274771918 1.029875025662794652 -1.2639077872081336817 -1.0336690114388178419 0.89428481322866437697 -0.31064140070853790698 0.86077054939804387157 -0.99191181765089819766 0.26174337629509869529 -0.62623748054717864875 -1.4594591412771817929 0.1674186918180060879 -1.1643803165708579428 -0.56789038168304317722 0.1537852863316055696;-0.11036753138248682482 -0.67497335855214957157 -0.74371102486088469519 0.23046742995785871044 -1.3095157660383920373 -1.0163852640261867855 1.1185670743053579557 -0.18756452154970665314 0.50456446812525279633 -2.602839365403609051 -2.0382502915517530795 -0.67834645536469018179 -0.47146574993973083822 -1.5392615913527349925 0.29905306697714983954 -0.84005114494943355918 0.71746971141767656999 -0.68293267537671720202 -1.4485447352810338906 0.42054467891132379931 0.15534918223339863608 0.051921943591755392866 -0.28628560415227843894 -0.15985436385974549633 1.812491154479047184 0.21641635275259230031 -0.86738429232445957151 -0.82571868777528267813 0.54991892966361799466 0.55215991450231383109 -0.23152380491261650985 -0.99783711592218282682 -0.8092590807780852824 -0.40130853222385620693 -0.77838590930571605053 -1.544480501645049797 0.33724902416361068891 -1.0692994723415860658 -0.32644330125202880577 0.63048517726004482675 0.54597687006248851738 0.57609251325972010704 0.12093712397399632164 0.58786262061277283486 0.27115557091934805456 -0.50999244162906010036 -0.26642685813023642138 -0.63487154878987706041;1.1231613143114425046 -0.26779546856699482094 -0.79691501328640734769 0.096664516291421032079 0.46046445333074564887 -0.73762315558472524302 -0.027993573947570626892 1.4576541522940038575 -0.033815752796879407216 0.54751308004873588953 -1.05674260599010017 0.21600652179014259713 -0.88252005771528374556 1.4179725451503439881 1.0938298350691275651 -0.62011162482459525336 -0.61753468159815749772 0.96924008993647370325 0.56838833654084164326 1.7798771845020271432 0.55483467049332602095 -1.1222090226884320341 -1.2854377739351889876 0.89892047201236580101 0.55597709180054422085 -0.45092220331245908005 -0.68680762008171403199 -0.31490566980685208431 -0.82346225754498891813 -0.2749778055972585955 0.44427671937206997255 0.064000099151684988752 0.3772877374469060241 1.9288516094815877366 0.33933660960153755326 1.5919558644638687195 0.068891222943654156774 0.61470034617140290045 1.0645601377360500717 0.33231639721798739151 -0.36026077868881406507 0.32022537092825575922 -0.57378611030076143162 1.694267443542146756 -0.74228272441922005243 -0.057186202023330801048 1.6084732390315716888 0.33198215670255931675;0.33730175962803327083 0.57332577076352808643 0.5061561527689256712 -0.67135395974057365809 -0.016052905220295978633 -0.52587484852011290304 0.76622460413970405746 -0.86683466478640214259 -0.50442026438147269385 0.14461356498070501719 -1.5222341207255647433 -0.01192108056473640057 -0.16244730692321235344 -1.9945447657490988913 -0.54753836624074125883 0.46384573000455381342 0.64620371195564807465 0.97670459187300129322 -0.11909947212744338707 -0.4151847371398602049 -0.41399991164697963475 0.017933547480220319442 -0.73349765380859033304 0.51152583636552073632 -1.6670186403431093147 -0.2314110367198725926 0.65019771739339116134 0.21356366708208651684 1.0065274180012604432 0.0086792928381401544119 -0.61683672965711044966 0.79606542625142240333 1.3822780939460335148 -1.05134606047624235 -0.90717433703330441208 -1.1940900059846824011 2.3062360771334331488 0.9642811530736256076 1.0882033448658507968 0.82186147556142352677 0.36052609292643961192 -1.28061281110696501 -0.1009918951842284085 0.87309414616463965064 -0.6301291901566148379 0.54316046762540637349 -1.1675154726995202736 0.25356605576346802344];
  
  % ===== SIMULATION ========
  
  % Dimensions
  Q = size(x1,2); % samples
  
  % Input 1
  xp1 = mapminmax_apply(x1,x1_step1_gain,x1_step1_xoffset,x1_step1_ymin);
  
  % Layer 1
  a1 = tansig_apply(repmat(b1,1,Q) + IW1_1*xp1);
  
  % Layer 2
  a2 = softmax_apply(repmat(b2,1,Q) + LW2_1*a1);
  
  % Output 1
  y1 = a2;
end

% ===== MODULE FUNCTIONS ========

% Map Minimum and Maximum Input Processing Function
function y = mapminmax_apply(x,settings_gain,settings_xoffset,settings_ymin)
  y = bsxfun(@minus,x,settings_xoffset);
  y = bsxfun(@times,y,settings_gain);
  y = bsxfun(@plus,y,settings_ymin);
end

% Competitive Soft Transfer Function
function a = softmax_apply(n)
  nmax = max(n,[],1);
  n = bsxfun(@minus,n,nmax);
  numer = exp(n);
  denom = sum(numer,1); 
  denom(denom == 0) = 1;
  a = bsxfun(@rdivide,numer,denom);
end

% Sigmoid Symmetric Transfer Function
function a = tansig_apply(n)
  a = 2 ./ (1 + exp(-2*n)) - 1;
end
