function [y1] = myNeuralNetworkFunction_sai_allcolors5(x1)
%MYNEURALNETWORKFUNCTION neural network simulation function.
%
% Generated by Neural Network Toolbox function genFunction, 01-Dec-2015 19:00:02.
% 
% [y1] = myNeuralNetworkFunction(x1) takes these arguments:
%   x = 64xQ matrix, input #1
% and returns:
%   y = 11xQ matrix, output #1
% where Q is the number of samples.

%#ok<*RPMT0>

  % ===== NEURAL NETWORK CONSTANTS =====
  
  % Input 1
  x1_step1_xoffset = [9.82802513371268e-06;2.55621218795009e-05;1.20137661873645e-05;1.16712344732692e-05;5.63163177176424e-06;1.2450823732265e-05;1.31189084133076e-05;2.40495398310045e-05;1.21001658119507e-05;1.90244237145928e-05;1.01904632313061e-05;1.14984413803954e-05;1.34073472637692e-05;1.9088027049233e-05;1.65559785872251e-05;8.70193170808251e-06;6.1612434593233e-06;1.11217019711591e-05;1.82238881840122e-05;1.13440813093538e-05;1.05912392122613e-05;1.7747038343534e-05;1.34768186216427e-05;2.69440113829917e-05;9.8014511212908e-06;2.50882527430845e-06;7.16222204132565e-06;1.59433262394555e-05;8.04982154701494e-06;1.67570472794596e-05;8.39652737180383e-06;4.69032881047239e-07;0.00044928972021305;0.00234930514124845;0.00128414722176131;0.00128481438509703;0.00050589458682787;0.000787242372706315;0.000202977077752684;0.000434616251557144;0.000636557327939047;0.000195519132033205;0.000151553212851822;0.000230556140182706;0.000144645337591042;0.000117918446630909;2.8188744098288e-05;0.000125223232661395;0.000144715128013976;8.51496079428836e-05;7.76361469789333e-05;3.7767074282475e-05;6.2332696839424e-05;8.67024847521331e-06;2.57896087752831e-05;3.38440329100345e-05;1.97625079760266e-05;1.9604342997038e-05;2.07450200183778e-05;5.21615447319331e-05;2.16518453929826e-05;2.38486309856211e-05;2.60636071874938e-05;3.43104951923067e-05];
  x1_step1_gain = [216.645769083766;192.437124849582;260.564667422863;243.438021408204;241.060748357943;166.58434852192;315.862327000923;365.278564887842;363.571945416537;353.546237842893;339.655961956529;367.928589226913;409.662167386664;390.678465880696;404.468816708557;462.148672392001;541.804799430982;455.867537592965;606.633342175623;662.451280769916;436.280883589528;511.100001826991;428.519268522822;597.482620941663;514.65656969003;523.743224215175;461.537594300617;571.062577355861;643.336683589446;497.10467445834;503.487288220062;459.571025565025;11.1697006761834;5.77141184719286;8.27955984573715;8.12629273402039;11.9198976953977;9.09111917541985;13.1558304240005;10.4280656558671;17.1226820593386;13.3610968971866;15.8115304113411;13.5294015723546;24.0408240338051;26.2929535668166;53.1746267394763;57.8534699227338;73.5118708516629;107.973180072143;98.7682982389236;92.3665489118597;141.706244347989;104.585949420557;92.5206175000854;94.5034952865066;115.958746374406;108.64668700716;180.806801679717;96.7215466957531;171.982775716226;137.950301893456;240.362322535824;153.064362315097];
  x1_step1_ymin = -1;
  
  % Layer 1
  b1 = [-1.5857562679590844201;1.6618845524278502701;-1.1765600605979633642;-1.3298629279140126158;1.04905624626532612;1.1291494191318411922;-1.3162082145169144987;0.99790757555043185789;1.1212783409480826524;-1.2094652886534145164;0.91471792792684969431;0.63131172226231846434;-0.99868117468858308428;-0.65910632024059379042;-0.84034564156452451478;-0.55457094455082978079;0.43011619145695861866;0.19260795228254259936;-0.6652269103885082302;0.26385953396797467985;-0.0085897543403993820849;-0.36704452485119343219;0.13662447839635383229;-0.028880965482866411548;-0.24956241470409107341;-0.31201074063949951753;-0.37851945580136586722;0.1238309214016741211;-0.74388042962483613696;0.029418585650043727747;-0.54066264600671398721;0.30994588301269865305;0.34984725626196089276;0.65771065336000300583;0.55389713184814193259;-0.9797067023905241534;0.54217754725817268735;-0.65188059419807009576;-1.2818762712879947507;-0.56069148295348958388;1.5946612984460917239;1.187944847006685567;-1.1982651190499840066;1.1356509509336707442;1.2744551160748953667;-1.3474238089988581635;1.6571215026279482174;1.7006700480350318561];
  IW1_1 = [-0.12990906523303238917 0.036048831334179513852 -0.33373146956932808749 -0.35863685370632197857 0.11576783010933137941 0.23627887141658132641 0.086463506024934314032 0.068686937579103615747 -0.1876670181835913831 -0.83022187103115929752 -0.018532965411210428758 0.27307636764605286439 -0.14091115148485222619 -0.49786646210006985092 -0.049430537623267989389 -0.34266175602251880417 -0.22946410826108257219 0.1258968652097711971 -0.035387162951307248038 0.34848138198520722808 -0.055663034223152607627 0.033342823413384230224 0.32599938661726829414 0.15149807844894644382 -0.37536102949853938915 -0.61889584551639764687 -0.64023741657195065713 -0.14717330572511977405 0.14538388676715935377 0.095349252336115034034 0.19433289078670384908 -0.29333479465510814421 0.30083399204639493796 -1.7523675460401104687 -0.77580131803672280899 -1.1427090997014996976 1.103368928975972052 0.057287278543937100728 -0.070758798937712349963 0.50285849901196866263 0.25337102984915738091 -0.31830843304040284947 0.31087022662880903212 0.045012158405593125088 -0.074691514366198641373 0.10429930004492292406 -0.21241864445841071585 0.24947163258343627024 0.12535823499122694669 -0.14953842439740958059 -0.24473054098443050575 -0.28230616554919629735 -0.12377161311597432991 0.092070113027998348731 -0.17205795047535588083 0.26165524786443661309 0.30865623752496773591 0.035345703042527432114 -0.29732589299236406033 -0.0011838995370790552503 0.37969886816621867265 -0.047757207422108913231 0.39874981930271791164 0.20115629939915369295;0.2524395337634532388 -0.048757618281225649504 0.011320969556270576648 -0.59281425659754449775 -0.28243147091834075457 -0.48098270482599925213 -0.20172996772563875356 -0.16759730935819339148 0.40310601959612046841 -0.068430153191844964033 0.35272692761227930625 0.11917021351576925769 -0.32690034417330465777 0.26172447314292029974 0.097609652352863091052 0.21488937332146829107 0.62670884862158426909 0.040013518105342558984 -0.1480210212746574383 -0.0715314582533219806 0.11325049612164844737 -0.16405604910823345932 -0.083845743205753983651 -0.0002014761127777089586 -0.073114727148348199193 0.31516485236136665415 0.21984004054520905891 -0.065892255549533457204 -0.21889170683064465561 0.20437261454174951436 -0.041909922579115452268 -0.11098265336633451883 0.90453231278681556216 0.90939156885544414344 0.34347273379419540618 0.73215610741659620242 -0.060736913727932301255 -0.13642598573438596832 -0.048231392633020307714 -0.21574299157714504904 0.082210290738838162627 0.40840159055914032615 0.041456804229957837371 0.26832036939658088226 0.5055797643179642531 0.20587876677544239556 -0.13062357412938926937 -0.34442886769039798844 0.05389194065090981145 -0.22364262963446607246 0.0054899329516829280945 -0.19790845938564724515 0.41925562708155045266 0.19082375535726786575 0.27627297145302054382 -0.244791033749805792 0.19747446883247779525 0.028400338333265572055 0.069900484809227989014 -0.060684774077005260162 0.301990403361900972 -0.019656644094026523573 0.69934331747255662481 0.089322267204896166337;0.23797323682353413443 -0.22718412791424030805 0.15376164184215340702 -0.17851631560677611033 0.11924223499069884491 0.17545980693485060953 -0.011103359797772278938 0.01693557546893859414 -0.0041063911842448112821 0.38884997283724043182 -0.22554484259643442501 0.20340537695051513767 0.49620159848200900976 0.25699239309002985809 0.4417756551850939295 -0.023060028221268062676 0.26353841815698553219 -0.15597977458916711946 -0.17523437534353142331 0.24316276071397904812 -0.0803360267249584592 0.036029101525702419972 -0.30470348327418372847 0.19235997394485618295 0.19906332330639020523 0.096241362016774592569 -0.28883076613155933554 0.22089698729980045133 0.18573179024560534933 -0.052499400248662154989 0.095924123595809998588 -0.053071157074629914108 -0.27947776420019920796 -0.13190813529132805471 -0.31947944326162608375 0.45850590432881310754 -0.15883593654869249123 0.0033452114024027836819 -0.20785552990427089148 0.40408103391012523131 -0.32982477413406030564 0.66896625053279989981 -0.35209408609603448648 0.19251323020360364136 0.17720412573562230318 0.011771129204019710815 -0.039604090065817831867 -0.26115913832764020563 0.06778922607700930969 0.15538692883871554895 0.35949530186685363375 -0.15054925252024561888 0.087711271761655121293 0.16613638461733490348 0.084462268255772715575 -0.25845067815919986476 -0.3064427736261826074 0.10594442078757027037 0.013650042104082686298 -0.15753472926640502139 -0.36549010603233295091 0.42962764150759602533 0.37475340730029410574 -0.34229275669653741465;0.15834722470561424235 -0.28710831702923866882 -0.10434101994126021573 -0.22993480285548781317 0.29581349902024622889 0.061413649961901080332 -0.34171468606257587863 -0.11540956125134961552 -0.6036364309272026496 0.26521549380775166771 0.20361897987508018049 0.064476921395359987343 0.14551903351701081513 0.31191398066218284368 -0.26126821451438297927 0.56018924268585290616 0.034046419710835183758 -0.36842322045312458911 0.19390392059570030203 -0.11497253991240266591 0.10505126081342217037 0.30850857700716166621 0.21053860578312919016 0.0043808912461897270632 -0.32103821101656571102 0.13763404011865049137 0.1594334344141505877 0.14905737573640029381 0.21362921720720107199 0.35283254686353660023 0.14973569686224233455 0.2314927167794538776 -0.18036979534193137154 -0.61087722560872437239 0.25575436242957616528 -0.57389458118407965515 0.0025130071891663972178 -0.10215221171143124002 -1.3628554659403699922 -0.25955097962229889408 0.052572511516878708826 -0.079011964416191807214 -0.11857613793099874844 -0.25651803769623937601 0.2935004672243278212 -0.12966860435335059165 -0.47787040649021367278 -0.47727430714534108125 0.091764256234910843157 -0.17867181441224147531 -0.94648170435215317475 0.004862351307442613034 -0.29598460920436348021 0.13862730764764188973 0.63542937297675894381 -0.13711349446532319907 -0.14867325694019983828 0.38986290028448039591 -0.042544838002461192461 0.32644458058902686703 0.0026321674006683252675 -0.24095462855940991131 0.40632311183389308029 0.068474623859185193564;-0.11111204696833594519 0.12532447495781398605 -0.28104407076101745044 -0.36263747229411985584 -0.28437178205675028853 0.069206601232621470232 0.66063101699994730698 -0.10961664482294865286 0.33860823645241910906 -0.52214904181541943462 0.3637152700534375116 0.44221039077443413667 0.050475411684232703025 -0.36062726411119172543 0.044917424633900700226 0.13123276867560190739 -0.014585748060887632552 0.21400693384608412972 0.4239099531710007196 -0.11494961129410113942 0.085570572747051903972 -0.23529171094725842561 -0.1848667988846821042 0.10214266735673938058 0.3613846246424701758 -0.18865064622435828712 -0.16116614362247047576 0.3187220119085024117 -0.17036287970908173262 -0.011189789723215602321 -0.080735401213632262962 0.17511883671537992191 -0.45683365808718534584 -0.058694201857978765824 -0.099518867373606725857 0.80688747460689613789 -0.011472037574182979841 0.012591767190362465612 0.53831168464765666304 -0.24348207603416627265 0.43408053433900706253 -0.42753763928884419565 0.74804981646606327761 0.17837455276128275083 -0.25906291373992784699 0.041133066994282430073 -0.39124368583112212328 0.060612208923473305522 0.018179263810307367405 -0.14062818651896097366 0.13928091330262909464 -0.33611288800760957818 -0.011517635711542965199 0.041790970107858566029 -0.1588674811603361936 0.59783932010642992783 0.085067823939690104251 -0.016062220424186215983 -0.12583000059265905812 -0.31776686418832239545 0.38021565520511568792 -0.084591599590314203727 -0.32198615153006621137 0.10000902263458043284;-0.25574901116746184826 0.021586283339624985633 -0.3513197170758391441 -0.25085453165261695219 0.32098842283597045499 0.22224976089851147809 -0.051220520357347983087 0.12505114550655554995 0.1695105923462504327 -0.10955846980726942352 0.28755010825158372478 0.091221338082428507499 -0.061444959791761170897 -0.14977415019685219599 0.2740449091685814853 -0.22750047559725239399 0.27697156254999821812 -0.2946575637678807702 0.19624848533606456535 0.22638028644145105628 0.13128677635651991862 -0.14644255313922671657 0.053670557919178164819 -0.13451173713174743862 -0.047886146024668681254 -0.055907639679887578821 -0.14549774402763768211 0.17306776212481725374 0.32020477278895564943 0.13819478762910564207 -0.17337290498370400149 0.16367937106601937458 0.027792699115798225745 0.32727794113463348769 -0.079330375729692328979 0.14587141437086054152 -0.077950359956957745999 0.19887332193320414464 0.11345070838813184344 0.36276286244547439885 0.31360397390905442316 -0.065846261387901200424 0.025467682388032229779 -0.037370982519981492398 -0.38013109190461874531 -0.10923278006948075602 -0.14385951127722909626 -0.19406063650747876204 -0.032464183695643043792 0.21838017109802526639 -0.064025673669471067084 -0.32027209594077099553 -0.089341332750695404141 -0.006773280861593691804 -0.17420701007297914598 0.25054741981786138316 0.1693389457924766861 0.15118396322218519146 -0.067922930935518543993 -0.35178751202756369798 -0.0088512107395582930586 0.26924350338867142352 -0.08053813848323992941 0.18552616433389659822;0.28737328261021133358 0.42069034334646038253 0.16346385175546568336 -0.045733780120613708176 -0.10309338731885393792 -0.078983919278421965693 -0.4949124558743520641 -0.7012769293533951398 -0.21397253916543007568 0.11692484735894467796 0.352702052480147632 0.13296632361429197577 0.10169687368812432848 0.1379125843920858685 -0.049670712659232639508 0.77160333744982156912 0.067004382494397801695 -0.32267553806079485312 -0.5008273034345657182 -0.08391096234459073655 0.034883885377639062275 0.17871993599737012737 -0.13160530280132115566 -0.16840609811986614885 -0.32490760995826772906 0.059145720656916700442 0.31584136768468257239 -0.43814490113718351783 0.24162433117736775712 0.089787525320264849338 -0.27198943380990736607 0.054961081465663294554 -0.24454809316970035904 -1.2081622173732744496 -1.7499270863815010735 0.86448770012938147556 -0.73939303147217716461 -0.17721566008054356889 -0.048227702019192700278 0.71144103942461467405 0.05188367188268871999 -0.30607378817584357522 -0.37861533201241026614 0.45544796528636699584 0.18885869591854104188 0.064299124746790031759 -0.93744046737378561307 -0.21762050502314145284 -0.10585315353475648059 -0.32678682748968129745 -0.57207221626210014165 -0.44413921423673557998 0.072632305936632571286 -0.15782531422431972379 0.36615103783365759993 -0.064023898465653317214 -0.051625917989867549374 0.55547094392020668341 0.28564351247151109625 0.21955852994042160398 0.040241108086938433275 0.0079701156773718442178 -0.20603916512948261541 -0.66085519930004255063;-0.052934383507894075538 0.034851807016161931441 -0.054130473478471441418 -0.18821565468773837626 0.10057116731339928173 0.045434735265227670087 0.40133342373588992702 -0.021891610691765640145 0.29903406317537678527 0.16697731738262017176 0.24071863895319131621 -0.29750705638345997794 0.22506095618690744042 -0.31144003562358307802 -0.097294107844839300414 0.15516841496025510216 0.048663004754319595657 -0.12713276415674085174 0.19435226686915782479 -0.090991315950679246827 -0.49150420186845655834 -0.14872064037320731344 0.24979402277850709657 -0.08995436951192531394 -0.27704209861263978665 0.15187589285320665655 0.28279117236630774146 0.030848858955039679119 0.078762579209947461423 0.0093538752246320848449 -0.15556265096546439963 -0.049321347048755223574 0.033102199356119292595 -0.22881053347265487008 0.25539452059370293391 0.18302197918679985467 -0.25760100224874954433 -0.040769523091765839939 0.16135372806868414353 0.11981647607520430621 0.14437864653882542809 0.14467711634400579057 0.16520875815822255728 0.51427500076479437663 -0.059690066368792316087 -0.097748583419581577814 0.39613337890125083218 -0.24559848371342404838 0.00024642572280191357703 0.06476894814186401339 0.36595627000412056518 -0.13263013269686976803 0.13477254635191776577 0.36270293784239032719 -0.50262130871043386726 -0.28269985161975491605 -0.074042680527589679884 0.040955789916450283106 0.24908616991789622741 -0.22443403091185792908 -0.14734440810416243872 0.32101435108005893504 -0.24405905877840397555 0.010168527957956781729;0.27641506513782959642 0.1140403605458717301 0.16997865429695549477 -0.15560323007878526513 0.074509097015208566872 0.052940689075828162302 -0.25309075544205789088 0.078986487389658188718 0.14651813188698575852 -0.015216067941939666677 0.022572364890729217091 0.18975097956777567387 -0.32451904458101382689 -0.018575287077367816369 -0.088560408998962822369 0.32021685345275946455 0.44401260702202860475 -0.41704549200433560507 -0.022715106604592125161 0.0065224450560627004678 0.43959851724430576425 0.092701097923551745161 0.13648622087509457157 -0.12474441158769623839 -0.21117375520374803699 -0.014818024643221605272 0.40361662652146068631 -0.0058396708396749284764 0.14270780943749308833 -0.15543289235135468451 -0.19483840359582729751 0.15035142386339953036 -0.22583645045986358579 1.0411085524389818158 -0.52513525319396892055 -0.33818400051030594877 0.27708034152992461197 -0.72556372850746220227 -0.59572848592708294024 0.32144324342992169896 -0.10074319392902045256 0.22792203855040565896 0.020130593116581458474 -0.28656576166563491048 0.72934519459692048748 -0.41988884208989979419 -0.089581360591124925552 -0.32908513487597418345 -0.2700782566443175603 -0.61257892986912243494 -0.12979308353293450562 0.015232266563162111944 -0.27534013708873722459 0.10448690064177466874 0.10410515222275794345 0.44490196030305623198 0.19260471577390511633 0.21536771904465801253 -0.037507555125415377451 0.17593295965208682885 0.75609298293519089373 0.2381939271023358895 0.74126217538089689274 0.20927788685106413213;0.44186591933911073538 -0.063006711237597851083 0.051473483576693443431 -0.3988438430008910407 0.37475447716145371402 0.31763354993770209767 -0.48381866240414217462 0.17449070828974314051 -1.0080626174269287088 -0.50814329264121238516 -0.25619357828581179604 0.12929722884842326236 -0.069753863551756820072 0.0088573200824729851621 -0.0085082619283988886183 0.21460184558162226365 -0.75570716977168239659 0.51894354975883050241 0.128788895451462021 -0.02160377789998600695 0.25504840957308871907 0.084237432023773484158 0.69099430611572787431 0.47766096328960377937 -0.3287008797571907559 0.022673571127749741344 0.20390682500841839087 -0.078536390921155843636 -0.20184391222457928605 0.29440894820877999694 -0.27157766187071191721 0.60600210910931784358 -0.23830593008811440381 -0.010840412983030650595 0.3512178604179650443 -0.28097570757074863401 -0.3607204251078918178 -0.028808312437942046325 -0.1465045641366788387 -0.19972450999511273673 0.49952399594178437114 -0.40959108656154502581 0.069208390195556190871 -0.5145540735207256855 -0.65261445974030463102 -0.024717994712568813059 -0.031369017330516689446 0.31147950837556531711 0.19703646679785499773 0.093535418978951359592 -0.63435361492455621946 -0.89602435586358120112 0.061791462870848107292 -0.38384602820929136779 -0.12414398537370409381 0.27501173403114653748 0.13667252007379740442 -0.38475297155977888908 -0.2648493712073881623 0.25482340294208294385 0.096148628033033811668 -0.15240467165432489138 0.28392035309272245502 0.19376787830170644211;-0.24248424405002952375 -0.29031330091896451195 -0.20065972978267448967 -0.093716809373062232025 0.049828872066379328865 -0.1889733641892244187 0.095124698822978775992 -0.36069722080909055739 -0.03866964082505829764 0.11607077431030543568 0.10400349548122256316 -0.12856824934566918328 0.31262496518318333427 -0.041031915637194278645 0.057189336786653804934 0.069754919475679896812 -0.12698197285787865551 -0.10741457486989761105 -0.16078102177875486234 -0.10304534800585427035 -0.051735071850006267291 0.10354978189581569292 0.16690009895841254051 0.12004006822887854089 -0.25596609052769980774 -0.022817509607774431185 -0.05398201700471957909 -0.087915559323883687992 -0.28430203591733521629 0.09389661398399219705 0.21541315805027186348 -0.14656715090339758611 -0.042620218202245249706 -0.24073206227221455311 -0.14782952540921243112 -0.34581788827051856972 0.28486329906114504773 0.21992974163933307064 0.38243275942518700772 0.36277673863118337083 0.15494678627179334085 -0.04003076322043212093 -0.48778140876603676146 -0.15804646401294930591 0.24575709325217978685 0.01078674278468910383 -0.2473669897130091333 -0.42159257951685974453 -0.24522109518534318529 -0.2131104185822130237 0.34402432677046757004 0.22083198329488776257 -0.29020226263667509015 0.085342847023843468324 0.24109099989282123389 -0.15277301443990473628 0.1663902461064182825 -0.12952847353166488387 -0.086595517955986009428 0.06294409677864251651 -0.0707551224853119054 0.26336668111815147997 0.29830088252194625342 -0.1468339626333389214;0.25732278928203028423 0.38925882660600163998 -0.061385609428159258749 -0.39959239534351942424 0.12667942797903083973 0.48974564450370777768 -0.092466402814805268018 0.055712766215437310724 -0.41293812276849795051 -0.30400692631308967595 0.057881314400463637626 0.16031171164806351515 -0.16634891537537477291 -0.13748701110988256757 -0.36478331568975475019 -0.50028885037762826915 0.10303488094491142224 0.26545820313241391686 0.36430156255475892868 0.39140232595684726347 -0.13911024552809250765 -0.081287312277372070213 -0.36209025203935207848 -0.29506530534030112056 0.055275812611187531698 -0.46975559950987488822 -0.04155872819831361864 -0.17601860841600788787 0.1896048946445509642 0.097466433782691069831 0.16083077641661733259 0.22004067325746473616 0.78110877652439014707 -0.26496067227003022859 0.19717337677473281699 -0.85260192267486245576 1.2089977008195122998 -0.46116627437706581016 0.35409015475686284047 -0.77088369880964846548 0.13954756731572426354 0.2952259138474354061 -0.49055136040545493925 0.44402140484449498237 0.50637521677627739258 0.77769124329116823269 0.21943053365367548579 1.0179132628354945478 -0.28623378042117275655 0.042315841346652012522 0.013763095915246674819 0.47948338123631217833 0.16337575359914841 -0.30975964402853117807 -0.4124640543905259138 -0.3071885027726173889 0.15062034393736534188 -0.33917361726594391635 -0.53173072381477770598 -0.096896977993246147243 0.24241427977576021635 0.18280217899170708717 0.29354632244386746898 0.6535704031940825498;0.16624645992807846051 -0.013432791495978656932 0.38003077004960700291 -0.18078401618459516431 -0.35185835318869718158 0.51186491942969092328 -0.076003209005453514768 0.085385931960454589107 0.081063172372683317546 -0.12460018126900274105 0.043160134495326053783 -0.23662409209163212664 0.25732857947603393622 0.066639540187563184315 -0.17203719641343678814 0.28656781607370357401 0.064677950089456717753 0.083998413904205981861 0.57227033173205121841 -0.04396912131323171824 0.6936903179527328378 0.4378264514962249554 0.45481500626038245949 0.13129837980136394027 -0.1479466028928675958 -0.43084339374100799613 -0.15548862726728476802 0.1482539547448776529 -0.30960928457191105867 0.23033216962118907567 -0.27154399550904290139 0.35329074223873840888 0.28496631746909639737 -1.4578166327837072114 -1.5134954188343523462 -0.54939820938010230922 -0.062260566747396155207 -0.43182048980184717379 -0.65585316091328149657 -0.70881804241780932418 -0.29209039181062457224 -0.2950433882737665825 0.35965109656936861127 0.31172868947245846449 0.61209783813943496877 0.38607389522633683843 0.29236396285316179622 -0.077026983956432384937 -0.071737263045953250651 -0.60687194335420657776 -0.77717523523336629054 -0.11536872382647551938 -0.83959472887641040106 0.22226493813862763238 0.087982226682215600166 0.27052768821858413917 -0.31544240468005801947 -0.0066324258864122499768 -0.095058308267520902346 0.10394703362042581607 0.11353657734228644882 -0.16784314269413713738 -0.017437845433682257201 0.44413552588478638627;0.030989065608601838731 0.041266443151303511261 -0.15141621295899754251 0.33665428428385174575 -0.076769865480489363208 -0.20183583897607865199 0.33027630628217063968 -0.021738911810490920556 0.096880653915292214151 0.037947921491782776737 -0.23477218336621843986 0.32274016196394378353 0.13276867494391447755 0.27624097803842001531 0.11976322950456426419 0.28166375685656547256 0.35688951632938797909 0.25684160375786491137 0.10554195532942174662 0.085753118571905845302 0.11465665888550674589 0.23248044906691728295 -0.053708399918632972192 0.071150039430874639779 -0.14194153683506222086 0.28875146802743806296 0.10028152272257925826 0.34176975528240366442 -0.16517213131633343148 -0.12149642174324806754 0.093468957466723207039 -0.15154261750319361624 -0.020046280111203938074 -0.22420292963902568872 -0.15877329472554177481 -0.15579103402953048407 -0.060563526319147249766 -0.23081696870714579761 -0.39080702193983335446 0.10906704859951614484 -0.17424491559687768638 -0.12761436578489271376 0.32242932716840744245 -0.10450185982105768268 0.12674565489228339921 0.15410652575436453726 0.29688523686661982826 -0.033675978701325604003 -0.14704498018274994586 -0.21369518942066895173 0.18548775125788369289 0.058301202565873067041 0.03831871142493573773 -0.19648664786483019395 0.1913594331101983459 0.30499686515584950586 -0.15241352576080349768 0.36001561433642820242 0.22711052943478793331 -0.097864589538557394954 -0.12086914430335278514 0.38807159039765926067 0.053342641355133273151 0.065317370136232913436;0.12134566819098695223 -0.028192143745664463572 -0.14082796328875088476 -0.22459503173665879006 -0.015413269870259274641 0.029728983679240213178 0.035901757836287420678 -0.081145613199962135509 -0.12592292776050023617 0.15083334415006593998 -0.39851517881684672684 -0.15334635045345754167 -0.067714780835435348094 0.11536829948563991077 0.14142192131857181381 0.10587912899508011844 0.07001964039480491897 -0.24553552793353133898 0.06395510109921186126 -0.037529406328669905057 0.13169194791887611773 -0.058105581617235620151 0.40928038213640710596 0.17754079484432558345 0.27104347858962379858 0.16368821833322461101 0.031870200714582512524 0.24648065591677886799 0.17912841900535406148 -0.090954654668604195678 0.14310142869170094926 -0.13152180559512030578 -0.3822311979860095188 -1.1857781951178729685 -0.27864160017344041798 -1.121606877148556114 0.23724621952341090614 -0.79693507329170221176 -0.50780531034377185406 0.11661557686317762517 -0.33333285478980206884 0.36544577654129101196 -0.15962272258231205435 -0.11082108915253434389 0.2671844919773292415 0.023487715242970337581 -0.083087079794661386489 -0.38727076766517631867 -0.055870469349622239874 0.020287756257418753519 -0.47529887602271481128 0.085561226465398584895 -0.32595663364995358657 0.18165727396559550044 -0.048779930327106729715 0.0033117006343417127248 0.35901591942186117379 0.22955969875479492748 0.11846775362745309845 0.05002079225152691877 0.43564959462674640589 0.46032140616332678507 0.23204008260359487714 0.12851473919575356897;0.2019271225515246182 0.28268700230342524993 -0.25542822202495896189 -0.14142978204717956969 -0.060155538732412784653 -0.074978246297014050636 -0.48740311777283340522 0.12623503913543102084 -0.29859659047051206882 -0.39046839258601839795 0.20500256027401597692 0.42764185751047401052 -0.18344982224957695482 0.079841968480016914378 -0.308559934377216738 0.023108784241416040206 0.12838510904324071382 0.54106168961190448385 -0.071265417411206746778 0.029787304606608451529 0.22500841962437539978 0.085431877646202025733 0.01073104174887824433 0.18913978210786527856 -0.0036835041140336356041 0.12666225662463131973 0.029584773645616575799 0.25859905221073692383 -0.01911255522060504794 -0.067748790517676668599 0.046353803002269391986 0.19136788373488589077 0.16958472084094247667 0.04477400753046430204 0.91796660202886037894 -0.031652274857315011725 -0.25749777378388905014 -0.16822324123120682704 -0.89710415956202671506 -0.23481025740422989401 0.72923224048374102324 -0.3353014939517856563 0.048781543495100596064 -0.058000960567905678056 -0.26214344773929804111 -0.63210079620964432223 -0.2573232470922279802 0.031416698653507484085 -0.78344979566840144969 -0.25297094089003979711 -0.56104972706343425592 -0.37265729241520845205 -0.14589837310995823483 -0.09495427623899446723 0.38302104431673150708 0.43945494191721834465 0.094429390350908221086 -0.029744006710875837279 -0.27640873526300502316 -0.20274225071558427125 -0.17765823233091251887 -0.17581264433824039806 0.31621916757240337015 -0.082590922192809626545;-0.17746258209254095473 0.11535105970594113078 -0.10538164755315111709 0.20044718521235346809 0.24507876823922403187 0.25425728661052032775 -0.25008894083660071495 -0.2492280663756300807 0.043179673849083735626 0.017266608947266174484 0.16675849709853932112 -0.20882186609303191038 -0.38522598070535446491 -0.22565049905238745986 0.24235609076199424172 0.018530676946675806588 0.10342585814480570461 0.12263983334524948543 0.13470510574725630404 0.070007259700147345116 -0.40905895329732855359 -0.36980453163947923922 -0.20072455926424490058 -0.14091646567209190066 -0.24603740276933780406 0.18938687695323949689 -0.28842888173573383304 0.2474027123768193781 -0.24572045005408738039 -0.18242104190238275785 -0.016452601851249831766 -0.024326657632533582598 -0.064687178392583380426 0.15433317326375012302 0.00067469993873407263854 -0.1352319660514374744 0.14882383944326738057 -0.10523328735894359187 -0.17029698753542582557 -0.21174054139912779071 -0.21232398691031847959 0.14964777992686228991 -0.28882495237517896713 -0.18040211212244347538 -0.061533026134581246536 0.14272977579431023187 -0.16233801979764003742 -0.10658082825015194328 -0.22669811759618982427 -0.2443212380308959486 -0.1164495214240230947 -0.11288491386944370098 -0.010126517860281507299 -0.21920668793333533686 -0.020062693647749988562 0.062827699229828601335 0.078452002529759576333 -0.31770483846039976328 0.10837779814121659139 -0.24658998887574007375 -0.18872098066345971423 0.21937583723117112799 -0.32395176801148062307 -0.10664510812018375419;-0.24552710330484628365 -0.1997383397436207908 0.069522509181866587458 0.045000972146385397055 -0.018115672813156871029 0.12119014497533323049 -0.14255389586486874598 -0.4087561823384047166 0.24181849808762978515 -0.17322704749186840223 -0.11560072993732060931 0.18088366819122872475 -0.26138050609962298898 -0.094614322890164512248 -0.088072841214884567407 -0.20051016741381053055 -0.19747278721025179893 -0.15712471979001144118 0.1368113996846116176 -0.2134564257070424298 -0.21421797111554852222 -0.25423042868142275985 0.027541092562239972985 -0.13177690344651335486 0.25106283336917561977 -0.23797216912838381475 0.17796059853095752556 0.15882722361377979436 0.099172107406177920086 -0.20357412454388607026 -0.32702308775287297626 0.12523390451469804119 0.060111076439942123795 0.24853054145804348574 -0.106177271954393318 -0.22650080201913724842 0.18168144843526015664 -0.21045377283578298178 0.33244589507164845621 0.19553435029420862534 -0.34462044546675396628 -0.3473923544080754211 -0.097366819483830358006 0.097004190610382498572 -0.14345207335488935341 0.42237205339063255138 0.14216633562186953288 -0.21188014275603478387 -0.12767965845627135546 -0.11726028780790058448 0.06658652628324523981 -0.11502132276735774208 -0.13586754843271345305 0.26943404844689472499 0.33823532730575595062 0.06749338863423007262 0.198981039827683448 0.23869049659758528881 -0.26944356396966290257 -0.2572773109835679306 -0.28299395287889522743 0.20374276262592752595 -0.52356961194001605531 0.25380334234979612384;0.14592845288081057742 -0.027403581486760583003 -0.060062163313477488769 -0.0074498456766443690857 0.34663896390426851557 -0.028427151894524948367 0.083551971824674275968 0.28713340812817106373 0.28455211504125271782 -0.22525229832243701122 0.27360123581332973508 -0.15293725650436254537 0.25416556146371716007 0.28547222018861201365 0.3102694308874336393 -0.15472032081575717855 -0.12002041786864592332 0.22425030504218046445 -0.043370497591603239529 0.066557524834229428445 0.16349136147660442431 0.019869580629902735408 0.013917515392582081521 0.0041381383341325753134 -0.08844732442433243802 -0.15905753016546347878 0.1844280515980337154 0.085875619330452027111 -0.17389963805785030315 -0.13605401570330363792 0.2054662514160726372 0.056413623773410144502 -0.10436696428909698897 -0.087453824802729840382 0.035335625229995587526 0.18601887371341241373 0.067315135655433164241 -0.12956394287190631243 0.21660857552861859099 -0.009800360902596918361 0.35109912271230575564 0.061609296363864418655 0.065509083382123203809 0.17546013529228293715 0.40535489911684330355 0.48662021840793412419 0.19635993102055898651 -0.072198171341531808265 0.030889940001568336886 -0.040138459744236104632 0.29177566978201552317 -0.11416766581284261417 0.39295980047334627683 -0.072703818568981171122 0.34211361237602494478 0.24784811068977499748 0.40050780235624389158 -0.053085409847609121847 -0.13973452442151729214 0.23105201019005680574 0.17662741510520790778 -0.0029448287701767687438 0.20028539417427113078 0.32054780593148540779;-0.1835297959342349905 -0.24696824117025387157 0.57410930053376585391 0.33474980327131814706 -0.11774117500851696838 0.40185419329048632786 0.38540789141119857764 0.16823125265411822959 0.040857136808803568018 0.42814696539809493636 0.28111148787638545743 -0.22265815643470884821 0.08066780340677399963 -0.077147298478185730164 -0.084732554945846222383 0.0019479264442533823429 -0.050940698081604049441 -0.21330646589367649457 0.22232517367752110959 0.071660469358431636011 -0.098799975220862215619 0.030567547601842749716 0.023271236329249603975 -0.087212569946088086548 0.14749772075936665172 0.22680789732079903454 0.083154959546707388207 0.036419284413100834474 0.24102222849757184986 -0.29630397202025349213 -0.035657747481552377888 -0.11738369545289806251 -0.90254325113956546112 0.25468283514728418115 -1.2287545729510964687 -0.96275135020974667022 -0.24647749565458049181 -0.019382383077055351239 0.43415692061431437887 -0.24068797938560135274 -0.083194814075956802224 -0.55556378053484456458 0.030369000744135368069 -0.35620583816895790008 0.1740792123347670306 0.044646090911969353587 -0.082666167442500007589 0.017148973558038280163 0.041810530685160718356 0.11800727299382346436 -0.043347888949246793366 0.054354116034710783789 -0.0052225701697750223293 0.026199480574161920082 -0.42741245533094479603 0.048836643814638452943 -0.032320003925941448442 -0.12955885222666177481 0.10647216192448676064 0.41472610887333005714 0.78896075954286248866 0.058147237702116591485 0.14940042933209388143 0.047196947406231461175;0.26445053009808555666 0.45420200570129837248 0.44154484541342536863 -0.065743868364313395869 0.1146941040823216823 -0.18858968578640483704 -0.047255078595726716928 -0.34357200358586931221 0.24279329650355771508 0.021519866300095384648 -0.13225306275109016685 -0.048961138661689627971 0.28485174021599862781 0.022290894743186032145 -0.44817399670092061825 0.19926776273860821731 0.01567623437709590381 0.099669812974516575066 -0.1116997087621552226 0.009808081699618810545 -0.39385257761947556343 0.30868833138121132276 0.2009070785906025558 0.026951774188708785968 0.34260800142047426187 -0.27192355588349509388 -0.32059982705729400676 -0.14220021528675436118 -0.16871431577028855875 -0.39000598155268573208 -0.036382919264241003754 -0.69042268937241502158 0.031203326935860333652 -0.019227373342565995396 -1.2161281727088859572 0.44518517401308160819 -0.91397001231385188724 -0.31173021571842890465 0.40497897497340212825 0.79432467449919519353 -0.021559453549476033374 0.065640419252730591859 0.72646323432149029209 0.28832174405553007146 0.40189070126270498573 -0.40793031462436302181 -0.10522084796618254299 -0.41737283221682908163 0.71001377095027262687 0.31571083333927368875 0.09895074020473125509 0.23590898574510821284 0.025025490524354390698 -0.20989000637794141824 -0.72276237433852830172 -0.19420780217673858092 -0.20493089189534419159 0.18108368424039961164 -0.24246613334563590914 -0.55221300535541761878 -0.059184975798369170163 -0.40486501965579252404 0.42154639760271483961 0.20536637587918762926;-0.5165246740873332687 0.090667158143491938249 0.3863682093037160703 -0.045202770080831462807 0.28500313327772419658 -0.051017635547907835836 -0.052005430331522099763 -0.40687458157254918767 0.58051061211401755457 0.091599442744354497847 0.0095377685930670679654 -0.038774197669582941006 -0.18503009683938240193 -0.31364461666666187956 0.19859073628301379677 -0.31792339051935092353 0.18027879664563978279 -0.22112137184841343385 -0.051357574890989118876 0.091696707708421726357 0.29662750180350627716 -0.37657405032513507903 0.13408718017537460399 -0.059441680838327091985 -0.10283336924582571481 0.15676913390718072439 0.081976243685634136993 -0.24114082624953997458 0.047552910442563163518 -0.23048999147810483867 -0.066488007933551529494 0.1998186771593606359 -1.5074291107475545903 0.1886523303392782791 -1.3989705582315434818 -0.022672963355575840444 -0.68036208151367139063 -1.0791810321898758218 0.22674964743941264378 -0.1601719611934886156 -0.49577425244755440881 -0.012021566457296236491 -0.36877798445568360508 0.10767815117902865274 0.27738678373879743777 0.29280557434459769661 0.10184082255060175615 0.17646339789488701966 -0.063249788804144072007 0.44066289511352357833 0.48859114821738724999 0.37865305587697545286 -0.030582775077877752401 -0.12494225168872577503 -0.26805582780458814263 0.36816243876080440023 0.039024915631462105126 0.094757142338355762612 -0.22620917473808543896 -0.019609125764232227668 -0.061859953699695456597 -0.039162702434571206034 -0.51395407881679366913 -0.23025992819152726887;-0.11058510434458544702 0.23826148938545813061 0.3145130712806771256 0.31546511122487547185 0.18146785166037388004 0.27465718052359350265 -0.28527672061875608556 -0.04109411520601702339 0.073535446774534107828 0.14781818736711929696 0.30246700975542772927 -0.12690054506339787377 -0.13829870803148139324 0.43689292787842315402 -0.11488088202782402447 -0.2345589653761204485 -0.19769528515694623216 0.20245556509267806367 -0.036381124453048557799 0.1197562340560156674 -0.1770469497716813112 0.34256655069270708358 -0.27824339374194595464 0.1096171793595462074 0.13866946486493594848 -0.055592773483526168599 -0.10444170140360228838 -0.14123751859863073466 0.25009308937370344772 0.2673798718779555883 0.014730355926660143248 -0.15327301954150052143 -0.004812714738661684824 -0.25297951798980267135 0.035101817933112816617 -0.073316433334655234377 -0.069592676276361911669 0.30837421876458276371 0.32378007982303008694 0.15123994132226636911 -0.20744488354739093472 0.057823701943235841783 -0.3574078633637519653 -0.1707890451303905599 0.33017830553030730334 -0.061840822531369930848 -0.10088020617537704626 0.15134249884171951939 0.066493739712316340951 0.061879686456858949695 0.055307219285988355739 0.059472344072989985486 0.17778589022919635831 -0.20786806575298893973 0.016556080935966110967 0.073606457068528335919 0.031439080865344387616 -0.11836753098817734409 0.33604724207647024281 0.19325702989032836343 0.42534453068979150014 0.13169117903435639816 0.41726846729133482139 -0.2825167448171950757;-0.36706259434773058636 -0.22820228800986772089 -0.3600829204296530639 -0.29203442269262747111 0.40785362757468479611 0.035086757817820835026 0.11337461435384550701 0.034862605686293610119 0.11696432594618845491 -0.098595536199663769139 0.53516110194588462079 0.34223470417726803428 -0.35760468869284184334 -0.0032511161983688500673 0.33230851938013600266 -0.026288042528003100623 0.034531345019001076502 -0.12181364274025523187 0.021525713960128801255 -0.018699905012932272613 -0.015858973002028958765 0.33629145742603555602 -0.27491776455287120218 -0.16806524093326516422 0.14333081555632526394 -0.24707105127025891234 0.23664186768464046118 0.1869714662126757132 0.020763450739176878695 0.22724190043584588383 -0.019507339990540308039 -0.037525238854511880349 -0.51646274137716896568 0.21833834647442279531 0.4655056921546337767 0.16019753213530230074 0.45185483071914872566 -0.13935382501399137811 -0.32194345051398298718 -0.45252457659361922104 0.10417161111689889064 0.12292854696898229683 -0.25396968409738929218 -0.55831150878482793676 0.12084526535013850879 0.3862251724826503696 -0.68908227188460335899 -0.0032605224773746806569 -0.80662585820864196595 -0.43761702552496017926 -0.30495309506069118166 -0.10721711564276401041 -0.30338602204464715228 -0.078567734323818236297 0.28592931994905157467 0.46179152308284299178 0.07718887934714858956 0.20831186314283867134 0.054237356143555737198 -0.064961203330609548767 0.45081641436760311326 0.19435382049750390965 0.14633003737708455416 0.10415127171085890312;-0.16482303293255418097 -0.054227205917217510822 -0.19108720772464421467 -0.29360170203800173283 0.024162638631876811462 0.29231848737078969247 -0.0076028043983175017106 -0.51247884776689822672 -0.1022737922674346045 -0.072262698373909001193 -0.06229004315278205417 0.3968592112301282393 -0.21825749368728269983 -0.18015868964615269765 0.52008159849505131156 0.11925864676339495429 -0.26376331288495302729 -0.2870467330819380658 -0.16593712596607662624 0.4995791022563599304 -0.10775030392772488863 -0.040012458732325784094 0.17556350611364268666 -0.17086897039732099057 -0.31985313319237523855 -0.39006513944153553552 -0.3143689552636634299 0.09705518196118483043 0.19584747972275667882 -0.06943671842109265524 -0.17617717878256106134 -0.061478794451387271114 -0.14129801595436203288 -0.48106386091111225101 0.8794139833588969779 0.6788223261099650685 0.50598976414778717992 -0.7116454548488369003 0.2845451511770974995 0.60116533395233717751 0.51575890263838208849 -0.14351184305170644473 0.021540647921460379793 -0.37274830677331133311 -0.49956310126205355493 -0.48444792803621106181 -0.59830447134936604048 0.11587654269605721091 0.42565172216510155367 0.74607914989903856284 0.20716486670114764301 -0.43568276099333808071 0.23393627729719509989 0.16294722357892199582 -0.014127004005513088547 0.34234864334227316229 0.56388821973715652636 0.33191582637321698224 0.095356236482536729793 0.22504880150786713 -0.016893414997323729504 0.21824114011838888216 -0.59850978479356597983 -0.18713193190188562309;0.0075887802935964360565 -0.30260522947809664895 0.028944439018274922132 -0.12089943675239535337 0.07740134937452884667 0.50394262053962712855 0.17967857434516060211 0.44083068024541260943 -0.14506874744999936899 0.10158132492430223259 -0.42741984680079447845 0.031764717603899539355 -0.23289566235815656325 -0.010740654545330846972 0.29774563390762270876 -0.081585448651516373486 -0.30909875292638994138 0.12705176126830172723 -0.092246641390628256185 -0.010076475534916556898 0.31093001847857953956 0.089253208063261160743 0.37694003218804866817 0.28260829649514007667 0.12636396537914579286 -0.020490569638456728602 0.40765800234534865787 0.61642060613925120371 -0.035811215208174256019 0.30532913520008619912 0.17380079346069962631 0.34171646845362879663 -1.8140696685679407185 -0.40230083468227129107 -0.78741613914188790524 -0.36138107963757898355 -1.3457034324889245447 -0.39844815624698304291 -1.15961078144444385 0.12456643728164160101 0.18192907887195450267 -0.54063833040121112017 0.2872393622042441752 0.23535644093825849876 -0.38879578511529766516 0.14122833381017230181 0.43218615807498150794 -0.43527620713007086906 0.045245279618313219427 0.24242362018919169642 -0.4057224179294474653 0.26794887130634470473 -0.44746245207226426066 0.37199469945318447417 0.24801292048343606678 0.43217651932322476149 -0.13802477330945561729 -0.11194843774760096511 -0.12926903590215702011 -0.23405190752627783035 -0.45583679425566647758 -0.37006981661268223416 0.079983613978487924645 0.22563904655736530258;-0.64628546680186460538 -0.44699587310104860194 0.08102358886478416844 0.36191382392036636206 0.13528946044967007922 -0.40295051790653207968 0.41015746718873552501 0.16496037586401726682 0.23480455132235392157 0.099147553534002050291 0.0063595897235907573181 0.003877134201599028232 -0.078370347272075452372 0.0018809075976739964703 0.26644787859909235817 0.43441399303358391171 -0.24425397614995819628 0.11550327337957207174 0.18937079710785592601 -0.24101421902133238206 0.37954186192898892171 -0.25049135124072591241 0.13433319468901377958 0.013949556734951653464 0.16279057050634851422 -0.095074248420730492204 0.24854511592727954183 0.17931540991873051727 -0.077372016115212757792 0.25452243880861286085 -0.3074291812085210851 0.34636179004642508872 -0.76558655325113234014 0.3132282780513890863 0.30485949649967802877 1.9566802696083804847 -0.66516794856352023935 0.23221818656658063662 0.45282394692998623187 0.21036522239816091151 -0.39225365641672582662 -0.43301903813357395245 -0.1292610434563705446 -0.42493672102349994146 -0.35466021745853248959 -0.58117725795909935815 -0.19002659391492590646 -0.041642830468002482724 -0.24417189449255935485 0.3091434717719354075 -0.0036281196556541294752 -0.45052180204169089972 -0.33759854297511487919 0.35152054352401784776 0.55379029343553698439 0.33743803795981941462 0.24975576270129007384 0.099253306118434789229 0.11724768739637234094 -0.46581712574490574674 0.1525692195168512344 -0.60091987484471576231 -0.13138985760648991263 -0.47469435452103853068;-0.10841352435425669065 0.023576720343587563578 -0.23584616534271832244 -0.39591601819291799558 -0.39525766621260299827 0.0730255283873509492 -0.32800874790636908029 0.08391673796355035575 0.0081681135223493281372 0.02907106208730383598 -0.11574515571793640711 -0.30422158109800018222 0.11639650239372517637 -0.00093767923234605284402 -0.039849528175152595932 0.17578772221241986684 -0.14777550474797651603 -0.065171021973051690424 -0.27826831539846635932 0.20154323748474817224 -0.026237940999585297741 -0.13313889609003720649 -0.36870182813509705388 0.0092415137407557031157 -0.10256510495281291606 -0.31189487559505152392 -0.27243706158195746259 0.1525172383939842613 0.1837567736905231508 -0.0021294685761612157718 -0.3449134015440654677 -0.21858424762663589136 -0.18214700144334955434 0.18827381724582228917 -0.06635806696625096146 0.034290634593818182518 0.16131386962614316372 -0.26116621044807736274 0.0058737272031122722549 0.17903783617466045852 0.033566615559106324773 0.11094312860316299374 -0.35418131723177131986 -0.2162629489501227964 0.06683519800156871582 0.045975971623019286361 0.28340866319182261845 0.12701432802871132077 0.05666896988483613451 -0.32252175907980878966 -0.1680454911248788763 0.15239262134817729843 0.25123420342303665054 -0.24121468073637630791 -0.5428279793284159771 0.066314113991374407098 -0.37738209922899706994 -0.042051294689547533134 -0.14808210083264941592 -0.14144117614611373401 -0.18356449740893723832 0.094322674096152664402 -0.081593911681239458811 -0.1467484188306306947;-0.60327586744795536067 0.025904255573960102699 -0.0014931092099975257215 0.30859237570705427833 -0.1803494596745425782 0.056481912068922814074 -0.065091995350212247806 -0.15338440607606002031 0.16574389767619712721 0.0013346612782732438646 -0.16655419027176435187 0.067062244856597508225 0.064272980202950871775 0.29810617270710382254 0.0079890371624956428576 0.39738991642106619162 -0.074573075311692729739 0.36463858659398817874 0.14841830412695861119 -0.082838438640319547734 0.34657507730835029891 -0.16019441249356178303 0.1989050632000529395 -0.18270246129629721943 -0.59176182072971639236 0.0749408704469392839 -0.10434862572117603596 -0.012439252238279590104 0.11833279406358303276 0.098822999986402648709 -0.22116637064101693499 0.27979908613301684994 -0.35263449156608234203 -1.3756765454071491206 -0.86624385227881561811 0.44271404366904371086 -0.199669144226128914 -0.47538835881080654389 0.19745621600929363915 0.15743281842677964155 -0.094999148336973995854 -0.33778614260923744972 0.30692725198246645357 -0.35889098992740858796 -0.47122806773683861836 0.16638280334570182406 -0.14610281778369085814 -0.14124596630818950227 -0.63934350734395883897 0.058542685341439748559 -0.24948547945793300706 -0.50617009154414038807 0.092893300789633315162 0.11012961538101533054 0.47945086986102231075 0.72650769408654525261 0.24194895109624434126 0.03160898019959391958 -0.085796277493434727757 -0.067910887876746109382 0.2097707750251703307 0.0028836790453001482845 -0.42896738560597125201 -0.051110578357031442864;0.37264201461450824349 0.6402173003986785238 0.32256281480038218046 0.41800917559349415331 -0.24654852403036553454 0.51340087619680729869 -0.64997297409602827756 -0.10707576683653295679 -0.26195896831711873443 -0.13593459346673775201 0.062193171795663623747 0.062694625688297242472 0.17156859198793592003 0.29636543944953869234 -0.26702897154767923915 -0.16178486412308251685 -0.076237338637850274314 0.062200602663858142738 -0.038530463838339801264 0.30681471148450167874 -0.11946550856102181037 0.23031752918753781167 0.16856693258049176842 0.055154309515377183959 -0.39321771422849544075 0.49409550949935410191 0.18323424116014497276 0.14863489566133186726 0.14458474242258967379 0.30464750645623533964 -0.10477828116872008046 0.29739092608100820003 0.15452630494443755915 0.049187854439184955369 -1.5659952230974527598 -2.163486995741445984 -0.30399917526891223618 -0.29762174421949622038 0.63096841435316586288 0.35949283420958760837 0.12378155952138414353 -0.75589468677003313068 0.14125096387069491222 0.10312525166740821314 0.087283008119098115518 0.0023755768753739143172 0.60471285958256371096 0.54838120079223506842 0.59426375953890209214 0.61755361923946550107 -0.54867356878304418544 0.15011534194501599537 -0.57175258906457682162 -0.038254024859395434344 0.12613154312837626669 -0.1661818472146747161 -0.39930091595975986118 -0.14625942549007223126 -0.03121393506828206918 0.017204575034374870734 -0.29939986875946844602 0.28343543535032272862 0.024903829851887146485 -0.31778484664940437332;-0.62733613693996048699 -0.47225458254648616796 -0.59767291935305222328 -0.1680916119116322438 0.15542408465219062497 -0.13361649140207995656 0.22087651673133665287 0.14835590154700065146 0.55995270733953139697 0.27921957409444075893 -0.086912929041286460241 -0.13469545168849980654 -0.44313341679800538619 0.2515304244783268528 0.30309363091932317591 -0.22995759553771349948 0.026498174230679592822 -0.20716335245457245806 0.15733866539169374943 0.047941376260566291589 0.24453202783701599721 0.21587314489811626483 -0.038469390005085084272 0.17605871759539121202 0.021696649695994600637 -0.23499026038173820297 0.062873996232576431775 -0.091275530744046609599 0.10141984161166620049 -0.13321195796063522998 -0.10672970164337934607 0.031295227394952621069 -0.71233352441699682167 -1.3113278529706566822 1.6843358100858603077 2.1033931421241609527 1.2700583887102254721 -1.5241707891143534415 -0.74566645157386635123 0.25161688844800683684 -0.40084801258353208731 0.2300013400346462844 0.34236397861154693745 -0.43521974872363583531 -0.0088525426708083373994 -0.41254376765502182023 -0.5110999058197573941 -0.19727021039104586375 -0.62195432453842425247 -0.38825670419914171116 0.34381335657758854696 0.067644998751092977329 0.17975707800508414214 -0.071297571875588314216 -0.14770460976129498598 0.38657450211200516943 0.53124753488285358927 0.27343504215097097498 -0.12139983671113550867 0.1014841038525534922 0.013863443736661026917 -0.023404226625673991979 0.32018391671687479461 -0.55586256874823281038;-0.01375890969849553544 0.012367889191066537558 0.19634586951533522514 -0.11378926324504674839 0.19392782085819565419 -0.12714906823454452667 -0.048123739781191443576 -0.11064236607921117128 0.21681646889425995606 -0.058675666508264341659 0.34690356255548526754 0.12718446679445802316 -0.091007504868487007488 -0.085629376829567713236 0.31296798400775105442 0.30980422826859188579 -0.041607116218063455726 0.0019326060914726264726 0.030013430150001806779 -0.23404077928023550581 0.32970179697821017095 0.071774268070594726687 0.15225018076650803645 -0.10291473476407993204 -0.3036544139256704411 -0.20500080154054658998 -0.27710639537156894763 -0.40811564999191363157 -0.19507920995584188129 -0.23965576249113165752 -0.49381809922935854251 0.055771616103527321684 0.031236943923865199274 -0.36894137538621557537 -0.12550843931217051108 -0.1529035965597005664 0.077615440136487440226 -0.33422717808514301741 -0.3020031429130431988 -0.0068795075626545236502 -0.22611575923683402412 -0.46635102505066700074 0.33691658751375963554 -0.52710159468926598425 -0.37148724997562315719 -0.58027087794259379905 0.12735097989533253338 0.028884676185636722762 0.076800248153630359949 -0.16458187679693719874 0.13472976999615654536 -0.036708381781774934716 0.19433366959692527365 0.059406765940556993666 0.21196771237143119393 0.3772855162818383179 -0.14958895902456914584 0.11163032054688573624 -0.32197888721582484939 -0.05211511215866886787 0.37124907816063057453 -0.10683918147026942591 0.07458109764145677556 0.16981476047839136334;0.26834658103661657158 0.06087763001953398756 -0.40131083114271176582 -0.31763080860014525353 -0.074254306415968987509 -0.29236675923947447187 -0.19736967154184356654 -0.64091784057492995341 0.092203442337564556208 -0.40624094498688784194 -0.032202101843006307458 -0.15419831178673720773 0.15588291376717919312 0.17791434790885771178 0.1674859472325930243 0.32175049556586216015 -0.078992805957206507772 0.46920267008347821269 0.075772097027531876146 -0.0034263120226807062055 0.054983568060942802913 0.20456906670704397277 0.13586689175279681452 -0.25596105712064309845 -0.266665734469365312 0.034141545013502298811 -0.30410936773898500363 -0.032728211301281777412 -0.31936269878919870679 0.36132336495081579519 0.14183322276473048218 0.0032019982366324620596 0.13233520824126246418 -1.3436400429592612049 0.39305891077240229237 1.2550863970167138728 -1.3118282627961093123 0.45706408836785267225 0.9365200635479654645 -0.26753649748449287449 -0.041666888704786624043 -0.29019544501440242001 0.59958351889792682599 0.54823196630215009773 -0.070178776093498485 0.12166701146250459564 -0.42157377219919622835 0.17959306980271172449 -0.038444504394333195441 0.2930550146588627447 -0.29682493843451634996 -0.082389829762897007215 0.07227302928840725893 -0.33195179425120935335 0.46504564290394145853 0.0054017027334820541529 -0.13461514799183796343 0.41739407035760628384 -0.32524037073174011381 0.10632601450330378401 -0.33324508434526506351 -0.45647019662852539312 -0.48868837169858597713 0.50140351031750018951;0.18293024705023322452 -0.12600312735984789403 0.13893432564436627996 0.38360728932292631477 0.095131252713701722201 0.051863794854785774668 0.053206869601719768148 -0.010190863742939669512 0.64480854749342131349 0.44639015392447717323 0.11608015327176401943 0.032273508688412382017 -0.071604566989172960256 0.4772755066843927807 -0.085011875793923066813 0.29523237229239418511 0.3833904017654596319 -0.2398017886101576901 0.10549163832352831394 -0.13366436465570735725 -0.071830640275205165368 -0.21283828873155352657 -0.29472974601013579576 -0.3219379957618389021 -0.050384078469077796247 -0.20022460221420823601 0.0155936667854744207 -0.26137855828149603177 0.24657692254511437424 0.23458390927372924084 -0.33948281942996244576 -0.3956216489045136786 -0.094537248433971515782 -0.16097923184940252095 -0.090868233623750432892 0.19658719467710439321 0.0094624303173054744032 0.10410353710005826322 0.42560410878985494021 0.39358976379202703644 -0.092340322459147666789 -0.13310200134868357957 -0.26672449278583382215 -0.046350620573835529803 0.3540934539734015285 -0.17805908882606349963 -0.44910086912879604304 0.23796250298953225411 0.28072788969694340011 0.09686199278420508374 -0.02410893126064305933 0.015453369624280033703 -0.037056653161525218709 0.11761697729498969689 -0.10544317110019281458 -0.21637186877323913436 -0.097804744438112628524 -0.072943099214422157939 0.54466506643553347367 -0.370947996499166599 0.0044843630644485505538 0.19878270892740490527 -0.057418805190360099056 -0.31472450480684011076;-0.091747816555940400751 -0.099764544458259968307 -0.44779809241646878482 -0.43743704351186135648 -0.48704687962649478861 0.22025156574336254844 0.21076666959021278513 0.20719878190043763966 0.050761646877764160513 0.10502824398020466079 0.23544226467842396811 0.041240208515415183177 0.4419070261518061038 -0.14492955526918516185 0.042885443468105161058 0.060301281443378415559 0.2953795587376820686 0.65104809279068243111 0.10402707265123026237 -0.34066813634637221897 0.093009799547827884392 0.43470254035270589066 -0.52730947980283837673 -0.28001673496816814612 -0.035971200712098069796 0.060782564072853761949 0.01633790150631109217 0.10454610143359371888 -0.1762993631162099728 0.68853101109606984487 0.011425075940326986229 -0.042468573858093945639 -0.69463431617986970412 -1.9012467277664748533 0.27877901068181049071 0.073130477500241292121 -1.150950919076986656 0.79284242026495566069 0.202372289506172226 -1.0909583003584280014 -0.32173744108657376106 0.16582695784652948245 -0.081102048759194619865 -0.0702648417819193849 -0.35563453400706301899 0.33229782035110899674 0.016879847207846743196 -0.30902291366422446339 -0.5107108182273175645 0.53806825672994662568 -0.68013633223955871632 0.61997096284217578788 -0.099575088944168527183 -0.38451679782697312238 -0.14626632725380145361 -0.089198359588357339911 0.53348031056630385027 0.28349195928161213809 0.3468959253998961656 -0.19276109750495390438 -0.0046883704537793169376 0.17359310107159192649 -0.7312824957905221801 0.40511936063759163007;-0.14778235609271914153 0.27401972393727125343 -0.11380475907757119092 0.079289547304489810253 -0.15516327237658744664 0.28129043451146823474 0.0092010017837083121067 -0.22547747489118821762 -0.14958602425475375775 0.32742872070282624808 -0.19690442116693407382 0.061483934479191863776 0.29926780358129417836 -0.15709521986588595444 0.088051630403131880831 0.17384221136542932218 -0.15397457315815535339 -0.063456222888213509314 0.26485375901883756455 0.23028229943032346716 0.15681554688607771131 0.31780089128957977884 0.20510575028303804079 -0.23830522272908008508 0.079671837816865029303 -0.0056378692384332308382 0.056212385161501093878 -0.15590969664368981018 0.12405733395588307288 0.36051223826824851937 -0.23678954439463037462 0.068479633117202939885 -0.12690960037371651348 0.29623040421091934027 0.42050368683113775736 0.099782180100040168691 0.11452704617652420538 0.012645701071097928403 0.15661883910053284175 -0.062033633610237649825 0.40698428657654212026 -0.002466627757300765382 0.24869105699653298869 0.0028109042848108536407 0.10221698228948820908 0.21281971857112910729 -0.19179453166678323006 -0.12680517905145266555 0.19401473891791407023 0.060412651309319630177 0.18926928338885576353 0.3119083274336488798 0.17921057641408361105 -0.12231295881809378656 -0.063622860375646628217 -0.1170852336523733328 0.071228467302156595053 0.17978512957637393654 -0.13330989925001288099 0.14319520001498542427 0.12795384398087572553 0.12971129098245617883 -0.052816395227285574399 0.21038679170826957154;0.24765203624657017301 -0.076701937837533942788 0.29339986248080146547 0.65630186276522972655 0.017606582468484992948 0.12811584991825938906 0.19546760373391849908 0.34100203458913702637 0.19237705723376169464 0.17833209266863694897 -0.082732335713839810776 -0.34483433722949452527 0.1984487564022380246 -0.018684872510328826012 0.038792660848476379076 0.2374777310148369347 0.079246740208318497412 -0.083149549033952135924 0.32948375901057541659 0.13412252562369175735 -0.18212706446215584655 0.34645020185903058207 -0.03699153284536031705 -0.060212979252052746537 0.3131972109107306057 0.28822483925167380336 0.091721103595585606882 0.22115025449371580879 -0.19440084971884652454 -0.071051601068542205586 0.38807981151950365906 0.29166027107561787179 -1.9167231542511742326 0.44371121055293993862 -1.0777005577610812015 -1.390822575559710117 -0.4558957727087352696 -0.49474544078212023823 -0.26282418765082438128 0.090467378016199626045 -0.24717279114297416309 -0.46697032690589390658 -0.69652883897644335409 -0.044673904292005801875 -0.057011218104175358234 -0.0080531748295118426445 -0.051680561925137230572 0.52339715350170845642 -0.10227098920117848324 0.14666274382231517248 0.37355973226928274045 0.11558392649648105421 -0.070454350590222702966 -0.031427890125926290221 -0.18049096954160240291 0.035291332667439882786 -0.013471499132776412755 -0.42585678760622575068 -0.31018050729949259159 0.054113620037859549994 -0.026707635312042177222 0.17030982662353913448 -0.32312417294220147079 -0.17193025133965417206;-0.33280244065417058374 0.12655708541203530837 0.022944345205168331647 0.27867438003761568766 -0.025953633332444853155 -0.18131527668437724676 -0.38274227109126962576 0.16314062791240108163 -0.034901766476103684989 -0.0024043530017515695081 0.072021518102389270322 0.029232782221125349492 -0.13479102864217948343 0.23273890788195647494 0.28439548178590101646 0.18565567118618839237 0.24382810477922473025 0.36362484554876173259 0.041084114688637415891 0.20254197239671692388 0.12641870028671678416 0.29483256506811877928 0.1271249951297458991 -0.10017462086970117807 0.03894107885921913037 0.35505806409873880147 0.15294859752973580247 0.10007889871641489909 0.19664476239561440307 0.29939638502510079743 -0.052343157706903856163 0.16936049247162149323 -0.35573090710735888464 -0.18847514567580053724 0.03580674378645225947 -0.45669857734311297692 -0.14340467378792598474 -0.062550537070266670758 0.09205219299578749903 -0.34586727851878573681 0.17574581342150411012 -0.20011971767240721576 0.0762190421762999476 -0.443649072919948817 -0.15639091034134292024 -0.0057811459934558485224 0.33615966218423209977 -0.3295191127330988623 -0.41630278987242275157 0.10212049314358012664 -0.18913130039567399576 0.24695712116110735135 -0.25156849937454112132 0.16109212862745192485 0.093449687750850093937 0.12988669514767306468 0.18901585971683715348 -0.084530952693576563717 0.09980489632247836751 -0.30587525050122715831 0.31866216569016547755 0.045252266100496450763 0.22125713177663336451 0.10077322359923156225;0.2840767286031928851 0.14750326561158025318 0.032751192122003211504 0.058967077054284500193 0.29889320625530524378 -0.085205466430495174768 -0.019822749635426718806 -0.44096771966490638794 -0.42411507806412834798 0.020882169208605728949 0.16708003992711631391 0.098943460217533529821 -0.37529864145731556269 -0.33785613823729504501 0.32690761100534798667 0.51100337213550028892 0.49825690389393217927 -0.045457424123066345056 -0.026722251539993618213 0.052887570176520397325 -0.03925911832147278846 -0.47528458556177483052 0.22253680251384516664 -0.20459747581973530828 0.53740768481802625445 0.27901131940340595516 0.38199351958379396121 -0.046219857076013150243 0.25699111168016181006 0.27287448003466913127 -0.15118815823174680535 -0.19055365974443899679 -0.24841313168453152405 1.1336723598693843051 0.36284325502747927228 1.6721384502187630616 -2.1896526370941082895 0.48114547623234127371 -1.0097204240415271759 -0.11340088292052911967 -0.30406689282811111275 0.59140036449179811395 0.39634743633499852633 0.16395137921368713174 -0.420526357685391039 -0.53385854323149828371 0.088684238885348695702 -0.4327710971397821238 0.38952237304771697435 0.35950496123359854117 0.33116513164422783921 -0.16631371970461139576 0.036236078854420872286 -0.15428994833624423699 0.64737358278681278456 -0.61695806230868444064 -0.83837106883432221949 -0.52659920618546551818 -0.14540148520077600391 -0.070611637288836778814 -0.90290585465495343254 -0.2745477246511376368 0.036242713061963492682 0.57920459747846175791;0.19208119070816534468 0.28568131117188860779 0.43461938428304114357 -0.21911585487124626836 -0.21385723562187064495 -0.29515500775306741099 -0.24275709933137243346 -0.068333452265444918905 0.20535962605502885991 -0.80216706876083054834 0.11704260700249655147 0.080193993250411932383 0.078747078537604972559 -0.54862073458658422442 -0.096284833412826204002 0.032857399367705410198 0.3760441004645413976 -0.33501409388930342148 0.35969786384059154738 0.20477402315404016897 -0.31344976786996703311 -0.24247406401148086097 -0.11804686268677343219 -0.10164722624088569358 0.13456131579103203233 -0.4718353052472619158 -0.48726407692393319815 0.13384464468395321224 0.050566434976483422281 -0.39001669121585152977 -0.53730741626777267506 -0.29914685121969236681 1.2446334573375916754 1.9367882313677728945 -1.5113383253181209565 0.3696476072609419794 -0.27003743465971713489 0.51272799842865535158 0.097086563311086920836 -0.0065811549707954150601 0.032629252711878747872 -0.0095642273300960735372 1.0037759227593865408 0.84153603977733715258 1.0905045529949175531 0.31864503573997682295 -0.14368775925303076124 -0.19223912053155917112 0.27897964479772668911 -0.75732531853485673956 0.051824280000472032481 0.098324183518698898832 0.26861604865153676514 0.58100144669342657089 -0.23800679528785978478 -0.44286960256841156891 -0.31612181455867988111 -0.12765894448629597213 -0.29841959037764120843 -0.092487868644655329975 -0.14242001686914884662 -0.51059644535341541793 0.13942889356136622947 0.12207980085690096905;-0.21534550071852229247 -0.41025849849846640627 -0.31574357047028034362 0.36286141906479268959 -0.17993950545796319473 -0.0045694745170528506401 0.10791390548273574468 -0.10620159033320600295 0.15010994661249663085 0.13625901881903160207 -0.089269751225693083629 0.0426548781816258743 0.51447124521987774859 0.10050355245701415863 -0.29870630307895407185 -0.26392379418829353677 0.36764729367056547815 -0.17694091241508236312 0.041413308761763398258 -0.10738646408544734456 -0.66081801456550737228 -0.087827576754101549517 -0.25467906918549004791 -0.0028035810619106969234 -0.16573722664798024029 0.042207015741924050478 -0.32067085255935195987 0.068274343036010098906 0.46011518022877206935 0.047355536948675627795 -0.48282942372375037277 -0.41191088363086164614 0.61213510869293696892 0.17483853803737872679 -1.021723582271391928 -0.094765374066432955802 -0.028250675937770169943 2.5266447649605101589 0.77561716921082313192 0.047025051914069651571 0.56477905674803952074 0.2300614650535599548 0.80867043705624797045 0.51640965872490052213 0.74158186632611211575 0.60259910108006131679 0.47170628147412835274 -0.04702207974826387582 -0.24138224341224756575 -0.28751263354969563979 -0.54100345500368651752 -0.2145876903304674288 -0.57403726728536397239 0.32457515747561904718 0.56599597209248098117 -0.40014698088889921745 -0.74486427552370060301 -0.20418284452528442929 0.0051655685882293876643 -0.29155218671100446848 -0.26572499934627302753 -0.33742332074253034158 0.19660287799805370446 0.19453152069238918709;0.1887916056955166455 -0.048897687572248146881 -0.031687562489165849167 -0.23166537822136562541 -0.23711277771725933206 -0.29955202531046426495 -0.24327378676711447492 -0.096563491135249909791 0.036067476273876721005 -0.040912197498709286514 -0.16849697263226182109 -0.078813184611135414515 0.21266454050996788649 0.22961667353582551621 0.22757387105931753402 -0.18199749768071579736 -0.24127984829852375248 -0.28266301861817683116 -0.12111486576051905262 -0.19985544338875924075 0.010634270599189858675 0.13264088865806561435 -0.013139127832360163878 -0.057063237153822020387 -0.30331470206830207781 -0.30725063642611755155 0.23432826876962206675 -0.31276488313480538261 -0.077546394433457760398 -0.19617876755663452015 -0.080653221168422606357 -0.3159373757038083097 -0.12297820644170935622 0.020877458506789989962 -0.14097154276807769002 0.16870047752201877689 -0.15813623964810408218 -0.18972606084422172223 0.20542246111813516896 -0.070956755033437873825 -0.23655765481156851293 -0.27734826934172801538 -0.24389235101147954676 -0.074334640187208339546 -0.024449354486847981599 -0.24510293521043433063 -0.1845226553339140152 -0.29154231161251187299 0.11961285729670047273 0.24534491548330170096 0.015544374743020807766 0.17922212180691515782 0.12196033744567331969 0.12096979092763039676 -0.29033038781597747535 -0.11350521410566981328 -0.1005548347874753029 -0.22063687811710552822 0.21056664985486348018 -0.20587458381868925517 -0.29168594677299480855 -0.1481251338130108175 0.10352041548763511736 0.13381173958295602966;-0.38135272366531502986 -0.51652139793818852009 0.37045565116672884987 0.24546838952165872527 0.26088356309934090937 0.034417486267643605802 -0.19593905797354388421 0.43735825692644741958 -0.07189238009737072832 0.0064057064709836441727 -0.081677532593026971885 0.043421992991018704133 -0.04639443983022526613 0.11488788479793461683 0.29526245335450862495 0.4190282256110061665 -0.32095556991177076611 0.065927291765033063653 0.24753065258767498191 0.097649490700460972459 0.2932087269187564349 0.25735174460744991709 0.39143124890878561173 0.51407275764888027414 -0.058607168279227912777 0.04543403510760879449 0.28130092501237025093 -0.1481188022955024497 -0.086198270171872287682 0.31491504318797847173 -0.02605877600289001686 0.50704997084208469627 -1.0230663013682812501 0.7669224916769060707 0.30050351421648141548 0.69014358081010951373 -0.97946243776376307189 0.17812915156678929551 -0.07844628357790103812 -0.10213222662392798523 -0.45085987802944177405 -0.020869138611184133436 -0.38971842065811596045 -0.79632941611036944796 -0.82261271416861669881 -0.1905183479401179325 -0.51905955167437212161 -0.66195759086089334122 -0.25580859442753134392 0.20122694269379517995 -0.10406991309215968267 -0.59624668286347959345 -0.18460931673450073354 0.13427251732763978431 0.29516522997786326377 0.25435652400804059647 -0.046432804765664033309 0.07924607808786979235 0.35070824575392589573 -0.32786688383202544639 -0.13939992267773340662 -0.030182412891970832741 -0.24836074358056667299 -0.47296735268022627174;0.16681210765311230149 -0.018708514026342097647 0.029833508670399050411 0.11290077474896369203 0.37427514812400980437 0.043278557120063627928 0.25058418495110484914 0.32373815939613187487 -0.34876396572752749181 0.10212420217987291937 0.2989061235810228645 -0.072945577586931972802 -0.14810981733675848693 0.17380382683739495353 0.39182447823826810351 0.22854059891548123007 -0.13144091420808365345 -0.20996633191077948566 -0.13715230770319428166 -0.10015132830898647309 0.13155114464297107402 0.035980985175716628799 -0.13165775315210576091 0.39202070571483987882 0.21177322387575434059 -0.20987460736550625495 0.4246429693406696404 0.26496192114758210234 -0.079346500846153064646 -0.37635339778803744704 0.25147575240292985299 -0.030197494059214756434 -1.1248463618148361043 0.58195057953806572648 1.0227568770629233974 0.083580062326370246906 0.51113046825031871467 -1.7226863206323363986 -1.6505273749052935539 -0.30066476147846993294 0.26025480447814658413 0.1918937633331942727 -0.24505602512741814225 -0.053380724524300066092 0.1562727042239778763 -0.22194986980670330934 -0.74265225683274949109 -0.76308679589445826963 -0.057693297484476768755 -0.57091323811605432237 0.061096049029083138171 0.20349168611219595193 -0.39283654686703384229 0.14497507572216372651 0.093272467872174691372 0.78629369817631211692 0.2841941264606455686 0.25890590592438300632 -0.1180988193066510733 -0.087963427995867968234 0.47396951932159697707 0.6505809491892134977 0.18892858069756920947 -0.1409708971897912777;0.40414699345539434328 0.38606294050284062358 0.34332437319510861196 0.30341625712586761665 0.44296027282399275116 0.12036701302923266677 0.020162137995133746354 0.45908354041884441576 0.30327501533749134932 -0.12948493673224784062 0.30133183500362736851 0.23193645825067607524 -0.31127402280250310307 0.040632771209000842494 -0.35493902146940137232 -0.047939361215209794209 0.062098252168014934915 0.41934025849671335839 -0.074585144429630642615 -0.19270679073608981691 0.23823876006760258406 0.42879264472261896524 0.3631873230120710172 0.043019739135293603993 0.10609168711567303067 0.4187881681469086681 0.25275481500020691161 0.059269930281166054165 -0.10927877252337100944 0.12245796624832629151 0.084139851613646218786 -0.19692094897694964462 -0.2453525413751996842 -0.29979829490082537946 0.65528183327009681403 -1.0344637879841021011 0.24753508933730500319 0.3629081544500127321 0.30667255564965323344 -0.42672875337349513991 0.084039920753798749709 0.27687728127768573838 -0.0083857353407588257344 0.17216514703734431269 -0.26035305462636654239 -0.3781125912207716766 0.088588792427441734323 0.36910391843588108429 0.56556622129603151272 0.3116082647454659349 -0.4127323242481772958 0.23463674733670997208 0.12097491703049156886 0.17466859085357744341 -0.13203203110429126421 0.2458165246838013851 0.21209578350191285456 -0.62588557917955367493 -0.080347417312696345348 0.076752512521058191552 0.2842397050529609781 0.36185780951564505692 0.25629775120339581829 0.56198085810901043935;-0.047283821955994863317 0.31406439315344747421 0.089637261106790475096 0.030660576242666225805 0.21916888870920578358 0.15105274805968513241 0.33110264442344877756 -0.16299322597741075502 0.16723645799374189935 -0.081139891986835299686 0.19449600973421080075 -0.025576568046717606392 -0.097028642861600358782 -0.22180376198376539065 0.12643410970981178165 -0.028858770433897451557 0.053013759257627912636 0.22340369088226388894 -0.15804509590423343468 0.35132995508245251637 0.28422020014676679933 0.17592024890136151449 0.0026399865070254996922 -0.084969509790078695533 0.1302150408927123526 -0.24467351424922337277 0.17963401846735832512 0.11043605703846924582 -0.22677955945589181597 0.018166942049773773804 0.01312431948421599083 0.39543163078098469976 0.14052462815526348128 -0.11562854890392730567 -0.1295389335682455012 0.22202029011567056549 -0.025578623903381090404 -0.2971557679193180812 0.32261377440171523645 -0.16700082721094755556 0.0082794243868303980805 -0.29423832302009256257 -0.24941924638223414434 -0.092673813443920824429 0.30524847200604948716 0.32776705368953307218 0.27486519348893045933 0.28975264468957506736 -0.087934888192856761058 -0.34224090016701036454 -0.11948071713356481216 0.027689792667409330457 0.026643335742654230408 -0.007896147379402813915 -0.099113540546193978908 -0.17940067843654419755 0.081775247253110278089 0.079859750036271923146 0.0004385782334737709301 -0.10423092452051281598 0.09716602193736295634 0.34132977789550306147 -0.059228649938065633385 -0.06972280911762952782;0.061011136740021294778 -0.60924941107546337626 0.27366108529570049024 0.13151540164323297089 -0.17411919748191850843 -0.18173639884561001989 0.0353856373673085145 0.24686203310593776705 0.12439227726678654673 0.32253887719767093678 0.46420155748947283803 0.31027754796422307715 -0.24163741165262828114 0.56828518423314822172 0.2613154444177032687 0.37454417875644707703 0.023955090786120878527 -0.24126273098855374744 -0.089905264681090918399 -0.42615100253637422378 0.31819752974929554901 -0.14456815848230444854 -0.021631388413132827953 0.26378062789809469946 0.23807881854392431986 0.057610662917172428266 0.089090355878987517735 0.17105196582626228108 0.29707656239689916866 0.17349048525935595322 -0.28079046827439313461 0.32440295257701973197 -0.79629426911084666418 0.70078243496722014694 0.11063874911131424406 1.2578955001058818031 -1.177143526727005618 0.79138795198999589697 0.10843682674158090784 0.19895293868051885933 -0.22008068500859070959 -0.52792188190139743842 0.71238503554159726683 -0.48299727923867402657 0.19827014447936855412 0.11214234631892475158 -0.012591801470649793132 -0.68409654628018501388 -0.38197173098706221905 -0.40660669715613484421 -0.56542952191866424627 -0.30099856983243150621 0.0006203551305400686151 0.42285376849476968841 0.70206471889851651547 0.07521586647260904146 -0.58702512987939226008 0.46245530384197081064 0.13554077899515962202 -0.29442751999103028426 0.0088118766032178278552 -0.046460076749865963919 0.016304887613923756129 -0.37136875407167535545;0.34215508452828535813 -0.18734541010740149436 0.14469924986671742206 -0.081762825067895936182 -0.558610532328569942 0.17548039203732246349 -0.08980543489351566766 0.23229992012001726698 0.11863912824033570614 0.5040959386672402287 0.16376948770102378594 -0.083143156639725948609 0.41933623830437483093 0.41370464885666635713 -0.16356478536174040572 0.26819128973363987045 0.09252683824951336844 -0.16312900340957048329 -0.22343303450680004896 0.15939910611408433794 0.37578599970164372479 0.38322884855669248072 -0.16991834871211083935 -0.074730202819491872712 0.25945282757593696177 0.50509898221987425959 0.39746431849793523172 -0.093095219114717436826 0.25311798574261284989 -0.060347686532778027635 -0.1928575283905545612 0.20658481812700674185 0.67390949007900935452 -1.162916840656524009 0.09588801241312099044 -0.51144435511032249053 -0.99786413807154394906 0.82852117282569182066 0.14438657437389024185 -0.86997697774606741472 0.30938007201937295365 0.6162541787569431051 -0.028560496843929125688 -0.29306175763283526248 0.4414108132696400455 -0.072228787657160106739 0.3652910330813194939 -0.61100082764090746235 -0.087275675604034860799 0.19415934447324748047 -0.77575319997988256837 0.1102603022481073447 -0.12364746482146747597 -0.41143925106396844749 -0.050017928597419582248 -0.68799061225820368204 -0.57221575556514336913 -0.033930225753427523117 0.10455434261717615196 0.59597797434745269918 -0.21544780835080304393 0.077263280801172604106 0.0091571712871214780427 -0.018311458936798748892];
  
  % Layer 2
  b2 = [-0.28817124016178241597;-0.41784681614259233662;-0.31336223532468199249;0.55418833382600574122;-0.16163523592831346987;-0.04525338439615618491;0.52220412119229631109;0.34648632036676502155;0.34935153259600559839;0.55594024895137716946;-0.90454278311645286426];
  LW2_1 = [0.49426632215670335269 -0.40007400946519083851 -0.64352118955881165707 1.1532019506480217785 -0.41776594102748892956 -0.61753108028146197483 0.91947913059786479106 -0.24139402829409981055 1.0201957209316734332 1.0093202429173318002 0.70682099137678744416 0.32567165498692729475 1.7480629134978034056 0.3313546888166803428 0.5302851319499802818 0.89709663676233164509 -0.15958486846581201868 0.17712017196283311171 0.41380022410986816439 1.1176162079018625573 -0.41501024495720173491 0.33810199360372666932 0.48723061343289558733 0.051175929093125280267 -0.50736445002563512752 0.049122004805413760353 0.25923021741140733765 -0.55748555336031202501 0.74693978599646837502 1.9034018895596935828 -1.8975207277991668064 0.26508109939240331876 -1.4395667620061836089 -0.41148773370613495048 -0.11163225676613265647 0.70877187713929989954 0.88770745713403753641 -0.62648916812055066572 -1.3778470512720835117 -1.3751940003131735146 -1.3781308107101322147 0.71119770818921812516 0.62913600220692711407 0.64519190393171998998 -0.12445214759658723702 -0.94661592353540158218 0.31225366574573615308 0.33729268761107833452;-1.0284520763059294968 0.17500133604687273525 -0.38493202155636951911 0.60741636445766433727 0.61261240647385317715 0.27725076037341184199 -0.81284581296653413141 0.3642720109761345415 0.4944350209413216346 -0.2500265441130534172 -0.30793938394966763328 0.28594583376697868538 0.28955601500910177482 -0.83318915502874646428 -0.11755373451833361909 1.0186670466009291047 0.523748928326090879 0.58693815818126260364 0.652771023548828766 0.60748173095021118506 0.49232368328698333793 -0.2399865843778102581 -0.34225957628292313917 0.60265719607173806605 -0.90585152318449591036 1.9620842520012178323 1.7819136497490382087 0.90173089276019924299 -0.3493271201769123091 -1.5027473363954235719 0.33073983285871572102 -0.73198511219343209699 -0.64202728409594800318 -0.54781962665897887543 1.2373448729589329176 0.19887244950221300011 1.3736606888815761085 0.08413857480617351059 2.2152380182674411557 -0.1972361000713790391 -1.7131587392583931262 -0.60243706677750952228 0.37111194544214037849 1.1276661004153654133 0.44323685486559882829 0.34010546405427311001 0.99366151317105311236 -0.63182776311806654324;-0.84124372446719253293 0.11375860151746643167 -1.104664970265192725 -0.67525877070683115733 0.4525208905927400882 0.98395498076247522867 -0.51887018902049708569 0.0052206223267935499693 -0.2678852781288550422 0.57071546675161333173 0.028385727127719417862 -1.8082657324028394985 -1.3667410215098387827 0.67852640238563821651 -1.1380815014549023889 0.37999006874000479383 0.60574891955833909396 -0.52532449976631945265 -0.33658415087207727012 -0.16116795714526988004 -0.67369466269568900607 -1.1800235304595954045 0.36270973459024186125 0.073672610073316338597 0.85098109335081906224 0.23597321214304819992 2.0247730476547891598 -0.27373399098981276989 0.14376856168826776528 -0.53531465152150214948 -0.024490527445620059732 0.54625248762355660404 -0.65240594804504792315 0.074891643345134192855 -1.4817598203397512879 -0.019215566673666278907 -0.36196227277447828863 -0.6389331659904380345 1.0851492233463897463 -0.45883531025418622384 -0.23764118445792153933 0.85143128689916214302 1.7967328759784122472 0.55133367442696878946 0.95408153424924435626 0.21880054945284052592 1.7863050778502547189 -0.81229040594035029077;0.15477411536325538788 1.2934573395398789586 -0.54098695814024067019 0.95874230084253198036 0.2104162655761803169 0.87406420862812761463 2.2431287187168593711 -0.60057628802539331225 0.7762004934733778283 -0.95706085217309744273 -0.54758408769093669388 -0.59406727860967023513 1.5201190555664967352 0.5743307239133023101 0.20365746806128723345 0.85652698616241929042 0.45634213734098710846 0.49944645550474064954 0.95790433620438752982 -0.78578410463150671905 0.30974578449742090624 -0.37234811649091748009 -0.3076976412394346605 0.40932882193746378263 0.4475720391707842527 -1.59962461769984432 0.67199823473077180402 -0.70314315703786478551 0.66850021726077824002 -0.93355888807572906529 0.75524197370443235666 0.53301877826947596795 1.0183446731285992204 0.76819857459022489188 0.37376238037613312981 0.95723862076090870943 -1.7243741001263701573 -0.19693027521557512904 0.47390815622072773872 1.2505435972071936579 1.5057028674327321838 0.624307026022161482 -0.19092602849143641697 -0.27165630036232957245 0.046125133078547195242 -0.00067031053828678203478 1.532715159923724535 0.96436912738985725024;-0.80175732946766331555 1.5560857901020526128 -0.4325295559965128267 -0.28189676314634376508 -0.6650066810651987792 -0.66502745049949874012 -0.046567681457273663037 0.93481436420886698802 -0.15356634196667404146 0.53374993676786552932 0.75724228706792162669 0.73062541618242127228 -0.4532912794792796074 -1.0221185314796430443 -0.66202435123345182433 0.70662489578445253358 -0.5971388749448852673 0.065493909129409721981 -1.0771453555703347504 -0.96137069293898547162 0.78195487874450197996 -1.6812094614453774177 -0.47311794139792484604 -0.80365572216648273329 -0.79079409601795180862 -0.34222254013279729268 -0.5298146508136921673 0.343180558685788617 -1.2063377325611805979 0.095392170983885166136 -1.8912987051112630787 -0.60196246607539383167 0.59435048074968277465 -0.11342270861748970923 0.42934789818264873507 -1.1038112331787404141 -0.65947331180912005522 0.39034599019241233986 1.5347930618337821684 1.2119979479425013746 0.88324303697374773048 0.70297847811520630668 -0.78674751969686906872 -2.2763571779960960484 0.71802160969177875049 0.39932088551197214565 0.15524349153486180497 1.7325474131857749871;1.2765498337062506362 -0.46214877223685418839 -1.0110195500558842863 -1.3164085480516520832 -0.073589006378529650543 0.82081150845567252272 -0.48900579462085386195 0.88583007975650240873 -0.40115834170350228582 -1.4815261956977883173 -0.95954444553922180194 0.37699907447609520839 1.3832483643645754334 0.40704484587392159023 -0.087767080354475515702 -1.2938887865937951371 0.73046232681044853674 0.36479532944833431563 0.63545153095116324593 1.0776267055021064856 1.5957306471501531142 -0.085699955936763383413 -0.88659430548824025298 -1.132965310880552412 -0.30505860228912329291 0.05196773557849915931 -1.0104079620642389958 0.43538071784331672243 -0.80099303420482048654 1.3198789602755942596 -0.53987883822781412846 -0.15736987903396817967 -0.83033154709129852744 0.11965356949584057822 -0.66051024846831973836 -0.48596730384813802139 1.0114957541679479025 -0.91297883912440869203 -1.7600716483411726898 2.2216973048686767811 1.5238010725017132607 -0.059100439200379821514 -1.884924109142123827 -1.282996355010313394 0.035443999068368148286 0.79888637150881058879 -0.79815637782790249677 -0.47538604147959651058;-1.3312667254320720289 0.44791576171151048502 1.1312917382541307632 -0.39024891387879884208 -0.55884608263262314232 -0.31338235252167589984 -0.97079676162355987845 0.45867253481344949506 -0.30543487310004774349 -1.3810758665483067187 1.0116016028901446688 0.69794119831869261272 -0.58000056143955591725 -0.26997215378798422591 -0.41480997233371569299 -0.93819452769882716314 0.42469615995973442057 0.1930639650121359352 -0.011496131758412631019 0.13697146122842634997 -1.1561721185107989296 0.054699294321365048155 0.18027502297497652317 0.56020291678519507084 -1.0890592862769887805 -0.71851463846217944464 0.034310391612980037368 0.98542796606081128896 -0.68532107236080130885 -1.1631508523249129983 0.4103251450262564437 -1.1083598334507613892 -0.54582584210870599417 0.23751641287243252521 0.88913413452739542553 -0.79923000404826072263 0.79005458505954284654 -0.89403618979939170064 -0.39367785121911813562 -0.77855369521850126269 1.5131197807887932782 -0.39346396688764967431 0.081519205053640228509 -0.083054061807884993485 -1.5661667809232311388 0.66996634456788006773 0.44544057369180756201 1.232961181244626836;0.053067619689842762676 -0.014166190278300095154 0.19361757582372646214 -0.48374714704251209341 -0.65332292450395013095 0.39777482908662609162 1.1149424170499604436 0.83179046067906559081 0.5344897998876235734 -1.0784490806164457322 0.99369124901984229314 0.20551742248524595968 -0.6114685610201573418 0.071097167267695562942 0.41359022937579636992 -0.49749925884162449208 -0.11243714262954078442 0.48143702975025082225 -0.87793271454061949655 -0.223274798285871795 0.55533682405138939941 1.3147984458039208011 0.47051433010770582488 0.17332891538818723243 1.3458166056269464939 -1.5030143927259387304 0.21484861179562872446 1.0847451826878204972 0.31541762181881466409 -0.41438668336687622951 2.0974747616036344411 0.8642780399340159736 -0.75768282243176066082 1.1826176690224572408 -0.90676100248767199652 -0.39563479410658836111 0.34669977016724179419 0.2277150424415539387 -0.75167811786594129764 -0.15198710453511479757 -1.2826747251309644771 -0.67319431892131709194 -0.38751064261340040229 0.6294318472970097389 1.1682216781280601037 0.21084942961464861466 -1.2874201238221727461 -0.7438049641573953874;1.3172463688513869062 -0.048607728338502652343 0.32169425580396954212 -0.89811858453261739221 1.0672095025099039844 0.46927764573819458205 0.38320230164724577993 0.28467127045701073884 -0.8495927095467723511 0.75237002185874501947 0.29812742766916328074 1.2096655005662557691 -0.78646620239622200277 0.53397693191505035681 -0.68059132516091835896 0.22939420036122512569 0.83992086566792389934 -0.027561522425345808679 -0.6088117651601838709 -0.56264601152044879662 -0.86791684509886990462 -0.061457256215773095609 0.89442116603057864044 0.81728919946710887334 1.1980790043980060755 -0.56762917672394141988 0.79067040424130119458 0.19517350633865712672 1.0614918305881901883 -0.68308775035637858686 0.52253858249750084752 -0.089116978676292937789 1.4688865715959587011 -0.65287117849082876297 0.93913329433855607942 -0.084515921544288094558 -0.57837307308452534649 0.49852999849494977758 -1.1260388740059856794 -1.6861956322039930445 -1.092529751939060656 -0.95431835834009504094 -0.047951411518474991447 -0.75277363601803248816 0.7424863816858554566 -0.037321805078379989562 -0.86114433862044759138 -1.0348612455923635878;0.38104414594114832671 1.1710964755376267465 -0.55721283369444685185 0.18295642220948998835 -0.37330630517962160031 0.6284877939021602522 -1.6563654148282860312 -0.18588359835539122744 1.4649281799116231628 -0.01109961456465241407 0.62367016610266368115 1.7138716994231402158 0.24407573201923898898 0.87184587995329920762 0.23590590254591911612 0.89961889954846141482 -0.67723358173900316537 -0.8823557795101159007 0.018141772926619802175 -0.043492329110851171703 -0.78609276969939778645 -0.72897704623519632428 0.62172207933486489662 0.89037895761553154106 0.024114768079809480172 -1.5927425526824654511 -1.5514613705348563322 0.50591212853751654777 -1.3354557194058560565 -0.87508637827648216856 0.16500216477381554614 -0.31676559192514186503 -1.2639850124260174624 -0.57411275226609292943 -1.698965818905152414 0.61475890904814867177 -0.062272237294072198266 -0.14353186143021018362 -0.85612045956464766228 0.71865646212616984823 -0.6241816696321801361 0.40851971796212832588 -1.1403357747156042112 1.3020205341533690468 0.96073370419515746743 0.89664658997786050865 -1.1678636404007816108 -0.23678707423662503917;0.7069887159061147841 -1.2147960260822214806 0.37402409266133213039 0.62572763846799461795 -1.271339355791014647 0.050964445946693331946 0.018941679179442637293 -0.38674639766652679773 -1.1117355033446028045 -0.1634485117802844667 -0.43960954071284802369 0.085300812382153159974 0.73404338080126108057 -0.085525548594313535733 1.4987795490510951169 -0.024350005280385483147 0.035173849869885136232 0.61685578529290530092 -0.30814749041993255707 -1.0069134291002523884 -0.11482983710496230678 0.99102389745056740367 -0.61130714583547085539 -0.38372963447084845745 0.061077176474595873401 1.6186439650230941556 -0.55889139890000594235 -0.85229089138485225607 -0.14921711467265255657 -0.23657495305147441256 1.2968595013722177267 -0.050337060537770345059 -0.1378507247943452918 -0.5404709009292215649 0.90408186605080353981 -0.6003034571016570009 1.6787210717119338543 0.98279630612233137565 1.2031139041066523099 -1.5344592174450226718 -1.5558868694847425296 0.46740660917854426337 -0.38175363244555959863 0.21783549447836716983 0.12161055154086361507 -0.30752845567470810106 -1.4565228809957262435 0.72706419025437163395];
  
  % ===== SIMULATION ========
  
  % Dimensions
  Q = size(x1,2); % samples
  
  % Input 1
  xp1 = mapminmax_apply(x1,x1_step1_gain,x1_step1_xoffset,x1_step1_ymin);
  
  % Layer 1
  a1 = tansig_apply(repmat(b1,1,Q) + IW1_1*xp1);
  
  % Layer 2
  a2 = softmax_apply(repmat(b2,1,Q) + LW2_1*a1);
  
  % Output 1
  y1 = a2;
end

% ===== MODULE FUNCTIONS ========

% Map Minimum and Maximum Input Processing Function
function y = mapminmax_apply(x,settings_gain,settings_xoffset,settings_ymin)
  y = bsxfun(@minus,x,settings_xoffset);
  y = bsxfun(@times,y,settings_gain);
  y = bsxfun(@plus,y,settings_ymin);
end

% Competitive Soft Transfer Function
function a = softmax_apply(n)
  nmax = max(n,[],1);
  n = bsxfun(@minus,n,nmax);
  numer = exp(n);
  denom = sum(numer,1); 
  denom(denom == 0) = 1;
  a = bsxfun(@rdivide,numer,denom);
end

% Sigmoid Symmetric Transfer Function
function a = tansig_apply(n)
  a = 2 ./ (1 + exp(-2*n)) - 1;
end
